svm_type c_svc
kernel_type rbf
gamma 0.125
nr_class 2
total_sv 88
rho 0.678656
label 5 4
nr_sv 48 40
SV
0.5 0:0.225866 1:0.338883 2:-0.348172 3:-0.290362 4:-0.181244 5:-0.133037 6:-0.29776 7:-0.193128 8:-0.2049 9:-0.363941 10:0.0206456 11:-0.0552743 12:0.282901 13:-0.794205 14:-0.538685 15:0.556265 16:0.381344 17:0.221633 18:0.177472 19:-0.063901 20:0.0159746 21:0.605248 22:0.112256 23:0.976633 24:0.307545 25:-0.322793 26:0.281523 27:0.618177 28:0.341296 29:-0.488137 30:-0.22753 31:-0.0871113 32:-0.287649 33:0.00863597 34:0.212712 35:0.0769585 36:0.187059 37:-0.373247 38:0.307158 39:-0.56486 40:0.158425 41:-0.816166 42:0.085353 43:-0.0981556 44:0.383512 45:-0.566595 46:-0.176186 47:0.3293 48:-0.403965 49:0.383468 50:0.782306 51:-0.569432 52:-0.650589 53:0.26296 54:-0.797091 55:-0.174287 56:-0.0244205 57:0.756955 58:1 59:0.769597 60:-0.0832872 61:0.100474 62:-0.248074 63:-0.256627 64:0.603237 65:-0.021588 66:-0.292672 67:-0.122562 68:-0.244111 69:0.39898 70:0.824081 71:-0.853759 72:-0.00967493 73:-0.430649 74:0.585244 75:0.0418884 76:0.0864462 77:-0.0902153 78:-0.771905 79:0.172485 80:-0.600633 81:-0.547119 82:-0.0913584 83:0.245778 84:0.161543 85:0.288553 86:0.0256353 87:-0.529207 88:-0.298165 89:-0.530805 90:-0.231447 91:0.368686 92:-0.0719318 93:0.431161 94:0.429688 95:0.0163422 96:0.462931 97:0.711628 98:0.248364 99:-0.346421 100:0.0981935 101:0.371999 102:0.084346 103:0.556673 104:0.21581 105:-0.674857 106:0.28563 107:-0.00433037 108:0.666717 109:-0.0309865 110:0.499881 111:-0.981243 112:0.471824 113:0.0688974 114:0.285032 115:-0.749666 116:0.347883 117:0.0412337 118:0.389836 119:-0.0576969 120:0.313118 121:-0.553878 122:0.467098 123:-0.288206 124:0.609524 125:0.313735 126:0.556921 127:0.438179 
0.5 0:0.11667 1:1 2:-0.464343 3:-0.166208 4:-0.214869 5:-0.00885735 6:-0.333124 7:-0.513446 8:-0.389888 9:-0.226326 10:-0.52939 11:-0.203111 12:-0.0682959 13:-0.0368091 14:-0.664718 15:-0.334695 16:0.0730731 17:0.643638 18:0.19176 19:-0.594716 20:-0.131003 21:-0.578033 22:0.588308 23:-0.143494 24:0.628977 25:-0.232374 26:0.174909 27:-0.191108 28:-0.0733305 29:-0.201511 30:-0.662399 31:-0.26569 32:0.273287 33:0.378712 34:0.10645 35:-0.17386 36:0.10048 37:-0.090526 38:0.234561 39:-0.0963478 40:-0.887513 41:-0.173548 42:1 43:0.198686 44:0.78183 45:0.398205 46:0.325969 47:-0.0257074 48:-0.554742 49:0.294745 50:-0.143821 51:-0.337856 52:-0.578649 53:-0.878613 54:0.547872 55:-0.336453 56:0.00888948 57:0.259166 58:-0.200237 59:0.850816 60:0.126043 61:-0.310733 62:0.149603 63:1 64:0.693261 65:-0.201976 66:0.93099 67:0.160318 68:-0.0466006 69:-0.0375036 70:0.0256984 71:-0.847777 72:-1 73:0.358176 74:0.8209 75:0.364248 76:-0.191076 77:0.298468 78:0.573897 79:-1 80:1 81:-0.136364 82:-0.0264016 83:0.894827 84:0.910303 85:-0.873008 86:-0.500272 87:-0.467609 88:0.117997 89:-0.502292 90:1 91:0.444519 92:0.736764 93:-0.343107 94:0.0467367 95:-0.88937 96:0.157223 97:0.797761 98:0.575668 99:-0.259382 100:0.839963 101:-0.324183 102:1 103:-0.440017 104:0.356831 105:0.177963 106:0.195399 107:0.486195 108:0.755393 109:1 110:0.280827 111:0.215657 112:0.562666 113:-0.616168 114:-0.0698873 115:-0.0851338 116:0.715755 117:-1 118:0.368259 119:-0.14902 120:0.337148 121:-0.0905241 122:0.668501 123:-0.329981 124:0.475965 125:-0.0416122 126:0.822776 127:0.42722 
0.5 0:0.166156 1:-0.0509305 2:-0.45419 3:-0.211343 4:-0.271266 5:-0.0565367 6:-0.0391387 7:-0.356845 8:-0.405636 9:0.140744 10:-0.277341 11:-0.00601479 12:-0.654994 13:0.154308 14:-0.0163532 15:-0.189448 16:0.949345 17:0.380372 18:0.348909 19:-0.26701 20:-0.259404 21:-0.542087 22:0.152065 23:0.0151348 24:-0.00294562 25:-0.857225 26:0.712029 27:-0.61513 28:0.541714 29:-0.185167 30:-0.605233 31:-0.526315 32:0.127748 33:-0.290065 34:0.40415 35:-0.741784 36:0.181358 37:0.132925 38:-0.282688 39:0.428958 40:-0.0163839 41:0.9844 42:-0.922166 43:0.021919 44:0.456105 45:0.156036 46:-0.183908 47:-0.183707 48:0.317973 49:0.16571 50:-0.0915069 51:-0.511808 52:-0.530703 53:0.725067 54:-0.803448 55:0.556651 56:-0.921662 57:1 58:-0.744171 59:0.140326 60:-0.316357 61:0.586124 62:-0.139356 63:0.0809082 64:0.54634 65:-0.973289 66:-0.435889 67:0.820334 68:0.464851 69:-0.319696 70:-1 71:0.927674 72:-0.450853 73:-0.404932 74:-0.682983 75:0.505474 76:0.383077 77:0.276949 78:0.00173191 79:-0.0965364 80:-0.587903 81:-0.00234159 82:0.0990889 83:-0.763571 84:0.450728 85:1 86:0.213784 87:0.0606045 88:-0.902431 89:1 90:-0.394913 91:0.365361 92:-0.483216 93:0.413267 94:-0.751384 95:0.317216 96:-0.571194 97:0.210618 98:0.0428118 99:0.247823 100:0.044975 101:0.469969 102:-0.675179 103:0.745916 104:-0.3347 105:0.338091 106:-0.513431 107:0.164887 108:-0.0555871 109:0.375258 110:-0.300606 111:0.621547 112:0.104403 113:-0.22535 114:0.0478785 115:1 116:-0.218103 117:0.707034 118:-0.081856 119:0.129046 120:-0.0115058 121:1 122:0.00807384 123:0.537955 124:0.0428701 125:0.678574 126:-0.15504 127:-0.470423 
0.5 0:0.155507 1:0.00685602 2:-0.39829 3:-0.211573 4:-0.314733 5:-0.10823 6:0.186148 7:-0.0345875 8:-0.166236 9:-0.692781 10:-0.736884 11:-0.843231 12:0.430639 13:-0.185365 14:1 15:0.481674 16:0.676496 17:-0.338069 18:0.379905 19:0.447503 20:0.533422 21:0.202379 22:-0.715343 23:0.413062 24:-0.967168 25:0.571653 26:0.49758 27:0.3251 28:-1 29:-0.299755 30:0.397593 31:-0.410567 32:-0.990568 33:-0.0733638 34:-0.330314 35:-0.325185 36:-0.410012 37:0.473596 38:0.144649 39:-0.350155 40:-0.193038 41:0.0527977 42:0.021002 43:0.938485 44:0.0622674 45:0.516575 46:-1 47:-0.331831 48:-0.5501 49:-0.639439 50:0.0583759 51:0.0480564 52:-0.574504 53:-0.537327 54:-0.352042 55:0.437507 56:0.967318 57:0.416299 58:0.490418 59:0.744637 60:-0.94199 61:-0.0895129 62:0.282596 63:0.340083 64:-0.193577 65:0.145262 66:-0.957185 67:0.667284 68:-0.247787 69:0.261638 70:0.721132 71:-0.579272 72:-0.797793 73:1 74:-0.265136 75:-0.0187839 76:0.613243 77:-1 78:-0.204013 79:0.326539 80:0.680152 81:0.416048 82:-0.115616 83:0.838757 84:-0.897787 85:-0.338123 86:-0.0994241 87:1 88:-0.0101768 89:0.284635 90:-0.687226 91:0.589897 92:-1 93:0.790813 94:0.0157855 95:0.850741 96:0.0433807 97:0.778244 98:-0.304824 99:0.764612 100:0.154341 101:0.80321 102:-0.230583 103:-0.0170176 104:-0.394337 105:0.785466 106:0.0117272 107:-0.130909 108:-0.0679057 109:-0.0679432 110:-0.189527 111:-0.562802 112:0.0980484 113:-0.0894703 114:-0.299226 115:-0.296466 116:-0.0521502 117:1 118:-0.129243 119:0.0870387 120:-0.216221 121:0.367957 122:0.0626986 123:0.0110198 124:0.341529 125:0.732153 126:-0.14392 127:-0.815455 
0.5 0:0.148071 1:0.0421156 2:-0.424146 3:-0.193281 4:-0.274577 5:-0.190731 6:0.0230081 7:0.148227 8:-0.318212 9:-0.406755 10:-0.691186 11:-0.341386 12:-0.409275 13:0.093791 14:-0.225977 15:0.0166253 16:-1 17:-0.608165 18:0.203135 19:-0.722629 20:-0.197325 21:-0.387068 22:0.865663 23:0.833599 24:0.775714 25:0.318593 26:0.520188 27:0.0860694 28:0.53932 29:-0.046256 30:0.512722 31:-0.365846 32:-0.142156 33:0.59658 34:-0.861786 35:1 36:0.307405 37:0.385947 38:-0.346665 39:-0.440161 40:0.70468 41:-0.811259 42:-0.789803 43:-0.331107 44:0.145863 45:-1 46:0.370446 47:0.432212 48:-0.131034 49:-0.117579 50:0.6468 51:-0.535433 52:-0.578096 53:-0.0883954 54:-0.469031 55:0.08964 56:-0.1819 57:-0.214426 58:-0.0101509 59:-0.275617 60:0.304499 61:0.482203 62:-0.145461 63:0.603757 64:0.242382 65:-0.506037 66:-0.830147 67:0.200778 68:-0.109343 69:0.0707442 70:0.151594 71:0.822361 72:0.178247 73:0.346967 74:-0.310658 75:0.0486586 76:-1 77:-0.548477 78:0.683823 79:-0.393246 80:-0.4932 81:0.983078 82:-0.0177342 83:0.672069 84:0.421795 85:0.312133 86:-0.668219 87:0.666139 88:-0.75753 89:-0.456729 90:-0.136708 91:0.510202 92:-0.363098 93:0.614516 94:-0.382679 95:-0.0476769 96:0.330979 97:0.261109 98:-0.335176 99:1 100:0.904076 101:-0.293909 102:-0.258934 103:0.468867 104:0.0393328 105:0.229024 106:0.37478 107:0.389253 108:-0.148049 109:-0.373655 110:0.393859 111:-1 112:-0.0734251 113:1 114:0.119244 115:0.0237714 116:0.0478684 117:-0.745535 118:0.228474 119:-0.283572 120:-0.110015 121:-0.0783838 122:-0.00912719 123:1 124:0.0511519 125:-0.972291 126:0.319667 127:1 
0.5 0:0.169146 1:0.232125 2:-0.438583 3:-0.22367 4:-0.223614 5:-0.0500473 6:-0.0500147 7:-0.119282 8:-0.122783 9:-0.283543 10:-0.268517 11:-0.074763 12:-0.313402 13:-0.0520251 14:0.423958 15:0.365469 16:-0.368705 17:0.0323833 18:0.442912 19:0.438412 20:0.671493 21:0.330126 22:-1 23:-0.110924 24:-0.863294 25:0.345713 26:-0.000854484 27:0.39742 28:0.950545 29:0.0655602 30:-0.658928 31:-0.295425 32:-0.773345 33:0.0158903 34:0.106404 35:0.236118 36:0.671695 37:-0.00309428 38:0.105514 39:-0.134059 40:-0.454552 41:-0.204362 42:0.865385 43:-0.839617 44:0.346226 45:0.274225 46:0.637127 47:-0.564104 48:-0.358503 49:-0.570669 50:0.573911 51:-0.323257 52:-0.479408 53:0.0636369 54:0.536677 55:0.669194 56:0.227922 57:0.25421 58:-0.060472 59:0.315635 60:-0.370755 61:0.0554484 62:0.452394 63:-0.20234 64:-0.386269 65:0.269667 66:-0.726723 67:-0.189634 68:-0.416277 69:0.469459 70:0.529627 71:0.79184 72:0.354832 73:0.00266991 74:-0.511651 75:-0.141123 76:-0.248692 77:0.827237 78:-0.0990904 79:0.00720765 80:-0.212725 81:0.181929 82:-0.0318653 83:0.663129 84:-0.580586 85:-0.191276 86:-0.0230954 87:-0.466765 88:-0.523871 89:0.0813293 90:0.373149 91:-0.323974 92:0.264735 93:-0.237181 94:-0.600844 95:0.29505 96:-0.252985 97:0.520167 98:-0.0945301 99:-0.424441 100:0.451813 101:-0.0912061 102:0.0903486 103:0.0490848 104:0.172613 105:-0.204719 106:0.107763 107:0.440466 108:0.11513 109:-0.520103 110:0.264733 111:0.653689 112:0.0353147 113:0.430237 114:-0.0707153 115:-0.168148 116:0.326209 117:-0.840034 118:0.0306281 119:-0.889633 120:-0.00341163 121:0.101448 122:0.259129 123:-0.171 124:0.340128 125:0.199365 126:0.178169 127:0.661267 
0.5 0:0.140042 1:0.24094 2:-0.424404 3:-0.190639 4:-0.448802 5:-0.0810863 6:-0.258459 7:-0.07968 8:0.0957723 9:-0.413827 10:0.0780938 11:-1 12:-0.329687 13:-0.138891 14:-0.398783 15:0.187193 16:0.0818774 17:0.110481 18:0.15528 19:-0.184624 20:0.83864 21:0.667335 22:0.0342787 23:-0.345666 24:-0.181002 25:-0.3781 26:0.0524648 27:-1 28:0.75841 29:0.613047 30:-0.337056 31:-0.412265 32:0.113225 33:-0.116907 34:-0.720473 35:0.288897 36:0.42564 37:-0.0603624 38:0.4523 39:0.263555 40:-0.640299 41:0.511383 42:-0.146156 43:-1 44:0.738781 45:1 46:-0.049871 47:0.561204 48:-0.212774 49:0.667985 50:1 51:-0.715156 52:-0.113697 53:0.79328 54:-0.403341 55:1 56:1 57:0.165437 58:-0.537155 59:0.109254 60:0.153956 61:0.536008 62:0.36192 63:0.10065 64:-1 65:-0.159898 66:-1 67:-0.34762 68:-0.583118 69:-0.254182 70:0.456583 71:-0.835662 72:-0.250823 73:-0.310265 74:-0.935856 75:-0.262967 76:0.349859 77:1 78:-0.628704 79:0.334504 80:-0.259559 81:0.820138 82:0.328188 83:-0.046969 84:0.171493 85:-0.362736 86:-0.402462 87:-0.335552 88:-0.312675 89:0.0164307 90:0.457577 91:-0.303392 92:0.345263 93:0.260436 94:0.205491 95:-1 96:0.367598 97:0.231499 98:-0.242163 99:-0.0505241 100:0.303414 101:-0.674454 102:-0.0592568 103:0.467651 104:0.114779 105:-0.158268 106:0.539324 107:0.152719 108:0.421743 109:0.375896 110:-0.0428936 111:-0.958623 112:0.464247 113:-1 114:0.116367 115:-0.245265 116:-0.067478 117:-0.073306 118:0.0465276 119:-0.410655 120:0.115715 121:0.606589 122:0.315581 123:-0.18764 124:0.516142 125:-0.795076 126:0.230581 127:0.0460691 
0.5 0:0.13881 1:0.374143 2:-0.456665 3:-0.175275 4:-0.565094 5:0.00649374 6:-0.389134 7:-0.266803 8:-0.0859313 9:-0.346315 10:-0.16066 11:-0.305036 12:0.022355 13:0.278429 14:-0.338975 15:0.019648 16:0.323542 17:-0.153538 18:0.500817 19:-0.315849 20:0.262179 21:0.269262 22:0.516394 23:0.166629 24:-0.207501 25:0.13461 26:0.293256 27:0.443383 28:0.116141 29:0.0987919 30:0.458151 31:-1 32:0.583565 33:-0.0315779 34:-0.0864983 35:-0.704312 36:0.0495073 37:-0.484993 38:1 39:1 40:-0.0776088 41:0.716332 42:-0.662057 43:0.854536 44:-0.0939374 45:0.526794 46:0.00428515 47:0.362368 48:-0.19751 49:-0.0103313 50:-0.682366 51:-0.781405 52:-0.16085 53:-0.547662 54:1 55:0.784659 56:-0.44831 57:-0.258776 58:-0.137821 59:-0.273733 60:0.0390405 61:0.104362 62:0.0500287 63:0.274704 64:0.459856 65:0.442737 66:1 67:-0.59711 68:-0.133093 69:-0.238924 70:0.569862 71:-0.341267 72:0.244479 73:-0.142012 74:0.997013 75:-0.652689 76:-0.754753 77:0.121703 78:-0.412727 79:-0.0178847 80:0.0712608 81:0.176548 82:0.119251 83:0.769944 84:0.556094 85:-0.133421 86:0.29268 87:-0.721438 88:-0.831404 89:-0.134543 90:-0.157625 91:-0.00599512 92:-0.0655568 93:-0.472549 94:-0.303258 95:0.04402 96:-0.0129704 97:0.129769 98:0.277154 99:0.0851417 100:0.783216 101:-0.0533705 102:-0.117311 103:0.802824 104:0.0505282 105:-0.043701 106:0.0775187 107:0.13036 108:0.455886 109:0.6841 110:0.257446 111:-0.0529119 112:0.208661 113:0.448925 114:0.193029 115:-0.111612 116:0.386832 117:-0.0390477 118:0.453635 119:-1 120:0.457966 121:-0.0841044 122:0.435079 123:-0.003361 124:0.492 125:0.227633 126:0.461769 127:0.515534 
0.5 0:0.145742 1:0.22429 2:-0.44925 3:-0.21129 4:-0.198047 5:-0.0189727 6:-0.303932 7:-0.257232 8:0.111205 9:-0.515214 10:0.266356 11:-0.24354 12:-0.164603 13:-0.233578 14:-0.0344539 15:0.310741 16:0.479918 17:0.718863 18:-0.309089 19:-0.499219 20:0.537038 21:0.551456 22:0.095284 23:0.681023 24:1 25:0.376601 26:0.385236 27:0.728586 28:-0.0946101 29:-0.215516 30:0.234971 31:-0.242829 32:-0.19674 33:0.315916 34:-0.57684 35:-0.0608447 36:0.208452 37:0.0943091 38:0.0690794 39:0.379024 40:-0.204617 41:-0.798124 42:0.100208 43:0.133683 44:-0.00771143 45:-0.913309 46:0.357639 47:-0.35176 48:0.381006 49:-0.331514 50:0.0790555 51:-0.690595 52:-0.390592 53:0.344106 54:-0.151133 55:0.0556058 56:0.295593 57:0.0714442 58:-0.130225 59:0.317276 60:-0.34116 61:0.149683 62:0.10594 63:0.141402 64:-0.00113794 65:0.0131723 66:-0.0519842 67:-0.490603 68:-0.186299 69:-0.0997822 70:-0.0147111 71:-0.438867 72:0.971356 73:0.202674 74:-0.065436 75:0.515189 76:-0.60942 77:-0.292225 78:0.104456 79:0.465057 80:-0.876726 81:-0.240357 82:-0.158675 83:-0.825183 84:0.35713 85:0.85235 86:-0.165782 87:-0.336759 88:-0.431579 89:0.348431 90:-0.683355 91:-0.793398 92:0.339027 93:1 94:0.0383281 95:0.425063 96:-0.593181 97:0.598962 98:-0.318539 99:0.85551 100:-0.0147492 101:0.0469606 102:-0.101366 103:-0.664531 104:-0.11926 105:1 106:-0.244047 107:-0.179592 108:0.0880884 109:-0.0793765 110:0.24504 111:0.18059 112:0.251266 113:0.582538 114:0.18745 115:-0.369967 116:-0.109308 117:0.459924 118:0.122924 119:0.49272 120:-0.204832 121:0.0211442 122:0.213066 123:-0.659928 124:0.24831 125:0.533611 126:-0.0304906 127:-0.173476 
0.5 0:0.16554 1:-0.0029383 2:-0.40823 3:-0.254765 4:-0.256075 5:-0.00206516 6:0.0264015 7:0.104228 8:-0.286265 9:-0.352332 10:-0.224711 11:0.206351 12:0.97478 13:0.280641 14:-0.801874 15:0.532388 16:-0.76901 17:0.452568 18:-0.395221 19:-0.139543 20:-0.222311 21:-0.331548 22:0.803763 23:-0.701674 24:-0.677643 25:0.212742 26:0.399349 27:0.727794 28:-0.472199 29:-0.0166307 30:-0.00564759 31:-0.303603 32:0.267828 33:-0.680661 34:0.723034 35:-0.0901364 36:-0.250001 37:-0.290494 38:0.136671 39:0.327938 40:-0.215532 41:0.187784 42:0.0118036 43:0.204742 44:1 45:0.47489 46:-0.0577347 47:-0.505787 48:-0.330831 49:-0.139585 50:-0.44955 51:0.361707 52:-0.353932 53:-0.03808 54:0.566909 55:0.571214 56:-0.349941 57:0.113113 58:0.39409 59:-0.29921 60:-0.0385953 61:0.515726 62:-0.381498 63:0.477762 64:0.156657 65:-0.670326 66:0.300068 67:0.0255209 68:-1 69:0.180229 70:0.387267 71:-0.269626 72:-0.626904 73:0.284155 74:0.357803 75:-0.467214 76:0.0169007 77:0.365337 78:0.314899 79:-0.023086 80:-0.891755 81:0.165239 82:-0.158636 83:-0.1745 84:0.549149 85:0.607291 86:-0.422064 87:-0.529245 88:-0.677846 89:0.367201 90:-0.590105 91:0.0504821 92:-0.266957 93:0.591932 94:-0.679284 95:0.631951 96:-0.0341169 97:0.258042 98:-0.366892 99:0.43851 100:-0.174344 101:0.455682 102:-0.420879 103:-0.093747 104:-0.247825 105:-0.139767 106:0.0967103 107:0.775546 108:-0.210447 109:0.40018 110:-0.143824 111:-0.663934 112:0.146557 113:0.0236051 114:0.242104 115:-0.0235402 116:-0.110945 117:0.00922769 118:-0.0450724 119:0.362706 120:-0.214076 121:0.827795 122:0.0937958 123:-0.168532 124:-0.0449522 125:0.551234 126:-0.0268543 127:-0.00945216 
0.5 0:0.160904 1:0.169442 2:-0.361023 3:-0.228374 4:0.00361792 5:-0.156776 6:-0.256611 7:-0.352001 8:-0.12804 9:-0.470885 10:-0.252523 11:0.00046541 12:0.297048 13:-0.234399 14:0.183716 15:0.437865 16:0.351822 17:-0.431388 18:-0.191954 19:-0.128768 20:0.0921388 21:0.627301 22:0.463425 23:0.324797 24:-0.0275137 25:-0.149033 26:0.412788 27:0.311032 28:0.0652255 29:0.0520586 30:0.296354 31:-0.402503 32:-0.633311 33:-0.353404 34:-0.0190273 35:-0.340659 36:0.373225 37:0.0748735 38:0.355947 39:-0.335463 40:-0.227424 41:-0.336326 42:-0.171353 43:0.18593 44:0.175028 45:0.307222 46:0.167343 47:-0.00492822 48:-0.206257 49:0.15981 50:0.637301 51:-0.558262 52:-0.971746 53:-0.282633 54:-0.00504703 55:0.366378 56:0.267828 57:0.451679 58:0.0872038 59:-0.354262 60:0.219904 61:0.122057 62:-0.60934 63:0.53081 64:0.204451 65:-0.156239 66:-0.125643 67:-0.408308 68:-0.233083 69:0.0303433 70:0.139255 71:0.310606 72:0.13264 73:-0.469133 74:-0.441225 75:-0.106659 76:-0.377356 77:0.0741112 78:-0.258921 79:0.644339 80:-0.192357 81:0.857332 82:0.102124 83:0.11401 84:0.474511 85:-0.135582 86:0.363553 87:-0.113541 88:-0.529621 89:-0.314278 90:-0.14431 91:0.0463902 92:0.0194291 93:0.556256 94:0.185053 95:0.0320267 96:0.182751 97:0.184072 98:-0.288969 99:0.486491 100:0.346855 101:0.0765066 102:0.187829 103:0.240666 104:-0.0505104 105:0.0674511 106:0.338736 107:-0.165803 108:0.326177 109:0.0682769 110:0.284102 111:-0.616349 112:0.182402 113:0.0264525 114:0.258776 115:-0.418064 116:0.192115 117:-0.180541 118:0.225182 119:-0.510199 120:0.0365164 121:-0.159375 122:0.173835 123:0.0349085 124:0.354661 125:0.106419 126:0.302873 127:0.65796 
0.5 0:0.144073 1:0.029383 2:-0.424254 3:-0.183336 4:-0.254015 5:0.0333007 6:-0.148086 7:-0.146277 8:-0.0213124 9:-0.094771 10:-0.406598 11:-0.0989297 12:-0.179133 13:-0.195559 14:0.204789 15:0.440798 16:-0.0509686 17:-0.354274 18:0.375565 19:0.0128767 20:0.0853596 21:0.571752 22:0.18742 23:0.341054 24:-0.0533115 25:-0.394378 26:0.596972 27:0.0662147 28:0.408212 29:-0.641147 30:0.295157 31:0.280054 32:-0.247906 33:-0.126937 34:-0.456 35:-1 36:0.968357 37:-0.345979 38:0.105223 39:0.0220043 40:-0.578851 41:-0.0889912 42:-0.175933 43:0.000228385 44:0.682862 45:0.0124633 46:-0.319688 47:0.11474 48:0.274149 49:0.519006 50:0.110791 51:-0.130565 52:-0.574816 53:0.0462851 54:-0.745973 55:0.284288 56:-0.110633 57:-0.495032 58:-0.895299 59:0.374043 60:0.488239 61:0.788608 62:0.317123 63:-0.575119 64:0.153622 65:0.664837 66:-0.0844015 67:-0.950279 68:0.60273 69:0.313862 70:0.622338 71:-0.0789668 72:-0.266658 73:0.401274 74:0.308086 75:0.260966 76:0.575532 77:0.553129 78:-0.0939786 79:-0.0373492 80:-0.375344 81:0.710897 82:-0.0407251 83:0.0305967 84:0.0172753 85:0.28094 86:-0.201507 87:-0.640767 88:-0.363804 89:-0.441197 90:-0.280048 91:-0.0607734 92:0.000490665 93:-0.139913 94:0.649187 95:0.166147 96:0.0333254 97:0.0113808 98:0.377337 99:-0.454446 100:-0.139661 101:0.93046 102:-0.173657 103:0.669321 104:0.0209511 105:0.403539 106:0.459223 107:0.339322 108:0.444773 109:0.320246 110:0.589192 111:0.407364 112:0.317027 113:0.20992 114:0.228136 115:-0.0912005 116:0.0861216 117:-0.123399 118:0.0792438 119:0.314154 120:0.303339 121:-0.836836 122:0.370554 123:-0.529691 124:0.541448 125:0.583624 126:0.211009 127:-0.200692 
0.5 0:0.155003 1:0.246817 2:-0.399855 3:-0.200267 4:-0.349699 5:0.0127684 6:-0.160011 7:-0.299421 8:-0.283278 9:-0.385373 10:-0.0670923 11:-0.326022 12:-0.327806 13:-0.554279 14:0.634068 15:-0.151832 16:-0.55276 17:0.485498 18:-0.666329 19:0.508307 20:0.507629 21:0.357416 22:0.406935 23:0.210892 24:0.440207 25:0.523314 26:0.757375 27:0.776703 28:0.840133 29:-0.222401 30:0.460615 31:0.000666545 32:-0.870582 33:-1 34:-0.127962 35:0.116683 36:0.818365 37:-0.35797 38:-0.40389 39:0.513446 40:0.279108 41:0.274403 42:0.753941 43:0.475105 44:0.245388 45:0.00253697 46:0.388895 47:-0.298257 48:0.0735608 49:-0.912587 50:0.281174 51:-1 52:0.155904 53:-0.715782 54:-0.424277 55:0.379137 56:-0.532618 57:0.138284 58:-0.783258 59:0.253954 60:-0.346632 61:0.000420866 62:0.0581221 63:0.257411 64:-0.197117 65:-0.376875 66:-0.557253 67:-1 68:-0.692599 69:-0.40139 70:0.305506 71:0.10294 72:-0.879749 73:-0.693649 74:0.177719 75:-0.404172 76:-0.139415 77:0.220603 78:0.165391 79:0.566732 80:-0.444999 81:0.468732 82:0.264684 83:0.638648 84:1 85:0.491343 86:0.0738107 87:-0.855779 88:-0.349233 89:-0.171033 90:0.0205269 91:0.0349934 92:0.694718 93:-0.476969 94:0.337714 95:-0.455504 96:-0.397458 97:0.957206 98:0.102813 99:-0.8799 100:0.495244 101:0.0655413 102:-0.283662 103:-0.136284 104:0.289056 105:-0.119131 106:0.323962 107:-0.41022 108:0.0140006 109:-0.339469 110:0.273646 111:-0.554681 112:0.256808 113:-0.590604 114:0.304219 115:-0.75691 116:0.0863134 117:0.0974506 118:0.284031 119:0.395923 120:0.250994 121:0.393459 122:0.415204 123:-0.501008 124:0.383909 125:0.419802 126:0.394618 127:-0.747604 
0.5 0:0.145943 1:0.471107 2:-0.465967 3:-0.207419 4:-0.400464 5:-0.203834 6:-0.382982 7:-0.29733 8:-0.204725 9:-0.149885 10:-0.357662 11:-0.0860829 12:0.1461 13:0.108461 14:0.176196 15:0.199305 16:0.181378 17:0.535921 18:0.10461 19:0.760563 20:0.475518 21:0.38325 22:0.890462 23:0.209224 24:-0.120082 25:-0.172027 26:0.464032 27:0.0554075 28:0.0533851 29:0.0681431 30:0.170271 31:0.355637 32:-0.0713037 33:-0.303656 34:-0.284065 35:-0.123687 36:-1 37:-1 38:0.137126 39:0.6165 40:0.912545 41:1 42:0.362268 43:-0.262513 44:0.707079 45:0.695273 46:0.166605 47:0.466114 48:-0.0389897 49:0.117457 50:-0.0895496 51:-0.492971 52:-0.0464275 53:0.89519 54:0.297459 55:0.35568 56:-0.479087 57:-0.297497 58:-0.221551 59:0.269839 60:0.473595 61:-0.156796 62:0.154899 63:0.406467 64:0.272222 65:0.929016 66:-0.257221 67:-0.668124 68:0.452677 69:-0.0266577 70:0.987254 71:-0.462883 72:0.441259 73:-0.29844 74:-0.335746 75:-0.353103 76:0.0542028 77:0.371211 78:0.409861 79:0.257791 80:0.296392 81:-0.10543 82:0.153683 83:0.0554397 84:-0.0546445 85:0.373479 86:-0.0297287 87:-0.428164 88:0.0202978 89:-0.234238 90:0.44476 91:0.558787 92:1 93:0.0569793 94:1 95:-0.603062 96:0.241921 97:0.972473 98:0.187706 99:-0.223767 100:0.893254 101:-0.667672 102:0.445598 103:0.321784 104:0.242559 105:-0.0313886 106:0.423901 107:-0.180774 108:0.752605 109:-0.101677 110:1 111:-0.146627 112:0.922689 113:-0.0515599 114:0.600483 115:-0.427638 116:0.530817 117:-0.122095 118:0.654833 119:0.00770996 120:0.456157 121:-0.0299801 122:0.738866 123:-0.426678 124:1 125:-0.35095 126:0.741142 127:-0.154994 
0.5 0:0.150691 1:0.684623 2:-0.405381 3:-0.207367 4:-0.34915 5:0.0254479 6:-0.136569 7:-0.282038 8:-0.13757 9:-0.457371 10:-0.311503 11:-0.309802 12:-0.352453 13:0.184972 14:0.152019 15:0.270639 16:-0.214473 17:-0.740113 18:-0.368512 19:-0.0268971 20:1 21:-0.0557066 22:0.336162 23:0.336948 24:0.237258 25:0.617177 26:0.218343 27:1 28:0.479416 29:0.195765 30:-0.0726912 31:0.153639 32:-0.149477 33:-0.115131 34:-0.427663 35:0.170865 36:-0.288923 37:-0.390036 38:-0.130198 39:-0.0115611 40:-0.394116 41:-0.239229 42:0.475745 43:-0.332533 44:0.269718 45:-0.0045035 46:-0.281605 47:0.373216 48:-0.244839 49:-0.774763 50:-0.325949 51:-0.631681 52:-0.20306 53:-0.0775214 54:0.817572 55:0.151805 56:0.357869 57:0.687631 58:-0.384034 59:0.663561 60:0.0443441 61:0.617919 62:-0.173942 63:-0.489507 64:0.702364 65:0.0490304 66:0.178845 67:0.568434 68:-0.418295 69:0.0311562 70:0.400022 71:-0.728252 72:0.124394 73:-0.868526 74:-0.715935 75:-0.445143 76:1 77:-0.0499213 78:-0.142485 79:0.21268 80:-0.286575 81:-0.415917 82:-0.0610515 83:0.0446965 84:0.00877617 85:0.14746 86:-0.0874374 87:-0.480003 88:-0.175481 89:0.0685236 90:-0.131538 91:-0.555025 92:0.24755 93:-0.737281 94:0.437182 95:-0.238374 96:0.313256 97:-0.283476 98:0.380375 99:-0.386507 100:0.537766 101:-0.2197 102:0.402726 103:-0.180212 104:0.491446 105:-0.572873 106:0.712572 107:0.142909 108:0.674938 109:-0.0370239 110:0.421025 111:-0.721048 112:0.123491 113:-0.0611086 114:0.401518 115:-0.44775 116:0.465389 117:-0.306195 118:0.316282 119:-0.61701 120:0.392439 121:-1 122:0.410405 123:-0.528044 124:0.723391 125:-0.296199 126:0.528102 127:-0.179628 
0.5 0:0.160669 1:0.164545 2:-0.414113 3:-0.206165 4:-0.32071 5:-0.108122 6:-0.122051 7:-0.426635 8:-0.0639062 9:-0.349926 10:-0.127583 11:-0.114724 12:0.162202 13:-0.0827134 14:0.229601 15:0.162064 16:0.456691 17:0.834848 18:1 19:0.505849 20:0.289494 21:0.285716 22:0.337996 23:0.378351 24:0.0293224 25:0.473245 26:0.323322 27:0.519494 28:0.294699 29:-0.114333 30:0.100668 31:-0.270245 32:0.352435 33:0.378802 34:0.14064 35:0.178944 36:-0.210508 37:0.290338 38:0.2241 39:0.00289311 40:0.142457 41:-0.398028 42:0.478198 43:0.855893 44:-0.0427939 45:0.0364479 46:-0.179741 47:-0.201269 48:-0.148701 49:-0.397284 50:-0.00110118 51:-0.279457 52:-1 53:-1 54:0.140357 55:0.141484 56:-0.137925 57:-0.0596677 58:0.20853 59:0.224143 60:0.22492 61:0.272419 62:-0.331897 63:0.470444 64:0.0104944 65:-0.593853 66:-0.285811 67:-0.113822 68:0.45903 69:-0.493098 70:0.0341943 71:-0.244127 72:-0.742903 73:-0.447648 74:0.922407 75:0.083581 76:0.0894772 77:0.509786 78:-1 79:-0.0292421 80:-0.467502 81:-0.699634 82:-0.381492 83:0.870305 84:-0.231496 85:0.330202 86:-0.445446 87:-0.223785 88:-0.497756 89:-0.338799 90:-0.556915 91:0.411565 92:-0.0972592 93:-0.367238 94:0.0956585 95:0.0875236 96:-0.0472431 97:0.0859652 98:-0.324352 99:0.153948 100:0.221383 101:0.505775 102:-0.00732124 103:0.931925 104:-0.276196 105:-0.416575 106:-0.0465797 107:0.225771 108:-0.0365768 109:0.154746 110:0.148676 111:-0.251727 112:-0.0641156 113:-0.102526 114:-0.0184175 115:-0.0789734 116:0.0344126 117:0.519288 118:-0.09166 119:0.699315 120:0.131642 121:-0.210967 122:0.21329 123:0.258654 124:0.300612 125:0.343544 126:0.130492 127:-0.396211 
0.5 0:0.190905 1:0.301665 2:-0.325834 3:-0.183625 4:0.0363689 5:-0.0890691 6:-0.213223 7:-0.174301 8:0.122616 9:-0.339033 10:1 11:-0.554471 12:0.107543 13:0.262215 14:-0.0280108 15:0.309271 16:0.479043 17:0.678224 18:-0.248113 19:0.224654 20:0.146681 21:0.296483 22:0.36938 23:-0.290805 24:-0.762209 25:-0.29213 26:-0.0928177 27:-0.0930955 28:-0.173836 29:0.0942694 30:1 31:0.537968 32:0.0853245 33:-0.195715 34:0.111268 35:-0.880437 36:0.025299 37:-0.385201 38:-0.519229 39:-0.544047 40:-0.136925 41:-0.555472 42:0.400735 43:0.358316 44:0.0386739 45:-0.365646 46:0.268148 47:-0.133173 48:-1 49:0.306956 50:-0.310449 51:-0.0325886 52:-0.519551 53:0.0304618 54:-0.0555944 55:0.206028 56:0.472005 57:0.175905 58:-0.304898 59:-1 60:-0.126887 61:-0.373394 62:-0.401795 63:0.306993 64:0.254267 65:0.903403 66:-0.734419 67:-0.424015 68:-0.595709 69:-0.213628 70:-0.0326947 71:0.0427205 72:0.259461 73:-0.284606 74:-0.850143 75:-0.542288 76:-0.180257 77:0.104238 78:-0.0218427 79:0.1353 80:-0.526543 81:0.0333211 82:-0.303895 83:0.125427 84:0.360428 85:0.46209 86:0.127646 87:-0.151208 88:-0.350284 89:-0.952879 90:-0.228498 91:0.462764 92:-0.289127 93:0.627659 94:0.431877 95:0.167073 96:-0.154989 97:-0.0434752 98:0.0256542 99:0.0413457 100:0.591362 101:-0.401263 102:0.24111 103:0.0821002 104:-0.021988 105:-0.525194 106:0.453841 107:0.13394 108:0.161497 109:-0.338367 110:0.0730364 111:-0.907734 112:0.336926 113:-0.134865 114:0.509813 115:-0.229841 116:0.106989 117:-0.0694165 118:0.330677 119:-0.500491 120:0.244853 121:0.118994 122:0.333041 123:-0.261541 124:0.329362 125:0.19789 126:0.419123 127:0.412931 
0.2087460095438587 0:0.132819 1:0.390793 2:-0.458139 3:-0.191309 4:-0.366889 5:-0.0947816 6:-0.2816 7:-0.461375 8:-0.288381 9:-0.552277 10:-0.237183 11:-0.392395 12:-0.0917874 13:-0.267177 14:-0.272588 15:0.0328118 16:0.0316845 17:-0.146375 18:0.0969627 19:0.043618 20:0.226448 21:0.149159 22:0.195572 23:0.146008 24:-0.0686371 25:-0.0174976 26:0.353061 27:0.087081 28:0.217271 29:-0.0293229 30:0.0305303 31:-0.0274258 32:-0.316471 33:-0.314369 34:-0.0170893 35:-0.200916 36:0.158552 37:-0.144024 38:0.13332 39:-0.033705 40:0.068584 41:-0.168522 42:0.177321 43:-0.16383 44:0.268721 45:0.0611332 46:-0.0559644 47:-0.0323428 48:-0.0999053 49:-0.358068 50:0.194943 51:-0.409717 52:-0.269636 53:0.0589967 54:-0.172548 55:0.302535 56:0.00151232 57:-0.0507683 58:-0.166403 59:-0.164671 60:0.223351 61:0.137447 62:0.030344 63:0.187506 64:0.296245 65:0.109038 66:-0.329347 67:-0.0888391 68:-0.134961 69:-0.114181 70:0.309827 71:-0.366658 72:-0.0447793 73:-0.224787 74:0.156526 75:-0.0871219 76:-0.154227 77:0.19 78:0.015442 79:0.136227 80:-0.224636 81:-0.137019 82:0.129172 83:0.0545841 84:0.243576 85:0.0165777 86:0.0256911 87:-0.275616 88:-0.240312 89:-0.103629 90:0.0429379 91:-0.0269262 92:0.264199 93:0.10292 94:0.288611 95:0.0802898 96:0.117602 97:0.235204 98:0.0672651 99:-0.0294577 100:0.486668 101:-0.0683259 102:0.0746775 103:0.245924 104:0.216696 105:-0.0579549 106:0.406637 107:-0.0167789 108:0.403432 109:-0.0386659 110:0.471127 111:-0.193762 112:0.458591 113:0.0452559 114:0.433705 115:-0.353695 116:0.349239 117:-0.0671402 118:0.387369 119:-0.238169 120:0.376653 121:-0.195695 122:0.490221 123:0.0224106 124:0.53891 125:0.129963 126:0.470227 127:-0.0248642 
0.1314205448199156 0:0.624417 1:0.323213 2:-0.595246 3:-0.360789 4:-0.374366 5:-0.11253 6:-0.108389 7:-0.242636 8:-0.190627 9:-0.364149 10:-0.00594665 11:-0.130712 12:0.00066332 13:-0.0721356 14:-0.270195 15:0.0890717 16:0.202202 17:0.0584706 18:0.0953821 19:0.333366 20:0.256167 21:0.172466 22:0.0419514 23:0.174886 24:-0.205042 25:-0.15894 26:0.183359 27:0.056006 28:0.224248 29:0.0159566 30:0.0209356 31:0.00314061 32:-0.272115 33:-0.357161 34:-0.0704429 35:-0.163309 36:0.01384 37:-0.0581893 38:-0.0165821 39:0.0567546 40:0.121743 41:0.0188214 42:0.147932 43:-0.217631 44:0.2053 45:-0.068869 46:-0.226943 47:-0.0360901 48:-0.179633 49:-0.389454 50:0.131256 51:-0.258239 52:-0.0966672 53:-0.035634 54:-0.022552 55:0.385576 56:0.16577 57:-0.0188876 58:-0.0425918 59:-0.0674595 60:-0.012701 61:0.360122 62:0.0345629 63:0.328254 64:0.365786 65:0.221734 66:-0.339946 67:-0.0830703 68:-0.161883 69:-0.221014 70:0.294364 71:-0.612281 72:-0.174777 73:-0.19189 74:0.0268244 75:0.078131 76:-0.177481 77:0.240194 78:0.0233089 79:0.0460715 80:-0.319801 81:-0.117907 82:0.179165 83:0.112531 84:0.114337 85:-0.136562 86:0.0391546 87:-0.337252 88:-0.249462 89:-0.0354229 90:0.00499771 91:0.219768 92:0.321299 93:0.0670379 94:0.278134 95:0.0564737 96:0.105349 97:0.395369 98:0.0769695 99:0.0575284 100:0.406614 101:0.0392804 102:0.0988385 103:0.514937 104:0.185504 105:0.102606 106:0.404934 107:-0.00620306 108:0.301952 109:-0.0154339 110:0.440516 111:-0.0936058 112:0.391628 113:0.167754 114:0.363299 115:-0.362609 116:0.339326 117:0.051118 118:0.238673 119:-0.205006 120:0.284057 121:-0.0436801 122:0.417365 123:-0.024591 124:0.462075 125:0.0278677 126:0.358482 127:-0.00582504 
0.5 0:0.362677 1:0.437806 2:-0.342846 3:-0.342688 4:-0.23312 5:-0.165233 6:-0.342811 7:-0.598549 8:0.0738242 9:-0.463065 10:-0.14586 11:-0.246326 12:-0.0990799 13:-0.330977 14:-0.248657 15:0.0317935 16:0.176197 17:0.0754341 18:-0.317714 19:0.19148 20:0.266818 21:0.331102 22:0.163693 23:0.0818351 24:-0.0961876 25:-0.201803 26:0.0578979 27:-0.0013805 28:0.263558 29:0.0206812 30:0.018855 31:-0.0694603 32:-0.183888 33:-0.19364 34:-0.0651544 35:-0.228596 36:0.0763395 37:-0.0416483 38:-0.0107613 39:-0.0763524 40:0.284568 41:-0.430879 42:0.195865 43:-0.525204 44:0.283525 45:-0.000330249 46:0.239802 47:0.283574 48:-0.227691 49:-0.202612 50:0.0809994 51:-0.272047 52:-0.22682 53:-0.076962 54:-0.0366004 55:0.534324 56:0.136829 57:-0.0772468 58:-0.0928809 59:0.0139782 60:0.134187 61:0.0355687 62:-0.040852 63:-0.120565 64:0.0744721 65:-0.0654958 66:-0.389384 67:-0.134276 68:-0.161679 69:-0.144846 70:0.44053 71:-0.694186 72:-0.504921 73:-0.272469 74:-0.143743 75:-0.0267337 76:-0.0662529 77:0.420947 78:0.123273 79:0.144573 80:-0.196004 81:-0.336167 82:0.191765 83:0.0987876 84:0.132617 85:0.0737851 86:-0.064515 87:-0.301521 88:-0.342024 89:-0.108917 90:0.310212 91:0.0356294 92:0.215416 93:0.0707698 94:0.0636878 95:0.0187936 96:0.128336 97:0.387302 98:0.0295279 99:0.149536 100:0.561534 101:0.0847396 102:0.157582 103:0.359263 104:0.321293 105:-0.0792722 106:0.603892 107:0.0759972 108:0.549736 109:-0.147961 110:0.46103 111:-0.421399 112:0.484773 113:-0.12245 114:0.394013 115:-0.477196 116:0.409214 117:0.292013 118:0.344331 119:-0.332037 120:0.35482 121:-0.169182 122:0.499264 123:0.0605525 124:0.573394 125:0.302557 126:0.492751 127:0.104469 
0.2866085670835375 0:0.0786519 1:0.160627 2:-0.388347 3:-0.210767 4:-0.191121 5:-0.0710585 6:-0.0742833 7:-0.30739 8:-0.477332 9:-0.431482 10:-0.33032 11:-0.152677 12:-0.188335 13:-0.201389 14:-0.21018 15:0.0368417 16:-0.35822 17:0.302271 18:0.342911 19:0.210605 20:0.131937 21:0.20087 22:0.225982 23:0.242642 24:0.367869 25:0.368744 26:0.507047 27:0.271309 28:0.200503 29:0.185301 30:-0.154957 31:-0.178307 32:-0.399617 33:-0.123438 34:0.0755741 35:-0.327205 36:-0.079934 37:0.197288 38:-0.0166922 39:0.193088 40:-0.0731723 41:-0.164015 42:0.150298 43:0.0499968 44:0.196882 45:0.0435096 46:0.251167 47:0.296753 48:-0.216285 49:-0.228742 50:0.34617 51:-0.251368 52:-0.346062 53:0.340532 54:-0.300226 55:0.374002 56:-0.0769773 57:-0.238842 58:-0.355788 59:-0.0515991 60:0.0355004 61:0.369734 62:0.00490469 63:0.0323428 64:0.154634 65:0.386754 66:-0.499393 67:-0.105591 68:-0.135646 69:-0.0401505 70:0.317375 71:-0.461655 72:-0.160399 73:-0.0506102 74:0.275054 75:0.129737 76:-0.210982 77:0.260991 78:0.385396 79:0.188085 80:-0.367359 81:-0.14632 82:0.052056 83:0.189896 84:-0.181045 85:0.135095 86:0.0110307 87:-0.22184 88:-0.463151 89:0.212302 90:-0.0734234 91:0.0257527 92:0.290304 93:0.155114 94:0.163048 95:0.0113412 96:-0.00385519 97:0.560225 98:-0.0582596 99:-0.0709834 100:0.23466 101:0.270619 102:-0.0143212 103:0.553716 104:0.03663 105:0.0543772 106:0.138624 107:0.0699551 108:0.303914 109:-0.0273189 110:0.347443 111:-0.26586 112:0.283162 113:0.0565105 114:0.22713 115:-0.302363 116:0.202689 117:0.00378549 118:0.248375 119:-0.220112 120:0.198893 121:-0.0897773 122:0.2084 123:0.183926 124:0.331682 125:0.295315 126:0.339934 127:-0.0451774 
0.1578848540002692 0:0.125629 1:0.175318 2:-0.423822 3:-0.189103 4:-0.264738 5:-0.059043 6:-0.40132 7:-0.304256 8:-0.204793 9:-0.378851 10:-0.0115321 11:-0.226838 12:0.253409 13:0.0330717 14:-0.0312866 15:0.428764 16:0.212793 17:-0.0159849 18:0.322174 19:-0.214354 20:0.150105 21:0.245907 22:0.0464601 23:0.0177777 24:-0.368194 25:-0.0290932 26:0.293888 27:0.162415 28:0.158651 29:0.0872715 30:0.0477798 31:-0.177048 32:-0.250465 33:-0.202942 34:0.00484214 35:-0.252111 36:-0.113713 37:-0.200129 38:0.183044 39:0.1384 40:0.216994 41:-0.164053 42:0.116755 43:-0.138461 44:0.179058 45:-0.13798 46:-0.0249509 47:0.00231619 48:-0.283663 49:-0.421876 50:0.137596 51:-0.246983 52:-0.390642 53:0.0488681 54:-0.0617792 55:0.342123 56:-0.00610995 57:0.0880855 58:-0.422221 59:0.362075 60:0.24002 61:0.103193 62:-0.143321 63:0.349002 64:0.0183335 65:0.30772 66:-0.546163 67:-0.164024 68:-0.312137 69:-0.0880158 70:0.226057 71:-0.318342 72:-0.16058 73:-0.240249 74:0.0370991 75:-0.0423232 76:-0.145816 77:0.261941 78:-0.094988 79:0.306184 80:-0.453174 81:0.0602588 82:-0.131251 83:0.19179 84:0.0548613 85:-0.0476506 86:-0.00171696 87:-0.0925697 88:-0.376461 89:0.350167 90:-0.082625 91:0.17793 92:0.209472 93:0.424576 94:-0.00190221 95:-0.00328937 96:-0.0522957 97:0.364958 98:0.00585218 99:0.228889 100:0.313644 101:0.186596 102:0.0193783 103:0.503157 104:0.11821 105:0.173424 106:0.215435 107:0.233225 108:0.212451 109:0.00377343 110:0.301384 111:-0.420331 112:0.238052 113:0.197118 114:0.28518 115:-0.201655 116:0.186012 117:-0.0433529 118:0.206917 119:0.0948604 120:0.183914 121:0.0524577 122:0.32213 123:-0.139847 124:0.322793 125:0.0690443 126:0.281546 127:-0.240568 
0.5 0:0.118989 1:0.434868 2:-0.418904 3:-0.215676 4:-0.339937 5:-0.0569272 6:-0.257719 7:-0.330596 8:-0.11672 9:-0.55199 10:-0.0284386 11:-0.261164 12:-0.18929 13:-0.00763734 14:-0.464594 15:0.154266 16:0.288189 17:0.297541 18:-0.14396 19:0.271229 20:0.16095 21:0.224519 22:0.127029 23:0.350674 24:-0.240799 25:0.162396 26:0.251673 27:0.273989 28:0.0420394 29:-0.0346184 30:-0.0979642 31:-0.112501 32:-0.0594898 33:-0.248022 34:0.139786 35:-0.15286 36:0.172501 37:-0.136692 38:0.0522279 39:0.0951537 40:0.0359738 41:0.0940774 42:0.236538 43:-0.354088 44:0.156791 45:-0.174545 46:0.0117594 47:-0.278031 48:-0.24302 49:-0.390549 50:-0.0239251 51:-0.367253 52:-0.278232 53:-0.0130014 54:0.0866753 55:0.114843 56:0.0217542 57:-0.15465 58:0.00089345 59:-0.560001 60:0.18023 61:0.1623 62:-0.0933071 63:0.0884168 64:0.198382 65:0.0929382 66:-0.199409 67:-0.0955577 68:-0.203872 69:-0.174943 70:0.487388 71:-0.430856 72:-0.0583221 73:-0.296377 74:-0.143223 75:-0.0922088 76:-0.140401 77:0.439754 78:0.325414 79:0.180163 80:-0.275445 81:-0.351381 82:0.347913 83:0.243201 84:-0.0146474 85:0.137006 86:0.181681 87:-0.189205 88:-0.248922 89:0.0129457 90:-0.0658977 91:0.131802 92:0.151756 93:0.121336 94:0.388632 95:0.219423 96:0.0362306 97:0.255479 98:0.0668748 99:0.105017 100:0.413715 101:-0.0354638 102:0.128763 103:0.345943 104:0.174676 105:-0.19066 106:0.333285 107:0.0995896 108:0.315485 109:0.280857 110:0.427368 111:-0.0297543 112:0.362987 113:-0.17781 114:0.45329 115:-0.48284 116:0.305114 117:-0.0740591 118:0.33219 119:-0.02242 120:0.378106 121:-0.0624485 122:0.512333 123:0.168187 124:0.467516 125:0.197532 126:0.432973 127:-0.260776 
0.2915181073171011 0:0.143054 1:0.200784 2:-0.411275 3:-0.204875 4:-0.297575 5:-0.00750311 6:-0.144975 7:-0.341885 8:-0.175323 9:-0.345309 10:0.228195 11:0.0183457 12:-0.183749 13:-0.00392725 14:-0.0558361 15:0.13537 16:0.0297301 17:-0.170432 18:-0.0215969 19:0.147728 20:0.229637 21:0.330184 22:0.119387 23:0.303766 24:-0.284455 25:0.234184 26:0.255186 27:0.40937 28:0.129408 29:-0.0113176 30:0.0227911 31:0.127609 32:-0.420534 33:-0.159329 34:0.120858 35:-0.503599 36:-0.0508625 37:-0.0495187 38:0.427067 39:0.072325 40:0.0129996 41:-0.369175 42:0.177759 43:-0.0117038 44:0.556792 45:0.0507263 46:-0.11839 47:0.0715987 48:0.159633 49:-0.20636 50:0.0877337 51:-0.229777 52:-0.454306 53:0.122734 54:-0.530503 55:0.252211 56:-0.0240013 57:-0.1136 58:-0.199378 59:0.0745553 60:0.0782877 61:0.211695 62:0.00782167 63:0.447614 64:0.219876 65:0.302964 66:-0.489777 67:-0.201961 68:0.0671518 69:0.0044766 70:0.390703 71:-0.2683 72:-0.161031 73:-0.00420124 74:0.0620587 75:-0.0249597 76:-0.0380112 77:0.264194 78:0.0107025 79:0.182419 80:-0.202726 81:-0.194284 82:0.041031 83:-0.00115498 84:-0.0663264 85:0.118522 86:-0.109338 87:-0.23689 88:-0.307512 89:0.0263415 90:0.0687836 91:0.246805 92:0.0707151 93:-0.0298666 94:0.0625067 95:0.171005 96:0.0999831 97:0.353331 98:-0.0989483 99:0.299906 100:0.289852 101:0.478629 102:-0.0508906 103:0.368905 104:-0.0154199 105:-0.0100752 106:0.15558 107:-0.0380385 108:0.22836 109:0.0624274 110:0.327813 111:-0.110088 112:0.218399 113:0.116349 114:0.196438 115:-0.0615459 116:0.20083 117:-0.0463676 118:0.155268 119:-0.27119 120:0.18564 121:0.0146863 122:0.348517 123:0.048578 124:0.323247 125:0.0658123 126:0.225644 127:-0.0207384 
0.3457270992365845 0:0.166033 1:0.190989 2:-0.389922 3:-0.221673 4:-0.203566 5:-0.0490497 6:-0.289958 7:-0.114625 8:-0.13406 9:-0.454483 10:-0.208302 11:-0.1851 12:-0.147229 13:-0.064799 14:-0.347044 15:-0.0445047 16:0.339716 17:0.209302 18:0.0688125 19:-0.287741 20:0.268828 21:0.301795 22:-0.0450189 23:0.556706 24:-0.0516462 25:0.0462456 26:0.219344 27:0.134097 28:0.189539 29:0.12086 30:-0.0894749 31:0.038748 32:-0.359077 33:-0.150229 34:-0.128463 35:-0.126867 36:0.00207833 37:-0.179218 38:-0.239165 39:-0.00302625 40:-0.0523884 41:-0.00366927 42:0.105728 43:-0.0706495 44:0.39755 45:-0.0208183 46:0.0325935 47:0.204308 48:-0.0656699 49:-0.178528 50:0.0990506 51:-0.475045 52:-0.308563 53:0.0249859 54:-0.108126 55:0.298237 56:0.101086 57:-0.144138 58:-0.418948 59:0.167674 60:0.290879 61:0.256929 62:-0.0595421 63:0.398765 64:0.2176 65:0.114526 66:-0.397859 67:0.109176 68:-0.0155324 69:-0.113662 70:0.0856231 71:-0.303984 72:-0.0163961 73:-0.122064 74:-0.157834 75:-0.013486 76:-0.215416 77:0.283322 78:0.0990248 79:0.2682 80:-0.460741 81:-0.239086 82:-0.159822 83:0.0609707 84:-0.0853395 85:0.287368 86:-0.0880809 87:-0.124864 88:-0.400573 89:0.137248 90:-0.399785 91:0.0985915 92:0.115626 93:0.191483 94:-0.0518931 95:0.0881077 96:-0.0938701 97:0.365662 98:-0.0185426 99:0.130864 100:0.219421 101:0.511723 102:-0.0444712 103:0.364437 104:0.0879812 105:-0.0510908 106:0.0505179 107:-0.0549144 108:0.207862 109:-0.0232712 110:0.172516 111:-0.368509 112:0.205202 113:0.245481 114:0.219245 115:-0.223472 116:0.133254 117:-0.130247 118:0.155403 119:-0.105347 120:0.139913 121:-0.150286 122:0.20608 123:0.0109525 124:0.323759 125:0.0868592 126:0.236801 127:0.0184214 
0.06981161799604131 0:0.152214 1:0.236043 2:-0.40728 3:-0.181851 4:-0.30662 5:-0.0934527 6:-0.203535 7:-0.081216 8:-0.238918 9:-0.459869 10:-0.283758 11:-0.0679192 12:-0.172271 13:0.020679 14:-0.257406 15:0.212607 16:-0.10385 17:-0.0675619 18:-0.0789193 19:0.350679 20:0.176817 21:0.287768 22:0.260465 23:0.386045 24:0.0646352 25:0.385127 26:0.415131 27:0.473706 28:0.0722585 29:0.140323 30:-0.109267 31:-0.223002 32:-0.361739 33:-0.344942 34:-0.0551529 35:-0.237843 36:-0.0162128 37:-0.226419 38:0.0749979 39:-0.0878775 40:0.255236 41:0.00403938 42:-0.0546734 43:-0.0546812 44:0.299045 45:0.0195845 46:-0.0170461 47:0.29611 48:-0.234261 49:-0.155497 50:0.0793337 51:-0.382127 52:-0.347395 53:0.130002 54:-0.036074 55:0.260804 56:0.058722 57:-0.114841 58:-0.113405 59:-0.00345034 60:-0.163604 61:0.159709 62:-0.0347655 63:0.147655 64:0.427488 65:0.326015 66:0.074529 67:-0.0897681 68:-0.217262 69:-0.00284081 70:0.138471 71:-0.369616 72:0.0387829 73:-0.224581 74:-0.0338715 75:-0.0113903 76:-0.154354 77:0.203586 78:-0.215395 79:0.211001 80:-0.0946377 81:-0.115689 82:-0.0277475 83:0.143165 84:0.137888 85:0.0551445 86:-0.175012 87:-0.118359 88:-0.390278 89:0.105111 90:0.0140768 91:0.116184 92:0.159011 93:0.199025 94:0.255501 95:0.323544 96:-0.083572 97:0.241555 98:-0.056912 99:0.121622 100:0.196423 101:-0.156312 102:0.0382526 103:0.294341 104:0.00865622 105:0.0751384 106:0.267653 107:0.131899 108:0.182722 109:-0.00989381 110:0.241315 111:-0.0210974 112:0.265621 113:0.120985 114:0.180628 115:-0.278266 116:0.134731 117:0.0352391 118:0.229119 119:-0.110151 120:0.168705 121:-0.120217 122:0.320833 123:0.0397858 124:0.361487 125:-0.0889036 126:0.3599 127:-0.138525 
0.2920886884464433 0:0.157119 1:0.159647 2:-0.388193 3:-0.197012 4:-0.262708 5:-0.0129066 6:-0.183353 7:-0.399767 8:-0.0665612 9:-0.347833 10:-0.231201 11:-0.185132 12:-0.0852479 13:0.0590383 14:-0.134864 15:0.140865 16:-0.177722 17:0.099516 18:0.0744493 19:0.15662 20:0.0855449 21:0.0859098 22:0.146985 23:-0.0383173 24:-0.0775233 25:0.290991 26:0.235438 27:0.310672 28:0.144893 29:0.0481214 30:0.0737739 31:-0.137191 32:-0.252009 33:-0.230273 34:-0.0551539 35:-0.124671 36:0.15117 37:-0.172188 38:-0.00928568 39:0.037311 40:-0.0615155 41:-0.121047 42:0.258446 43:-0.285554 44:0.400291 45:0.00576023 46:0.0162875 47:0.168341 48:-0.0521122 49:-0.313336 50:0.0838334 51:-0.140025 52:-0.298052 53:0.25366 54:-0.0688669 55:0.205871 56:-0.0435546 57:-0.00786625 58:-0.167814 59:0.13531 60:0.217443 61:0.301074 62:-0.148424 63:0.150427 64:0.360728 65:0.170143 66:-0.437792 67:-0.358194 68:-0.334346 69:-0.0161492 70:0.106412 71:-0.290951 72:-0.11573 73:-0.0247437 74:-0.244892 75:-0.11123 76:-0.319808 77:0.232234 78:-0.0350016 79:0.126888 80:-0.349374 81:-0.246078 82:-0.153952 83:0.327467 84:-0.139834 85:0.171971 86:-0.117445 87:-0.146786 88:-0.430527 89:0.0118159 90:-0.121711 91:0.136087 92:-0.0250752 93:0.158524 94:0.0193441 95:0.432652 96:-0.131565 97:0.476197 98:-0.0796557 99:0.276505 100:0.0547282 101:0.108714 102:-0.0584829 103:0.35579 104:0.087904 105:0.189952 106:0.164187 107:0.225973 108:0.170596 109:0.147759 110:0.240604 111:0.0351391 112:0.230736 113:0.349671 114:0.114706 115:-0.182297 116:0.0799084 117:0.0531704 118:0.147317 119:-0.0312245 120:0.146072 121:-0.114749 122:0.204464 123:0.243595 124:0.276595 125:0.193231 126:0.207699 127:-0.0858669 
0.5 0:0.140579 1:0.336925 2:-0.345505 3:-0.199319 4:-0.290276 5:-0.062664 6:-0.291094 7:-0.296393 8:-0.225177 9:-0.351091 10:-0.387599 11:-0.150728 12:-0.340855 13:-0.0779784 14:0.0369688 15:0.196247 16:0.00125763 17:-0.012846 18:-0.0787746 19:0.00352265 20:0.163407 21:0.346461 22:0.317794 23:0.341723 24:-0.547295 25:-0.0802241 26:0.164381 27:0.297721 28:0.326906 29:0.0598531 30:0.0624535 31:-0.161954 32:-0.214371 33:-0.169588 34:-0.0624309 35:-0.269202 36:0.250524 37:-0.0316025 38:0.131744 39:0.0988116 40:0.0275658 41:0.0307383 42:-0.0313644 43:-0.348333 44:0.309985 45:-0.0627528 46:-0.0842351 47:0.221314 48:-0.0974374 49:-0.163259 50:-0.0897432 51:-0.220893 52:-0.114156 53:0.105095 54:-0.102124 55:0.330369 56:-0.00881557 57:0.0620939 58:-0.189243 59:-0.250467 60:0.109701 61:0.104128 62:0.0033218 63:-0.0689547 64:0.379947 65:-0.368825 66:-0.0984342 67:0.0297783 68:-0.366138 69:-0.173606 70:0.329012 71:-0.350282 72:-0.262031 73:-0.293793 74:0.337228 75:-0.240133 76:-0.147521 77:0.422469 78:-0.2083 79:0.267444 80:-0.194956 81:-0.226626 82:-0.0960738 83:0.439571 84:0.164063 85:0.0491864 86:0.101362 87:-0.252994 88:-0.401022 89:-0.0139552 90:-0.0452906 91:-0.0728617 92:0.176428 93:0.175863 94:0.219472 95:0.0828721 96:0.0712867 97:0.331941 98:-0.0662705 99:0.229757 100:0.559895 101:0.131623 102:0.105688 103:0.483513 104:0.106815 105:-0.0104456 106:0.310511 107:0.333557 108:0.197486 109:-0.0965541 110:0.422627 111:-0.400911 112:0.408298 113:0.0925438 114:0.353224 115:-0.222678 116:0.207205 117:-0.0810571 118:0.238086 119:-0.160929 120:0.227459 121:-0.405538 122:0.35204 123:0.181621 124:0.504438 125:0.281561 126:0.347496 127:0.014829 
0.5 0:0.171386 1:0.143976 2:-0.375527 3:-0.177989 4:-0.265142 5:-0.097016 6:-0.144275 7:-0.393693 8:-0.133433 9:-0.406992 10:0.0497637 11:-0.133934 12:0.109573 13:-0.0557546 14:-0.0954008 15:-0.00660761 16:-0.0326613 17:0.32067 18:0.141652 19:-0.0484245 20:0.227867 21:0.177675 22:0.0516404 23:0.211016 24:-0.363216 25:0.207717 26:0.372237 27:0.309391 28:0.11942 29:0.202308 30:-0.144684 31:-0.180206 32:-0.508004 33:-0.0781286 34:0.207212 35:-0.174309 36:-0.0320755 37:-0.0586518 38:-0.0907568 39:-0.231084 40:0.177238 41:-0.168398 42:0.596207 43:-0.22651 44:0.393318 45:0.227101 46:-0.22243 47:0.147516 48:-0.295471 49:-0.0976903 50:-0.191563 51:-0.227732 52:-0.32176 53:-0.0633563 54:-0.314768 55:0.399934 56:0.0288893 57:-0.196753 58:-0.195705 59:0.277245 60:-0.0624248 61:0.401598 62:0.0142445 63:0.120949 64:0.10153 65:0.55397 66:-0.21921 67:-0.237697 68:0.108835 69:0.0472542 70:0.435053 71:-0.814101 72:-0.205002 73:-0.167352 74:0.24237 75:-0.0848362 76:0.0295275 77:-0.107738 78:-0.541872 79:0.1618 80:-0.27946 81:-0.20611 82:0.0593303 83:0.283352 84:0.14881 85:0.0496582 86:-0.0110674 87:-0.304532 88:-0.429562 89:-0.0482246 90:0.0133936 91:-0.0663535 92:0.0650374 93:0.0840102 94:-0.0235957 95:0.324397 96:0.00874549 97:0.367682 98:-0.10049 99:0.129673 100:0.191516 101:-0.310649 102:0.0137719 103:0.396672 104:-0.029935 105:0.0551988 106:0.173311 107:0.0473259 108:0.196943 109:0.027627 110:0.200947 111:-0.402536 112:0.284936 113:0.144037 114:0.110254 115:-0.334407 116:0.0529025 117:-0.127866 118:0.217489 119:-0.420242 120:0.0718406 121:-0.166742 122:0.256839 123:0.018428 124:0.267252 125:0.295564 126:0.205217 127:-0.0363591 
0.1494374920782186 0:0.143379 1:0.195886 2:-0.383946 3:-0.17494 4:-0.219932 5:0.0153137 6:-0.103988 7:-0.387974 8:-0.200073 9:-0.317837 10:-0.0932763 11:-0.193026 12:-0.0854495 13:-0.0100861 14:-0.107959 15:0.0296114 16:-0.0883672 17:-0.0833791 18:0.0218811 19:0.344608 20:0.160993 21:0.181938 22:0.0400919 23:0.446132 24:-0.0160431 25:0.05411 26:0.333354 27:0.216756 28:0.182565 29:0.0952038 30:-0.00674077 31:0.012929 32:-0.415614 33:-0.378453 34:0.00286342 35:-0.234687 36:0.16133 37:-0.022974 38:-0.226222 39:0.0543238 40:-0.0923896 41:-0.207287 42:0.407627 43:0.0790692 44:0.246755 45:-0.296786 46:0.0185383 47:0.188263 48:-0.218496 49:-0.256719 50:0.237115 51:-0.535059 52:-0.168154 53:0.37361 54:-0.0699181 55:0.308407 56:0.0373019 57:-0.129545 58:-0.158594 59:-0.034086 60:0.0719496 61:0.177827 62:0.057034 63:0.188587 64:0.424706 65:0.261617 66:-0.0946862 67:-0.180255 68:-0.196898 69:-0.156312 70:0.229784 71:-0.578049 72:0.076562 73:-0.0827243 74:0.00941999 75:-0.0710707 76:-0.365712 77:0.278777 78:0.0973502 79:0.237955 80:-0.417419 81:0.0341985 82:0.123227 83:0.411685 84:-0.103428 85:0.522618 86:-0.0152234 87:-0.147404 88:-0.240748 89:0.103138 90:-0.144647 91:0.0748478 92:0.112739 93:0.238207 94:0.208472 95:0.281843 96:0.0263346 97:0.121519 98:0.0382285 99:0.0894758 100:0.242391 101:0.275127 102:-0.136173 103:0.358225 104:0.145285 105:0.0771509 106:0.326236 107:0.0263665 108:0.256998 109:-0.0261021 110:0.290579 111:-0.0765694 112:0.307698 113:0.0534172 114:0.321105 115:-0.510443 116:0.192069 117:0.00254489 118:0.271865 119:-0.0483257 120:0.225114 121:-0.148457 122:0.308038 123:0.00750339 124:0.418043 125:0.0426746 126:0.289225 127:-0.0358664 
0.2681048217033382 0:0.154667 1:0.325171 2:-0.388528 3:-0.190934 4:-0.240253 5:0.00882453 6:-0.32026 7:-0.245427 8:-0.218107 9:-0.347936 10:-0.215846 11:-0.224825 12:-0.0277753 13:0.0229396 14:-0.265436 15:0.0886188 16:-0.00687766 17:-0.0367104 18:0.183368 19:0.320443 20:0.2171 21:0.483805 22:0.179393 23:0.468922 24:-0.0948709 25:0.0652934 26:0.377706 27:0.154324 28:0.169724 29:0.0710244 30:0.0880493 31:-0.0539765 32:-0.365323 33:-0.206881 34:0.0199773 35:-0.182343 36:0.251216 37:-0.230697 38:-0.0126016 39:-0.107209 40:0.00802812 41:-0.0354359 42:0.374806 43:-0.057272 44:0.451821 45:0.0688943 46:0.0595239 47:-0.0846995 48:-0.0680509 49:-0.181234 50:0.0595656 51:-0.26571 52:-0.42794 53:0.0513248 54:-0.0186998 55:0.309016 56:0.0194334 57:0.0387894 58:-0.402825 59:-0.14291 60:0.0500604 61:0.160075 62:-0.0328769 63:0.386332 64:0.353395 65:0.0274424 66:-0.0771405 67:-0.215629 68:-0.371052 69:-0.026115 70:0.156122 71:-0.614963 72:-0.161994 73:-0.16406 74:0.319051 75:-0.187802 76:-0.0561159 77:0.149575 78:0.030363 79:0.110811 80:-0.206218 81:-0.23623 82:0.0904315 83:0.199925 84:0.0976932 85:0.0687566 86:0.0476802 87:-0.127699 88:-0.307139 89:-0.242827 90:0.0209475 91:-0.188301 92:0.229171 93:0.139085 94:0.286025 95:0.327003 96:0.0579415 97:0.41282 98:0.0674404 99:-0.054599 100:0.379922 101:-0.191967 102:0.0668599 103:0.226863 104:0.193684 105:0.084516 106:0.493142 107:0.223601 108:0.356508 109:-0.17226 110:0.45844 111:-0.22392 112:0.338851 113:-0.073195 114:0.432106 115:-0.406706 116:0.312796 117:-0.133782 118:0.293161 119:0.0239336 120:0.327211 121:-0.0630321 122:0.472065 123:-0.145504 124:0.487304 125:0.132424 126:0.487038 127:-0.0293861 
0.4354862530123965 0:0.149056 1:0.134182 2:-0.399945 3:-0.179377 4:-0.249525 5:-0.0404344 6:-0.229263 7:-0.212227 8:-0.201374 9:-0.406176 10:-0.0611533 11:-0.0126001 12:-0.180182 13:-0.14941 14:-0.30053 15:0.282742 16:-0.00650417 17:-0.0963709 18:0.144395 19:0.189829 20:0.354663 21:0.124056 22:0.0233627 23:0.146762 24:-0.0473829 25:0.120254 26:0.329112 27:0.157801 28:0.228034 29:0.109467 30:0.120828 31:-0.0443927 32:-0.259623 33:-0.0036316 34:-0.0991451 35:-0.209832 36:0.10856 37:0.133968 38:0.0172902 39:-0.0321821 40:0.268298 41:-0.125161 42:0.171099 43:-0.0811965 44:0.434761 45:0.149311 46:-0.193553 47:0.283339 48:-0.0818819 49:-0.359459 50:0.0279767 51:-0.321961 52:-0.326687 53:0.00291922 54:-0.128375 55:0.192493 56:-0.0638218 57:0.0203327 58:-0.387758 59:-0.180358 60:-0.0359334 61:0.297609 62:0.255208 63:-0.11984 64:0.312429 65:0.0278083 66:-0.236266 67:-0.0604326 68:-0.232954 69:-0.407756 70:0.188515 71:0.0342991 72:-0.215319 73:-0.255774 74:0.165263 75:-0.178682 76:-0.0415259 77:0.189858 78:0.0357233 79:0.407965 80:-0.375359 81:-0.306048 82:0.032443 83:-0.0968467 84:0.0640963 85:-0.0201194 86:-0.0189575 87:-0.162224 88:-0.330711 89:-0.12935 90:-0.223424 91:0.155937 92:0.19635 93:0.0595965 94:0.10441 95:0.0637952 96:0.0240401 97:0.345924 98:-0.111254 99:-0.00274763 100:0.251948 101:-0.127939 102:-0.0766185 103:0.147552 104:0.139992 105:0.0659788 106:0.265548 107:0.0290452 108:0.24452 109:0.110673 110:0.334011 111:-0.410658 112:0.291518 113:0.172511 114:0.320756 115:-0.321379 116:0.20098 117:-0.0623799 118:0.224787 119:-0.114223 120:0.161489 121:-0.0972346 122:0.403167 123:-0.0383987 124:0.395034 125:0.0788851 126:0.347328 127:0.0149228 
0.3328850739120598 0:0.149728 1:0.230167 2:-0.408568 3:-0.198073 4:-0.311763 5:0.0255319 6:-0.0463926 7:-0.392306 8:-0.0717393 9:-0.347054 10:-0.0441105 11:-0.174041 12:-0.218445 13:-0.172221 14:-0.460694 15:0.225104 16:0.209804 17:0.23093 18:0.328464 19:0.0387973 20:0.321072 21:0.182785 22:0.127117 23:0.289667 24:-0.250454 25:-0.0554915 26:0.133217 27:0.153387 28:0.029172 29:0.0606672 30:0.00892338 31:0.16253 32:-0.326308 33:-0.293565 34:-0.296819 35:-0.145174 36:0.00353039 37:-0.225056 38:0.239124 39:-0.149238 40:-0.00109929 41:-0.0100524 42:-0.0172123 43:-0.0134317 44:0.323432 45:0.107098 46:-0.137091 47:0.0550668 48:-0.0924006 49:-0.346226 50:0.178849 51:-0.315206 52:-0.418727 53:0.204292 54:-0.0933685 55:0.378444 56:0.125707 57:-0.192334 58:-0.218888 59:-0.387533 60:0.166148 61:0.432246 62:-0.0954891 63:0.162479 64:0.262106 65:0.123308 66:-0.311894 67:-0.0137514 68:-0.2006 69:-0.123152 70:0.237217 71:-0.125926 72:0.0371374 73:-0.231844 74:-0.0677262 75:0.0361721 76:-0.315878 77:0.067416 78:-0.0546287 79:0.230573 80:-0.283197 81:-0.132073 82:-0.0248033 83:0.136703 84:-0.0635844 85:-0.0440237 86:-0.108078 87:-0.200943 88:-0.315396 89:-0.0865726 90:-0.0714786 91:0.00407373 92:0.254087 93:0.0433135 94:0.0233029 95:0.101075 96:-0.133687 97:0.336864 98:0.0698613 99:-0.15742 100:0.457027 101:0.0658983 102:0.056493 103:0.190257 104:0.220285 105:0.0682097 106:0.334689 107:0.080256 108:0.296609 109:0.169903 110:0.3098 111:-0.0840818 112:0.355841 113:0.0359305 114:0.296936 115:-0.209906 116:0.199074 117:-0.0722302 118:0.292221 119:0.100671 120:0.242141 121:0.107514 122:0.337458 123:0.214669 124:0.401739 125:0.0103975 126:0.29646 127:0.130744 
0.5 0:0.157746 1:0.353575 2:-0.429691 3:-0.199385 4:-0.262494 5:-0.0147225 6:-0.0572571 7:-0.139245 8:-0.0388345 9:-0.534958 10:-0.405515 11:-0.116712 12:-0.142596 13:-0.197172 14:-0.129671 15:0.200618 16:0.0152529 17:0.0811903 18:0.0540186 19:0.391982 20:0.164646 21:0.134277 22:0.0964405 23:0.46985 24:-0.0749186 25:-0.17557 26:0.213897 27:0.266755 28:0.157965 29:-0.0324144 30:-0.110848 31:0.0222872 32:-0.49914 33:-0.226521 34:-0.0373013 35:-0.190023 36:0.110359 37:-0.265516 38:0.0404697 39:-0.0857354 40:-0.0643194 41:0.0170446 42:0.194886 43:-0.133161 44:0.397765 45:-0.0873655 46:-0.0454113 47:0.104358 48:-0.104171 49:-0.191076 50:0.329237 51:-0.542504 52:-0.0834923 53:0.249357 54:0.0910783 55:0.33913 56:-0.0292598 57:0.0753402 58:-0.270121 59:-0.015875 60:0.345354 61:0.332151 62:-0.0568562 63:0.0589734 64:0.283601 65:0.109038 66:0.00725531 67:-0.114528 68:-0.0614456 69:-0.185955 70:0.209967 71:-0.272135 72:-0.0276195 73:-0.194303 74:-0.107029 75:-0.123274 76:-0.086609 77:0.257358 78:-0.0923824 79:0.0175764 80:-0.317442 81:-0.0621194 82:0.191288 83:0.135186 84:0.198268 85:0.0227546 86:0.00829005 87:-0.177281 88:-0.295387 89:-0.174748 90:0.132489 91:0.122446 92:0.252748 93:0.0285948 94:0.201388 95:-0.0812622 96:0.0596951 97:0.204391 98:0.070946 99:-0.09784 100:0.536934 101:0.0535794 102:0.119225 103:0.122312 104:0.195307 105:-0.196702 106:0.368496 107:0.0909051 108:0.367696 109:0.0126157 110:0.452825 111:-0.242788 112:0.431761 113:0.0585953 114:0.384847 115:-0.32228 116:0.330643 117:-0.106265 118:0.337809 119:-0.255852 120:0.354942 121:-0.129943 122:0.44293 123:0.10259 124:0.471934 125:0.210326 126:0.455433 127:-0.0695756 
0.1973107277067223 0:0.142281 1:0.264447 2:-0.442492 3:-0.203099 4:-0.282217 5:-0.0709688 6:-0.157268 7:-0.282021 8:-0.334623 9:-0.400268 10:-0.264035 11:-0.130088 12:-0.0562644 13:-0.374793 14:-0.262645 15:0.0426741 16:-0.278952 17:0.0171044 18:0.362388 19:0.205616 20:0.29077 21:0.32486 22:0.156668 23:0.229913 24:-0.301057 25:-0.0314579 26:0.191152 27:0.144525 28:0.119645 29:0.0504771 30:-0.0596272 31:-0.0940635 32:-0.423172 33:-0.290947 34:0.0784481 35:0.023244 36:0.197869 37:-0.174539 38:0.1706 39:0.00334901 40:0.0469921 41:-0.321367 42:0.188839 43:-0.0214926 44:0.274367 45:0.114119 46:-0.0245273 47:0.294306 48:-0.05161 49:-0.211068 50:0.057527 51:-0.383616 52:-0.327018 53:-0.0856227 54:-0.077879 55:0.342765 56:0.0700359 57:-0.0531478 58:-0.3156 59:-0.248013 60:0.117092 61:0.0959856 62:-0.0638361 63:0.265332 64:0.252244 65:0.0742774 66:-0.187962 67:-0.0125571 68:-0.0170589 69:-0.0952548 70:0.231337 71:-0.126949 72:-0.105176 73:-0.135596 74:0.134003 75:0.0765784 76:-0.159591 77:0.373886 78:0.0725496 79:0.123121 80:-0.160906 81:-0.0525425 82:0.0671979 83:0.160797 84:0.130826 85:0.118346 86:-0.0263903 87:-0.172458 88:-0.252605 89:0.0647222 90:-0.0616318 91:-0.0433158 92:0.269995 93:0.143246 94:0.210799 95:0.213861 96:0.0958372 97:0.419053 98:-0.051318 99:0.0390256 100:0.355402 101:-0.155695 102:-0.0151723 103:0.227423 104:0.0804427 105:-0.134478 106:0.329659 107:0.111757 108:0.284675 109:-0.0324674 110:0.398432 111:-0.0244065 112:0.358483 113:0.0173378 114:0.308728 115:-0.407727 116:0.239109 117:0.0173615 118:0.256644 119:0.0114654 120:0.23249 121:-0.304582 122:0.357339 123:0.118141 124:0.411801 125:0.20316 126:0.346911 127:0.0700303 
0.2143204882278172 0:0.143244 1:0.272282 2:-0.403058 3:-0.188266 4:-0.262975 5:-0.0681789 6:-0.0552167 7:-0.393924 8:-0.323454 9:-0.313606 10:-0.264048 11:-0.348149 12:-0.313397 13:-0.114925 14:-0.259821 15:-0.00285643 16:0.00519184 17:-0.0787988 18:0.0317958 19:0.186222 20:0.369263 21:0.375353 22:0.159239 23:0.00556041 24:-0.142138 25:0.0789069 26:0.155837 27:0.119497 28:0.141988 29:-0.00827902 30:0.149222 31:-0.114797 32:-0.37286 33:-0.162887 34:-0.0502181 35:-0.121516 36:-0.0115742 37:0.0796874 38:0.086803 39:-0.0313935 40:-0.114747 41:0.0528576 42:0.298132 43:-0.0884931 44:0.314177 45:0.00125785 46:-0.0639225 47:0.138236 48:-0.18789 49:-0.22198 50:0.115954 51:-0.279108 52:-0.481355 53:0.422656 54:-0.155006 55:0.136137 56:0.048383 57:-0.126963 58:-0.142272 59:0.153706 60:-0.0235616 61:0.502818 62:0.0766551 63:0.199368 64:0.226198 65:0.172704 66:-0.55156 67:-0.0324817 68:-0.256436 69:-0.15843 70:0.389571 71:-0.197447 72:-0.0357642 73:-0.189384 74:-0.167032 75:0.00465043 76:-0.141246 77:0.361588 78:0.050778 79:0.0637548 80:-0.354196 81:-0.369757 82:0.0406979 83:0.474948 84:0.121506 85:0.00694502 86:-0.0864096 87:-0.253761 88:-0.237824 89:0.152099 90:0.0874948 91:0.0666661 92:0.224528 93:0.18938 94:0.205217 95:0.0505234 96:0.0860287 97:0.264754 98:0.0117772 99:0.162138 100:0.245807 101:-0.132589 102:0.01728 103:0.323545 104:0.13463 105:0.161443 106:0.227838 107:-0.0369887 108:0.305958 109:-0.150785 110:0.279745 111:-0.0602485 112:0.284213 113:0.0671373 114:0.329268 115:-0.208131 116:0.172356 117:-0.0199888 118:0.240832 119:-0.20129 120:0.261703 121:-0.00594515 122:0.345617 123:0.108395 124:0.36323 125:0.0601602 126:0.35507 127:0.0335562 
0.5 0:0.130321 1:0.476004 2:-0.270841 3:-0.309799 4:-0.279848 5:-0.145068 6:-0.275488 7:-0.453097 8:-0.137589 9:-0.326056 10:-0.111512 11:-0.11363 12:-0.0162991 13:-0.107302 14:-0.174595 15:0.217104 16:-0.0725458 17:-0.462172 18:0.0787287 19:0.345907 20:0.234149 21:0.0912651 22:0.234006 23:0.55295 24:-0.16278 25:-0.118161 26:0.25724 27:0.224498 28:-0.0144677 29:0.114409 30:0.0162094 31:-0.11282 32:-0.362996 33:-0.169175 34:0.204652 35:-0.229228 36:0.0180494 37:-0.123998 38:0.248786 39:-0.0472277 40:0.201622 41:0.136152 42:0.299118 43:-0.0503808 44:0.290576 45:-0.0984232 46:-0.070473 47:-0.172489 48:-0.197383 49:-0.164138 50:0.425224 51:-0.548568 52:-0.294731 53:0.335339 54:0.0367622 55:0.102743 56:0.0908793 57:-0.105238 58:-0.0550828 59:-0.122452 60:0.567439 61:0.531516 62:0.00652471 63:0.0670171 64:0.225945 65:0.0933041 66:-0.329523 67:-0.087668 68:0.177231 69:-0.033977 70:0.514271 71:-0.0201504 72:0.0582572 73:-0.256732 74:0.1933 75:-0.112476 76:-0.155576 77:0.034218 78:0.236727 79:0.159185 80:-0.160974 81:-0.22587 82:0.0393518 83:0.343258 84:0.305306 85:-0.143223 86:0.019215 87:-0.103212 88:-0.376937 89:-0.176675 90:0.124831 91:0.0746103 92:0.336346 93:0.253391 94:0.300865 95:0.288195 96:0.146602 97:0.399944 98:0.145943 99:0.147708 100:0.450292 101:-0.39672 102:0.0624669 103:0.439315 104:0.163815 105:0.104673 106:0.445667 107:-0.150621 108:0.360327 109:-0.147695 110:0.441591 111:0.0726141 112:0.415763 113:0.125105 114:0.484688 115:-0.288191 116:0.373143 117:-0.00858815 118:0.393241 119:-0.274764 120:0.294377 121:-0.0912655 122:0.446917 123:0.141112 124:0.558967 125:0.0842124 126:0.449465 127:-0.212455 
0.5 0:0.0419996 1:-0.0166503 2:-0.561994 3:0.156194 4:-0.386566 5:0.275088 6:-0.185985 7:0.0644139 8:-0.186158 9:-0.202833 10:-0.235618 11:0.144333 12:-0.112944 13:0.22671 14:-0.306602 15:0.230975 16:-0.156254 17:0.335973 18:0.0735808 19:0.375563 20:0.152326 21:0.310647 22:0.039988 23:0.53882 24:-0.302136 25:0.137732 26:0.231884 27:0.484545 28:0.186924 29:0.172292 30:-0.194364 31:-0.0894744 32:-0.27113 33:-0.10667 34:-0.0955819 35:-0.107342 36:0.0371772 37:-0.036564 38:0.19445 39:0.164781 40:-0.0467169 41:0.0463333 42:0.178899 43:0.0728595 44:0.195069 45:0.140865 46:-0.0494523 47:0.237003 48:-0.336105 49:-0.0573367 50:-0.018998 51:-0.314103 52:-0.425704 53:0.13703 54:-0.171589 55:0.36043 56:-0.00714175 57:0.0943446 58:-0.184495 59:0.400562 60:-0.112969 61:0.178245 62:-0.136025 63:0.492392 64:0.056265 65:0.326747 66:-0.379837 67:-0.144147 68:-0.0964544 69:0.016203 70:0.203273 71:-0.0247921 72:-0.255773 73:0.0558797 74:0.0344876 75:0.0757095 76:-0.240194 77:0.383264 78:-0.166314 79:0.284805 80:-0.477326 81:0.0890336 82:-0.1812 83:0.576044 84:-0.257651 85:0.272901 86:-0.152248 87:-0.0594136 88:-0.446754 89:0.253837 90:-0.317271 91:0.380849 92:-0.17323 93:0.207049 94:-0.0308025 95:0.253166 96:-0.150112 97:0.449098 98:-0.331152 99:0.313938 100:0.0836501 101:0.406298 102:-0.236389 103:0.367337 104:-0.216672 105:0.221701 106:-0.109035 107:0.234882 108:-0.0632125 109:0.21924 110:-0.0167665 111:0.12706 112:0.0143859 113:0.292741 114:0.00488502 115:-0.177008 116:-0.134449 117:0.0331069 118:-0.0782032 119:-0.0966334 120:-0.0881091 121:-0.140771 122:0.00751555 123:0.16655 124:0.0380615 125:0.359981 126:-0.0619614 127:0.0151531 
0.4878336201307808 0:0.232708 1:0.324192 2:-0.415102 3:-0.25865 4:-0.264521 5:-0.0708106 6:-0.161652 7:-0.352346 8:-0.108031 9:-0.420064 10:-0.135095 11:-0.000372038 12:-0.0531135 13:-0.0586139 14:-0.230638 15:0.0979125 16:0.242578 17:0.00912204 18:0.187894 19:0.213314 20:0.369048 21:0.180577 22:0.147539 23:-0.142045 24:-0.0934902 25:0.00811404 26:0.31065 27:0.159444 28:0.10871 29:0.031251 30:0.107294 31:-0.13647 32:-0.111059 33:-0.214166 34:-0.0247946 35:-0.213698 36:0.0956063 37:-0.0223076 38:0.24635 39:-0.0291478 40:0.154591 41:-0.0998151 42:0.0592415 43:0.00817982 44:0.112838 45:0.20392 46:0.043907 47:-0.148772 48:-0.451562 49:-0.191515 50:0.255175 51:-0.440175 52:-0.432354 53:-0.000886375 54:-0.343041 55:0.162539 56:-0.102296 57:0.163934 58:-0.190928 59:-0.170666 60:0.197297 61:0.226757 62:-0.0375195 63:-0.283977 64:0.251233 65:0.345408 66:-0.534028 67:-0.156362 68:-0.265599 69:-0.166367 70:0.227554 71:-0.456441 72:-0.12059 73:-0.456156 74:0.109551 75:0.148629 76:-0.229365 77:0.110358 78:-0.0267292 79:0.0928301 80:-0.325324 81:-0.123898 82:0.127548 83:-0.154921 84:-0.105574 85:0.0017052 86:-0.204225 87:-0.262477 88:-0.364843 89:-0.0046327 90:-0.146426 91:0.195847 92:0.0597698 93:-0.155813 94:0.187884 95:0.156308 96:0.00785609 97:0.253759 98:0.00208284 99:-0.0489555 100:0.437538 101:-0.19268 102:0.0208901 103:0.303214 104:0.148874 105:-0.146024 106:0.310562 107:0.0677101 108:0.261597 109:0.0165193 110:0.434683 111:-0.0819403 112:0.349433 113:0.00535852 114:0.339146 115:-0.36785 116:0.222635 117:-0.0593246 118:0.24244 119:-0.12511 120:0.238413 121:-0.0420397 122:0.387187 123:-0.125934 124:0.413873 125:0.27165 126:0.340094 127:-0.21862 
0.5 0:0.043265 1:0.0587659 2:-0.606799 3:0.109642 4:-0.319007 5:0.189017 6:-0.0768544 7:-0.0140597 8:-0.153579 9:-0.198036 10:-0.273483 11:0.164855 12:-0.0936901 13:0.00358008 14:-0.305821 15:0.24274 16:0.0106656 17:0.275802 18:0.0210646 19:0.266116 20:0.298527 21:0.325105 22:0.142543 23:0.283452 24:-0.0912444 25:0.0624393 26:0.466908 27:0.381797 28:0.106414 29:0.235425 30:-0.00778246 31:0.00809879 32:-0.292831 33:-0.242224 34:0.0105343 35:-0.0807225 36:0.00249991 37:0.0538314 38:0.141462 39:0.00668028 40:-0.0476531 41:-0.138461 42:-0.0375066 43:-0.168469 44:0.33153 45:0.26052 46:-0.0782414 47:-0.0989397 48:-0.263404 49:-0.242153 50:-0.0356301 51:-0.450093 52:-0.351474 53:0.0996992 54:-0.184391 55:0.435675 56:-0.0673974 57:0.206133 58:-0.188556 59:0.230596 60:0.0347091 61:0.251578 62:0.0909904 63:0.089075 64:0.150588 65:0.197219 66:-0.502796 67:0.0206144 68:-0.255646 69:0.101501 70:0.128439 71:-0.299671 72:-0.255596 73:0.0354228 74:-0.0780199 75:-0.0268723 76:-0.223341 77:0.32082 78:-0.0941855 79:0.411523 80:-0.401344 81:-0.0250667 82:0.0223983 83:0.495109 84:-0.0851536 85:0.139092 86:-0.279374 87:-0.152538 88:-0.486557 89:0.256193 90:-0.307227 91:0.27804 92:-0.174347 93:0.392966 94:-0.0715999 95:0.329309 96:-0.166823 97:0.446855 98:-0.232946 99:0.28945 100:0.104219 101:0.174469 102:-0.13651 103:0.452604 104:-0.0351298 105:0.2895 106:-0.00905891 107:0.296366 108:0.00194623 109:0.112473 110:0.0448926 111:-0.0243277 112:0.0263255 113:0.204316 114:0.0580583 115:-0.0900714 116:-0.0560353 117:0.195774 118:-0.00224356 119:0.0332895 120:-0.0248558 121:-0.0714064 122:0.0613005 123:0.102156 124:0.137323 125:0.170199 126:0.0840204 127:0.00946465 
0.5 0:0.0232759 1:0.0421156 2:-0.482924 3:0.255752 4:-0.162694 5:0.241057 6:-0.0985515 7:0.00866041 8:-0.107224 9:-0.18805 10:-0.246027 11:-0.0203698 12:-0.18704 13:0.0993714 14:-0.121248 15:0.234322 16:0.2553 17:0.0996706 18:0.22118 19:0.331279 20:0.0856624 21:0.342017 22:0.216408 23:0.480511 24:-0.0964379 25:0.214319 26:0.263017 27:0.256571 28:0.128837 29:0.0945639 30:0.00527234 31:0.188735 32:-0.386053 33:-0.109097 34:-0.0332405 35:-0.206611 36:0.0130292 37:-0.0257191 38:0.0978191 39:0.0279988 40:0.111543 41:0.105933 42:0.15342 43:0.0550363 44:0.294919 45:0.130597 46:-0.0625133 47:0.225699 48:-0.227074 49:-0.297356 50:-0.115999 51:-0.254595 52:-0.278507 53:0.27018 54:-0.17313 55:0.437951 56:0.0206634 57:-0.116135 58:-0.360562 59:0.271864 60:0.127152 61:0.281751 62:-0.00195784 63:0.180244 64:0.227715 65:0.333333 66:-0.383574 67:-0.188536 68:-0.178347 69:0.00777339 70:0.244981 71:-0.198145 72:-0.304245 73:-0.0454909 74:-0.31166 75:-0.13522 76:-0.308397 77:0.350144 78:-0.0268917 79:0.153409 80:-0.409843 81:0.136407 82:-0.07554 83:0.510258 84:-0.0347232 85:0.141602 86:-0.274396 87:-0.116673 88:-0.390487 89:0.175475 90:-0.370633 91:0.152983 92:-0.0360432 93:0.215305 94:0.0370118 95:0.325682 96:-0.0537578 97:0.475026 98:-0.177858 99:0.406608 100:0.127392 101:0.33282 102:-0.122266 103:0.382627 104:-0.089201 105:0.103257 106:0.0937998 107:0.264033 108:0.0549331 109:0.10856 110:0.121033 111:-0.052899 112:0.0972632 113:0.143202 114:0.118705 115:-0.222848 116:0.0195345 117:0.150242 118:0.0334984 119:-0.0558182 120:0.0170519 121:-0.0271819 122:0.104604 123:0.113925 124:0.161813 125:0.223926 126:0.0988547 127:-0.144805 
0.03912343639537772 0:0.160355 1:0.248776 2:-0.377661 3:-0.179994 4:-0.340241 5:-0.0626913 6:-0.137412 7:-0.119232 8:-0.175412 9:-0.441302 10:-0.370376 11:-0.0373755 12:-0.242707 13:-0.0685242 14:-0.236247 15:0.0603487 16:0.172871 17:0.228218 18:0.26042 19:0.219445 20:-0.0404361 21:0.193885 22:0.163117 23:0.0682973 24:-0.0278352 25:-0.0897174 26:0.403877 27:0.158111 28:0.0632039 29:0.0669429 30:0.0198149 31:-0.0577258 32:-0.191653 33:-0.183694 34:-0.0972541 35:-0.134919 36:0.142116 37:-0.0180812 38:-0.0876938 39:0.0113684 40:0.008267 41:-0.0971413 42:0.205086 43:-0.0456918 44:0.244741 45:0.00188547 46:-0.149396 47:-0.0918416 48:-0.0855245 49:-0.444904 50:0.201334 51:-0.296129 52:-0.285009 53:0.103386 54:-0.114773 55:0.417202 56:-0.0489393 57:-0.0266617 58:-0.238332 59:-0.0788077 60:0.424654 61:0.19738 62:-0.0795389 63:0.158743 64:0.323808 65:0.167581 66:-0.107574 67:0.0181422 68:-0.221773 69:0.0744098 70:0.246012 71:-0.235521 72:-0.222051 73:-0.150916 74:0.0754263 75:-0.215531 76:-0.145197 77:0.191517 78:-0.0344187 79:0.159856 80:-0.309142 81:0.10925 82:-0.0588415 83:0.0154441 84:0.0575072 85:-0.116048 86:-0.00508233 87:-0.212314 88:-0.317388 89:-0.184097 90:0.0405615 91:0.0489584 92:0.259725 93:0.173841 94:0.212011 95:0.211129 96:-0.0358802 97:0.382216 98:-0.038992 99:0.0615083 100:0.390105 101:0.0104684 102:0.0354287 103:0.334148 104:0.0945702 105:-0.0845437 106:0.287005 107:0.101514 108:0.273434 109:0.147692 110:0.315913 111:-0.160917 112:0.351781 113:0.0805251 114:0.260413 115:-0.287348 116:0.267173 117:-0.121315 118:0.234571 119:-0.0370886 120:0.254086 121:-0.138636 122:0.348027 123:0.0670276 124:0.403839 125:0.000204538 126:0.384879 127:-0.00122023 
0.5 0:0.551258 1:0.525955 2:-0.684903 3:-0.619735 4:-0.372545 5:-0.158231 6:-0.233334 7:-1 8:-0.276275 9:-0.662577 10:-0.000668634 11:-0.328507 12:0.206019 13:-0.139745 14:-0.650257 15:0.0954657 16:0.781684 17:-0.015784 18:0.595292 19:0.0441113 20:-0.114034 21:0.196991 22:0.169493 23:-0.0486322 24:-0.358821 25:-0.208726 26:0.440558 27:0.0701502 28:0.0455574 29:-0.0945087 30:0.11984 31:-0.437723 32:-0.0938755 33:-0.211203 34:0.185218 35:-0.0343366 36:-0.104198 37:0.0508649 38:-0.139854 39:-0.300218 40:-0.0906025 41:-0.634955 42:-0.0732313 43:-0.883266 44:0.356386 45:-0.132407 46:0.151835 47:0.344942 48:0.00255294 49:-0.406163 50:0.566674 51:-0.221064 52:-0.366103 53:-0.305277 54:0.0639829 55:0.134997 56:-0.0665139 57:0.0604433 58:-0.285622 59:0.0570933 60:0.214252 61:0.161145 62:0.271448 63:0.18361 64:0.172841 65:0.139773 66:-0.204235 67:-0.379063 68:5.77306e-05 69:0.116346 70:0.508995 71:-0.559539 72:-0.0713227 73:-0.230123 74:-0.275257 75:-0.203023 76:-0.395554 77:0.223187 78:0.279503 79:0.0286913 80:-0.139036 81:-0.12963 82:0.290661 83:-0.0228987 84:0.273934 85:0.0285213 86:0.163897 87:-0.126524 88:-0.268489 89:-0.402041 90:0.0409077 91:-0.104294 92:0.306557 93:-0.016265 94:0.426217 95:0.0803638 96:0.151267 97:0.214192 98:0.171598 99:0.262973 100:0.5159 101:-0.120627 102:0.297445 103:0.275997 104:0.230171 105:-0.295617 106:0.472419 107:-0.0322904 108:0.445599 109:-0.0392886 110:0.634515 111:-0.471153 112:0.616131 113:-0.0725406 114:0.540663 115:-0.419701 116:0.435578 117:0.014823 118:0.489539 119:-0.438821 120:0.498872 121:-0.132981 122:0.550837 123:-0.0205565 124:0.720652 125:0.131637 126:0.552469 127:-0.121867 
0.5 0:0.253425 1:-1 2:-1 3:1 4:-0.698876 5:0.735745 6:-0.327162 7:1 8:-0.387055 9:0.461354 10:-0.393111 11:1 12:-0.30079 13:0.669571 14:-0.429106 15:0.749741 16:-0.0656354 17:0.753993 18:0.0396355 19:0.915977 20:0.122261 21:0.692223 22:0.0131458 23:1 24:-0.481937 25:1 26:0.0360258 27:0.986034 28:0.0153075 29:0.445785 30:-0.149272 31:0.386342 32:-0.471634 33:0.0499883 34:-0.155575 35:0.136663 36:-0.0628804 37:0.237851 38:-0.117329 39:0.264909 40:-0.0934271 41:0.247908 42:0.0506483 43:0.173252 44:0.171315 45:0.353282 46:-0.164056 47:0.515219 48:-0.351983 49:0.0707238 50:-0.120735 51:-0.140832 52:-0.519366 53:0.491492 54:-0.367388 55:0.516096 56:-0.181605 57:0.337035 58:-0.499279 59:0.517818 60:-0.232862 61:0.608816 62:-0.32963 63:0.583268 64:-0.0509546 65:0.675082 66:-0.775754 67:0.32751 68:-0.641415 69:0.292864 70:-0.144903 71:0.316232 72:-0.684056 73:0.25516 74:-0.889784 75:0.524796 76:-0.69694 77:0.650853 78:-0.741859 79:0.578527 80:-0.91696 81:0.509678 82:-0.679861 83:1 84:-1 85:0.747087 86:-1 87:0.266351 88:-0.922763 89:0.610215 90:-1 91:0.715238 92:-0.936481 93:0.892154 94:-1 95:0.943185 96:-1 97:1 98:-1 99:0.8021 100:-1 101:1 102:-1 103:1 104:-1 105:0.664242 106:-1 107:0.694662 108:-1 109:0.588157 110:-1 111:0.666247 112:-1 113:0.663839 114:-1 115:0.23982 116:-1 117:0.492923 118:-1 119:0.469505 120:-1 121:0.316017 122:-1 123:0.362225 124:-1 125:0.383604 126:-1 127:0.0784353 
0.1630572940715322 0:0.148541 1:0.31048 2:-0.445579 3:-0.243533 4:-0.411788 5:-0.0292102 6:-0.0136377 7:-0.413525 8:-0.0862701 9:-0.494408 10:-0.0320494 11:-0.113792 12:0.00945793 13:-0.102537 14:-0.23953 15:0.283856 16:0.0757873 17:0.00651613 18:-0.0359656 19:0.109543 20:0.258674 21:0.209699 22:0.0338003 23:0.282253 24:0.0983998 25:-0.0744816 26:0.410794 27:0.131594 28:0.101382 29:-0.00557892 30:0.0466811 31:0.0798217 32:-0.31268 33:-0.158013 34:-0.0398133 35:-0.189372 36:0.381054 37:-0.0770435 38:0.267215 39:-0.0687191 40:0.0871259 41:0.0472513 42:0.217599 43:-0.103709 44:0.295953 45:0.0931531 46:0.0247629 47:-0.203583 48:-0.238583 49:-0.107182 50:0.0562019 51:-0.534721 52:-0.284068 53:0.392336 54:-0.0268463 55:0.148085 56:0.0410852 57:-0.0320765 58:-0.363434 59:-0.12258 60:0.259872 61:0.306865 62:-0.233461 63:0.245362 64:0.331395 65:0.353092 66:-0.0990129 67:-0.258297 68:-0.136382 69:-0.290327 70:0.521901 71:-0.404072 72:-0.272326 73:-0.161031 74:0.125383 75:-0.219499 76:-0.25002 77:0.241781 78:0.215143 79:-0.0307665 80:-0.386461 81:-0.125639 82:0.154359 83:0.0173207 84:0.218911 85:0.0373298 86:0.0548244 87:-0.368323 88:-0.335981 89:-0.0236437 90:0.000627354 91:0.0887543 92:0.352756 93:0.130131 94:0.316412 95:0.0793346 96:0.0526078 97:0.485189 98:0.00772258 99:0.051224 100:0.350113 101:-0.085698 102:0.194127 103:0.154131 104:0.116054 105:-0.0412671 106:0.434624 107:0.0762526 108:0.329413 109:0.0205086 110:0.450299 111:-0.163922 112:0.405671 113:-0.149924 114:0.383122 115:-0.536784 116:0.307661 117:-0.00654523 118:0.340035 119:-0.107741 120:0.276037 121:0.0464658 122:0.495494 123:0.0257408 124:0.461721 125:-0.121252 126:0.412166 127:-0.0999343 
0.1510455673761556 0:0.13881 1:0.266405 2:-0.386266 3:-0.216555 4:-0.277323 5:-0.0665277 6:-0.0165831 7:-0.202298 8:-0.310231 9:-0.37681 10:-0.16795 11:-0.038893 12:-0.316751 13:0.0536506 14:-0.306716 15:-0.0327475 16:-0.313814 17:0.120554 18:-0.136035 19:0.074042 20:0.434239 21:0.414195 22:0.306182 23:0.196627 24:-0.258005 25:0.186403 26:0.318016 27:0.210061 28:0.160992 29:-0.000896203 30:-0.0620628 31:0.164449 32:-0.413001 33:-0.126022 34:-0.126956 35:-0.0985608 36:-0.0824819 37:0.0530343 38:0.108637 39:0.0467836 40:0.0863095 41:-0.132611 42:0.415436 43:-0.221021 44:0.476623 45:-0.0250958 46:0.0270236 47:0.105834 48:-0.324094 49:-0.30323 50:0.247262 51:-0.322868 52:-0.442972 53:0.33051 54:-0.150445 55:0.262596 56:-0.179171 57:0.260949 58:-0.176932 59:0.0441586 60:0.325772 61:0.346967 62:0.0402639 63:-0.0818262 64:0.352889 65:0.068423 66:-0.114631 67:-0.327155 68:-0.327068 69:-0.413854 70:0.304677 71:-0.164434 72:-0.380893 73:-0.174224 74:0.126915 75:-0.118546 76:-0.208693 77:0.300176 78:0.031178 79:0.145924 80:-0.252558 81:-0.0859354 82:0.147949 83:-0.10358 84:0.00776269 85:0.297892 86:0.04905 87:-0.253425 88:-0.307032 89:-0.17428 90:-0.0546727 91:0.173265 92:0.275568 93:0.329572 94:0.352782 95:0.253947 96:0.0449246 97:0.256763 98:0.0702286 99:0.200458 100:0.266124 101:-0.152737 102:0.113547 103:0.348335 104:0.217009 105:0.069574 106:0.309888 107:-0.0791747 108:0.337371 109:-0.114282 110:0.384754 111:-0.150739 112:0.30585 113:0.13349 114:0.273305 115:-0.20086 116:0.231336 117:-0.233088 118:0.301788 119:-0.150955 120:0.217514 121:0.0557699 122:0.359956 123:-0.0969006 124:0.466541 125:0.363228 126:0.327101 127:-0.0551721 
0.09542439937347694 0:0.126066 1:0.295788 2:-0.428555 3:-0.2176 4:-0.237462 5:-0.0237646 6:-0.175511 7:-0.365795 8:-0.0927904 9:-0.181888 10:-0.18779 11:-0.0710468 12:-0.110781 13:-0.0185889 14:-0.00697345 15:0.0524874 16:-0.12983 17:0.0989774 18:0.0950325 19:0.094438 20:0.321613 21:0.26727 22:0.293782 23:0.451827 24:-0.0870466 25:0.140867 26:0.193361 27:0.260545 28:0.113719 29:-0.0353673 30:0.153701 31:-0.0314783 32:-0.282067 33:-0.179088 34:-0.0364859 35:-0.0126925 36:-0.134176 37:-0.119717 38:0.0321319 39:0.0698723 40:0.146771 41:-0.0974575 42:0.200831 43:-0.162164 44:0.440025 45:0.0572907 46:0.0132356 47:0.3069 48:-0.179031 49:-0.160471 50:0.208067 51:-0.344987 52:-0.197297 53:0.0587643 54:-0.112793 55:0.337298 56:0.26662 57:-0.163268 58:-0.219427 59:0.220047 60:0.0786431 61:0.227443 62:-0.0563236 63:-0.0823932 64:0.210267 65:0.266008 66:-0.172989 67:-0.184054 68:-0.23047 69:-0.0685776 70:0.374352 71:-0.0574041 72:0.121499 73:-0.146557 74:-0.0107235 75:0.036802 76:-0.099791 77:0.183825 78:0.0125277 79:0.115005 80:-0.264153 81:0.0118623 82:0.0370153 83:0.0212879 84:0.112212 85:-0.141705 86:-0.028575 87:-0.308741 88:-0.176807 89:-0.0122571 90:-0.10814 91:-0.218273 92:0.139716 93:0.149429 94:0.247908 95:0.113795 96:0.0913796 97:0.360093 98:-0.040384 99:-0.0212213 100:0.429997 101:-0.0532258 102:0.0856186 103:0.247468 104:0.160482 105:0.110414 106:0.309407 107:0.167045 108:0.303267 109:-0.142027 110:0.463559 111:-0.00167043 112:0.441551 113:0.0106235 114:0.359288 115:-0.0561954 116:0.272889 117:0.0382174 118:0.286713 119:-0.309577 120:0.247913 121:-0.166342 122:0.387082 123:0.104652 124:0.447222 125:0.065903 126:0.34019 127:-0.0892783 
0.08175495378598985 0:0.183122 1:0.0910872 2:-0.377462 3:-0.158452 4:-0.126195 5:0.0967647 6:-0.0843109 7:-0.240778 8:-0.102484 9:-0.337416 10:-0.142689 11:-0.0283529 12:0.0104307 13:0.0968004 14:-0.453639 15:0.288308 16:-0.182448 17:0.128885 18:0.202781 19:0.412639 20:0.33667 21:0.304425 22:0.171263 23:0.333821 24:-0.0293853 25:0.142835 26:0.382733 27:0.427353 28:0.152972 29:0.134629 30:-0.0467623 31:-0.0903249 32:-0.43246 33:-0.221926 34:-0.0664488 35:-0.190389 36:0.0298557 37:0.0790753 38:-0.0320006 39:0.213585 40:0.0720823 41:-0.203282 42:0.157587 43:-0.225694 44:0.290772 45:0.101819 46:-0.0734908 47:0.136425 48:-0.0946478 49:-0.408672 50:0.11246 51:-0.24113 52:-0.362494 53:0.195993 54:-0.370592 55:0.339128 56:-0.043338 57:0.0793087 58:-0.143999 59:0.203878 60:0.261262 61:0.261742 62:-0.150598 63:0.093028 64:0.232773 65:0.25869 66:-0.376411 67:-0.047541 68:-0.30099 69:-0.162867 70:0.180727 71:-0.121242 72:-0.0832106 73:-0.10022 74:-0.153575 75:0.0248645 76:-0.262496 77:0.2781 78:-0.0283121 79:0.440016 80:-0.304237 81:-0.0937218 82:-0.0753089 83:0.275087 84:-0.0552715 85:0.123865 86:-0.115751 87:-0.18732 88:-0.469972 89:0.0719757 90:-0.114791 91:0.202824 92:0.028389 93:0.253981 94:-0.0255979 95:0.337776 96:-0.123949 97:0.456709 98:-0.0633255 99:0.15926 100:0.179507 101:0.126045 102:-0.174699 103:0.412138 104:-0.0685005 105:0.139388 106:0.119336 107:0.131226 108:0.136468 109:-0.0346148 110:0.211395 111:-0.140656 112:0.145375 113:0.0779791 114:0.159851 115:-0.169725 116:0.0712097 117:-0.0168249 118:0.0917757 119:0.0668073 120:0.0991987 121:-0.137039 122:0.210021 123:0.164287 124:0.204362 125:0.232278 126:0.18684 127:-0.0120263 
-0.5 0:0.188497 1:0.27522 2:-0.40537 3:-0.224433 4:-0.328426 5:-0.0323676 6:-0.117031 7:-0.331953 8:-0.233496 9:-0.397038 10:-0.0954853 11:-0.186598 12:-0.123947 13:-0.100356 14:-0.233143 15:0.183679 16:0.190399 17:0.0115955 18:0.1079 19:0.275114 20:0.201446 21:0.205672 22:0.14488 23:0.330544 24:-0.182013 25:0.0923494 26:0.308538 27:0.29313 28:0.121894 29:0.0655698 30:0.048058 31:-0.0800865 32:-0.317936 33:-0.176836 34:-0.0326558 35:-0.148951 36:0.221817 37:-0.0134389 38:0.0381122 39:-0.0399203 40:0.0308222 41:-0.195463 42:0.146555 43:-0.107347 44:0.305832 45:0.0602133 46:-0.0764078 47:0.112227 48:-0.161786 49:-0.174396 50:0.0860439 51:-0.367699 52:-0.29611 53:0.163266 54:-0.0798616 55:0.264866 56:-0.00270871 57:-0.0827658 58:-0.208672 59:0.153598 60:0.249205 61:0.214019 62:-0.0107016 63:0.0677989 64:0.256543 65:0.138675 66:-0.222381 67:-0.0941779 68:-0.143448 69:-0.0767687 70:0.253177 71:-0.241566 72:-0.0641632 73:-0.114815 74:0.0218829 75:0.0972109 76:-0.161848 77:0.204888 78:-0.02203 79:0.175971 80:-0.268615 81:-0.0957992 82:0.0484542 83:0.0776922 84:0.0988411 85:0.102453 86:-0.0371751 87:-0.176178 88:-0.343933 89:-0.0340285 90:-0.0928949 91:0.103439 92:0.171031 93:0.146282 94:0.210084 95:0.229335 96:-0.0431422 97:0.364788 98:-0.0402764 99:0.0380826 100:0.352144 101:-0.00569298 102:-0.0019067 103:0.274493 104:0.145061 105:0.00326427 106:0.252227 107:0.0893197 108:0.259515 109:-0.0248217 110:0.314912 111:-0.139657 112:0.30758 113:-0.0344965 114:0.292556 115:-0.221422 116:0.198601 117:0.0108982 118:0.227309 119:-0.0870809 120:0.252689 121:-0.10976 122:0.326312 123:0.0464519 124:0.384663 125:0.0984254 126:0.321248 127:-0.0995513 
-0.5 0:0.152528 1:0.277179 2:-0.399248 3:-0.196531 4:-0.244952 5:-0.0677578 6:-0.168262 7:-0.353795 8:-0.169015 9:-0.401557 10:-0.194787 11:-0.162732 12:-0.196365 13:-0.0785108 14:-0.192802 15:0.181732 16:0.0624456 17:0.00929194 18:0.198656 19:0.123881 20:0.224034 21:0.291838 22:0.151701 23:0.243159 24:-0.236117 25:0.0258248 26:0.247762 27:0.293036 28:0.129114 29:0.0386534 30:0.0543501 31:-0.0935046 32:-0.385777 33:-0.224228 34:-0.038573 35:-0.159672 36:0.126369 37:-0.133802 38:0.0809462 39:-0.0198483 40:-0.0120862 41:-0.0540195 42:0.135374 43:-0.109796 44:0.306507 45:0.0693839 46:-0.0660918 47:0.187451 48:-0.148202 49:-0.306646 50:0.130416 51:-0.382029 52:-0.257649 53:0.0392592 54:-0.101704 55:0.33408 56:-0.00529912 57:0.0285935 58:-0.243556 59:0.00255363 60:0.172304 61:0.201154 62:-0.0100981 63:0.144856 64:0.240106 65:0.0658617 66:-0.261764 67:-0.0870722 68:-0.131693 69:-0.0902681 70:0.341312 71:-0.270403 72:-0.0552649 73:-0.110106 74:0.105635 75:0.027667 76:-0.208821 77:0.289433 78:-0.0958234 79:0.189545 80:-0.317169 81:-0.049453 82:0.025375 83:0.146988 84:0.0658485 85:0.145077 86:-0.0698772 87:-0.116405 88:-0.379673 89:-0.00142741 90:-0.0832716 91:0.0982964 92:0.120728 93:0.207691 94:0.188402 95:0.171136 96:-0.00149952 97:0.358209 98:-0.0441864 99:0.0158772 100:0.314715 101:0.0729172 102:-0.0366498 103:0.31633 104:0.081819 105:-0.0157984 106:0.235597 107:0.0659816 108:0.243347 109:0.0720692 110:0.341964 111:-0.118782 112:0.336603 113:0.0323907 114:0.31348 115:-0.231399 116:0.192096 117:-0.00968478 118:0.196613 119:-0.194693 120:0.206511 121:-0.063189 122:0.341848 123:0.0929911 124:0.391289 125:0.173327 126:0.337748 127:0.0316866 
-0.3304353817283575 0:-0.298577 1:-0.693438 2:1 3:0.0403207 4:1 5:0.537316 6:-0.740684 7:-0.467156 8:1 9:1 10:-0.0425953 11:0.979684 12:0.152195 13:1 14:-0.371362 15:0.992797 16:-0.190296 17:1 18:-0.232953 19:0.842692 20:-0.0302424 21:0.594262 22:0.00223567 23:0.992606 24:-0.409802 25:0.623268 26:0.189854 27:0.941361 28:0.419336 29:0.283003 30:-0.298729 31:0.205124 32:-0.697917 33:0.238601 34:0.0262291 35:0.199818 36:-0.0724603 37:-0.0518976 38:-0.163135 39:0.542866 40:-0.0813423 41:0.349199 42:-0.0491246 43:-0.10893 44:-0.0656263 45:0.495344 46:-0.246746 47:0.37924 48:-0.490355 49:0.0075502 50:-0.0353496 51:-0.565247 52:-0.22787 53:0.329999 54:-0.05229 55:0.190688 56:-0.139351 57:0.546887 58:-0.470126 59:0.394507 60:-0.103604 61:0.441303 62:-0.298685 63:0.169645 64:0.339992 65:0.707647 66:-0.239658 67:0.392597 68:-0.618843 69:0.440359 70:-0.118749 71:0.593502 72:-0.454133 73:0.049958 74:-1 75:0.681814 76:-0.742115 77:0.545386 78:-0.742113 79:0.64039 80:-0.819186 81:0.3311 82:-0.612006 83:0.873201 84:-0.723003 85:0.368912 86:-0.948393 87:0.108102 88:-0.836574 89:0.413493 90:-0.844789 91:0.565758 92:-0.730791 93:0.781069 94:-0.670277 95:0.877503 96:-0.842275 97:0.80815 98:-0.871955 99:0.557324 100:-0.705698 101:0.73415 102:-0.775672 103:0.812182 104:-0.817453 105:0.606015 106:-0.746508 107:0.498969 108:-0.759496 109:0.334294 110:-0.716513 111:0.437376 112:-0.729754 113:0.498624 114:-0.735863 115:0.064592 116:-0.722444 117:0.389617 118:-0.715433 119:0.294891 120:-0.751257 121:0.211035 122:-0.693483 123:0.430388 124:-0.710897 125:0.28339 126:-0.721376 127:0.00388076 
-0.4115254227940016 0:-1 1:-0.295788 2:-0.451398 3:0.932873 4:0.176255 5:1 6:0.286027 7:0.17865 8:-0.198415 9:-0.169744 10:-0.338134 11:0.233298 12:-0.26051 13:0.428234 14:-0.381871 15:0.461579 16:-0.0423158 17:0.891073 18:0.639767 19:0.687277 20:0.313642 21:0.251564 22:0.184998 23:0.621586 24:-0.0996943 25:0.205106 26:0.101911 27:0.479511 28:0.252646 29:0.199079 30:-0.152137 31:-0.086823 32:-0.629757 33:0.223544 34:-0.0077049 35:0.349839 36:-0.0250979 37:-0.305648 38:-0.402373 39:0.105474 40:-0.113866 41:0.14024 42:0.326652 43:0.124364 44:0.234942 45:0.187118 46:-0.0505875 47:0.282401 48:-0.389183 49:0.0514631 50:-0.183535 51:0.0318971 52:-0.239572 53:1 54:0.0338624 55:0.356837 56:-0.261575 57:0.222845 58:0.0596097 59:0.437144 60:0.227796 61:0.153289 62:0.0552184 63:0.101041 64:0.0818055 65:0.298939 66:-0.115576 67:0.217984 68:-0.146919 69:-0.164826 70:0.25016 71:-0.087608 72:-0.481188 73:-0.157607 74:-0.200076 75:0.571535 76:-0.30321 77:0.406131 78:-0.421861 79:0.236405 80:-0.777895 81:0.355582 82:-0.622412 83:0.784014 84:-0.127054 85:0.922444 86:-0.314151 87:-0.0179845 88:-0.3472 89:0.0520042 90:-0.681382 91:0.176731 92:-0.450561 93:0.778331 94:-0.285622 95:0.842471 96:-0.331732 97:0.950143 98:-0.487512 99:0.416118 100:-0.495038 101:0.989395 102:-0.537599 103:0.630615 104:-0.367849 105:0.192134 106:-0.318811 107:-0.195809 108:-0.53824 109:0.341915 110:-0.33325 111:0.745243 112:-0.219262 113:0.579565 114:-0.348426 115:0.0102276 116:-0.334197 117:0.194983 118:-0.423976 119:0.449511 120:-0.360261 121:0.0625143 122:-0.377442 123:0.843756 124:-0.290195 125:0.116162 126:-0.360718 127:0.348377 
-0.3275298364870535 0:1 1:0.715965 2:-0.424632 3:-1 4:-1 5:-1 6:-0.0410909 7:-0.898243 8:-0.216861 9:-1 10:-0.111404 11:-0.841131 12:0.395178 13:-1 14:0.292862 15:-1 16:0.84333 17:-0.54942 18:-0.332172 19:0.0949911 20:0.806954 21:0.141286 22:-0.555614 23:0.970376 24:-0.0564819 25:0.256858 26:0.12107 27:0.863187 28:-0.0231307 29:-0.538284 30:0.418622 31:-0.58327 32:-1 33:-0.881002 34:-0.473363 35:-0.451914 36:-0.408133 37:-0.0275954 38:0.502916 39:0.787317 40:0.148853 41:-0.306986 42:0.000458757 43:0.546837 44:0.279432 45:0.0912687 46:0.561851 47:-0.652339 48:0.213409 49:1 50:-0.44802 51:1 52:0.770011 53:-0.67662 54:0.252882 55:-0.292627 56:0.450582 57:-0.534891 58:0.590884 59:-0.749042 60:0.368995 61:-1 62:1 63:0.0215864 64:1 65:-0.192828 66:0.655477 67:0.277882 68:0.314063 69:0.525513 70:-0.137062 71:-0.98796 72:0.149393 73:-1 74:1 75:0.258097 76:0.114433 77:-0.39748 78:0.411527 79:-0.80059 80:-0.371767 81:-0.394739 82:-0.164881 83:-1 84:0.721814 85:0.85995 86:1 87:-0.21448 88:-0.30431 89:0.139801 90:0.756432 91:-0.724721 92:0.296246 93:0.447118 94:0.439844 95:-0.394125 96:0.159544 97:-1 98:-0.110601 99:-0.127011 100:0.921387 101:-0.111703 102:0.42654 103:-0.600611 104:0.313534 105:-1 106:0.434666 107:-0.62948 108:0.632856 109:-0.681454 110:0.636344 111:-0.484101 112:0.954926 113:0.984728 114:0.74215 115:-1 116:1 117:-0.732698 118:0.569033 119:-0.228097 120:0.2851 121:-0.43894 122:0.50174 123:0.57647 124:0.728597 125:0.901152 126:0.707821 127:0.478807 
-0.3305471892274154 0:-0.04219 1:0.510284 2:-0.349056 3:-0.4059 4:0.253303 5:0.0141283 6:-0.678507 7:-0.024595 8:0.114864 9:-0.931406 10:-0.647369 11:-0.731299 12:0.605705 13:-0.832565 14:-0.698921 15:0.158223 16:-0.393047 17:-0.43442 18:-0.709961 19:-0.074804 20:-0.333804 21:0.526531 22:0.832573 23:-0.917587 24:-0.304675 25:0.228903 26:0.144091 27:0.190425 28:0.736023 29:0.136129 30:-1 31:-0.413365 32:1 33:-0.944078 34:0.000456554 35:0.0947871 36:-0.640508 37:0.145841 38:0.969034 39:-0.246635 40:-0.0474112 41:0.617984 42:-0.416721 43:0.527462 44:-1 45:0.327865 46:-0.435955 47:-0.827396 48:1 49:-0.972355 50:-0.196894 51:-0.279418 52:0.518287 53:-0.331516 54:-0.610386 55:-1 56:-0.49772 57:0.397423 58:-0.633617 59:-0.78621 60:0.0708175 61:0.123624 62:0.444849 63:-0.127183 64:-0.778227 65:0.905598 66:0.671151 67:0.498513 68:-0.107887 69:0.349919 70:0.833036 71:0.383946 72:0.143408 73:-0.546737 74:-0.730537 75:-0.170913 76:-0.695155 77:-0.0223792 78:1 79:-0.254777 80:-0.134622 81:-1 82:-0.115335 83:0.95858 84:0.417199 85:0.464194 86:0.217545 87:-0.74029 88:-0.087897 89:-1 90:0.0743602 91:-0.600604 92:0.754941 93:0.0445196 94:0.341974 95:-0.374225 96:0.796342 97:-0.418784 98:0.0640638 99:0.893141 100:0.493806 101:-0.503596 102:0.131512 103:0.356615 104:0.455651 105:-0.633854 106:0.462855 107:0.228975 108:0.0657665 109:-0.819647 110:0.549432 111:-0.848613 112:0.673186 113:0.225163 114:0.500925 115:-0.179078 116:0.569642 117:-0.338002 118:0.242653 119:-0.179105 120:0.653283 121:-0.182228 122:0.86941 123:0.36958 124:0.81441 125:1 126:0.497363 127:-0.227409 
-0.3325715915849987 0:-0.103244 1:0.625857 2:-0.208685 3:-0.250699 4:-0.11428 5:0.44986 6:1 7:-0.852183 8:0.219056 9:-0.268713 10:0.965955 11:0.440274 12:1 13:-0.299689 14:-0.561857 15:0.543386 16:-0.865538 17:0.584226 18:0.912882 19:-0.387013 20:-1 21:-1 22:-0.416758 23:0.651944 24:-0.504149 25:0.393561 26:-0.306215 27:0.30649 28:0.290316 29:-1 30:-0.15897 31:0.127964 32:-0.447899 33:0.470878 34:-0.427022 35:-0.92527 36:-0.607062 37:0.0646969 38:0.0691592 39:0.794381 40:0.741033 41:0.0214393 42:-1 43:-0.121321 44:0.164194 45:0.972559 46:1 47:-0.192402 48:0.357065 49:-0.968843 50:0.0483684 51:-0.181014 52:0.0945877 53:0.765219 54:0.0541222 55:0.241374 56:0.00925088 57:-0.293997 58:-0.225053 59:-0.554415 60:0.0419218 61:-0.00238679 62:-0.143032 63:-0.227625 64:0.0555064 65:-0.33809 66:-0.523674 67:-0.634357 68:0.556096 69:-0.847011 70:1 71:-0.331753 72:0.592016 73:-0.765081 74:-0.940801 75:1 76:0.167102 77:-0.0791028 78:0.59819 79:-0.15012 80:0.27575 81:-0.0275668 82:0.617963 83:-0.644899 84:-0.826127 85:0.799236 86:-0.332862 87:0.253843 88:1 89:-0.632612 90:0.213094 91:0.0931187 92:0.501046 93:-0.676918 94:0.120608 95:-0.234309 96:1 97:0.376058 98:0.399852 99:-1 100:0.67982 101:-0.411222 102:0.142036 103:0.550411 104:0.564367 105:-0.00337065 106:0.767259 107:-0.463142 108:0.70661 109:-1 110:0.736349 111:-0.308141 112:0.787045 113:-0.403173 114:1 115:-0.866144 116:0.68038 117:-0.507544 118:0.768332 119:0.168557 120:0.675581 121:-0.265285 122:1 123:0.221767 124:0.799101 125:-0.289278 126:0.859565 127:-0.777686 
-0.3262002186149089 0:0.115483 1:0.951028 2:-0.612691 3:-0.174224 4:0.700347 5:0.369308 6:-0.958478 7:0.415934 8:-1 9:-0.624178 10:0.0112693 11:-0.545608 12:0.382819 13:-0.455212 14:-1 15:0.328282 16:-0.312677 17:0.0855982 18:0.177955 19:-1 20:0.44873 21:0.496465 22:0.801578 23:0.666284 24:-0.85845 25:0.21454 26:-1 27:-0.116502 28:0.546884 29:0.18438 30:0.712043 31:0.452048 32:0.705686 33:0.179725 34:-1 35:0.0524031 36:1 37:0.416572 38:-0.390569 39:-0.679612 40:-1 41:-0.548763 42:-0.506415 43:0.216755 44:0.432649 45:0.952292 46:-0.559602 47:-0.488623 48:-0.235339 49:-0.294872 50:-0.0395587 51:-0.155625 52:-0.944359 53:0.492412 54:0.0445399 55:-0.0149604 56:0.42308 57:-1 58:0.0688231 59:-0.486271 60:0.62983 61:-0.868148 62:0.139375 63:0.368452 64:0.730181 65:0.227589 66:0.261413 67:-0.837943 68:0.151494 69:-0.308055 70:0.340197 71:-0.663805 72:1 73:-0.191595 74:0.337563 75:-1 76:0.454859 77:-0.402139 78:0.237982 79:-0.165363 80:0.29607 81:-0.214407 82:1 83:-0.661891 84:0.184561 85:0.342759 86:0.566563 87:-0.530013 88:-0.31416 89:-0.960066 90:0.66801 91:-1 92:0.417372 93:-1 94:0.947225 95:-0.179977 96:0.202933 97:0.818208 98:1 99:-0.202313 100:1 101:-0.323259 102:0.90504 103:-1 104:1 105:-0.926629 106:1 107:-0.545554 108:1 109:-0.493938 110:0.845306 111:-0.667569 112:1 113:-0.237715 114:0.772467 115:-0.487632 116:0.717249 117:0.379902 118:1 119:-0.491793 120:1 121:-0.761368 122:0.924234 123:-0.0804133 124:0.963515 125:-1 126:1 127:-0.323002 
-0.3496460283259938 0:0.0929859 1:-0.244858 2:-0.309147 3:0.6001 4:0.264059 5:0.990402 6:0.731856 7:-0.489841 8:-0.558103 9:-0.501605 10:-0.31101 11:0.56751 12:-0.564229 13:-0.0385698 14:0.583844 15:0.381457 16:0.25189 17:0.709282 18:0.972006 19:-0.387923 20:-0.441739 21:-0.243074 22:1 23:0.953703 24:-0.310792 25:0.236391 26:0.274248 27:0.276713 28:0.162767 29:0.0690523 30:0.201948 31:-0.260962 32:-0.407649 33:1 34:1 35:0.833752 36:-0.544832 37:-0.300367 38:0.738758 39:-0.169898 40:-0.165252 41:-0.301062 42:-0.326203 43:1 44:0.42067 45:0.540615 46:-0.992584 47:0.668632 48:-0.875249 49:0.583039 50:-0.214576 51:-0.0157885 52:-0.781519 53:-0.0803539 54:0.221163 55:0.290273 56:-1 57:-0.299917 58:0.050842 59:-0.781979 60:0.139551 61:0.482529 62:0.223654 63:-0.376336 64:-0.441902 65:0.891328 66:-0.694197 67:-0.598261 68:-0.156636 69:0.0317257 70:0.20641 71:0.793552 72:0.121651 73:-0.118127 74:-0.279515 75:-0.958407 76:-0.206587 77:0.229301 78:-0.214316 79:0.290724 80:-1 81:1 82:-1 83:-0.531539 84:0.366583 85:-1 86:0.612749 87:0.00279017 88:-0.774506 89:0.159989 90:-0.419526 91:0.099211 92:-0.221024 93:0.567636 94:-0.0497816 95:0.642075 96:-0.879373 97:0.266247 98:-0.988745 99:0.0646176 100:-0.0172198 101:0.526396 102:-0.0369478 103:-0.0887172 104:-0.40149 105:-0.00433899 106:-0.194411 107:-0.39065 108:-0.040591 109:0.679447 110:-0.191738 111:-0.703424 112:0.0564514 113:-0.712045 114:-0.261737 115:-0.26826 116:-0.16462 117:0.412996 118:-0.212299 119:0.216599 120:-0.228218 121:-0.0594997 122:-0.169659 123:0.117077 124:-0.335176 125:0.956801 126:-0.108284 127:0.427483 
-0.5 0:0.0716641 1:0.460333 2:-0.293149 3:-0.242453 4:-0.192641 5:-0.155597 6:0.0250722 7:-0.313942 8:-0.224313 9:-0.453975 10:0.0980855 11:-0.187467 12:-0.182801 13:-0.10507 14:-0.228282 15:0.326188 16:-0.804099 17:0.371051 18:-0.160449 19:-0.385354 20:0.29144 21:0.13469 22:0.443473 23:0.131374 24:0.0537117 25:-0.191478 26:0.589027 27:0.076512 28:0.283059 29:-0.179156 30:0.428243 31:0.48352 32:-0.691833 33:-0.07657 34:-0.450369 35:-0.21069 36:-0.459958 37:-0.0996484 38:0.743386 39:0.0195116 40:-0.185399 41:-0.174684 42:0.151045 43:-0.265698 44:-0.0367894 45:-0.0427231 46:0.261094 47:-0.331821 48:-0.607193 49:-0.46068 50:0.489256 51:-0.0591767 52:-0.753994 53:-0.603444 54:0.264144 55:0.139794 56:0.0210136 57:-0.0622573 58:-0.0253052 59:-0.191011 60:0.161761 61:-0.075746 62:0.125479 63:0.777403 64:0.0744721 65:-0.291987 66:-0.419885 67:0.125535 68:-0.242478 69:-0.790812 70:0.477089 71:0.248913 72:-0.319612 73:0.0688515 74:0.0422319 75:-0.0939292 76:0.0170388 77:0.282764 78:0.169603 79:0.4692 80:-0.16571 81:0.0711087 82:-0.274941 83:0.628999 84:-0.159156 85:0.428312 86:0.362895 87:-0.341851 88:-0.432071 89:-0.224384 90:0.109386 91:-0.0111287 92:0.327199 93:-0.0157942 94:0.569508 95:0.419353 96:-0.256278 97:0.658675 98:-0.0220691 99:0.183662 100:0.347176 101:-0.830111 102:0.177914 103:0.686102 104:0.184921 105:-0.413912 106:0.289804 107:0.285893 108:0.179021 109:-0.512857 110:0.520168 111:0.102898 112:0.39262 113:-0.316449 114:0.277698 115:0.514078 116:0.2699 117:-0.520234 118:0.190688 119:-0.224977 120:0.357852 121:-0.568947 122:0.410632 123:0.2657 124:0.568077 125:0.286856 126:0.172075 127:-0.146962 
-0.345311625989578 0:0.244948 1:-0.221352 2:-0.519822 3:0.196354 4:-0.31683 5:0.675435 6:-0.715289 7:0.172572 8:0.277345 9:-0.50955 10:-0.576288 11:0.552169 12:-0.18332 13:0.496456 14:-0.547977 15:0.806492 16:-0.714207 17:0.863673 18:-0.552907 19:-0.0819997 20:0.154793 21:-0.0780376 22:0.0834271 23:0.135856 24:0.249326 25:0.492936 26:-0.0342804 27:-0.431503 28:0.215123 29:1 30:0.181624 31:-0.330344 32:0.541998 33:0.796287 34:0.0847048 35:0.00525703 36:0.657671 37:1 38:0.420133 39:-0.0974588 40:0.534504 41:0.595645 42:-0.793731 43:0.488816 44:0.398221 45:0.735593 46:-0.448874 47:0.914626 48:-0.663079 49:0.201311 50:0.112601 51:-0.284997 52:0.0247886 53:0.756335 54:-0.144538 55:0.489862 56:-0.547779 57:-0.42921 58:-0.0280259 59:-0.341181 60:-0.799823 61:0.469705 62:-1 63:0.619503 64:0.253256 65:0.593853 66:-0.633192 67:0.782298 68:0.521098 69:1 70:0.107924 71:0.537264 72:-0.582638 73:-0.588786 74:-0.251225 75:0.728288 76:0.0236789 77:0.794962 78:-0.0735792 79:1 80:-0.203293 81:0.9782 82:0.235389 83:0.467711 84:-0.785543 85:-0.121176 86:0.264695 87:-0.142423 88:-0.151568 89:0.53995 90:-0.602597 91:0.965458 92:-0.407125 93:0.354625 94:0.266652 95:0.559118 96:-0.278578 97:0.420714 98:-0.115302 99:0.247861 100:-0.588858 101:0.0468185 102:-0.520885 103:0.960788 104:-0.157826 105:0.209365 106:-0.236441 107:0.228993 108:-0.073975 109:0.491881 110:-0.206251 111:1 112:-0.131184 113:0.41803 114:0.131599 115:0.516996 116:-0.256108 117:0.137713 118:-0.203371 119:0.683894 120:-0.322034 121:0.545032 122:-0.203882 123:0.146261 124:-0.121359 125:0.714279 126:-0.218257 127:0.35042 
-0.5 0:0.462443 1:0.235064 2:-0.77797 3:0.0684657 4:-0.0343865 5:-0.0413825 6:-0.184161 7:-0.710349 8:0.0221072 9:-0.45341 10:-0.474118 11:0.0346241 12:-0.373978 13:-0.374853 14:-0.0913856 15:0.358767 16:-0.772934 17:-1 18:-0.700453 19:0.233733 20:0.246057 21:0.92813 22:0.501461 23:-0.634119 24:0.380638 25:0.378098 26:0.796265 27:0.628531 28:0.376148 29:-0.0500118 30:0.159733 31:0.0874573 32:0.347478 33:-0.14471 34:-0.291046 35:-0.0601267 36:0.468894 37:0.356985 38:-0.595188 39:-0.104826 40:-0.685457 41:0.281045 42:-0.108081 43:0.7249 44:-0.237259 45:-0.685143 46:0.249532 47:-0.140702 48:0.629625 49:-0.887432 50:0.0775324 51:-0.575391 52:0.0511969 53:-0.0629176 54:0.765788 55:-0.210634 56:-0.039464 57:0.0598033 58:-0.143779 59:-0.740251 60:-0.346608 61:0.096173 62:0.116609 63:0.976887 64:-0.0537362 65:-0.18112 66:-0.0680704 67:0.528234 68:-0.345459 69:-0.111818 70:-0.185769 71:-0.175533 72:0.522725 73:-0.523711 74:0.836519 75:0.0194357 76:-0.43308 77:0.590627 78:0.494368 79:0.0815614 80:0.186791 81:-0.550832 82:-0.0580878 83:-0.0240567 84:0.246758 85:0.316677 86:-0.340979 87:0.283499 88:-0.232415 89:0.214322 90:-0.325173 91:0.590163 92:0.439769 93:0.106725 94:0.269978 95:0.212209 96:0.02505 97:0.309289 98:0.154166 99:0.370606 100:0.388262 101:-0.454505 102:0.0123577 103:0.288356 104:0.20494 105:-0.0449003 106:0.449775 107:0.00810212 108:0.295862 109:0.190429 110:0.332371 111:-0.165524 112:0.37166 113:0.3619 114:0.366209 115:-0.154227 116:0.237539 117:0.0336551 118:0.255663 119:-0.541977 120:0.208641 121:-0.126162 122:0.170156 123:0.0107201 124:0.215778 125:-0.191469 126:0.13255 127:-0.566002 
-0.5 0:0.0638029 1:-0.0176298 2:-0.449358 3:-0.226389 4:-0.0957606 5:0.02217 6:-0.177025 7:-0.295123 8:-0.230624 9:-0.504884 10:-0.122173 11:0.141265 12:-0.448003 13:-0.119262 14:-0.168935 15:0.139182 16:-0.185005 17:-0.0943062 18:-0.236314 19:-0.0916507 20:-0.90097 21:0.10199 22:0.375554 23:-0.106681 24:0.5767 25:0.390181 26:0.75255 27:0.267232 28:0.279435 29:-0.0788168 30:0.521583 31:0.380188 32:-0.0660456 33:-0.147694 34:0.235289 35:-0.858694 36:0.896363 37:0.884453 38:0.0258128 39:-0.251232 40:0.513165 41:0.343233 42:0.71235 43:-0.190943 44:0.563091 45:0.356071 46:-0.107354 47:0.556404 48:-0.178019 49:-0.397374 50:0.392778 51:-0.280831 52:-0.580366 53:0.0851856 54:0.155656 55:0.261203 56:-0.0977943 57:-0.20454 58:-0.0309706 59:-0.526933 60:-0.356744 61:-0.121421 62:-0.163778 63:-0.381375 64:-0.11645 65:-0.407977 66:-0.238214 67:0.33402 68:-0.292758 69:0.0764103 70:0.0182746 71:-0.347263 72:0.471865 73:0.105823 74:0.106598 75:0.564657 76:-0.111082 77:0.265541 78:-0.356219 79:0.656531 80:-0.598296 81:-0.118418 82:-0.161445 83:0.637538 84:-0.00876158 85:0.313996 86:-0.210642 87:-0.401866 88:-0.410935 89:0.120151 90:-0.215824 91:-0.191547 92:-0.25903 93:-0.50999 94:-0.21527 95:0.0527527 96:-0.329272 97:0.398983 98:0.00470299 99:0.527256 100:0.529165 101:-0.479161 102:0.176073 103:0.580207 104:-0.232222 105:0.586992 106:0.201253 107:-0.0987569 108:0.0901407 109:-0.0171903 110:0.0706216 111:0.49677 112:0.326831 113:-0.3566 114:-0.108624 115:0.342214 116:0.0682337 117:-0.128668 118:0.176188 119:0.52845 120:0.101628 121:0.00218623 122:0.134514 123:-0.214785 124:0.30292 125:-0.159711 126:0.362753 127:0.0278196 
