svm_type c_svc
kernel_type rbf
gamma 0.0078125
nr_class 2
total_sv 60
rho 1
label 5 4
nr_sv 30 30
SV
0.03125 
0.03125 
0.03125 
0.03125 
0.03125 
0.03125 
0.03125 
0.03125 
0.03125 
0.03125 
0.03125 
0.03125 
0.03125 
0.03125 
0.03125 
0.03125 
0.03125 
0.03125 
0.03125 
0.03125 
0.03125 
0.03125 
0.03125 
0.03125 
0.03125 
0.03125 
0.03125 
0.03125 
0.03125 
0.03125 
-0.03125 
-0.03125 
-0.03125 
-0.03125 
-0.03125 
-0.03125 
-0.03125 
-0.03125 
-0.03125 
-0.03125 
-0.03125 
-0.03125 
-0.03125 
-0.03125 
-0.03125 
-0.03125 
-0.03125 
-0.03125 
-0.03125 
-0.03125 
-0.03125 
-0.03125 
-0.03125 
-0.03125 
-0.03125 
-0.03125 
-0.03125 
-0.03125 
-0.03125 
-0.03125 
