svm_type c_svc
kernel_type rbf
gamma 2
nr_class 2
total_sv 148
rho -0.573668
label 3 2
nr_sv 80 68
SV
2 0:0.137763 1:0.0130233 2:-0.0638088 3:-0.183538 4:-0.290999 5:-0.156017 6:-0.367589 7:-0.194638 8:-0.375368 9:-0.0705041 10:-0.104003 11:0.237144 12:0.111283 13:0.165486 14:0.0252662 15:-0.0398833 16:0.0968541 17:-0.0920376 18:-0.147716 19:-0.257036 20:-0.160793 21:0.305262 22:-0.0508362 23:0.365553 24:0.0391555 25:0.256027 26:-0.253249 27:0.179839 28:0.40378 29:-0.0373575 30:-0.0305684 31:-0.163867 32:-0.247706 33:-0.287938 34:0.0048429 35:0.134415 36:-0.0195427 37:-0.173728 38:-0.193464 39:-0.164518 40:0.196047 41:0.235541 42:-0.147982 43:-0.293792 44:-0.217926 45:0.0980669 46:0.0578862 47:0.131101 48:0.335144 49:0.153089 50:0.447256 51:0.289298 52:-0.234537 53:0.322286 54:-0.0435739 55:0.216541 56:0.387823 57:0.0754135 58:-0.0213442 59:0.293284 60:0.192289 61:0.404675 62:-0.192413 63:-0.051349 64:-0.190606 65:-0.197481 66:0.0473197 67:0.00807642 68:0.0930113 69:0.198776 70:-0.0200398 71:0.392427 72:-0.363212 73:0.238946 74:-0.105785 75:0.307984 76:-0.0572113 77:-0.10073 78:-0.0734247 79:0.0453752 80:0.135716 81:0.017703 82:0.166424 83:-0.402436 84:-0.143727 85:0.224964 86:0.240695 87:-0.183919 88:-0.160747 89:0.000721127 90:-0.318496 91:-0.345593 92:0.103612 93:-0.0944273 94:0.0274791 95:-0.184909 96:-0.185049 97:-0.0978237 98:-0.0194273 99:0.0764519 100:0.0497109 101:-0.166045 102:-0.0228193 103:-0.0283404 104:-0.110428 105:-0.0851701 106:0.00644302 107:0.308682 108:0.00881083 109:-0.308966 110:-0.178537 111:-0.20584 112:-0.122342 113:0.10029 114:-0.045312 115:-0.230182 116:-0.0209028 117:-0.24824 118:-0.195905 119:0.00371071 120:-0.0750465 121:-0.344146 122:-0.0196674 123:-0.264812 124:-0.173618 125:-0.16346 126:-0.217139 127:-0.132959 
2 0:0.117983 1:0.0111628 2:-0.0919461 3:-0.150198 4:-0.29945 5:-0.141825 6:-0.389431 7:-0.193615 8:-0.375632 9:-0.0816815 10:-0.0976304 11:0.326034 12:0.0859176 13:0.191036 14:0.0535351 15:-0.111491 16:0.12017 17:-0.0727896 18:-0.169382 19:-0.241345 20:-0.172226 21:0.28224 22:-0.0510127 23:0.349622 24:0.0430213 25:0.259036 26:-0.230606 27:0.169325 28:0.415799 29:-0.0278919 30:-0.0263838 31:-0.175235 32:-0.253116 33:-0.289634 34:0.0327452 35:0.130797 36:-0.042059 37:-0.158265 38:-0.192129 39:-0.172284 40:0.207642 41:0.231117 42:-0.158187 43:-0.301252 44:-0.210188 45:0.0833358 46:0.0697697 47:0.141031 48:0.313859 49:0.170268 50:0.446257 51:0.286686 52:-0.210047 53:0.354677 54:-0.033904 55:0.210062 56:0.376378 57:0.0478281 58:-0.0304392 59:0.277724 60:0.202474 61:0.390342 62:-0.200409 63:-0.0723512 64:-0.17521 65:-0.21397 66:0.045326 67:0.00590517 68:0.105915 69:0.172025 70:-0.0302467 71:0.385963 72:-0.3395 73:0.1687 74:0.0043863 75:0.264051 76:-0.109425 77:-0.0782726 78:-0.0801186 79:0.0700097 80:0.0832296 81:0.0510056 82:0.186366 83:-0.374721 84:-0.189071 85:0.264874 86:0.270586 87:-0.222642 88:-0.141202 89:0.00423855 90:-0.357798 91:-0.343291 92:0.0881471 93:-0.111336 94:-0.000782738 95:-0.256481 96:-0.219396 97:-0.114483 98:-0.00295013 99:0.0546542 100:0.062574 101:-0.164633 102:-0.0550597 103:-0.0291584 104:-0.0886113 105:-0.0963285 106:-0.0211726 107:0.320528 108:-0.0447451 109:-0.282747 110:-0.172669 111:-0.175124 112:-0.14581 113:0.0867925 114:-0.0523023 115:-0.218376 116:0.00252761 117:-0.287359 118:-0.186925 119:0.0129134 120:-0.0897978 121:-0.292202 122:-0.0253268 123:-0.214076 124:-0.20595 125:-0.0475657 126:-0.222035 127:-0.235628 
0.4307637028964245 0:-0.0798918 1:0.290233 2:-0.409768 3:-0.16343 4:-0.530547 5:-0.256396 6:-0.800321 7:-0.259437 8:-1 9:-0.27688 10:-0.432618 11:-0.360556 12:0.0707022 13:-0.172267 14:-0.00550526 15:-0.399527 16:0.120869 17:-0.220289 18:-0.146889 19:-0.312095 20:-0.202597 21:0.27545 22:-0.0825862 23:0.229462 24:0.0111662 25:0.102645 26:-0.273177 27:-0.0660092 28:0.403981 29:-0.135982 30:-0.0700611 31:-0.283321 32:-0.24169 33:-0.422811 34:0.181297 35:0.00929071 36:0.0228053 37:-0.237164 38:-0.0437832 39:-0.25707 40:0.332018 41:0.181174 42:-0.0440098 43:-0.287836 44:-0.166394 45:0.134173 46:0.0788793 47:0.144359 48:0.3557 49:0.118134 50:0.470839 51:0.230162 52:-0.148196 53:0.267888 54:0.0135955 55:0.117175 56:0.439345 57:-0.0247767 58:0.110289 59:0.202228 60:0.372602 61:0.357461 62:-0.0783867 63:-0.0210805 64:-0.149094 65:-0.176837 66:0.091548 67:-0.0453877 68:0.216189 69:0.0654833 70:0.210915 71:0.355755 72:-0.208603 73:0.199537 74:-0.0126423 75:0.169734 76:0.0248476 77:-0.140106 78:0.137408 79:0.0501645 80:0.274074 81:0.0295907 82:0.357976 83:-0.451695 84:0.0531923 85:0.235018 86:0.589856 87:-0.1944 88:0.0890787 89:0.0300372 90:-0.1703 91:-0.395184 92:0.255825 93:-0.120148 94:0.39205 95:-0.151139 96:0.02354 97:-0.0961558 98:0.193876 99:0.0570774 100:0.281795 101:-0.132848 102:0.215935 103:-0.00744569 104:0.0966964 105:-0.0930242 106:0.174677 107:0.22927 108:0.269745 109:-0.381018 110:0.172278 111:-0.242501 112:0.19926 113:-0.0366301 114:0.240683 115:-0.287086 116:0.30229 117:-0.259303 118:0.131494 119:0.0782543 120:0.190492 121:-0.257942 122:0.234054 123:-0.231351 124:0.052735 125:-0.175164 126:0.0436236 127:-0.15762 
0.4259143967228561 0:0.932606 1:-1 2:1 3:0.662582 4:0.25265 5:0.839031 6:0.00130826 7:1 8:-0.652373 9:1 10:-0.386576 11:0.723764 12:0.20167 13:0.710825 14:-0.135246 15:0.238772 16:0.199826 17:-0.0933342 18:0.124912 19:-0.0797948 20:-0.21997 21:0.740597 22:-0.189137 23:0.514558 24:0.23284 25:0.695637 26:-0.664512 27:1 28:-0.0512068 29:-0.070661 30:-0.0306582 31:-0.372128 32:-0.107193 33:-0.294236 34:0.31785 35:0.224574 36:0.0901891 37:0.157535 38:-0.645497 39:0.166586 40:-0.00145972 41:0.103405 42:-0.0566704 43:0.0174526 44:-0.588397 45:0.235465 46:0.0573144 47:-0.123366 48:0.619038 49:0.482191 50:0.281508 51:0.723481 52:-0.801158 53:0.331805 54:-0.111204 55:-0.0311931 56:0.191377 57:0.0482189 58:0.0039494 59:-0.0611098 60:0.558135 61:0.572105 62:-0.1953 63:0.287747 64:-0.353927 65:0.101532 66:-0.156908 67:0.209272 68:-0.175242 69:0.656705 70:-0.674737 71:0.463954 72:-0.70811 73:0.2986 74:-0.443415 75:0.186369 76:-0.309523 77:-0.0241483 78:-0.338778 79:0.184824 80:-0.405668 81:0.282862 82:-0.0946633 83:-0.463551 84:-0.530356 85:0.811991 86:-1 87:-0.357242 88:-0.275064 89:-0.575556 90:-0.411151 91:0.0839107 92:-0.440141 93:0.0479458 94:-0.248878 95:-0.602848 96:0.028911 97:0.713241 98:-1 99:1 100:-0.813027 101:-0.244923 102:-0.550411 103:0.118068 104:-0.635472 105:0.176564 106:-0.605486 107:0.639013 108:-0.886881 109:-0.430196 110:-0.5822 111:-0.0291936 112:-1 113:0.917663 114:-0.984841 115:-0.116748 116:-0.820391 117:-0.602399 118:-0.719167 119:0.255872 120:-1 121:-0.0888851 122:-0.538332 123:-0.113043 124:-1 125:0.346814 126:-0.887217 127:0.214199 
0.4262587857652879 0:0.138613 1:0.532093 2:-0.329211 3:-0.766588 4:0.0201622 5:-0.24783 6:-0.288513 7:-0.879263 8:-0.686912 9:-0.637857 10:-0.0732214 11:-0.0353485 12:0.247021 13:0.178874 14:-0.0617824 15:0.200925 16:0.147884 17:-0.22796 18:0.279141 19:-0.252594 20:-0.195255 21:0.529273 22:-0.275334 23:0.173971 24:-0.0757752 25:-0.264222 26:-0.365427 27:-0.499427 28:0.461633 29:-0.323852 30:0.551534 31:-0.00849827 32:0.177892 33:-0.110457 34:0.023752 35:0.315629 36:-0.404717 37:0.076786 38:-0.257132 39:0.1504 40:0.803553 41:0.362835 42:0.0764727 43:-0.346784 44:-0.290399 45:0.0835256 46:0.165817 47:0.312801 48:-0.0440145 49:-0.0861027 50:0.424086 51:-0.275609 52:-0.0206263 53:0.288061 54:0.234422 55:0.45307 56:-0.00830106 57:0.535194 58:-0.495477 59:0.171414 60:0.303064 61:0.15643 62:-0.30435 63:-0.26067 64:-0.894757 65:-0.160478 66:0.255261 67:-0.141039 68:0.380455 69:1 70:-0.0865577 71:0.416044 72:-0.269063 73:-0.396832 74:0.681583 75:-0.360862 76:0.626508 77:-0.192368 78:-0.0754008 79:-0.556056 80:0.388833 81:0.304939 82:1 83:-0.0256107 84:-0.32341 85:0.281659 86:-0.059234 87:-0.909841 88:0.133073 89:0.0953381 90:0.224535 91:0.306262 92:0.301024 93:-0.306052 94:0.165445 95:-0.323664 96:0.187288 97:-0.324135 98:0.716729 99:-0.55199 100:0.013945 101:-0.772456 102:0.151203 103:0.0730197 104:0.116608 105:0.764787 106:0.554037 107:-0.338637 108:0.51953 109:-1 110:-0.053676 111:-1 112:-0.188277 113:-0.0735111 114:-0.0209735 115:-0.236661 116:0.431822 117:-0.310835 118:0.149217 119:-0.450396 120:0.402134 121:-0.390671 122:0.145909 123:-0.22413 124:0.24611 125:-0.513579 126:0.0475606 127:-0.898846 
0.4264244321026359 0:-0.214062 1:-0.48 2:-0.0920911 3:-0.181198 4:-0.307568 5:0.207798 6:-0.263047 7:0.0734406 8:-0.644533 9:-0.103243 10:-0.725361 11:-0.0861088 12:-0.255462 13:0.208313 14:0.0314054 15:-0.617791 16:0.661758 17:-0.185972 18:-0.0417565 19:-0.0934046 20:0.390831 21:0.102267 22:-0.26418 23:1 24:-0.149698 25:0.168227 26:-0.402763 27:-0.196342 28:0.287749 29:0.387067 30:-0.25807 31:0.14889 32:-0.393623 33:-0.530156 34:0.286772 35:-0.370764 36:-0.300333 37:0.242432 38:-0.183724 39:0.0678024 40:-0.177065 41:0.803439 42:0.389826 43:0.39693 44:-0.106664 45:-0.212336 46:1 47:0.374538 48:-0.195868 49:0.93689 50:0.867533 51:0.701597 52:-0.890488 53:0.21684 54:-0.180923 55:0.037883 56:-0.0212684 57:-0.314282 58:-0.899721 59:0.727088 60:0.14813 61:-0.384785 62:-0.230087 63:-0.550877 64:0.222958 65:0.328616 66:-0.0281885 67:0.254689 68:-0.152968 69:0.703212 70:-0.39526 71:0.223029 72:-0.420097 73:-0.709271 74:-0.226865 75:0.981328 76:-0.54523 77:0.0380689 78:0.324473 79:0.390952 80:-0.0556402 81:1 82:-0.526186 83:-0.765147 84:-0.20444 85:0.503301 86:-0.712635 87:-0.466353 88:-0.626624 89:0.415685 90:-0.373503 91:0.352639 92:-1 93:-0.208421 94:-0.523598 95:0.319201 96:-0.564086 97:-0.126512 98:-0.894127 99:0.120711 100:-0.117548 101:-0.0918331 102:-0.819204 103:0.387045 104:-0.919375 105:0.000326873 106:-1 107:1 108:-0.776263 109:-0.0121686 110:-0.789935 111:-0.0689044 112:-0.793781 113:-0.0288531 114:-0.132332 115:0.249154 116:-0.579138 117:-0.546393 118:-0.913865 119:-0.0806968 120:-0.457258 121:0.490607 122:-0.755532 123:0.363941 124:-0.419966 125:0.985377 126:-1 127:0.82284 
0.4261104407794513 0:0.10931 1:0.147907 2:-0.644749 3:-0.0459441 4:-0.761724 5:-0.169932 6:-0.274798 7:0.142868 8:-0.466862 9:-1 10:-0.920865 11:-0.0647213 12:-0.0144956 13:-0.437518 14:-0.289436 15:0.0395296 16:0.0295319 17:-0.119667 18:0.0663239 19:-0.478038 20:0.586426 21:0.424594 22:-0.161986 23:0.763024 24:0.134243 25:-0.128003 26:-0.689316 27:-0.163207 28:0.45761 29:0.298024 30:-0.464662 31:-0.259823 32:-1 33:-0.319662 34:-0.0977197 35:0.732826 36:0.0309249 37:1 38:0.449013 39:0.645015 40:0.0580137 41:-0.163159 42:-0.360827 43:-0.00212808 44:-0.0340123 45:0.617234 46:0.775268 47:0.366907 48:0.953609 49:0.25902 50:0.410969 51:0.215562 52:0.383487 53:0.71369 54:-0.121403 55:0.600102 56:0.133503 57:-0.263934 58:0.308665 59:0.571266 60:-0.560813 61:-0.459509 62:0.163579 63:-0.273122 64:-0.307932 65:0.0542716 66:0.196141 67:0.261847 68:0.180431 69:0.490298 70:0.701237 71:0.0206792 72:-0.398876 73:-0.167337 74:-0.555579 75:-0.441376 76:0.542761 77:-0.0682048 78:0.735964 79:-0.283307 80:0.135519 81:0.548867 82:-0.659322 83:-0.863294 84:0.430606 85:-0.285429 86:0.373681 87:-0.0787207 88:-0.277617 89:0.8838 90:-0.250025 91:-0.554029 92:0.0220717 93:-0.0302518 94:-0.827089 95:-0.91293 96:0.0396195 97:-0.349273 98:-0.301583 99:-0.36445 100:0.223251 101:0.591473 102:-0.33673 103:0.33429 104:-0.360646 105:-0.757323 106:-0.298199 107:0.929846 108:-0.117819 109:-0.531466 110:0.337413 111:-0.565029 112:-0.434233 113:0.471824 114:-0.271225 115:0.928296 116:-0.174743 117:-0.354874 118:-0.139553 119:0.17148 120:0.0836366 121:-0.263272 122:0.0304259 123:-0.349324 124:-0.424231 125:0.172553 126:-0.114463 127:0.0363981 
0.4259935329983813 0:-0.0298435 1:0.000930233 2:-0.0684422 3:-0.0729809 4:0.160752 5:-0.102958 6:-0.159124 7:-0.234933 8:-0.175274 9:-0.356247 10:0.206083 11:0.596241 12:1 13:0.541635 14:0.0956911 15:-0.518629 16:0.58447 17:0.165838 18:-0.281771 19:0.0627898 20:0.214138 21:0.529704 22:0.136243 23:0.648568 24:0.316574 25:-0.154524 26:-0.301204 27:-0.199775 28:0.512274 29:-0.702411 30:-0.607871 31:-0.887428 32:-0.0872528 33:-0.00655933 34:0.388461 35:0.43868 36:-0.174969 37:0.472341 38:0.313578 39:1 40:-0.166589 41:0.148078 42:-0.654381 43:0.458372 44:-0.515559 45:0.183516 46:-0.67277 47:-0.648693 48:0.227946 49:1 50:0.352196 51:-0.748946 52:0.376855 53:-0.839835 54:0.0538114 55:-1 56:0.999814 57:-0.068932 58:0.581853 59:0.609229 60:0.302636 61:-0.744101 62:-0.831054 63:-0.363412 64:1 65:-0.505713 66:0.411983 67:-0.671085 68:0.893292 69:-0.0125396 70:-0.830965 71:0.125953 72:-0.33764 73:0.536523 74:-1 75:-0.299106 76:-0.531675 77:0.195095 78:0.724921 79:0.0883854 80:0.612477 81:0.108266 82:0.261023 83:1 84:0.0332224 85:-0.400445 86:-0.353371 87:0.231281 88:0.109597 89:0.121663 90:-0.889349 91:-0.441744 92:-0.181497 93:0.42528 94:0.945926 95:-0.847303 96:-0.429643 97:0.621909 98:0.253308 99:0.285239 100:-0.0175757 101:-0.5282 102:0.447691 103:0.332863 104:0.144586 105:1 106:0.053444 107:0.209686 108:-0.175073 109:-0.187209 110:-0.253963 111:-0.269717 112:0.0117105 113:-0.527003 114:0.165937 115:0.23639 116:0.503278 117:-1 118:-0.0923282 119:0.259743 120:0.133365 121:-0.570956 122:0.338995 123:0.386728 124:-0.0579038 125:-0.045851 126:-0.200736 127:0.179141 
0.4267202523177194 0:0.382442 1:0.613023 2:0.104734 3:-0.404646 4:-0.328212 5:-0.296636 6:-0.063221 7:-0.284784 8:0.28869 9:-0.280142 10:0.0393 11:0.422831 12:0.0123505 13:0.0467628 14:0.107615 15:0.0230708 16:-0.0330657 17:-0.433897 18:0.154167 19:0.335963 20:0.590426 21:0.50181 22:1 23:0.588671 24:0.292514 25:-0.264443 26:0.633979 27:-0.0453372 28:0.65322 29:-0.487327 30:-0.332757 31:-0.442614 32:-0.395031 33:1 34:0.0370725 35:0.205672 36:-0.275668 37:0.0202167 38:-0.336126 39:-0.0306039 40:0.000453919 41:-0.683368 42:0.546784 43:0.269756 44:1 45:0.298992 46:-0.547468 47:-0.11009 48:0.269025 49:0.0123232 50:0.924105 51:0.709677 52:0.227443 53:-0.353262 54:-0.0120487 55:-0.752793 56:0.166951 57:-0.297334 58:0.664152 59:0.362515 60:-0.491673 61:0.987187 62:0.243028 63:-1 64:0.0736698 65:-0.93612 66:0.777393 67:-0.165255 68:0.0532232 69:-0.659889 70:0.47334 71:0.025692 72:-0.443419 73:0.351897 74:0.193195 75:-0.872238 76:-1 77:-1 78:0.938284 79:-0.705953 80:-0.258742 81:-1 82:0.0684354 83:-0.706529 84:-0.274775 85:-0.00161282 86:0.0075197 87:-0.248249 88:0.00630485 89:-0.0135911 90:-0.229927 91:-0.436337 92:1 93:-1 94:0.702422 95:-0.565745 96:0.167288 97:-0.335751 98:0.206957 99:-1 100:1 101:-0.983091 102:0.596313 103:-1 104:0.0079283 105:-0.937155 106:0.0510581 107:-0.155688 108:0.666082 109:-0.609943 110:0.647173 111:-0.410514 112:1 113:-1 114:0.833017 115:-0.980992 116:0.772498 117:-0.851247 118:0.877603 119:0.477853 120:0.774948 121:-0.782053 122:1 123:-0.630545 124:0.520211 125:0.339378 126:1 127:-0.862884 
0.4268741690293656 0:0.0887773 1:-0.055814 2:-0.381987 3:-0.167121 4:-0.384735 5:-0.296291 6:-0.651088 7:-0.278749 8:-0.266936 9:0.189192 10:-0.466428 11:-0.2436 12:-0.313144 13:-0.121149 14:0.71779 15:-0.0782815 16:0.070174 17:0.486256 18:-0.454937 19:0.073027 20:-0.848342 21:0.205633 22:-0.912582 23:0.91931 24:0.443957 25:0.226515 26:-0.0750654 27:-0.597285 28:-0.0239717 29:0.0268223 30:0.387084 31:-0.36873 32:0.137703 33:-0.621694 34:0.268231 35:-0.819058 36:-0.574503 37:0.172273 38:-1 39:0.288162 40:1 41:0.215546 42:-0.260685 43:-0.415362 44:0.262623 45:1 46:0.007584 47:0.0409326 48:0.311948 49:0.0955955 50:0.261686 51:0.0488198 52:0.523645 53:0.646352 54:-1 55:-0.804979 56:0.0299382 57:-0.184056 58:0.321396 59:0.529361 60:0.456116 61:-0.608921 62:-0.366599 63:-0.0307546 64:-0.677646 65:1 66:0.579725 67:0.923677 68:0.540637 69:0.161375 70:-0.754872 71:1 72:-0.399563 73:-0.126183 74:0.195286 75:0.830801 76:-0.591268 77:0.777669 78:-0.919874 79:0.939702 80:-0.101193 81:0.223481 82:0.158486 83:0.331749 84:-0.0443387 85:0.350055 86:0.640695 87:-0.324111 88:-1 89:0.0641513 90:-0.411004 91:0.984294 92:-0.321652 93:0.922756 94:-0.350997 95:-0.435048 96:-0.115527 97:-0.449768 98:-0.528883 99:0.716213 100:-1 101:0.72798 102:-1 103:0.199426 104:-1 105:0.467776 106:-0.460216 107:0.798829 108:-1 109:1 110:-0.985271 111:0.411779 112:-0.669867 113:1 114:-1 115:0.117292 116:-0.633808 117:0.135003 118:-0.905212 119:0.349209 120:-0.912464 121:-0.0362284 122:-1 123:-0.573371 124:-0.894574 125:0.358712 126:-0.86073 127:-0.0540399 
0.4267358262662033 0:0.0980491 1:0.32 2:-0.298592 3:-0.160313 4:-0.531177 5:-0.166801 6:-0.225974 7:0.0668832 8:-0.232854 9:-0.341565 10:-0.507372 11:-0.0943402 12:0.0965131 13:-0.629729 14:-0.251214 15:-0.191892 16:-0.131776 17:-0.0726195 18:-0.991777 19:-0.675249 20:-0.00808734 21:0.953833 22:-0.464746 23:-0.834951 24:-0.0705554 25:0.800579 26:-0.558192 27:-0.612278 28:-0.406307 29:-0.19119 30:-0.783473 31:-0.0493619 32:-0.0901212 33:-0.242899 34:-1 35:0.204331 36:-0.244499 37:-0.131033 38:-0.16502 39:0.605506 40:-1 41:-0.384284 42:-0.590273 43:-0.41794 44:-0.570121 45:-0.0475376 46:0.339771 47:-1 48:0.901501 49:0.87888 50:0.593003 51:0.501549 52:0.283274 53:0.423574 54:-0.183095 55:0.717683 56:-1 57:0.486105 58:0.883545 59:-0.00320792 60:0.662272 61:0.723158 62:-0.0393721 63:-0.0928482 64:0.0976418 65:-0.526097 66:-1 67:1 68:0.268786 69:0.641527 70:0.284981 71:0.0715877 72:1 73:0.0738476 74:-0.386344 75:0.226397 76:1 77:0.608516 78:0.100264 79:0.882157 80:0.536858 81:0.554797 82:0.606896 83:-0.255638 84:-0.485686 85:0.976626 86:0.118349 87:-0.0278476 88:0.184663 89:1 90:-0.204118 91:-0.901231 92:0.76031 93:1 94:0.901942 95:1 96:0.181548 97:0.662518 98:0.459398 99:0.908656 100:0.362661 101:-0.292823 102:-0.435764 103:1 104:0.304664 105:0.950129 106:0.467485 107:0.665774 108:0.489725 109:-0.537668 110:-0.403534 111:0.208695 112:0.285569 113:0.583666 114:0.462013 115:-0.219018 116:0.0913106 117:1 118:-0.0595977 119:0.0368394 120:0.293431 121:0.630636 122:-0.30996 123:-0.610882 124:0.189212 125:-0.0517288 126:0.0789594 127:-0.517575 
0.4267393807547659 0:-0.0502608 1:0.656744 2:-0.208784 3:-0.163507 4:-0.38839 5:-0.0221014 6:-0.69041 7:-0.207643 8:-0.96104 9:0.207192 10:0.276761 11:-0.748644 12:0.440783 13:0.116271 14:0.247373 15:-0.436221 16:0.415733 17:-0.383951 18:0.259014 19:-0.0181282 20:0.0918459 21:0.474087 22:-1 23:-0.136282 24:0.448969 25:0.938118 26:1 27:-0.859262 28:-0.48878 29:0.520186 30:-1 31:-0.251793 32:0.154405 33:-0.57172 34:-0.819472 35:0.596236 36:0.348497 37:-0.27831 38:0.0597265 39:-0.22235 40:0.935574 41:0.122487 42:0.497482 43:-0.856429 44:0.0201755 45:-1 46:-0.772142 47:0.565077 48:-0.585707 49:0.688411 50:-1 51:-0.605641 52:0.462988 53:0.707376 54:-0.0917777 55:-0.701352 56:0.0530046 57:-0.0453406 58:0.144274 59:-0.929076 60:-1 61:0.69988 62:1 63:-0.0324223 64:0.0364451 65:-0.919761 66:1 67:-1 68:-0.389554 69:-0.299547 70:-0.799053 71:0.487138 72:-0.644922 73:0.236265 74:0.105159 75:-1 76:-0.0132553 77:-0.106912 78:0.658873 79:0.143738 80:-0.379688 81:-0.389824 82:-0.102528 83:-0.362546 84:1 85:0.805987 86:0.944073 87:1 88:-0.000118463 89:0.687438 90:0.299679 91:-1 92:0.284739 93:-0.568655 94:0.870808 95:0.221282 96:-0.31438 97:-0.870943 98:-0.550028 99:0.0888441 100:0.756143 101:0.353001 102:-0.466246 103:0.113387 104:-0.468734 105:-0.263693 106:1 107:0.0236018 108:-0.167669 109:-0.632896 110:-0.235961 111:1 112:0.53989 113:-0.313185 114:-0.472516 115:-0.467371 116:0.288017 117:0.929558 118:0.572677 119:-1 120:-0.580712 121:0.197768 122:0.303154 123:1 124:-0.214728 125:-1 126:-0.461447 127:0.52342 
0.4264317710349546 0:0.140139 1:-0.387907 2:-0.0142976 3:-0.206212 4:-0.214327 5:-0.080534 6:-0.0795054 7:-0.270427 8:0.229576 9:-0.468164 10:-0.255221 11:0.272886 12:0.644668 13:-0.341101 14:0.793395 15:0.764484 16:-0.462043 17:0.00630673 18:-0.304301 19:-0.349058 20:-0.85995 21:-0.627873 22:-0.283924 23:0.43931 24:1 25:0.128347 26:0.358462 27:-0.27579 28:0.0952465 29:-0.792603 30:0.694057 31:0.608437 32:-0.605932 33:-1 34:0.551275 35:-0.000695245 36:-0.445192 37:0.1134 38:-0.875829 39:-0.682538 40:0.575199 41:0.0236567 42:-0.719482 43:-0.43153 44:-0.144474 45:0.341744 46:0.579044 47:0.115458 48:0.0820968 49:0.990215 50:-0.0770871 51:0.583959 52:-0.804849 53:-0.100559 54:0.0353257 55:0.211242 56:0.389163 57:-1 58:-0.899952 59:0.286458 60:-0.237757 61:0.371605 62:0.876128 63:-0.645962 64:-0.626389 65:0.334978 66:0.206268 67:-0.533581 68:-0.00434933 69:0.0700807 70:-0.979262 71:0.129002 72:0.0603668 73:-0.692213 74:-0.0514736 75:0.249449 76:-0.493038 77:0.0231831 78:1 79:-0.0625717 80:0.17069 81:0.0987842 82:-0.305266 83:-0.363576 84:0.0528878 85:-1 86:-0.0809292 87:0.875042 88:-0.297586 89:0.860665 90:-0.554124 91:-0.471525 92:-0.463216 93:0.598179 94:-0.312635 95:-0.213356 96:-0.938241 97:-0.369841 98:-0.120576 99:-0.252138 100:-0.0928506 101:0.479503 102:0.277285 103:0.539215 104:-0.515066 105:-0.92272 106:-0.0749213 107:0.564375 108:-0.351862 109:-0.261415 110:0.0966043 111:-0.557936 112:-0.596778 113:-0.167835 114:-0.0311746 115:-0.491949 116:-0.145744 117:-0.0732075 118:-0.805209 119:0.285871 120:-0.528773 121:-0.432282 122:-0.483211 123:0.15125 124:-0.573414 125:-0.643575 126:-0.542897 127:-0.311689 
0.4262587857652659 0:0.0163995 1:1 2:-0.235878 3:-0.186201 4:-0.51229 5:-0.473095 6:-0.640668 7:-0.165676 8:-0.754415 9:-0.539647 10:0.44553 11:0.298078 12:-1 13:-1 14:-0.541226 15:0.696349 16:0.756825 17:0.760142 18:-0.786646 19:-0.589496 20:-0.789609 21:0.00343444 22:-0.721542 23:0.555636 24:0.42215 25:-1 26:-0.588273 27:-0.687102 28:-0.778094 29:-0.544857 30:-0.361842 31:-0.650509 32:-0.319492 33:-0.693419 34:0.0791311 35:0.956818 36:-0.184291 37:0.0735542 38:-0.44891 39:-0.32813 40:0.848762 41:0.514639 42:-1 43:0.234654 44:0.46147 45:0.423467 46:0.0902655 47:0.572679 48:0.786548 49:0.216398 50:0.267167 51:0.00681533 52:-0.11768 53:-1 54:1 55:-0.463566 56:0.892414 57:0.0431114 58:-1 59:-1 60:0.480551 61:0.639394 62:0.570778 63:0.75725 64:0.040343 65:-0.455856 66:0.23678 67:-0.477182 68:-0.20042 69:0.606933 70:-0.335785 71:-1 72:0.881226 73:-0.227641 74:1 75:0.368112 76:0.951369 77:-0.657703 78:-0.333071 79:-1 80:0.483162 81:0.0899616 82:0.528514 83:-0.576308 84:0.167397 85:0.659431 86:0.605107 87:0.833534 88:0.697479 89:-1 90:-0.101737 91:-0.50468 92:0.340963 93:0.292402 94:0.214561 95:0.244466 96:0.842805 97:0.386239 98:-0.184695 99:-0.121997 100:0.76401 101:-0.738365 102:0.567331 103:0.165936 104:0.204025 105:0.346964 106:0.474492 107:0.46156 108:0.568675 109:0.524994 110:0.596696 111:-0.479521 112:0.560913 113:-0.0546586 114:0.205576 115:0.447114 116:0.68393 117:-0.946898 118:0.80652 119:0.312365 120:0.56112 121:-0.104571 122:0.516594 123:0.230367 124:0.280377 125:-0.160046 126:0.430718 127:-0.459823 
0.4267030841247461 0:0.119007 1:-0.0623256 2:-0.197959 3:-0.183829 4:-0.60647 5:0.0127102 6:-0.358265 7:-0.134029 8:-0.421376 9:-0.120272 10:-1 11:-0.117598 12:-0.0392532 13:0.0955572 14:0.180626 15:-0.214999 16:0.767634 17:0.176987 18:-0.524182 19:0.519312 20:-1 21:-1 22:-0.15564 23:-0.200715 24:-0.584567 25:-0.355415 26:-0.351581 27:-0.104325 28:-1 29:-1 30:-0.124609 31:-0.320969 32:1 33:-0.0248671 34:0.835234 35:-0.0528488 36:-0.393429 37:-0.040798 38:-0.493586 39:-0.249586 40:0.666605 41:0.104782 42:0.0960717 43:-0.530859 44:-0.0493961 45:-0.215082 46:0.694028 47:0.136261 48:0.143094 49:0.766869 50:0.621989 51:0.0841531 52:-0.658609 53:0.771141 54:0.27236 55:-0.306834 56:0.327639 57:0.673558 58:0.545438 59:-0.494025 60:0.542404 61:0.0823122 62:0.64392 63:-0.204557 64:-0.320405 65:-1 66:0.372142 67:0.631408 68:0.134644 69:-0.597825 70:0.590169 71:0.667387 72:-0.101199 73:-0.403214 74:-0.323623 75:0.713123 76:-0.840697 77:1 78:-0.180618 79:1 80:0.844304 81:-0.224971 82:0.754516 83:0.506219 84:0.158516 85:-0.900637 86:0.174597 87:-0.021299 88:-0.0385127 89:-0.242206 90:-0.496138 91:1 92:0.0975287 93:-0.530565 94:0.972306 95:-0.0340996 96:0.223941 97:0.242441 98:0.625986 99:0.0695057 100:-0.142012 101:0.0900149 102:0.112147 103:0.33239 104:0.233298 105:0.0643464 106:0.236815 107:0.820364 108:-0.510907 109:-0.00400435 110:-0.47865 111:-0.186011 112:0.149195 113:-0.133372 114:0.202212 115:1 116:0.199008 117:-0.0066335 118:-0.204308 119:0.8222 120:-0.310887 121:-0.533006 122:-0.033223 123:-0.147642 124:-0.0949746 125:0.109198 126:-0.0763456 127:0.196122 
0.4259149279677285 0:0.0700406 1:-0.392558 2:-0.317926 3:-0.156329 4:-0.527217 5:-0.18196 6:-0.625301 7:-0.409435 8:-0.355651 9:-0.0600314 10:0.16842 11:-0.176422 12:-0.650578 13:-0.123266 14:-0.614189 15:0.120714 16:0.0204737 17:-1 18:-0.652364 19:0.188706 20:-0.924444 21:0.829416 22:0.837744 23:0.64473 24:-0.111725 25:0.978799 26:0.194856 27:0.765975 28:0.53795 29:0.478538 30:-0.491455 31:0.562568 32:0.0610246 33:-0.619996 34:-0.145317 35:-0.22597 36:-0.149751 37:0.311963 38:0.163578 39:-0.700885 40:-0.348874 41:1 42:0.351409 43:-0.0800545 44:-0.44892 45:-0.542456 46:0.62185 47:-0.481531 48:-1 49:-0.781311 50:0.420538 51:1 52:-0.0851503 53:-0.00755504 54:0.355423 55:0.8871 56:0.476474 57:-0.208024 58:-0.25097 59:0.0621603 60:1 61:1 62:-0.338454 63:0.909541 64:-0.515104 65:0.114775 66:0.285876 67:-0.133886 68:-1 69:0.230471 70:-0.325649 71:0.421108 72:-0.662932 73:-1 74:0.514839 75:1 76:0.144709 77:0.258582 78:-1 79:-0.308562 80:-0.0408861 81:0.890997 82:0.0142453 83:0.0936557 84:-0.872848 85:0.211558 86:0.29143 87:0.0255935 88:-0.831389 89:0.611408 90:-0.321538 91:0.460746 92:0.22598 93:0.0852502 94:-0.112577 95:-0.312757 96:-0.228533 97:0.235151 98:-0.347492 99:0.530122 100:-0.479397 101:0.25212 102:-0.0112144 103:0.436964 104:-0.212022 105:0.21782 106:-0.803977 107:-0.13237 108:-0.573317 109:-0.764873 110:-0.763214 111:-0.270408 112:-0.320023 113:0.353362 114:-0.356901 115:-0.0672406 116:-0.298242 117:-0.582277 118:-0.305284 119:-0.427641 120:-0.64456 121:-0.241375 122:-0.436314 123:-0.19479 124:-0.559899 125:-0.562363 126:-0.378192 127:-0.184145 
0.42591439672285 0:0.111783 1:0.153488 2:-0.273582 3:-0.180264 4:-0.491651 5:-0.274129 6:-0.43654 7:0.0672186 8:0.0416716 9:0.30644 10:-0.294201 11:0.418363 12:-0.0752975 13:0.756513 14:-0.260375 15:-0.614119 16:-1 17:0.275495 18:-0.104434 19:-1 20:-0.298344 21:0.199934 22:-0.840196 23:-0.196411 24:0.234323 25:0.45103 26:0.0489161 27:-0.302153 28:0.323895 29:0.168438 30:-0.184264 31:-0.371094 32:0.0908145 33:-0.223018 34:0.0797627 35:-0.0532495 36:-0.232203 37:0.376436 38:-0.727171 39:-0.239782 40:0.157908 41:-1 42:0.436514 43:0.23571 44:-0.66526 45:-0.363328 46:-0.784511 47:-0.516383 48:-0.835499 49:-0.0586925 50:0.941761 51:0.254318 52:1 53:0.667642 54:-0.890003 55:-0.000678709 56:0.555417 57:-0.290818 58:0.771689 59:-0.746735 60:-0.249255 61:0.246579 62:-0.632957 63:0.0608519 64:-0.435977 65:0.12685 66:-0.156695 67:0.00435982 68:0.426627 69:-0.522005 70:-1 71:0.89525 72:-0.399105 73:-0.481413 74:0.450032 75:-0.0447481 76:0.513983 77:-0.0971025 78:0.38985 79:0.029836 80:0.238471 81:0.918833 82:0.350637 83:-0.0999085 84:-0.510443 85:-0.10308 86:-0.221901 87:-0.0818349 88:-0.345534 89:0.255481 90:0.0407225 91:-0.186564 92:-0.0326391 93:-0.241261 94:-0.0631088 95:-0.582723 96:0.131077 97:1 98:0.262531 99:0.202001 100:-0.0432239 101:-0.14317 102:-0.361206 103:0.361066 104:-0.282323 105:-0.255585 106:0.203277 107:0.551658 108:0.444541 109:-0.350155 110:0.484942 111:-0.156919 112:-0.203985 113:0.960983 114:0.253951 115:-0.265132 116:0.309224 117:-0.240896 118:-0.0460783 119:0.120622 120:-0.0871689 121:-0.138489 122:0.165474 123:-0.388971 124:0.0898484 125:-0.154399 126:-0.00422054 127:0.150823 
0.4264303392921332 0:0.140622 1:-0.372093 2:-0.146484 3:-0.148786 4:-0.157087 5:-0.135302 6:0.0735174 7:-0.482241 8:-0.633382 9:-0.223262 10:-0.398296 11:-1 12:0.552138 13:-0.191826 14:0.724648 15:-0.433802 16:0.046758 17:-0.419231 18:0.812582 19:-0.367882 20:1 21:1 22:-0.450624 23:0.123252 24:-1 25:-0.458296 26:-0.723587 27:-1 28:0.573786 29:0.260291 30:0.0188992 31:1 32:-0.763112 33:-0.439411 34:0.583125 35:0.677698 36:0.837684 37:0.2841 38:-0.78189 39:0.25725 40:0.701891 41:0.41509 42:1 43:0.207005 44:-1 45:0.614445 46:0.813078 47:0.443926 48:0.55828 49:0.204592 50:0.349851 51:0.273662 52:-0.438253 53:-0.701913 54:0.145458 55:0.47808 56:0.0599004 57:0.75819 58:0.17476 59:0.98288 60:-0.220959 61:0.729646 62:-0.201139 63:0.537615 64:-0.750146 65:-0.151649 66:-0.0853434 67:0.227613 68:0.12401 69:-0.0631046 70:-0.518705 71:-0.0575891 72:-0.641756 73:-0.49151 74:0.0722443 75:-0.817331 76:-0.699053 77:0.406156 78:0.508963 79:0.103439 80:0.822307 81:0.915702 82:-1 83:-0.40343 84:-0.312207 85:-0.295937 86:0.419857 87:-0.20404 88:-0.702967 89:0.216243 90:-0.123651 91:-0.993023 92:0.268097 93:-0.30134 94:-0.994874 95:0.910855 96:-0.607567 97:-1 98:-0.0456759 99:-0.34988 100:-0.431445 101:-0.583483 102:-0.110789 103:0.311476 104:-0.188829 105:-0.142218 106:0.230587 107:0.0920291 108:-0.531645 109:-0.251756 110:-0.771363 111:-0.279458 112:-0.37409 113:0.49183 114:-0.118378 115:-0.733559 116:0.255613 117:0.0890739 118:-0.361528 119:1 120:0.00233456 121:-0.16373 122:-0.262747 123:-0.62968 124:-0.509512 125:0.911127 126:-0.511255 127:-0.0919631 
0.4265927143048674 0:0.0765888 1:-0.622326 2:-0.35574 3:-0.147882 4:-0.655273 5:0.0131138 6:-0.361471 7:-0.488102 8:-0.20887 9:-0.243388 10:0.0804282 11:0.860786 12:-0.895329 13:0.0745422 14:-0.893161 15:-0.10846 16:0.247629 17:-0.117548 18:0.532026 19:1 20:-0.322291 21:-0.571102 22:0.195945 23:0.941815 24:0.0528814 25:-0.213412 26:-0.540981 27:-0.816125 28:0.168861 29:-0.970836 30:-0.224022 31:0.115054 32:0.645584 33:0.0320681 34:-0.038844 35:0.342576 36:-0.21738 37:-0.474875 38:-0.861423 39:0.160991 40:0.784087 41:0.156886 42:0.555414 43:0.0659659 44:0.418757 45:0.420979 46:0.205828 47:-0.256948 48:-0.304948 49:0.494423 50:0.184456 51:-0.715386 52:-0.382624 53:-0.296605 54:-0.049061 55:1 56:0.720973 57:0.617098 58:-0.0411493 59:0.947538 60:-0.276184 61:0.544184 62:-0.916935 63:-0.291202 64:-0.801208 65:0.0692028 66:0.646857 67:-0.370637 68:-0.0991714 69:0.331156 70:-0.697705 71:0.469146 72:-0.594998 73:0.622863 74:-0.33618 75:0.656201 76:-0.714418 77:-0.0235584 78:-0.33601 79:0.029316 80:-1 81:-0.664544 82:0.359129 83:-0.705679 84:-0.898574 85:1 86:-0.317858 87:0.161828 88:-0.338153 89:0.0488856 90:-0.476173 91:-0.462092 92:-0.616865 93:0.0624093 94:-1 95:-0.531092 96:-0.452526 97:0.382185 98:-0.598503 99:-0.362154 100:-0.182632 101:1 102:-0.798266 103:0.0176815 104:-0.610713 105:0.650429 106:-0.408269 107:-1 108:-0.247624 109:-0.289165 110:-0.365582 111:-0.245027 112:-0.864317 113:0.893565 114:-0.717107 115:-0.620889 116:-1 117:0.350708 118:-0.747846 119:-0.572912 120:-0.808507 121:-0.187447 122:0.167599 123:-0.253996 124:-0.580698 125:1 126:-0.468354 127:1 
0.4260549143897578 0:0.136257 1:0.989767 2:0.0657409 3:-0.153769 4:-0.232259 5:0.0639838 6:-0.626943 7:-0.398101 8:-0.148738 9:-0.225419 10:-0.639673 11:0.374408 12:0.594355 13:0.494011 14:0.274595 15:0.519441 16:-0.258167 17:1 18:1 19:-0.174701 20:-0.764785 21:0.119797 22:-0.0331849 23:0.553827 24:0.590441 25:0.0857651 26:-0.0104593 27:0.626709 28:0.392144 29:-0.238755 30:0.12109 31:0.313987 32:-0.259058 33:-0.114446 34:0.580527 35:-0.269823 36:-0.636888 37:-0.680117 38:-0.160388 39:-0.913542 40:0.837072 41:-0.309954 42:-0.346685 43:-0.764418 44:0.428912 45:0.526068 46:-0.571139 47:0.114161 48:-0.572684 49:0.346429 50:0.00838644 51:-1 52:0.920418 53:0.447964 54:0.0953724 55:-0.744005 56:1 57:-0.962188 58:1 59:-0.177991 60:0.743427 61:-1 62:0.590889 63:0.915855 64:0.0502826 65:0.273565 66:0.0456766 67:0.142512 68:1 69:-0.236244 70:0.691179 71:0.925602 72:0.0522824 73:-0.534428 74:0.0340935 75:0.128634 76:0.488544 77:-0.373412 78:0.962691 79:-0.890118 80:1 81:-0.0165271 82:0.177512 83:-0.643118 84:-0.0356075 85:-0.8723 86:0.948028 87:-0.729432 88:0.884155 89:-0.343952 90:1 91:-0.20045 92:0.779073 93:-0.100532 94:0.845442 95:-0.794442 96:1 97:-0.294774 98:1 99:-0.318031 100:0.928309 101:-0.723015 102:1 103:-0.233205 104:1 105:-0.278194 106:0.725016 107:-0.0488229 108:1 109:-0.792189 110:1 111:-0.306466 112:0.720795 113:-0.279785 114:1 115:-0.45406 116:0.911028 117:-0.459169 118:1 119:-0.0952669 120:1 121:-0.286297 122:0.96405 123:-0.455055 124:1 125:0.0685532 126:0.926844 127:0.21936 
2 0:0.146224 1:0.0967442 2:-0.102899 3:-0.174939 4:-0.326441 5:-0.141173 6:-0.393171 7:-0.226343 8:-0.317526 9:-0.0852795 10:-0.0963862 11:0.220018 12:0.0970411 13:0.210635 14:0.0194153 15:-0.127614 16:0.164229 17:-0.0902704 18:-0.141001 19:-0.260885 20:-0.207232 21:0.325947 22:-0.0488202 23:0.351366 24:0.0687408 25:0.240836 26:-0.248157 27:0.12732 28:0.415256 29:-0.0905366 30:-0.0348374 31:-0.160301 32:-0.250931 33:-0.283778 34:0.0391422 35:0.120323 36:-0.0173984 37:-0.17279 38:-0.178964 39:-0.156747 40:0.2032 41:0.226731 42:-0.166667 43:-0.299182 44:-0.199209 45:0.0941011 46:0.0497364 47:0.13476 48:0.33767 49:0.156769 50:0.45794 51:0.290585 52:-0.203701 53:0.302664 54:-0.0452547 55:0.200896 56:0.398205 57:0.0624565 58:-0.0382987 59:0.289063 60:0.198612 61:0.365063 62:-0.201696 63:-0.0824084 64:-0.16527 65:-0.225006 66:0.0506235 67:0.00355081 68:0.110695 69:0.167341 70:0.0169989 71:0.387444 72:-0.31216 73:0.130288 74:-0.0194587 75:0.248022 76:-0.0354423 77:-0.102188 78:-0.059827 79:0.0725774 80:0.0982476 81:0.034783 82:0.199629 83:-0.394081 84:-0.158175 85:0.229628 86:0.313796 87:-0.193371 88:-0.129536 89:-0.0309365 90:-0.285891 91:-0.364781 92:0.119886 93:-0.142399 94:0.0941068 95:-0.277946 96:-0.177782 97:-0.127969 98:0.073249 99:0.0696896 100:0.0967008 101:-0.114975 102:0.0386376 103:-0.0329643 104:-0.0467815 105:-0.142811 106:0.0405528 107:0.277234 108:0.0501725 109:-0.289372 110:-0.0935718 111:-0.209871 112:-0.0659163 113:0.0955093 114:-0.00150003 115:-0.224275 116:0.0551357 117:-0.295168 118:-0.132051 119:0.0178818 120:-0.0233171 121:-0.31423 122:0.0164227 123:-0.247217 124:-0.127516 125:-0.179401 126:-0.176925 127:-0.161199 
2 0:0.0340352 1:0.106047 2:-0.0915477 3:-0.245236 4:-0.185199 5:-0.246769 6:-0.356789 7:-0.144804 8:-0.415319 9:0.00704556 10:-0.225284 11:0.189739 12:0.00166994 13:0.0809229 14:-0.00909825 15:-0.132203 16:0.12359 17:-0.123453 18:-0.13062 19:-0.250038 20:-0.190647 21:0.273659 22:-0.0306065 23:0.306663 24:0.081373 25:0.276204 26:-0.259035 27:0.152547 28:0.384255 29:-0.0756148 30:-0.0339396 31:-0.217593 32:-0.241592 33:-0.318585 34:0.119057 35:0.10797 36:-0.0106493 37:-0.158458 38:-0.195391 39:-0.142533 40:0.182446 41:0.236062 42:-0.161997 43:-0.286359 44:-0.212483 45:0.0886278 46:0.0588238 47:0.118017 48:0.321573 49:0.138613 50:0.470671 51:0.263432 52:-0.219636 53:0.324815 54:-0.0238121 55:0.171139 56:0.391468 57:0.0356727 58:0.0042308 59:0.2562 60:0.232579 61:0.366189 62:-0.163518 63:-0.0740276 64:-0.181836 65:-0.205661 66:0.0557761 67:-0.00405021 68:0.122446 69:0.142885 70:0.0190414 71:0.365642 72:-0.302863 73:0.126125 74:-0.0300099 75:0.221387 76:-0.0599311 77:-0.0817122 78:-0.0776831 79:0.038913 80:0.142507 81:0.021604 82:0.207404 83:-0.408345 84:-0.157843 85:0.196848 86:0.327702 87:-0.235703 88:-0.108838 89:-0.031368 90:-0.273077 91:-0.384891 92:0.145511 93:-0.134817 94:0.0925154 95:-0.258854 96:-0.161716 97:-0.132929 98:0.0524238 99:0.0476085 100:0.118141 101:-0.156407 102:0.0583616 103:-0.0144626 104:-0.0178189 105:-0.126295 106:0.0647046 107:0.275852 108:0.0528391 109:-0.345962 110:-0.0528738 111:-0.216689 112:-0.0283066 113:0.106609 114:0.0441533 115:-0.235223 116:0.0639711 117:-0.284202 118:-0.0922304 119:0.024732 120:-0.00896941 121:-0.359508 122:0.0639051 123:-0.240597 124:-0.0828876 125:-0.159361 126:-0.135732 127:-0.242726 
0.4263111842582053 0:-1 1:0.476279 2:-0.236892 3:1 4:1 5:1 6:1 7:0.0964301 8:1 9:-0.314451 10:1 11:-0.412602 12:0.567023 13:-0.434096 14:0.177956 15:-0.58951 16:0.15581 17:-0.296069 18:-0.146341 19:-0.328437 20:-0.155997 21:0.275805 22:0.00851149 23:0.367495 24:0.232738 25:0.273513 26:0.0352257 27:0.137623 28:0.636153 29:-0.109022 30:0.159493 31:-0.260555 32:-0.088605 33:-0.378395 34:0.2088 35:-0.0136433 36:0.0575776 37:-0.293905 38:-0.0987628 39:-0.323027 40:0.25711 41:0.0753852 42:-0.141565 43:-0.502463 44:-0.202965 45:-0.0489169 46:0.0700787 47:0.0215807 48:0.334356 49:-0.00500033 50:0.461451 51:0.133492 52:-0.21336 53:0.132356 54:-0.0320846 55:-0.0297517 56:0.359408 57:-0.113865 58:-0.0776573 59:0.100696 60:0.120463 61:0.234865 62:-0.262656 63:-0.167978 64:-0.223738 65:-0.238509 66:0.0949069 67:-0.000484904 68:0.203181 69:0.166238 70:0.291835 71:0.334446 72:-0.0601501 73:-0.0377559 74:0.273199 75:0.00424907 76:0.21557 77:-0.447142 78:0.157299 79:-0.45683 80:0.194668 81:-0.548275 82:0.154579 83:-1 84:-0.280274 85:-0.29544 86:0.0653488 87:-0.636099 88:-0.266259 89:-0.248195 90:-0.375041 91:-0.460313 92:0.14935 93:-0.154348 94:0.268731 95:-0.26386 96:0.124594 97:-0.170707 98:0.335484 99:-0.0522815 100:0.353027 101:-0.371527 102:0.28436 103:-0.213824 104:0.182998 105:-0.499114 106:0.23486 107:0.0840904 108:0.28938 109:-0.545042 110:0.202646 111:-0.304827 112:0.189685 113:-0.0268586 114:0.283134 115:-0.270209 116:0.384546 117:-0.294536 118:0.278627 119:0.036269 120:0.373145 121:-0.320655 122:0.406362 123:-0.283146 124:0.256462 125:-0.137469 126:0.222777 127:-0.20454 
0.4259143967228566 0:0.420282 1:0.253023 2:-0.208642 3:-0.490077 4:-0.148967 5:-0.769804 6:-0.535871 7:-1 8:-0.714617 9:-0.513753 10:-0.524461 11:-0.420479 12:-0.112395 13:0.400662 14:-0.610439 15:-0.311498 16:-0.350312 17:-0.00567131 18:-0.232055 19:-0.338211 20:-0.0562114 21:0.177405 22:0.0525643 23:0.232957 24:0.116535 25:0.0739207 26:-0.395264 27:-0.346984 28:0.137756 29:0.295828 30:-0.212659 31:-0.632311 32:-0.702742 33:-0.45488 34:0.0765578 35:0.206078 36:0.246175 37:-0.260081 38:0.436377 39:-1 40:0.4986 41:0.544019 42:-0.58764 43:0.483884 44:0.230629 45:-0.139533 46:0.116766 47:-0.425677 48:0.649948 49:0.00602758 50:0.515111 51:0.676285 52:0.423709 53:-0.287046 54:0.186136 55:0.273926 56:0.930748 57:-0.0109518 58:-0.31202 59:0.775096 60:0.416226 61:-0.0939046 62:-0.274268 63:-0.411644 64:0.0658741 65:-0.0286938 66:-0.196668 67:-0.159235 68:0.059545 69:0.553458 70:1 71:0.45684 72:-0.57802 73:0.195836 74:0.142986 75:0.754155 76:0.549221 77:-0.295977 78:0.425449 79:-0.0656594 80:0.0455084 81:-0.144446 82:0.725408 83:0.466954 84:0.463546 85:0.819287 86:0.272726 87:-0.0111444 88:-0.1176 89:-0.659304 90:0.18888 91:0.29556 92:0.399355 93:-0.261484 94:0.15616 95:-0.96325 96:-0.309334 97:-0.108468 98:0.57295 99:0.0767112 100:0.431587 101:0.594462 102:0.170991 103:-0.388236 104:0.296939 105:-0.593772 106:0.227205 107:-0.17443 108:0.244003 109:-0.218864 110:0.0686365 111:-0.258397 112:0.145663 113:0.289879 114:0.206709 115:-0.807138 116:0.0657023 117:-0.229646 118:0.255744 119:0.206201 120:0.5159 121:-0.568911 122:0.321077 123:-0.320472 124:-0.0487315 125:-0.232195 126:0.160228 127:0.86148 
0.426492615738316 0:-0.0327796 1:0.648372 2:0.228155 3:-0.189138 4:-0.170018 5:-0.457695 6:-0.51889 7:-0.333383 8:-0.532157 9:0.0928016 10:0.407612 11:0.71496 12:0.694659 13:0.78631 14:-0.0924517 15:0.32444 16:0.0515126 17:-0.0655238 18:-0.413571 19:-0.50641 20:0.371968 21:0.191411 22:-0.100416 23:0.680666 24:-0.874409 25:0.201057 26:-1 27:-0.299642 28:0.316817 29:0.14003 30:1 31:0.226159 32:-0.567946 33:-0.400585 34:-0.856541 35:-0.277284 36:1 37:0.0427773 38:-0.231493 39:-0.33013 40:0.769391 41:0.455777 42:-0.159634 43:-0.968794 44:-0.597735 45:0.12654 46:-0.275763 47:-0.295215 48:-0.0846882 49:0.27989 50:0.258627 51:0.190781 52:-0.864715 53:-0.230895 54:0.592163 55:-0.764352 56:0.692589 57:0.507659 58:-0.57502 59:0.536362 60:0.310464 61:0.0440531 62:0.309714 63:-0.481196 64:0.332684 65:-0.382628 66:-0.218209 67:-0.10014 68:0.38675 69:-0.124325 70:-0.085777 71:0.36832 72:0.206731 73:0.248195 74:0.256317 75:0.376316 76:-0.272252 77:-0.964635 78:0.643871 79:-0.511354 80:0.87401 81:-0.608955 82:0.530949 83:-0.313628 84:0.00511368 85:0.406606 86:0.621691 87:-1 88:1 89:-0.717952 90:-0.222998 91:-0.53787 92:-0.101193 93:-0.12818 94:1 95:-0.863248 96:0.595065 97:-0.632312 98:0.566366 99:-0.5607 100:0.910067 101:-0.485056 102:-0.11355 103:-0.186249 104:0.374947 105:-1 106:0.645129 107:-0.300054 108:0.511731 109:-0.444188 110:0.159676 111:-0.259064 112:0.0991763 113:-0.262091 114:0.910702 115:0.334716 116:0.952013 117:-0.360253 118:0.57131 119:0.694779 120:0.836018 121:-1 122:0.592105 123:-1 124:0.780205 125:-0.48252 126:0.266908 127:-0.359705 
0.4263531081135839 0:0.118833 1:0.461395 2:0.0159657 3:-0.116974 4:-0.160797 5:0.0149722 6:-0.104489 7:0.109613 8:-0.190395 9:0.320969 10:0.343127 11:0.346144 12:0.0283628 13:0.716737 14:-0.108569 15:0.0532283 16:-0.0526425 17:-0.427714 18:0.0340771 19:0.0712665 20:-0.657534 21:-0.249503 22:-0.644998 23:0.2839 24:-0.19819 25:0.180455 26:0.0833496 27:0.00126989 28:0.169875 29:1 30:0.140362 31:0.542962 32:0.325976 33:-0.486323 34:0.289662 35:-0.642591 36:-0.390541 37:-1 38:-0.327336 39:0.195852 40:-0.941953 41:-0.320884 42:-0.140404 43:0.313855 44:-0.164909 45:-0.202512 46:-0.258146 47:-0.00192085 48:-0.519197 49:0.484209 50:1 51:0.432215 52:-0.159864 53:-0.460992 54:0.261737 55:0.145567 56:0.241003 57:-0.39098 58:-0.700642 59:-0.169827 60:0.267664 61:-0.143253 62:-0.611518 63:0.114014 64:-0.294095 65:-0.0290834 66:0.359034 67:-0.0758332 68:0.141813 69:-1 70:-0.0299944 71:0.631073 72:-0.14016 73:-0.67924 74:0.27436 75:-0.126611 76:0.16989 77:-0.20215 78:-0.621546 79:0.0123627 80:-0.238794 81:-0.0925473 82:0.103626 83:-0.6253 84:-0.129041 85:0.0407596 86:0.752128 87:0.218572 88:-0.0462148 89:0.215263 90:0.150673 91:-0.460714 92:0.234176 93:-0.864857 94:-0.362011 95:-1 96:-0.384014 97:-0.364907 98:0.13749 99:0.0854311 100:0.0260022 101:0.388414 102:0.466047 103:-0.0301451 104:0.339342 105:-0.0760118 106:0.15024 107:-0.0811405 108:0.496545 109:-0.654009 110:0.359378 111:-0.307993 112:0.220993 113:-0.38581 114:0.219225 115:0.00739465 116:0.317209 117:-0.586068 118:-0.0615931 119:0.319102 120:0.396791 121:0.102599 122:0.379956 123:-0.473729 124:0.0629384 125:-0.605031 126:-0.113636 127:-0.233087 
0.4259143967230498 0:0.0744447 1:-0.284651 2:-0.0330955 3:-0.124992 4:-0.171264 5:-0.105631 6:-0.603213 7:0.0163428 8:-0.454913 9:-0.119421 10:-0.533993 11:0.152097 12:0.571833 13:-0.204603 14:0.410189 15:-0.25926 16:-0.0703571 17:-0.545022 18:0.251453 19:-0.516079 20:0.148774 21:0.743914 22:-0.146019 23:0.560317 24:-0.831487 25:0.257274 26:-0.379481 27:0.266918 28:1 29:-0.327205 30:-0.823361 31:-0.243308 32:-0.782657 33:-0.264096 34:0.428478 35:0.15483 36:0.384758 37:-0.713373 38:-0.161162 39:-0.807725 40:0.117902 41:0.615834 42:0.394476 43:-0.234615 44:-0.0883742 45:0.481658 46:-1 47:-0.204397 48:-0.230563 49:0.0448063 50:0.702943 51:0.263518 52:0.0316421 53:0.365301 54:-0.173006 55:0.515673 56:0.632204 57:0.346136 58:0.388908 59:0.344933 60:0.716692 61:-0.0107762 62:-0.134464 63:0.178746 64:-0.451179 65:0.368735 66:0.0989234 67:-0.174631 68:-0.161423 69:0.53978 70:-0.56966 71:0.0118788 72:-0.121839 73:-0.0798598 74:0.105166 75:0.491947 76:-0.239697 77:-0.0552338 78:-0.261124 79:0.293325 80:-0.138406 81:-0.11571 82:-0.10566 83:-0.925947 84:0.0572251 85:-0.325692 86:-0.171505 87:0.577677 88:-0.263291 89:-0.282805 90:-0.433473 91:-0.183588 92:-0.366045 93:-0.411644 94:0.0590141 95:-0.139386 96:-0.0266213 97:0.111263 98:-0.292184 99:0.0740975 100:-0.00457849 101:-0.275031 102:-0.212493 103:-0.0505618 104:-0.139096 105:-0.932934 106:-0.0132111 107:0.572351 108:0.0824604 109:-0.285175 110:-0.261498 111:-0.336219 112:-0.45926 113:-0.486825 114:-0.502049 115:0.652655 116:0.11593 117:-0.212806 118:-0.369374 119:0.18919 120:-0.417427 121:-0.253158 122:-0.23524 123:0.301735 124:-0.132951 125:0.00648066 126:-0.271777 127:-1 
0.4260492748380997 0:-0.00133282 1:-0.16093 2:-0.272157 3:-0.111158 4:-0.506149 5:-0.26011 6:-1 7:-0.309047 8:-0.278611 9:0.446439 10:-0.966176 11:-0.173464 12:-0.100067 13:-0.675612 14:0.0680274 15:0.0243182 16:-0.261656 17:0.0430311 18:0.0225462 19:0.0596699 20:-0.612432 21:-0.035321 22:0.631592 23:-0.20537 24:0.821176 25:1 26:0.261667 27:0.93455 28:0.640521 29:0.349936 30:-0.0461067 31:0.208821 32:-0.579919 33:-0.651805 34:-0.172474 35:0.343002 36:0.0169805 37:-0.0118931 38:0.931687 39:0.262256 40:-0.0481151 41:0.0462498 42:0.394805 43:-0.0282913 44:-0.711459 45:-0.227912 46:-0.0650753 47:0.114873 48:0.137734 49:-0.231229 50:0.52796 51:0.526731 52:0.680325 53:-0.143365 54:-0.00615113 55:-0.0750667 56:-0.116998 57:-0.640706 58:0.123455 59:0.0975333 60:-0.107206 61:-0.12822 62:0.137837 63:0.395531 64:-0.137595 65:0.240457 66:-0.250697 67:-0.344316 68:-0.46324 69:0.059783 70:0.459557 71:0.832444 72:-1 73:0.403153 74:0.159296 75:0.762372 76:-0.486528 77:-0.171534 78:-0.0746002 79:0.562729 80:-0.0225626 81:0.0325199 82:0.0673745 83:0.194124 84:-0.697086 85:0.452528 86:0.757151 87:-0.79235 88:-0.622303 89:-0.24209 90:-0.510733 91:-0.561155 92:-0.232844 93:-0.287101 94:-0.0504434 95:0.666833 96:-0.699573 97:0.0832602 98:0.00914499 99:0.4993 100:0.187144 101:-0.116948 102:-0.206428 103:0.0594546 104:-0.302421 105:-0.206627 106:0.0972396 107:0.468219 108:-0.309041 109:0.00674513 110:-0.50258 111:-0.0666881 112:-0.298557 113:0.345588 114:-0.40188 115:-0.320232 116:-0.170465 117:-0.573889 118:-0.379017 119:0.249371 120:-0.372601 121:-0.337064 122:-0.267956 123:-0.320226 124:-0.416905 125:-0.245768 126:-0.491272 127:-0.0019522 
0.426311184255541 0:0.128395 1:-0.0251163 2:-0.116257 3:-0.0943119 4:-0.132487 5:-0.00998609 6:-0.119323 7:-0.228516 8:-0.115766 9:-0.120533 10:0.282868 11:0.163234 12:0.0882385 13:0.252907 14:0.346519 15:1 16:-0.00827361 17:0.000870964 18:-0.396424 19:-0.79383 20:0.130297 21:0.217904 22:-0.0506392 23:-0.412827 24:0.364435 25:-0.260412 26:0.340098 27:-0.757941 28:0.253996 29:-0.181655 30:-0.0780309 31:-1 32:-0.214485 33:0.173971 34:-0.0958116 35:0.532855 36:-1 37:-0.106029 38:0.180201 39:-0.162639 40:0.54358 41:0.40717 42:-0.584444 43:-0.640247 44:0.393976 45:-0.0806338 46:-0.298978 47:-0.311945 48:0.631982 49:0.630283 50:0.565257 51:0.151762 52:-0.628159 53:0.063424 54:-0.452704 55:0.579914 56:0.00627864 57:-0.0810759 58:-0.303127 59:-0.315221 60:-0.473198 61:0.478524 62:-0.15723 63:1 64:-0.404015 65:-0.276941 66:-0.0432391 67:-0.0245214 68:-0.104959 69:0.110723 70:-0.254115 71:0.404537 72:-0.715713 73:-0.132398 74:0.237763 75:0.0551409 76:-0.0429383 77:-0.444838 78:-0.17069 79:-0.0405347 80:0.00652643 81:-0.575749 82:0.101118 83:-0.723384 84:-0.470588 85:0.584077 86:-0.0576722 87:-0.623288 88:-0.134519 89:-0.0980964 90:-0.668307 91:-0.0659464 92:0.0883021 93:-0.137225 94:0.630817 95:-0.987977 96:-0.442889 97:-0.402078 98:0.0240823 99:0.170248 100:0.146157 101:0.0578447 102:0.232959 103:-0.0983358 104:-0.0479351 105:0.00691667 106:0.111396 107:0.0886139 108:0.26167 109:-0.560255 110:0.103222 111:-0.198803 112:0.00566191 113:-0.170139 114:-0.184112 115:-0.466438 116:0.00487233 117:-0.0169399 118:-0.1409 119:0.074419 120:-0.0502239 121:-0.170229 122:0.0620768 123:-0.406041 124:-0.0538448 125:-0.159669 126:-0.182414 127:-0.046623 
0.4268253402892875 0:0.0361599 1:0.210233 2:-0.194755 3:-0.196302 4:-0.512 5:-0.357537 6:-0.252126 7:-0.314082 8:0.0499165 9:-0.48787 10:-0.132572 11:-0.134758 12:0.15842 13:0.534563 14:-0.290452 15:0.118198 16:-0.523065 17:-0.172237 18:-0.322494 19:-0.752603 20:0.393247 21:0.838205 22:-0.835514 23:0.931341 24:-0.224617 25:0.0631622 26:-0.140218 27:0.0170209 28:0.0259707 29:-0.116711 30:-0.643709 31:-0.392265 32:-0.153923 33:-0.26514 34:0.315599 35:0.0709437 36:-0.172756 37:-0.0723911 38:0.084472 39:0.472924 40:0.655372 41:0.185322 42:0.163775 43:-0.349365 44:-0.24671 45:0.0921222 46:0.371403 47:0.72314 48:0.147627 49:-0.678861 50:0.747167 51:0.16904 52:-0.183302 53:0.251114 54:-0.181658 55:0.0737712 56:0.811219 57:-0.0681788 58:-0.367563 59:-0.114185 60:0.343073 61:-0.18391 62:-0.212943 63:0.266762 64:-0.431495 65:-0.106855 66:0.557365 67:-0.200097 68:0.480967 69:0.220476 70:-0.122811 71:0.1308 72:-0.109061 73:0.326561 74:-0.0651879 75:0.336402 76:0.226266 77:-0.335139 78:-0.16698 79:-0.121776 80:0.0203857 81:-0.227438 82:0.424939 83:-0.862695 84:0.158441 85:-0.193622 86:0.344602 87:-0.565863 88:-0.256541 89:-0.224637 90:-0.161857 91:0.0602839 92:0.41058 93:-0.00152847 94:0.134891 95:-0.351136 96:-0.0906157 97:-0.15778 98:0.13299 99:0.204841 100:0.0926277 101:0.110763 102:0.248465 103:0.212005 104:0.204349 105:-0.31674 106:0.115525 107:0.227865 108:0.21094 109:-0.128138 110:-0.0833131 111:-0.408304 112:0.32759 113:0.153688 114:0.320065 115:-0.335471 116:0.17597 117:-0.456052 118:0.0817573 119:-0.0905226 120:0.0947402 121:-0.189659 122:0.240262 123:-0.198084 124:-0.0792657 125:0.0712883 126:-0.0714298 127:-0.246828 
0.4264926157381032 0:0.331234 1:-0.0781395 2:0.142614 3:-0.203724 4:-0.0817032 5:-0.121721 6:0.052623 7:-0.252335 8:0.175933 9:-0.322731 10:0.73124 11:-0.283943 12:0.427993 13:-0.262993 14:0.485357 15:-0.895675 16:0.349479 17:-0.0503957 18:-0.300986 19:0.110518 20:-0.492827 21:0.559802 22:-0.956436 23:0.49887 24:0.288323 25:-0.0918279 26:0.147068 27:-0.409481 28:0.599266 29:0.475094 30:-0.399643 31:0.45778 32:-0.124827 33:0.0413547 34:0.844987 35:-1 36:-0.436296 37:-0.240378 38:-0.5473 39:0.365606 40:-0.133828 41:0.323486 42:-0.204399 43:0.225744 44:-0.679989 45:-0.315683 46:0.103653 47:-0.205663 48:-0.154626 49:0.033192 50:0.67045 51:0.0733459 52:0.134315 53:1 54:0.0320746 55:0.179174 56:0.390225 57:-0.466258 58:-0.057112 59:0.0435722 60:-0.0358137 61:-0.122881 62:-0.507597 63:0.176132 64:-0.623855 65:0.168008 66:0.248807 67:0.042589 68:0.0778531 69:-0.744334 70:0.237947 71:0.39778 72:-0.524781 73:-0.0439523 74:-0.156838 75:0.441363 76:-0.267759 77:-0.0970461 78:0.269038 79:0.0830942 80:0.276554 81:-0.0584364 82:0.072931 83:-0.933861 84:-0.281574 85:0.296716 86:-0.609684 87:-0.330331 88:-0.0559081 89:-0.00849085 90:-0.365483 91:-0.264316 92:-0.0674233 93:-0.266673 94:0.390314 95:-0.572515 96:-0.551044 97:-0.104358 98:-0.289265 99:-0.326187 100:-0.101248 101:-0.268881 102:-0.138038 103:-0.00643839 104:-0.131484 105:-0.232057 106:-0.153589 107:0.231955 108:-0.186019 109:-0.569931 110:-0.385693 111:-0.244915 112:-0.403118 113:0.0838126 114:-0.247985 115:-0.534665 116:-0.143016 117:-0.314162 118:-0.327928 119:-0.120282 120:-0.237717 121:-0.327722 122:-0.241254 123:-0.461313 124:-0.281727 125:-0.230017 126:-0.431866 127:-0.465827 
0.4264686834304882 0:-0.0643037 1:0.257674 2:-0.228814 3:-0.227622 4:-0.38877 5:-0.226539 6:-0.438219 7:-0.240778 8:-0.56901 9:0.317941 10:-0.141983 11:0.421764 12:-0.292761 13:-0.731515 14:0.389515 15:-0.0923856 16:0.241083 17:-0.13444 18:-0.329527 19:-0.0973168 20:-0.205442 21:0.862492 22:-0.160216 23:0.608759 24:-0.310729 25:0.315552 26:-0.0184264 27:0.189379 28:0.617014 29:-0.181681 30:0.109284 31:-0.00361271 32:-0.346625 33:-0.721277 34:-0.300251 35:0.0615873 36:0.107969 37:0.100985 38:0.11245 39:-0.172627 40:0.946921 41:0.283672 42:-0.309146 43:0.141227 44:-0.0556482 45:0.0462216 46:-0.462736 47:0.0895386 48:0.73884 49:-0.0450296 50:0.37545 51:-0.242381 52:-0.642716 53:0.161523 54:0.293081 55:0.519225 56:0.496996 57:-0.306442 58:0.193553 59:0.308561 60:0.406632 61:0.0585065 62:-0.167636 63:-0.373475 64:-0.212629 65:-0.0271358 66:0.0294194 67:-0.00927046 68:0.0361326 69:0.151424 70:-0.142982 71:0.325125 72:-0.418966 73:0.56482 74:-0.297308 75:-0.0315227 76:-0.10122 77:0.127674 78:0.138855 79:-0.212354 80:0.0771844 81:0.0567037 82:0.196831 83:-0.514831 84:-0.0170635 85:0.112104 86:0.335155 87:-0.27218 88:0.0435848 89:0.118913 90:-0.0692707 91:-0.464414 92:0.24163 93:-0.148039 94:0.131908 95:-0.77435 96:-0.306839 97:-0.255158 98:-0.0302668 99:-0.196441 100:0.232978 101:-0.193165 102:0.0521417 103:-0.195718 104:-0.00645033 105:-0.0228981 106:0.185366 107:0.0688925 108:0.217745 109:-0.146891 110:0.172134 111:-0.105429 112:0.175476 113:-0.154155 114:0.152032 115:-0.179703 116:0.256179 117:-0.251894 118:0.109321 119:-0.0486163 120:0.213092 121:-0.532918 122:0.213172 123:-0.553238 124:-0.0184763 125:-0.631399 126:0.050232 127:-0.155909 
0.4269847602389102 0:-0.0271779 1:0.0437209 2:-0.0243298 3:-0.188489 4:-0.165581 5:-0.236316 6:-0.232437 7:-0.186944 8:-0.315155 9:-0.259529 10:0.100059 11:0.216619 12:0.0174081 13:0.652171 14:0.310505 15:0.162903 16:0.43247 17:-0.0191459 18:-0.109094 19:-0.293377 20:0.128244 21:0.301198 22:-0.35397 23:-0.3633 24:-0.00516005 25:0.525381 26:-0.470881 27:0.170075 28:0.431852 29:0.201394 30:0.341831 31:-0.080999 32:-0.538822 33:-0.0932199 34:-0.321766 35:0.410607 36:-0.13049 37:-0.0525797 38:-0.324268 39:-0.158075 40:0.290016 41:0.0860003 42:-0.136369 43:-0.475655 44:-0.376444 45:0.0488357 46:-0.0364252 47:-0.126138 48:0.254558 49:-0.15762 50:0.392944 51:0.403301 52:-0.0258279 53:0.347186 54:-0.109531 55:0.364188 56:0.555091 57:0.272077 58:-0.0449515 59:0.602833 60:0.122433 61:0.884901 62:-0.0647702 63:-0.477025 64:-0.464042 65:-0.186315 66:-0.166785 67:0.0760187 68:0.139715 69:0.230602 70:0.0900524 71:0.346027 72:-0.283455 73:0.111737 74:-0.0413272 75:0.196892 76:-0.0360355 77:0.189181 78:-0.0242403 79:-0.00769882 80:0.127348 81:-0.0205145 82:0.079917 83:-0.610535 84:0.0967236 85:0.414729 86:0.278087 87:-0.0454563 88:-0.156731 89:0.0378928 90:-0.271337 91:0.0547228 92:0.117148 93:0.19868 94:0.203105 95:0.0288348 96:-0.181614 97:-0.196564 98:-0.141062 99:0.237942 100:0.0628449 101:-0.0970431 102:-0.101734 103:0.0994116 104:-0.0597344 105:-0.0386283 106:-0.0371979 107:0.112606 108:0.0217794 109:-0.363844 110:-0.278668 111:-0.104905 112:-0.124643 113:-0.0607219 114:-0.101127 115:-0.0676152 116:-0.050499 117:-0.162074 118:-0.106709 119:0.124432 120:-0.0644276 121:-0.196985 122:-0.0415288 123:-0.150848 124:-0.205781 125:0.0744249 126:-0.208797 127:-0.135865 
0.4275117334167061 0:0.269152 1:-0.00186047 2:-0.14743 3:-0.371291 4:-0.2391 5:-0.48789 6:-0.429409 7:-0.394429 8:-0.335959 9:-0.326595 10:-0.0644298 11:0.534766 12:-0.25967 13:0.400777 14:-0.0605584 15:-0.382728 16:0.0861148 17:-0.0800895 18:0.0464894 19:-0.174523 20:-0.413336 21:0.318283 22:-0.257693 23:0.314202 24:-0.229133 25:-0.188934 26:-0.492901 27:-0.175927 28:0.487694 29:-0.12605 30:0.145984 31:-0.288779 32:-0.392823 33:-0.0533642 34:-0.0120884 35:0.306726 36:-0.0294625 37:-0.25414 38:-0.59207 39:-0.537743 40:0.357442 41:0.113309 42:-0.474437 43:-0.412595 44:-0.155255 45:-0.249051 46:0.243161 47:0.0892272 48:0.385457 49:0.0755607 50:0.342313 51:0.134212 52:-0.304458 53:0.197432 54:-0.0614892 55:0.0740831 56:0.0198749 57:0.191424 58:0.0819284 59:0.518226 60:0.213249 61:0.321031 62:-0.347408 63:-0.337043 64:-0.0816605 66:-0.0086584 67:0.157688 68:0.425718 69:0.179938 70:0.0486693 71:0.660951 72:-0.31804 73:0.326734 74:-0.260793 75:0.233646 76:-0.128387 77:0.0544456 78:-0.291181 79:0.0469618 80:-0.00131118 81:0.154413 82:0.0283514 83:-0.433351 84:-0.268028 85:0.44896 86:0.312511 87:-0.00126309 88:-0.14646 89:0.0284967 90:-0.541458 91:-0.448994 92:0.209961 93:0.0884406 94:-0.015463 95:-0.220161 96:-0.125398 97:-0.187333 98:-0.0476952 99:0.193765 100:0.176359 101:0.107424 102:-0.0509049 103:-0.0946275 104:-0.149643 105:-0.136997 106:-0.0162111 107:0.444273 108:-0.05058 109:-0.457645 110:-0.230686 111:-0.222602 112:-0.137213 113:0.148561 114:-0.0907773 115:-0.332569 116:-0.0534707 117:-0.299246 118:-0.225515 119:-0.0267845 120:-0.117557 121:-0.257739 122:-0.0659148 123:-0.337461 124:-0.138107 125:-0.126163 126:-0.273849 127:-0.287057 
0.4260007347870827 0:0.221827 1:0.254884 2:-0.126407 3:-0.177367 4:0.0965525 5:-0.161598 6:-0.224636 7:-0.582541 8:-0.347177 9:0.157608 10:0.315744 11:0.273153 12:0.386054 13:-0.292839 14:-0.0215629 15:-0.0944249 16:0.481054 17:0.0198524 18:-0.677547 19:-0.387548 20:0.255542 21:0.34247 22:-0.230627 23:-0.0609406 24:-0.148686 25:0.393491 26:-0.353645 27:0.26504 28:0.789997 29:-0.26501 30:-0.124921 31:-0.274662 32:-0.303214 33:-0.180911 34:0.081501 35:-0.186338 36:-0.458487 37:-0.238467 38:0.110204 39:-0.365584 40:0.173617 41:0.0644386 42:-0.115066 43:-0.350079 44:0.0739285 45:0.24792 46:0.00903245 47:-0.0946904 48:0.0609002 49:0.363545 50:0.514556 51:0.605635 52:-0.262173 53:-0.113163 54:-0.204428 55:0.618054 56:0.154689 57:-0.195392 58:-0.271129 59:0.116984 60:0.363768 61:0.269454 62:-0.202744 63:-0.32368 64:-0.583122 65:-0.435341 66:0.165742 67:-0.0648759 68:0.314499 69:-0.0229891 70:0.00123802 71:0.259746 72:-0.454317 73:0.425957 74:0.0299214 75:-0.0441207 76:-0.218798 77:-0.0957995 78:0.0914461 79:-0.113977 80:0.145219 81:0.0751954 82:-0.0346163 83:-0.5123 84:0.00487573 85:0.383415 86:0.392673 87:-0.611381 88:-0.245993 89:-0.343708 90:-0.461815 91:-0.485902 92:0.251658 93:-0.329082 94:0.0817763 95:-0.235418 96:-0.10373 97:-0.272486 98:0.113508 99:-0.0283862 100:0.19811 101:-0.505352 102:0.209537 103:-0.141481 104:-0.0411229 105:-0.350258 106:0.0324941 107:0.142956 108:0.134919 109:-0.432965 110:0.044687 111:-0.37449 112:-0.0521845 113:0.0293329 114:0.116899 115:-0.469214 116:0.186837 117:-0.370084 118:0.0195411 119:-0.185938 120:0.154733 121:-0.293052 122:0.189577 123:-0.388117 124:-0.0332243 125:-0.107127 126:-0.11085 127:-0.189735 
0.4475615749318343 0:0.166448 1:0.0567442 2:-0.00429029 3:-0.244597 4:-0.123025 5:-0.259164 6:-0.243039 7:-0.322679 8:-0.236441 9:-0.232458 10:0.214673 11:-0.0492885 12:0.136605 13:0.272997 14:-0.168029 15:0.0265471 16:0.278437 17:-0.54276 18:-0.361458 19:-0.328712 20:-0.427754 21:0.497512 22:-0.117853 23:0.614416 24:0.0556773 25:0.381514 26:-0.0562404 27:0.246458 28:0.545939 29:0.057869 30:-0.104833 31:-0.10867 32:-0.0640579 33:-0.228387 34:0.351808 35:0.324338 36:-0.110487 37:-0.2418 38:-0.176323 39:-0.0714472 40:0.0783218 41:0.438438 42:-0.139925 43:-0.342471 44:-0.162273 45:0.0507742 46:-0.0764339 47:0.136326 48:0.307286 49:0.21501 50:0.605822 51:0.232774 52:-0.398221 53:-0.0537757 54:0.0485793 55:0.21276 56:0.447081 57:0.0637216 58:-0.135785 59:0.310737 60:0.388831 61:0.0931803 62:-0.266882 63:-0.162417 64:-0.0362502 65:-0.251623 66:-0.0948548 67:0.117418 68:0.0747585 69:0.152756 70:-0.0427334 71:0.333978 72:-0.252108 73:0.144806 74:-0.244605 75:0.152081 76:-0.12783 77:0.107195 78:0.0330798 79:-0.0255208 80:0.150874 81:-0.108479 82:0.161447 83:-0.305302 84:-0.19709 85:0.205489 86:0.509009 87:-0.209492 88:-0.105543 89:-0.0751045 90:-0.460964 91:-0.530511 92:0.107965 93:-0.179763 94:0.186558 95:-0.0924133 96:-0.112369 97:-0.0758826 98:0.0252431 99:-0.0695483 100:0.0223455 101:-0.235002 102:-0.00715834 103:-0.0291702 104:-0.0454923 105:-0.0804783 106:0.0673578 107:0.266141 108:-0.0510346 109:-0.297825 110:-0.207536 111:-0.279318 112:-0.148119 113:0.063984 114:-0.0340845 115:-0.211531 116:-0.0559106 117:-0.195793 118:-0.192448 119:0.0076954 120:-0.0132451 121:-0.208215 122:0.0130935 123:-0.15331 124:-0.178751 125:-0.260466 126:-0.134481 127:-0.203795 
0.4652333046082451 0:0.311242 1:-0.110698 2:-0.224155 3:-0.0992809 4:-0.263453 5:-0.162785 6:-0.482397 7:-0.0319577 8:-0.336069 9:-0.0417351 10:-0.0131102 11:0.476373 12:0.530794 13:0.33907 14:0.0730995 15:-0.173336 16:-0.0650894 17:0.206815 18:-0.176509 19:-0.0494979 20:-0.386323 21:0.33501 22:0.0837681 23:0.165336 24:0.00519076 25:0.427261 26:-0.277857 27:0.392507 28:0.570395 29:-0.144535 30:-0.0391109 31:0.00696107 32:-0.32447 33:-0.203702 34:0.0178898 35:-0.0179518 36:0.0130613 37:-0.155602 38:-0.085846 39:-0.24256 40:0.142495 41:0.0951925 42:-0.260405 43:-0.328811 44:-0.227193 45:0.0728656 46:0.0594563 47:0.0352045 48:0.518917 49:0.208393 50:0.520045 51:0.292167 52:-0.0438307 53:0.377381 54:-0.0166652 55:0.134897 56:0.210817 57:0.262813 58:-0.248031 59:0.455483 60:-0.00300232 61:0.516171 62:-0.112394 63:0.10484 64:-0.0452154 65:-0.0859517 66:-0.14581 67:0.0545877 68:0.152717 69:0.0683073 70:0.0743865 71:0.372679 72:-0.415928 73:0.0949705 74:-0.124582 75:0.208019 76:-0.181827 77:0.0601259 78:-0.151824 79:0.0454051 80:0.179814 81:-0.056834 82:0.00419243 83:-0.28798 84:-0.245623 85:0.335981 86:0.177912 87:-0.161122 88:-0.214494 89:0.144575 90:-0.450404 91:-0.323503 92:-0.0381832 93:-0.0349094 94:-0.0584632 95:-0.250251 96:-0.396047 97:-0.0497512 98:-0.136712 99:0.0800072 100:-0.0604179 101:-0.165708 102:-0.201963 103:0.0511219 104:-0.229432 105:-0.00478921 106:-0.117578 107:0.331796 108:-0.200952 109:-0.314956 110:-0.266434 111:-0.213682 112:-0.31371 113:0.138078 114:-0.222527 115:-0.365878 116:-0.169174 117:-0.260852 118:-0.422422 119:0.0197359 120:-0.279472 121:-0.287841 122:-0.190741 123:-0.192654 124:-0.344479 125:-0.127587 126:-0.35023 127:-0.153933 
0.4354685890427074 0:0.157485 1:0.31907 2:-0.19685 3:-0.275483 4:-0.340703 5:-0.218389 6:-0.493795 7:-0.239868 8:-0.221162 9:0.0710741 10:0.416783 11:0.412307 12:-0.0206219 13:0.358464 14:0.0503053 15:-0.129755 16:0.126804 17:-0.179081 18:-0.220067 19:-0.422798 20:-0.129332 21:0.297986 22:-0.0136344 23:0.476514 24:0.0988784 25:0.1268 26:-0.235381 27:0.0717135 28:0.441783 29:0.0185092 30:-0.0117055 31:-0.453585 32:0.0101566 33:-0.237706 34:-0.0882524 35:0.101911 36:-0.0668705 37:-0.268219 38:-0.0941116 39:-0.103878 40:0.25654 41:0.190453 42:-0.082771 43:-0.331492 44:-0.182237 45:-0.0538803 46:0.00994345 47:0.18961 48:0.316449 49:0.174047 50:0.481716 51:0.0903079 52:-0.271546 53:0.452593 54:-0.04186 55:-0.00260403 56:0.351077 57:-0.0037805 58:-0.025163 59:0.0882018 60:0.154227 61:0.272031 62:-0.276011 63:-0.170626 64:-0.141298 65:-0.232797 66:0.0891287 67:0.023571 68:0.125298 69:0.158214 70:-0.0525872 71:0.323738 72:-0.280017 73:-0.0795348 74:0.126375 75:0.0868874 76:0.0157168 77:-0.0845854 78:-0.0776213 79:-0.0136913 80:0.233597 81:-0.135192 82:0.372903 83:-0.318023 84:-0.0774685 85:0.0491059 86:0.365373 87:-0.459718 88:-0.0125089 89:-0.000668458 90:-0.109933 91:-0.612356 92:0.185672 93:-0.173118 94:0.412476 95:-0.48492 96:-0.0442309 97:-0.149414 98:0.26317 99:-0.135213 100:0.282642 101:-0.316419 102:0.146759 103:-0.159634 104:0.152386 105:-0.215808 106:0.241159 107:0.140877 108:0.313497 109:-0.470045 110:0.119552 111:-0.286019 112:0.0939946 113:-0.036196 114:0.219212 115:-0.21376 116:0.287307 117:-0.425021 118:0.140978 119:-0.058881 120:0.234848 121:-0.406432 122:0.284729 123:-0.32363 124:0.117347 125:-0.10962 126:0.0732134 127:-0.283859 
0.5549755496405909 0:0.0776511 1:-0.130233 2:-0.0561028 3:-0.193308 4:-0.432621 5:-0.158837 6:-0.386444 7:-0.226371 8:-0.330054 9:0.132569 10:-0.0931601 11:0.410097 12:0.103926 13:-0.048284 14:-0.0618548 15:-0.0234906 16:0.22321 17:0.102475 18:-0.0698576 19:-0.115278 20:0.00232032 21:0.323908 22:0.106629 23:0.362844 24:-0.0966051 25:0.350951 26:-0.220819 27:0.280171 28:0.370972 29:-0.0760416 30:-0.0427305 31:-0.0881665 32:-0.0651203 33:-0.254674 34:0.0876984 35:0.104261 36:-0.0376248 37:-0.194765 38:-0.181249 39:-0.24751 40:0.108937 41:0.239398 42:-0.192548 43:-0.261215 44:-0.277789 45:0.16306 46:0.00518964 47:-0.0453847 48:0.382957 49:0.207836 50:0.504698 51:0.332202 52:-0.349829 53:0.450633 54:-0.00574758 55:0.421763 56:0.457447 57:0.0449112 58:0.213035 59:0.359558 60:0.148312 61:0.195393 62:-0.131929 63:-0.14361 64:-0.141688 65:-0.115295 66:-0.028844 67:-0.0968322 68:0.14814 69:0.142207 70:-0.0519955 71:0.407934 72:-0.361756 73:0.086564 74:0.0514449 75:0.327721 76:-0.174903 77:0.124032 78:-0.226297 79:0.0916681 80:0.0278133 81:0.163496 82:0.172485 83:-0.302879 84:-0.198425 85:0.360411 86:0.00328028 87:0.116431 88:-0.331226 89:0.206854 90:-0.50831 91:-0.211076 92:0.0337011 93:-0.0591199 94:-0.285367 95:-0.14743 96:-0.355118 97:0.0392691 98:-0.187712 99:0.144732 100:-0.118475 101:-0.0898467 102:-0.239802 103:0.038085 104:-0.17588 105:-0.0516606 106:-0.138259 107:0.424559 108:-0.226136 109:-0.351899 110:-0.370408 111:-0.124336 112:-0.282416 113:0.157278 114:-0.230524 115:-0.0624021 116:-0.218248 117:-0.261867 118:-0.397087 119:0.0704556 120:-0.299137 121:-0.269179 122:-0.199101 123:-0.177485 124:-0.389267 125:-0.122043 126:-0.385821 127:-0.212206 
0.4608853012238766 0:0.122078 1:-0.0111628 2:-0.11363 3:-0.214008 4:-0.308429 5:-0.292102 6:-0.167766 7:-0.242649 8:-0.260814 9:0.0778712 10:0.0810221 11:0.586858 12:-0.0507018 13:0.468963 14:-0.175366 15:0.468901 16:0.13524 17:-0.471378 18:-0.404353 19:-0.486192 20:0.0214111 21:0.551903 22:0.0840114 23:0.515232 24:-0.0347904 25:0.350143 26:-0.184512 27:0.270347 28:0.426496 29:0.0242649 30:-0.000447948 31:-0.141441 32:-0.157423 33:-0.305246 34:0.14011 35:0.0965888 36:-0.180919 37:-0.129904 38:-0.303675 39:0.172927 40:-0.0130797 41:0.104755 42:-0.286337 43:-0.31803 44:-0.256264 45:0.131876 46:0.0334681 47:0.209551 48:0.254763 49:0.110413 50:0.415493 51:0.136423 52:-0.217744 53:0.313341 54:-0.20574 55:0.439127 56:0.565129 57:-0.0823383 58:-0.0521013 59:0.161978 60:0.213412 61:0.295982 62:-0.1377 63:0.0708612 64:-0.292925 65:-0.223578 66:0.0956436 67:0.000350498 68:0.108517 69:0.164268 70:-0.226598 71:0.204955 72:-0.373911 73:0.205101 74:0.0568747 75:0.246776 76:0.016242 77:-0.0703994 78:-0.0637457 79:0.0747718 80:0.0991282 81:0.0346012 82:0.209563 83:-0.435424 84:-0.351776 85:0.363492 86:0.204242 87:-0.14613 88:-0.163418 89:0.0501069 90:-0.467632 91:-0.425568 92:0.0391184 93:-0.021805 94:0.0607363 95:-0.429491 96:-0.195542 97:-0.175484 98:0.0147949 99:0.0189105 100:0.041411 101:-0.262712 102:-0.0571391 103:-0.0847456 104:-0.118137 105:-0.220779 106:-0.0336529 107:0.280797 108:0.0338473 109:-0.328391 110:-0.116553 111:-0.222706 112:-0.132206 113:0.105869 114:-0.0513293 115:-0.135721 116:0.00844949 117:-0.260437 118:-0.151293 119:0.106591 120:-0.100263 121:-0.299456 122:-0.00889807 123:-0.197015 124:-0.177901 125:-0.182146 126:-0.245942 127:-0.141444 
2 0:0.156635 1:0.0623256 2:-0.167553 3:-0.160474 4:-0.290426 5:-0.156316 6:-0.400667 7:-0.233698 8:-0.478512 9:-0.0803933 10:-0.0477895 11:0.185413 12:0.171574 13:0.211945 14:0.0157975 15:-0.0911513 16:0.13525 17:-0.0943923 18:-0.162745 19:-0.230761 20:-0.216518 21:0.31226 22:-0.0423298 23:0.391736 24:0.0448153 25:0.236898 26:-0.232085 27:0.175265 28:0.405883 29:-0.0486705 30:-0.0162359 31:-0.177474 32:-0.248614 33:-0.285579 34:0.0224224 35:0.126437 36:-0.0291109 37:-0.138371 38:-0.201373 39:-0.145661 40:0.199235 41:0.220217 42:-0.165573 43:-0.311314 44:-0.204585 45:0.0771392 46:0.0637497 47:0.139055 48:0.30756 49:0.145276 50:0.46469 51:0.284667 52:-0.206632 53:0.316964 54:-0.0268675 55:0.179519 56:0.390822 57:0.0871946 58:-0.0261233 59:0.266742 60:0.204179 61:0.34174 62:-0.198641 63:-0.0788583 64:-0.19275 65:-0.205012 66:0.053969 67:0.00692258 68:0.0977131 69:0.121424 70:0.0117257 71:0.362262 72:-0.300268 73:0.153885 74:-0.0383643 75:0.224031 76:-0.0625064 77:-0.0729584 78:-0.0397427 79:0.0542016 80:0.111406 81:0.00356184 82:0.192348 83:-0.365693 84:-0.144233 85:0.26453 86:0.284742 87:-0.221573 88:-0.134551 89:-0.0679298 90:-0.301211 91:-0.36763 92:0.129041 93:-0.0956163 94:0.0557201 95:-0.253327 96:-0.198811 97:-0.115283 98:0.0593963 99:0.035433 100:0.0966988 101:-0.151263 102:-0.00808022 103:-0.0210443 104:-0.05834 105:-0.11825 106:0.0255701 107:0.302857 108:0.0355958 109:-0.343066 110:-0.106417 111:-0.185346 112:-0.0839165 113:0.0747703 114:-0.00942592 115:-0.238924 116:0.0434365 117:-0.283971 118:-0.154103 119:0.0429165 120:-0.0407762 121:-0.282854 122:0.0157103 123:-0.265271 124:-0.14521 125:-0.144055 126:-0.17864 127:-0.188766 
2 0:0.0985899 1:0.0986047 2:-0.134549 3:-0.188609 4:-0.311144 5:-0.211356 6:-0.398162 7:-0.240442 8:-0.398196 9:-0.01933 10:-0.124548 11:0.280787 12:0.0868696 13:0.251986 14:0.0177996 15:-0.175548 16:0.127003 17:-0.119894 18:-0.160795 19:-0.237676 20:-0.193941 21:0.321533 22:-0.0300965 23:0.387004 24:0.0516081 25:0.261182 26:-0.208888 27:0.17715 28:0.425403 29:-0.0332017 30:-0.028582 31:-0.182042 32:-0.260139 33:-0.29509 34:0.0115606 35:0.123147 36:-0.00419391 37:-0.155121 38:-0.199565 39:-0.1675 40:0.216191 41:0.225441 42:-0.148838 43:-0.318942 44:-0.196751 45:0.0938538 46:0.0761084 47:0.138132 48:0.321617 49:0.146516 50:0.460863 51:0.283523 52:-0.226964 53:0.320362 54:-0.0308626 55:0.197744 56:0.384223 57:0.0306062 58:-0.0231791 59:0.301743 60:0.216961 61:0.357473 62:-0.194972 63:-0.100883 64:-0.176964 65:-0.219034 66:0.0768707 67:0.00579672 68:0.125164 69:0.159964 70:0.0379241 71:0.376644 72:-0.325504 73:0.153381 74:-0.0342916 75:0.186162 76:-0.0236804 77:-0.0621523 78:-0.00502296 79:0.0492814 80:0.144794 81:0.00816716 82:0.207246 83:-0.409414 84:-0.13201 85:0.228182 86:0.321914 87:-0.22676 88:-0.137171 89:-0.0381274 90:-0.284629 91:-0.374537 92:0.158519 93:-0.133179 94:0.103726 95:-0.247406 96:-0.138525 97:-0.154633 98:0.0753494 99:0.0423814 100:0.105577 101:-0.16146 102:0.0510891 103:-0.0395781 104:-0.0125792 105:-0.104245 106:0.0436095 107:0.269303 108:0.0665468 109:-0.31322 110:-0.0346687 111:-0.224783 112:-0.0556663 113:0.0581778 114:0.0147826 115:-0.288008 116:0.0802908 117:-0.308434 118:-0.104406 119:0.0523438 120:0.00334699 121:-0.292279 122:0.0491383 123:-0.260751 124:-0.115408 125:-0.157637 126:-0.137294 127:-0.198618 
0.425938110738027 0:-0.726058 1:-0.613953 2:-1 3:0.531729 4:-0.569499 5:0.824999 6:-0.428174 7:0.533449 8:-0.350286 9:0.518701 10:-0.00693788 11:0.76399 12:0.191883 13:0.526707 14:0.077298 15:0.1384 16:0.16088 17:0.0111575 18:-0.125141 19:-0.185794 20:-0.156888 21:0.36675 22:-0.0394533 23:0.443229 24:0.0500327 25:0.326708 26:-0.250488 27:0.229464 28:0.406475 29:-0.00754247 30:-0.0333997 31:-0.156225 32:-0.269913 33:-0.268198 34:0.0115699 35:0.150478 36:-0.0434932 37:-0.153408 38:-0.22651 39:-0.14682 40:0.166963 41:0.234704 42:-0.200896 43:-0.286917 44:-0.24885 45:0.0918319 46:0.0161291 47:0.131702 48:0.263047 49:0.159651 50:0.409452 51:0.276617 52:-0.326169 53:0.319704 54:-0.0953649 55:0.210786 56:0.264633 57:0.0512701 58:-0.177045 59:0.283759 60:0.00320621 61:0.388908 62:-0.387997 63:-0.0457132 64:-0.435977 65:-0.180992 66:-0.150775 67:0.0393264 68:-0.0848498 69:0.24583 70:-0.388253 71:0.441436 72:-0.614572 73:0.27099 74:-0.394656 75:0.317535 76:-0.398006 77:0.0510708 78:-0.515327 79:0.207218 80:-0.338019 81:0.221945 82:-0.215248 83:-0.176118 84:-0.605546 85:0.462787 86:-0.385277 87:0.098229 88:-0.633699 89:0.269086 90:-0.809259 91:-0.0659422 92:-0.361474 93:0.126669 94:-0.827701 95:0.115825 96:-1 97:0.205522 98:-0.618506 99:0.316532 100:-0.511856 101:0.192672 102:-0.637124 103:0.186805 104:-0.64346 105:0.32376 106:-0.570667 107:0.545076 108:-0.730744 109:0.00366714 110:-1 111:0.00634058 112:-0.822977 113:0.464022 114:-0.735038 115:0.14077 116:-0.734468 117:-0.0480833 118:-1 119:0.260056 120:-0.808142 121:-0.0704062 122:-0.664709 123:-0.0540995 124:-0.833579 125:0.00945698 126:-0.851169 127:-0.121893 
0.426295730503164 0:0.793297 1:0.694884 2:-0.20482 3:-0.434371 4:-0.295727 5:-0.36894 6:-0.403424 7:-0.451834 8:-0.141293 9:0.279478 10:-0.602162 11:-0.309997 12:-0.0135918 13:1 14:-1 15:-0.73295 16:0.0700503 17:-0.0843376 18:-0.303745 19:-0.226596 20:-0.283049 21:0.0349797 22:0.0460249 23:0.732716 24:0.26566 25:0.192679 26:-0.812132 27:0.0799281 28:0.576687 29:0.379408 30:0.151119 31:-0.234156 32:-0.140258 33:-0.509655 34:1 35:0.264924 36:0.364043 37:-0.720641 38:1 39:0.0876355 40:0.919254 41:0.385271 42:-0.473747 43:1 44:-0.725919 45:-0.238288 46:0.160698 47:0.194406 48:0.998404 49:-0.179392 50:0.244381 51:0.304043 52:-0.414063 53:0.670305 54:0.100197 55:-0.779691 56:0.0110014 57:1 58:-0.412983 59:-0.526759 60:0.419606 61:-0.436325 62:-0.504554 63:-0.163219 64:-0.212239 65:-0.550117 66:0.66542 67:0.355284 68:-0.34193 69:0.537222 70:-0.0194843 71:0.381064 72:-0.157622 73:0.195162 74:0.574357 75:0.138328 76:0.0047432 77:-0.460568 78:-0.240996 79:-0.181919 80:0.816846 81:-0.171084 82:0.745243 83:-0.945459 84:0.166556 85:0.0567105 86:0.0524684 87:-0.713273 88:0.299257 89:-0.657025 90:0.78585 91:-0.647415 92:0.804459 93:-0.603226 94:0.602225 95:-0.79939 96:0.41956 97:-0.47642 98:0.885375 99:0.382965 100:0.525252 101:-0.372541 102:0.278882 103:0.0128412 104:0.366072 105:-0.754309 106:0.526208 107:-0.0888405 108:0.492505 109:-0.440701 110:0.509277 111:-0.488085 112:0.430645 113:0.15349 114:0.335555 115:-1 116:1 117:-0.480046 118:0.613632 119:-0.0425131 120:0.645293 121:-0.644448 122:0.715246 123:-0.292351 124:0.618798 125:-0.969004 126:0.617175 127:-0.2621 
0.4265570039820861 0:0.342129 1:-0.662326 2:-0.118543 3:-0.381468 4:-0.39898 5:-0.272721 6:-0.233947 7:-0.220384 8:-0.636219 9:-0.120215 10:0.00543025 11:-0.218377 12:0.0885066 13:-0.15887 14:0.140162 15:-0.484351 16:0.238882 17:-0.0454389 18:-0.0705469 19:-0.450783 20:-0.646838 21:0.131245 22:0.557584 23:0.895693 24:0.0706678 25:0.41163 26:-0.390926 27:0.85137 28:-0.338533 29:-0.586055 30:0.480498 31:-0.00669118 32:-0.238475 33:-0.337832 34:-0.212255 35:0.157772 36:0.651155 37:0.380813 38:-0.0703181 39:-0.379062 40:0.661914 41:0.464328 42:-0.0783081 43:-1 44:-0.570001 45:0.217611 46:0.43657 47:1 48:1 49:0.8003 50:0.783696 51:0.355799 52:-1 53:0.826505 54:-0.258542 55:0.71273 56:0.332035 57:0.243794 58:-0.436937 59:0.961053 60:0.249318 61:0.45145 62:-1 63:0.169111 64:-1 65:-0.276292 66:-0.0423907 67:0.0612325 68:-0.138277 69:-0.189574 70:0.122899 71:0.135631 72:-0.561562 73:0.384572 74:-0.0376533 75:0.210003 76:-0.421406 77:-0.0477199 78:-0.140616 79:0.44007 80:0.138609 81:0.141724 82:-0.370243 83:-0.865949 84:-0.245213 85:-0.138763 86:0.028276 87:0.371819 88:-0.602927 89:0.437035 90:-1 91:-0.138156 92:-0.119602 93:-0.0225189 94:-0.3274 95:-0.648627 96:-0.843403 97:-0.374886 98:-0.399146 99:0.0911382 100:-0.244876 101:0.38845 102:-0.428808 103:0.152048 104:-0.720668 105:0.0805828 106:-0.269126 107:0.530913 108:-0.653321 109:-0.604676 110:-0.559989 111:0.027749 112:-0.912977 113:0.507277 114:-0.606871 115:0.259859 116:-0.599264 117:-0.178937 118:-0.880168 119:-0.11661 120:-0.737721 121:-0.134688 122:-0.442853 123:-0.246918 124:-0.774412 125:-0.0958222 126:-0.696865 127:-0.370115 
0.4259967221217002 0:0.0735368 1:-0.352558 2:-0.182689 3:-0.276492 4:-0.289687 5:-0.170144 6:-0.313975 7:-0.493781 8:-0.382445 9:-0.315483 10:0.325058 11:-0.120345 12:0.0469878 13:0.256555 14:0.0166535 15:-0.579989 16:0.234371 17:0.371659 18:0.22037 19:-0.219837 20:-0.183002 21:0.498492 22:-0.67249 23:-0.152342 24:-0.493301 25:0.602754 26:-0.592192 27:0.0793863 28:0.402216 29:-0.358702 30:0.20322 31:-0.0223072 32:-0.0817178 33:-0.269115 34:0.259639 35:0.894395 36:-0.121657 37:0.0900841 38:0.361378 39:0.13156 40:0.580386 41:0.268755 42:-0.419029 43:0.450269 44:-0.260694 45:0.315394 46:0.483146 47:0.322508 48:-0.125891 49:0.391905 50:0.461036 51:0.397553 52:-0.723693 53:0.427843 54:-0.209063 55:0.141965 56:0.323622 57:0.478766 58:0.291927 59:0.170971 60:0.403474 61:0.336613 62:-0.378311 63:0.368236 64:-0.32177 65:-0.125552 66:-0.0823399 67:-0.0459657 68:0.204169 69:0.625705 70:0.128938 71:0.508342 72:-0.22172 73:-0.088704 74:0.232621 75:-0.157819 76:-0.396421 77:-0.455553 78:0.0768588 79:0.255377 80:-0.242461 81:0.189068 82:0.266467 83:-0.366133 84:-0.527616 85:0.0423564 86:0.0956324 87:-0.521613 88:-0.21554 89:0.424595 90:-0.958018 91:0.124921 92:-0.282362 93:0.100926 94:-0.585319 95:-0.232673 96:-0.748023 97:0.248943 98:-0.278471 99:-0.158026 100:-0.188884 101:-0.0262068 102:-0.423466 103:0.150025 104:-0.769655 105:-0.0212407 106:-0.393666 107:0.328303 108:-0.469703 109:-0.366281 110:-0.716829 111:-0.185801 112:-0.604288 113:-0.180027 114:-0.598658 115:0.390583 116:-0.430578 117:-0.115991 118:-0.645398 119:-0.105436 120:-0.483779 121:0.019537 122:-0.399516 123:-0.182168 124:-0.523346 125:0.245969 126:-0.605623 127:-0.323402 
0.4260888322683795 0:0.0595905 1:0.151628 2:-0.189554 3:-0.146816 4:-0.233374 5:-0.0551357 6:-0.610581 7:-0.549519 8:-0.776693 9:-0.177042 10:-0.112363 11:-0.144623 12:0.317965 13:-0.0709057 14:0.314161 15:-0.527469 16:0.249921 17:0.181902 18:-1 19:0.114426 20:-0.0602339 21:0.124945 22:-0.139388 23:0.796672 24:0.236151 25:0.544443 26:-0.354185 27:0.710804 28:0.318304 29:0.151858 30:0.0074594 31:-0.502383 32:-0.54356 33:-0.250599 34:0.462819 35:1 36:0.110866 37:0.150465 38:-0.386732 39:0.358677 40:0.581395 41:0.251872 42:0.498594 43:-0.360138 44:-0.0148234 45:0.405018 46:-0.237556 47:0.350524 48:0.708805 49:0.358671 50:0.397199 51:0.937135 52:0.259519 53:0.798237 54:0.248611 55:-0.875248 56:0.876602 57:0.295353 58:0.242464 59:-0.331159 60:0.604572 61:0.120668 62:-0.158811 63:-0.146204 64:-0.0855584 65:-0.441574 66:0.234128 67:-0.328032 68:0.0645741 69:0.50182 70:0.590888 71:0.375536 72:-0.487215 73:-0.243372 74:0.35652 75:0.302406 76:-0.251351 77:-0.118935 78:0.167309 79:-0.0370462 80:-0.0405449 81:-0.517778 82:-0.0843121 83:-0.438434 84:-0.191533 85:-0.176472 86:0.255711 87:-0.725942 88:-0.271766 89:-0.00768098 90:-0.541613 91:-0.501558 92:0.177808 93:-0.29896 94:0.1685 95:-0.688687 96:-0.226334 97:0.00507205 98:-0.0444153 99:0.0951757 100:0.193238 101:-0.202286 102:-0.17337 103:-0.0518261 104:-0.126556 105:-0.324934 106:0.194944 107:0.602379 108:0.104029 109:-0.364953 110:-0.0579025 111:-0.162232 112:-0.121952 113:-0.0213449 114:-0.0359653 115:-0.409787 116:-0.0104072 117:-0.203657 118:-0.13482 119:-0.0206916 120:-0.0488277 121:0.0268555 122:-0.137057 123:-0.463218 124:-0.0631829 125:0.0586951 126:-0.109443 127:-0.223468 
0.4261242835224058 0:-0.154684 1:-0.245581 2:-0.0712235 3:-0.0598918 4:-0.36884 5:-0.225611 6:-0.217836 7:-0.139574 8:-0.483022 9:0.0784394 10:-0.139089 11:0.107443 12:0.156597 13:0.375653 14:0.0416569 15:0.445499 16:-0.305538 17:-0.305662 18:0.147548 19:-0.398664 20:-0.467078 21:0.300321 22:0.200042 23:-0.261884 24:-0.0840255 25:0.370657 26:-0.041494 27:0.248104 28:0.607155 29:-0.103994 30:0.0609592 31:-0.231899 32:-0.273607 33:-0.296953 34:0.467924 35:0.178854 36:0.0254079 37:-0.0138428 38:-0.105848 39:-0.103461 40:0.0020859 41:-0.0382132 42:-0.209435 43:-0.843592 44:-0.360769 45:0.184061 46:0.119139 47:0.261255 48:0.219082 49:0.125421 50:0.46169 51:0.0278846 52:-0.239736 53:-0.0419363 54:-0.112932 55:0.402652 56:0.224013 57:0.0795183 58:-0.247207 59:0.275626 60:0.225549 61:0.40626 62:-0.370786 63:-0.0856029 64:-0.349445 65:-0.287198 66:0.152334 67:0.132526 68:-0.0625966 69:0.108201 70:-0.182509 71:0.72692 72:-0.17067 73:-0.0327747 74:-0.186326 75:0.329174 76:-0.104243 77:0.142234 78:-0.141741 79:0.103213 80:-0.0424169 81:-0.279784 82:0.221573 83:-0.327221 84:-0.141743 85:0.205507 86:-0.00093133 87:-0.0704038 88:-0.441074 89:-0.126818 90:-0.425145 91:0.0681473 92:-0.0161704 93:-0.248705 94:-0.141552 95:-0.187806 96:-0.397018 97:-0.0935616 98:-0.0332625 99:0.115916 100:-0.167786 101:0.142095 102:-0.124367 103:-0.110805 104:-0.0713596 105:-0.324654 106:-0.0991173 107:0.304353 108:-0.0275746 109:-0.442273 110:-0.299888 111:-0.299568 112:-0.247367 113:0.0910469 114:-0.212887 115:-0.12653 116:-0.186341 117:-0.402406 118:-0.406633 119:0.0391447 120:-0.243928 121:-0.242567 122:-0.210182 123:-0.200871 124:-0.305563 125:-0.157507 126:-0.319437 127:-0.245181 
0.433031434003621 0:0.221634 1:-0.0595349 2:-0.0329123 3:-0.272828 4:-0.296815 5:-0.276962 6:-0.407337 7:-0.11435 8:-0.710028 9:-0.213215 10:-0.0574954 11:0.577104 12:0.0997536 13:0.461388 14:0.149884 15:-0.16832 16:0.0657916 17:0.345327 18:-0.0252933 19:-0.379456 20:-0.57999 21:0.394112 22:0.152355 23:0.350062 24:0.0619636 25:0.255577 26:-0.386601 27:0.39055 28:0.421142 29:-0.135654 30:0.126084 31:0.0119819 32:-0.0787232 33:-0.615988 34:0.130793 35:0.0441791 36:-0.0899166 37:-0.192593 38:-0.384865 39:0.0215721 40:0.177688 41:0.274974 42:0.0788892 43:-0.296234 44:-0.427672 45:0.312778 46:0.111112 47:0.326933 48:0.333419 49:0.0539643 50:0.5188 51:0.149586 52:-0.419176 53:0.29133 54:-0.167968 55:0.490978 56:0.347353 57:0.0120123 58:-0.244336 59:0.157121 60:0.173775 61:0.277137 62:-0.240487 63:0.0324972 64:-0.286494 65:-0.219294 66:0.185651 67:0.0933144 68:0.0612206 69:-0.0875184 70:-0.0525251 71:0.508463 72:-0.50941 73:0.463447 74:0.203917 75:0.489083 76:0.0323668 77:0.0669943 78:-0.118158 79:0.236854 80:0.294779 81:0.164952 82:0.175708 83:-0.224473 84:-0.334253 85:0.243497 86:0.378583 87:-0.145687 88:0.0827888 89:-0.0128904 90:-0.404332 91:0.00524292 92:-0.00356659 93:-0.10471 94:0.286341 95:-0.221287 96:-0.200807 97:-0.0170501 98:-0.199025 99:0.157778 100:0.155613 101:-0.210057 102:0.0278194 103:-0.176125 104:-0.141124 105:0.00774259 106:-0.0413822 107:0.38307 108:-0.085302 109:-0.287738 110:-0.193801 111:-0.21206 112:-0.121393 113:0.0572995 114:-0.0904253 115:-0.349413 116:-0.043569 117:-0.302406 118:-0.356044 119:0.146276 120:-0.084683 121:-0.136308 122:-0.0631431 123:-0.305035 124:-0.261746 125:-0.0675889 126:-0.275603 127:-0.142604 
0.4896989124361127 0:0.0740197 1:0.055814 2:-0.199122 3:-0.146886 4:-0.419848 5:-0.132569 6:-0.6036 7:-0.116276 8:-0.558514 9:0.0734147 10:-0.0163336 11:0.060441 12:0.114172 13:0.127204 14:0.249124 15:0.126395 16:0.492354 17:-0.332935 18:-0.289259 19:-0.310288 20:-0.241909 21:0.554712 22:-0.14203 23:0.825595 24:0.0354016 25:0.281727 26:-0.311735 27:0.241923 28:0.663995 29:0.190591 30:0.0321434 31:-0.19452 32:-0.165606 33:-0.342002 34:-0.289369 35:0.00774746 36:0.106571 37:-0.142191 38:-0.319432 39:-0.204889 40:0.132943 41:0.0698938 42:-0.1648 43:-0.284422 44:-0.295854 45:0.369361 46:0.216838 47:0.225 48:0.277983 49:-0.065005 50:0.36795 51:0.165124 52:-0.166588 53:0.476063 54:0.0400428 55:0.236965 56:0.476419 57:0.0652578 58:0.0227836 59:0.114841 60:0.199726 61:0.476291 62:-0.226573 63:-0.0295786 64:0.0754239 65:-0.250584 66:0.252445 67:0.018326 68:0.124769 69:0.348528 70:0.10092 71:0.272028 72:-0.349463 73:0.161467 74:0.215185 75:0.331145 76:-0.10877 77:-0.105028 78:0.118867 79:0.0777218 80:0.171694 81:0.0869098 82:0.162854 83:-0.365857 84:-0.292029 85:0.343043 86:0.378241 87:-0.0908698 88:-0.118456 89:-0.0486047 90:-0.306729 91:-0.427181 92:0.115009 93:-0.0394751 94:0.212379 95:-0.114823 96:-0.193953 97:-0.218147 98:0.0106132 99:0.0731354 100:0.137076 101:-0.00765225 102:0.00979152 103:0.0194169 104:0.00412024 105:0.0417639 106:-0.0113334 107:0.373521 108:0.0901334 109:-0.423068 110:-0.103154 111:-0.103438 112:0.0784536 113:0.152185 114:0.0734406 115:-0.246691 116:0.0431001 117:-0.259825 118:-0.0793448 119:0.181687 120:0.0506254 121:-0.135327 122:0.0498054 123:-0.249374 124:-0.0666001 125:-0.034984 126:-0.0977878 127:-0.13797 
0.4608079172087047 0:0.0540274 1:0.0530233 2:0.38368 3:-0.0669955 4:-0.458644 5:-0.116018 6:-0.299026 7:-0.25623 8:-0.149275 9:-0.0827022 10:0.000265641 11:0.413639 12:-0.192382 13:0.532808 14:-0.276744 15:-0.0508079 16:0.207957 17:0.0566688 18:-0.351652 19:-0.150367 20:-0.182782 21:0.143247 22:0.0445687 23:0.25542 24:-0.0268506 25:0.396325 26:-0.297106 27:0.369815 28:0.282136 29:0.0855976 30:-0.143993 31:-0.131382 32:-0.157069 33:-0.233512 34:0.282087 35:0.135055 36:-0.0202443 37:0.10936 38:-0.399481 39:0.0921984 40:0.296588 41:0.189923 42:-0.259289 43:-0.452062 44:-0.232154 45:0.132028 46:0.165916 47:0.0252926 48:0.337265 49:-0.0630566 50:0.486014 51:0.241795 52:-0.0693972 53:0.260085 54:-0.0430459 55:0.384585 56:0.380034 57:0.0640964 58:0.102224 59:0.247778 60:0.180631 61:0.427608 62:-0.230285 63:-0.0904646 64:-0.210485 65:-0.283043 66:-0.0951176 67:-0.0562306 68:0.284152 69:0.0997811 70:-0.130377 71:0.409229 72:-0.419353 73:-0.0700993 74:0.0283226 75:0.202634 76:-0.0978489 77:-0.0295714 78:-0.249509 79:0.16028 80:0.113653 81:-0.105729 82:0.310283 83:-0.534628 84:-0.175397 85:0.260633 86:0.267534 87:-0.422049 88:-0.138135 89:0.0239482 90:-0.315306 91:-0.37083 92:0.129636 93:-0.186827 94:0.0342819 95:-0.188372 96:-0.319015 97:-0.128648 98:-0.000769611 99:0.0650973 100:0.110185 101:-0.196961 102:-0.0190848 103:0.0139129 104:-0.0714644 105:-0.066833 106:0.0608456 107:0.302701 108:-0.0329839 109:-0.237172 110:-0.0792331 111:-0.233023 112:-0.0269297 113:0.0595019 114:0.0163202 115:-0.291379 116:-0.00784459 117:-0.271752 118:-0.188195 119:0.137584 120:-0.0696064 121:-0.320216 122:0.0192864 123:-0.25829 124:-0.156542 125:-0.286175 126:-0.179829 127:-0.318817 
0.5448277518904319 0:0.122233 1:0.19907 2:-0.167895 3:-0.150137 4:-0.427495 5:-0.466796 6:-0.360987 7:-0.192647 8:-0.560463 9:0.00584284 10:-0.08585 11:0.280628 12:0.234304 13:0.0197281 14:-0.249269 15:-0.12883 16:0.013195 17:-0.051762 18:-0.0905548 19:-0.263535 20:-0.421108 21:0.124136 22:-0.100698 23:0.407993 24:0.0778723 25:0.183492 26:-0.420162 27:0.231497 28:0.404745 29:-0.145424 30:-0.0132626 31:-0.141908 32:-0.177049 33:-0.490384 34:0.0495983 35:0.193155 36:-0.01047 37:-0.210356 38:-0.0372937 39:-0.0349166 40:0.15698 41:0.388223 42:-0.169992 43:-0.374325 44:-0.194101 45:0.0929059 46:0.081798 47:0.0646432 48:0.205574 49:0.167585 50:0.42155 51:0.192308 52:-0.223094 53:0.313079 54:0.0446024 55:0.281428 56:0.326797 57:0.0309008 58:0.0350204 59:0.303161 60:0.306609 61:0.378919 62:-0.165603 63:-0.0346093 64:-0.175404 65:-0.211763 66:0.145862 67:0.027423 68:0.211747 69:0.242385 70:0.156222 71:0.275076 72:-0.338353 73:0.213159 74:0.0402676 75:0.174323 76:0.083941 77:-0.137097 78:0.0236952 79:0.0499543 80:0.277356 81:0.00850965 82:0.27353 83:-0.499809 84:-0.0885627 85:0.115624 86:0.472421 87:-0.365513 88:0.0389166 89:0.032303 90:-0.191664 91:-0.435599 92:0.204776 93:-0.107143 94:0.214431 95:-0.481636 96:-0.0229113 97:-0.0784161 98:0.190762 99:-0.00722835 100:0.1856 101:-0.058528 102:0.183557 103:-0.0114063 104:0.085282 105:-0.172147 106:0.149962 107:0.21442 108:0.20627 109:-0.291494 110:0.0884528 111:-0.208825 112:0.127732 113:-0.0567236 114:0.158657 115:-0.176865 116:0.233647 117:-0.272507 118:0.0161974 119:0.0383285 120:0.125968 121:-0.303031 122:0.140887 123:-0.218673 124:-0.0040598 125:-0.109909 126:-0.0402731 127:-0.23442 
0.5273953111341905 0:0.104018 1:0.185116 2:0.0397334 3:-0.129297 4:-0.203636 5:-0.226713 6:-0.299012 7:-0.309259 8:-0.0774432 9:-0.258327 10:0.0311266 11:0.177679 12:-0.030835 13:0.0425936 14:-0.000542625 15:0.163677 16:0.255961 17:-0.218207 18:-0.155904 19:-0.106881 20:-0.188613 21:0.272391 22:-0.0160782 23:0.300286 24:0.227092 25:0.258834 26:-0.182631 27:0.217446 28:0.442057 29:0.0896676 30:0.102766 31:-0.136565 32:-0.184079 33:-0.28932 34:0.128544 35:0.0871398 36:-0.0125888 37:-0.0527328 38:-0.135202 39:-0.271552 40:0.368456 41:0.213925 42:-0.255422 43:-0.138726 44:-0.247905 45:0.207315 46:-0.13297 47:0.0967574 48:0.422576 49:0.0723848 50:0.412986 51:0.246509 52:-0.193035 53:0.118842 54:-0.0827721 55:0.325686 56:0.414331 57:-0.140911 58:-0.0296637 59:0.158826 60:0.411554 61:0.359937 62:-0.115671 63:-0.15165 64:-0.188852 65:-0.34108 66:0.122802 67:-0.0874553 68:0.123794 69:0.0086164 70:-0.0502984 71:0.302719 72:-0.281121 73:-0.0196755 74:0.00348459 75:0.152241 76:-0.030507 77:-0.214174 78:-0.140495 79:-0.0629969 80:0.0737315 81:0.0151191 82:0.211858 83:-0.439408 84:-0.0941942 85:0.0468019 86:0.543227 87:-0.199953 88:-0.102722 89:-0.016707 90:-0.299907 91:-0.358159 92:0.103405 93:-0.17745 94:0.0461969 95:-0.287213 96:-0.0435047 97:-0.215088 98:0.0999333 99:-0.00743655 100:0.147413 101:-0.366289 102:0.123464 103:-0.073075 104:0.0243192 105:-0.167388 106:0.111136 107:0.267118 108:0.116841 109:-0.39398 110:-0.0421137 111:-0.252881 112:-0.023381 113:-0.0436006 114:0.05895 115:-0.328108 116:0.170362 117:-0.310024 118:-0.00863601 119:0.00579277 120:0.0930324 121:-0.287156 122:0.129979 123:-0.319718 124:-0.0613271 125:-0.182293 126:-0.100157 127:-0.176578 
0.7000450175524042 0:0.19011 1:-0.0167442 2:-0.298716 3:-0.174771 4:-0.357443 5:-0.261968 6:-0.34203 7:-0.266004 8:-0.283122 9:-0.162237 10:-0.0807576 11:0.119356 12:0.0187114 13:0.346237 14:-0.136555 15:-0.259268 16:0.029428 17:0.00187927 18:-0.104502 19:-0.111016 20:-0.251434 21:0.251133 22:-0.0891902 23:0.334849 24:0.0894967 25:0.242463 26:-0.248849 27:0.0488521 28:0.574032 29:0.198571 30:-0.184521 31:-0.257794 32:-0.227857 33:-0.24658 34:0.105299 35:0.30208 36:0.0593119 37:-0.0700656 38:-0.308807 39:-0.187914 40:0.155289 41:0.302153 42:-0.267158 43:-0.232088 44:-0.265626 45:0.204976 46:0.0488506 47:0.119047 48:0.369243 49:0.158056 50:0.488515 51:0.322896 52:-0.29837 53:0.438411 54:-0.0797448 55:0.147831 56:0.388469 57:0.191224 58:-0.079308 59:0.329759 60:0.377854 61:0.304664 62:-0.12615 63:-0.0332826 64:-0.256285 65:-0.274214 66:0.145356 67:0.0103841 68:0.0695808 69:0.0821522 70:-0.0775634 71:0.443483 72:-0.466257 73:0.204965 74:-0.0330875 75:0.232596 76:-0.0620264 77:-0.0755957 78:-0.257754 79:0.0384629 80:0.0950765 81:0.131033 82:0.193835 83:-0.315034 84:-0.178361 85:0.289213 86:0.29105 87:-0.169481 88:-0.127642 89:0.167475 90:-0.367977 91:-0.321683 92:0.112039 93:-0.0604518 94:-0.170897 95:-0.176252 96:-0.229891 97:-0.0806685 98:-0.164146 99:0.0536288 100:0.0696704 101:-0.108689 102:-0.0221906 103:0.0301038 104:-0.153325 105:-0.0903557 106:-0.039877 107:0.323063 108:-0.0714052 109:-0.359201 110:-0.2397 111:-0.172775 112:-0.22853 113:0.149959 114:-0.123241 115:-0.133647 116:-0.0614693 117:-0.273231 118:-0.29586 119:0.00790789 120:-0.118196 121:-0.29829 122:-0.102591 123:-0.268352 124:-0.242942 125:0.0132433 126:-0.329138 127:-0.231185 
0.9520020162143142 0:0.114545 1:0.100465 2:-0.103426 3:-0.183883 4:-0.29606 5:-0.158886 6:-0.308504 7:-0.286228 8:-0.404507 9:-0.112602 10:-0.0495763 11:0.390477 12:0.395988 13:0.254854 14:-0.156567 15:0.00711007 16:0.322915 17:-0.117766 18:-0.214198 19:-0.384701 20:-0.157834 21:0.430355 22:-0.248034 23:0.357998 24:-0.0207564 25:0.139057 26:-0.290761 27:0.160655 28:0.386571 29:-0.128325 30:0.0612877 31:-0.172847 32:-0.336496 33:-0.313316 34:0.25837 35:0.273912 36:-0.186594 37:-0.104625 38:-0.000801343 39:-0.00178544 40:0.110908 41:0.12428 42:-0.168535 43:-0.262525 44:-0.227311 45:-0.045183 46:0.0461406 47:0.11034 48:0.255903 49:0.0823079 50:0.4314 51:0.400363 52:-0.103511 53:0.241843 54:-0.174028 55:0.178982 56:0.374526 57:0.102403 58:0.00306814 59:0.199119 60:0.218308 61:0.442709 62:-0.216606 63:0.000880602 64:-0.235042 65:-0.129966 66:0.026093 67:-0.0218262 68:0.0938129 69:0.10241 70:0.171735 71:0.325337 72:-0.362217 73:0.119747 74:-0.0480246 75:0.271562 76:-0.0658615 77:-0.0689145 78:-0.118442 79:0.171136 80:0.0269617 81:0.0399461 82:0.259618 83:-0.264288 84:-0.0334908 85:0.258195 86:0.475821 87:-0.15091 88:-0.0630489 89:-0.0617485 90:-0.272011 91:-0.425398 92:0.0875245 93:-0.159372 94:0.184267 95:-0.21 96:-0.0985909 97:-0.0119984 98:0.0474261 99:0.00997071 100:0.0765869 101:-0.11756 102:-0.0215382 103:-0.0439678 104:-0.0555387 105:-0.163777 106:0.0825125 107:0.237926 108:0.0495509 109:-0.31972 110:-0.0814828 111:-0.243878 112:-0.0810034 113:0.228699 114:-0.0155505 115:-0.0864603 116:0.0396381 117:-0.243941 118:-0.127251 119:0.00862611 120:0.00162103 121:-0.298552 122:0.0274005 123:-0.257619 124:-0.125571 125:-0.192731 126:-0.178994 127:-0.229943 
0.64585558928818 0:0.0901294 1:0.109767 2:-0.233814 3:-0.166541 4:-0.482653 5:-0.0988121 6:-0.374909 7:-0.175999 8:-0.253452 9:-0.030715 10:-0.184587 11:0.329265 12:0.0164156 13:0.239056 14:-0.0638943 15:0.138308 16:0.0625561 17:0.0826275 18:-0.271142 19:-0.252633 20:-0.0663249 21:0.346783 22:-0.0509304 23:0.348517 24:-0.0252062 25:0.236393 26:-0.301235 27:0.0348812 28:0.322495 29:0.00416179 30:-0.0188153 31:-0.258873 32:-0.125578 33:-0.301565 34:0.0253744 35:0.136086 36:0.0156662 37:-0.113813 38:0.0336203 39:0.009373 40:0.318941 41:0.367852 42:-0.234394 43:-0.305153 44:-0.200244 45:0.0692309 46:0.0692507 47:0.128225 48:0.315485 49:0.184907 50:0.434375 51:0.228108 52:-0.107297 53:0.183446 54:0.0746875 55:0.207296 56:0.477449 57:-0.136478 58:0.01932 59:0.184996 60:0.311956 61:0.415923 62:-0.150203 63:0.0236207 64:-0.168193 65:-0.307193 66:0.0555602 67:-0.0281649 68:0.111189 69:0.114794 70:0.0596053 71:0.429571 72:-0.335086 73:0.29228 74:-0.00489183 75:0.205751 76:0.00139856 77:-0.111182 78:0.00472663 79:0.051002 80:0.214431 81:0.159926 82:0.305545 83:-0.48106 84:-0.124625 85:0.173821 86:0.261131 87:-0.077259 88:-0.0708979 89:0.0166104 90:-0.231776 91:-0.443149 92:0.174691 93:-0.0977589 94:0.180922 95:-0.240245 96:-0.0945981 97:-0.139793 98:0.0441159 99:0.030481 100:0.178912 101:-0.0739609 102:-0.00342807 103:-0.0145421 104:-0.0496997 105:-0.0340563 106:0.0797197 107:0.308647 108:0.118953 109:-0.333165 110:-0.070057 111:-0.18497 112:-0.0151219 113:0.00600503 114:0.0447842 115:-0.288432 116:0.101803 117:-0.349626 118:-0.0865209 119:0.10246 120:0.00239778 121:-0.228187 122:0.058601 123:-0.267749 124:-0.0967055 125:-0.0858664 126:-0.132271 127:-0.155603 
1.064956460097342 0:0.104559 1:0.112558 2:-0.021889 3:-0.156531 4:-0.218758 5:-0.153433 6:-0.46635 7:-0.240563 8:-0.405329 9:-0.0977362 10:-0.102687 11:0.0473777 12:0.0677124 13:0.578539 14:0.0880488 15:0.27897 16:0.0491036 17:0.0442737 18:0.021936 19:-0.262736 20:-0.154839 21:0.194578 22:0.0275933 23:0.131524 24:0.138075 25:0.285997 26:-0.14037 27:0.0189175 28:0.350634 29:0.0175734 30:-0.0116931 31:-0.177316 32:-0.211566 33:-0.284909 34:0.0399885 35:0.0103168 36:-0.10003 37:-0.109693 38:-0.159285 39:-0.163951 40:0.358116 41:0.348355 42:-0.241906 43:-0.219593 44:-0.262771 45:0.00193452 46:0.0389901 47:0.110167 48:0.358789 49:0.19034 50:0.378172 51:0.332486 52:-0.216203 53:0.288042 54:-0.0371282 55:0.0801394 56:0.367124 57:0.0280954 58:-0.00442603 59:0.258516 60:0.178894 61:0.377785 62:-0.194432 63:-0.0739869 64:-0.157864 65:-0.217606 66:0.0531362 67:-0.0503826 68:0.0518194 69:0.166279 70:0.0586633 71:0.398621 72:-0.400976 73:0.0956513 74:-0.0287153 75:0.24282 76:0.0137111 77:-0.032579 78:-0.044464 79:0.0273387 80:0.1297 81:0.110978 82:0.186393 83:-0.348129 84:-0.0886532 85:0.30599 86:0.351965 87:-0.169591 88:-0.0788591 89:-0.109418 90:-0.26839 91:-0.316479 92:0.103805 93:-0.146272 94:0.137823 95:-0.292418 96:-0.180734 97:-0.111691 98:0.10311 99:0.075142 100:0.116587 101:-0.19982 102:-0.00413452 103:-0.0929947 104:-0.0242368 105:-0.111887 106:0.0295475 107:0.335749 108:0.0684312 109:-0.350333 110:-0.0336307 111:-0.204549 112:-0.0218863 113:0.0434968 114:0.00158554 115:-0.213593 116:0.048056 117:-0.313733 118:-0.148122 119:-0.0319658 120:-0.0228415 121:-0.261519 122:0.0617379 123:-0.231461 124:-0.0932479 125:-0.128857 126:-0.119612 127:-0.24059 
1.283176599296466 0:0.0731505 1:0.015814 2:-0.0975235 3:-0.170427 4:-0.350676 5:-0.175592 6:-0.377788 7:-0.207718 8:-0.653336 9:-0.139913 10:0.0449376 11:0.0254383 12:0.120572 13:0.192859 14:-0.21884 15:-0.0652106 16:0.19437 17:-0.0667268 18:-0.0940922 19:-0.251185 20:-0.276289 21:0.300759 22:-0.0373956 23:0.503327 24:0.0581683 25:0.329469 26:-0.27856 27:0.247347 28:0.448476 29:-0.00823391 30:0.0340151 31:-0.256295 32:-0.329395 33:-0.257356 34:0.109969 35:0.102603 36:-0.042441 37:-0.101644 38:-0.298124 39:-0.270482 40:0.19905 41:0.20528 42:-0.173019 43:-0.332366 44:-0.224264 45:0.0298249 46:0.0471434 47:0.163378 48:0.236335 49:0.219501 50:0.496524 51:0.201453 52:-0.293905 53:0.246125 54:-0.0206654 55:0.124913 56:0.341052 57:0.0543018 58:-0.0570082 59:0.229456 60:0.0464004 61:0.511725 62:-0.278987 63:-0.0712559 64:-0.149094 65:-0.238509 66:-0.0854355 67:-0.0211546 68:0.0792267 69:0.0905645 70:0.024536 71:0.45679 72:-0.378743 73:0.169589 74:-0.0263903 75:0.309538 76:-0.077229 77:-0.111787 78:-0.0895562 79:0.0474009 80:-0.00158976 81:0.0651499 82:0.192201 83:-0.402818 84:-0.161844 85:0.249297 86:0.297428 87:-0.24677 88:-0.182812 89:-0.061304 90:-0.33101 91:-0.279699 92:0.103732 93:-0.204999 94:-0.0239124 95:-0.271956 96:-0.297163 97:-0.100167 98:-0.0580533 99:0.0436516 100:0.0513892 101:-0.0815021 102:-0.00417403 103:-0.0151072 104:-0.11339 105:-0.0528464 106:0.0219424 107:0.293624 108:-0.0674251 109:-0.370739 110:-0.155894 111:-0.182913 112:-0.0716149 113:0.0647647 114:-0.0215881 115:-0.217686 116:0.040252 117:-0.34142 118:-0.205509 119:-0.0173541 120:-0.0892603 121:-0.330375 122:-0.0231141 123:-0.264063 124:-0.17477 125:-0.17806 126:-0.214813 127:-0.160146 
0.7749213730563583 0:0.10253 1:-0.0204651 2:-0.105543 3:-0.178853 4:-0.478281 5:-0.125645 6:-0.32399 7:-0.225414 8:-0.325132 9:0.131564 10:-0.326625 11:-0.0271222 12:-0.00445504 13:-0.00757104 14:-0.138929 15:0.170041 16:0.00658082 17:-0.177732 18:-0.024634 19:-0.313355 20:-0.179609 21:0.216008 22:0.0233249 23:0.368762 24:0.0849183 25:0.381922 26:-0.311641 27:0.379478 28:0.652384 29:0.0248301 30:-0.0136823 31:-0.198208 32:-0.352942 33:-0.324947 34:0.109637 35:0.0698355 36:-0.026495 37:-0.148529 38:-0.307037 39:-0.047204 40:0.00262106 41:0.270681 42:-0.212993 43:-0.164979 44:-0.292565 45:0.193386 46:0.123788 47:0.0825706 48:0.324762 49:0.0761795 50:0.384786 51:0.369376 52:-0.26261 53:0.477869 54:0.0130872 55:0.356753 56:0.25293 57:0.175669 58:-0.0246769 59:0.216258 60:0.120998 61:0.380454 62:-0.305821 63:-0.0531073 64:-0.153576 65:-0.199299 66:0.0899331 67:-0.00473554 68:0.0498339 69:0.235936 70:0.0478003 71:0.316323 72:-0.417457 73:0.107938 74:-0.0184201 75:0.270867 76:-0.0346725 77:-0.0423009 78:-0.0691799 79:0.0156663 80:0.0385981 81:0.0453305 82:0.168791 83:-0.377187 84:-0.200354 85:0.140108 86:0.227718 87:-0.234031 88:-0.181295 89:0.0447583 90:-0.411714 91:-0.315733 92:0.0334316 93:-0.115878 94:-0.0818987 95:-0.0744798 96:-0.302346 97:0.0153446 98:-0.011081 99:0.104634 100:0.0397035 101:-0.160164 102:-0.0675598 103:-0.0505592 104:-0.0973296 105:-0.0882053 106:-0.0740964 107:0.322695 108:-0.0586941 109:-0.286919 110:-0.177715 111:-0.155438 112:-0.184977 113:0.126537 114:-0.106302 115:-0.242883 116:-0.0213593 117:-0.234284 118:-0.189429 119:0.127745 120:-0.0971667 121:-0.302085 122:-0.0538829 123:-0.32979 124:-0.213408 125:-0.231933 126:-0.250619 127:-0.170388 
1.266758798558039 0:0.194379 1:-0.116279 2:-0.0838981 3:-0.107803 4:-0.246427 5:-0.142203 6:-0.380002 7:-0.234836 8:-0.40043 9:-0.0248003 10:-0.0231752 11:0.252974 12:0.0867172 13:0.121782 14:0.125502 15:-0.10411 16:0.0562767 17:-0.107307 18:-0.169115 19:-0.293511 20:-0.18266 21:0.352938 22:-0.0408792 23:0.313246 24:0.0170208 25:0.369094 26:-0.198065 27:0.160291 28:0.504187 29:-0.144922 30:-0.133933 31:-0.196805 32:-0.188556 33:-0.224612 34:0.0257074 35:0.113883 36:-0.115114 37:-0.161347 38:-0.223635 39:-0.180932 40:0.156924 41:0.302692 42:-0.192473 43:-0.366015 44:-0.237684 45:0.0679536 46:0.0928893 47:0.132293 48:0.275114 49:0.135553 50:0.396337 51:0.270797 52:-0.278755 53:0.31551 54:-0.0547951 55:0.292365 56:0.243888 57:0.0227901 58:-0.109655 59:0.338816 60:0.159491 61:0.477156 62:-0.308691 63:-0.0712356 64:-0.357825 65:-0.19839 66:0.0269919 67:0.00177722 68:0.077145 69:0.103027 70:0.0230059 71:0.367468 72:-0.413608 73:0.0522697 74:-0.10756 75:0.229633 76:-0.145864 77:0.0825789 78:-0.104468 79:0.114816 80:-0.0216042 81:0.0624791 82:0.0977947 83:-0.311492 84:-0.202677 85:0.290298 86:0.0478059 87:-0.0707807 88:-0.199717 89:0.0188287 90:-0.369489 91:-0.22154 92:0.0433245 93:-0.0442672 94:-0.154849 95:-0.108729 96:-0.42018 97:-0.00731787 98:-0.164337 99:0.00650874 100:-0.065688 101:-0.0537773 102:-0.153348 103:0.0164719 104:-0.241545 105:-0.0533682 106:-0.163759 107:0.289235 108:-0.173774 109:-0.273734 110:-0.31853 111:-0.133413 112:-0.302616 113:0.10328 114:-0.19378 115:-0.268198 116:-0.164792 117:-0.208157 118:-0.374348 119:0.045155 120:-0.290241 121:-0.28017 122:-0.166664 123:-0.227844 124:-0.328738 125:-0.18547 126:-0.381161 127:-0.201876 
2 0:0.101835 1:0.0334884 2:-0.150822 3:-0.131521 4:-0.32662 5:-0.125166 6:-0.333617 7:-0.230532 8:-0.484889 9:-0.213145 10:0.0154645 11:0.137732 12:0.105249 13:0.213001 14:0.00905252 15:-0.165541 16:0.0773314 17:-0.107068 18:-0.160735 19:-0.268912 20:-0.127529 21:0.342863 22:-0.0464299 23:0.367268 24:0.0765831 25:0.265079 26:-0.271377 27:0.141459 28:0.43529 29:-0.0550033 30:-0.0306849 31:-0.192022 32:-0.279651 33:-0.270185 34:0.0520829 35:0.1234 36:-0.0204793 37:-0.152723 38:-0.223605 39:-0.157501 40:0.207656 41:0.254786 42:-0.187652 43:-0.292508 44:-0.213698 45:0.0843044 46:0.0562166 47:0.131863 48:0.36655 49:0.192861 50:0.452063 51:0.273171 52:-0.260895 53:0.263936 54:-0.00584484 55:0.235904 56:0.38105 57:0.0641588 58:-0.00136345 59:0.300645 60:0.222776 61:0.353307 62:-0.220637 63:-0.0496074 64:-0.182226 65:-0.19865 66:0.0246272 67:0.00146044 68:0.12478 69:0.155133 70:0.0320401 71:0.387423 72:-0.339105 73:0.212072 74:-0.0171037 75:0.244804 76:-0.0407657 77:-0.0600366 78:-0.0720329 79:0.0459349 80:0.100551 81:0.0670112 82:0.248898 83:-0.384969 84:-0.146326 85:0.213776 86:0.321084 87:-0.157258 88:-0.11501 89:0.0219936 90:-0.30172 91:-0.347464 92:0.135656 93:-0.11235 94:-0.0140731 95:-0.158157 96:-0.184152 97:-0.0547595 98:0.00962972 99:0.0444394 100:0.0863866 101:-0.126636 102:0.0033509 103:-0.00929854 104:-0.0582882 105:-0.0942225 106:0.0269246 107:0.310549 108:0.0234256 109:-0.278788 110:-0.138072 111:-0.181095 112:-0.0757454 113:0.0866998 114:0.000559217 115:-0.257866 116:0.0626783 117:-0.292758 118:-0.159138 119:0.0302271 120:-0.0582277 121:-0.314276 122:-0.00644925 123:-0.251626 124:-0.161591 125:-0.134939 126:-0.194047 127:-0.139619 
