svm_type c_svc
kernel_type rbf
gamma 0.000488281
nr_class 2
total_sv 35
rho -32.8752
label 3 4
nr_sv 17 18
SV
2048 1:0.499902 2:0.24674 3:0.124295 4:0.816962 5:0.116834 6:0.427146 7:-0.271289 8:0.358386 9:0.853286 10:0.590906 11:0.683363 12:0.140223 13:0.497452 14:0.194018 15:0.715254 16:0.45474 17:0.356828 18:0.0547348 19:0.218558 20:0.273196 21:0.493696 22:0.512086 23:0.256443 24:0.435228 25:0.237452 26:0.521924 27:0.396529 28:0.276018 29:0.45057 30:0.383454 31:0.428659 32:0.488978 33:0.427418 34:-0.00856986 35:0.489751 36:0.669139 37:0.554145 38:0.72146 39:0.717344 40:0.850972 41:0.712136 42:0.609066 43:0.74652 44:0.803516 45:0.68368 46:0.744842 47:0.751996 48:0.692852 49:0.758792 50:0.779379 51:0.709455 52:0.727855 53:0.710507 54:0.741121 55:0.731124 56:0.752864 57:0.725815 58:0.725451 59:0.745911 60:0.724234 
1986.282659519638 1:0.816929 2:0.634659 3:0.508056 4:0.783637 5:0.671173 6:0.100691 7:0.646106 8:0.358529 9:0.676322 10:0.143429 11:0.464654 12:0.686959 13:0.584867 14:0.0255571 15:0.239521 16:0.0238525 17:-0.119135 18:0.212341 19:-0.183926 20:0.356525 21:0.473588 22:0.656164 23:0.563757 24:0.400632 25:0.225408 26:0.10303 27:0.0584466 28:0.480261 29:0.564311 30:0.715742 31:0.343674 32:0.719124 33:0.768638 34:0.61274 35:0.860204 36:0.722429 37:0.768551 38:0.944935 39:1 40:1 41:1 42:1 43:1 44:1 45:1 46:1 47:1 48:1 49:1 50:1 51:1 52:1 53:1 54:1 55:1 56:1 57:1 58:1 59:1 60:1 
320.0665284414109 1:-0.734088 2:-0.569126 3:-0.554969 4:-0.21879 5:-0.640745 6:0.0805142 7:0.424079 8:-0.0524375 9:0.526383 10:0.442009 11:0.373857 12:-0.327619 13:-0.521057 14:0.0451899 15:0.0160648 16:0.289737 17:0.0242465 18:0.108948 19:0.199839 20:0.151747 21:0.203461 22:0.115973 23:0.0146671 24:-0.0307095 25:-0.0643571 26:0.346579 27:0.165188 28:0.126114 29:0.165363 30:0.0544822 31:-0.180303 32:-0.0510195 33:0.263178 34:0.0131935 35:0.0453685 36:-0.0627602 37:-0.0875695 38:0.170581 39:-0.178477 40:-0.00308859 41:-0.00376233 42:0.000602481 43:-0.0450282 44:-0.085029 45:-0.0223377 46:-0.0112164 47:0.142903 48:0.0854686 49:0.148109 50:0.240977 51:0.047063 52:-0.0280432 53:0.00726774 54:0.0937978 55:0.019228 56:0.148618 57:0.106797 58:0.0838315 59:0.169083 60:0.00646124 
452.9605378007112 1:-0.470777 2:-0.476091 3:-0.722526 4:0.0480514 5:-0.200083 6:-0.274663 7:-0.829941 8:-0.482723 9:-0.135613 10:-0.240319 11:0.0533073 12:-0.221657 13:-0.512361 14:-0.17774 15:-0.189762 16:-0.339523 17:-0.280349 18:0.117524 19:-0.127789 20:-0.120148 21:0.117257 22:-0.161891 23:-0.428308 24:-0.280354 25:-0.0644951 26:-0.143132 27:0.0132954 28:-0.333909 29:-0.040133 30:-0.0375863 31:-0.335169 32:-0.227396 33:-0.109719 34:-0.148519 35:-0.210807 36:-0.0912771 37:-0.204169 38:-0.31322 39:-0.500178 40:-0.559907 41:-0.439979 42:-0.588547 43:-0.325404 44:-0.405451 45:-0.670333 46:-0.388608 47:-0.750134 48:-0.386548 49:-0.525948 50:-0.307431 51:-0.40782 52:-0.674616 53:-0.620115 54:-0.555886 55:-0.442316 56:-0.533991 57:-0.371634 58:-0.653378 59:-0.21198 60:-0.785588 
1506.465629338369 1:0.398369 2:0.608277 3:0.610242 4:0.457563 5:0.458133 6:0.266167 7:1 8:0.508658 9:-0.0906773 10:1 11:0.822439 12:-0.316323 13:0.366036 14:0.309448 15:0.655585 16:0.495376 17:0.234245 18:0.376952 19:0.101765 20:0.285517 21:0.984696 22:0.805954 23:0.696559 24:0.0643493 25:0.127165 26:0.648518 27:0.936003 28:0.740201 29:0.376953 30:0.749633 31:0.230354 32:0.016952 33:0.385173 34:0.295589 35:0.383211 36:0.380528 37:-0.0938038 38:0.430286 39:-0.309044 40:0.306132 41:0.437129 42:0.226624 43:-0.163228 44:0.303503 45:-0.0495943 46:0.0833907 47:0.0539154 48:0.12639 49:0.211861 50:0.331468 51:-0.111916 52:-0.0139322 53:0.0876962 54:0.0489534 55:0.0552944 56:0.134461 57:0.10243 58:0.128308 59:0.133637 60:0.129546 
121.8296006101228 1:-0.759589 2:0.119883 3:-0.0656105 4:0.150125 5:0.457388 6:0.219169 7:0.801831 8:1 9:1 10:0.840913 11:0.709839 12:0.438927 13:0.619197 14:0.666165 15:0.197108 16:0.608633 17:0.376184 18:0.509594 19:0.397435 20:0.994978 21:0.346045 22:0.788994 23:0.159308 24:1 25:0.151179 26:0.49717 27:0.716805 28:0.637073 29:0.369187 30:0.232299 31:0.369435 32:0.102969 33:0.586318 34:0.325135 35:0.298897 36:0.250065 37:0.0253644 38:0.0425301 39:-0.24682 40:-0.49814 41:-0.306427 42:-0.151006 43:0.0792522 44:0.100155 45:-0.129053 46:-0.150226 47:0.163755 48:0.169567 49:0.050436 50:0.102619 51:-0.034639 52:-0.00674546 53:-0.0624605 54:0.0686769 55:0.0582673 56:0.198664 57:0.0271601 58:-0.01274 59:0.130868 60:-0.00882727 
527.0118492952006 1:-0.328724 2:-0.0896199 3:-0.355706 4:-0.519638 5:-0.307104 6:0.51873 7:-0.261884 8:0.121386 9:0.0603531 10:0.400249 11:0.27135 12:-0.175889 13:0.467354 14:-0.0717956 15:0.397112 16:0.0693224 17:-0.0772526 18:0.0822154 19:-0.12085 20:-0.055445 21:0.0022039 22:0.139229 23:-0.0509299 24:-0.273333 25:-0.193994 26:0.182485 27:0.186891 28:0.154034 29:0.221196 30:-0.102417 31:-0.0587844 32:0.202841 33:0.55038 34:0.0724977 35:0.0394885 36:-0.397109 37:-0.146011 38:0.190805 39:0.158355 40:0.12648 41:-0.108292 42:-0.00642213 43:0.0413396 44:0.170163 45:0.0519137 46:0.0757759 47:0.10619 48:0.0176907 49:0.0537755 50:0.283096 51:0.131843 52:-0.0232086 53:-0.065954 54:0.0970035 55:0.131149 56:0.159231 57:0.0510446 58:0.00723854 59:0.168699 60:-0.00175101 
735.6761489235055 1:0.0380513 2:0.212113 3:0.357079 4:0.458491 5:0.648556 6:0.274328 7:0.181272 8:0.665517 9:0.599681 10:0.595349 11:0.466481 12:-0.00827985 13:0.686308 14:0.393974 15:-0.134794 16:0.381477 17:-0.0172784 18:0.570368 19:-0.328586 20:0.441489 21:0.538849 22:0.864667 23:0.411146 24:0.0327314 25:0.3098 26:0.315548 27:0.269721 28:-0.101386 29:0.686674 30:0.508695 31:0.360199 32:0.427662 33:0.534925 34:0.16792 35:0.464237 36:0.291842 37:0.250148 38:0.16284 39:-0.336867 40:-0.0399857 41:-0.126961 42:0.05705 43:0.14525 44:0.278143 45:-0.0370334 46:0.173658 47:-0.226345 48:0.0724612 49:-0.0273017 50:0.272151 51:0.0231284 52:-0.0410133 53:-0.205696 54:0.140588 55:0.0103548 56:-0.00407229 57:-0.0575441 58:-0.13848 59:0.0803035 60:-0.121793 
578.902470759816 1:-0.163915 2:-0.457514 3:-0.278022 4:-0.0243313 5:-0.0180121 6:0.242062 7:-0.271607 8:-0.513108 9:0.0243911 10:-0.176095 11:-0.0293645 12:-0.11617 13:-0.115367 14:-0.276933 15:0.015637 16:0.00123753 17:-0.375635 18:-0.00534811 19:-0.178539 20:0.0422914 21:0.148687 22:-0.121999 23:0.00804373 24:-0.215284 25:-0.00495262 26:0.0615357 27:0.0678499 28:-0.0445199 29:-0.124027 30:-0.00200978 31:-0.591967 32:-0.238852 33:0.222586 34:-0.0242278 35:-0.118443 36:-0.220188 37:-0.293014 38:-0.265969 39:-0.206959 40:-0.519021 41:-0.151316 42:-0.181943 43:-0.313594 44:-0.556171 45:-0.505486 46:-0.462812 47:-0.53823 48:-0.447034 49:-0.441592 50:-0.178759 51:-0.554727 52:-0.603146 53:-0.665418 54:-0.44709 55:-0.500902 56:-0.676802 57:-0.407161 58:-0.634594 59:-0.568679 60:-0.563234 
455.3790985091193 1:-0.703841 2:-0.295357 3:-0.685881 4:-0.0993736 5:0.250746 6:-0.145137 7:-0.205707 8:-0.310347 9:0.0977938 10:0.190948 11:-0.593468 12:-0.286439 13:-0.571253 14:-0.363816 15:-0.427821 16:-0.230737 17:-0.0131134 18:-0.303551 19:-0.28106 20:-0.26718 21:-0.0729916 22:0.158426 23:-0.200517 24:-0.390736 25:-0.0461394 26:-0.0981751 27:-0.0334976 28:-0.317826 29:0.0638013 30:0.14241 31:-0.156129 32:-0.264972 33:0.143062 34:-0.141475 35:-0.117261 36:0.0504402 37:-0.206973 38:-0.297291 39:-0.0727551 40:-0.305204 41:-0.179133 42:-0.266594 43:-0.161374 44:-0.298043 45:-0.373555 46:-0.188577 47:-0.146423 48:-0.525845 49:-0.239128 50:-0.0240572 51:-0.28755 52:-0.410242 53:-0.274487 54:-0.103593 55:-0.216497 56:-0.110217 57:-0.185383 58:-0.167501 59:-0.0353511 60:-0.285004 
1769.703769956852 1:0.136717 2:0.0182456 3:0.015932 4:0.751942 5:0.151307 6:0.160882 7:-0.243387 8:0.345956 9:-0.0492478 10:0.427273 11:0.174317 12:1 13:0.678834 14:0.528192 15:0.682549 16:0.355243 17:0.173871 18:0.487437 19:-0.0907831 20:0.542136 21:0.875847 22:0.383965 23:0.16979 24:0.331806 25:-0.299592 26:0.30698 27:0.437111 28:0.423854 29:-0.0611542 30:0.377835 31:-0.0527479 32:-0.181619 33:0.597689 34:0.288015 35:0.251753 36:0.258192 37:0.0437819 38:0.495037 39:0.479302 40:0.373296 41:0.320245 42:0.223555 43:0.279527 44:0.448737 45:0.295187 46:0.238968 47:0.350034 48:0.324453 49:0.392218 50:0.495482 51:0.383549 52:0.320565 53:0.314301 54:0.329099 55:0.325971 56:0.400464 57:0.391962 58:0.341597 59:0.419971 60:0.329445 
2048 1:-0.0665602 2:0.342693 3:0.0861701 4:0.150536 5:0.157493 6:0.0520836 7:0.525127 8:0.422728 9:0.0249131 10:0.234128 11:-0.0684368 12:0.346142 13:-0.43958 14:0.23695 15:0.13639 16:0.117938 17:0.138871 18:-0.003838 19:0.194877 20:0.494582 21:0.16049 22:0.412118 23:-0.0468131 24:0.389713 25:0.354406 26:0.415545 27:-0.121237 28:0.625258 29:0.0933056 30:0.321679 31:0.204718 32:0.487164 33:0.618006 34:0.0321963 35:0.319757 36:0.220076 37:0.168768 38:0.187419 39:0.423179 40:0.204714 41:0.362404 42:0.415786 43:0.407382 44:0.415818 45:0.428282 46:0.495713 47:0.534402 48:0.437703 49:0.495895 50:0.559087 51:0.453818 52:0.445083 53:0.432833 54:0.466128 55:0.478127 56:0.505098 57:0.47396 58:0.461922 59:0.525799 60:0.474018 
1687.110418332238 1:-0.681506 2:-0.589602 3:-0.504712 4:-0.616607 5:0.107263 6:-0.20302 7:0.343264 8:-0.104189 9:0.479218 10:0.268534 11:-0.0900401 12:-0.330025 13:-0.039327 14:0.174349 15:-0.205731 16:0.0626953 17:0.0264785 18:0.0829578 19:0.130675 20:0.277213 21:0.183946 22:0.0708354 23:-0.0842967 24:0.0761848 25:0.170829 26:0.215213 27:-0.138476 28:0.259927 29:0.271862 30:0.0211825 31:0.0269626 32:-0.0905138 33:-0.0537335 34:0.0474206 35:0.015794 36:-0.198704 37:-0.302576 38:-0.294828 39:-0.300498 40:-0.0477921 41:-0.386287 42:-0.226732 43:-0.287803 44:-0.0788467 45:-0.29563 46:-0.232191 47:-0.265163 48:-0.353792 49:-0.183325 50:-0.0490734 51:-0.367476 52:-0.282641 53:-0.375703 54:-0.271231 55:-0.372713 56:-0.290683 57:-0.193247 58:-0.38363 59:-0.183628 60:-0.336455 
2048 1:-0.318503 2:-0.520226 3:-0.454823 4:-0.187072 5:-0.09037 6:0.0454376 7:0.0546485 8:-0.199169 9:-0.0876242 10:0.145842 11:0.029274 12:-0.115469 13:-0.116958 14:-0.0300636 15:-0.258076 16:0.0741184 17:-0.217484 18:0.0444725 19:0.141966 20:0.250601 21:0.060532 22:-0.582888 23:-0.235724 24:0.270563 25:-0.018779 26:0.150742 27:0.0229345 28:-0.00235672 29:0.0217641 30:0.0787147 31:0.0436558 32:0.190116 33:0.184612 34:0.0878586 35:0.170253 36:0.159689 37:0.191153 38:0.166949 39:-0.0766792 40:-0.0731142 41:0.0429135 42:0.116871 43:0.168801 44:0.277273 45:-0.00996402 46:0.175008 47:0.169603 48:0.187626 49:0.157701 50:0.320409 51:0.114749 52:0.191972 53:0.0744201 54:0.22091 55:0.164782 56:0.202537 57:0.152333 58:0.190064 59:0.258331 60:0.123572 
132.4510318061386 1:-0.565015 2:-0.587615 3:-0.774579 4:-0.144925 5:-0.0267821 6:-0.519496 7:0.144302 8:-0.251901 9:-0.482668 10:-0.281532 11:-0.325646 12:0.14348 13:-0.474816 14:-0.310725 15:-0.0118908 16:-0.298841 17:-0.204578 18:0.124831 19:-0.150879 20:-0.0767388 21:-0.0519111 22:-0.165833 23:-0.444475 24:-0.36084 25:-0.0426342 26:-0.0934311 27:-0.00443254 28:0.139684 29:0.156683 30:-0.192049 31:-0.507541 32:-0.465636 33:0.0617181 34:-0.594915 35:-0.45614 36:-0.317561 37:-0.147642 38:-0.170553 39:-0.102619 40:-0.508973 41:-0.802537 42:-0.211724 43:-0.312202 44:-0.151639 45:-0.25815 46:-0.251813 47:-0.156556 48:-0.23587 49:-0.164917 50:0.0732829 51:-0.412711 52:-0.281052 53:-0.237655 54:-0.236162 55:-0.156851 56:-0.140676 57:-0.266283 58:-0.253392 59:-0.0654835 60:-0.29277 
1008.281431409513 1:-1 2:-0.148367 3:-0.621911 4:-0.484543 5:-0.0798064 6:-0.278088 7:-0.183838 8:-0.0691821 9:0.224554 10:0.0162094 11:-0.08543 12:-0.50123 13:-0.176959 14:-0.238093 15:-0.493297 16:-0.599311 17:-0.0991874 18:-0.0862912 19:-0.321099 20:-0.397509 21:-0.120303 22:-0.509547 23:-0.661603 24:0.0608975 25:-0.0771887 26:-0.0869808 27:-0.210137 28:0.0154613 29:0.0901797 30:-0.346315 31:-0.268369 32:-0.445683 33:0.0107052 34:-0.184943 35:-0.366956 36:-0.542322 37:-0.102066 38:-0.260651 39:-0.361945 40:-0.213825 41:-0.698789 42:-0.334068 43:-0.716092 44:-0.34457 45:-0.498266 46:-0.524329 47:-0.202763 48:-0.56437 49:-0.466741 50:-0.204339 51:-0.722994 52:-0.577859 53:-0.788589 54:-0.310568 55:-0.602938 56:-0.483201 57:-0.640922 58:-0.46236 59:-0.29722 60:-0.496874 
372.4205018551713 1:-0.621881 2:-0.0835352 3:-0.358198 4:-0.426161 5:0.522872 6:0.0870259 7:0.485252 8:0.484798 9:0.444138 10:0.0452525 11:0.0943049 12:-0.165832 13:-0.236176 14:0.136473 15:0.0294241 16:0.0836533 17:0.180111 18:-0.0313544 19:-0.033721 20:0.321127 21:0.178388 22:0.216815 23:-0.350469 24:0.453984 25:-0.215432 26:-0.0677748 27:0.150089 28:0.0543534 29:-0.0825516 30:0.0913163 31:-0.0149538 32:-0.51637 33:0.172544 34:-0.317935 35:0.179479 36:-0.0138453 37:-0.2854 38:-0.149808 39:0.0370287 40:-0.124664 41:-0.258096 42:-0.257567 43:-0.193432 44:-0.146143 45:-0.402589 46:-0.250693 47:-0.141199 48:-0.306416 49:-0.105653 50:-0.334263 51:-0.394633 52:-0.307899 53:-0.190131 54:-0.309403 55:-0.426026 56:-0.15781 57:-0.281816 58:-0.253759 59:-0.137232 60:-0.341265 
-206.6296150182013 1:1 2:1 3:1 4:1 5:0.573714 6:0.337826 7:0.837343 8:0.42164 9:0.464213 10:0.623134 11:0.594096 12:0.687464 13:0.561383 14:0.398635 15:0.802151 16:0.512365 17:0.505513 18:0.0974947 19:0.49078 20:0.711565 21:0.757658 22:0.682906 23:0.786647 24:0.707832 25:0.261602 26:0.891395 27:0.48298 28:0.541597 29:0.852548 30:0.693929 31:0.748698 32:0.690172 33:0.891042 34:1 35:0.838777 36:0.904466 37:0.864757 38:0.995173 39:0.62742 40:0.81734 41:0.829083 42:0.786181 43:0.70515 44:0.751126 45:0.755467 46:0.784115 47:0.832361 48:0.845017 49:0.905514 50:0.795781 51:0.750241 52:0.838591 53:0.772786 54:0.874851 55:0.802005 56:0.828681 57:0.77925 58:0.795347 59:0.830684 60:0.804011 
-1702.056432987162 1:0.789728 2:0.564457 3:0.476454 4:0.678948 5:0.301339 6:0.558607 7:0.777777 8:0.755154 9:0.452431 10:0.57552 11:0.533566 12:0.202798 13:0.132301 14:0.19891 15:0.338015 16:0.432894 17:0.615785 18:0.209759 19:0.22625 20:0.885109 21:0.931317 22:0.516848 23:0.619775 24:0.303892 25:0.399355 26:0.830121 27:0.586331 28:0.337815 29:0.775577 30:0.492635 31:0.569102 32:0.812129 33:0.431712 34:0.354685 35:0.459593 36:0.689812 37:0.953851 38:0.885373 39:0.859428 40:0.841178 41:0.569316 42:0.968155 43:0.839088 44:0.878247 45:0.773502 46:0.751861 47:0.792168 48:0.756502 49:0.829692 50:0.844022 51:0.75507 52:0.796242 53:0.805822 54:0.803542 55:0.760836 56:0.858736 57:0.780572 58:0.80234 59:0.839105 60:0.802061 
-521.1047410265452 1:0.164538 2:0.141876 3:0.2244 4:0.00811959 5:0.155274 6:0.347583 7:0.332287 8:0.10114 9:0.241281 10:0.354905 11:-0.304981 12:0.108142 13:0.380861 14:0.301994 15:0.688312 16:0.381115 17:0.202406 18:0.567089 19:0.262348 20:0.540996 21:0.752062 22:0.827129 23:0.422926 24:0.173023 25:-0.0323745 26:0.393366 27:0.330927 28:0.523618 29:0.135269 30:0.212549 31:0.0506029 32:0.204809 33:0.601014 34:-0.117885 35:0.115044 36:0.137349 37:0.331928 38:0.0740444 39:0.338082 40:0.150363 41:0.122724 42:0.0694752 43:-0.0303364 44:0.422776 45:0.118996 46:0.236571 47:0.102735 48:-0.105647 49:0.189534 50:0.164037 51:-0.0953602 52:0.164845 53:0.0349065 54:-0.04167 55:0.129131 56:-0.135404 57:-0.0292449 58:-0.17284 59:0.155411 60:0.00300118 
-2048 1:-0.692789 2:-0.498964 3:-0.150542 4:0.0473981 5:0.124945 6:0.14371 7:0.375914 8:0.176428 9:0.545827 10:0.0736668 11:0.536773 12:0.316958 13:0.140632 14:0.227504 15:0.412423 16:0.21498 17:0.251781 18:0.284981 19:-0.107626 20:0.118541 21:0.408221 22:0.442747 23:0.0540443 24:0.267987 25:0.263579 26:0.295007 27:0.172426 28:0.0884006 29:0.277801 30:0.0989352 31:-0.146566 32:-0.10002 33:0.208666 34:-0.166446 35:0.321384 36:0.0274866 37:0.256664 38:0.278485 39:0.43406 40:0.203203 41:-0.169542 42:0.0622482 43:0.226076 44:0.113938 45:0.028731 46:0.227056 47:0.313285 48:0.181463 49:0.118585 50:0.277361 51:-0.0348572 52:0.106379 53:-0.0295226 54:0.264276 55:0.142918 56:0.128222 57:0.0131176 58:0.0421505 59:0.209737 60:0.0904702 
-862.2450657106774 1:0.0571973 2:0.043483 3:-0.0208672 4:0.190302 5:0.723603 6:0.0151135 7:0.353305 8:0.0133018 9:0.470956 10:0.267754 11:0.526934 12:0.0796883 13:0.456525 14:0.39457 15:0.38224 16:0.306229 17:0.288539 18:-0.119294 19:-0.119511 20:0.435066 21:0.259973 22:0.348 23:0.228283 24:0.40657 25:0.143979 26:0.735328 27:0.506212 28:0.691113 29:0.788811 30:0.759017 31:0.161697 32:0.353872 33:0.821801 34:0.173364 35:0.697012 36:0.499024 37:0.327341 38:0.489899 39:0.343572 40:0.272328 41:0.606379 42:0.543745 43:0.504438 44:0.655173 45:0.502344 46:0.570264 47:0.565587 48:0.482767 49:0.564537 50:0.694133 51:0.544476 52:0.559378 53:0.557553 54:0.548971 55:0.569462 56:0.593146 57:0.577855 58:0.545384 59:0.584858 60:0.561061 
-869.2155701918273 1:0.101142 2:0.37194 3:0.0643328 4:-0.237554 5:-0.0675425 6:-0.0817187 7:0.14498 8:0.154543 9:0.413451 10:0.27568 11:0.332815 12:0.287828 13:0.0311465 14:0.202565 15:-0.147797 16:-0.154859 17:-0.0742425 18:0.328113 19:0.0885041 20:0.24243 21:-0.0676872 22:0.0505711 23:-0.057001 24:0.392446 25:0.0942384 26:-0.0352505 27:0.177218 28:0.217334 29:0.483195 30:0.317606 31:0.186343 32:-0.715585 33:0.44847 34:0.105194 35:0.295303 36:0.14729 37:0.168969 38:0.275562 39:0.174127 40:-0.0386959 41:0.140721 42:-0.209662 43:-0.0985169 44:0.122689 45:-0.0862332 46:-0.172326 47:-0.00706802 48:-0.276024 49:0.0734163 50:0.270963 51:-0.00275084 52:-0.0967483 53:-0.0597662 54:-0.0701738 55:-0.0390416 56:0.0046907 57:0.00507372 58:-0.126167 59:0.0668676 60:-0.118913 
-1732.395715196251 1:-0.422374 2:-0.42721 3:-0.38859 4:-0.242565 5:-0.0924489 6:-0.1515 7:0.0220903 8:0.00187823 9:-0.360153 10:0.309468 11:-0.0709023 12:-0.0262439 13:0.0957976 14:-0.0228244 15:-0.18636 16:0.0944342 17:0.13103 18:-0.0459444 19:0.0196254 20:0.127453 21:0.217492 22:0.399012 23:0.00728044 24:0.177822 25:0.0669383 26:0.0158154 27:0.234991 28:0.224711 29:0.233921 30:0.272751 31:-0.117004 32:-0.270478 33:0.441674 34:0.0956698 35:0.241137 36:0.348813 37:-0.137469 38:-0.231429 39:-0.108821 40:-0.0329631 41:0.136455 42:-0.0616199 43:-0.0287452 44:0.104322 45:-0.201856 46:-0.113663 47:-0.0368136 48:0.190244 49:-0.0372457 50:0.158389 51:0.0595765 52:-0.335044 53:-0.0362228 54:-0.0651116 55:-0.0499153 56:-0.0460143 57:-0.0474075 58:-0.0477806 59:0.0885119 60:-0.137605 
-2048 1:-0.431574 2:-0.42112 3:-0.558253 4:-0.346022 5:0.0872077 6:-0.276434 7:-0.117569 8:-0.0926325 9:0.354775 10:0.0523485 11:0.118009 12:0.101746 13:0.111246 14:0.139049 15:0.057354 16:-0.00597589 17:0.196083 18:-0.10665 19:-0.0399444 20:0.323149 21:0.362774 22:-0.270323 23:-0.0649575 24:-0.0208925 25:-0.0467844 26:0.121818 27:0.252931 28:-0.114541 29:-0.0262567 30:0.21573 31:-0.412594 32:0.193076 33:0.197984 34:0.14106 35:0.143468 36:-0.0862434 37:-0.138726 38:-0.109351 39:0.0616931 40:0.161645 41:-0.166942 42:-0.00559795 43:-0.114857 44:-0.190768 45:-0.135339 46:-0.166659 47:0.00388762 48:-0.0347604 49:-0.169331 50:0.0748846 51:-0.325743 52:-0.189871 53:-0.19074 54:-0.0812212 55:-0.115785 56:-0.0476879 57:-0.0973656 58:-0.206901 59:-0.0296786 60:-0.188483 
-713.0983814630035 1:0.644767 2:0.467848 3:0.271622 4:0.4984 5:0.216607 6:0.149207 7:0.162109 8:-0.193592 9:-0.00734462 10:0.245445 11:0.163937 12:0.602272 13:0.29599 14:0.145231 15:-0.0962333 16:-0.501939 17:0.163653 18:0.278383 19:0.509713 20:-0.0462048 21:0.378697 22:-0.312509 23:0.29817 24:0.565536 25:0.318378 26:0.329161 27:0.19707 28:0.529356 29:0.45535 30:0.0301227 31:0.373441 32:0.225829 33:0.171579 34:0.414527 35:0.316534 36:0.615667 37:0.132119 38:0.585475 39:0.229907 40:0.477654 41:0.55222 42:0.496899 43:0.453987 44:0.517603 45:0.493313 46:0.466613 47:0.556962 48:0.449382 49:0.527307 50:0.593256 51:0.468362 52:0.539275 53:0.477335 54:0.533309 55:0.487738 56:0.527585 57:0.505136 58:0.491149 59:0.596036 60:0.520611 
-1253.890296345411 1:0.0234057 2:0.598914 3:0.436598 4:0.738206 5:0.587972 6:0.313579 7:0.373161 8:0.256672 9:0.0323235 10:0.446139 11:0.348858 12:-0.109102 13:0.571653 14:0.632672 15:0.571442 16:0.578503 17:0.132325 18:0.556661 19:0.0135446 20:0.357962 21:0.561419 22:0.473042 23:0.489704 24:0.157588 25:0.249888 26:0.762946 27:0.398373 28:0.345239 29:0.516982 30:0.319893 31:0.537097 32:0.299882 33:0.570212 34:0.302599 35:0.156624 36:0.173505 37:0.144046 38:0.286403 39:0.511142 40:0.217419 41:0.07976 42:0.356106 43:0.342159 44:0.337461 45:-0.0986299 46:0.209399 47:0.0608162 48:0.237409 49:0.234892 50:0.415455 51:0.0928534 52:0.168839 53:0.117979 54:0.166829 55:0.168772 56:0.205972 57:0.212245 58:0.171722 59:0.279259 60:0.209702 
-2048 1:0.0739801 2:0.561669 3:-0.00415745 4:0.146425 5:0.100468 6:-0.0998181 7:-0.626836 8:-0.032532 9:-0.0257079 10:0.200725 11:0.0332478 12:-0.00299065 13:0.169592 14:-0.397772 15:0.0694552 16:-0.0103836 17:-0.23105 18:0.453203 19:-0.2257 20:-0.397278 21:-0.0339147 22:-0.154645 23:-0.0267196 24:-0.125977 25:-0.0856879 26:-0.322838 27:-0.197594 28:0.0840453 29:0.0601173 30:0.241487 31:-0.102358 32:-0.0105581 33:0.511783 34:-0.220058 35:-0.0876488 36:0.0812682 37:0.0639614 38:0.131836 39:-0.0262337 40:0.0774079 41:0.184247 42:0.244472 43:0.171343 44:0.211129 45:0.0282193 46:0.1785 47:0.298776 48:0.187253 49:0.296625 50:0.324237 51:0.208332 52:0.164805 53:0.128702 54:0.23616 55:0.228883 56:0.272089 57:0.152817 58:0.251167 59:0.275877 60:0.194003 
-95.93068137246919 1:-0.7574 2:-0.478067 3:-0.524087 4:-0.284194 5:-0.0372607 6:0.0895029 7:0.177232 8:0.0330078 9:0.125585 10:0.459952 11:0.355099 12:0.288334 13:-0.363247 14:0.555822 15:0.148703 16:0.00249757 17:-0.0725406 18:0.455699 19:0.0914466 20:0.616584 21:0.421847 22:0.51562 23:0.0238836 24:0.0693386 25:0.134955 26:0.70584 27:0.296337 28:0.178943 29:0.310467 30:0.0592868 31:0.300864 32:0.0876868 33:0.371417 34:-0.0375429 35:0.146598 36:0.236926 37:0.181251 38:0.17384 39:0.0419285 40:0.0832874 41:-0.307855 42:0.0808903 43:-0.120653 44:-0.145786 45:-0.112197 46:0.0530973 47:-0.0018599 48:0.151191 49:-0.205297 50:0.146008 51:-0.325101 52:-0.599749 53:-0.383212 54:-0.34691 55:-0.314511 56:-0.534868 57:-0.620348 58:-0.362453 59:-0.294539 60:-0.22096 
-587.7786981727434 1:-0.525208 2:-0.3228 3:-0.283149 4:-0.176809 5:0.15413 6:0.079616 7:0.504674 8:0.128397 9:0.49052 10:-0.036989 11:0.329231 12:0.0125975 13:0.359546 14:0.348296 15:0.0461926 16:-0.0286887 17:0.174478 18:0.343309 19:0.162545 20:0.273323 21:0.207768 22:0.401795 23:-0.0443129 24:0.460754 25:0.0837844 26:-0.167527 27:0.0698337 28:0.534761 29:0.392927 30:0.541756 31:0.251643 32:0.138864 33:0.498215 34:0.0799344 35:0.0760466 36:0.0106434 37:0.254282 38:0.202432 39:-0.260416 40:0.403878 41:0.264452 42:-0.00336139 43:0.0850993 44:-0.0190989 45:0.0994301 46:0.103678 47:0.16668 48:0.107595 49:0.0759721 50:0.0895149 51:0.0295884 52:0.0781289 53:-0.171301 54:0.142646 55:-0.0520307 56:0.0198143 57:0.124386 58:0.0629236 59:0.110517 60:-0.0502236 
-748.9628883120847 1:-0.69196 2:-0.329725 3:-0.164541 4:0.347862 5:0.335801 6:-0.112045 7:0.519723 8:0.122686 9:0.489879 10:0.418704 11:-0.0363267 12:-0.251291 13:0.353814 14:0.248805 15:0.0077786 16:0.229493 17:0.274312 18:0.246793 19:0.272837 20:0.334926 21:0.37729 22:0.422347 23:-0.217776 24:0.382871 25:0.15468 26:-0.0407734 27:0.316638 28:0.281131 29:-0.00983053 30:0.27648 31:0.0776231 32:0.274849 33:0.62783 34:0.265873 35:0.316163 36:0.219921 37:0.0494946 38:0.116358 39:0.208106 40:-0.349648 41:0.15944 42:0.100315 43:0.0519888 44:-0.210311 45:0.0331663 46:-0.0949226 47:0.0050733 48:-0.0948296 49:-0.0231809 50:0.235584 51:-0.132866 52:-0.102311 53:-0.12571 54:-0.192423 55:-0.0369713 56:-0.104592 57:0.0355176 58:-0.249621 59:0.0543638 60:-0.175443 
-202.3122105575949 1:-0.563648 2:-0.343271 3:-0.328619 4:-0.414638 5:-0.603074 6:0.00747707 7:-0.029049 8:-0.0247567 9:0.148254 10:0.315729 11:-0.111905 12:-0.299477 13:-0.0240143 14:-0.0995328 15:-0.0377647 16:-0.109969 17:0.152918 18:-0.0355924 19:-0.0734857 20:0.00350118 21:0.196627 22:0.212428 23:-0.387024 24:0.242582 25:0.086503 26:0.000893431 27:0.228544 28:0.288945 29:0.296066 30:0.230201 31:-0.0157459 32:0.0434903 33:0.311561 34:0.190762 35:-0.03982 36:0.137302 37:-0.0937116 38:0.188044 39:0.0604498 40:0.243864 41:0.253266 42:0.219314 43:0.138504 44:0.219692 45:0.0530937 46:0.115258 47:-0.10437 48:0.324749 49:-0.188681 50:0.252699 51:0.184326 52:0.0163982 53:0.0863317 54:0.241454 55:0.0827823 56:0.2159 57:0.168603 58:0.135335 59:0.25971 60:0.103533 
-428.048604792579 1:-0.48266 2:-0.0512745 3:-0.510252 4:-0.227797 5:-0.172689 6:-0.306373 7:-0.354031 8:-0.650845 9:-0.0584863 10:-0.131353 11:-0.343313 12:-0.40453 13:-0.385362 14:-0.0653507 15:-0.118716 16:-0.146892 17:-0.138693 18:-0.191763 19:-0.170614 20:0.404173 21:-0.117053 22:-0.142576 23:-0.322997 24:-0.163441 25:0.0309086 26:-0.0525335 27:0.0149654 28:-0.0887406 29:-0.0339875 30:-0.399069 31:-0.0955595 32:-0.00662158 33:0.267732 34:0.146983 35:0.132376 36:0.185109 37:0.036143 38:-0.0376767 39:-0.185732 40:0.220006 41:0.0360042 42:0.0728568 43:0.0851488 44:0.0619338 45:0.077253 46:-0.101204 47:-0.011685 48:0.0122732 49:0.0625243 50:0.250747 51:-0.0156839 52:0.0345551 53:-0.0208669 54:0.00611457 55:-0.021849 56:0.0358308 57:0.00408879 58:0.0334668 59:0.128247 60:-0.0454235 
-1362.755973620032 1:0.224419 2:0.257608 3:0.190413 4:0.416102 5:-0.0940553 6:0.241829 7:0.0416172 8:-0.0554118 9:0.192448 10:0.0925501 11:0.00547696 12:-0.292222 13:-0.476887 14:0.144282 15:0.113085 16:-0.166411 17:0.113757 18:0.114385 19:0.0400401 20:0.57824 21:0.563995 22:0.02119 23:-0.0886856 24:0.58592 25:0.00448522 26:0.260631 27:0.326815 28:0.359587 29:0.0216517 30:0.561701 31:0.41173 32:0.263078 33:0.459348 34:0.330191 35:0.810054 36:0.391909 37:0.401535 38:0.498393 39:0.134654 40:0.463565 41:0.486714 42:0.527234 43:0.413352 44:0.56989 45:0.503697 46:0.517953 47:0.544822 48:0.494909 49:0.553089 50:0.597914 51:0.495597 52:0.51786 53:0.487268 54:0.569987 55:0.499536 56:0.534468 57:0.592419 58:0.520866 59:0.584309 60:0.512705 
-368.1168017912244 1:-0.0292958 2:-0.141889 3:0.0088775 4:-0.106992 5:-0.0802092 6:0.229895 7:0.624302 8:0.552723 9:0.471916 10:0.32471 11:0.0628473 12:0.0191017 13:0.507214 14:0.250947 15:0.0254518 16:0.388244 17:0.102602 18:0.565227 19:0.338416 20:0.049415 21:0.521289 22:0.791042 23:0.534428 24:0.460622 25:0.309493 26:0.723984 27:0.506712 28:0.669134 29:0.324003 30:0.0985819 31:0.0830677 32:0.419637 33:0.593136 34:0.763758 35:-0.125084 36:0.320289 37:0.435102 38:0.307656 39:0.370444 40:0.411943 41:0.379405 42:0.394398 43:0.201538 44:0.652 45:0.106701 46:0.398956 47:0.262815 48:0.368859 49:0.337323 50:0.421057 51:0.206483 52:0.284297 53:0.182128 54:0.289773 55:0.221879 56:0.235438 57:0.33916 58:0.220925 59:0.387889 60:0.299096 
