svm_type c_svc
kernel_type rbf
gamma 0.0078125
nr_class 2
total_sv 9
rho -0.111538
label 3 4
nr_sv 4 5
SV
2 1:0.890655 2:-0.159871 3:0.374742 4:0.93933 5:0.232733 6:-1 7:-1 8:-0.707244 9:-0.320888 10:-1 11:-0.970782 12:-0.406874 13:0.183886 14:-0.438135 15:-0.481716 16:-0.184902 17:-0.314309 18:-0.0616328 19:-0.231905 20:-0.630084 21:-0.209809 22:-0.362284 23:0.0580153 24:-0.398552 25:0.104751 26:0.037548 27:-1 28:-0.946376 29:-0.537842 30:-0.328137 31:-0.376666 32:-0.0273134 33:0.135614 34:-0.453472 35:-0.445247 36:-0.375325 37:-0.363863 38:-0.00641821 39:-1 40:-0.154279 41:0.0851327 42:-0.968574 43:-0.761866 44:-1 45:-0.308343 46:0.0679082 47:-0.116987 48:-0.380811 49:-0.267956 50:-0.117195 51:0.191556 52:-0.194064 53:-0.117711 54:0.0407399 55:-0.0133417 56:-0.829181 57:-0.0885918 58:-0.0235724 59:-0.164015 60:-0.646075 
2 1:0.068339 2:-0.181267 3:-0.221413 4:1 5:1 6:0.290766 7:0.404441 8:0.188749 9:0.465718 10:0.739376 11:0.51953 12:0.669614 13:0.605276 14:0.633977 15:0.636132 16:0.29096 17:0.676404 18:0.726629 19:0.931076 20:-0.0790695 21:0.860086 22:0.464982 23:0.740421 24:0.548987 25:0.743299 26:0.33581 27:0.458183 28:1 29:0.661461 30:0.734399 31:0.847721 32:0.843319 33:0.757895 34:0.782068 35:1 36:0.902612 37:1 38:0.503343 39:0.527636 40:0.735678 41:0.790751 42:0.20213 43:0.0813769 44:0.672688 45:0.280033 46:0.642476 47:0.354052 48:0.559882 49:0.266146 50:0.642134 51:0.207785 52:0.48644 53:0.406006 54:0.533823 55:0.414098 56:0.226256 57:0.331656 58:0.2673 59:0.332639 60:0.274661 
1.449097535138437 1:-0.500694 2:-0.401907 3:-0.365145 4:0.950874 5:0.158405 6:0.368484 7:0.76532 8:0.672069 9:0.779984 10:0.652931 11:0.822206 12:0.512094 13:0.890543 14:0.645049 15:1 16:0.637792 17:0.636165 18:1 19:0.941767 20:0.791943 21:0.952316 22:0.717882 23:1 24:1 25:1 26:1 27:1 28:0.986859 29:1 30:1 31:1 32:0.841462 33:0.675686 34:0.890475 35:0.451592 36:1 37:0.663683 38:0.554897 39:0.0900321 40:1 41:0.613973 42:0.929127 43:1 44:0.621776 45:0.363717 46:0.608496 47:0.912483 48:0.675999 49:0.671918 50:0.639832 51:0.844356 52:0.77069 53:0.734171 54:0.726649 55:0.563388 56:0.639488 57:0.641649 58:0.80116 59:0.705523 60:0.857532 
2 1:-0.773452 2:-1 3:-0.694927 4:0.443309 5:-1 6:1 7:0.780436 8:1 9:0.472614 10:1 11:1 12:0.862453 13:0.029938 14:1 15:0.734436 16:1 17:0.447323 18:0.728048 19:0.767029 20:1 21:0.949695 22:1 23:0.892764 24:0.59158 25:0.230742 26:0.482501 27:0.597872 28:0.571482 29:0.856381 30:0.605802 31:-0.270714 32:0.903331 33:0.656848 34:0.642827 35:0.518682 36:0.714824 37:0.66378 38:0.549917 39:1 40:0.805837 41:1 42:0.682742 43:0.421631 44:0.635539 45:-0.10419 46:0.461055 47:0.576287 48:0.474088 49:0.609794 50:0.416946 51:0.498997 52:0.208956 53:0.312838 54:0.549296 55:0.156148 56:0.393934 57:0.167778 58:0.234877 59:0.0307639 60:0.389142 
-2 1:0.967064 2:0.626813 3:1 4:0.567707 5:0.883879 6:0.479755 7:0.556536 8:0.464316 9:0.268752 10:-0.372924 11:-0.113041 12:-0.944788 13:0.324001 14:0.0849411 15:-0.389177 16:0.227836 17:0.0773773 18:0.320389 19:-0.380088 20:0.169892 21:0.391171 22:0.434322 23:0.218734 24:0.352532 25:0.503177 26:-0.00764842 27:0.389973 28:0.785375 29:-0.0178287 30:0.480949 31:0.443071 32:0.428364 33:0.272427 34:0.355121 35:0.59674 36:0.474714 37:0.266842 38:0.185849 39:-0.323202 40:0.15 41:0.508321 42:0.829521 43:0.269681 44:0.182141 45:0.224902 46:0.687208 47:0.180646 48:0.651203 49:0.379583 50:0.0387277 51:0.384453 52:0.150703 53:0.386653 54:0.488003 55:0.32166 56:0.172104 57:0.110141 58:0.162282 59:0.187813 60:0.289519 
-0.7811518479226988 1:0.880928 2:0.535289 3:0.828563 4:0.777061 5:0.457905 6:0.266885 7:0.0451729 8:0.0350161 9:0.0932437 10:-0.399466 11:-0.0121351 12:-0.960925 13:-0.186348 14:-0.112282 15:-0.144376 16:-0.0404445 17:0.00276311 18:0.121813 19:0.0726391 20:-0.122884 21:-0.326176 22:0.015951 23:-0.419193 24:-0.495087 25:-0.410237 26:-0.0169647 27:-0.22744 28:-0.0227113 29:-0.146976 30:0.127346 31:-0.19609 32:-0.0142649 33:-0.384851 34:0.15896 35:-0.194717 36:-0.203341 37:-0.0716793 38:0.153019 39:0.372313 40:-0.0356977 41:-0.0465203 42:-0.345627 43:-0.162599 44:-0.0990599 45:-0.229536 46:-0.329367 47:-0.078161 48:-0.337588 49:-0.424264 50:-0.919442 51:-0.272085 52:-0.237257 53:-0.865883 54:-0.111059 55:-0.514146 56:-1 57:-0.623865 58:-0.90243 59:-0.663557 60:-0.679149 
-1.45221844366253 1:-1 2:-0.200959 3:-0.37296 4:-0.197341 5:-0.0222548 6:0.00279475 7:0.171507 8:-0.0815765 9:0.0764524 10:-0.0545312 11:-0.721329 12:-0.239952 13:-0.484456 14:-0.160958 15:-0.282319 16:0.0765749 17:-0.206388 18:0.108017 19:-0.317628 20:-0.47435 21:-0.0701483 22:-0.630795 23:-0.253566 24:0.158444 25:-0.260128 26:-0.0029189 27:-0.501168 28:0.150027 29:-0.131713 30:-0.519929 31:0.099169 32:-0.0443986 33:-0.105203 34:-0.247876 35:-0.0118189 36:0.0676724 37:-0.755445 38:-0.341154 39:-0.185502 40:0.354675 41:-0.667987 42:-0.236436 43:-0.821007 44:0.0972985 45:-0.555406 46:-0.534653 47:-0.362489 48:-0.106131 49:-1 50:-0.7665 51:-0.318162 52:-0.638757 53:-0.505872 54:-0.34042 55:-0.993926 56:-0.529554 57:-0.498091 58:-1 59:-0.657804 60:-0.335849 
-2 1:0.388893 2:0.729592 3:0.0678674 4:0.0542268 5:-0.00997076 6:0.407812 7:-0.0694565 8:-0.135509 9:-0.244579 10:-0.0976452 11:-0.0220221 12:-0.118145 13:-0.189554 14:-0.276153 15:0.0664449 16:0.243231 17:-0.0882935 18:0.597922 19:0.0268024 20:-0.293512 21:0.0579615 22:0.237063 23:-0.282143 24:0.347513 25:0.0370247 26:0.20134 27:0.271389 28:0.564942 29:-0.435367 30:0.291337 31:-0.0652282 32:-0.102708 33:0.391018 34:0.358941 35:0.0920834 36:0.143902 37:-0.261066 38:0.317429 39:0.338515 40:0.637986 41:0.67333 42:0.327459 43:0.596708 44:0.640028 45:0.419587 46:0.773134 47:0.572761 48:0.556849 49:0.580421 50:0.602399 51:0.694139 52:0.689938 53:0.568134 54:0.679044 55:0.622196 56:0.505469 57:0.47 58:0.679842 59:0.653252 60:0.610843 
-1.215727243553208 1:0.174352 2:-0.0399074 3:-0.0578243 4:0.414841 5:0.815157 6:0.40929 7:-0.0511539 8:-0.273784 9:-0.264212 10:-0.73496 11:-0.974952 12:-0.27964 13:-0.618305 14:0.0169101 15:-0.710575 16:-0.172974 17:-0.0945774 18:-0.363182 19:-0.304125 20:-0.227903 21:-0.225366 22:-0.039771 23:-0.20252 24:0.0504779 25:-0.184997 26:-0.0258792 27:-0.155858 28:0.22153 29:-0.45736 30:-0.368421 31:-0.176639 32:0.272712 33:0.0903409 34:-0.139482 35:-0.24263 36:0.0202332 37:0.0376764 38:-0.0897325 39:-0.0617785 40:-0.102125 41:0.379399 42:0.170696 43:-0.685395 44:0.0491598 45:-0.300116 46:-1 47:-0.0772148 48:0.134847 49:-0.105721 50:-0.495467 51:-0.1168 52:-0.162915 53:-0.131789 54:0.110066 55:-0.264251 56:-0.376489 57:-0.268292 58:-0.232436 59:-0.296385 60:0.0691336 
