svm_type c_svc
kernel_type rbf
gamma 0.125
nr_class 4
total_sv 40
rho -0.272098 -0.266548 -0.000168528 -0.754964 0.55908 0.498534
label 3 5 2 4
nr_sv 5 15 10 10
SV
0.877230408714833 0.8612807253842498 2 1:0.920745 2:0.06639 3:0.598299 4:0.969296 5:0.661426 6:-0.655782 7:-0.65469 8:-0.218825 9:0.0884682 10:-0.238251 11:-0.279748 12:0.0847848 13:0.449984 14:0.0583513 15:-0.150341 16:-0.0222916 17:0.131726 18:0.265749 19:0.122374 20:-0.0583366 21:0.248457 22:0.0609102 23:0.358611 24:-0.158717 25:0.425956 26:0.41384 27:-0.227633 28:-0.806641 29:0.01725 30:0.195053 31:0.362698 32:0.304681 33:0.338845 34:0.233183 35:0.066511 36:0.0697521 37:0.311733 38:0.237876 39:-0.214232 40:0.211132 41:0.509901 42:-0.0156945 43:0.0224058 44:-0.92147 45:0.155305 46:0.282219 47:0.0195832 48:-0.0624251 49:0.191917 50:0.343701 51:0.534276 52:0.0786158 53:0.228201 54:0.232455 55:0.381582 56:-0.278844 57:0.135333 58:0.392836 59:0.277587 60:-0.105519 
0.4375300692971036 0.350011226376774 0.9203511836977117 1:0.32472 2:0.0491679 3:0.215295 4:1 5:1 6:0.412832 7:0.507267 8:0.420837 9:0.631298 10:0.838641 11:0.688002 12:0.785074 13:0.733978 14:0.760339 15:0.717508 16:0.388265 17:0.786222 18:0.81093 19:0.950897 20:0.299411 21:0.913084 22:0.631186 23:0.823255 24:0.626331 25:0.8354 26:0.59549 27:0.667424 28:1 29:0.783658 30:0.839027 31:0.929505 32:0.893953 33:0.814818 34:0.885024 35:1 36:0.934128 37:1 38:0.6239 39:0.71322 40:0.819354 41:0.887904 42:0.588335 43:0.49029 44:0.68554 45:0.535174 46:0.724679 47:0.43303 48:0.661363 49:0.532306 50:0.789771 51:0.543625 52:0.603718 53:0.589837 54:0.626992 55:0.642438 56:0.459049 57:0.469135 58:0.565376 59:0.585821 60:0.512856 
0 0.01028901165605051 0 1:-0.0877217 2:-0.128432 3:0.122953 4:0.975138 5:0.628627 6:0.477174 7:0.805838 8:0.765886 9:0.848169 10:0.785121 11:0.884547 12:0.682602 13:0.926232 14:0.767588 15:1 16:0.6875 17:0.759639 18:1 19:0.958514 20:0.864918 21:0.970378 22:0.805522 23:1 24:1 25:1 26:1 27:1 28:0.987803 29:1 30:1 31:1 32:0.892697 33:0.751937 34:0.942217 35:0.645782 36:1 37:0.830279 38:0.66294 39:0.447544 40:1 41:0.793203 42:0.963433 43:1 44:0.636627 45:0.589202 46:0.698513 47:0.923183 48:0.750707 49:0.79091 50:0.788418 51:0.910338 52:0.823056 53:0.816441 54:0.78128 55:0.733546 56:0.747954 57:0.715363 58:0.882052 59:0.817241 60:0.904317 
0.4077464136786941 0.371843029238325 0.5179397431579342 1:-0.28542 2:-0.609852 3:-0.0889182 4:0.718266 5:0.117453 6:1 7:0.818345 8:1 9:0.636056 10:1 11:1 12:0.910522 13:0.346232 14:1 15:0.793828 16:1 17:0.634885 18:0.811911 19:0.834028 20:1 21:0.96875 22:1 23:0.926984 24:0.66162 25:0.506743 26:0.684829 27:0.753167 28:0.602246 29:0.908221 30:0.761087 31:0.411747 32:0.934571 33:0.737529 34:0.811564 35:0.689116 36:0.807112 37:0.830328 38:0.659169 39:1 40:0.867303 41:1 42:0.836309 43:0.679085 44:0.64985 45:0.287111 46:0.584971 47:0.628093 48:0.595352 49:0.751317 50:0.657483 51:0.711385 52:0.389601 53:0.525502 54:0.639373 55:0.485017 56:0.576278 57:0.338967 58:0.546143 59:0.398471 60:0.589742 
0.3774931083093693 0.4065760073446008 0.5045722560034209 1:-0.296295 2:0.0300509 3:0.223237 4:0.599168 5:0.546204 6:0.860107 7:1 8:0.933084 9:1 10:0.713081 11:0.802757 12:1 13:1 14:0.939861 15:0.7666 16:0.822034 17:1 18:0.947472 19:1 20:0.940047 21:1 22:0.822569 23:0.883693 24:0.752976 25:0.920379 26:0.871904 27:0.459157 28:0.935054 29:0.960808 30:0.982149 31:0.770402 32:1 33:1 34:1 35:0.673495 36:0.690174 37:0.763461 38:1 39:0.895758 40:0.921192 41:0.962303 42:1 43:0.912533 44:1 45:1 46:1 47:1 48:1 49:1 50:1 51:1 52:1 53:1 54:1 55:1 56:1 57:1 58:1 59:1 60:1 
-0.14 0.14 0.14 1:-0.226989 2:-0.667164 3:-0.484699 4:0.0686698 5:-0.667456 6:0.0279264 7:-0.294889 8:-0.690807 9:-0.366861 10:-0.737909 11:-0.102209 12:-0.252769 13:-0.239563 14:-0.190624 15:-0.367188 16:-0.383578 17:-0.358877 18:-0.411172 19:-0.58017 20:-0.303145 21:-0.0950807 22:-0.149699 23:-0.241175 24:-0.465729 25:-0.336072 26:0.323073 27:-0.409709 28:-0.358888 29:-0.374193 30:0.0714632 31:-0.0448986 32:-0.496382 33:0.0172617 34:0.321986 35:0.00411263 36:0.0414381 37:0.0907628 38:-0.406354 39:-0.138237 40:-0.0279189 41:-0.0932962 42:-0.0198148 43:0.220867 44:-0.220376 45:-0.208568 46:-0.716757 47:-0.959286 48:-0.409935 49:-0.336662 50:-0.273704 51:0.250287 52:-0.190379 53:-0.225524 54:-0.207038 55:-0.0436468 56:-0.0955412 57:-0.53177 58:-0.233077 59:-0.142772 60:-0.237808 
-0.14 0.08969328869588292 0.14 1:-0.644406 2:-0.128114 3:0.158656 4:0.0999148 5:0.685365 6:0.499004 7:0.309782 8:0.3206 9:0.158008 10:0.342545 11:0.333176 12:0.104424 13:0.243137 14:0.364937 15:0.396291 16:0.351182 17:0.468466 18:0.414697 19:0.485431 20:0.512143 21:0.306041 22:0.43804 23:0.0923989 24:0.474228 25:0.30692 26:0.661178 27:0.664958 28:0.410675 29:0.371401 30:0.651281 31:0.778558 32:0.407563 33:0.506787 34:0.740268 35:0.679766 36:0.545334 37:0.720463 38:0.741465 39:0.580881 40:0.599859 41:0.422699 42:0.628165 43:0.593692 44:0.500311 45:0.496114 46:0.34671 47:0.26019 48:0.611342 49:0.270001 50:0.227209 51:0.454072 52:0.020972 53:0.436977 54:0.331769 55:0.288863 56:0.293895 57:0.140112 58:0.24632 59:0.402193 60:0.233705 
-0.14 0.14 0.14 1:-0.778405 2:-0.455224 3:-0.101801 4:0.709874 5:0.832612 6:0.624601 7:-0.0286507 8:0.0535126 9:0.264757 10:0.147383 11:0.166193 12:0.192442 13:0.271419 14:0.197333 15:0.0885791 16:0.116477 17:0.260509 18:0.203285 19:0.288499 20:0.137696 21:0.41968 22:0.222663 23:0.246441 24:0.366214 25:0.371796 26:0.626976 27:0.392302 28:0.240685 29:0.336449 30:0.228001 31:0.766479 32:0.470502 33:0.30231 34:0.602673 35:0.595619 36:0.377078 37:0.679883 38:0.179894 39:0.559526 40:0.372058 41:0.256939 42:0.546697 43:0.440566 44:0.0341948 45:0.194143 46:0.155596 47:0.174915 48:0.387959 49:0.21332 50:0.147954 51:0.257067 52:-0.213562 53:0.0547455 54:0.101424 55:0.30733 56:0.14097 57:0.0368633 58:0.0655664 59:-0.136615 60:-0.0439073 
-0.14 0.14 0.14 1:-0.498805 2:0.125122 3:-0.104082 4:0.111279 5:0.514363 6:0.538156 7:0.392218 8:0.191803 9:0.329111 10:-0.367068 11:0.158727 12:0.252709 13:0.08206 14:0.255488 15:0.197841 16:0.163994 17:0.236853 18:0.2637 19:0.24217 20:-0.0180467 21:0.300505 22:0.226196 23:0.24709 24:0.450834 25:0.043361 26:0.27967 27:0.442413 28:0.113931 29:0.0944199 30:0.511246 31:0.700546 32:0.460852 33:0.306441 34:0.326466 35:0.392142 36:0.588952 37:0.827694 38:0.458412 39:0.228631 40:0.390618 41:0.424475 42:0.467126 43:0.185917 44:0.219508 45:0.286983 46:0.33216 47:0.350085 48:0.343924 49:0.05432 50:0.216573 51:0.380507 52:0.442518 53:0.362514 54:0.336856 55:0.450508 56:0.126774 57:0.134222 58:0.356009 59:0.296686 60:0.255654 
-0.14 0.14 0.14 1:-0.628719 2:-0.326806 3:-0.36011 4:0.5503 5:0.831058 6:0.424314 7:0.317222 8:0.0242547 9:0.16818 10:0.00946764 11:0.186561 12:-0.210261 13:0.183535 14:-0.0734264 15:0.196575 16:-0.0135135 17:0.244684 18:0.354706 19:0.179027 20:-0.275694 21:-0.0167847 22:-0.23929 23:0.178512 24:0.412985 25:0.193751 26:0.513023 27:0.135604 28:0.250128 29:0.0360615 30:0.206613 31:0.512941 32:0.5025 33:0.491739 34:0.387362 35:0.25074 36:0.256486 37:0.380277 38:0.0710119 39:-0.0363266 40:0.175439 41:0.193866 42:0.439094 43:0.228036 44:0.353384 45:0.297126 46:0.0823228 47:0.27591 48:0.0583713 49:0.240952 50:-0.0715477 51:0.221382 52:0.333695 53:0.208576 54:0.202038 55:0.216956 56:0.170877 57:0.104354 58:0.327133 59:0.213765 60:0.174111 
-0.14 0.14 0.14 1:0.349346 2:-0.306632 3:-0.478125 4:-0.29994 5:-1 6:-0.882867 7:-0.494679 8:-0.994548 9:-0.733417 10:-0.644148 11:-0.6724 12:-0.775967 13:-0.4436 14:-0.47941 15:-0.673752 16:-0.751673 17:-0.573363 18:-0.67963 19:-0.680345 20:-0.837862 21:-0.501477 22:-0.82746 23:-0.547504 24:-1 25:-0.332332 26:-0.835268 27:-0.730875 28:-0.860284 29:-0.671603 30:-1 31:-0.591487 32:-0.473594 33:-1 34:-0.725666 35:-0.633986 36:-1 37:-0.750086 38:-0.697876 39:-0.390157 40:-0.686658 41:-0.603419 42:-0.341856 43:-0.531406 44:-0.792187 45:-0.431074 46:-0.537559 47:-0.450584 48:-0.249276 49:-0.650922 50:-0.43343 51:-0.116741 52:-0.434986 53:-0.502179 54:-0.292895 55:-0.275786 56:-0.471642 57:-0.424238 58:-0.273434 59:-0.318565 60:-0.356958 
-0.14 0.1278694430435837 0.14 1:-0.277645 2:-0.422872 3:-0.478727 4:0.0149937 5:-0.407317 6:-0.259686 7:-0.39539 8:-0.175028 9:-0.204367 10:-0.65237 11:-0.463604 12:-0.320977 13:-0.374086 14:-0.331385 15:-0.475285 16:-0.350437 17:-0.15997 18:-0.409307 19:-0.256062 20:-0.401801 21:-0.0227949 22:-0.434507 23:-0.434996 24:-0.522217 25:-0.489291 26:-0.166888 27:-0.317978 28:-0.316106 29:-0.343694 30:-0.211625 31:-0.0217705 32:-0.507793 33:-0.677366 34:-0.0210215 35:-0.455182 36:-0.356403 37:-0.0890667 38:-0.443463 39:-0.233964 40:-0.477154 41:-0.528811 42:-0.448835 43:-0.10688 44:-0.314941 45:-0.315947 46:-0.694076 47:-0.536631 48:-0.245047 49:-0.271995 50:-0.217689 51:0.0548834 52:-0.324533 53:-0.325292 54:-0.411192 55:-0.0635688 56:-0.416024 57:-0.348609 58:-0.144767 59:-0.129992 60:-0.121813 
-0.14 0.1024372682605333 0.14 1:-0.876867 2:-0.490727 3:-0.648458 4:-0.528215 5:-0.140746 6:-0.612346 7:-0.515995 8:-0.600518 9:-0.217466 10:-0.602577 11:-0.51484 12:-0.418861 13:-0.316135 14:-0.418226 15:-0.80611 16:-0.581672 17:-0.317115 18:-0.139285 19:-0.257972 20:-0.443425 21:-0.280718 22:-0.516333 23:-0.288392 24:-0.350918 25:-0.470511 26:-0.510964 27:-0.590708 28:-0.794252 29:-0.366971 30:-0.48212 31:-0.151021 32:-0.25528 33:-0.366858 34:-0.547015 35:-0.552418 36:-0.0970228 37:-0.416257 38:-0.392837 39:-0.293714 40:-0.0775175 41:-0.613047 42:-0.365333 43:-0.140496 44:-0.918743 45:-0.397102 46:-0.484242 47:-0.428414 48:-0.147808 49:-0.530835 50:-0.449625 51:-0.113982 52:-0.418614 53:-0.580369 54:-0.224793 55:-0.135804 56:-0.490163 57:-0.513889 58:-0.136907 59:-0.383859 60:-0.434126 
-0.14 0.14 0.14 1:-0.750993 2:-0.810433 3:-0.707839 4:-0.379442 5:-0.314935 6:-0.381997 7:-0.558256 8:-0.505854 9:-0.468088 10:-0.642243 11:-0.431168 12:-0.471872 13:-0.336867 14:-0.356171 15:-0.715449 16:-0.455618 17:-0.250366 18:-0.464285 19:-0.62015 20:-0.501322 21:-0.798955 22:-0.435538 23:-0.679411 24:-0.254163 25:-0.262589 26:-0.646718 27:-0.545924 28:-0.680646 29:-0.337619 30:-0.7215 31:-0.294754 32:-0.377178 33:-0.666724 34:-1 35:-0.539904 36:-0.564573 37:-0.507296 38:-0.431726 39:-0.526115 40:-0.247974 41:-0.552321 42:-0.460438 43:-0.496192 44:-0.648498 45:-0.630124 46:-0.582362 47:-0.762185 48:-0.40778 49:-0.623643 50:-0.627313 51:-0.472453 52:-0.65685 53:-0.494947 54:-0.518 55:-0.555682 56:-0.715885 57:-1 58:-0.895787 59:-0.822658 60:-0.88196 
-0.14 0.14 0.14 1:-0.852312 2:-0.989612 3:-0.754738 4:-0.299061 5:-0.672689 6:-0.38382 7:-0.394184 8:-0.884763 9:-0.796025 10:-0.49354 11:-0.399962 12:-0.607212 13:-0.30004 14:-0.508007 15:-0.775538 16:-0.620181 17:-0.505963 18:-0.411083 19:-0.779495 20:-0.712136 21:-0.619552 22:-0.576299 23:-0.694381 24:-0.624897 25:-0.320767 26:-0.446685 27:-0.430619 28:-0.462289 29:-0.979085 30:-0.55983 31:-0.299379 32:-0.185373 33:-0.525933 34:-0.41594 35:-0.340337 36:-0.295318 37:-0.445132 38:-0.617545 39:-0.420764 40:-0.431062 41:-0.359409 42:-0.273657 43:-0.451129 44:-0.809363 45:-0.515064 46:-0.959963 47:-0.584034 48:-0.440643 49:-0.32855 50:-0.812866 51:-0.524074 52:-0.581231 53:-0.778758 54:-0.859432 55:-0.366734 56:-0.814932 57:-0.88186 58:-0.567156 59:-0.56164 60:-0.750141 
-0.14 0.14 0.14 1:-0.539403 2:-0.548452 3:-1 4:-0.147262 5:-0.556365 6:-0.567366 7:-0.674144 8:-0.601051 9:-0.335976 10:-0.67098 11:-0.48503 12:-0.388967 13:-0.628881 14:-0.468323 15:-0.863595 16:-0.617892 17:-0.72457 18:-0.667786 19:-0.530047 20:-0.262832 21:-0.703656 22:-0.582195 23:-0.762536 24:-0.171276 25:-0.461777 26:-0.604631 27:-0.38603 28:-0.560118 29:-0.713085 30:-0.581292 31:-0.557509 32:-0.329722 33:-0.0729504 34:-0.518767 35:-0.471773 36:-0.125847 37:-0.157653 38:-0.17469 39:-0.934335 40:-1 41:-0.569162 42:-0.233173 43:-0.374339 44:-0.658101 45:-0.454882 46:-0.898206 47:-0.910172 48:-0.307825 49:-0.760001 50:-0.694979 51:-0.63437 52:-0.696329 53:-0.879493 54:-0.477537 55:-0.418876 56:-0.672857 57:-0.600986 58:-0.643686 59:-0.428672 60:-0.618146 
-0.14 0.14 0.14 1:-0.89658 2:-1 3:-0.690979 4:-0.477411 5:-0.378478 6:-0.50816 7:-0.460882 8:-0.738351 9:-0.546778 10:-0.819879 11:-0.514098 12:-0.475053 13:-0.326086 14:-0.370546 15:-0.693239 16:-0.704249 17:-0.454224 18:-0.451624 19:-0.482131 20:-0.488275 21:-0.371859 22:-0.830161 23:-0.509006 24:-0.548848 25:-0.361148 26:-0.233325 27:-0.409139 28:-0.462643 29:-0.348768 30:-0.223144 31:-0.643385 32:-0.876977 33:-0.260452 34:-0.186452 35:-0.352045 36:-0.241609 37:-0.490875 38:-0.312112 39:-0.367333 40:-0.391006 41:-0.303673 42:-0.36309 43:-0.34228 44:-0.810401 45:-0.436087 46:-0.282945 47:-0.393184 48:-0.155701 49:-0.340166 50:-0.503457 51:-0.421447 52:-0.477063 53:-0.632934 54:-0.46896 55:-0.250681 56:-0.661841 57:-0.529024 58:-0.226386 59:-0.41905 60:-0.328043 
-0.14 0.14 0.14 1:-0.703352 2:-0.706338 3:-0.807515 4:-0.352693 5:-0.191331 6:-0.0964351 7:-0.265045 8:-0.585415 9:-0.527363 10:-0.958248 11:-1 12:-0.805887 13:-0.724784 14:-0.572775 15:-0.809829 16:-0.589539 17:-0.407239 18:-0.582554 19:-0.681404 20:-0.367465 21:-0.472638 22:-0.614244 23:-0.643778 24:-0.361242 25:-0.463693 26:-0.286494 27:-0.404332 28:-0.574455 29:-0.331779 30:-0.550438 31:-0.590801 32:-0.249937 33:-0.492226 34:-0.603208 35:-0.594678 36:-0.372162 37:-0.739853 38:-0.697398 39:-0.358683 40:-0.783025 41:-0.547659 42:-0.591392 43:-0.697462 44:-0.755882 45:-0.657442 46:-0.417467 47:-0.957826 48:-0.360583 49:-0.442991 50:-0.327061 51:-0.26143 52:-0.829238 53:-0.374759 54:-0.425046 55:-0.301537 56:-0.487528 57:-0.503029 58:-0.379516 59:-0.40951 60:-0.523711 
-0.14 0.14 0.14 1:-0.826498 2:-0.799669 3:-0.697313 4:0.219999 5:-0.244815 6:-0.457028 7:-0.513587 8:-0.636764 9:-0.338108 10:-0.727734 11:-0.468352 12:-0.643893 13:-0.521907 14:-0.647238 15:-0.702127 16:-0.629075 17:-0.747698 18:-0.791412 19:-0.410904 20:-0.745698 21:-0.750197 22:-0.656765 23:-0.609456 24:-0.331597 25:-0.68254 26:-0.801289 27:-0.572211 28:-0.922255 29:-0.569233 30:-0.701463 31:-0.521838 32:-0.30017 33:-0.647152 34:-0.669203 35:-1 36:-0.262805 37:-0.368957 38:-0.583854 39:-0.557567 40:-0.704986 41:-0.825946 42:-0.331359 43:-0.318267 44:-0.730073 45:-0.782358 46:-0.78853 47:-0.86333 48:-0.39384 49:-0.520886 50:-0.956752 51:-0.73874 52:-0.747456 53:-0.869715 54:-0.784589 55:-0.467441 56:-0.754881 57:-0.849911 58:-0.773986 59:-0.739229 60:-0.670088 
-0.14 0.14 0.14 1:-0.267 2:-0.686172 3:-0.695828 4:0.314343 5:-0.126916 6:-0.0863305 7:-0.55071 8:-0.374944 9:-0.542707 10:-0.535402 11:-0.334328 12:-0.8412 13:-0.369604 14:-0.370284 15:-0.761124 16:-0.473116 17:-0.510179 18:-0.424247 19:-0.234823 20:-1 21:-0.295867 22:-0.618399 23:-0.682854 24:-0.264535 25:-0.377782 26:-0.516093 27:-0.320333 28:-0.776253 29:-0.348877 30:-0.269516 31:-0.243444 32:-0.168862 33:-0.420468 34:-0.414406 35:-0.24132 36:-0.0655205 37:-0.055376 38:-0.391504 39:-0.60475 40:-0.31004 41:-0.582316 42:-0.340174 43:-0.394728 44:-0.507412 45:-0.336658 46:-0.128365 47:-0.194284 48:-0.213169 49:-0.135503 50:-0.0613082 51:-0.00389694 52:-0.223871 53:-0.266805 54:-0.0595063 55:0.00842053 56:-0.170146 57:-0.374342 58:-0.0707765 59:-0.0255543 60:-0.125186 
-0.2 -0.2 0.2 1:0.282714 2:0.141803 3:-0.957194 4:0.100775 5:-0.0372922 6:-0.544558 7:-1 8:-0.416516 9:-0.311179 10:0.0260753 11:-0.152366 12:-0.431434 13:-0.100383 14:-0.073593 15:-0.351143 16:-0.122522 17:-0.494264 18:-0.208022 19:-0.244009 20:-0.47019 21:-0.16375 22:-0.105648 23:0.042842 24:0.0909092 25:0.241595 26:-0.0142052 27:-0.961075 28:-0.439837 29:-0.0583743 30:0.0407407 31:0.560957 32:0.106714 33:-0.124619 34:-0.170568 35:-0.200341 36:0.398167 37:0.0175586 38:-0.285013 39:0.215582 40:0.16284 41:0.266193 42:0.0760899 43:0.213395 44:0.0140434 45:-0.265849 46:0.126965 47:0.200586 48:0.0526279 49:0.21954 50:0.288757 51:0.29257 52:-0.0293974 53:-0.0774818 54:0.0588915 55:0.387488 56:0.0758941 57:0.134634 58:0.200847 59:0.0322512 60:0.200811 
-0.2 -0.2 0.2 1:-0.554621 2:-0.852869 3:-0.588827 4:0.382691 5:-0.143855 6:0.0624123 7:0.0650089 8:0.28373 9:0.190771 10:-0.0271206 11:0.0473538 12:0.244485 13:0.0131595 14:0.032274 15:-0.146269 16:0.0774152 17:0.187783 18:0.166967 19:0.0786466 20:-0.277392 21:0.285541 22:-0.0319921 23:0.107998 24:0.110197 25:0.296666 26:0.34046 27:0.217323 28:0.217572 29:0.369881 30:0.204412 31:0.431846 32:0.345814 33:0.364974 34:0.494586 35:0.335852 36:0.504642 37:0.359485 38:0.1294 39:0.375884 40:0.694935 41:0.517997 42:0.319679 43:0.348282 44:-0.0822703 45:0.281656 46:0.303503 47:0.457487 48:0.284967 49:0.23933 50:0.318385 51:0.392336 52:0.171664 53:0.0801388 54:0.345321 55:0.260607 56:0.111934 57:0.178643 58:0.314491 59:0.0840631 60:0.370093 
-0.2 -0.2 0.2 1:-0.730563 2:-0.581888 3:-0.443743 4:-0.244973 5:-0.538651 6:-0.262918 7:-0.920785 8:-0.446052 9:-0.046462 10:-0.502159 11:-0.259946 12:-0.591054 13:-0.37624 14:-0.618131 15:-0.437784 16:-0.458408 17:-0.406392 18:-0.828398 19:-0.342335 20:-0.31143 21:-0.452325 22:-0.306822 23:-0.264247 24:-0.627345 25:-0.627767 26:-0.376281 27:-0.388206 28:-0.123271 29:-0.33849 30:-0.322634 31:-0.0287158 32:-0.299941 33:-0.45945 34:-0.0743666 35:-0.573974 36:0.0788365 37:0.0573949 38:-0.166981 39:-0.451826 40:-0.243611 41:-0.398567 42:0.131341 43:0.0573503 44:0.0152519 45:0.020233 46:0.185394 47:-0.403074 48:0.139268 49:0.128179 50:-0.204476 51:0.150792 52:-0.100201 53:0.0857731 54:-0.0368873 55:0.164008 56:-0.0821358 57:0.0236235 58:0.141015 59:0.172873 60:0.0525186 
-0.2 -0.2 0.2 1:-0.89207 2:-0.771335 3:-0.790037 4:-0.401476 5:-0.719797 6:-0.583133 7:-0.795929 8:-0.809023 9:-0.696775 10:-0.63118 11:-0.625292 12:-0.581524 13:-0.451644 14:-0.504387 15:-0.775258 16:-0.617071 17:-0.58539 18:-0.464599 19:-0.609011 20:-0.744454 21:-0.387254 22:-0.613295 23:-0.66491 24:-0.417849 25:-0.537879 26:-0.431483 27:-0.589879 28:-0.770663 29:-0.573322 30:-0.705733 31:-0.464222 32:-0.701588 33:-0.486185 34:-0.322064 35:-0.259467 36:0.0187964 37:-0.313756 38:-0.833779 39:-0.426085 40:-0.494616 41:-0.509731 42:-0.112172 43:-0.457285 44:-0.618417 45:-0.468834 46:-0.711006 47:-0.68081 48:-0.509671 49:-0.536673 50:-0.795699 51:-0.332333 52:-0.723284 53:-0.752868 54:-1 55:-0.648559 56:-0.726712 57:-0.515 58:-0.617301 59:-0.480418 60:-0.651101 
-0.2 -0.2 0.2 1:-0.588571 2:-0.593516 3:-0.558538 4:-0.628796 5:-0.816354 6:-0.720084 7:-0.494499 8:-0.964702 9:-0.484049 10:-0.688286 11:-0.824373 12:-0.620203 13:-0.421797 14:-0.58374 15:-0.645146 16:-0.888298 17:-0.568439 18:-1 19:-0.771158 20:-0.800742 21:-0.84096 22:-0.598252 23:-0.885237 24:-0.505099 25:-0.546439 26:-0.764137 27:-0.664553 28:-1 29:-0.544646 30:-0.374868 31:-0.815516 32:-0.585441 33:-0.504088 34:-0.488999 35:-0.482584 36:-0.2821 37:-0.535657 38:-0.996312 39:-0.603768 40:-0.676192 41:-1 42:-1 43:-0.599232 44:-0.941041 45:-0.80989 46:-0.554343 47:-0.875419 48:-0.678389 49:-0.595131 50:-1 51:-0.677316 52:-0.726656 53:-1 54:-0.675846 55:-1 56:-1 57:-0.986423 58:-0.507044 59:-0.567288 60:-0.970256 
-0.2 -0.2 0.2 1:0.250831 2:-0.0671724 3:-0.395009 4:0.483749 5:-0.237912 6:-0.482716 7:-0.207387 8:-1 9:-0.292259 10:-0.687224 11:-0.385192 12:-0.84359 13:-0.339377 14:-0.476142 15:-0.622433 16:-0.415526 17:-0.40586 18:-0.335702 19:-0.325153 20:-0.707551 21:-0.0189609 22:-0.206492 23:-0.189919 24:-0.206956 25:-0.743312 26:-0.275027 27:-0.775836 28:-0.369076 29:-0.556583 30:-0.046854 31:-0.503362 32:0.0380584 33:-0.45959 34:-0.169177 35:-0.176268 36:-0.340505 37:-0.30873 38:-0.463974 39:-0.100318 40:-0.368246 41:-0.314516 42:-0.118224 43:-0.141591 44:-0.58303 45:-0.243978 46:-0.34411 47:-0.36641 48:-0.267213 49:-0.198572 50:-0.422748 51:0.00212495 52:-0.510624 53:-0.346512 54:-0.361944 55:-0.196104 56:-0.417326 57:-0.240029 58:-0.174632 59:-0.168358 60:-0.315497 
-0.2 -0.2 0.2 1:-1 2:-0.72587 3:-0.755307 4:-0.258756 5:-0.76886 6:-0.766979 7:-0.746525 8:-0.799898 9:-0.772447 10:-0.672876 11:-0.640068 12:-0.974319 13:-0.694696 14:-0.732208 15:-1 16:-0.936477 17:-0.642902 18:-0.771022 19:-0.906107 20:-0.826338 21:-0.667112 22:-0.868765 23:-0.714932 24:-0.686054 25:-0.737078 26:-1 27:-0.521436 28:-0.848016 29:-0.960036 30:-0.730423 31:-0.72975 32:-0.639224 33:-0.685435 34:-0.605321 35:-0.633592 36:-0.313662 37:-1 38:-1 39:-0.672037 40:-0.694613 41:-0.443919 42:-0.797247 43:-0.556559 44:-0.960446 45:-0.899757 46:-0.750375 47:-0.883508 48:-0.676107 49:-0.876072 50:-0.784647 51:-0.58393 52:-0.921644 53:-0.878845 54:-0.638672 55:-0.539795 56:-0.739826 57:-0.832778 58:-1 59:-1 60:-0.684491 
-0.2 -0.2 0.2 1:-0.675204 2:-0.764563 3:-0.728117 4:-1 5:-0.765812 6:-1 7:-0.844529 8:-0.934828 9:-0.680638 10:-0.896301 11:-0.803506 12:-1 13:-1 14:-0.841719 15:-0.904736 16:-0.889092 17:-1 18:-0.699643 19:-0.833556 20:-0.85486 21:-0.833139 22:-0.89054 23:-0.938204 24:-0.857534 25:-0.919207 26:-0.936159 27:-1 28:-0.901412 29:-1 30:-0.749584 31:-1 32:-1 33:-0.870363 34:-0.765499 35:-0.69487 36:-0.869614 37:-0.972463 38:-0.877727 39:-1 40:-0.800875 41:-0.977786 42:-0.655728 43:-1 44:-1 45:-1 46:-1 47:-0.981661 48:-1 49:-0.887426 50:-0.880049 51:-1 52:-1 53:-0.947286 54:-0.645819 55:-0.675074 56:-0.949911 57:-0.986407 58:-0.923038 59:-0.788588 60:-1 
-0.2 -0.2 0.2 1:-0.218162 2:-0.555353 3:-0.607857 4:-0.458916 5:-0.768808 6:-0.612463 7:-0.638756 8:-0.892449 9:-0.870943 10:-1 11:-0.601148 12:-0.495558 13:-0.49774 14:-0.651613 15:-0.792566 16:-0.755738 17:-0.940614 18:-0.806955 19:-0.824869 20:-0.853394 21:-0.740374 22:-0.603186 23:-0.964173 24:-0.742444 25:-1 26:-0.558635 27:-0.796307 28:-0.585693 29:-0.710374 30:-0.750854 31:-0.555736 32:-0.571944 33:-0.715093 34:-0.869722 35:-0.72532 36:-0.641096 37:-0.635034 38:-0.586966 39:-0.340517 40:-0.47053 41:-0.760578 42:-0.431411 43:-0.344696 44:-0.727444 45:-0.800473 46:-0.743406 47:-1 48:-0.262369 49:-0.815268 50:-0.70555 51:-0.282213 52:-0.792296 53:-0.787524 54:-0.914335 55:-0.389337 56:-0.636772 57:-0.622113 58:-0.479418 59:-0.429447 60:-0.689917 
-0.2 -0.2 0.2 1:-0.297037 2:-0.887507 3:-0.419142 4:-0.715255 5:-0.64569 6:-0.745116 7:-0.851498 8:-0.75663 9:-1 10:-0.999387 11:-0.914863 12:-0.937004 13:-0.721068 14:-1 15:-0.983157 16:-1 17:-0.740703 18:-0.728552 19:-1 20:-0.781439 21:-1 22:-1 23:-1 24:-0.641272 25:-0.702892 26:-0.720755 27:-0.900103 28:-0.896538 29:-0.879174 30:-0.824611 31:-0.827849 32:-0.619617 33:-0.898723 34:-0.813293 35:-0.796454 36:-0.784313 37:-0.808654 38:-0.991803 39:-0.833332 40:-0.909853 41:-0.818001 42:-0.638385 43:-0.580949 44:-0.804013 45:-0.844645 46:-0.895684 47:-0.894483 48:-0.51046 49:-1 50:-0.693459 51:-0.392628 52:-0.805933 53:-0.64053 54:-0.656565 55:-0.369192 56:-0.681066 57:-0.75092 58:-0.453509 59:-0.506494 60:-0.587359 
-0.4274 -0.3254544229080372 -0.4 1:1 2:1 3:0.263196 4:0.653744 5:0.363389 6:0.440745 7:-0.538141 8:-0.427827 9:-0.38018 10:-0.181622 11:-0.298722 12:-0.0276528 13:-0.34789 14:-0.00628468 15:-0.552715 16:-0.725529 17:-0.321262 18:-0.383249 19:-0.424828 20:-0.266325 21:-0.0428594 22:-0.295981 23:-0.258306 24:-0.657024 25:-0.239256 26:-0.218055 27:0.181973 28:-0.856416 29:-0.193895 30:-0.212144 31:0.074137 32:-0.353665 33:-0.248489 34:-0.0551518 35:-0.291805 36:-0.352769 37:0.426691 38:0.18897 39:0.229638 40:-0.17417 41:0.0738838 42:0.0786818 43:-0.00436296 44:-0.320634 45:0.482735 46:0.378584 47:0.423913 48:0.228612 49:0.505511 50:0.556555 51:0.736915 52:0.508624 53:0.386083 54:0.571354 55:0.623983 56:0.538105 57:0.418682 58:0.516677 59:0.634395 60:0.590937 
-0.4274 -0.259169936575991 -0.244424400959523 1:0.976128 2:0.699612 3:1 4:0.781222 5:0.948759 6:0.569294 7:0.633102 8:0.617568 9:0.495373 10:0.149988 11:0.277235 12:-0.265145 13:0.544414 14:0.400846 15:-0.0784977 16:0.333804 17:0.390487 18:0.529964 19:0.0168065 20:0.46105 21:0.62179 22:0.61005 23:0.468043 24:0.463565 25:0.681431 26:0.386315 27:0.625555 28:0.800783 29:0.349562 30:0.685417 31:0.74218 32:0.613098 33:0.443491 34:0.659777 35:0.739533 36:0.644705 37:0.630015 38:0.383474 39:0.196663 40:0.419085 41:0.736605 42:0.91204 43:0.594773 44:0.214255 45:0.49958 46:0.759126 47:0.280825 48:0.731628 49:0.604601 50:0.435298 51:0.645399 52:0.344651 53:0.576473 54:0.590329 55:0.586025 56:0.421189 57:0.293186 58:0.503081 59:0.495939 60:0.522835 
-0.4274 -0.108064491815086 -0.121530361042037 1:0.913695 2:0.625942 3:0.889859 4:0.887173 5:0.760788 6:0.393061 7:0.210028 8:0.311085 9:0.374256 10:0.133555 11:0.342759 12:-0.275643 13:0.200467 14:0.27171 15:0.111555 16:0.102341 17:0.341194 18:0.392624 19:0.339335 20:0.270965 21:0.176169 22:0.321646 23:0.0336839 24:-0.238697 25:0.0957392 26:0.380641 27:0.246577 28:0.0507112 29:0.267031 30:0.471109 31:0.446292 32:0.313512 33:-0.0592507 34:0.556288 35:0.228329 36:0.186079 37:0.459182 38:0.358612 39:0.618921 40:0.292173 41:0.439373 42:0.305718 43:0.354917 44:-0.0559051 45:0.206185 46:-0.0237133 47:0.0536617 48:-0.0291686 49:0.0923001 50:-0.127581 51:0.267184 52:0.0452864 53:-0.288425 54:0.110994 55:0.0759526 56:-0.39827 57:-0.289834 58:-0.128487 59:-0.0324402 60:-0.127731 
-0.4134293986436906 -0.3558648880826983 -0.2642630929365425 1:-0.449625 2:0.0333172 3:0.117932 4:0.394041 5:0.548906 6:0.174423 7:0.31455 8:0.227848 9:0.362669 10:0.347113 11:-0.117763 12:0.193373 13:-0.000441827 14:0.239838 15:0.00446214 16:0.203301 17:0.203022 18:0.383083 19:0.0613036 20:0.0427742 21:0.335215 22:-0.124188 23:0.146458 24:0.302761 25:0.191991 26:0.389195 27:0.0785581 28:0.211048 29:0.276785 30:0.0788133 31:0.582977 32:0.293117 33:0.154648 34:0.341651 35:0.346463 36:0.369388 37:0.114123 38:-0.0156067 39:0.280263 40:0.558966 41:0.10645 42:0.362055 43:-0.010409 44:0.132743 45:-0.00420373 46:-0.181799 47:-0.195902 48:0.148919 49:-0.274623 50:-0.0377354 51:0.24064 52:-0.264525 53:-0.0398313 54:-0.0725279 55:-0.216846 56:-0.0693649 57:-0.189932 58:-0.186363 59:-0.0288701 60:0.102832 
-0.4274 -0.320681921603067 -0.2904631651951121 1:0.557062 2:0.782342 3:0.401145 4:0.521356 5:0.554327 6:0.509733 7:0.11519 8:0.189344 9:0.141128 10:0.32042 11:0.336339 12:0.272612 13:0.198306 14:0.164413 15:0.275228 16:0.347087 17:0.281039 18:0.721913 19:0.306681 20:0.160184 21:0.414798 22:0.47407 23:0.126999 24:0.459406 25:0.382529 26:0.513594 27:0.552767 28:0.596176 29:0.0827359 30:0.570499 31:0.506872 32:0.253651 33:0.5342 34:0.661793 35:0.413574 36:0.420949 37:0.363609 38:0.483114 39:0.598402 40:0.752589 41:0.825001 42:0.652999 43:0.776228 44:0.654162 45:0.625273 46:0.825296 47:0.624998 48:0.65903 49:0.732597 50:0.766428 51:0.823801 52:0.760744 53:0.701789 54:0.743189 55:0.769435 56:0.654256 57:0.579022 58:0.810088 59:0.784801 60:0.738638 
-0.4274 -0 -0.009497554333993767 1:0.707895 2:0.497607 3:0.146941 4:0.73621 5:0.485655 6:0.0664575 7:0.0575945 8:-0.0714259 9:-0.0322543 10:0.0584221 11:-0.127891 12:-0.301062 13:0.0682849 14:-0.00956001 15:0.156637 16:0.0197676 17:-0.0729295 18:-0.085227 19:-0.100866 20:-0.298505 21:-0.0532907 22:-0.0122288 23:0.113738 24:0.141176 25:0.00640674 26:-0.152715 27:0.222374 28:0.104942 29:-0.0253296 30:-0.201984 31:0.272402 32:0.160669 33:-0.529768 34:0.401271 35:-0.159302 36:-0.0606379 37:0.126785 38:0.0688215 39:0.0960477 40:0.167592 41:0.520036 42:-0.031909 43:0.305618 44:-0.296057 45:0.0645033 46:-0.104437 47:-0.194154 48:0.091863 49:0.369393 50:-0.110418 51:0.140785 52:-0.0554579 53:-0.00935003 54:0.174242 55:0.144211 56:0.0431421 57:-0.167401 58:0.082781 59:0.141397 60:-0.00411157 
-0.4274 -0.06981003156599691 -0 1:0.40156 2:0.162952 3:0.320393 4:0.703858 5:0.918434 6:0.510957 7:0.130333 8:0.0906285 9:0.12758 10:-0.0741581 11:-0.282456 12:0.167555 13:-0.0906487 14:0.356301 15:-0.328017 16:-0.0120005 17:0.276888 18:0.0571896 19:0.0709234 20:0.20278 21:0.238793 22:0.283234 23:0.181214 24:0.21331 25:0.240166 26:0.375211 27:0.290515 28:0.277418 29:0.0686819 30:0.170638 31:0.455297 32:0.507748 33:0.304216 34:0.398837 35:0.197382 36:0.337301 37:0.514368 38:0.174785 39:0.355377 40:0.246775 41:0.667541 42:0.572117 43:0.0648369 44:0.0864948 45:0.160617 46:-0.540152 47:0.0544922 48:0.334333 49:0.295311 50:0.121484 51:0.35664 52:0.102652 53:0.21848 54:0.287926 55:0.228458 56:0.0376481 57:-0.00740247 58:0.268942 59:0.195435 60:0.374822 
-0.1102337842153764 -0.05929233525489219 -0.02311300007323351 1:0.198081 2:0.0528322 3:-0.171538 4:0.187111 5:0.241756 6:0.287214 7:0.0436192 8:-0.0763501 9:0.00323539 10:-0.0236275 11:0.169849 12:-0.160579 13:0.0409315 14:-0.0317222 15:0.069026 16:0.00508212 17:0.173865 18:0.324475 19:0.176237 20:0.0767944 21:0.397616 22:-0.0140424 23:0.0446209 24:0.0647641 25:0.254253 26:0.291397 27:0.228823 28:0.0868012 29:0.0133733 30:0.0746371 31:0.221319 32:-0.21532 33:0.229654 34:0.130048 35:0.13911 36:0.276499 37:0.255507 38:0.120517 39:0.114327 40:-0.105862 41:0.179336 42:0.304213 43:-0.109726 44:0.162191 45:-0.1585 46:0.0022655 47:-0.14949 48:0.0689431 49:0.0831703 50:-0.165732 51:0.128117 52:-0.269435 53:0.0302242 54:-0.233469 55:-0.169703 56:-0.246334 57:-0.339124 58:-0.0468516 59:-0.140329 60:-0.027001 
-0.4274 -0.1742619721942317 -0.2193084254595582 1:0.453878 2:0.339338 3:-0.10423 4:0.600351 5:0.543016 6:0.00916501 7:-0.231865 8:-0.0995048 9:-0.0977353 10:-0.165566 11:-0.0593161 12:-0.139434 13:0.0387349 14:0.10896 15:-0.386114 16:-0.139805 17:-0.277929 18:-0.187858 19:0.168171 20:-0.268898 21:-0.242416 22:0.00622194 23:-0.361783 24:-0.0716165 25:-0.0322376 26:-0.129772 27:0.211569 28:-0.358106 29:-0.132154 30:-0.0494656 31:0.0951181 32:0.146167 33:-0.199342 34:-0.00681997 35:0.277805 36:0.157092 37:0.0116665 38:0.144179 39:-0.153909 40:-0.36686 41:-0.071411 42:0.117714 43:0.188232 44:-0.0891906 45:0.116395 46:0.0553417 47:-0.145167 48:0.14283 49:0.161142 50:0.144893 51:0.281994 52:0.165364 53:0.149903 54:0.132474 55:0.298818 56:0.166963 57:0.0194567 58:0.307976 59:0.241994 60:0.263836 
-0.4274 -0.4274 -0.4274 1:0.100322 2:-0.058858 3:-0.284914 4:-0.0121745 5:0.293669 6:-0.083613 7:-0.00377594 8:0.0872168 9:0.188468 10:-0.154503 11:0.162262 12:-0.203746 13:-0.329095 14:-0.309541 15:-0.256521 16:-0.0186607 17:0.068338 18:-0.243946 19:-0.304944 20:-0.071697 21:0.0896737 22:-0.378699 23:-0.259769 24:0.165487 25:-0.282424 26:-0.0274449 27:-0.0591098 28:0.0653967 29:-0.27809 30:-0.066993 31:0.102256 32:0.0274993 33:0.152119 34:-0.0409617 35:-0.241609 36:-0.106206 37:-0.00929064 38:-0.514527 39:-0.0252228 40:-0.0331362 41:0.194859 42:0.0414716 43:0.111998 44:-0.215787 45:-0.291243 46:0.0331808 47:-0.755467 48:-0.538843 49:-0.0181516 50:-0.174906 51:-0.15215 52:-0.543274 53:-0.381035 54:-0.600286 55:-0.220553 56:-0.160309 57:-0.588598 58:-0.00529373 59:-0.241244 60:-0.343217 
