svm_type c_svc
kernel_type rbf
gamma 8
nr_class 2
total_sv 219
rho -0.640704
label 3 2
nr_sv 118 101
SV
8 0:-0.054755 1:0.149053 2:-0.290999 3:-0.367589 4:-0.375368 5:-0.104003 6:0.111283 7:0.0252662 8:0.0968541 9:-0.147716 10:-0.160793 11:-0.0508362 12:0.0391555 13:-0.253249 14:0.40378 15:-0.0305684 16:-0.247706 17:0.0048429 18:-0.0195427 19:-0.193464 20:0.196047 21:-0.147982 22:-0.217926 23:0.0578862 24:0.335144 25:0.447256 26:-0.234537 27:-0.0435739 28:0.387823 29:-0.0213442 30:0.192289 31:-0.192413 32:-0.190606 33:0.0473197 34:0.0930113 35:-0.0200398 36:-0.363212 37:-0.105785 38:-0.0572113 39:-0.0734247 40:0.135716 41:0.166424 42:-0.143727 43:0.240695 44:-0.160747 45:-0.318496 46:0.103612 47:0.0274791 48:-0.185049 49:-0.0194273 50:0.0497109 51:-0.0228193 52:-0.110428 53:0.00644302 54:0.00881083 55:-0.178537 56:-0.122342 57:-0.045312 58:-0.0209028 59:-0.195905 60:-0.0750465 61:-0.0196674 62:-0.173618 63:-0.217139 
8 0:-0.0711879 1:0.126546 2:-0.29945 3:-0.389431 4:-0.375632 5:-0.0976304 6:0.0859176 7:0.0535351 8:0.12017 9:-0.169382 10:-0.172226 11:-0.0510127 12:0.0430213 13:-0.230606 14:0.415799 15:-0.0263838 16:-0.253116 17:0.0327452 18:-0.042059 19:-0.192129 20:0.207642 21:-0.158187 22:-0.210188 23:0.0697697 24:0.313859 25:0.446257 26:-0.210047 27:-0.033904 28:0.376378 29:-0.0304392 30:0.202474 31:-0.200409 32:-0.17521 33:0.045326 34:0.105915 35:-0.0302467 36:-0.3395 37:0.0043863 38:-0.109425 39:-0.0801186 40:0.0832296 41:0.186366 42:-0.189071 43:0.270586 44:-0.141202 45:-0.357798 46:0.0881471 47:-0.000782738 48:-0.219396 49:-0.00295013 50:0.062574 51:-0.0550597 52:-0.0886113 53:-0.0211726 54:-0.0447451 55:-0.172669 56:-0.14581 57:-0.0523023 58:0.00252761 59:-0.186925 60:-0.0897978 61:-0.0253268 62:-0.20595 63:-0.222035 
0.360372836002846 0:-0.235581 1:-0.127682 2:-0.530547 3:-0.800321 4:-1 5:-0.432618 6:0.0707022 7:-0.00550526 8:0.120869 9:-0.146889 10:-0.202597 11:-0.0825862 12:0.0111662 13:-0.273177 14:0.403981 15:-0.0700611 16:-0.24169 17:0.181297 18:0.0228053 19:-0.0437832 20:0.332018 21:-0.0440098 22:-0.166394 23:0.0788793 24:0.3557 25:0.470839 26:-0.148196 27:0.0135955 28:0.439345 29:0.110289 30:0.372602 31:-0.0783867 32:-0.149094 33:0.091548 34:0.216189 35:0.210915 36:-0.208603 37:-0.0126423 38:0.0248476 39:0.137408 40:0.274074 41:0.357976 42:0.0531923 43:0.589856 44:0.0890787 45:-0.1703 46:0.255825 47:0.39205 48:0.02354 49:0.193876 50:0.281795 51:0.215935 52:0.0966964 53:0.174677 54:0.269745 55:0.172278 56:0.19926 57:0.240683 58:0.30229 59:0.131494 60:0.190492 61:0.234054 62:0.052735 63:0.0436236 
0.3594381513190862 0:0.605594 1:1 2:0.25265 3:0.00130826 4:-0.652373 5:-0.386576 6:0.20167 7:-0.135246 8:0.199826 9:0.124912 10:-0.21997 11:-0.189137 12:0.23284 13:-0.664512 14:-0.0512068 15:-0.0306582 16:-0.107193 17:0.31785 18:0.0901891 19:-0.645497 20:-0.00145972 21:-0.0566704 22:-0.588397 23:0.0573144 24:0.619038 25:0.281508 26:-0.801158 27:-0.111204 28:0.191377 29:0.0039494 30:0.558135 31:-0.1953 32:-0.353927 33:-0.156908 34:-0.175242 35:-0.674737 36:-0.70811 37:-0.443415 38:-0.309523 39:-0.338778 40:-0.405668 41:-0.0946633 42:-0.530356 43:-1 44:-0.275064 45:-0.411151 46:-0.440141 47:-0.248878 48:0.028911 49:-1 50:-0.813027 51:-0.550411 52:-0.635472 53:-0.605486 54:-0.886881 55:-0.5822 56:-1 57:-0.984841 58:-0.820391 59:-0.719167 60:-1 61:-0.538332 62:-1 63:-0.887217 
0.3592463756952668 0:-0.0540488 1:-0.0632437 2:0.0201622 3:-0.288513 4:-0.686912 5:-0.0732214 6:0.247021 7:-0.0617824 8:0.147884 9:0.279141 10:-0.195255 11:-0.275334 12:-0.0757752 13:-0.365427 14:0.461633 15:0.551534 16:0.177892 17:0.023752 18:-0.404717 19:-0.257132 20:0.803553 21:0.0764727 22:-0.290399 23:0.165817 24:-0.0440145 25:0.424086 26:-0.0206263 27:0.234422 28:-0.00830106 29:-0.495477 30:0.303064 31:-0.30435 32:-0.894757 33:0.255261 34:0.380455 35:-0.0865577 36:-0.269063 37:0.681583 38:0.626508 39:-0.0754008 40:0.388833 41:1 42:-0.32341 43:-0.059234 44:0.133073 45:0.224535 46:0.301024 47:0.165445 48:0.187288 49:0.716729 50:0.013945 51:0.151203 52:0.116608 53:0.554037 54:0.51953 55:-0.053676 56:-0.188277 57:-0.0209735 58:0.431822 59:0.149217 60:0.402134 61:0.145909 62:0.24611 63:0.0475606 
0.3593403942270126 0:-0.347049 1:0.12643 2:-0.307568 3:-0.263047 4:-0.644533 5:-0.725361 6:-0.255462 7:0.0314054 8:0.661758 9:-0.0417565 10:0.390831 11:-0.26418 12:-0.149698 13:-0.402763 14:0.287749 15:-0.25807 16:-0.393623 17:0.286772 18:-0.300333 19:-0.183724 20:-0.177065 21:0.389826 22:-0.106664 23:1 24:-0.195868 25:0.867533 26:-0.890488 27:-0.180923 28:-0.0212684 29:-0.899721 30:0.14813 31:-0.230087 32:0.222958 33:-0.0281885 34:-0.152968 35:-0.39526 36:-0.420097 37:-0.226865 38:-0.54523 39:0.324473 40:-0.0556402 41:-0.526186 42:-0.20444 43:-0.712635 44:-0.626624 45:-0.373503 46:-1 47:-0.523598 48:-0.564086 49:-0.894127 50:-0.117548 51:-0.819204 52:-0.919375 53:-1 54:-0.776263 55:-0.789935 56:-0.793781 57:-0.132332 58:-0.579138 59:-0.913865 60:-0.457258 61:-0.755532 62:-0.419966 63:-1 
0.3591089419484891 0:-0.0783933 1:-0.315645 2:-0.761724 3:-0.274798 4:-0.466862 5:-0.920865 6:-0.0144956 7:-0.289436 8:0.0295319 9:0.0663239 10:0.586426 11:-0.161986 12:0.134243 13:-0.689316 14:0.45761 15:-0.464662 16:-1 17:-0.0977197 18:0.0309249 19:0.449013 20:0.0580137 21:-0.360827 22:-0.0340123 23:0.775268 24:0.953609 25:0.410969 26:0.383487 27:-0.121403 28:0.133503 29:0.308665 30:-0.560813 31:0.163579 32:-0.307932 33:0.196141 34:0.180431 35:0.701237 36:-0.398876 37:-0.555579 38:0.542761 39:0.735964 40:0.135519 41:-0.659322 42:0.430606 43:0.373681 44:-0.277617 45:-0.250025 46:0.0220717 47:-0.827089 48:0.0396195 49:-0.301583 50:0.223251 51:-0.33673 52:-0.360646 53:-0.298199 54:-0.117819 55:0.337413 56:-0.434233 57:-0.271225 58:-0.174743 59:-0.139553 60:0.0836366 61:0.0304259 62:-0.424231 63:-0.114463 
0.3589699165828981 0:-0.194001 1:0.145347 2:0.160752 3:-0.159124 4:-0.175274 5:0.206083 6:1 7:0.0956911 8:0.58447 9:-0.281771 10:0.214138 11:0.136243 12:0.316574 13:-0.301204 14:0.512274 15:-0.607871 16:-0.0872528 17:0.388461 18:-0.174969 19:0.313578 20:-0.166589 21:-0.654381 22:-0.515559 23:-0.67277 24:0.227946 25:0.352196 26:0.376855 27:0.0538114 28:0.999814 29:0.581853 30:0.302636 31:-0.831054 32:1 33:0.411983 34:0.893292 35:-0.830965 36:-0.33764 37:-1 38:-0.531675 39:0.724921 40:0.612477 41:0.261023 42:0.0332224 43:-0.353371 44:0.109597 45:-0.889349 46:-0.181497 47:0.945926 48:-0.429643 49:0.253308 50:-0.0175757 51:0.447691 52:0.144586 53:0.053444 54:-0.175073 55:-0.253963 56:0.0117105 57:0.165937 58:0.503278 59:-0.0923282 60:0.133365 61:0.338995 62:-0.0579038 63:-0.200736 
0.35986505089559 0:0.148522 1:0.283871 2:-0.328212 3:-0.063221 4:0.28869 5:0.0393 6:0.0123505 7:0.107615 8:-0.0330657 9:0.154167 10:0.590426 11:1 12:0.292514 13:0.633979 14:0.65322 15:-0.332757 16:-0.395031 17:0.0370725 18:-0.275668 19:-0.336126 20:0.000453919 21:0.546784 22:1 23:-0.547468 24:0.269025 25:0.924105 26:0.227443 27:-0.0120487 28:0.166951 29:0.664152 30:-0.491673 31:0.243028 32:0.0736698 33:0.777393 34:0.0532232 35:0.47334 36:-0.443419 37:0.193195 38:-1 39:0.938284 40:-0.258742 41:0.0684354 42:-0.274775 43:0.0075197 44:0.00630485 45:-0.229927 46:1 47:0.702422 48:0.167288 49:0.206957 50:1 51:0.596313 52:0.0079283 53:0.0510581 54:0.666082 55:0.647173 56:1 57:0.833017 58:0.772498 59:0.877603 60:0.774948 61:1 62:0.520211 63:1 
0.3589501470084186 0:-0.0954521 1:-0.105459 2:-0.384735 3:-0.651088 4:-0.266936 5:-0.466428 6:-0.313144 7:0.71779 8:0.070174 9:-0.454937 10:-0.848342 11:-0.912582 12:0.443957 13:-0.0750654 14:-0.0239717 15:0.387084 16:0.137703 17:0.268231 18:-0.574503 19:-1 20:1 21:-0.260685 22:0.262623 23:0.007584 24:0.311948 25:0.261686 26:0.523645 27:-1 28:0.0299382 29:0.321396 30:0.456116 31:-0.366599 32:-0.677646 33:0.579725 34:0.540637 35:-0.754872 36:-0.399563 37:0.195286 38:-0.591268 39:-0.919874 40:-0.101193 41:0.158486 42:-0.0443387 43:0.640695 44:-1 45:-0.411004 46:-0.321652 47:-0.350997 48:-0.115527 49:-0.528883 50:-1 51:-1 52:-1 53:-0.460216 54:-1 55:-0.985271 56:-0.669867 57:-1 58:-0.633808 59:-0.905212 60:-0.912464 61:-1 62:-0.894574 63:-0.86073 
0.3589750211292324 0:-0.0877491 1:-0.0387517 2:-0.531177 3:-0.225974 4:-0.232854 5:-0.507372 6:0.0965131 7:-0.251214 8:-0.131776 9:-0.991777 10:-0.00808734 11:-0.464746 12:-0.0705554 13:-0.558192 14:-0.406307 15:-0.783473 16:-0.0901212 17:-1 18:-0.244499 19:-0.16502 20:-1 21:-0.590273 22:-0.570121 23:0.339771 24:0.901501 25:0.593003 26:0.283274 27:-0.183095 28:-1 29:0.883545 30:0.662272 31:-0.0393721 32:0.0976418 33:-1 34:0.268786 35:0.284981 36:1 37:-0.386344 38:1 39:0.100264 40:0.536858 41:0.606896 42:-0.485686 43:0.118349 44:0.184663 45:-0.204118 46:0.76031 47:0.901942 48:0.181548 49:0.459398 50:0.362661 51:-0.435764 52:0.304664 53:0.467485 54:0.489725 55:-0.403534 56:0.285569 57:0.462013 58:0.0913106 59:-0.0595977 60:0.293431 61:-0.30996 62:0.189212 63:0.0789594 
0.3588973400232756 0:-0.210964 1:0.0330866 2:-0.38839 3:-0.69041 4:-0.96104 5:0.276761 6:0.440783 7:0.247373 8:0.415733 9:0.259014 10:0.0918459 11:-1 12:0.448969 13:1 14:-0.48878 15:-1 16:0.154405 17:-0.819472 18:0.348497 19:0.0597265 20:0.935574 21:0.497482 22:0.0201755 23:-0.772142 24:-0.585707 25:-1 26:0.462988 27:-0.0917777 28:0.0530046 29:0.144274 30:-1 31:1 32:0.0364451 33:1 34:-0.389554 35:-0.799053 36:-0.644922 37:0.105159 38:-0.0132553 39:0.658873 40:-0.379688 41:-0.102528 42:1 43:0.944073 44:-0.000118463 45:0.299679 46:0.284739 47:0.870808 48:-0.31438 49:-0.550028 50:0.756143 51:-0.466246 52:-0.468734 53:1 54:-0.167669 55:-0.235961 56:0.53989 57:-0.472516 58:0.288017 59:0.572677 60:-0.580712 61:0.303154 62:-0.214728 63:-0.461447 
0.3591105252130446 0:-0.0527811 1:0.188657 2:-0.214327 3:-0.0795054 4:0.229576 5:-0.255221 6:0.644668 7:0.793395 8:-0.462043 9:-0.304301 10:-0.85995 11:-0.283924 12:1 13:0.358462 14:0.0952465 15:0.694057 16:-0.605932 17:0.551275 18:-0.445192 19:-0.875829 20:0.575199 21:-0.719482 22:-0.144474 23:0.579044 24:0.0820968 25:-0.0770871 26:-0.804849 27:0.0353257 28:0.389163 29:-0.899952 30:-0.237757 31:0.876128 32:-0.626389 33:0.206268 34:-0.00434933 35:-0.979262 36:0.0603668 37:-0.0514736 38:-0.493038 39:1 40:0.17069 41:-0.305266 42:0.0528878 43:-0.0809292 44:-0.297586 45:-0.554124 46:-0.463216 47:-0.312635 48:-0.938241 49:-0.120576 50:-0.0928506 51:0.277285 52:-0.515066 53:-0.0749213 54:-0.351862 55:0.0966043 56:-0.596778 57:-0.0311746 58:-0.145744 59:-0.805209 60:-0.528773 61:-0.483211 62:-0.573414 63:-0.542897 
0.358969916582898 0:-0.155583 1:0.0114135 2:-0.51229 3:-0.640668 4:-0.754415 5:0.44553 6:-1 7:-0.541226 8:0.756825 9:-0.786646 10:-0.789609 11:-0.721542 12:0.42215 13:-0.588273 14:-0.778094 15:-0.361842 16:-0.319492 17:0.0791311 18:-0.184291 19:-0.44891 20:0.848762 21:-1 22:0.46147 23:0.0902655 24:0.786548 25:0.267167 26:-0.11768 27:1 28:0.892414 29:-1 30:0.480551 31:0.570778 32:0.040343 33:0.23678 34:-0.20042 35:-0.335785 36:0.881226 37:1 38:0.951369 39:-0.333071 40:0.483162 41:0.528514 42:0.167397 43:0.605107 44:0.697479 45:-0.101737 46:0.340963 47:0.214561 48:0.842805 49:-0.184695 50:0.76401 51:0.567331 52:0.204025 53:0.474492 54:0.568675 55:0.596696 56:0.560913 57:0.205576 58:0.68393 59:0.80652 60:0.56112 61:0.516594 62:0.280377 63:0.430718 
0.3590569511970807 0:-0.0703373 1:0.0417452 2:-0.60647 3:-0.358265 4:-0.421376 5:-1 6:-0.0392532 7:0.180626 8:0.767634 9:-0.524182 10:-1 11:-0.15564 12:-0.584567 13:-0.351581 14:-1 15:-0.124609 16:1 17:0.835234 18:-0.393429 19:-0.493586 20:0.666605 21:0.0960717 22:-0.0493961 23:0.694028 24:0.143094 25:0.621989 26:-0.658609 27:0.27236 28:0.327639 29:0.545438 30:0.542404 31:0.64392 32:-0.320405 33:0.372142 34:0.134644 35:0.590169 36:-0.101199 37:-0.323623 38:-0.840697 39:-0.180618 40:0.844304 41:0.754516 42:0.158516 43:0.174597 44:-0.0385127 45:-0.496138 46:0.0975287 47:0.972306 48:0.223941 49:0.625986 50:-0.142012 51:0.112147 52:0.233298 53:0.236815 54:-0.510907 55:-0.47865 56:0.149195 57:0.202212 58:0.199008 59:-0.204308 60:-0.310887 61:-0.033223 62:-0.0949746 63:-0.0763456 
0.3594702206990752 0:-0.111018 1:-0.054217 2:-0.527217 3:-0.625301 4:-0.355651 5:0.16842 6:-0.650578 7:-0.614189 8:0.0204737 9:-0.652364 10:-0.924444 11:0.837744 12:-0.111725 13:0.194856 14:0.53795 15:-0.491455 16:0.0610246 17:-0.145317 18:-0.149751 19:0.163578 20:-0.348874 21:0.351409 22:-0.44892 23:0.62185 24:-1 25:0.420538 26:-0.0851503 27:0.355423 28:0.476474 29:-0.25097 30:1 31:-0.338454 32:-0.515104 33:0.285876 34:-1 35:-0.325649 36:-0.662932 37:0.514839 38:0.144709 39:-1 40:-0.0408861 41:0.0142453 42:-0.872848 43:0.29143 44:-0.831389 45:-0.321538 46:0.22598 47:-0.112577 48:-0.228533 49:-0.347492 50:-0.479397 51:-0.0112144 52:-0.212022 53:-0.803977 54:-0.573317 55:-0.763214 56:-0.320023 57:-0.356901 58:-0.298242 59:-0.305284 60:-0.64456 61:-0.436314 62:-0.559899 63:-0.378192 
0.359379837499172 0:-0.0763392 1:-0.0187462 2:-0.491651 3:-0.43654 4:0.0416716 5:-0.294201 6:-0.0752975 7:-0.260375 8:-1 9:-0.104434 10:-0.298344 11:-0.840196 12:0.234323 13:0.0489161 14:0.323895 15:-0.184264 16:0.0908145 17:0.0797627 18:-0.232203 19:-0.727171 20:0.157908 21:0.436514 22:-0.66526 23:-0.784511 24:-0.835499 25:0.941761 26:1 27:-0.890003 28:0.555417 29:0.771689 30:-0.249255 31:-0.632957 32:-0.435977 33:-0.156695 34:0.426627 35:-1 36:-0.399105 37:0.450032 38:0.513983 39:0.38985 40:0.238471 41:0.350637 42:-0.510443 43:-0.221901 44:-0.345534 45:0.0407225 46:-0.0326391 47:-0.0631088 48:0.131077 49:0.262531 50:-0.0432239 51:-0.361206 52:-0.282323 53:0.203277 54:0.444541 55:0.484942 56:-0.203985 57:0.253951 58:0.309224 59:-0.0460783 60:-0.0871689 61:0.165474 62:0.0898484 63:-0.00422054 
0.3592476118757484 0:-0.0523799 1:0.0829208 2:-0.157087 3:0.0735174 4:-0.633382 5:-0.398296 6:0.552138 7:0.724648 8:0.046758 9:0.812582 10:1 11:-0.450624 12:-1 13:-0.723587 14:0.573786 15:0.0188992 16:-0.763112 17:0.583125 18:0.837684 19:-0.78189 20:0.701891 21:1 22:-1 23:0.813078 24:0.55828 25:0.349851 26:-0.438253 27:0.145458 28:0.0599004 29:0.17476 30:-0.220959 31:-0.201139 32:-0.750146 33:-0.0853434 34:0.12401 35:-0.518705 36:-0.641756 37:0.0722443 38:-0.699053 39:0.508963 40:0.822307 41:-1 42:-0.312207 43:0.419857 44:-0.702967 45:-0.123651 46:0.268097 47:-0.994874 48:-0.607567 49:-0.0456759 50:-0.431445 51:-0.110789 52:-0.188829 53:0.230587 54:-0.531645 55:-0.771363 56:-0.37409 57:-0.118378 58:0.255613 59:-0.361528 60:0.00233456 61:-0.262747 62:-0.509512 63:-0.511255 
0.359346544794886 0:-0.105578 1:-0.0844648 2:-0.655273 3:-0.361471 4:-0.20887 5:0.0804282 6:-0.895329 7:-0.893161 8:0.247629 9:0.532026 10:-0.322291 11:0.195945 12:0.0528814 13:-0.540981 14:0.168861 15:-0.224022 16:0.645584 17:-0.038844 18:-0.21738 19:-0.861423 20:0.784087 21:0.555414 22:0.418757 23:0.205828 24:-0.304948 25:0.184456 26:-0.382624 27:-0.049061 28:0.720973 29:-0.0411493 30:-0.276184 31:-0.916935 32:-0.801208 33:0.646857 34:-0.0991714 35:-0.697705 36:-0.594998 37:-0.33618 38:-0.714418 39:-0.33601 40:-1 41:0.359129 42:-0.898574 43:-0.317858 44:-0.338153 45:-0.476173 46:-0.616865 47:-1 48:-0.452526 49:-0.598503 50:-0.182632 51:-0.798266 52:-0.610713 53:-0.408269 54:-0.247624 55:-0.365582 56:-0.864317 57:-0.717107 58:-1 59:-0.747846 60:-0.808507 61:0.167599 62:-0.580698 63:-0.468354 
0.3590997817722214 0:-0.0560067 1:0.252681 2:-0.232259 3:-0.626943 4:-0.148738 5:-0.639673 6:0.594355 7:0.274595 8:-0.258167 9:1 10:-0.764785 11:-0.0331849 12:0.590441 13:-0.0104593 14:0.392144 15:0.12109 16:-0.259058 17:0.580527 18:-0.636888 19:-0.160388 20:0.837072 21:-0.346685 22:0.428912 23:-0.571139 24:-0.572684 25:0.00838644 26:0.920418 27:0.0953724 28:1 29:1 30:0.743427 31:0.590889 32:0.0502826 33:0.0456766 34:1 35:0.691179 36:0.0522824 37:0.0340935 38:0.488544 39:0.962691 40:1 41:0.177512 42:-0.0356075 43:0.948028 44:0.884155 45:1 46:0.779073 47:0.845442 48:1 49:1 50:0.928309 51:1 52:1 53:0.725016 54:1 55:1 56:0.720795 57:1 58:0.911028 59:1 60:1 61:0.96405 62:1 63:0.926844 
8 0:-0.047726 1:0.117784 2:-0.326441 3:-0.393171 4:-0.317526 5:-0.0963862 6:0.0970411 7:0.0194153 8:0.164229 9:-0.141001 10:-0.207232 11:-0.0488202 12:0.0687408 13:-0.248157 14:0.415256 15:-0.0348374 16:-0.250931 17:0.0391422 18:-0.0173984 19:-0.178964 20:0.2032 21:-0.166667 22:-0.199209 23:0.0497364 24:0.33767 25:0.45794 26:-0.203701 27:-0.0452547 28:0.398205 29:-0.0382987 30:0.198612 31:-0.201696 32:-0.16527 33:0.0506235 34:0.110695 35:0.0169989 36:-0.31216 37:-0.0194587 38:-0.0354423 39:-0.059827 40:0.0982476 41:0.199629 42:-0.158175 43:0.313796 44:-0.129536 45:-0.285891 46:0.119886 47:0.0941068 48:-0.177782 49:0.073249 50:0.0967008 51:0.0386376 52:-0.0467815 53:0.0405528 54:0.0501725 55:-0.0935718 56:-0.0659163 57:-0.00150003 58:0.0551357 59:-0.132051 60:-0.0233171 61:0.0164227 62:-0.127516 63:-0.176925 
0.9546667345997308 0:-0.140931 1:0.126864 2:-0.185199 3:-0.356789 4:-0.415319 5:-0.225284 6:0.00166994 7:-0.00909825 8:0.12359 9:-0.13062 10:-0.190647 11:-0.0306065 12:0.081373 13:-0.259035 14:0.384255 15:-0.0339396 16:-0.241592 17:0.119057 18:-0.0106493 19:-0.195391 20:0.182446 21:-0.161997 22:-0.212483 23:0.0588238 24:0.321573 25:0.470671 26:-0.219636 27:-0.0238121 28:0.391468 29:0.0042308 30:0.232579 31:-0.163518 32:-0.181836 33:0.0557761 34:0.122446 35:0.0190414 36:-0.302863 37:-0.0300099 38:-0.0599311 39:-0.0776831 40:0.142507 41:0.207404 42:-0.157843 43:0.327702 44:-0.108838 45:-0.273077 46:0.145511 47:0.0925154 48:-0.161716 49:0.0524238 50:0.118141 51:0.0583616 52:-0.0178189 53:0.0647046 54:0.0528391 55:-0.0528738 56:-0.0283066 57:0.0441533 58:0.0639711 59:-0.0922304 60:-0.00896941 61:0.0639051 62:-0.0828876 63:-0.135732 
0.3592028491001709 0:-1 1:0.0106031 2:1 3:1 4:1 5:1 6:0.567023 7:0.177956 8:0.15581 9:-0.146341 10:-0.155997 11:0.00851149 12:0.232738 13:0.0352257 14:0.636153 15:0.159493 16:-0.088605 17:0.2088 18:0.0575776 19:-0.0987628 20:0.25711 21:-0.141565 22:-0.202965 23:0.0700787 24:0.334356 25:0.461451 26:-0.21336 27:-0.0320846 28:0.359408 29:-0.0776573 30:0.120463 31:-0.262656 32:-0.223738 33:0.0949069 34:0.203181 35:0.291835 36:-0.0601501 37:0.273199 38:0.21557 39:0.157299 40:0.194668 41:0.154579 42:-0.280274 43:0.0653488 44:-0.266259 45:-0.375041 46:0.14935 47:0.268731 48:0.124594 49:0.335484 50:0.353027 51:0.28436 52:0.182998 53:0.23486 54:0.28938 55:0.202646 56:0.189685 57:0.283134 58:0.384546 59:0.278627 60:0.373145 61:0.406362 62:0.256462 63:0.222777 
0.3596676387796476 0:0.17996 1:0.0332 2:-0.148967 3:-0.535871 4:-0.714617 5:-0.524461 6:-0.112395 7:-0.610439 8:-0.350312 9:-0.232055 10:-0.0562114 11:0.0525643 12:0.116535 13:-0.395264 14:0.137756 15:-0.212659 16:-0.702742 17:0.0765578 18:0.246175 19:0.436377 20:0.4986 21:-0.58764 22:0.230629 23:0.116766 24:0.649948 25:0.515111 26:0.423709 27:0.186136 28:0.930748 29:-0.31202 30:0.416226 31:-0.274268 32:0.0658741 33:-0.196668 34:0.059545 35:1 36:-0.57802 37:0.142986 38:0.549221 39:0.425449 40:0.0455084 41:0.725408 42:0.463546 43:0.272726 44:-0.1176 45:0.18888 46:0.399355 47:0.15616 48:-0.309334 49:0.57295 50:0.431587 51:0.170991 52:0.296939 53:0.227205 54:0.244003 55:0.0686365 56:0.145663 57:0.206709 58:0.0657023 59:0.255744 60:0.5159 61:0.321077 62:-0.0487315 63:0.160228 
0.3596750999987526 0:-0.196441 1:0.382597 2:-0.170018 3:-0.51889 4:-0.532157 5:0.407612 6:0.694659 7:-0.0924517 8:0.0515126 9:-0.413571 10:0.371968 11:-0.100416 12:-0.874409 13:-1 14:0.316817 15:1 16:-0.567946 17:-0.856541 18:1 19:-0.231493 20:0.769391 21:-0.159634 22:-0.597735 23:-0.275763 24:-0.0846882 25:0.258627 26:-0.864715 27:0.592163 28:0.692589 29:-0.57502 30:0.310464 31:0.309714 32:0.332684 33:-0.218209 34:0.38675 35:-0.085777 36:0.206731 37:0.256317 38:-0.272252 39:0.643871 40:0.87401 41:0.530949 42:0.00511368 43:0.621691 44:1 45:-0.222998 46:-0.101193 47:1 48:0.595065 49:0.566366 50:0.910067 51:-0.11355 52:0.374947 53:0.645129 54:0.511731 55:0.159676 56:0.0991763 57:0.910702 58:0.952013 59:0.57131 60:0.836018 61:0.592105 62:0.780205 63:0.266908 
0.3598057469764852 0:-0.0704818 1:0.212865 2:-0.160797 3:-0.104489 4:-0.190395 5:0.343127 6:0.0283628 7:-0.108569 8:-0.0526425 9:0.0340771 10:-0.657534 11:-0.644998 12:-0.19819 13:0.0833496 14:0.169875 15:0.140362 16:0.325976 17:0.289662 18:-0.390541 19:-0.327336 20:-0.941953 21:-0.140404 22:-0.164909 23:-0.258146 24:-0.519197 25:1 26:-0.159864 27:0.261737 28:0.241003 29:-0.700642 30:0.267664 31:-0.611518 32:-0.294095 33:0.359034 34:0.141813 35:-0.0299944 36:-0.14016 37:0.27436 38:0.16989 39:-0.621546 40:-0.238794 41:0.103626 42:-0.129041 43:0.752128 44:-0.0462148 45:0.150673 46:0.234176 47:-0.362011 48:-0.384014 49:0.13749 50:0.0260022 51:0.466047 52:0.339342 53:0.15024 54:0.496545 55:0.359378 56:0.220993 57:0.219225 58:0.317209 59:-0.0615931 60:0.396791 61:0.379956 62:0.0629384 63:-0.113636 
0.3595458538007742 0:-0.10736 1:0.173621 2:-0.171264 3:-0.603213 4:-0.454913 5:-0.533993 6:0.571833 7:0.410189 8:-0.0703571 9:0.251453 10:0.148774 11:-0.146019 12:-0.831487 13:-0.379481 14:1 15:-0.823361 16:-0.782657 17:0.428478 18:0.384758 19:-0.161162 20:0.117902 21:0.394476 22:-0.0883742 23:-1 24:-0.230563 25:0.702943 26:0.0316421 27:-0.173006 28:0.632204 29:0.388908 30:0.716692 31:-0.134464 32:-0.451179 33:0.0989234 34:-0.161423 35:-0.56966 36:-0.121839 37:0.105166 38:-0.239697 39:-0.261124 40:-0.138406 41:-0.10566 42:0.0572251 43:-0.171505 44:-0.263291 45:-0.433473 46:-0.366045 47:0.0590141 48:-0.0266213 49:-0.292184 50:-0.00457849 51:-0.212493 52:-0.139096 53:-0.0132111 54:0.0824604 55:-0.261498 56:-0.45926 57:-0.502049 58:0.11593 59:-0.369374 60:-0.417427 61:-0.23524 62:-0.132951 63:-0.271777 
0.3594702206990751 0:-0.170315 1:-0.0176059 2:-0.506149 3:-1 4:-0.278611 5:-0.966176 6:-0.100067 7:0.0680274 8:-0.261656 9:0.0225462 10:-0.612432 11:0.631592 12:0.821176 13:0.261667 14:0.640521 15:-0.0461067 16:-0.579919 17:-0.172474 18:0.0169805 19:0.931687 20:-0.0481151 21:0.394805 22:-0.711459 23:-0.0650753 24:0.137734 25:0.52796 26:0.680325 27:-0.00615113 28:-0.116998 29:0.123455 30:-0.107206 31:0.137837 32:-0.137595 33:-0.250697 34:-0.46324 35:0.459557 36:-1 37:0.159296 38:-0.486528 39:-0.0746002 40:-0.0225626 41:0.0673745 42:-0.697086 43:0.757151 44:-0.622303 45:-0.510733 46:-0.232844 47:-0.0504434 48:-0.699573 49:0.00914499 50:0.187144 51:-0.206428 52:-0.302421 53:0.0972396 54:-0.309041 55:-0.50258 56:-0.298557 57:-0.40188 58:-0.170465 59:-0.379017 60:-0.372601 61:-0.267956 62:-0.416905 63:-0.491272 
0.3589835290547619 0:-0.0625381 1:0.1071 2:-0.132487 3:-0.119323 4:-0.115766 5:0.282868 6:0.0882385 7:0.346519 8:-0.00827361 9:-0.396424 10:0.130297 11:-0.0506392 12:0.364435 13:0.340098 14:0.253996 15:-0.0780309 16:-0.214485 17:-0.0958116 18:-1 19:0.180201 20:0.54358 21:-0.584444 22:0.393976 23:-0.298978 24:0.631982 25:0.565257 26:-0.628159 27:-0.452704 28:0.00627864 29:-0.303127 30:-0.473198 31:-0.15723 32:-0.404015 33:-0.0432391 34:-0.104959 35:-0.254115 36:-0.715713 37:0.237763 38:-0.0429383 39:-0.17069 40:0.00652643 41:0.101118 42:-0.470588 43:-0.0576722 44:-0.134519 45:-0.668307 46:0.0883021 47:0.630817 48:-0.442889 49:0.0240823 50:0.146157 51:0.232959 52:-0.0479351 53:0.111396 54:0.26167 55:0.103222 56:0.00566191 57:-0.184112 58:0.00487233 59:-0.1409 60:-0.0502239 61:0.0620768 62:-0.0538448 63:-0.182414 
0.358952682501157 0:-0.139166 1:0.0443085 2:-0.512 3:-0.252126 4:0.0499165 5:-0.132572 6:0.15842 7:-0.290452 8:-0.523065 9:-0.322494 10:0.393247 11:-0.835514 12:-0.224617 13:-0.140218 14:0.0259707 15:-0.643709 16:-0.153923 17:0.315599 18:-0.172756 19:0.084472 20:0.655372 21:0.163775 22:-0.24671 23:0.371403 24:0.147627 25:0.747167 26:-0.183302 27:-0.181658 28:0.811219 29:-0.367563 30:0.343073 31:-0.212943 32:-0.431495 33:0.557365 34:0.480967 35:-0.122811 36:-0.109061 37:-0.0651879 38:0.226266 39:-0.16698 40:0.0203857 41:0.424939 42:0.158441 43:0.344602 44:-0.256541 45:-0.161857 46:0.41058 47:0.134891 48:-0.0906157 49:0.13299 50:0.0926277 51:0.248465 52:0.204349 53:0.115525 54:0.21094 55:-0.0833131 56:0.32759 57:0.320065 58:0.17597 59:0.0817573 60:0.0947402 61:0.240262 62:-0.0792657 63:-0.0714298 
0.359379837499172 0:0.105979 1:0.314172 2:-0.0817032 3:0.052623 4:0.175933 5:0.73124 6:0.427993 7:0.485357 8:0.349479 9:-0.300986 10:-0.492827 11:-0.956436 12:0.288323 13:0.147068 14:0.599266 15:-0.399643 16:-0.124827 17:0.844987 18:-0.436296 19:-0.5473 20:-0.133828 21:-0.204399 22:-0.679989 23:0.103653 24:-0.154626 25:0.67045 26:0.134315 27:0.0320746 28:0.390225 29:-0.057112 30:-0.0358137 31:-0.507597 32:-0.623855 33:0.248807 34:0.0778531 35:0.237947 36:-0.524781 37:-0.156838 38:-0.267759 39:0.269038 40:0.276554 41:0.072931 42:-0.281574 43:-0.609684 44:-0.0559081 45:-0.365483 46:-0.0674233 47:0.390314 48:-0.551044 49:-0.289265 50:-0.101248 51:-0.138038 52:-0.131484 53:-0.153589 54:-0.186019 55:-0.385693 56:-0.403118 57:-0.247985 58:-0.143016 59:-0.327928 60:-0.237717 61:-0.241254 62:-0.281727 63:-0.431866 
0.3589498384175274 0:-0.222631 1:0.0170643 2:-0.38877 3:-0.438219 4:-0.56901 5:-0.141983 6:-0.292761 7:0.389515 8:0.241083 9:-0.329527 10:-0.205442 11:-0.160216 12:-0.310729 13:-0.0184264 14:0.617014 15:0.109284 16:-0.346625 17:-0.300251 18:0.107969 19:0.11245 20:0.946921 21:-0.309146 22:-0.0556482 23:-0.462736 24:0.73884 25:0.37545 26:-0.642716 27:0.293081 28:0.496996 29:0.193553 30:0.406632 31:-0.167636 32:-0.212629 33:0.0294194 34:0.0361326 35:-0.142982 36:-0.418966 37:-0.297308 38:-0.10122 39:0.138855 40:0.0771844 41:0.196831 42:-0.0170635 43:0.335155 44:0.0435848 45:-0.0692707 46:0.24163 47:0.131908 48:-0.306839 49:-0.0302668 50:0.232978 51:0.0521417 52:-0.00645033 53:0.185366 54:0.217745 55:0.172134 56:0.175476 57:0.152032 58:0.256179 59:0.109321 60:0.213092 61:0.213172 62:-0.0184763 63:0.050232 
0.3591855679545178 0:-0.191787 1:0.180633 2:-0.165581 3:-0.232437 4:-0.315155 5:0.100059 6:0.0174081 7:0.310505 8:0.43247 9:-0.109094 10:0.128244 11:-0.35397 12:-0.00516005 13:-0.470881 14:0.431852 15:0.341831 16:-0.538822 17:-0.321766 18:-0.13049 19:-0.324268 20:0.290016 21:-0.136369 22:-0.376444 23:-0.0364252 24:0.254558 25:0.392944 26:-0.0258279 27:-0.109531 28:0.555091 29:-0.0449515 30:0.122433 31:-0.0647702 32:-0.464042 33:-0.166785 34:0.139715 35:0.0900524 36:-0.283455 37:-0.0413272 38:-0.0360355 39:-0.0242403 40:0.127348 41:0.079917 42:0.0967236 43:0.278087 44:-0.156731 45:-0.271337 46:0.117148 47:0.203105 48:-0.181614 49:-0.141062 50:0.0628449 51:-0.101734 52:-0.0597344 53:-0.0371979 54:0.0217794 55:-0.278668 56:-0.124643 57:-0.101127 58:-0.050499 59:-0.106709 60:-0.0644276 61:-0.0415288 62:-0.205781 63:-0.208797 
0.3595316876530272 0:0.0544019 1:0.0821643 2:-0.2391 3:-0.429409 4:-0.335959 5:-0.0644298 6:-0.25967 7:-0.0605584 8:0.0861148 9:0.0464894 10:-0.413336 11:-0.257693 12:-0.229133 13:-0.492901 14:0.487694 15:0.145984 16:-0.392823 17:-0.0120884 18:-0.0294625 19:-0.59207 20:0.357442 21:-0.474437 22:-0.155255 23:0.243161 24:0.385457 25:0.342313 26:-0.304458 27:-0.0614892 28:0.0198749 29:0.0819284 30:0.213249 31:-0.347408 32:-0.0816605 33:-0.0086584 34:0.425718 35:0.0486693 36:-0.31804 37:-0.260793 38:-0.128387 39:-0.291181 40:-0.00131118 41:0.0283514 42:-0.268028 43:0.312511 44:-0.14646 45:-0.541458 46:0.209961 47:-0.015463 48:-0.125398 49:-0.0476952 50:0.176359 51:-0.0509049 52:-0.149643 53:-0.0162111 54:-0.05058 55:-0.230686 56:-0.137213 57:-0.0907773 58:-0.0534707 59:-0.225515 60:-0.117557 61:-0.0659148 62:-0.138107 63:-0.273849 
0.3598800342717101 0:0.0150849 1:0.0989802 2:0.0965525 3:-0.224636 4:-0.347177 5:0.315744 6:0.386054 7:-0.0215629 8:0.481054 9:-0.677547 10:0.255542 11:-0.230627 12:-0.148686 13:-0.353645 14:0.789997 15:-0.124921 16:-0.303214 17:0.081501 18:-0.458487 19:0.110204 20:0.173617 21:-0.115066 22:0.0739285 23:0.00903245 24:0.0609002 25:0.514556 26:-0.262173 27:-0.204428 28:0.154689 29:-0.271129 30:0.363768 31:-0.202744 32:-0.583122 33:0.165742 34:0.314499 35:0.00123802 36:-0.454317 37:0.0299214 38:-0.218798 39:0.0914461 40:0.145219 41:-0.0346163 42:0.00487573 43:0.392673 44:-0.245993 45:-0.461815 46:0.251658 47:0.0817763 48:-0.10373 49:0.113508 50:0.19811 51:0.209537 52:-0.0411229 53:0.0324941 54:0.134919 55:0.044687 56:-0.0521845 57:0.116899 58:0.186837 59:0.0195411 60:0.154733 61:0.189577 62:-0.0332243 63:-0.11085 
0.3543929066956398 0:-0.030924 1:0.196662 2:-0.123025 3:-0.243039 4:-0.236441 5:0.214673 6:0.136605 7:-0.168029 8:0.278437 9:-0.361458 10:-0.427754 11:-0.117853 12:0.0556773 13:-0.0562404 14:0.545939 15:-0.104833 16:-0.0640579 17:0.351808 18:-0.110487 19:-0.176323 20:0.0783218 21:-0.139925 22:-0.162273 23:-0.0764339 24:0.307286 25:0.605822 26:-0.398221 27:0.0485793 28:0.447081 29:-0.135785 30:0.388831 31:-0.266882 32:-0.0362502 33:-0.0948548 34:0.0747585 35:-0.0427334 36:-0.252108 37:-0.244605 38:-0.12783 39:0.0330798 40:0.150874 41:0.161447 42:-0.19709 43:0.509009 44:-0.105543 45:-0.460964 46:0.107965 47:0.186558 48:-0.112369 49:0.0252431 50:0.0223455 51:-0.00715834 52:-0.0454923 53:0.0673578 54:-0.0510346 55:-0.207536 56:-0.148119 57:-0.0340845 58:-0.0559106 59:-0.192448 60:-0.0132451 61:0.0130935 62:-0.178751 63:-0.134481 
0.3600563794846812 0:0.08937 1:0.0207912 2:-0.263453 3:-0.482397 4:-0.336069 5:-0.0131102 6:0.530794 7:0.0730995 8:-0.0650894 9:-0.176509 10:-0.386323 11:0.0837681 12:0.00519076 13:-0.277857 14:0.570395 15:-0.0391109 16:-0.32447 17:0.0178898 18:0.0130613 19:-0.085846 20:0.142495 21:-0.260405 22:-0.227193 23:0.0594563 24:0.518917 25:0.520045 26:-0.0438307 27:-0.0166652 28:0.210817 29:-0.248031 30:-0.00300232 31:-0.112394 32:-0.0452154 33:-0.14581 34:0.152717 35:0.0743865 36:-0.415928 37:-0.124582 38:-0.181827 39:-0.151824 40:0.179814 41:0.00419243 42:-0.245623 43:0.177912 44:-0.214494 45:-0.450404 46:-0.0381832 47:-0.0584632 48:-0.396047 49:-0.136712 50:-0.0604179 51:-0.201963 52:-0.229432 53:-0.117578 54:-0.200952 55:-0.266434 56:-0.31371 57:-0.222527 58:-0.169174 59:-0.422422 60:-0.279472 61:-0.190741 62:-0.344479 63:-0.35023 
0.359439513615021 0:-0.0383702 1:0.0426327 2:-0.340703 3:-0.493795 4:-0.221162 5:0.416783 6:-0.0206219 7:0.0503053 8:0.126804 9:-0.220067 10:-0.129332 11:-0.0136344 12:0.0988784 13:-0.235381 14:0.441783 15:-0.0117055 16:0.0101566 17:-0.0882524 18:-0.0668705 19:-0.0941116 20:0.25654 21:-0.082771 22:-0.182237 23:0.00994345 24:0.316449 25:0.481716 26:-0.271546 27:-0.04186 28:0.351077 29:-0.025163 30:0.154227 31:-0.276011 32:-0.141298 33:0.0891287 34:0.125298 35:-0.0525872 36:-0.280017 37:0.126375 38:0.0157168 39:-0.0776213 40:0.233597 41:0.372903 42:-0.0774685 43:0.365373 44:-0.0125089 45:-0.109933 46:0.185672 47:0.412476 48:-0.0442309 49:0.26317 50:0.282642 51:0.146759 52:0.152386 53:0.241159 54:0.313497 55:0.119552 56:0.0939946 57:0.219212 58:0.287307 59:0.140978 60:0.234848 61:0.284729 62:0.117347 63:0.0732134 
0.374515881565638 0:-0.104696 1:0.155217 2:-0.432621 3:-0.386444 4:-0.330054 5:-0.0931601 6:0.103926 7:-0.0618548 8:0.22321 9:-0.0698576 10:0.00232032 11:0.106629 12:-0.0966051 13:-0.220819 14:0.370972 15:-0.0427305 16:-0.0651203 17:0.0876984 18:-0.0376248 19:-0.181249 20:0.108937 21:-0.192548 22:-0.277789 23:0.00518964 24:0.382957 25:0.504698 26:-0.349829 27:-0.00574758 28:0.457447 29:0.213035 30:0.148312 31:-0.131929 32:-0.141688 33:-0.028844 34:0.14814 35:-0.0519955 36:-0.361756 37:0.0514449 38:-0.174903 39:-0.226297 40:0.0278133 41:0.172485 42:-0.198425 43:0.00328028 44:-0.331226 45:-0.50831 46:0.0337011 47:-0.285367 48:-0.355118 49:-0.187712 50:-0.118475 51:-0.239802 52:-0.17588 53:-0.138259 54:-0.226136 55:-0.370408 56:-0.282416 57:-0.230524 58:-0.218248 59:-0.397087 60:-0.299137 61:-0.199101 62:-0.389267 63:-0.385821 
0.3560089615825869 0:-0.0677857 1:0.109201 2:-0.308429 3:-0.167766 4:-0.260814 5:0.0810221 6:-0.0507018 7:-0.175366 8:0.13524 9:-0.404353 10:0.0214111 11:0.0840114 12:-0.0347904 13:-0.184512 14:0.426496 15:-0.000447948 16:-0.157423 17:0.14011 18:-0.180919 19:-0.303675 20:-0.0130797 21:-0.286337 22:-0.256264 23:0.0334681 24:0.254763 25:0.415493 26:-0.217744 27:-0.20574 28:0.565129 29:-0.0521013 30:0.213412 31:-0.1377 32:-0.292925 33:0.0956436 34:0.108517 35:-0.226598 36:-0.373911 37:0.0568747 38:0.016242 39:-0.0637457 40:0.0991282 41:0.209563 42:-0.351776 43:0.204242 44:-0.163418 45:-0.467632 46:0.0391184 47:0.0607363 48:-0.195542 49:0.0147949 50:0.041411 51:-0.0571391 52:-0.118137 53:-0.0336529 54:0.0338473 55:-0.116553 56:-0.132206 57:-0.0513293 58:0.00844949 59:-0.151293 60:-0.100263 61:-0.00889807 62:-0.177901 63:-0.245942 
8 0:-0.0390763 1:0.0660672 2:-0.290426 3:-0.400667 4:-0.478512 5:-0.0477895 6:0.171574 7:0.0157975 8:0.13525 9:-0.162745 10:-0.216518 11:-0.0423298 12:0.0448153 13:-0.232085 14:0.405883 15:-0.0162359 16:-0.248614 17:0.0224224 18:-0.0291109 19:-0.201373 20:0.199235 21:-0.165573 22:-0.204585 23:0.0637497 24:0.30756 25:0.46469 26:-0.206632 27:-0.0268675 28:0.390822 29:-0.0261233 30:0.204179 31:-0.198641 32:-0.19275 33:0.053969 34:0.0977131 35:0.0117257 36:-0.300268 37:-0.0383643 38:-0.0625064 39:-0.0397427 40:0.111406 41:0.192348 42:-0.144233 43:0.284742 44:-0.134551 45:-0.301211 46:0.129041 47:0.0557201 48:-0.198811 49:0.0593963 50:0.0966988 51:-0.00808022 52:-0.05834 53:0.0255701 54:0.0355958 55:-0.106417 56:-0.0839165 57:-0.00942592 58:0.0434365 59:-0.154103 60:-0.0407762 61:0.0157103 62:-0.14521 63:-0.17864 
8 0:-0.0872998 1:0.0924676 2:-0.311144 3:-0.398162 4:-0.398196 5:-0.124548 6:0.0868696 7:0.0177996 8:0.127003 9:-0.160795 10:-0.193941 11:-0.0300965 12:0.0516081 13:-0.208888 14:0.425403 15:-0.028582 16:-0.260139 17:0.0115606 18:-0.00419391 19:-0.199565 20:0.216191 21:-0.148838 22:-0.196751 23:0.0761084 24:0.321617 25:0.460863 26:-0.226964 27:-0.0308626 28:0.384223 29:-0.0231791 30:0.216961 31:-0.194972 32:-0.176964 33:0.0768707 34:0.125164 35:0.0379241 36:-0.325504 37:-0.0342916 38:-0.0236804 39:-0.00502296 40:0.144794 41:0.207246 42:-0.13201 43:0.321914 44:-0.137171 45:-0.284629 46:0.158519 47:0.103726 48:-0.138525 49:0.0753494 50:0.105577 51:0.0510891 52:-0.0125792 53:0.0436095 54:0.0665468 55:-0.0346687 56:-0.0556663 57:0.0147826 58:0.0802908 59:-0.104406 60:0.00334699 61:0.0491383 62:-0.115408 63:-0.137294 
0.359191596737583 0:-0.772411 1:-0.599812 2:-0.569499 3:-0.428174 4:-0.350286 5:-0.00693788 6:0.191883 7:0.077298 8:0.16088 9:-0.125141 10:-0.156888 11:-0.0394533 12:0.0500327 13:-0.250488 14:0.406475 15:-0.0333997 16:-0.269913 17:0.0115699 18:-0.0434932 19:-0.22651 20:0.166963 21:-0.200896 22:-0.24885 23:0.0161291 24:0.263047 25:0.409452 26:-0.326169 27:-0.0953649 28:0.264633 29:-0.177045 30:0.00320621 31:-0.387997 32:-0.435977 33:-0.150775 34:-0.0848498 35:-0.388253 36:-0.614572 37:-0.394656 38:-0.398006 39:-0.515327 40:-0.338019 41:-0.215248 42:-0.605546 43:-0.385277 44:-0.633699 45:-0.809259 46:-0.361474 47:-0.827701 48:-1 49:-0.618506 50:-0.511856 51:-0.637124 52:-0.64346 53:-0.570667 54:-0.730744 55:-1 56:-0.822977 57:-0.735038 58:-0.734468 59:-1 60:-0.808142 61:-0.664709 62:-0.833579 63:-0.851169 
0.3590992427891747 0:0.489858 1:0.0362571 2:-0.295727 3:-0.403424 4:-0.141293 5:-0.602162 6:-0.0135918 7:-1 8:0.0700503 9:-0.303745 10:-0.283049 11:0.0460249 12:0.26566 13:-0.812132 14:0.576687 15:0.151119 16:-0.140258 17:1 18:0.364043 19:1 20:0.919254 21:-0.473747 22:-0.725919 23:0.160698 24:0.998404 25:0.244381 26:-0.414063 27:0.100197 28:0.0110014 29:-0.412983 30:0.419606 31:-0.504554 32:-0.212239 33:0.66542 34:-0.34193 35:-0.0194843 36:-0.157622 37:0.574357 38:0.0047432 39:-0.240996 40:0.816846 41:0.745243 42:0.166556 43:0.0524684 44:0.299257 45:0.78585 46:0.804459 47:0.602225 48:0.41956 49:0.885375 50:0.525252 51:0.278882 52:0.366072 53:0.526208 54:0.492505 55:0.509277 56:0.430645 57:0.335555 58:1 59:0.613632 60:0.645293 61:0.715246 62:0.618798 63:0.617175 
0.3598362918478892 0:0.11503 1:0.105271 2:-0.39898 3:-0.233947 4:-0.636219 5:0.00543025 6:0.0885066 7:0.140162 8:0.238882 9:-0.0705469 10:-0.646838 11:0.557584 12:0.0706678 13:-0.390926 14:-0.338533 15:0.480498 16:-0.238475 17:-0.212255 18:0.651155 19:-0.0703181 20:0.661914 21:-0.0783081 22:-0.570001 23:0.43657 24:1 25:0.783696 26:-1 27:-0.258542 28:0.332035 29:-0.436937 30:0.249318 31:-1 32:-1 33:-0.0423907 34:-0.138277 35:0.122899 36:-0.561562 37:-0.0376533 38:-0.421406 39:-0.140616 40:0.138609 41:-0.370243 42:-0.245213 43:0.028276 44:-0.602927 45:-1 46:-0.119602 47:-0.3274 48:-0.843403 49:-0.399146 50:-0.244876 51:-0.428808 52:-0.720668 53:-0.269126 54:-0.653321 55:-0.559989 56:-0.912977 57:-0.606871 58:-0.599264 59:-0.880168 60:-0.737721 61:-0.442853 62:-0.774412 63:-0.696865 
0.3598362918478906 0:-0.108114 1:0.0539603 2:-0.289687 3:-0.313975 4:-0.382445 5:0.325058 6:0.0469878 7:0.0166535 8:0.234371 9:0.22037 10:-0.183002 11:-0.67249 12:-0.493301 13:-0.592192 14:0.402216 15:0.20322 16:-0.0817178 17:0.259639 18:-0.121657 19:0.361378 20:0.580386 21:-0.419029 22:-0.260694 23:0.483146 24:-0.125891 25:0.461036 26:-0.723693 27:-0.209063 28:0.323622 29:0.291927 30:0.403474 31:-0.378311 32:-0.32177 33:-0.0823399 34:0.204169 35:0.128938 36:-0.22172 37:0.232621 38:-0.396421 39:0.0768588 40:-0.242461 41:0.266467 42:-0.527616 43:0.0956324 44:-0.21554 45:-0.958018 46:-0.282362 47:-0.585319 48:-0.748023 49:-0.278471 50:-0.188884 51:-0.423466 52:-0.769655 53:-0.393666 54:-0.469703 55:-0.716829 56:-0.604288 57:-0.598658 58:-0.430578 59:-0.645398 60:-0.483779 61:-0.399516 62:-0.523346 63:-0.605623 
0.3589750211291865 0:-0.1197 1:0.0484687 2:-0.233374 3:-0.610581 4:-0.776693 5:-0.112363 6:0.317965 7:0.314161 8:0.249921 9:-1 10:-0.0602339 11:-0.139388 12:0.236151 13:-0.354185 14:0.318304 15:0.0074594 16:-0.54356 17:0.462819 18:0.110866 19:-0.386732 20:0.581395 21:0.498594 22:-0.0148234 23:-0.237556 24:0.708805 25:0.397199 26:0.259519 27:0.248611 28:0.876602 29:0.242464 30:0.604572 31:-0.158811 32:-0.0855584 33:0.234128 34:0.0645741 35:0.590888 36:-0.487215 37:0.35652 38:-0.251351 39:0.167309 40:-0.0405449 41:-0.0843121 42:-0.191533 43:0.255711 44:-0.271766 45:-0.541613 46:0.177808 47:0.1685 48:-0.226334 49:-0.0444153 50:0.193238 51:-0.17337 52:-0.126556 53:0.194944 54:0.104029 55:-0.0579025 56:-0.121952 57:-0.0359653 58:-0.0104072 59:-0.13482 60:-0.0488277 61:-0.137057 62:-0.0631829 63:-0.109443 
0.3589336152717545 0:-0.297718 1:0.143122 2:-0.36884 3:-0.217836 4:-0.483022 5:-0.139089 6:0.156597 7:0.0416569 8:-0.305538 9:0.147548 10:-0.467078 11:0.200042 12:-0.0840255 13:-0.041494 14:0.607155 15:0.0609592 16:-0.273607 17:0.467924 18:0.0254079 19:-0.105848 20:0.0020859 21:-0.209435 22:-0.360769 23:0.119139 24:0.219082 25:0.46169 26:-0.239736 27:-0.112932 28:0.224013 29:-0.247207 30:0.225549 31:-0.370786 32:-0.349445 33:0.152334 34:-0.0625966 35:-0.182509 36:-0.17067 37:-0.186326 38:-0.104243 39:-0.141741 40:-0.0424169 41:0.221573 42:-0.141743 43:-0.00093133 44:-0.441074 45:-0.425145 46:-0.0161704 47:-0.141552 48:-0.397018 49:-0.0332625 50:-0.167786 51:-0.124367 52:-0.0713596 53:-0.0991173 54:-0.0275746 55:-0.299888 56:-0.247367 57:-0.212887 58:-0.186341 59:-0.406633 60:-0.243928 61:-0.210182 62:-0.305563 63:-0.319437 
0.3596851151519773 0:0.0149244 1:0.173767 2:-0.296815 3:-0.407337 4:-0.710028 5:-0.0574954 6:0.0997536 7:0.149884 8:0.0657916 9:-0.0252933 10:-0.57999 11:0.152355 12:0.0619636 13:-0.386601 14:0.421142 15:0.126084 16:-0.0787232 17:0.130793 18:-0.0899166 19:-0.384865 20:0.177688 21:0.0788892 22:-0.427672 23:0.111112 24:0.333419 25:0.5188 26:-0.419176 27:-0.167968 28:0.347353 29:-0.244336 30:0.173775 31:-0.240487 32:-0.286494 33:0.185651 34:0.0612206 35:-0.0525251 36:-0.50941 37:0.203917 38:0.0323668 39:-0.118158 40:0.294779 41:0.175708 42:-0.334253 43:0.378583 44:0.0827888 45:-0.404332 46:-0.00356659 47:0.286341 48:-0.200807 49:-0.199025 50:0.155613 51:0.0278194 52:-0.141124 53:-0.0413822 54:-0.085302 55:-0.193801 56:-0.121393 57:-0.0904253 58:-0.043569 59:-0.356044 60:-0.084683 61:-0.0631431 62:-0.261746 63:-0.275603 
0.3652101631652802 0:-0.107713 1:0.0408152 2:-0.419848 3:-0.6036 4:-0.558514 5:-0.0163336 6:0.114172 7:0.249124 8:0.492354 9:-0.289259 10:-0.241909 11:-0.14203 12:0.0354016 13:-0.311735 14:0.663995 15:0.0321434 16:-0.165606 17:-0.289369 18:0.106571 19:-0.319432 20:0.132943 21:-0.1648 22:-0.295854 23:0.216838 24:0.277983 25:0.36795 26:-0.166588 27:0.0400428 28:0.476419 29:0.0227836 30:0.199726 31:-0.226573 32:0.0754239 33:0.252445 34:0.124769 35:0.10092 36:-0.349463 37:0.215185 38:-0.10877 39:0.118867 40:0.171694 41:0.162854 42:-0.292029 43:0.378241 44:-0.118456 45:-0.306729 46:0.115009 47:0.212379 48:-0.193953 49:0.0106132 50:0.137076 51:0.00979152 52:0.00412024 53:-0.0113334 54:0.0901334 55:-0.103154 56:0.0784536 57:0.0734406 58:0.0431001 59:-0.0793448 60:0.0506254 61:0.0498054 62:-0.0666001 63:-0.0977878 
0.3547458409474986 0:-0.124322 1:0.507002 2:-0.458644 3:-0.299026 4:-0.149275 5:0.000265641 6:-0.192382 7:-0.276744 8:0.207957 9:-0.351652 10:-0.182782 11:0.0445687 12:-0.0268506 13:-0.297106 14:0.282136 15:-0.143993 16:-0.157069 17:0.282087 18:-0.0202443 19:-0.399481 20:0.296588 21:-0.259289 22:-0.232154 23:0.165916 24:0.337265 25:0.486014 26:-0.0693972 27:-0.0430459 28:0.380034 29:0.102224 30:0.180631 31:-0.230285 32:-0.210485 33:-0.0951176 34:0.284152 35:-0.130377 36:-0.419353 37:0.0283226 38:-0.0978489 39:-0.249509 40:0.113653 41:0.310283 42:-0.175397 43:0.267534 44:-0.138135 45:-0.315306 46:0.129636 47:0.0342819 48:-0.319015 49:-0.000769611 50:0.110185 51:-0.0190848 52:-0.0714644 53:0.0608456 54:-0.0329839 55:-0.0792331 56:-0.0269297 57:0.0163202 58:-0.00784459 59:-0.188195 60:-0.0696064 61:0.0192864 62:-0.156542 63:-0.179829 
0.3757998108389527 0:-0.0676573 1:0.0657941 2:-0.427495 3:-0.360987 4:-0.560463 5:-0.08585 6:0.234304 7:-0.249269 8:0.013195 9:-0.0905548 10:-0.421108 11:-0.100698 12:0.0778723 13:-0.420162 14:0.404745 15:-0.0132626 16:-0.177049 17:0.0495983 18:-0.01047 19:-0.0372937 20:0.15698 21:-0.169992 22:-0.194101 23:0.081798 24:0.205574 25:0.42155 26:-0.223094 27:0.0446024 28:0.326797 29:0.0350204 30:0.306609 31:-0.165603 32:-0.175404 33:0.145862 34:0.211747 35:0.156222 36:-0.338353 37:0.0402676 38:0.083941 39:0.0236952 40:0.277356 41:0.27353 42:-0.0885627 43:0.472421 44:0.0389166 45:-0.191664 46:0.204776 47:0.214431 48:-0.0229113 49:0.190762 50:0.1856 51:0.183557 52:0.085282 53:0.149962 54:0.20627 55:0.0884528 56:0.127732 57:0.158657 58:0.233647 59:0.0161974 60:0.125968 61:0.140887 62:-0.0040598 63:-0.0402731 
0.3312665656328033 0:-0.0827904 1:0.231877 2:-0.203636 3:-0.299012 4:-0.0774432 5:0.0311266 6:-0.030835 7:-0.000542625 8:0.255961 9:-0.155904 10:-0.188613 11:-0.0160782 12:0.227092 13:-0.182631 14:0.442057 15:0.102766 16:-0.184079 17:0.128544 18:-0.0125888 19:-0.135202 20:0.368456 21:-0.255422 22:-0.247905 23:-0.13297 24:0.422576 25:0.412986 26:-0.193035 27:-0.0827721 28:0.414331 29:-0.0296637 30:0.411554 31:-0.115671 32:-0.188852 33:0.122802 34:0.123794 35:-0.0502984 36:-0.281121 37:0.00348459 38:-0.030507 39:-0.140495 40:0.0737315 41:0.211858 42:-0.0941942 43:0.543227 44:-0.102722 45:-0.299907 46:0.103405 47:0.0461969 48:-0.0435047 49:0.0999333 50:0.147413 51:0.123464 52:0.0243192 53:0.111136 54:0.116841 55:-0.0421137 56:-0.023381 57:0.05895 58:0.170362 59:-0.00863601 60:0.0930324 61:0.129979 62:-0.0613271 63:-0.100157 
0.3923314149386231 0:-0.0112655 1:-0.0388504 2:-0.357443 3:-0.34203 4:-0.283122 5:-0.0807576 6:0.0187114 7:-0.136555 8:0.029428 9:-0.104502 10:-0.251434 11:-0.0891902 12:0.0894967 13:-0.248849 14:0.574032 15:-0.184521 16:-0.227857 17:0.105299 18:0.0593119 19:-0.308807 20:0.155289 21:-0.267158 22:-0.265626 23:0.0488506 24:0.369243 25:0.488515 26:-0.29837 27:-0.0797448 28:0.388469 29:-0.079308 30:0.377854 31:-0.12615 32:-0.256285 33:0.145356 34:0.0695808 35:-0.0775634 36:-0.466257 37:-0.0330875 38:-0.0620264 39:-0.257754 40:0.0950765 41:0.193835 42:-0.178361 43:0.29105 44:-0.127642 45:-0.367977 46:0.112039 47:-0.170897 48:-0.229891 49:-0.164146 50:0.0696704 51:-0.0221906 52:-0.153325 53:-0.039877 54:-0.0714052 55:-0.2397 56:-0.22853 57:-0.123241 58:-0.0614693 59:-0.29586 60:-0.118196 61:-0.102591 62:-0.242942 63:-0.329138 
0.3781729759288752 0:-0.0740444 1:0.117363 2:-0.29606 3:-0.308504 4:-0.404507 5:-0.0495763 6:0.395988 7:-0.156567 8:0.322915 9:-0.214198 10:-0.157834 11:-0.248034 12:-0.0207564 13:-0.290761 14:0.386571 15:0.0612877 16:-0.336496 17:0.25837 18:-0.186594 19:-0.000801343 20:0.110908 21:-0.168535 22:-0.227311 23:0.0461406 24:0.255903 25:0.4314 26:-0.103511 27:-0.174028 28:0.374526 29:0.00306814 30:0.218308 31:-0.216606 32:-0.235042 33:0.026093 34:0.0938129 35:0.171735 36:-0.362217 37:-0.0480246 38:-0.0658615 39:-0.118442 40:0.0269617 41:0.259618 42:-0.0334908 43:0.475821 44:-0.0630489 45:-0.272011 46:0.0875245 47:0.184267 48:-0.0985909 49:0.0474261 50:0.0765869 51:-0.0215382 52:-0.0555387 53:0.0825125 54:0.0495509 55:-0.0814828 56:-0.0810034 57:-0.0155505 58:0.0396381 59:-0.127251 60:0.00162103 61:0.0274005 62:-0.125571 63:-0.178994 
0.2911038359680325 0:-0.0943287 1:0.0130651 2:-0.482653 3:-0.374909 4:-0.253452 5:-0.184587 6:0.0164156 7:-0.0638943 8:0.0625561 9:-0.271142 10:-0.0663249 11:-0.0509304 12:-0.0252062 13:-0.301235 14:0.322495 15:-0.0188153 16:-0.125578 17:0.0253744 18:0.0156662 19:0.0336203 20:0.318941 21:-0.234394 22:-0.200244 23:0.0692507 24:0.315485 25:0.434375 26:-0.107297 27:0.0746875 28:0.477449 29:0.01932 30:0.311956 31:-0.150203 32:-0.168193 33:0.0555602 34:0.111189 35:0.0596053 36:-0.335086 37:-0.00489183 38:0.00139856 39:0.00472663 40:0.214431 41:0.305545 42:-0.124625 43:0.261131 44:-0.0708979 45:-0.231776 46:0.174691 47:0.180922 48:-0.0945981 49:0.0441159 50:0.178912 51:-0.00342807 52:-0.0496997 53:0.0797197 54:0.118953 55:-0.070057 56:-0.0151219 57:0.0447842 58:0.101803 59:-0.0865209 60:0.00239778 61:0.058601 62:-0.0967055 63:-0.132271 
1.27605297969583 0:-0.082341 1:0.182585 2:-0.218758 3:-0.46635 4:-0.405329 5:-0.102687 6:0.0677124 7:0.0880488 8:0.0491036 9:0.021936 10:-0.154839 11:0.0275933 12:0.138075 13:-0.14037 14:0.350634 15:-0.0116931 16:-0.211566 17:0.0399885 18:-0.10003 19:-0.159285 20:0.358116 21:-0.241906 22:-0.262771 23:0.0389901 24:0.358789 25:0.378172 26:-0.216203 27:-0.0371282 28:0.367124 29:-0.00442603 30:0.178894 31:-0.194432 32:-0.157864 33:0.0531362 34:0.0518194 35:0.0586633 36:-0.400976 37:-0.0287153 38:0.0137111 39:-0.044464 40:0.1297 41:0.186393 42:-0.0886532 43:0.351965 44:-0.0788591 45:-0.26839 46:0.103805 47:0.137823 48:-0.180734 49:0.10311 50:0.116587 51:-0.00413452 52:-0.0242368 53:0.0295475 54:0.0684312 55:-0.0336307 56:-0.0218863 57:0.00158554 58:0.048056 59:-0.148122 60:-0.0228415 61:0.0617379 62:-0.0932479 63:-0.119612 
0.4239225742853631 0:-0.108435 1:0.122084 2:-0.350676 3:-0.377788 4:-0.653336 5:0.0449376 6:0.120572 7:-0.21884 8:0.19437 9:-0.0940922 10:-0.276289 11:-0.0373956 12:0.0581683 13:-0.27856 14:0.448476 15:0.0340151 16:-0.329395 17:0.109969 18:-0.042441 19:-0.298124 20:0.19905 21:-0.173019 22:-0.224264 23:0.0471434 24:0.236335 25:0.496524 26:-0.293905 27:-0.0206654 28:0.341052 29:-0.0570082 30:0.0464004 31:-0.278987 32:-0.149094 33:-0.0854355 34:0.0792267 35:0.024536 36:-0.378743 37:-0.0263903 38:-0.077229 39:-0.0895562 40:-0.00158976 41:0.192201 42:-0.161844 43:0.297428 44:-0.182812 45:-0.33101 46:0.103732 47:-0.0239124 48:-0.297163 49:-0.0580533 50:0.0513892 51:-0.00417403 52:-0.11339 53:0.0219424 54:-0.0674251 55:-0.155894 56:-0.0716149 57:-0.0215881 58:0.040252 59:-0.205509 60:-0.0892603 61:-0.0231141 62:-0.17477 63:-0.214813 
0.5524332413532385 0:-0.0840261 1:0.115669 2:-0.478281 3:-0.32399 4:-0.325132 5:-0.326625 6:-0.00445504 7:-0.138929 8:0.00658082 9:-0.024634 10:-0.179609 11:0.0233249 12:0.0849183 13:-0.311641 14:0.652384 15:-0.0136823 16:-0.352942 17:0.109637 18:-0.026495 19:-0.307037 20:0.00262106 21:-0.212993 22:-0.292565 23:0.123788 24:0.324762 25:0.384786 26:-0.26261 27:0.0130872 28:0.25293 29:-0.0246769 30:0.120998 31:-0.305821 32:-0.153576 33:0.0899331 34:0.0498339 35:0.0478003 36:-0.417457 37:-0.0184201 38:-0.0346725 39:-0.0691799 40:0.0385981 41:0.168791 42:-0.200354 43:0.227718 44:-0.181295 45:-0.411714 46:0.0334316 47:-0.0818987 48:-0.302346 49:-0.011081 50:0.0397035 51:-0.0675598 52:-0.0973296 53:-0.0740964 54:-0.0586941 55:-0.177715 56:-0.184977 57:-0.106302 58:-0.0213593 59:-0.189429 60:-0.0971667 61:-0.0538829 62:-0.213408 63:-0.250619 
0.6480260457128395 0:-0.00771897 1:0.132983 2:-0.246427 3:-0.380002 4:-0.40043 5:-0.0231752 6:0.0867172 7:0.125502 8:0.0562767 9:-0.169115 10:-0.18266 11:-0.0408792 12:0.0170208 13:-0.198065 14:0.504187 15:-0.133933 16:-0.188556 17:0.0257074 18:-0.115114 19:-0.223635 20:0.156924 21:-0.192473 22:-0.237684 23:0.0928893 24:0.275114 25:0.396337 26:-0.278755 27:-0.0547951 28:0.243888 29:-0.109655 30:0.159491 31:-0.308691 32:-0.357825 33:0.0269919 34:0.077145 35:0.0230059 36:-0.413608 37:-0.10756 38:-0.145864 39:-0.104468 40:-0.0216042 41:0.0977947 42:-0.202677 43:0.0478059 44:-0.199717 45:-0.369489 46:0.0433245 47:-0.154849 48:-0.42018 49:-0.164337 50:-0.065688 51:-0.153348 52:-0.241545 53:-0.163759 54:-0.173774 55:-0.31853 56:-0.302616 57:-0.19378 58:-0.164792 59:-0.374348 60:-0.290241 61:-0.166664 62:-0.328738 63:-0.381161 
5.406852138856685 0:-0.0846038 1:0.0794504 2:-0.32662 3:-0.333617 4:-0.484889 5:0.0154645 6:0.105249 7:0.00905252 8:0.0773314 9:-0.160735 10:-0.127529 11:-0.0464299 12:0.0765831 13:-0.271377 14:0.43529 15:-0.0306849 16:-0.279651 17:0.0520829 18:-0.0204793 19:-0.223605 20:0.207656 21:-0.187652 22:-0.213698 23:0.0562166 24:0.36655 25:0.452063 26:-0.260895 27:-0.00584484 28:0.38105 29:-0.00136345 30:0.222776 31:-0.220637 32:-0.182226 33:0.0246272 34:0.12478 35:0.0320401 36:-0.339105 37:-0.0171037 38:-0.0407657 39:-0.0720329 40:0.100551 41:0.248898 42:-0.146326 43:0.321084 44:-0.11501 45:-0.30172 46:0.135656 47:-0.0140731 48:-0.184152 49:0.00962972 50:0.0863866 51:0.0033509 52:-0.0582882 53:0.0269246 54:0.0234256 55:-0.138072 56:-0.0757454 57:0.000559217 58:0.0626783 59:-0.159138 60:-0.0582277 61:-0.00644925 62:-0.161591 63:-0.194047 
6.920697855098199 0:-0.0894342 1:0.134154 2:-0.300946 3:-0.375502 4:-0.291207 5:-0.00738608 6:0.0579501 7:0.0094665 8:0.0830958 9:-0.172366 10:-0.12791 11:-0.0728009 12:0.0324481 13:-0.276818 14:0.416269 15:-0.0264739 16:-0.252835 17:0.0572733 18:-0.00834134 19:-0.201809 20:0.202635 21:-0.19043 22:-0.215924 23:0.0721572 24:0.329827 25:0.439023 26:-0.206652 27:-0.0380426 28:0.395333 29:-0.0240748 30:0.201482 31:-0.213797 32:-0.145001 33:0.0444442 34:0.103441 35:0.0238741 36:-0.305459 37:-0.0343704 38:-0.0314498 39:-0.0628674 40:0.0999111 41:0.185667 42:-0.134395 43:0.28283 44:-0.138945 45:-0.330956 46:0.11843 47:0.0162512 48:-0.18533 49:0.016602 50:0.103638 51:-0.0207066 52:-0.0531118 53:0.0332876 54:0.0338734 55:-0.153724 56:-0.0774351 57:-0.0136184 58:0.0410391 59:-0.160795 60:-0.0463319 61:-0.00371778 62:-0.171567 63:-0.196931 
0.3591320194058535 0:-0.600475 1:0.20757 2:0.122167 3:-0.428027 4:0.426308 5:0.566044 6:-0.296627 7:-0.666063 8:-0.0373169 9:-0.512086 10:0.109931 11:-0.0314356 12:0.367937 13:-0.587926 14:0.195705 15:0.511076 16:0.740112 17:0.805679 18:0.0228093 19:0.353355 20:-0.747356 21:-0.669234 22:-0.00812791 23:-0.35157 24:0.157067 25:0.224257 26:0.318365 27:-0.288622 28:-0.183476 29:0.0883446 30:0.165527 31:-0.501196 32:0.501657 33:-0.198562 34:0.600981 35:-0.471447 36:-0.405626 37:-0.577785 38:-0.362983 39:-0.542459 40:-0.0483575 41:0.438702 42:-0.446488 43:0.449686 44:-0.596543 45:-0.0727828 46:-0.143982 47:-0.130752 48:-0.250233 49:-0.0302708 50:-0.635772 51:-0.17618 52:0.22649 53:-0.426737 54:0.299391 55:0.0664693 56:0.229412 57:0.013541 58:0.01752 59:-0.677012 60:-0.739864 61:-0.538113 62:-0.638032 63:-0.787614 
0.3590675563110989 0:0.179286 1:0.0274 2:-0.607553 3:-0.0750124 4:-0.117146 5:0.588574 6:0.663183 7:0.430432 8:-0.0523319 9:-0.306776 10:0.376272 11:0.266006 12:0.243225 13:-0.393762 14:-0.147466 15:0.412861 16:-0.00333144 17:0.0180261 18:-0.217875 19:0.222838 20:-0.117682 21:-0.55574 22:0.00336979 23:-0.348856 24:0.379067 25:0.574273 26:-0.630413 27:0.0543681 28:0.541071 29:-0.439933 30:0.203366 31:-0.227115 32:-0.649776 33:-0.284098 34:-0.0266299 35:-0.128231 36:0.170682 37:0.0880062 38:-0.0532775 39:0.556644 40:-0.366704 41:0.250198 42:-0.27677 43:0.0633751 44:-0.186513 45:-0.301618 46:0.170477 47:-0.457453 48:0.124017 49:0.013443 50:0.0375683 51:0.221157 52:0.176694 53:-0.0287067 54:-0.0213763 55:0.140508 56:0.0343885 57:0.0463199 58:-0.106123 59:-0.119816 60:0.0265836 61:0.00617101 62:-0.177211 63:-0.141088 
0.359490881402115 0:-0.112013 1:0.204289 2:-0.211186 3:-0.570341 4:-0.322834 5:-0.156278 6:-0.2973 7:0.067893 8:0.342942 9:0.0852866 10:-0.309718 11:-0.063009 12:-0.0785591 13:-0.295465 14:0.829865 15:0.0960984 16:-0.294024 17:0.0943014 18:0.15621 19:-0.159525 20:0.0915194 21:0.117356 22:-0.430837 23:-0.00381658 24:0.131732 25:0.259173 26:-0.480223 27:-0.14485 28:0.356246 29:0.213904 30:-0.175612 31:-0.705531 32:-0.338141 33:-0.0693532 34:0.165794 35:-0.15102 36:-0.64315 37:0.15002 38:-0.34851 39:0.0375124 40:0.190651 41:0.426084 42:-0.035724 43:-0.146051 44:-0.129659 45:-0.203178 46:0.00750902 47:0.231536 48:-0.193399 49:0.122242 50:0.0512644 51:0.0136165 52:-0.086503 53:-0.00121285 54:0.243324 55:0.0573424 56:-0.117356 57:0.111081 58:0.180383 59:-0.00116903 60:0.0420378 61:0.0829316 62:-0.029457 63:-0.114232 
0.3591320194058919 0:-0.0411785 1:0.217176 2:-0.127313 3:-0.516847 4:-0.467721 5:0.149808 6:-0.282316 7:1 8:0.364367 9:-0.398236 10:-0.492764 11:0.324546 12:0.458768 13:0.0778288 14:0.79673 15:-0.0722526 16:-0.573842 17:0.0390253 18:-0.372765 19:0.138851 20:0.415723 21:0.279479 22:-0.0259552 23:-0.148565 24:0.247868 25:0.32733 26:-0.163462 27:0.0982177 28:-0.19798 29:-0.0398619 30:0.338983 31:-0.262591 32:-0.386279 33:0.0693367 34:0.0449449 35:-0.156498 36:-0.415209 37:-0.549728 38:-0.313843 39:-0.244878 40:-0.231714 41:0.420487 42:0.0203194 43:-0.415684 44:0.0349305 45:-0.0964681 46:0.0809481 47:-0.114852 48:-0.089504 49:0.086393 50:0.206324 51:0.00739868 52:0.0505098 53:0.0665827 54:0.168455 55:-0.200858 56:-0.156195 57:-0.0639755 58:-0.0453833 59:-0.146801 60:0.00345323 61:-0.00656844 62:-0.127533 63:0.000510575 
0.3592862331685864 0:-0.15109 1:0.324116 2:-0.109269 3:-0.173449 4:-0.421894 5:-0.250243 6:0.244631 7:-0.334619 8:1 9:-0.327922 10:0.0916962 11:-0.0838702 12:0.128875 13:0.0326095 14:0.628585 15:-0.22218 16:-0.306752 17:0.148004 18:0.0153983 19:0.0761457 20:-0.0182469 21:-0.37084 22:-0.442249 23:0.00882695 24:0.550928 25:0.429378 26:0.0574812 27:-0.0800172 28:0.305681 29:0.182688 30:0.183918 31:0.0441265 32:-0.426233 33:0.108099 34:0.113983 35:0.0353899 36:-0.275271 37:-0.0715802 38:-0.161258 39:-0.235736 40:0.266727 41:0.190615 42:-0.259789 43:0.210008 44:-0.0631162 45:-0.250326 46:0.200429 47:0.0975438 48:-0.0337091 49:0.0450373 50:0.0411493 51:0.000117417 52:-0.0593531 53:0.10809 54:-0.00582191 55:-0.0364101 56:-0.0049287 57:0.0804639 58:0.087124 59:-0.123778 60:0.0172954 61:0.092432 62:-0.0943447 63:-0.198291 
0.3595804499601782 0:-0.147399 1:0.103064 2:-0.120017 3:-0.322525 4:-0.502073 5:0.176248 6:0.600994 7:0.280576 8:0.0990303 9:-0.196677 10:-0.548782 11:0.06486 12:0.157144 13:-0.240155 14:0.355807 15:0.0848585 16:-0.704882 17:0.232547 18:0.240077 19:-0.305419 20:0.34457 21:-0.149741 22:-0.194867 23:0.125799 24:0.423193 25:0.359763 26:-0.100109 27:0.0443881 28:0.260393 29:-0.49641 30:0.27887 31:-0.504737 32:-0.401871 33:0.0803661 34:0.0442569 35:-0.254243 36:-0.508382 37:-0.05946 38:-0.179675 39:-0.231479 40:0.159072 41:0.170593 42:-0.177073 43:0.211054 44:-0.313279 45:-0.405302 46:0.0577142 47:-0.313217 48:-0.604025 49:-0.0099776 50:-0.0992659 51:-0.0540964 52:-0.122142 53:-0.16705 54:-0.0893282 55:-0.326922 56:-0.190777 57:-0.215911 58:-0.141222 59:-0.31695 60:-0.244875 61:-0.13362 62:-0.316828 63:-0.316224 
0.359361391941508 0:0.126504 1:-0.0661881 2:-0.639359 3:-0.395165 4:-0.186904 5:-0.0757069 6:0.333576 7:0.276575 8:0.0215284 9:-0.1723 10:0.181828 11:0.138719 12:-0.434424 13:-0.0556404 14:0.475624 15:-0.464986 16:-0.244089 17:0.33645 18:0.256947 19:0.265116 20:-0.568145 21:-0.394636 22:-0.501079 23:-0.18657 24:0.413193 25:0.516253 26:-0.165197 27:0.0128951 28:0.106705 29:0.0103042 30:0.248159 31:-0.365776 32:-0.100955 33:0.368762 34:0.0767149 35:0.0730404 36:-0.466314 37:0.197903 38:0.0591452 39:0.0453387 40:-0.00645622 41:0.430295 42:-0.00308503 43:0.626106 44:0.123849 45:0.0297162 46:0.333011 47:0.418347 48:0.271211 49:0.203001 50:0.385065 51:0.0917913 52:0.1018 53:0.207809 54:0.246459 55:0.101194 56:0.0274235 57:0.161085 58:0.267383 59:0.0630521 60:0.29722 61:0.125141 62:-0.0103233 63:0.0144733 
0.3592307628825002 0:-0.186395 1:0.0135516 2:-0.394278 3:-0.903684 4:-0.524201 5:-0.290691 6:0.117406 7:-0.759306 8:0.32605 9:-0.0433531 10:-0.0654326 11:-0.264794 12:-0.214138 13:-0.392088 14:0.234736 15:-0.149303 16:-0.333454 17:0.232196 18:-0.224626 19:-0.0109663 20:0.21317 21:-0.0732579 22:-0.155967 23:0.127941 24:0.467297 25:0.657656 26:-0.210223 27:-0.223931 28:0.372185 29:0.2396 30:0.0734309 31:-0.159616 32:-0.279673 33:-0.146731 34:-0.0516622 35:-0.295188 36:-0.231321 37:-0.0132309 38:-0.0110389 39:-0.47693 40:-0.206478 41:0.272913 42:-0.23455 43:0.293232 44:-0.324263 45:-0.56714 46:-0.121729 47:-0.431094 48:-0.609976 49:-0.276432 50:-0.200278 51:-0.424563 52:-0.36736 53:-0.206207 54:-0.340359 55:-0.564926 56:-0.470801 57:-0.44715 58:-0.459749 59:-0.706742 60:-0.539138 61:-0.276626 62:-0.491799 63:-0.618361 
0.3591084391800045 0:-0.0922265 1:0.0806592 2:-0.365534 3:-0.431394 4:-0.0267632 5:0.233164 6:0.130239 7:0.123522 8:0.287864 9:-0.548976 10:0.074554 11:0.554587 12:-0.107995 13:-0.278064 14:0.57261 15:-0.0402991 16:-0.340013 17:0.293971 18:-0.453118 19:-0.000349282 20:0.113805 21:-0.111511 22:-0.458002 23:-0.0419185 24:0.142665 25:0.491841 26:-0.261354 27:-0.18842 28:0.732288 29:0.166709 30:0.369501 31:-0.264862 32:-0.381017 33:0.173682 34:0.222708 35:-0.117267 36:-0.440662 37:0.0747052 38:-0.234831 39:-0.251923 40:-0.191743 41:0.0907676 42:-0.243121 43:0.0948657 44:-0.191246 45:-0.297988 46:0.0290633 47:0.0241043 48:-0.297506 49:-0.137037 50:-0.0231782 51:-0.122416 52:-0.110053 53:-0.0568929 54:-0.0603291 55:-0.276799 56:-0.327061 57:-0.141768 58:-0.0979954 59:-0.304742 60:-0.186472 61:-0.118134 62:-0.249699 63:-0.335743 
0.3591726378381578 0:-0.0842026 1:0.146629 2:-0.287502 3:-0.318875 4:-0.176682 5:-0.527658 6:0.287927 7:-0.00712376 8:0.359599 9:-0.401956 10:0.115666 11:-0.060328 12:-0.0118311 13:-0.311513 14:0.24767 15:-0.244175 16:-0.297703 17:0.498953 18:-0.125538 19:-0.172351 20:0.518425 21:-0.265889 22:-0.237274 23:0.145843 24:0.402503 25:0.42489 26:0.0487297 27:-0.211208 28:0.0893834 29:0.0121231 30:0.104146 31:-0.238115 32:-0.153771 33:-0.122017 34:0.0747778 35:-0.273868 36:-0.398319 37:-0.226625 38:-0.0625158 39:-0.148197 40:0.0131331 41:0.2285 42:-0.208251 43:0.258315 44:0.00953958 45:-0.396276 46:0.209949 47:0.0247209 48:-0.320004 49:-0.0938286 50:0.0114091 51:-0.0307448 52:-0.168529 53:0.0691732 54:-0.0954767 55:-0.175138 56:-0.223506 57:-0.0989537 58:-0.107772 59:-0.286309 60:-0.155817 61:-0.106771 62:-0.187773 63:-0.280007 
0.3643694333728966 0:-0.13164 1:0.0620122 2:-0.431663 3:-0.51829 4:-0.585279 5:-0.497166 6:0.129329 7:-0.217285 8:-0.0438137 9:0.00245608 10:-0.0822508 11:0.0196491 12:-0.0270152 13:-0.373015 14:0.29797 15:-0.176883 16:-0.350825 17:0.138566 18:-0.0303148 19:-0.496029 20:0.0436364 21:-0.183137 22:-0.315827 23:-0.0254237 24:0.41623 25:0.460348 26:0.0115549 27:0.041089 28:0.326552 29:-0.0972632 30:0.162313 31:-0.00294161 32:-0.0762035 33:-0.106282 34:0.242951 35:-0.147842 36:-0.308319 37:0.0644316 38:-0.0571822 39:-0.0124083 40:0.174058 41:0.0175246 42:-0.204807 43:0.196695 44:-0.0934883 45:-0.437046 46:0.0614245 47:-0.0727049 48:-0.360913 49:0.00391196 50:0.0423385 51:-0.091151 52:-0.138564 53:-0.0770215 54:-0.0793961 55:-0.243512 56:-0.153689 57:-0.0939352 58:-0.0753347 59:-0.298467 60:-0.152476 61:-0.106394 62:-0.241652 63:-0.30518 
0.3881647905963082 0:-0.12575 1:0.105355 2:-0.260325 3:-0.659808 4:-0.207902 5:-0.0464622 6:-0.0301112 7:0.0416628 8:0.172051 9:-0.0125257 10:-0.103755 11:-0.0570539 12:-0.0634301 13:-0.329477 14:0.54898 15:-0.208554 16:-0.370467 17:0.142875 18:-0.00872341 19:-0.180329 20:0.177129 21:-0.16716 22:-0.169556 23:-0.0600986 24:0.225212 25:0.517912 26:0.055872 27:-0.126331 28:0.305931 29:-0.0250247 30:0.190104 31:-0.33658 32:-0.0302085 33:-0.0596986 34:0.112671 35:0.0729819 36:-0.414792 37:-0.110199 38:-0.189604 39:0.110661 40:0.131905 41:0.158837 42:-0.154654 43:0.0506257 44:-0.17435 45:-0.335988 46:0.0667715 47:-0.105516 48:-0.304059 49:-0.0522849 50:-0.0142901 51:-0.0859169 52:-0.186022 53:-0.070796 54:-0.116364 55:-0.206756 56:-0.174323 57:-0.137468 58:-0.129759 59:-0.32772 60:-0.178081 61:-0.137844 62:-0.27226 63:-0.322813 
0.3585115440762079 0:-0.0446609 1:0.119516 2:-0.24514 3:-0.366514 4:-0.863853 5:-0.0858655 6:-0.0620073 7:-0.281156 8:0.471138 9:-0.130961 10:-0.426334 11:0.192049 12:-0.118904 13:-0.297853 14:0.56001 15:0.0419834 16:-0.171678 17:-0.057493 18:0.110712 19:-0.0883325 20:0.127145 21:-0.0134606 22:-0.108772 23:-0.150073 24:0.277197 25:0.416977 26:-0.261645 27:-0.030378 28:0.695404 29:-0.19711 30:0.443147 31:-0.169871 32:-0.184175 33:-0.0119055 34:0.102848 35:0.246559 36:-0.37837 37:0.0221106 38:-0.142173 39:-0.299564 40:0.152604 41:0.162046 42:-0.183086 43:0.357437 44:0.0256401 45:-0.320318 46:0.0601573 47:0.0855685 48:-0.0984127 49:0.126207 50:0.126854 51:0.0603737 52:0.0233842 53:0.0579788 54:0.108857 55:0.00604327 56:0.0631783 57:0.0888544 58:0.16554 59:-0.0399099 60:0.0131098 61:0.082886 62:-0.0782699 63:-0.102078 
0.3570582588425253 0:-0.0672241 1:0.138918 2:-0.0922303 3:-0.424536 4:-0.435747 5:0.338461 6:0.592306 7:-0.200762 8:0.0937113 9:-0.287751 10:-0.419036 11:0.0879019 12:-0.0896488 13:-0.407732 14:0.401857 15:-0.153094 16:-0.24586 17:-0.222175 18:-0.0259228 19:-0.131464 20:0.0549023 21:0.0117927 22:-0.219737 23:0.00779125 24:0.0312997 25:0.440989 26:-0.165646 27:-0.130359 28:0.318635 29:0.138833 30:0.226388 31:-0.221362 32:-0.23777 33:0.15984 34:0.0739053 35:-0.0505298 36:-0.300687 37:0.0322396 38:-0.00834771 39:0.0240845 40:0.00282129 41:0.259908 42:-0.289947 43:0.403849 44:-0.121882 45:-0.275462 46:0.0803464 47:-0.0282739 48:-0.0837775 49:-0.0827019 50:0.0894734 51:0.0016315 52:-0.14395 53:-0.00624743 54:-0.00304298 55:-0.12842 56:-0.0831245 57:-0.106335 58:-0.025642 59:-0.206959 60:-0.0517963 61:0.00563474 62:-0.229158 63:-0.215642 
0.3593032489353536 0:-0.0700966 1:0.102553 2:-0.274588 3:-0.938521 4:-0.129709 5:-0.691956 6:-0.428556 7:0.24392 8:0.230098 9:-0.0474274 10:-0.272344 11:0.0198004 12:0.329901 13:-0.218103 14:0.760803 15:-0.0220941 16:-0.526969 17:0.0297017 18:0.00792952 19:-0.265771 20:0.240239 21:-0.164708 22:-0.0997287 23:0.000387209 24:0.163583 25:0.381203 26:-0.343703 27:0.103809 28:0.00342333 29:-0.208724 30:-0.23152 31:-0.157129 32:-0.194894 33:-0.0797611 34:0.258854 35:-0.337901 36:-0.514412 37:-0.180947 38:0.00616008 39:-0.0812752 40:0.058771 41:-0.119104 42:-0.230955 43:0.0418156 44:-0.298138 45:-0.611001 46:0.0456057 47:-0.0717709 48:-0.399284 49:-0.0910986 50:-0.168739 51:-0.205172 52:-0.21369 53:-0.186336 54:-0.230866 55:-0.468993 56:-0.324328 57:-0.227881 58:-0.291565 59:-0.468505 60:-0.381413 61:-0.258826 62:-0.451049 63:-0.456233 
0.3589498439809268 0:-0.0734506 1:0.0817521 2:-0.277697 3:-0.61116 4:-0.600741 5:-0.454129 6:-0.242166 7:-0.202134 8:0.566722 9:0.376216 10:-0.400365 11:0.678971 12:-0.219089 13:-0.282482 14:0.804472 15:-0.143712 16:-0.334714 17:-0.160631 18:0.227163 19:-0.497237 20:-0.0956459 21:-0.167114 22:-0.324902 23:0.0419287 24:0.219339 25:0.617988 26:-0.101158 27:-0.161832 28:0.525674 29:0.125929 30:0.214495 31:-0.16519 32:-0.30306 33:-0.23151 34:0.135146 35:-0.0127938 36:-0.66634 37:-0.255233 38:0.013437 39:-0.159155 40:0.157789 41:0.242717 42:-0.257644 43:0.114247 44:-0.145849 45:-0.405071 46:0.0199265 47:-0.137874 48:-0.364248 49:-0.0470835 50:0.00116383 51:-0.12941 52:-0.0976031 53:-0.0454036 54:-0.0747551 55:-0.157214 56:-0.145246 57:-0.092055 58:-0.0676968 59:-0.294597 60:-0.0979336 61:-0.106245 62:-0.200924 63:-0.284995 
0.3553811860630935 0:-0.0881664 1:0.0873139 2:-0.348935 3:-0.576987 4:-0.185591 5:-0.232195 6:-0.142983 7:0.266219 8:0.308811 9:-0.0689189 10:-0.335729 11:-0.0905387 12:0.0258836 13:-0.23821 14:0.359796 15:-0.312447 16:-0.142004 17:0.0964561 18:-0.0108281 19:-0.170198 20:0.119535 21:-0.128547 22:0.0430229 23:0.26399 24:0.435956 25:0.374106 26:-0.121005 27:-0.0591861 28:0.299657 29:0.119752 30:0.31121 31:-0.4046 32:-0.0851686 33:0.0525001 34:0.213779 35:0.13713 36:-0.274413 37:0.0111173 38:0.0332327 39:0.109237 40:0.0970912 41:0.162139 42:-0.091322 43:0.281792 44:0.055335 45:-0.282566 46:0.127193 47:0.150747 48:-0.0901364 49:0.224809 50:0.110464 51:0.0763706 52:0.0304113 53:0.188178 54:0.135123 55:-0.0140036 56:-0.0429966 57:0.00729336 58:0.0382354 59:-0.0582819 60:0.0382109 61:0.0340103 62:-0.0299395 63:-0.0959175 
0.4767195348696219 0:-0.0719742 1:0.0873492 2:-0.27747 3:-0.601852 4:-0.496895 5:-0.0719179 6:-0.0363773 7:0.10828 8:0.339792 9:-0.0280938 10:-0.0890701 11:-0.047918 12:0.0491197 13:-0.305659 14:0.555097 15:-0.0500955 16:-0.492938 17:0.103572 18:0.0184229 19:-0.0254542 20:0.10407 21:-0.156322 22:-0.244829 23:0.210212 24:0.274927 25:0.461844 26:-0.237964 27:-0.203634 28:0.431148 29:0.14674 30:0.156181 31:-0.0759398 32:-0.288248 33:-0.00694945 34:-0.0110917 35:-0.0618552 36:-0.398496 37:-0.0256209 38:-0.037437 39:0.0228463 40:0.0446938 41:0.0390973 42:-0.227604 43:0.167941 44:-0.228569 45:-0.181292 46:0.0955208 47:0.0911741 48:-0.17331 49:-0.050668 50:0.0815643 51:0.0305073 52:-0.0184803 53:-0.011628 54:0.0338869 55:-0.0858375 56:-0.106164 57:-0.0425602 58:-0.00711186 59:-0.211827 60:-0.0576005 61:-0.0419899 62:-0.176377 63:-0.189413 
8 0:-0.0160638 1:0.12109 2:-0.361597 3:-0.415694 4:-0.387584 5:-0.153393 6:0.124043 7:0.0892409 8:0.100345 9:-0.133495 10:-0.142137 11:-0.0422928 12:0.0122607 13:-0.235192 14:0.406863 15:-0.0133561 16:-0.253583 17:0.0228636 18:-0.0347323 19:-0.178897 20:0.203125 21:-0.17486 22:-0.175443 23:0.0466234 24:0.313666 25:0.454302 26:-0.238611 27:-0.0181566 28:0.408055 29:-0.0416711 30:0.175384 31:-0.198514 32:-0.175794 33:0.06046 34:0.103576 35:0.00559901 36:-0.32835 37:-0.0206782 38:-0.0834988 39:-0.0854356 40:0.063204 41:0.176452 42:-0.17776 43:0.246278 44:-0.146822 45:-0.313016 46:0.103885 47:-0.00449828 48:-0.206037 49:0.0197 50:0.0628785 51:-0.0247769 52:-0.0921863 53:-0.008418 54:-0.0307422 55:-0.146454 56:-0.107942 57:-0.0517188 58:-0.014279 59:-0.188662 60:-0.0962182 61:-0.0132691 62:-0.188498 63:-0.216505 
8 0:-0.111275 1:0.165312 2:-0.304181 3:-0.460703 4:-0.336782 5:-0.129255 6:0.118239 7:0.0399592 8:0.13229 9:-0.164275 10:-0.198599 11:-0.022527 12:0.0544741 13:-0.225491 14:0.399827 15:-0.0045379 16:-0.243546 17:0.0201045 18:-0.0424207 19:-0.211751 20:0.218392 21:-0.185064 22:-0.234782 23:0.0673242 24:0.332113 25:0.455105 26:-0.216282 27:-0.0345262 28:0.394571 29:-0.0258713 30:0.173201 31:-0.203025 32:-0.202105 33:0.0517427 34:0.111302 35:0.00476474 36:-0.330943 37:-0.0779879 38:-0.0364018 39:-0.0775199 40:0.113647 41:0.204653 42:-0.158452 43:0.245707 44:-0.136579 45:-0.303162 46:0.109413 47:0.0107511 48:-0.197246 49:0.0206694 50:0.0514613 51:-0.0149847 52:-0.0674786 53:0.0234211 54:0.012893 55:-0.141638 56:-0.0892848 57:-0.0251565 58:0.0198596 59:-0.154499 60:-0.0589053 61:0.0046739 62:-0.154424 63:-0.192163 
0.359341983260792 0:-0.256138 1:0.313283 2:0.985549 3:0.418085 4:-0.183943 5:-0.489798 6:-0.0190913 7:-0.0313662 8:-0.061305 9:-0.443462 10:-0.453996 11:-0.0571205 12:-0.169474 13:-0.256161 14:0.590642 15:0.0807594 16:-0.248831 17:-0.265699 18:-0.286175 19:-0.534703 20:-0.0560776 21:-0.244243 22:-0.165901 23:0.186621 24:0.521989 25:0.502889 26:-0.117942 27:0.0384945 28:0.403001 29:-0.256008 30:-0.0558669 31:-0.275493 32:-0.105438 33:-0.0106565 34:0.0972249 35:0.0960799 36:-0.201649 37:-0.0249775 38:-0.0516423 39:0.0120901 40:0.107131 41:0.151783 42:-0.119891 43:0.42593 44:-0.0423572 45:-0.309321 46:0.0644876 47:-0.00962259 48:-0.0981427 49:0.0981973 50:0.0987192 51:0.082879 52:-0.00637971 53:0.0986161 54:0.128247 55:-0.0722667 56:-0.0871115 57:-0.00194319 58:0.117771 59:-0.0611408 60:0.0800313 61:0.101178 62:-0.100457 63:-0.122958 
0.359283384262333 0:1 1:-0.649565 2:-0.324432 3:-0.504676 4:-0.378328 5:0.229806 6:0.249163 7:0.00514995 8:0.117106 9:-0.0737657 10:-0.163617 11:-0.0747141 12:-0.0580916 13:-0.274073 14:0.377065 15:-0.15104 16:-0.341112 17:0.256618 18:-0.0923659 19:-0.291228 20:0.358325 21:-0.136566 22:-0.226216 23:0.113909 24:0.284485 25:0.404809 26:-0.205686 27:-0.00318194 28:0.337357 29:0.0519353 30:0.0729651 31:-0.250505 32:-0.198402 33:0.00368363 34:0.0894169 35:-0.158383 36:-0.342484 37:-0.0542781 38:-0.127835 39:-0.0102499 40:0.0728482 41:0.0581701 42:-0.117437 43:0.222222 44:-0.220913 45:-0.372356 46:0.0702938 47:-0.035311 48:-0.207502 49:-0.0718006 50:0.000634498 51:-0.0919599 52:-0.128052 53:-0.102108 54:-0.0826151 55:-0.218607 56:-0.185372 57:-0.143605 58:-0.103717 59:-0.231699 60:-0.158752 61:-0.0994286 62:-0.227007 63:-0.26552 
0.3616247541728888 0:-0.178547 1:0.290895 2:-0.291701 3:-0.421272 4:-0.557214 5:-0.264363 6:0.130443 7:-0.143253 8:0.107168 9:-0.126142 10:-0.125179 11:-0.059474 12:0.0437766 13:-0.181633 14:0.467448 15:0.0188754 16:-0.262349 17:0.0458112 18:-0.0502276 19:-0.286761 20:0.193397 21:-0.241928 22:-0.192799 23:0.150557 24:0.388786 25:0.447754 26:-0.159084 27:0.00804432 28:0.38039 29:-0.00436953 30:0.166715 31:-0.220773 32:-0.0941337 33:0.0480904 34:0.172472 35:0.0951966 36:-0.324775 37:-0.120608 38:0.0253283 39:-0.0127444 40:0.196134 41:0.245676 42:-0.10446 43:0.429621 44:-0.091255 45:-0.239718 46:0.173361 47:0.106291 48:-0.00364321 49:0.102404 50:0.205608 51:0.119625 52:0.00581696 53:0.134422 54:0.0902319 55:0.00276121 56:0.0668703 57:0.0805245 58:0.180706 59:-0.00274988 60:0.0816086 61:0.130382 62:-0.0581427 63:-0.0785905 
0.8473539227642763 0:-0.106284 1:0.211589 2:-0.347204 3:-0.409391 4:-0.361847 5:-0.321949 6:0.210645 7:-0.0339032 8:-0.0106563 9:-0.0856512 10:-0.0903893 11:-0.0798816 12:0.0606501 13:-0.267232 14:0.475582 15:-0.011038 16:-0.199239 17:-0.00919471 18:-0.0299265 19:-0.249547 20:0.168537 21:-0.157614 22:-0.227427 23:-0.0352565 24:0.319184 25:0.422842 26:-0.161087 27:-0.0860508 28:0.329683 29:-0.0323308 30:0.356164 31:-0.22112 32:-0.170532 33:0.0850059 34:0.0976819 35:0.0202663 36:-0.390003 37:-0.0639214 38:0.00868606 39:-0.106938 40:0.0454483 41:0.147579 42:-0.213557 43:0.25488 44:-0.171544 45:-0.260137 46:0.0808595 47:0.0263264 48:-0.205095 49:-0.00739355 50:0.0851631 51:-0.0539243 52:-0.109491 53:-0.0563167 54:-0.0468827 55:-0.220296 56:-0.176021 57:-0.0774679 58:-0.0375102 59:-0.209095 60:-0.143253 61:-0.0672402 62:-0.248976 63:-0.271452 
0.6823373158512591 0:-0.137417 1:0.113189 2:-0.302315 3:-0.41842 4:-0.375087 5:-0.259595 6:0.0796747 7:-0.130876 8:0.343163 9:-0.00458348 10:-0.215673 11:0.00915113 12:0.0730521 13:-0.276703 14:0.401944 15:0.0433164 16:-0.257502 17:0.0203966 18:-0.0277303 19:-0.198119 20:0.19757 21:-0.123932 22:-0.173517 23:0.1109 24:0.418858 25:0.441854 26:-0.262891 27:-0.0226781 28:0.402317 29:0.0436415 30:0.13848 31:-0.256015 32:-0.192945 33:0.0298636 34:0.0658606 35:0.0667531 36:-0.335046 37:-0.0105799 38:-0.0662098 39:-0.124391 40:0.109395 41:0.155065 42:-0.142538 43:0.267754 44:-0.18154 45:-0.257684 46:0.0924785 47:0.0285832 48:-0.195232 49:0.0743319 50:0.0836453 51:0.0315848 52:-0.0631446 53:-0.0150387 54:0.0293955 55:-0.109569 56:-0.0956889 57:-0.0347989 58:0.0217659 59:-0.146734 60:-0.0372432 61:0.0329668 62:-0.16887 63:-0.19611 
1.680159704805071 0:-0.0780884 1:0.109207 2:-0.233343 3:-0.359955 4:-0.472823 5:0.0288979 6:-0.0858045 7:-0.111535 8:0.247634 9:-0.14737 10:-0.184365 11:-0.0290738 12:0.0591844 13:-0.254789 14:0.440365 15:-0.0405067 16:-0.262165 17:0.0685766 18:0.0437434 19:-0.243988 20:0.139299 21:-0.221312 22:-0.187157 23:0.0274636 24:0.370348 25:0.418862 26:-0.313424 27:-0.00955534 28:0.391281 29:-0.024618 30:0.149218 31:-0.179638 32:-0.185929 33:0.0368904 34:0.0708452 35:-0.0599044 36:-0.330817 37:-0.0647244 38:-0.0501759 39:-0.124028 40:0.0614342 41:0.181325 42:-0.177714 43:0.223095 44:-0.19813 45:-0.360678 46:0.0766512 47:-0.0609846 48:-0.239686 49:-0.0313397 50:0.0160435 51:-0.0989555 52:-0.149665 53:-0.0647984 54:-0.0839749 55:-0.212493 56:-0.159446 57:-0.123055 58:-0.0980706 59:-0.242852 60:-0.140956 61:-0.084088 62:-0.260183 63:-0.276295 
2.758646704292772 0:-0.140257 1:0.175427 2:-0.239851 3:-0.450806 4:-0.428846 5:-0.118993 6:0.168161 7:-0.148095 8:0.177318 9:-0.106869 10:-0.237731 11:-0.00274494 12:0.0881223 13:-0.218123 14:0.469584 15:-0.042049 16:-0.228718 17:0.0955029 18:-0.047145 19:-0.170692 20:0.151158 21:-0.145591 22:-0.27005 23:0.066835 24:0.340493 25:0.44209 26:-0.183996 27:-0.00946586 28:0.36501 29:-0.0166088 30:0.175703 31:-0.211425 32:-0.281427 33:0.090371 34:0.117913 35:0.00737057 36:-0.285827 37:-0.0628312 38:-0.0416284 39:-0.0782358 40:0.0669358 41:0.22334 42:-0.140504 43:0.236622 44:-0.102308 45:-0.31106 46:0.0897734 47:-0.0163095 48:-0.202908 49:0.03541 50:0.0757852 51:0.00705503 52:-0.0778724 53:-0.0176979 54:0.0357881 55:-0.155143 56:-0.0962977 57:-0.031591 58:0.00722544 59:-0.172805 60:-0.0626828 61:-0.0102796 62:-0.174014 63:-0.199259 
1.445212558375192 0:-0.123696 1:0.0779182 2:-0.292559 3:-0.390977 4:-0.555954 5:0.0464276 6:0.22345 7:0.0677615 8:0.17665 9:-0.198312 10:-0.211724 11:-0.0537927 12:0.02845 13:-0.25186 14:0.348765 15:-0.016823 16:-0.226917 17:0.0231701 18:-0.0277496 19:-0.174806 20:0.215476 21:-0.139081 22:-0.189068 23:0.0581154 24:0.299126 25:0.436557 26:-0.184651 27:-0.0559089 28:0.482474 29:0.0407704 30:0.163375 31:-0.208615 32:-0.228416 33:0.0753316 34:0.106606 35:0.00730402 36:-0.262778 37:-0.07443 38:-0.0616749 39:-0.0410848 40:0.128063 41:0.187558 42:-0.187169 43:0.290291 44:-0.115138 45:-0.289157 46:0.143376 47:0.048102 48:-0.185958 49:0.0439885 50:0.0674935 51:-0.0345058 52:-0.0387244 53:0.0183921 54:0.0261038 55:-0.129406 56:-0.0618799 57:-0.030749 58:0.0171068 59:-0.142426 60:-0.0627344 61:0.0182085 62:-0.146388 63:-0.189562 
0.6210445142765209 0:-0.0624097 1:0.142663 2:-0.280622 3:-0.418642 4:-0.229605 5:-0.181529 6:0.0470507 7:0.00552743 8:0.114983 9:-0.106695 10:-0.129328 11:-0.0171869 12:0.00282328 13:-0.269577 14:0.455889 15:0.0226127 16:-0.243108 17:0.0299076 18:0.00420235 19:-0.21077 20:0.214356 21:-0.158224 22:-0.217319 23:0.0435346 24:0.311745 25:0.471012 26:-0.27615 27:-0.0487747 28:0.409065 29:-0.000712288 30:0.254018 31:-0.17555 32:-0.177743 33:0.052535 34:0.114972 35:0.0652547 36:-0.32221 37:-0.0178076 38:-0.0324029 39:-0.0433192 40:0.126279 41:0.275718 42:-0.168441 43:0.342317 44:-0.105539 45:-0.27863 46:0.152585 47:0.0880613 48:-0.126549 49:0.0841923 50:0.113751 51:0.0451379 52:-0.015414 53:0.0483973 54:0.0833991 55:-0.0395716 56:-0.0352732 57:0.00168963 58:0.0724739 59:-0.101389 60:-0.00908068 61:0.0415071 62:-0.0874945 63:-0.123371 
4.497936480316154 0:-0.0857592 1:0.13163 2:-0.319154 3:-0.400099 4:-0.308792 5:-0.0927536 6:0.15355 7:0.0959315 8:0.185836 9:-0.130612 10:-0.198923 11:-0.0324252 12:-0.0032793 13:-0.275669 14:0.37315 15:-0.0488009 16:-0.250506 17:0.00580919 18:0.00240054 19:-0.23545 20:0.204978 21:-0.187202 22:-0.208229 23:0.0805297 24:0.275116 25:0.47711 26:-0.241566 27:-0.024213 28:0.417408 29:0.0278421 30:0.225584 31:-0.183481 32:-0.195284 33:0.040253 34:0.105565 35:-0.0325126 36:-0.350521 37:-0.0383864 38:-0.0661556 39:-0.0671231 40:0.122558 41:0.171444 42:-0.154395 43:0.254503 44:-0.135231 45:-0.319503 46:0.106792 47:0.0127139 48:-0.235624 49:-0.00819842 50:0.052045 51:-0.0506165 52:-0.0944194 53:-0.0224282 54:-0.00912892 55:-0.166671 56:-0.161545 57:-0.0623549 58:-0.0507087 59:-0.22306 60:-0.113187 61:-0.0241952 62:-0.185141 63:-0.243414 
5.521477210490725 0:-0.10699 1:0.123155 2:-0.331396 3:-0.388305 4:-0.471225 5:-0.0837588 6:0.10536 7:0.0206638 8:0.0980197 9:-0.0819578 10:-0.207055 11:-0.0770976 12:0.0846329 13:-0.231708 14:0.423879 15:-0.0745421 16:-0.248566 17:0.0146885 18:-0.0208643 19:-0.22508 20:0.167547 21:-0.108325 22:-0.167858 23:0.0304088 24:0.300257 25:0.46239 26:-0.259477 27:0.00341756 28:0.406414 29:0.0351559 30:0.153944 31:-0.185388 32:-0.191386 33:0.0171543 34:0.113638 35:0.0357603 36:-0.329722 37:-0.0908969 38:-0.0319724 39:-0.0248358 40:0.0949615 41:0.204823 42:-0.172419 43:0.340139 44:-0.114686 45:-0.301582 46:0.104471 47:0.0561662 48:-0.158065 49:0.0673446 50:0.106553 51:0.00586119 52:-0.0570817 53:0.0211753 54:0.0573512 55:-0.0967122 56:-0.0752849 57:-0.0090941 58:0.0275237 59:-0.171387 60:-0.0295564 61:-0.00763368 62:-0.147332 63:-0.170068 
1.26039052579728 0:-0.0168822 1:0.0792052 2:-0.33596 3:-0.415324 4:-0.331823 5:-0.0331224 6:0.0426683 7:0.0655691 8:0.143986 9:-0.222541 10:-0.14941 11:-0.0528335 12:0.0373429 13:-0.229083 14:0.405999 15:-0.0343546 16:-0.23152 17:0.0264858 18:-0.000443162 19:-0.154931 20:0.17986 21:-0.137226 22:-0.270702 23:0.0744804 24:0.332295 25:0.466277 26:-0.226879 27:-0.0153743 28:0.397526 29:-0.0242373 30:0.172064 31:-0.198515 32:-0.117521 33:0.0307399 34:0.0949024 35:0.0549243 36:-0.355509 37:-0.00703491 38:-0.0398653 39:-0.0164454 40:0.136465 41:0.218103 42:-0.156628 43:0.277115 44:-0.0911719 45:-0.297485 46:0.194295 47:0.107461 48:-0.188118 49:0.0512334 50:0.131859 51:0.031726 52:-0.0478611 53:0.0846362 54:0.0279274 55:-0.0702923 56:-0.066977 57:0.0322021 58:0.0745534 59:-0.0979984 60:0.00218488 61:0.0410456 62:-0.115176 63:-0.168851 
0.6136137495652765 0:-0.0934942 1:0.157318 2:-0.341702 3:-0.399997 4:-0.376385 5:-0.12553 6:0.132835 7:-0.118223 8:0.0816142 9:-0.155915 10:-0.2508 11:-0.061989 12:0.0424159 13:-0.227902 14:0.335008 15:-0.045693 16:-0.228235 17:0.0057738 18:-0.0230947 19:-0.151562 20:0.181814 21:-0.145608 22:-0.245913 23:0.0632844 24:0.324367 25:0.464705 26:-0.159439 27:-0.0155576 28:0.409295 29:-0.0133036 30:0.227624 31:-0.234718 32:-0.198402 33:0.0531615 34:0.110495 35:-0.0460442 36:-0.34274 37:-0.0302616 38:-0.0227334 39:0.00809952 40:0.0768481 41:0.189175 42:-0.147762 43:0.270138 44:-0.156514 45:-0.326794 46:0.129181 47:0.00711905 48:-0.205693 49:0.0259483 50:0.0713803 51:-0.00308888 52:-0.0680829 53:0.0025965 54:-0.00544781 55:-0.155114 56:-0.102775 57:-0.0339772 58:-0.000721497 59:-0.179871 60:-0.0819566 61:-0.0228918 62:-0.184145 63:-0.188307 
1.114874204932734 0:-0.0358507 1:0.0984541 2:-0.254347 3:-0.413577 4:-0.399507 5:-0.0181021 6:0.0959396 7:-0.110796 8:0.092367 9:-0.126177 10:-0.204028 11:-0.0561706 12:0.0467509 13:-0.298001 14:0.449251 15:-0.0186727 16:-0.226254 17:0.127401 18:-0.0404658 19:-0.250518 20:0.146077 21:-0.157136 22:-0.185483 23:0.0324591 24:0.358225 25:0.48693 26:-0.245014 27:-0.0660077 28:0.406698 29:-0.0215437 30:0.178346 31:-0.203358 32:-0.148509 33:0.0210933 34:0.127781 35:0.0148947 36:-0.350694 37:-0.131872 38:0.00839498 39:-0.0295901 40:0.110988 41:0.223044 42:-0.187023 43:0.25342 44:-0.145588 45:-0.292347 46:0.0952812 47:0.0303446 48:-0.210642 49:0.0230238 50:0.0909164 51:-0.0301761 52:-0.0562152 53:0.0139539 54:0.0396305 55:-0.1338 56:-0.0763245 57:-0.00586647 58:0.0488526 59:-0.171374 60:-0.0701441 61:-0.000691869 62:-0.142254 63:-0.169923 
2.293391782250434 0:-0.10009 1:0.129599 2:-0.370397 3:-0.407917 4:-0.368318 5:-0.0814473 6:0.0720317 7:-0.0611242 8:0.105739 9:-0.165139 10:-0.139277 11:-0.0489619 12:0.056423 13:-0.229962 14:0.387824 15:-0.00452039 16:-0.298928 17:0.0931666 18:-0.038571 19:-0.184866 20:0.203091 21:-0.158913 22:-0.233568 23:0.033459 24:0.267426 25:0.463594 26:-0.249771 27:-0.0298744 28:0.436803 29:-0.0595138 30:0.212749 31:-0.227724 32:-0.145391 33:0.0702687 34:0.124975 35:-0.0426944 36:-0.33839 37:-0.018635 38:-0.109405 39:-0.0242718 40:0.144483 41:0.150752 42:-0.188188 43:0.250566 44:-0.159885 45:-0.312183 46:0.0974241 47:0.00649006 48:-0.23646 49:0.00212355 50:0.0437994 51:-0.060218 52:-0.108186 53:-0.0323371 54:-0.0202324 55:-0.156023 56:-0.127337 57:-0.067331 58:-0.0140688 59:-0.205909 60:-0.1184 61:-0.0354998 62:-0.189345 63:-0.238573 
1.404021817609942 0:-0.0855346 1:0.113012 2:-0.251427 3:-0.388448 4:-0.382868 5:0.0314442 6:-0.126685 7:0.0401421 8:0.125112 9:-0.161102 10:-0.175418 11:-0.0257933 12:0.0460475 13:-0.25098 14:0.406884 15:-0.0104744 16:-0.286327 17:0.0041186 18:-0.00450429 19:-0.158612 20:0.157987 21:-0.184159 22:-0.214131 23:0.0880151 24:0.338584 25:0.473649 26:-0.157367 27:-0.0174275 28:0.372206 29:0.0103689 30:0.199733 31:-0.173909 32:-0.162541 33:0.0538518 34:0.0881071 35:-0.0287429 36:-0.306072 37:-0.0571192 38:-0.0461424 39:-0.0251986 40:0.127521 41:0.210632 42:-0.123122 43:0.305389 44:-0.0749454 45:-0.276972 46:0.122039 47:0.0669287 48:-0.126838 49:0.0602442 50:0.0920941 51:0.0131069 52:-0.0550911 53:0.0244513 54:0.0735907 55:-0.0955784 56:-0.0753752 57:-0.00504071 58:0.0484739 59:-0.143273 60:-0.0154933 61:0.0412023 62:-0.127627 63:-0.131352 
4.662470632131697 0:-0.0604519 1:0.0974007 2:-0.236894 3:-0.353519 4:-0.427297 5:-0.0162568 6:0.135875 7:0.00555063 8:0.16786 9:-0.187455 10:-0.14051 11:-0.0780042 12:0.044477 13:-0.20787 14:0.399841 15:-0.0150062 16:-0.215507 17:-0.00201077 18:-0.0450728 19:-0.190713 20:0.199045 21:-0.155825 22:-0.236199 23:0.0469814 24:0.328124 25:0.448874 26:-0.156557 27:-0.03416 28:0.396155 29:-0.0465034 30:0.200033 31:-0.217853 32:-0.189242 33:-0.00452259 34:0.0919515 35:0.056582 36:-0.37432 37:-0.110309 38:-0.0483607 39:-0.0934958 40:0.102839 41:0.183674 42:-0.160725 43:0.330179 44:-0.167031 45:-0.338481 46:0.119537 47:0.0362658 48:-0.238392 49:0.0197406 50:0.0549925 51:-0.0248357 52:-0.0779209 53:0.00954849 54:-0.0181504 55:-0.157151 56:-0.141268 57:-0.0724752 58:0.00322681 59:-0.17961 60:-0.0843176 61:-0.0259327 62:-0.198575 63:-0.197332 
2.664301646407504 0:-0.0903168 1:0.128593 2:-0.205594 3:-0.426858 4:-0.375983 5:0.102102 6:0.118062 7:0.0114944 8:0.0981515 9:-0.14249 10:-0.180172 11:-0.0287115 12:0.0427827 13:-0.20503 14:0.399432 15:-0.0283942 16:-0.2506 17:0.0412029 18:-0.0461439 19:-0.17629 20:0.145921 21:-0.200223 22:-0.247878 23:0.0869721 24:0.339096 25:0.421846 26:-0.273324 27:-0.0348639 28:0.418467 29:-0.0689126 30:0.240052 31:-0.21783 32:-0.191191 33:0.0457316 34:0.137291 35:0.00318235 36:-0.319605 37:-0.0354966 38:-0.047392 39:-0.0372791 40:0.121514 41:0.144004 42:-0.186366 43:0.323385 44:-0.0974788 45:-0.37741 46:0.113908 47:0.121017 48:-0.190124 49:-0.0327244 50:0.0609525 51:-0.0169923 52:-0.0594736 53:-0.0246206 54:0.0256759 55:-0.13791 56:-0.0968107 57:-0.0451795 58:0.0322632 59:-0.224313 60:-0.0602869 61:0.00424919 62:-0.17377 63:-0.212049 
7.226367495560787 0:-0.114404 1:0.166629 2:-0.350522 3:-0.344054 4:-0.341802 5:-0.0901565 6:0.122695 7:0.0124396 8:0.126174 9:-0.143583 10:-0.160795 11:-0.046547 12:0.0245374 13:-0.255118 14:0.382381 15:-0.0177453 16:-0.267233 17:0.0417092 18:-0.0374156 19:-0.172545 20:0.20703 21:-0.167257 22:-0.197157 23:0.0657057 24:0.331067 25:0.480853 26:-0.243879 27:-0.0396181 28:0.416823 29:-0.0550152 30:0.231373 31:-0.197557 32:-0.220035 33:0.0595491 34:0.127966 35:0.0226524 36:-0.352843 37:-0.0332352 38:-0.0292561 39:-0.0520242 40:0.137674 41:0.19263 42:-0.142461 43:0.246472 44:-0.139828 45:-0.32546 46:0.108609 47:0.0215753 48:-0.219462 49:-0.0152403 50:0.0792016 51:-0.012665 52:-0.0668296 53:-0.02305 54:-0.00396735 55:-0.147187 56:-0.107978 57:-0.047034 58:-0.00964772 59:-0.17087 60:-0.0762362 61:0.00411661 62:-0.169642 63:-0.186504 
0.3598057364807355 0:-0.0190326 1:-1 2:-0.65347 3:-0.409821 4:-0.168306 5:-0.171492 6:-0.151694 7:-0.143744 8:0.11871 9:-0.11944 10:-0.142708 11:0.0961871 12:0.0430455 13:-0.345845 14:0.476277 15:-0.0856438 16:-0.269408 17:0.00409136 18:-0.06787 19:-0.15735 20:0.126751 21:-0.203065 22:-0.257764 23:0.0537582 24:0.302868 25:0.439282 26:-0.426302 27:-0.0566191 28:0.307623 29:-0.0572572 30:0.0954611 31:-0.28035 32:-0.225102 33:-0.0511473 34:-0.0292493 35:-0.158252 36:-0.540265 37:-0.159007 38:-0.20697 39:-0.324915 40:-0.184035 41:-0.0373362 42:-0.447813 43:-0.146987 44:-0.460807 45:-0.587819 46:-0.209121 47:-0.482644 48:-0.732943 49:-0.424311 50:-0.332442 51:-0.475462 52:-0.541876 53:-0.412992 54:-0.545333 55:-0.743673 56:-0.63297 57:-0.574887 58:-0.572528 59:-0.826231 60:-0.651017 61:-0.590423 62:-0.727516 63:-0.751582 
1.125148813486615 0:-0.00333793 1:0.122438 2:-0.384042 3:-0.511128 4:-0.453343 5:0.0103306 6:0.284002 7:-0.139555 8:0.0803792 9:-0.141554 10:-0.142488 11:-0.0212189 12:0.0928178 13:-0.148696 14:0.530342 15:0.0808322 16:-0.234552 17:-0.0793693 18:-0.075079 19:-0.149323 20:0.237817 21:-0.163314 22:-0.191589 23:0.0305148 24:0.294692 25:0.412399 26:-0.218939 27:-0.0187137 28:0.38648 29:-0.0538217 30:0.250961 31:-0.183568 32:-0.0886767 33:0.0792829 34:0.0660629 35:-0.0448041 36:-0.316437 37:-0.0280079 38:-0.0767728 39:-0.0581795 40:0.157658 41:0.202314 42:-0.122825 43:0.249403 44:-0.0584741 45:-0.348011 46:0.161913 47:0.0415606 48:-0.148599 49:0.040749 50:0.112637 51:0.0587108 52:-0.0373581 53:0.045183 54:0.0696697 55:-0.0418744 56:-0.0201551 57:0.021703 58:0.0660887 59:-0.141629 60:-0.0280959 61:0.0396293 62:-0.150917 63:-0.155116 
0.7370123202865233 0:-0.124162 1:0.120461 2:-0.367093 3:-0.364576 4:-0.377202 5:-0.120614 6:0.101102 7:0.134559 8:0.133227 9:-0.104092 10:-0.230554 11:0.0228134 12:0.0400789 13:-0.257466 14:0.338457 15:-0.0817578 16:-0.228883 17:0.0718732 18:-0.0306863 19:-0.271546 20:0.134634 21:-0.169734 22:-0.174641 23:0.107706 24:0.289984 25:0.462542 26:-0.273746 27:-0.0447584 28:0.42796 29:0.0225546 30:0.134957 31:-0.176183 32:-0.163906 33:0.12349 34:0.147515 35:-0.0337842 36:-0.344907 37:0.0409473 38:0.067107 39:-0.0170633 40:0.0947853 41:0.225842 42:-0.196796 43:0.366363 44:-0.105301 45:-0.260724 46:0.166718 47:0.0535843 48:-0.170436 49:0.0922011 50:0.135695 51:0.0512694 52:-0.0435189 53:0.0766959 54:0.0673846 55:-0.0952173 56:-0.0128426 57:0.0463187 58:0.0541453 59:-0.109192 60:-0.00802821 61:0.0462101 62:-0.110565 63:-0.108491 
0.6305648473157578 0:-0.0832076 1:0.154397 2:-0.240991 3:-0.387791 4:-0.34426 5:-0.0148387 6:0.19651 7:0.14478 8:0.0159349 9:-0.163212 10:-0.218887 11:-0.00446365 12:0.116911 13:-0.134703 14:0.336348 15:0.0214959 16:-0.27936 17:-0.0756299 18:-0.0775855 19:-0.151726 20:0.2567 21:-0.200568 22:-0.291798 23:0.0826118 24:0.295283 25:0.392367 26:-0.212746 27:-0.0195192 28:0.363051 29:-0.0625542 30:0.20652 31:-0.231492 32:-0.212434 33:0.0924986 34:0.103139 35:-0.0979133 36:-0.38455 37:-0.111217 38:-0.120058 39:-0.140161 40:0.0469691 41:0.141914 42:-0.218068 43:0.155998 44:-0.122436 45:-0.391063 46:0.027653 47:-0.0736676 48:-0.262766 49:-0.0772857 50:0.0551814 51:-0.079156 52:-0.173736 53:-0.0507753 54:-0.0814011 55:-0.235768 56:-0.169064 57:-0.129325 58:-0.0800091 59:-0.286732 60:-0.179671 61:-0.0842423 62:-0.259766 63:-0.274507 
2.303396585434484 0:-0.0528132 1:0.0386178 2:-0.339955 3:-0.436363 4:-0.395343 5:-0.158961 6:0.0720454 7:0.026907 8:0.179624 9:-0.146626 10:-0.21699 11:-0.0337446 12:0.0794561 13:-0.261205 14:0.46939 15:-0.0297121 16:-0.209081 17:-0.00979487 18:-0.0751575 19:-0.212141 20:0.219353 21:-0.1899 22:-0.22516 23:0.0968483 24:0.295074 25:0.446703 26:-0.152397 27:-0.00575615 28:0.355714 29:-0.0964654 30:0.233608 31:-0.177183 32:-0.176184 33:0.0193426 34:0.0756239 35:-0.00701266 36:-0.327213 37:-0.055425 38:-0.0472546 39:-0.00214011 40:0.14191 41:0.179546 42:-0.174618 43:0.188592 44:-0.167585 45:-0.320801 46:0.0587646 47:-0.10031 48:-0.277812 49:-0.00445221 50:0.0261159 51:-0.0193542 52:-0.0909368 53:0.0125772 54:-0.0105609 55:-0.115498 56:-0.133185 57:-0.0792085 58:-0.0023498 59:-0.209005 60:-0.0922605 61:-0.0336304 62:-0.200121 63:-0.238578 
3.421257537719191 0:-0.0975222 1:0.152696 2:-0.298069 3:-0.358754 4:-0.492234 5:-0.0297098 6:0.133008 7:-0.0661988 8:0.0973085 9:-0.119049 10:-0.231912 11:-0.0360932 12:0.048686 13:-0.249346 14:0.453305 15:-0.0405706 16:-0.208169 17:0.0247405 18:-0.0324533 19:-0.186119 20:0.205434 21:-0.198133 22:-0.231035 23:0.081473 24:0.295446 25:0.457399 26:-0.177354 27:-0.0439379 28:0.382255 29:0.0579364 30:0.279184 31:-0.23438 32:-0.216137 33:0.0839028 34:0.0773644 35:-0.109203 36:-0.259017 37:-0.00822521 38:-0.0958371 39:-0.0689175 40:0.089057 41:0.190913 42:-0.121304 43:0.174094 44:-0.14435 45:-0.350728 46:0.0962104 47:-0.0267363 48:-0.224212 49:0.00703603 50:0.0626209 51:-0.0390841 52:-0.0912781 53:-0.0161599 54:-0.00321308 55:-0.143642 56:-0.141095 57:-0.0474204 58:0.00225064 59:-0.20083 60:-0.0857718 61:-0.0396314 62:-0.186745 63:-0.218536 
2.223365846953859 0:-0.0478544 1:0.111517 2:-0.285201 3:-0.383626 4:-0.343329 5:-0.142713 6:-0.0028071 7:0.0369091 8:0.065941 9:-0.206329 10:-0.184348 11:-0.0845543 12:0.0629987 13:-0.239908 14:0.437693 15:-0.0132324 16:-0.289184 17:-0.0246516 18:-0.0291582 19:-0.233371 20:0.188082 21:-0.132222 22:-0.207847 23:0.018374 24:0.329674 25:0.428609 26:-0.211658 27:-0.0241167 28:0.396514 29:-0.0261822 30:0.200991 31:-0.189821 32:-0.262522 33:0.00799987 34:0.0888932 35:-0.0521551 36:-0.380792 37:-0.0910346 38:-0.0756279 39:-0.0898139 40:0.0708435 41:0.146745 42:-0.166857 43:0.205173 44:-0.17469 45:-0.382958 46:0.0932938 47:-0.0125427 48:-0.210682 49:0.0159655 50:0.04643 51:-0.05565 52:-0.122147 53:-0.00186762 54:-0.0345059 55:-0.175018 56:-0.162594 57:-0.0763478 58:-0.0433226 59:-0.248159 60:-0.163558 61:-0.0486853 62:-0.22282 63:-0.256022 
2.376736345919033 0:-0.0634207 1:0.136438 2:-0.33075 3:-0.278371 4:-0.404503 5:-0.129011 6:-0.0212883 7:0.0507254 8:0.233804 9:-0.121401 10:-0.20692 11:-0.0156736 12:0.0549174 13:-0.265078 14:0.481141 15:-0.0457942 16:-0.261805 17:0.0386236 18:-0.0176259 19:-0.172523 20:0.165317 21:-0.166199 22:-0.235253 23:0.0172547 24:0.310893 25:0.459453 26:-0.294329 27:-0.0553949 28:0.394959 29:-0.0536245 30:0.240148 31:-0.186237 32:-0.257455 33:0.0923702 34:0.149013 35:0.0536144 36:-0.326941 37:-0.0340376 38:-0.0321681 39:-0.0558398 40:0.14509 41:0.161078 42:-0.14034 43:0.284482 44:-0.121667 45:-0.276578 46:0.113878 47:0.00240229 48:-0.187305 49:0.048991 50:0.0969043 51:0.0180239 52:-0.0626274 53:-0.00557607 54:0.0505526 55:-0.126617 56:-0.115548 57:-0.0255326 58:0.0376853 59:-0.1622 60:-0.0432456 61:0.0223882 62:-0.157912 63:-0.181499 
1.863736626293377 0:-0.0488173 1:0.0642851 2:-0.372031 3:-0.429134 4:-0.356706 5:-0.0220681 6:0.0733399 7:0.0384839 8:0.0969373 9:-0.113738 10:-0.153319 11:0.000532676 12:-0.014311 13:-0.270177 14:0.412064 15:0.0347184 16:-0.233248 17:0.127477 18:-0.0697081 19:-0.151439 20:0.181165 21:-0.159471 22:-0.229921 23:0.0417864 24:0.319198 25:0.451181 26:-0.270171 27:-0.041596 28:0.38023 29:-0.00610741 30:0.143129 31:-0.222581 32:-0.157084 33:0.0860944 34:0.0564386 35:-0.0574656 36:-0.384562 37:-0.102956 38:-0.0759629 39:-0.135242 40:0.0634208 41:0.219914 42:-0.1729 43:0.272773 44:-0.197259 45:-0.344152 46:0.0675982 47:-0.0470778 48:-0.235615 49:-0.0488317 50:0.0630372 51:-0.0672607 52:-0.114402 53:-0.0473135 54:-0.0498065 55:-0.221589 56:-0.1289 57:-0.0741517 58:-0.0434156 59:-0.24822 60:-0.128871 61:-0.0449115 62:-0.210138 63:-0.272045 
2.279198133388442 0:-0.074927 1:0.109011 2:-0.280616 3:-0.482426 4:-0.202405 5:-0.162016 6:0.129511 7:0.0172609 8:0.166077 9:-0.144458 10:-0.132267 11:-0.000642983 12:0.0404829 13:-0.210289 14:0.419934 15:-0.0906182 16:-0.269949 17:0.0779975 18:-0.00832631 19:-0.231115 20:0.1671 21:-0.170444 22:-0.231453 23:0.0393579 24:0.351891 25:0.457196 26:-0.215344 27:-0.0260393 28:0.383678 29:0.0260014 30:0.217407 31:-0.18016 32:-0.171701 33:0.0387129 34:0.119603 35:0.0322318 36:-0.358387 37:-0.021303 38:-0.0591655 39:-0.063056 40:0.154645 41:0.214883 42:-0.144357 43:0.253328 44:-0.136962 45:-0.312769 46:0.133897 47:0.05309 48:-0.18107 49:0.0297206 50:0.0844328 51:-0.0312456 52:-0.0778273 53:0.00451084 54:-0.0166733 55:-0.134168 56:-0.100042 57:-0.0269159 58:0.0250835 59:-0.16174 60:-0.0598977 61:0.0106853 62:-0.153212 63:-0.201028 
4.508272668374524 0:-0.0520108 1:0.11663 2:-0.362715 3:-0.39428 4:-0.32004 5:-0.120769 6:0.202583 7:-0.00763813 8:0.0741181 9:-0.177072 10:-0.229463 11:-0.0352006 12:0.0278526 13:-0.279885 14:0.430206 15:0.00775499 16:-0.278038 17:-0.000387995 18:-0.0396927 19:-0.162847 20:0.168587 21:-0.174388 22:-0.201344 23:0.0496384 24:0.363527 25:0.440834 26:-0.178047 27:-0.0364437 28:0.387049 29:0.00199738 30:0.196723 31:-0.17353 32:-0.131358 33:0.0690016 34:0.0896131 35:-0.00888685 36:-0.315519 37:-0.0794363 38:-0.0165035 39:-0.0486544 40:0.0960807 41:0.216388 42:-0.160721 43:0.238375 44:-0.147021 45:-0.295298 46:0.0981723 47:0.0593434 48:-0.224981 49:0.000136698 50:0.0538277 51:-0.0482709 52:-0.088062 53:0.00930295 54:0.0162938 55:-0.177417 56:-0.112816 57:-0.0458599 58:0.0184026 59:-0.171343 60:-0.0867173 61:-0.0159469 62:-0.181064 63:-0.206844 
4.124826278500225 0:-0.0862888 1:0.145116 2:-0.38732 3:-0.331251 4:-0.431976 5:-0.204323 6:0.0338847 7:0.108483 8:0.199137 9:-0.181576 10:-0.144526 11:-0.0623258 12:0.053875 13:-0.239528 14:0.430038 15:-0.0352164 16:-0.244377 17:0.0385118 18:0.00582548 19:-0.186383 20:0.176182 21:-0.171141 22:-0.205757 23:0.0689939 24:0.375415 25:0.426108 26:-0.144312 27:-0.0134619 28:0.391925 29:-0.000556531 30:0.190847 31:-0.180881 32:-0.211655 33:0.0486248 34:0.0690933 35:0.11721 36:-0.314352 37:-0.0758179 38:-0.0205952 39:-0.107419 40:0.0880438 41:0.190579 42:-0.20818 43:0.232436 44:-0.111279 45:-0.312133 46:0.102766 47:0.00679223 48:-0.201717 49:0.0044607 50:0.0616149 51:-0.0052973 52:-0.0529294 53:0.0224199 54:0.0165471 55:-0.134268 56:-0.0968411 57:-0.0155469 58:0.0133451 59:-0.168189 60:-0.0763167 61:-0.011302 62:-0.1829 63:-0.195931 
2.753510059857252 0:-0.0807684 1:0.13824 2:-0.379871 3:-0.313048 4:-0.293329 5:-0.210559 6:0.28559 7:0.00868054 8:0.163435 9:-0.118856 10:-0.171169 11:-0.0555624 12:0.0204505 13:-0.243808 14:0.432607 15:-0.0194665 16:-0.245703 17:-0.0356394 18:-0.0487136 19:-0.22921 20:0.152004 21:-0.190195 22:-0.225946 23:0.0644631 24:0.325312 25:0.492116 26:-0.139955 27:-0.0181926 28:0.358373 29:-0.068332 30:0.200284 31:-0.243215 32:-0.179302 33:-0.0096288 34:0.0870153 35:-0.0148996 36:-0.333792 37:-0.0237522 38:-0.0791483 39:-0.104111 40:0.0963172 41:0.138277 42:-0.254811 43:0.223384 44:-0.120261 45:-0.324041 46:0.127256 47:0.125429 48:-0.226739 49:0.0409217 50:0.0530658 51:-0.00786676 52:-0.0732474 53:0.0197646 54:0.0107176 55:-0.13664 56:-0.0703659 57:-0.0513673 58:0.0338125 59:-0.157757 60:-0.0640447 61:0.0139562 62:-0.167568 63:-0.185238 
2.61631782868573 0:-0.0523638 1:0.083866 2:-0.230056 3:-0.414529 4:-0.421913 5:-0.0530013 6:0.219871 7:0.160124 8:0.108968 9:-0.188816 10:-0.24903 11:-0.0322277 12:0.048419 13:-0.235803 14:0.378825 15:-0.000758944 16:-0.236205 17:0.0909203 18:-0.0224984 19:-0.206477 20:0.183859 21:-0.148878 22:-0.229572 23:0.0793972 24:0.31025 25:0.462285 26:-0.231901 27:-0.0207536 28:0.303256 29:-0.00660793 30:0.176165 31:-0.221412 32:-0.164101 33:0.0782822 34:0.101657 35:-0.0162778 36:-0.385642 37:-0.0713567 38:-0.0274385 39:0.00517827 40:0.0491568 41:0.153083 42:-0.178855 43:0.281478 44:-0.186531 45:-0.34268 46:0.119299 47:0.0600377 48:-0.19583 49:0.0125774 50:0.0381406 51:-0.0356328 52:-0.108543 53:-0.00455544 54:-0.0125175 55:-0.158483 56:-0.0863924 57:-0.0641781 58:0.0104255 59:-0.183505 60:-0.0635385 61:-0.0149007 62:-0.14432 63:-0.205084 
3.893117805382742 0:0.0546587 1:0.133257 2:-0.365719 3:-0.409988 4:-0.379586 5:0.0511509 6:0.113042 7:0.0360885 8:0.0644841 9:-0.166002 10:-0.161354 11:-0.055601 12:0.0497581 13:-0.263757 14:0.4145 15:-0.043359 16:-0.244295 17:-0.0137851 18:-0.0179342 19:-0.184491 20:0.183919 21:-0.171743 22:-0.201163 23:0.0881448 24:0.352239 25:0.465822 26:-0.209243 27:-0.0222137 28:0.374362 29:-0.062708 30:0.195947 31:-0.218409 32:-0.175404 33:0.0150659 34:0.0703264 35:-0.0126211 36:-0.3233 37:-0.0737447 38:-0.052491 39:-0.110627 40:0.0564174 41:0.140069 42:-0.182229 43:0.224445 44:-0.161693 45:-0.325593 46:0.0990259 47:0.0257765 48:-0.270555 49:0.0162848 50:0.0771163 51:-0.0381332 52:-0.106781 53:-0.0198988 54:-0.00757856 55:-0.194363 56:-0.126035 57:-0.104602 58:-0.00766744 59:-0.230104 60:-0.112428 61:-0.0211422 62:-0.186078 63:-0.225482 
5.425271940040464 0:-0.0957249 1:0.109241 2:-0.213662 3:-0.324143 4:-0.355727 5:-0.27546 6:0.161945 7:0.0702185 8:0.0892204 9:-0.136236 10:-0.148009 11:-0.0714676 12:0.0481131 13:-0.261803 14:0.423915 15:-0.0345804 16:-0.240202 17:0.0184821 18:-0.08464 19:-0.13131 20:0.244125 21:-0.157047 22:-0.21291 23:0.0510415 24:0.280905 25:0.450343 26:-0.205691 27:-0.0020466 28:0.353667 29:-0.00605052 30:0.205374 31:-0.211206 32:-0.171117 33:0.048185 34:0.114424 35:-0.0796957 36:-0.328737 37:-0.0588468 38:-0.0425501 39:-0.0594029 40:0.0819397 41:0.191279 42:-0.164286 43:0.257497 44:-0.166922 45:-0.316745 46:0.104592 47:0.0391486 48:-0.22513 49:0.0300153 50:0.0741195 51:-0.000362919 52:-0.0630536 53:0.0291898 54:0.00964707 55:-0.12138 56:-0.0965559 57:-0.0399756 58:0.00342314 59:-0.185937 60:-0.0619022 61:-0.000177123 62:-0.165979 63:-0.184885 
2.652437682803901 0:-0.0929326 1:0.111709 2:-0.269099 3:-0.3751 4:-0.35871 5:-0.034029 6:0.122999 7:0.156784 8:0.0160046 9:-0.142983 10:-0.22949 11:-0.0495207 12:0.106951 13:-0.202145 14:0.398811 15:0.0094845 16:-0.287531 17:0.0702496 18:-0.0507242 19:-0.244824 20:0.183708 21:-0.200124 22:-0.243413 23:0.0310313 24:0.326315 25:0.453972 26:-0.247732 27:-0.0379397 28:0.33956 29:-0.0337529 30:0.177606 31:-0.19588 32:-0.203859 33:0.0673613 34:0.0831118 35:-0.0053684 36:-0.325557 37:-0.0788087 38:-0.118362 39:-0.0754425 40:0.103011 41:0.15865 42:-0.213213 43:0.241868 44:-0.125006 45:-0.345068 46:0.110987 47:-0.0304591 48:-0.23784 49:-0.0020631 50:0.0637988 51:-0.0525685 52:-0.089158 53:-0.0139632 54:-0.0234639 55:-0.17926 56:-0.0973391 57:-0.0859278 58:-0.0289032 59:-0.240508 60:-0.117943 61:-0.0268761 62:-0.177578 63:-0.228482 
-3.131488322309574 0:-0.0731778 1:0.153237 2:-0.217147 3:-0.415696 4:-0.413125 5:-0.106487 6:0.147581 7:-0.0108142 8:0.0750648 9:-0.149351 10:-0.174424 11:-0.0418677 12:0.0447195 13:-0.248913 14:0.4027 15:-0.0144967 16:-0.266364 17:0.0259038 18:-0.0189653 19:-0.18661 20:0.189904 21:-0.173288 22:-0.207587 23:0.0783309 24:0.329166 25:0.448426 26:-0.239669 27:-0.0178572 28:0.391723 29:-0.0463077 30:0.203541 31:-0.215941 32:-0.148119 33:0.0368576 34:0.119733 35:-0.00918687 36:-0.332624 37:-0.122344 38:-0.0298799 39:-0.0717501 40:0.14488 41:0.204643 42:-0.197599 43:0.266939 44:-0.128133 45:-0.304446 46:0.0964124 47:0.0249286 48:-0.188558 49:0.0300355 50:0.0603782 51:-0.0110528 52:-0.0592319 53:0.00774728 54:0.0164588 55:-0.146289 56:-0.0932229 57:-0.0180373 58:0.0178394 59:-0.187437 60:-0.0632987 61:0.00987509 62:-0.159395 63:-0.196219 
-0.9879684595954852 0:-0.00227878 1:0.443731 2:-0.137458 3:-0.307928 4:-0.42508 5:-0.16959 6:0.109858 7:0.000214056 8:0.0834767 9:-0.186711 10:-0.227977 11:-0.0670271 12:0.0127799 13:-0.291169 14:0.40889 15:-0.0372298 16:-0.265762 17:0.0247648 18:-0.0137818 19:-0.237311 20:0.193003 21:-0.193046 22:-0.215986 23:0.0665065 24:0.329239 25:0.445229 26:-0.267866 27:-0.0365944 28:0.366067 29:-0.0253082 30:0.138635 31:-0.248941 32:-0.226077 33:0.0236375 34:0.0527503 35:-0.0704839 36:-0.391329 37:-0.152292 38:-0.0654063 39:-0.110714 40:0.0157787 41:0.0973858 42:-0.271992 43:0.180527 44:-0.220396 45:-0.44235 46:0.0249649 47:-0.140137 48:-0.360738 49:-0.0949642 50:-0.0464223 51:-0.161088 52:-0.216027 53:-0.123269 54:-0.188155 55:-0.333254 56:-0.258536 57:-0.214392 58:-0.163785 59:-0.395846 60:-0.247157 61:-0.167365 62:-0.333278 63:-0.362901 
-1.641063220597522 0:0.0444844 1:-0.0285723 2:-0.147972 3:-0.50493 4:-0.608997 5:-0.169104 6:0.0256402 7:-0.499116 8:-0.0477936 9:-0.187102 10:-0.00384272 11:0.023742 12:0.188855 13:-0.191257 14:0.405111 15:-0.234123 16:-0.600955 17:0.101739 18:0.0544427 19:-0.398857 20:0.102041 21:-0.0467396 22:-0.25639 23:0.213401 24:0.158957 25:0.129571 26:-0.353842 27:-0.261035 28:0.384942 29:0.276802 30:0.360634 31:0.124871 32:-0.00350809 33:0.416467 34:0.00606023 35:-0.00931935 36:-0.607731 37:-0.28885 38:0.0469875 39:-0.115994 40:0.0879289 41:0.367873 42:-0.210842 43:0.188692 44:-0.271673 45:-0.457251 46:-0.0715682 47:0.11642 48:-0.343372 49:-0.273776 50:-0.241193 51:-0.400998 52:-0.359185 53:-0.141433 54:-0.315065 55:-0.816525 56:-0.288039 57:-0.347338 58:-0.381516 59:-0.527801 60:-0.630256 61:-0.375858 62:-0.435113 63:-0.739329 
