svm_type c_svc
kernel_type rbf
gamma 0.00195312
nr_class 2
total_sv 59
rho -15.2848
label 3 2
nr_sv 29 30
SV
512 1:-0.062397 2:-0.547635 3:0.0856686 4:0.48415 5:-0.587274 6:0.0165175 7:-0.283929 8:-0.184772 9:-0.604608 10:-0.194469 11:-0.252223 12:-0.511127 13:-0.356656 14:0.0645675 15:0.193817 16:-1 17:-0.321602 18:-0.431147 19:0.0422156 20:-0.35129 21:-0.351348 22:0.0410013 23:-0.320868 24:0.165401 25:-0.259842 26:-0.584966 27:-0.359086 28:0.185632 29:-0.311111 30:-1 31:-0.307214 32:-0.174437 33:-0.302985 34:-0.607145 35:-0.334286 36:-0.194746 37:-0.663442 38:-0.45567 39:-0.242156 40:-0.156082 41:-0.668964 42:-0.514164 43:-0.467731 44:-0.424149 45:-0.402438 46:-0.163011 47:-0.324026 48:-0.346838 49:-0.199827 50:-0.157805 51:-0.277845 52:-0.175047 53:-0.0560691 54:-0.168194 55:-0.106567 56:-0.245482 57:-0.0877663 58:-0.197963 59:-0.221203 60:-0.225778 
468.6332995812552 1:-0.759598 2:-0.521155 3:-0.335713 4:0.282298 5:-0.112812 6:-0.287678 7:-0.305564 8:-0.331387 9:-0.510277 10:-0.368152 11:-0.178643 12:-0.95563 13:-0.40396 14:0.162 15:0.286634 16:-0.348379 17:-0.504073 18:-0.561677 19:-0.346451 20:-0.827753 21:-0.26331 22:-1 23:-0.470767 24:0.165241 25:-0.157473 26:-0.104512 27:-0.0643412 28:-0.633042 29:-0.43066 30:-0.0880925 31:-0.365847 32:-0.652406 33:-0.0172551 34:-0.401444 35:-0.332585 36:-0.0522129 37:-0.648218 38:-0.876198 39:-0.865446 40:-0.371169 41:-0.400743 42:-0.315876 43:-0.546676 44:-0.468375 45:-0.755488 46:-0.348178 47:-0.584218 48:-0.494539 49:-0.413286 50:-0.259301 51:-0.449491 52:-0.351088 53:-0.188173 54:-0.290016 55:-0.301033 56:-0.335965 57:-0.334995 58:-0.413962 59:-0.211162 60:-0.396291 
512 1:0.0486432 2:0.0821478 3:-0.305023 4:-0.184385 5:-0.320809 6:-0.545299 7:-0.286705 8:-0.289633 9:-0.283966 10:-0.215862 11:0.0417826 12:-0.495619 13:-0.819253 14:-0.103029 15:-0.437434 16:-0.293668 17:-0.42536 18:-0.298721 19:-0.127322 20:-0.85096 21:-0.92298 22:-0.057511 23:-0.131719 24:0.208612 25:-0.518495 26:-0.380751 27:-0.0343332 28:-0.361326 29:-0.119262 30:-0.414451 31:-0.079623 32:-0.352971 33:-0.0873661 34:-0.356988 35:-0.255555 36:-0.143735 37:-0.535835 38:-0.672158 39:-0.354146 40:-0.257279 41:-0.119292 42:-0.242635 43:-0.353135 44:-0.138988 45:-0.406247 46:-0.136102 47:-0.214595 48:-0.233642 49:-0.143079 50:-0.0649507 51:0.00100898 52:-0.138503 53:-0.108482 54:-0.069951 55:-0.17506 56:-0.0782948 57:-0.0864463 58:-0.241699 59:-0.0369035 60:-0.243397 
140.3577207408715 1:-0.619191 2:-0.679371 3:-0.622963 4:0.10592 5:-0.230931 6:-1 7:-0.765637 8:-0.561081 9:-0.411101 10:-0.306691 11:-0.0968512 12:-0.198272 13:-0.832169 14:-0.239643 15:-0.523254 16:-0.34618 17:-0.399196 18:-0.284551 19:-0.100783 20:-0.454288 21:-0.24211 22:-0.325017 23:-0.623737 24:0.441869 25:-0.24504 26:-0.371919 27:-0.182989 28:0.0877592 29:0.192748 30:-0.0106942 31:-0.316902 32:-0.252676 33:-0.150695 34:-0.469096 35:-0.434502 36:-0.462911 37:-0.221962 38:-0.596558 39:-0.564468 40:-0.582186 41:-0.87271 42:-0.275774 43:-0.497081 44:-0.466927 45:-0.952271 46:-1 47:-0.488443 48:-0.855455 49:-1 50:-0.710671 51:-0.454855 52:-0.644517 53:-1 54:-0.635546 55:-1 56:-0.604731 57:-0.719359 58:-0.848178 59:-0.510187 60:-0.729347 
356.9509055164368 1:-0.745774 2:-0.56232 3:-0.76839 4:-0.610676 5:-0.0975274 6:-0.785384 7:-0.166862 8:-0.997856 9:-0.562372 10:-0.381731 11:-0.0344118 12:-0.338344 13:-0.262664 14:-1 15:-0.892147 16:-0.128938 17:-0.391133 18:-0.2692 19:-0.382429 20:-0.457701 21:-0.64702 22:0.150676 23:-0.544621 24:-0.178547 25:-0.0189424 26:-0.0538962 27:0.265303 28:0.142757 29:0.396077 30:-0.140388 31:-0.498847 32:-0.236405 33:-0.35066 34:-0.699102 35:-0.466313 36:-0.539649 37:-0.0885034 38:-0.550712 39:-0.527942 40:-0.438709 41:-0.461296 42:-0.479121 43:-0.760213 44:-0.750205 45:-0.656652 46:-0.532622 47:-0.615098 48:-0.364242 49:-0.328703 50:-0.319206 51:-0.334126 52:-0.550835 53:-0.24474 54:-0.386274 55:-0.286195 56:-0.440001 57:-0.576362 58:-0.541385 59:-0.432553 60:-0.540848 
336.0827704369886 1:-0.31078 2:-0.12624 3:-0.271129 4:0.1775 5:-0.184572 6:-0.151796 7:-0.187169 8:-0.28928 9:-0.238546 10:-0.688066 11:-0.0412596 12:-0.458869 13:-0.547778 14:0.00538452 15:-0.201561 16:-0.24409 17:-0.746643 18:0.0363696 19:-0.255178 20:0.0610352 21:-0.684916 22:-0.164442 23:-0.104342 24:0.153264 25:-0.108828 26:-0.415155 27:0.117645 28:-0.490459 29:0.0181201 30:-0.0746567 31:-0.479994 32:-0.507372 33:-0.336466 34:-0.62893 35:-0.824708 36:-0.907949 37:-0.955161 38:-0.586745 39:-0.382667 40:-0.414852 41:-0.527422 42:-0.566546 43:-0.479427 44:-0.42923 45:-0.53796 46:-0.332029 47:-0.342508 48:-0.47279 49:-0.477856 50:-0.255343 51:-0.406036 52:-0.291437 53:-0.176673 54:-0.383577 55:-0.23736 56:-0.427578 57:-0.41481 58:-0.678225 59:-0.331127 60:-0.344051 
79.72407214196565 1:-0.612593 2:-0.60685 3:-0.307472 4:-0.497648 5:-0.324932 6:-0.0340602 7:-0.28208 8:-0.274574 9:-0.807499 10:-0.629878 11:-0.268105 12:-0.38419 13:-0.651257 14:-0.0420246 15:0.168691 16:-0.227676 17:-0.219999 18:-0.246507 19:-0.201081 20:-0.487601 21:-0.689578 22:-0.388144 23:-0.794901 24:-0.00478422 25:-0.265409 26:0.0388298 27:0.178839 28:0.101716 29:-0.27018 30:0.0723993 31:-0.258323 32:-0.436713 33:-0.471448 34:-0.312863 35:-0.580748 36:-0.740265 37:-0.248618 38:-0.643303 39:-0.482724 40:-0.880744 41:-0.637099 42:-0.340081 43:-0.513613 44:-0.506338 45:-0.695498 46:-0.40379 47:-0.435638 48:-0.763776 49:-0.695764 50:-0.27643 51:-0.474378 52:-0.384117 53:-0.347993 54:-0.527139 55:-0.462932 56:-0.344012 57:-0.434622 58:-0.425032 59:-0.200282 60:-0.406516 
136.8523430978668 1:0.050993 2:0.254258 3:-0.171228 4:-0.300139 5:0.148851 6:-0.211752 7:0.0877555 8:-0.535369 9:-0.0533105 10:-0.0383099 11:0.214644 12:-0.0170598 13:-0.15587 14:-0.0424385 15:0.271945 16:0.122694 17:-0.259754 18:-0.0497345 19:0.23451 20:0.226357 21:0.280821 22:0.620855 23:0.221589 24:0.918093 25:-0.0421618 26:0.40836 27:0.597037 28:0.456133 29:0.29322 30:0.725289 31:0.615794 32:0.347789 33:0.730815 34:0.590147 35:0.510025 36:0.555239 37:0.593314 38:0.526183 39:0.641044 40:0.55546 41:0.580225 42:0.635402 43:0.606181 44:0.655752 45:0.578767 46:0.641071 47:0.607355 48:0.653745 49:0.605848 50:0.648274 51:0.695171 52:0.675724 53:0.688397 54:0.677591 55:0.713618 56:0.655635 57:0.658132 58:0.669725 59:0.694818 60:0.655465 
255.9269949220301 1:-0.683578 2:-0.665179 3:-0.566406 4:-0.00595488 5:-0.353285 6:-0.618577 7:-0.248005 8:-0.453798 9:-0.71738 10:-0.65672 11:-0.46494 12:-0.78231 13:-0.399156 14:-0.202809 15:-0.730303 16:-0.459851 17:-0.148019 18:-0.55074 19:-0.679847 20:-0.0472076 21:-0.00320055 22:0.325079 23:0.0705829 24:-0.0791152 25:-0.670215 26:0.0520219 27:0.23453 28:0.266448 29:-0.251863 30:0.201436 31:-0.281552 32:-0.320665 33:-0.82795 34:-0.471531 35:-0.20272 36:-0.337848 37:-0.284466 38:-0.667905 39:-0.594955 40:-0.550299 41:-0.790928 42:-0.887825 43:-0.649612 44:-0.6267 45:-0.935507 46:-0.810318 47:-0.828009 48:-0.729955 49:-0.816925 50:-0.615562 51:-1 52:-1 53:-0.479517 54:-0.710108 55:-0.776646 56:-1 57:-1 58:-0.962463 59:-0.725088 60:-0.788704 
242.926402452709 1:-0.349955 2:-0.436073 3:-0.618923 4:-0.268839 5:-0.359738 6:-0.25272 7:-1 8:0.0144897 9:-0.186486 10:-0.377085 11:0.0166895 12:-0.402002 13:-0.402128 14:0.065171 15:-0.509332 16:0.114036 17:0.304236 18:-0.122673 19:-0.167123 20:0.196436 21:0.56171 22:0.20618 23:0.760912 24:0.381187 25:-0.168071 26:0.00381072 27:0.525011 28:0.73114 29:-0.587614 30:0.0702707 31:-0.227071 32:0.00752012 33:-0.212135 34:-0.334681 35:-0.0778903 36:0.0608814 37:-0.501689 38:-0.194648 39:-0.475251 40:-0.227562 41:-1 42:-0.0924991 43:-1 44:-0.545202 45:-0.478932 46:-0.374345 47:-0.32254 48:-0.341134 49:-0.614283 50:-0.262787 51:-0.421666 52:-0.318949 53:-0.356901 54:-0.439715 55:-0.268446 56:-0.463716 57:-0.291428 58:-0.426752 59:-0.329781 60:-0.459217 
512 1:-0.563132 2:-0.587988 3:-0.699428 4:-0.437131 5:-0.522754 6:-0.609236 7:-0.183555 8:-0.620697 9:-0.489932 10:0.0648824 11:0.0995586 12:-0.212146 13:-0.320963 14:0.182069 15:-0.148165 16:-0.154629 17:-0.120422 18:-0.125377 19:0.294649 20:0.553867 21:0.0972556 22:-0.326641 23:-0.0355408 24:0.2878 25:-0.110209 26:0.305504 27:0.0634009 28:0.487387 29:-0.0348716 30:0.179795 31:0.0831544 32:-0.0735249 33:0.109161 34:0.122633 35:-0.181063 36:-0.452482 37:-0.036521 38:-0.383109 39:-0.29028 40:-0.31523 41:-0.62151 42:-0.235656 43:-0.390999 44:-0.392218 45:-0.373393 46:-0.252167 47:-0.479942 48:-0.511852 49:-0.366493 50:-0.223677 51:-0.265253 52:-0.243645 53:-0.17449 54:-0.499075 55:-0.206772 56:-0.320717 57:-0.509405 58:-0.542376 59:-0.192684 60:-0.491609 
343.326491430664 1:-0.897536 2:-0.64812 3:-0.600895 4:-0.214252 5:-0.524556 6:-0.41954 7:-0.417718 8:-0.53158 9:-0.425748 10:-0.284291 11:-0.10335 12:-0.406503 13:-0.333168 14:0.0864428 15:0.058818 16:0.0343428 17:-0.708897 18:-0.128411 19:-0.236233 20:0.0569222 21:-0.421861 22:0.0681979 23:-0.0871951 24:0.155559 25:0.0770395 26:0.0544326 27:-0.41123 28:0.174575 29:-0.0249959 30:0.0696538 31:-0.42736 32:-0.365379 33:-0.354259 34:-0.746587 35:0.0651589 36:-0.734958 37:-0.455878 38:-0.916496 39:-0.226846 40:-0.217436 41:-0.375278 42:-0.363075 43:-0.608754 44:-0.512667 45:-0.509197 46:-0.320872 47:-0.447154 48:-0.318224 49:-0.44914 50:-0.167396 51:-0.259462 52:-0.41103 53:-0.193279 54:-0.289227 55:-0.199827 56:-0.203798 57:-0.385147 58:-0.364516 59:-0.178248 60:-0.34968 
13.7776565226259 1:1 2:1 3:1 4:0.794312 5:1 6:1 7:1 8:1 9:1 10:1 11:1 12:1 13:1 14:1 15:0.487901 16:1 17:1 18:1 19:0.83519 20:1 21:1 22:1 23:0.481595 24:0.765694 25:1 26:1 27:1 28:0.949257 29:1 30:1 31:1 32:1 33:1 34:1 35:1 36:1 37:1 38:1 39:1 40:1 41:1 42:1 43:1 44:1 45:1 46:1 47:1 48:1 49:1 50:1 51:1 52:1 53:1 54:1 55:1 56:1 57:1 58:1 59:1 60:1 
74.65117347477037 1:-0.21053 2:0.00239922 3:-0.123014 4:1 5:0.338848 6:0.590929 7:0.456963 8:0.286419 9:0.383428 10:0.231207 11:0.32687 12:-0.147002 13:-0.094671 14:0.566571 15:0.289832 16:0.629548 17:0.236692 18:0.433649 19:0.966999 20:0.676944 21:0.681092 22:0.0533196 23:0.939952 24:0.690887 25:0.397085 26:-0.31857 27:0.386153 28:0.198915 29:0.459132 30:0.411473 31:0.0417486 32:0.410408 33:0.313921 34:0.0576248 35:-0.154916 36:-0.247995 37:0.165377 38:0.125834 39:-0.00854652 40:0.312399 41:-0.118499 42:-0.0150256 43:0.222643 44:0.148922 45:-0.000809072 46:0.237439 47:0.131738 48:0.182176 49:0.125926 50:0.329762 51:0.284452 52:0.307521 53:0.291033 54:0.217542 55:0.208574 56:0.239827 57:0.301233 58:0.175843 59:0.288942 60:0.206989 
387.749295101518 1:-0.445464 2:-0.0197561 3:-0.302329 4:0.402715 5:0.396826 6:0.264716 7:0.36225 8:-0.013468 9:0.180052 10:0.281858 11:0.499357 12:-0.0739859 13:-0.412491 14:0.48511 15:0.251133 16:0.618534 17:0.374852 18:0.461257 19:0.470775 20:0.604703 21:0.17535 22:0.0678777 23:0.0125699 24:0.331153 25:0.24447 26:0.219836 27:-0.0194591 28:0.374414 29:0.222974 30:0.553771 31:0.0853837 32:-0.225696 33:0.0560681 34:-0.216964 35:-0.177815 36:-0.124501 37:-0.336431 38:-0.238967 39:-0.135534 40:-0.226089 41:-0.132653 42:-0.616428 43:-0.236635 44:-0.25948 45:-0.333358 46:-0.191202 47:0.0332786 48:-0.167554 49:-0.313206 50:0.042109 51:0.013863 52:-0.127402 53:0.0235468 54:-0.146684 55:0.0351763 56:-0.179767 57:-0.257246 58:-0.134111 59:-0.0698503 60:-0.272492 
512 1:-0.362334 2:-0.402969 3:-0.14621 4:0.555919 5:-0.0948223 6:0.0561035 7:0.472763 8:0.386858 9:-0.240071 10:0.597747 11:0.399526 12:-0.60291 13:-0.315472 14:0.267625 15:0.461856 16:0.471908 17:0.06362 18:0.0620859 19:0.682822 20:0.219176 21:0.303655 22:0.426877 23:0.592828 24:0.200965 25:0.0729645 26:0.222919 27:0.257838 28:0.195842 29:-0.00638479 30:0.310581 31:-0.4641 32:0.101369 33:0.0404566 34:-0.487809 35:-0.266464 36:-0.119064 37:-0.84102 38:-0.415691 39:-0.478261 40:-0.451854 41:-0.576232 42:-0.556033 43:-0.850348 44:-0.519072 45:-0.465914 46:-0.488839 47:-0.550322 48:-0.471227 49:-0.589471 50:-0.369987 51:-0.509107 52:-0.352473 53:-0.193102 54:-0.567865 55:-0.580903 56:-0.675115 57:-0.486181 58:-0.690666 59:-0.456891 60:-0.505215 
318.7032121170247 1:-0.516484 2:-0.416005 3:-0.468111 4:0.128683 5:0.261331 6:0.295416 7:0.19546 8:0.0214578 9:0.0728523 10:-0.154835 11:0.323564 12:-0.235724 13:-0.348887 14:0.237811 15:-0.00905884 16:-0.0773377 17:-0.128722 18:-0.0415765 19:0.385057 20:0.380338 21:-0.306091 22:-0.582907 23:0.190934 24:0.38507 25:-0.0995676 26:0.417063 27:0.45642 28:-0.22622 29:0.163815 30:-0.322239 31:-0.282002 32:0.0276309 33:0.114755 34:-0.122214 35:-0.406495 36:0.132701 37:-0.0285915 38:-0.434354 39:-0.226787 40:-0.165824 41:-0.500923 42:-0.188126 43:-0.266184 44:-0.174954 45:-0.414749 46:-0.131808 47:-0.262576 48:-0.272988 49:-0.130699 50:-0.0198648 51:-0.217952 52:-0.165759 53:-0.0118263 54:-0.0455187 55:-0.0280759 56:-0.179226 57:-0.114512 58:-0.167119 59:-0.211116 60:-0.210572 
254.1633057573632 1:-0.663569 2:-0.63653 3:-0.496281 4:-1 5:-0.876702 6:-0.346731 7:-0.0575582 8:-0.547862 9:-0.575509 10:-0.390011 11:-0.231869 12:-0.44682 13:-0.53758 14:-0.170403 15:-0.5306 16:-0.21329 17:-0.59841 18:-0.393983 19:0.148009 20:0.14294 21:-0.143078 22:0.0645619 23:-0.144402 24:-0.0423103 25:0.118936 26:0.05617 27:0.216544 28:0.221924 29:-0.190241 30:-0.173517 31:-0.285113 32:-0.158438 33:-0.278096 34:-0.228956 35:-0.514836 36:-0.701737 37:-0.696802 38:-0.459153 39:-0.586315 40:-0.675607 41:-0.5092 42:-0.878942 43:-0.609545 44:-0.723256 45:-0.904311 46:-0.309727 47:-0.713515 48:-0.947155 49:-0.658074 50:-0.790795 51:-0.691685 52:-0.728821 53:-0.293691 54:-0.547739 55:-0.587788 56:-0.774732 57:-0.880371 58:-0.829863 59:-0.430391 60:-0.975885 
170.9772337643698 1:-0.631506 2:-0.449144 3:-0.928903 4:-0.0748207 5:-0.21334 6:-0.206054 7:-0.157656 8:-0.0681211 9:-0.118401 10:0.208617 11:-0.330779 12:-0.371641 13:-0.392036 14:0.167528 15:-0.38376 16:-0.32311 17:0.248801 18:0.180817 19:-0.123615 20:0.0951636 21:-0.31375 22:0.490562 23:0.718369 24:0.084602 25:-0.226848 26:0.179609 27:-0.0585962 28:0.468687 29:-0.152939 30:0.378881 31:-0.0478985 32:0.0326548 33:0.15392 34:-0.125324 35:-0.227967 36:-0.369242 37:-0.153578 38:-0.638464 39:-0.330553 40:-0.597751 41:-0.538023 42:-0.224132 43:-0.390989 44:-0.281573 45:-0.706355 46:-0.535869 47:-0.53074 48:-0.45987 49:-0.748524 50:-0.35095 51:-0.66205 52:-0.556275 53:-0.26339 54:-0.557564 55:-0.379917 56:-0.61572 57:-0.472055 58:-0.890508 59:-0.342464 60:-0.694413 
50.5701183914284 1:0.0318771 2:0.81762 3:0.0177667 4:0.791788 5:0.370768 6:0.0672609 7:0.248881 8:0.125688 9:-0.394748 10:0.125651 11:-0.0533293 12:-0.0998803 13:-0.887757 14:0.258024 15:0.680932 16:0.553815 17:0.119223 18:-0.153694 19:0.580346 20:0.480414 21:0.0829594 22:0.435187 23:0.170586 24:0.256822 25:0.375798 26:-0.208998 27:0.00907672 28:0.336786 29:0.267101 30:0.53066 31:-0.260767 32:-0.078797 33:-0.205942 34:-0.516177 35:-0.101907 36:-0.611275 37:0.0311274 38:-0.34483 39:-0.0769418 40:0.154499 41:-0.246996 42:-0.160835 43:-0.0492611 44:0.0250839 45:-0.24861 46:-0.127442 47:-0.104389 48:0.0696397 49:-0.114129 50:-0.0168559 51:0.0410292 52:0.0665814 53:0.106532 54:0.00185057 55:0.0914877 56:0.102234 57:0.117551 58:-0.101372 59:0.123073 60:-0.0935512 
259.8981405139984 1:-0.493346 2:-0.299287 3:0.0724508 4:-0.0428663 5:0.144978 6:0.498735 7:0.368336 8:0.108017 9:0.0290284 10:0.19526 11:0.322654 12:-0.100554 13:-0.426394 14:0.215741 15:0.625999 16:-0.248645 17:0.326735 18:-0.348858 19:-0.198918 20:-0.0680964 21:0.0221064 22:0.426292 23:0.547885 24:0.391352 25:0.365372 26:-0.104192 27:0.604729 28:0.478899 29:0.334782 30:0.350223 31:0.00360209 32:-0.319572 33:-0.0425906 34:-0.342054 35:-0.0874976 36:-0.0124767 37:-0.416188 38:-0.135409 39:-0.232118 40:-0.20823 41:-0.143854 42:-0.574376 43:-0.296881 44:-0.290308 45:-0.636539 46:-0.314439 47:-0.384192 48:-0.312496 49:-0.25353 50:-0.0878398 51:-0.270553 52:-0.402449 53:-0.122536 54:-0.203851 55:-0.114886 56:-0.244907 57:-0.314423 58:-0.342962 59:-0.206999 60:-0.228261 
40.56442280072729 1:-0.471852 2:-0.448038 3:-0.22054 4:0.481557 5:-0.0700253 6:0.346935 7:0.288498 8:0.315107 9:0.085269 10:0.147522 11:0.225988 12:-0.0895446 13:-0.09159 14:0.563447 15:1 16:0.355673 17:-0.109994 18:0.0110542 19:0.672904 20:0.347734 21:0.446226 22:0.684277 23:0.751202 24:0.14644 25:0.201027 26:-0.157335 27:0.481387 28:0.283292 29:0.230802 30:0.0637168 31:-0.200665 32:0.0714024 33:-0.0575302 34:-0.131489 35:-0.273502 36:-0.134581 37:0.00927998 38:-0.550932 39:-0.150796 40:-0.135112 41:-0.312165 42:-0.273538 43:-0.158908 44:-0.0170837 45:-0.288719 46:-0.377038 47:-0.344428 48:-0.439026 49:-0.0915841 50:0.023372 51:-0.067684 52:-0.103552 53:-0.0832969 54:-0.0745859 55:-0.054829 56:-0.107579 57:-0.263775 58:-0.321349 59:-0.112309 60:-0.400944 
37.86886438494929 1:-0.748831 2:-0.571055 3:-0.387425 4:0.316209 5:0.15993 6:0.0152983 7:0.388647 8:0.287789 9:-0.164634 10:0.362165 11:0.390197 12:-0.00800361 13:-0.0269958 14:-0.00857467 15:0.822142 16:0.512648 17:0.208832 18:0.289193 19:-0.332058 20:0.397524 21:0.265514 22:0.124199 23:0.180129 24:-0.373542 25:-0.038487 26:-0.263408 27:-0.2129 28:0.278148 29:0.439759 30:0.269436 31:-0.386807 32:-0.0100019 33:0.0969372 34:0.0142974 35:-0.175189 36:-0.19631 37:0.0206363 38:-0.37519 39:-0.205499 40:-0.312175 41:-0.234875 42:-0.0657414 43:-0.303165 44:-0.347632 45:-0.440631 46:-0.396124 47:-0.282571 48:-0.322926 49:-0.403901 50:-0.115133 51:-0.307268 52:-0.116282 53:-0.118833 54:-0.227541 55:-0.168063 56:-0.183548 57:-0.344527 58:-0.367731 59:-0.124962 60:-0.364233 
361.3999962765999 1:-0.364085 2:-0.809367 3:-0.232475 4:-0.380151 5:0.0613314 6:0.321716 7:0.678187 8:0.317182 9:-0.301396 10:0.700434 11:0.0819512 12:-0.599586 13:-0.286635 14:0.563143 15:0.550626 16:0.201446 17:0.156226 18:0.47698 19:-0.188621 20:-0.639373 21:0.214531 22:0.366348 23:0.199615 24:0.603396 25:0.326707 26:0.160958 27:0.367716 28:0.204851 29:0.093072 30:0.095089 31:-0.210239 32:-0.944502 33:-0.339472 34:-0.544194 35:-0.473664 36:-0.365231 37:-0.12647 38:-0.632391 39:-0.624568 40:-0.405644 41:-0.335489 42:-0.335209 43:-0.156571 44:-0.46075 45:-0.586402 46:-0.104752 47:-0.300663 48:-0.622889 49:-0.448286 50:-0.146921 51:-0.297745 52:-0.485935 53:-0.279675 54:-0.43821 55:-0.153115 56:-0.319216 57:-0.355859 58:-0.257973 59:-0.254594 60:-0.465255 
115.7665884700441 1:-0.551619 2:-0.521151 3:-0.15099 4:0.461044 5:-0.406419 6:0.197494 7:0.0687679 8:0.0542699 9:-0.117799 10:-0.691525 11:-0.0968195 12:-0.582609 13:-0.590843 14:-0.0506891 15:0.789889 16:-0.267894 17:-0.232275 18:0.198347 19:0.398947 20:-0.168363 21:-0.378375 22:-0.134976 23:0.111115 24:0.408902 25:0.205699 26:0.36499 27:-0.0292453 28:0.165044 29:0.375337 30:0.400858 31:-0.370725 32:-0.282644 33:0.0399224 34:-0.587706 35:-0.171867 36:-0.117505 37:-0.0808812 38:-0.410555 39:-0.465812 40:-0.217703 41:-0.191898 42:-0.142256 43:-0.195154 44:-0.140276 45:-0.407934 46:-0.038377 47:-0.195783 48:-0.200475 49:-0.13607 50:0.121465 51:-0.110326 52:0.0180722 53:0.122419 54:-0.0299616 55:-0.0613062 56:-0.0274253 57:-0.0307783 58:-0.127678 59:0.0113502 60:-0.0609233 
512 1:-0.432145 2:-0.455101 3:-0.247734 4:0.273257 5:0.0869285 6:-0.00525799 7:0.15562 8:0.24885 9:-0.195355 10:0.388009 11:-0.0664411 12:-0.0334214 13:-0.128748 14:0.111741 15:0.555066 16:0.0234188 17:0.128584 18:0.0866346 19:-0.296149 20:0.0458404 21:-0.233968 22:-0.288041 23:-0.187631 24:0.139632 25:-0.343158 26:0.296246 27:-0.0623887 28:0.0216242 29:-0.109971 30:0.0691687 31:-0.140205 32:0.109366 33:-0.14967 34:-0.256515 35:-0.182019 36:-0.374598 37:-0.0665932 38:-0.213936 39:-0.643905 40:-0.342799 41:-0.772945 42:-0.343934 43:-0.111156 44:-0.0584637 45:-0.266736 46:-0.151973 47:-0.178135 48:-0.324282 49:-0.0781521 50:0.0450144 51:-0.062101 52:0.0094539 53:0.087801 54:-0.0136147 55:-0.0324907 56:-0.0894608 57:-0.105023 58:-0.0728917 59:-0.00919853 60:-0.0387888 
512 1:-0.573882 2:-0.45086 3:0.075454 4:0.0569517 5:0.0726263 6:0.228566 7:0.550212 8:-0.0363262 9:-0.178757 10:-0.16459 11:0.358859 12:-0.463196 13:-0.51337 14:0.486556 15:0.734398 16:-0.200287 17:0.107127 18:0.400226 19:0.625647 20:0.0419186 21:-0.159918 22:-0.0214276 23:0.349392 24:0.503736 25:-0.067693 26:-0.350436 27:-0.12059 28:0.129076 29:0.0501201 30:0.0619948 31:-0.315972 32:-0.0571451 33:-0.174407 34:-0.34068 35:-0.680674 36:-0.589862 37:0.0509877 38:-0.67384 39:-0.664916 40:-0.133903 41:-0.69363 42:-0.270495 43:-0.263021 44:-0.301044 45:-0.4439 46:-0.180204 47:-0.321443 48:-0.281585 49:-0.284622 50:-0.0704114 51:-0.410098 52:-0.148713 53:-0.11889 54:-0.301259 55:-0.298589 56:-0.380517 57:-0.232753 58:-0.344636 59:-0.245923 60:-0.325443 
472.8854376015475 1:-0.609978 2:-0.190214 3:0.0188346 4:0.511927 5:-0.143903 6:-0.0561061 7:0.54161 8:0.0537035 9:0.503439 10:-0.100924 11:0.270352 12:0.11578 13:-0.126071 14:0.392879 15:0.874896 16:0.433225 17:-0.149726 18:0.268082 19:0.157491 20:0.182247 21:0.420786 22:0.420693 23:-0.0464095 24:0.389271 25:-0.124859 26:0.383409 27:-0.0922293 28:0.259267 29:0.323502 30:0.591547 31:-0.404951 32:-0.115684 33:-0.0993244 34:-0.329157 35:0.118205 36:-0.579426 37:-0.399773 38:-0.058402 39:-0.467177 40:-0.356079 41:-0.414753 42:0.0149381 43:-0.105651 44:-0.0347143 45:-0.191971 46:-0.0479164 47:-0.0970306 48:-0.0364911 49:-0.114987 50:0.000568796 51:-0.036725 52:0.0268139 53:0.117562 54:0.00163342 55:0.124289 56:0.00408634 57:0.00114051 58:-0.0234389 59:0.0518057 60:-0.0215996 
145.8123996749616 1:-0.809181 2:0.0107528 3:-0.704869 4:0.168542 5:0.0630609 6:0.0676576 7:0.0946222 8:-0.0522968 9:-0.0398543 10:-0.512827 11:-0.474229 12:-1 13:-0.328369 14:0.0638595 15:0.836311 16:0.209897 17:0.0840419 18:-0.0714801 19:0.33284 20:-0.249329 21:-0.15916 22:0.0783948 23:0.253476 24:0.55612 25:-0.0399748 26:-0.583501 27:0.159159 28:0.242419 29:-0.0217781 30:-0.28681 31:-0.390349 32:-0.132641 33:-0.143034 34:-0.309395 35:-0.205133 36:-0.635729 37:-0.125372 38:-0.700947 39:-0.424105 40:-0.35544 41:-0.210274 42:-0.245383 43:-0.302684 44:-0.330017 45:-0.364245 46:-0.305131 47:-0.43602 48:-0.224425 49:-0.376132 50:-0.0488179 51:-0.42767 52:-0.105062 53:-0.125187 54:-0.111457 55:-0.184155 56:-0.360337 57:-0.1836 58:-0.193026 59:-0.192296 60:-0.431615 
-163.7804285762232 1:-0.312908 2:-0.822143 3:-0.262836 4:-0.547851 5:-0.155959 6:-0.346402 7:-0.0704256 8:-0.287965 9:0.0484959 10:-0.398962 11:0.242794 12:-0.208847 13:-0.505177 14:0.433356 15:0.161323 16:-0.13977 17:0.189573 18:0.250037 19:0.511246 20:0.00447745 21:0.00786636 22:0.274349 23:0.212932 24:0.622148 25:0.203258 26:0.147524 27:0.421621 28:0.129989 29:0.314974 30:0.205803 31:-0.281911 32:0.161656 33:0.0045414 34:0.0914446 35:-0.182018 36:-0.173055 37:-0.204164 38:-0.451685 39:-0.408747 40:-0.398537 41:-0.0192911 42:0.147064 43:-0.403372 44:-0.555936 45:-0.618623 46:-0.0274822 47:-0.212634 48:-0.246593 49:-0.302158 50:-0.117068 51:-0.203317 52:-0.0784651 53:-0.0202674 54:-0.229536 55:-0.19413 56:-0.0764629 57:-0.344417 58:-0.303333 59:-0.254953 60:-0.349559 
-9.883259799826767 1:-0.231174 2:0.0334714 3:-0.479415 4:0.158789 5:0.138569 6:-0.386643 7:-0.013072 8:-0.0116908 9:-0.0620252 10:0.271265 11:-0.00742886 12:-0.0840208 13:-0.580953 14:0.335982 15:0.240174 16:0.162068 17:0.43374 18:0.426644 19:0.589436 20:0.173525 21:0.0875772 22:0.695075 23:0.785646 24:0.805472 25:-0.181716 26:0.0124173 27:0.577236 28:0.870272 29:0.2587 30:0.64329 31:0.184334 32:0.193729 33:0.454771 34:0.212971 35:0.0441801 36:-0.039627 37:-0.53628 38:-0.164909 39:-0.0187531 40:-0.0173161 41:0.18248 42:-0.027263 43:0.0609072 44:-0.149228 45:-0.0206174 46:-0.033634 47:0.0158993 48:-0.206863 49:-0.123831 50:-0.0049454 51:-0.0537187 52:0.131893 53:0.101492 54:0.0916016 55:0.0181555 56:0.097107 57:0.0202493 58:-0.020017 59:0.0697353 60:-0.115253 
-78.23659551811578 1:-0.51673 2:-0.377098 3:-0.275101 4:-0.206673 5:-0.281793 6:-0.0405795 7:-0.166111 8:0.0535239 9:-0.0255321 10:0.101704 11:0.255517 12:-0.122528 13:-0.18598 14:0.413657 15:0.127754 16:-0.356079 17:0.00611256 18:-0.137462 19:-0.0369823 20:-0.252686 21:-0.369847 22:0.178383 23:0.231617 24:0.224251 25:-0.100279 26:0.164029 27:-0.00111474 28:0.113572 29:0.383958 30:0.481295 31:0.102228 32:0.0182769 33:-0.108723 34:-0.362318 35:-0.328273 36:-0.528904 37:-0.268075 38:-0.546749 39:-0.722988 40:-0.203268 41:-0.281904 42:-0.15463 43:-0.211004 44:-0.528545 45:-0.390434 46:-0.260145 47:-0.393171 48:-0.207938 49:-0.18351 50:-0.0233396 51:-0.140121 52:-0.0870437 53:-0.095035 54:-0.192802 55:-0.20556 56:-0.23853 57:-0.314039 58:-0.295885 59:-0.21784 60:-0.509153 
-28.47979763330153 1:-0.715945 2:-0.296791 3:-0.0599162 4:-0.17955 5:-0.185971 6:-0.746052 7:0.329786 8:-0.0217416 9:-0.243188 10:0.0338528 11:-0.208948 12:-0.197978 13:-0.307222 14:-0.120291 15:0.140282 16:-0.0410693 17:0.222441 18:-0.00484572 19:0.187289 20:0.139313 21:0.240283 22:0.0898081 23:0.0868455 24:0.667172 25:-0.165084 26:0.290514 27:0.0831596 28:0.326276 29:0.204188 30:0.566041 31:0.0065355 32:-0.1353 33:-0.0504951 34:-0.297048 35:-0.221547 36:-0.268754 37:-0.210468 38:-0.571453 39:-0.494875 40:-0.563445 41:-0.789268 42:-0.471879 43:-0.48749 44:-0.555428 45:-0.535623 46:-0.393675 47:-0.350972 48:-0.497461 49:-0.379684 50:-0.385836 51:-0.410825 52:-0.516991 53:-0.204063 54:-0.713845 55:-0.296166 56:-0.445743 57:-0.392028 58:-0.256108 59:-0.215269 60:-0.586268 
-254.3423148694964 1:-0.615565 2:-0.358346 3:0.0173166 4:-0.0312631 5:-0.430014 6:-0.0632757 7:-0.52863 8:0.0111353 9:-0.538646 10:-0.160831 11:0.18849 12:0.152026 13:-0.163927 14:0.10409 15:0.0173328 16:0.126584 17:0.0591198 18:0.501846 19:0.880262 20:-0.0951263 21:0.0599743 22:0.33577 23:0.375084 24:0.527578 25:0.438368 26:0.543799 27:0.215987 28:0.374054 29:0.642212 30:0.102323 31:0.139191 32:-0.2195 33:0.068619 34:0.038137 35:-0.0816287 36:-0.237519 37:-0.0767536 38:-0.740904 39:-0.605872 40:-0.284455 41:-0.277473 42:-0.147823 43:-0.559426 44:-0.437833 45:-0.719014 46:-0.131627 47:-0.327511 48:-0.25237 49:-0.449604 50:-0.211692 51:-0.207048 52:-0.383715 53:-0.226963 54:-0.36173 55:-0.47709 56:-0.714945 57:-0.462024 58:-0.601569 59:-0.296995 60:-0.499034 
-273.6897321122378 1:-0.116339 2:-0.162385 3:-0.294627 4:-0.00653121 5:-0.233406 6:-0.0580445 7:0.303282 8:-0.0440598 9:-0.562678 10:-0.163486 11:0.157302 12:-0.429592 13:0.046416 14:0.513894 15:-0.0829042 16:0.0396587 17:-0.130724 18:0.0311367 19:-0.397067 20:0.267814 21:-0.400621 22:-0.058357 23:-0.0176298 24:0.644435 25:0.0143242 26:0.123963 27:0.408249 28:0.474334 29:0.13547 30:0.396431 31:-0.130329 32:-0.267423 33:-0.578905 34:-0.111921 35:-0.280265 36:-0.513866 37:-0.392303 38:-0.332006 39:-0.115629 40:-0.0294266 41:-0.20664 42:0.0205246 43:-0.151323 44:-0.0996122 45:-0.183959 46:-0.0199901 47:-0.0281332 48:-0.24043 49:-0.0411315 50:0.121885 51:0.109603 52:0.0577388 53:0.11206 54:0.0201236 55:0.102053 56:-0.0214444 57:-0.0240115 58:-0.0495646 59:0.0349813 60:-0.120486 
-136.0731670889311 1:-0.942109 2:-0.392907 3:-0.1775 4:-0.137483 5:-0.0473511 6:-0.339635 7:-0.0335639 8:-0.0936911 9:-0.291376 10:0.129833 11:-1 12:-0.0333516 13:-0.595882 14:0.0294535 15:0.0270907 16:-0.307647 17:-0.28184 18:-0.174966 19:0.00865994 20:-0.212358 21:-1 22:-0.723756 23:-0.436236 24:0.537315 25:-0.372069 26:-0.281341 27:-0.426174 28:0.139655 29:-0.0582198 30:-0.774748 31:-1 32:-0.582278 33:-0.510538 34:-0.878326 35:-0.734301 36:-0.825473 37:-0.389625 38:-0.889501 39:-0.767386 40:-0.584406 41:-0.773607 42:-0.634105 43:-0.715161 44:-0.453179 45:-0.855058 46:-0.506044 47:-0.677479 48:-0.581431 49:-0.715288 50:-0.440349 51:-0.623926 52:-0.639829 53:-0.405143 54:-0.743562 55:-0.463901 56:-0.493221 57:-0.42069 58:-0.593973 59:-0.376818 60:-0.568215 
-272.2303863857817 1:-0.684248 2:-0.520275 3:-0.160829 4:-0.228258 5:0.0283595 6:-0.273123 7:-0.189209 8:-0.124377 9:-0.212693 10:0.126107 11:0.101789 12:-0.470755 13:-0.668864 14:-0.463232 15:0.0542009 16:-0.349924 17:-0.0854305 18:-0.127958 19:-0.594457 20:-0.292806 21:-0.312353 22:-0.0265563 23:-0.199272 24:-0.190186 25:-0.279338 26:0.101015 27:-0.373239 28:0.261185 29:-1 30:0.0671656 31:-0.16342 32:-0.383844 33:-0.414286 34:-0.478035 35:-0.134843 36:-0.222249 37:-0.336706 38:-0.885096 39:-0.340341 40:-0.368048 41:-0.471576 42:-0.358272 43:-0.506798 44:-0.538079 45:-0.563293 46:-0.33383 47:-0.488954 48:-0.551053 49:-0.507044 50:-0.317666 51:-0.522967 52:-0.322552 53:-0.194035 54:-0.427161 55:-0.643585 56:-0.323731 57:-0.615303 58:-0.494002 59:-0.304003 60:-0.47513 
-512 1:-0.695232 2:-0.536833 3:0.0454669 4:0.145756 5:-0.00828278 6:-0.0637552 7:-0.260291 8:-0.141047 9:-0.0176549 10:-0.609195 11:-0.266961 12:-0.514457 13:-0.702535 14:-0.164314 15:-0.169432 16:-0.110197 17:-0.287807 18:-0.405717 19:-0.0495315 20:0.0312644 21:-0.319512 22:-0.415118 23:0.0207618 24:0.0709151 25:-0.167865 26:-0.36587 27:-0.0683402 28:-0.261484 29:-0.379183 30:-0.0734118 31:-0.358225 32:-0.0985321 33:-0.254907 34:-0.525706 35:-0.264334 36:-0.315656 37:-0.782962 38:-0.596198 39:-0.790506 40:-0.278223 41:-0.539297 42:-0.510905 43:-0.227887 44:-0.270885 45:-0.696984 46:-0.348298 47:-0.33141 48:-0.356157 49:-0.526326 50:-0.272795 51:-0.404159 52:-0.303837 53:-0.0983324 54:-0.4414 55:-0.237682 56:-0.300198 57:-0.333914 58:-0.472537 59:-0.231071 60:-0.310249 
-18.26136224545367 1:-0.0704755 2:0.0910959 3:-0.0508529 4:0.421363 5:-0.139822 6:-0.336534 7:-0.332347 8:-0.0703092 9:-0.242714 10:0.0195359 11:0.110687 12:-0.42973 13:-0.319912 14:0.359206 15:0.189568 16:0.229264 17:0.105811 18:0.00273153 19:-0.570477 20:0.111142 21:0.248102 22:0.0821015 23:-0.0550426 24:0.244489 25:0.163927 26:0.157836 27:0.032437 28:0.465451 29:0.190375 30:0.154984 31:0.320895 32:0.187507 33:0.316556 34:-0.0482002 35:0.0434812 36:0.0502839 37:0.295242 38:0.212275 39:0.0453753 40:0.225947 41:0.0838701 42:0.326486 43:0.287403 44:0.299038 45:0.112365 46:0.286502 47:0.291517 48:0.324731 49:0.349077 50:0.433436 51:0.374418 52:0.36659 53:0.42914 54:0.364098 55:0.434757 56:0.338863 57:0.36514 58:0.314107 59:0.387963 60:0.311073 
-512 1:0.238609 2:0.108001 3:-0.401743 4:-0.519972 5:-0.448609 6:0.0192823 7:-0.0621332 8:0.113162 9:-0.0483658 10:0.181637 11:-0.15169 12:-0.247938 13:-0.112644 14:0.338945 15:-0.260597 16:0.339345 17:0.0626325 18:0.213184 19:-0.0371345 20:0.115536 21:-0.522703 22:0.031757 23:0.264397 24:0.283958 25:0.182619 26:0.221075 27:0.00318933 28:0.394937 29:0.228803 30:0.264237 31:0.105252 32:-0.137934 33:-0.56786 34:-0.344692 35:-0.0904789 36:-0.513794 37:-0.0617059 38:-0.313793 39:-0.401904 40:-0.234375 41:-0.396033 42:-0.375235 43:-0.564409 44:-0.576674 45:-0.50805 46:-0.417979 47:-0.518512 48:-0.380684 49:-0.36607 50:-0.0824249 51:-0.268989 52:-0.269289 53:-0.0710691 54:-0.276714 55:-0.0740913 56:-0.409165 57:-0.327426 58:-0.442294 59:-0.247519 60:-0.411769 
-105.8999987746973 1:-0.632217 2:-0.34187 3:-0.316206 4:-0.188726 5:0.0155744 6:-0.494076 7:0.152551 8:-0.31863 9:-0.0429702 10:-0.500322 11:0.196628 12:-0.666497 13:-0.288593 14:0.301968 15:-0.142226 16:0.139576 17:0.295215 18:0.0676023 19:0.277 20:-0.150537 21:-0.20296 22:-0.497652 23:0.320939 24:0.335144 25:0.182537 26:0.0176789 27:-0.166311 28:0.287204 29:-0.167161 30:0.348087 31:-0.0706373 32:-0.00571293 33:-0.651767 34:-0.622804 35:-0.0517484 36:-0.104713 37:-0.184658 38:-0.629652 39:-0.519812 40:-0.606005 41:-0.574071 42:-0.131508 43:-0.0561063 44:-0.388004 45:-0.417354 46:-0.256069 47:-0.629804 48:-0.324014 49:-0.304685 50:-0.218842 51:-0.248278 52:-0.246777 53:-0.17001 54:-0.243738 55:-0.21461 56:-0.211544 57:-0.378978 58:-0.296444 59:-0.112213 60:-0.322316 
-512 1:-0.750476 2:-0.388255 3:-0.88912 4:-0.17411 5:0.00906789 6:-0.110724 7:-0.0676727 8:-0.0262355 9:0.015296 10:-0.210009 11:-0.0183404 12:-0.739287 13:-0.522792 14:-0.089134 15:-0.203643 16:0.43793 17:-0.0266296 18:-0.159116 19:0.123312 20:0.0618824 21:-0.0405462 22:0.370299 23:-0.0227037 24:0.393534 25:-0.211238 26:0.342936 27:0.175474 28:-0.410713 29:0.158963 30:-0.113708 31:-0.105386 32:-0.216901 33:-0.000882683 34:-0.362805 35:-0.124018 36:-0.476229 37:-0.202157 38:-0.474576 39:-0.462387 40:-0.435165 41:-0.361501 42:-0.30053 43:-0.325403 44:-0.439148 45:-0.472361 46:-0.37173 47:-0.450013 48:-0.436513 49:-0.379681 50:-0.33261 51:-0.321752 52:-0.376418 53:-0.228813 54:-0.316728 55:-0.164464 56:-0.343475 57:-0.274723 58:-0.535533 59:-0.271516 60:-0.596736 
-350.9570012850339 1:-0.557691 2:-0.59705 3:-0.185767 4:0.142774 5:-0.206958 6:-0.475189 7:-0.0144161 8:-0.266111 9:-0.364442 10:-0.136507 11:0.264969 12:-0.180214 13:-0.571037 14:-0.126274 15:-0.515673 16:-0.0218916 17:-0.474274 18:-0.1076 19:0.325571 20:-0.622579 21:-0.241613 22:0.0605556 23:0.526455 24:0.135692 25:-0.373311 26:0.190652 27:-0.0364985 28:-0.0485771 29:-0.0116278 30:0.171616 31:-0.0127013 32:-0.427142 33:0.0310928 34:-0.0685689 35:-0.717418 36:-0.563889 37:-0.29299 38:-0.544917 39:-0.358761 40:-0.624992 41:-0.450235 42:-0.620403 43:-0.354535 44:-0.364805 45:-0.473435 46:-0.326834 47:-0.569777 48:-0.565892 49:-0.531555 50:-0.164808 51:-0.301444 52:-0.411932 53:-0.297274 54:-0.22986 55:-0.325146 56:-0.555541 57:-0.47042 58:-0.482177 59:-0.220767 60:-0.354804 
-452.2389243766144 1:-0.234682 2:-0.236578 3:-0.212313 4:0.369711 5:-0.134273 6:-0.557091 7:0.148928 8:-0.0285117 9:-0.248521 10:0.236329 11:0.288426 12:-0.501647 13:0.0663527 14:0.172088 15:-0.0646946 16:-0.310166 17:0.172168 18:0.00602095 19:0.530184 20:-0.218037 21:0.215488 22:0.123652 23:0.133295 24:0.237808 25:-0.146105 26:0.00247273 27:-0.0452412 28:0.144958 29:-0.0907019 30:-0.0655048 31:-0.636053 32:-0.656173 33:0.231435 34:-0.504947 35:-0.666194 36:-0.269769 37:-0.367865 38:-0.711655 39:-0.363218 40:-0.485681 41:-0.573312 42:-0.505681 43:-0.542993 44:-0.664714 45:-0.546091 46:-0.398446 47:-0.412428 48:-0.788872 49:-0.425593 50:-0.594444 51:-0.388409 52:-0.421825 53:-0.276644 54:-0.444532 55:-0.283568 56:-0.58337 57:-0.403552 58:-0.470609 59:-0.370184 60:-0.442078 
-149.4306888357446 1:-0.900004 2:-0.577474 3:-0.271655 4:-0.341101 5:-0.149414 6:-0.2915 7:-0.274507 8:-0.117411 9:-0.412752 10:0.161742 11:0.284753 12:-0.119544 13:-0.929402 14:0.303767 15:-0.140979 16:-0.57217 17:-0.2371 18:-0.335329 19:0.186265 20:0.0829008 21:-0.512742 22:-0.580292 23:-0.177281 24:0.109842 25:-0.266113 26:-0.282058 27:0.0629222 28:0.110279 29:0.0478829 30:0.284003 31:-0.0870554 32:-0.518857 33:-0.179246 34:-0.316433 35:0.0710636 36:-0.379651 37:-0.460918 38:-0.42259 39:-0.276805 40:-0.559188 41:-0.641788 42:-0.724768 43:-0.653279 44:-0.372343 45:-0.744729 46:-0.646063 47:-0.752335 48:-0.759329 49:-0.486425 50:-0.341466 51:-0.350657 52:-0.397537 53:-0.367535 54:-0.872888 55:-0.370117 56:-0.476898 57:-0.629645 58:-0.773928 59:-0.482194 60:-0.792858 
-279.6207944457827 1:-0.687931 2:-0.916908 3:-0.205347 4:0.075739 5:-0.081587 6:-0.171534 7:0.135004 8:-0.267581 9:-0.442622 10:-0.311848 11:-0.288892 12:-0.673085 13:-0.438609 14:0.0221171 15:0.0515791 16:0.053363 17:-0.311172 18:-0.337703 19:-0.266973 20:-0.0969001 21:-0.855093 22:-0.152628 23:-0.667099 24:0.306792 25:-0.0709441 26:0.0211791 27:-0.0848415 28:0.263673 29:0.291935 30:0.139046 31:-0.209933 32:0.268389 33:0.0585262 34:-0.251108 35:-0.253454 36:-0.389657 37:-0.145265 38:-0.369102 39:-0.612443 40:-0.0397466 41:-0.51922 42:-0.549021 43:-0.406384 44:-0.146582 45:-0.38171 46:-0.118125 47:-0.191792 48:-0.202903 49:-0.19967 50:-0.0819864 51:-0.203371 52:-0.0559724 53:-0.00104755 54:-0.138936 55:-0.0134854 56:-0.0289428 57:0.032778 58:-0.111681 59:-0.105664 60:-0.110888 
-512 1:-0.85256 2:-0.489 3:0.252894 4:0.24467 5:-0.206786 6:-0.238304 7:0.204025 8:-0.516346 9:-0.343447 10:-0.384663 11:-0.0614661 12:-0.431621 13:-0.378429 14:0.000770013 15:0.113011 16:-0.648699 17:-0.401125 18:-0.532896 19:-0.0300586 20:-0.766044 21:-0.236198 22:-0.0310177 23:-0.138821 24:0.402838 25:-0.653371 26:-0.824103 27:-0.00395909 28:-0.195883 29:0.0609704 30:-0.213583 31:-0.968937 32:-0.49894 33:-0.356044 34:-0.387086 35:-1 36:-0.105666 37:-0.477214 38:-0.752834 39:-0.429687 40:-0.588666 41:-0.620285 42:-0.345652 43:-0.526063 44:-0.39105 45:-0.516728 46:-0.288651 47:-0.229607 48:-0.654481 49:-0.291316 50:-0.173286 51:-0.330457 52:-0.388795 53:-0.153748 54:-0.283205 55:-0.160486 56:-0.268487 57:-0.390616 58:-0.367583 59:-0.152808 60:-0.350366 
-124.8857263982839 1:-0.902972 2:-0.553068 3:0.379309 4:-0.00388689 5:-0.349946 6:-0.272937 7:-0.219423 8:-0.348455 9:-1 10:-0.40214 11:-0.716914 12:-0.164328 13:-0.648288 14:-0.323342 15:-0.070603 16:-0.422393 17:-0.809872 18:-0.240129 19:-0.680628 20:-0.0570421 21:-0.641312 22:0.0327432 23:-0.460529 24:-1 25:-0.185262 26:-0.328941 27:-0.397078 28:-0.313191 29:-0.695551 30:-0.607844 31:-0.769764 32:-0.30957 33:-0.317373 34:-0.227852 35:-0.26631 36:-0.426712 37:-0.284801 38:-0.593549 39:-0.499242 40:-0.463844 41:-0.566893 42:-0.0942859 43:-0.340034 44:-0.249936 45:-0.387919 46:-0.272491 47:-0.201373 48:-0.194368 49:-0.224277 50:-0.0926585 51:-0.153224 52:-0.136739 53:-0.00908987 54:-0.180515 55:-0.179095 56:-0.0816046 57:-0.257766 58:-0.240768 59:-0.197178 60:-0.364891 
-490.8170167459882 1:-0.693184 2:-0.471577 3:-0.135769 4:0.22586 5:-0.462552 6:-0.102232 7:-0.152787 8:-0.0777364 9:-0.734851 10:-0.204724 11:-0.280992 12:-0.618961 13:-0.777183 14:0.0990027 15:-0.406083 16:-0.556042 17:-0.476337 18:-0.272318 19:-0.668215 20:-0.505686 21:-0.728388 22:-0.439094 23:-0.838209 24:0.0995761 25:-0.419995 26:-0.547522 27:0.0244343 28:-0.13462 29:-0.354427 30:-0.113005 31:-0.459528 32:-0.239859 33:-0.238414 34:-0.62037 35:-0.429092 36:-0.418562 37:-0.734806 38:-0.530177 39:-0.275509 40:-0.128705 41:-0.493302 42:-0.455545 43:-0.309442 44:-0.289718 45:-0.505495 46:-0.133972 47:-0.184578 48:-0.315085 49:-0.250251 50:-0.037055 51:-0.174202 52:-0.194265 53:-0.0116682 54:-0.167984 55:-0.0715307 56:-0.126858 57:-0.208197 58:-0.234104 59:-0.209693 60:-0.220976 
-88.76122775526525 1:-0.684488 2:-0.359909 3:-0.803551 4:-0.0336628 5:-0.17029 6:-0.331502 7:0.280244 8:0.109176 9:0.0276544 10:-0.246253 11:0.532223 12:-0.477262 13:-0.249415 14:0.276768 15:0.177156 16:0.352908 17:-0.0877771 18:0.194428 19:0.0891116 20:-0.824411 21:0.0477149 22:0.553406 23:0.422541 24:0.528017 25:0.244448 26:-0.0678703 27:0.472888 28:0.585933 29:-0.065121 30:0.0328203 31:-0.133751 32:-0.318603 33:-0.647403 34:-0.0718148 35:-0.27319 36:-0.497275 37:-0.0895682 38:-0.14145 39:-0.386689 40:-0.370057 41:-0.489171 42:-0.71853 43:-0.52331 44:-0.604641 45:-0.658332 46:-0.350549 47:-0.418273 48:-0.575932 49:-0.318117 50:-0.407051 51:-0.258349 52:-0.311123 53:-0.112764 54:-0.78884 55:-0.43333 56:-0.327741 57:-0.612968 58:-0.507128 59:-0.467245 60:-0.937163 
-446.1647589921636 1:-0.632307 2:-0.664895 3:-0.09822 4:-0.0907147 5:-0.142199 6:-0.0837555 7:0.0840775 8:-0.0934851 9:-0.0405382 10:0.231357 11:0.597002 12:-0.303253 13:-0.600441 14:0.394208 15:-0.00848614 16:0.195218 17:0.141938 18:0.0962178 19:0.125631 20:0.497593 21:0.655153 22:0.631668 23:0.632024 24:0.729778 25:0.0862195 26:0.225419 27:0.362433 28:0.455523 29:0.417195 30:0.182671 31:0.441549 32:0.318662 33:0.124724 34:0.320557 35:-0.114649 36:-0.23505 37:-0.0894225 38:-0.066188 39:-0.252455 40:-0.0632455 41:-0.439358 42:-0.29331 43:-0.300525 44:-0.359312 45:-0.217636 46:-0.168335 47:-0.346476 48:-0.240913 49:-0.107148 50:-0.241074 51:-0.266391 52:-0.093271 53:-0.062579 54:-0.219587 55:-0.251029 56:-0.278991 57:-0.217157 58:-0.328064 59:-0.334324 60:-0.379019 
-458.8954420721354 1:-0.454226 2:-0.299684 3:-0.346999 4:-0.582252 5:-0.274145 6:-0.348841 7:-0.295608 8:0.0238894 9:0.0454667 10:0.25291 11:0.201065 12:-0.339194 13:-0.161164 14:0.0279288 15:0.339447 16:0.654264 17:0.15508 18:0.512834 19:1 20:0.199115 21:0.719844 22:0.597106 23:1 24:0.40294 25:0.281893 26:0.423094 27:0.214145 28:0.632974 29:0.0329239 30:0.107314 31:-0.503487 32:-0.093792 33:0.0621057 34:-0.21884 35:-0.0285398 36:-0.112292 37:-0.0419841 38:0.0594988 39:-0.454601 40:-0.410399 41:-0.292961 42:-0.127526 43:-0.138932 44:-0.1023 45:-0.279053 46:0.062959 47:-0.246059 48:-0.183233 49:-0.36236 50:-0.102447 51:-0.399954 52:-0.155579 53:-0.0798048 54:-0.131166 55:-0.356234 56:-0.198026 57:-0.612188 58:-0.218363 59:-0.486076 60:-0.262401 
-301.9300319357646 1:-0.694818 2:-0.616405 3:-0.372122 4:0.265585 5:-0.142613 6:-0.637875 7:-0.049142 8:-0.185031 9:-0.223482 10:-0.273247 11:0.341126 12:-0.53031 13:-0.158532 14:-0.236097 15:0.330919 16:-0.0484215 17:-0.932818 18:0.382583 19:0.142858 20:0.0203721 21:0.147587 22:0.399304 23:-0.0149204 24:0.126213 25:-0.0710451 26:-0.177025 27:0.364486 28:0.426806 29:-0.0351059 30:0.388425 31:-0.182671 32:-0.11547 33:-0.0633939 34:-0.601476 35:-0.344834 36:-0.464827 37:-0.526565 38:-0.48163 39:-0.574781 40:-0.539383 41:-0.293916 42:-0.474037 43:-0.731684 44:-0.709498 45:-0.907405 46:-0.323888 47:-0.793187 48:-0.460627 49:-0.87237 50:-0.429473 51:-0.408695 52:-0.699661 53:-0.301563 54:-0.453685 55:-0.35026 56:-0.514926 57:-0.380023 58:-0.807756 59:-0.469211 60:-0.754539 
-417.8036185523943 1:0.267589 2:-0.099937 3:-0.316493 4:0.601337 5:-0.0221816 6:-0.045687 7:0.290313 8:0.219954 9:0.0629346 10:0.296822 11:0.35769 12:-0.580494 13:-0.3845 14:0.450228 15:0.833805 16:0.00528383 17:0.132759 18:0.386535 19:0.612431 20:0.596291 21:-0.377733 22:0.0583712 23:0.396454 24:0.313822 25:0.102631 26:0.429099 27:0.250435 28:0.402373 29:0.410935 30:0.648697 31:0.365817 32:0.000502529 33:0.387232 34:0.041689 35:0.163585 36:0.0823844 37:0.292129 38:0.0332956 39:0.100884 40:0.178427 41:0.181727 42:0.12012 43:-0.0273574 44:0.10671 45:0.034866 46:0.244526 47:-0.0731389 48:-0.0865482 49:0.234599 50:0.210332 51:0.211561 52:0.248989 53:0.284819 54:0.196505 55:0.278318 56:0.253749 57:0.178534 58:0.123986 59:0.286712 60:0.201486 
-432.9484834300172 1:-0.360933 2:-0.186255 3:-0.244959 4:0.50763 5:0.0976931 6:0.1314 7:0.227885 8:0.069969 9:-0.256907 10:0.252737 11:0.233919 12:-0.535363 13:-0.118075 14:0.276231 15:0.656717 16:-0.290055 17:-0.0847105 18:-0.514843 19:-0.467118 20:0.265002 21:-0.538766 22:-0.117297 23:-0.656382 24:0.0493562 25:-0.18534 26:-0.191682 27:0.233484 28:0.324972 29:0.0936898 30:-0.512012 31:-0.0576371 32:-0.124254 33:-0.589367 34:-0.652443 35:-0.114697 36:-0.33969 37:-0.256876 38:-0.476754 39:-0.451404 40:-0.199222 41:-0.23366 42:-0.407889 43:-0.321475 44:-0.107218 45:-0.304485 46:-0.0491521 47:-0.0574264 48:-0.0642101 49:-0.176886 50:-0.0233872 51:-0.134891 52:-0.108478 53:-0.0251382 54:-0.19645 55:-0.0583849 56:-0.036105 57:-0.0557886 58:-0.196223 59:-0.0904296 60:-0.250906 
-327.7912722661883 1:-0.719236 2:-0.447991 3:0.129114 4:0.560753 5:-0.125351 6:-0.19124 7:0.243061 8:-0.00135365 9:-0.0305139 10:0.160917 11:0.0704058 12:-0.34795 13:0.00161915 14:0.311375 15:0.954224 16:0.0907152 17:-0.0808493 18:-0.221399 19:0.195059 20:0.429673 21:-0.0255797 22:-0.817257 23:0.0729117 24:0.261811 25:-0.196192 26:0.302315 27:0.0590499 28:0.0032406 29:-0.517504 30:-0.028844 31:-0.491576 32:0.0119448 33:-0.00222097 34:-0.546843 35:-0.248214 36:-0.463485 37:-0.440826 38:-0.467846 39:-0.285724 40:-0.27461 41:-0.499575 42:-0.198411 43:-0.395647 44:-0.320472 45:-0.476532 46:-0.270652 47:-0.378574 48:-0.0934728 49:-0.444163 50:-0.0563577 51:-0.239477 52:-0.178927 53:-0.167246 54:-0.0911062 55:-0.127055 56:-0.140596 57:-0.240729 58:-0.370398 59:-0.0980197 60:-0.294349 
-130.3979854010413 1:-0.575185 2:-0.294678 3:-0.00391432 4:0.601515 5:0.0112526 6:-0.124252 7:0.112793 8:-0.101641 9:0.172884 10:-0.0513687 11:0.0858156 12:-0.48371 13:-0.332967 14:0.302711 15:0.685685 16:-0.236839 17:-0.398713 18:-0.0416086 19:0.149855 20:-0.209275 21:-0.357658 22:-0.313214 23:-0.0723664 24:0.350105 25:-0.470881 26:-0.235772 27:-0.0423703 28:0.160519 29:-0.540388 30:-0.245465 31:-0.332195 32:-0.496811 33:-0.516393 34:-0.499088 35:-0.251668 36:-0.586822 37:-0.333531 38:-0.63784 39:-0.81808 40:-0.511946 41:-0.801905 42:-0.394635 43:-0.772498 44:-0.780574 45:-0.641733 46:-0.823283 47:-0.67202 48:-0.399435 49:-0.428895 50:-0.16578 51:-0.628417 52:-0.414149 53:-0.331106 54:-0.874612 55:-0.522727 56:-0.405776 57:-0.509114 58:-0.417747 59:-0.324909 60:-0.43529 
-177.5645599860254 1:-0.729238 2:-0.276039 3:-0.0781672 4:0.33621 5:0.0255675 6:-0.156379 7:-0.0386282 8:-0.160477 9:-0.213388 10:0.313077 11:0.00852503 12:-0.682588 13:-0.120126 14:0.373258 15:0.57358 16:-0.030326 17:-0.192943 18:-0.326454 19:-0.188505 20:-0.320719 21:-0.305183 22:-0.0919398 23:-0.275163 24:-0.280626 25:-0.0327615 26:-0.246662 27:0.263829 28:-0.152366 29:-0.291759 30:-0.458675 31:-0.419241 32:-0.659821 33:0.151197 34:-0.582585 35:-0.344642 36:-0.572779 37:-0.866257 38:-0.446755 39:-0.828377 40:-0.289822 41:-0.437884 42:-0.439052 43:-0.596675 44:-0.399195 45:-0.554582 46:-0.681696 47:-0.61608 48:-0.841287 49:-0.52621 50:-0.438593 51:-0.681373 52:-0.515677 53:-0.153845 54:-0.754443 55:-0.453803 56:-0.414882 57:-0.67564 58:-0.437115 59:-0.251399 60:-0.725953 
-118.4842696902085 1:-0.582473 2:-0.503563 3:0.0328355 4:0.317699 5:-0.138819 6:-0.0182327 7:0.258994 8:-0.000961704 9:-0.368317 10:-0.180852 11:-0.522313 12:-0.511064 13:-0.404522 14:0.335306 15:0.315082 16:-0.172695 17:-0.0467224 18:-0.720313 19:-0.185495 20:-0.292797 21:-0.393458 22:-0.0987437 23:-0.931486 24:0.474479 25:-0.0601058 26:-0.342826 27:0.0662218 28:0.148765 29:-0.249601 30:-0.0026396 31:-0.411933 32:-0.569731 33:-0.247331 34:-0.79261 35:-0.16436 36:-0.207731 37:-0.525865 38:-0.659899 39:-0.407742 40:-0.296892 41:-0.604598 42:-0.42775 43:-0.641632 44:-0.586045 45:-0.61148 46:-0.317833 47:-0.489966 48:-0.672759 49:-0.321106 50:-0.395484 51:-0.377989 52:-0.447184 53:-0.166118 54:-0.286765 55:-0.204215 56:-0.384861 57:-0.3622 58:-0.353511 59:-0.23122 60:-0.625635 
