svm_type c_svc
kernel_type rbf
gamma 0.5
nr_class 3
total_sv 573
rho 0.0388838 -0.0124192 -0.0740701
label 2 3 5
nr_sv 189 217 167
SV
1.082833876818731 0.5493916823748343 1:-0.229661 2:-0.33201 3:-0.262737 4:-0.26864 5:0.16073 6:0.192973 7:-0.0130725 8:-0.371575 9:0.0442863 10:0.207593 11:0.0181204 12:0.16273 13:0.327912 14:-0.234043 15:-0.649044 16:0.151483 17:-0.361098 18:0.0351195 19:0.126101 20:-0.1212 21:-0.523096 22:0.285914 23:-0.355928 24:0.174696 25:0.306043 26:-0.759129 27:0.229453 28:0.0792184 29:0.165227 30:0.407336 31:0.310528 32:0.0473368 33:0.0954092 34:0.282931 35:0.110416 36:0.231899 37:0.284405 38:0.1731 39:0.278076 40:0.190923 41:0.296847 42:0.295461 43:-0.0827895 44:0.408907 45:0.261284 46:0.441184 47:0.368329 48:0.339156 49:0.351632 50:0.332954 51:0.459299 52:0.411989 53:0.36913 54:0.385371 55:0.332891 56:0.40821 57:0.3319 58:0.418806 59:0.431468 60:0.354867 
0.8865634462230342 0 1:-0.191681 2:0.0260883 3:-0.188866 4:-0.260838 5:0.0920655 6:-0.434859 7:-0.236029 8:-0.691293 9:-0.285463 10:0.47551 11:-0.361437 12:0.226853 13:0.0134215 14:0.221431 15:-0.194831 16:0.016228 17:-0.181251 18:0.0556721 19:-0.0890262 20:0.276028 21:-0.0402787 22:0.179667 23:0.133566 24:-0.0855096 25:0.245596 26:-0.684848 27:-0.506081 28:-0.0556067 29:0.0293242 30:0.23901 31:0.0130327 32:0.129724 33:-0.51557 34:0.244405 35:0.007957 36:-0.126003 37:0.111082 38:-0.0484826 39:0.0904199 40:0.0261935 41:0.219422 42:0.115221 43:0.0783754 44:-0.115388 45:0.0545673 46:0.052519 47:0.00641164 48:0.194013 49:0.121199 50:-0.060617 51:0.271771 52:0.239412 53:-0.0281924 54:0.176127 55:0.0186652 56:0.171077 57:0.080626 58:0.111567 59:0.229167 60:0.165696 
0.6036596948714098 0 1:-0.271288 2:-0.130155 3:0.155719 4:-0.487513 5:0.22744 6:0.0477573 7:-0.0238392 8:-0.217311 9:-0.148759 10:0.14683 11:0.0128648 12:0.06603 13:0.0824427 14:-0.415423 15:-0.167316 16:-0.067491 17:-0.378318 18:-0.710758 19:-0.199334 20:0.0827776 21:-0.15942 22:-0.166673 23:-0.253501 24:-0.676043 25:-0.0818414 26:-0.227602 27:-0.20257 28:0.32465 29:-0.00622984 30:-0.00830237 31:0.073508 32:-0.725511 33:0.119158 34:-0.0467715 35:-0.267726 36:-0.0843348 37:0.135644 38:-0.528589 39:-0.0516576 40:-0.310723 41:-0.275554 42:-0.303212 43:-0.148135 44:-0.0133936 45:-0.238286 46:-0.229439 47:-0.265458 48:-0.395616 49:-0.543961 50:-0.173072 51:0.0165218 52:-0.170357 53:-0.121805 54:-0.0938314 55:-0.22335 56:-0.221315 57:-0.0786722 58:-0.0513552 59:-0.303072 60:-0.247644 
0.1928935084007067 0.2075479680379465 1:-0.196799 2:0.139212 3:-0.267878 4:0.0603583 5:-0.220204 6:-0.232562 7:-0.517629 8:-0.643541 9:-0.0981644 10:0.0589796 11:-0.565989 12:-0.0906436 13:-0.252017 14:-0.34854 15:-0.218645 16:-0.246517 17:-0.107441 18:-0.192512 19:0.0154976 20:0.126568 21:-0.0750321 22:-0.0718626 23:0.18259 24:0.218518 25:-0.609732 26:-0.221385 27:0.00281001 28:-0.480031 29:0.0958208 30:0.106592 31:0.0786715 32:0.0699009 33:-0.836028 34:-0.27308 35:-0.117032 36:-0.147465 37:0.0591654 38:-0.636898 39:0.35077 40:0.0744587 41:0.160644 42:0.0964732 43:0.044511 44:0.121043 45:-0.024742 46:0.157659 47:0.225854 48:0.178979 49:0.0985659 50:0.0256549 51:0.114303 52:0.0150848 53:0.129779 54:0.131152 55:0.0252102 56:0.0095459 57:0.00983993 58:0.0910465 59:0.191621 60:0.0716192 
0.04472617240977281 0 1:-0.0658168 2:-0.0738919 3:-0.121035 4:-0.166046 5:-0.165217 6:-0.100493 7:-0.54043 8:-0.498096 9:-0.036515 10:-0.365933 11:0.0824597 12:0.385878 13:0.177818 14:-0.499428 15:-0.396241 16:0.0572439 17:-0.125881 18:0.082084 19:-0.103866 20:0.34872 21:-0.260468 22:0.0772663 23:0.264908 24:-0.0533414 25:-0.131149 26:-0.0445431 27:-0.11003 28:-0.184314 29:0.0961067 30:-0.449959 31:-0.150937 32:0.199711 33:-0.410722 34:-0.496012 35:-0.0674089 36:0.0227749 37:-0.47007 38:-0.409412 39:0.0575706 40:-0.213806 41:0.0536449 42:-0.280457 43:0.0310051 44:-0.132347 45:-0.310808 46:-0.286419 47:0.0562332 48:-0.0899368 49:-0.262748 50:-0.254866 51:-0.0222477 52:-0.172348 53:-0.178117 54:-0.433361 55:-0.290724 56:-0.142979 57:-0.214231 58:-0.122613 59:0.0190598 60:-0.140108 
1.366646169400904 0.9465922319742495 1:0.535666 2:1 3:0.127135 4:0.234494 5:0.289224 6:0.0856124 7:0.00790087 8:0.145282 9:-0.250308 10:0.178637 11:0.325616 12:-0.0159017 13:0.310552 14:-0.282595 15:-0.54108 16:0.386865 17:0.441664 18:0.214589 19:0.315692 20:0.242227 21:-0.565613 22:0.166458 23:-0.470783 24:-0.0521447 25:0.125699 26:0.0165958 27:0.149977 28:0.144742 29:0.229698 30:-0.581021 31:0.26512 32:0.366042 33:-0.192062 34:0.338001 35:0.444642 36:0.357567 37:0.294841 38:0.4432 39:0.556119 40:0.549765 41:0.373872 42:0.476047 43:0.452825 44:0.592837 45:0.361184 46:0.48984 47:0.530445 48:0.629955 49:0.484326 50:0.493913 51:0.581657 52:0.513242 53:0.500561 54:0.522809 55:0.457917 56:0.513882 57:0.515491 58:0.537313 59:0.582964 60:0.516532 
0.7229339255445826 0 1:-0.268072 2:-0.441448 3:-0.080973 4:-0.0216274 5:0.350975 6:-0.302676 7:0.0560445 8:-0.47312 9:-0.318973 10:0.20203 11:-0.0702911 12:0.109886 13:-0.486465 14:-0.0245415 15:-0.238668 16:-0.0655838 17:-0.429211 18:-0.12773 19:-0.00373319 20:0.380784 21:-0.294255 22:-0.0234726 23:-0.227733 24:0.166702 25:0.306564 26:-0.48744 27:-0.190286 28:-0.153917 29:-0.125354 30:-0.518296 31:-0.0908112 32:-0.421583 33:-0.0226598 34:-0.386212 35:0.0294145 36:-0.275694 37:-0.111064 38:-0.283678 39:-0.234464 40:-0.227783 41:-0.341306 42:-0.106767 43:-0.609146 44:-0.126882 45:-0.207775 46:-0.155632 47:0.123522 48:0.0498085 49:-0.277015 50:-0.394446 51:-0.365879 52:0.00155974 53:-0.247766 54:-0.0292762 55:-0.201702 56:-0.150742 57:-0.11943 58:-0.0668715 59:-0.108393 60:0.0382552 
2 0.5939515146077595 1:-0.928942 2:-0.248807 3:-0.441837 4:0.279292 5:0.0628763 6:0.0274277 7:-0.0191778 8:-0.214429 9:0.131609 10:0.150441 11:0.0908259 12:0.155069 13:-0.0286724 14:-0.246089 15:-0.656394 16:0.0141567 17:-0.0719139 18:0.0229403 19:0.164428 20:0.375628 21:0.428764 22:0.14627 23:0.103429 24:0.20697 25:0.0812879 26:0.232787 27:0.0647129 28:0.0655246 29:-0.117992 30:0.0111731 31:-0.0922587 32:0.0663494 33:-0.0274977 34:0.0670776 35:0.0535555 36:-0.12284 37:-0.106203 38:-0.59101 39:-0.204721 40:-0.466147 41:-0.11522 42:-0.0794806 43:-0.201424 44:-0.0660755 45:-0.15785 46:0.00749653 47:0.0261202 48:-0.186219 49:-0.0462223 50:-0.100967 51:0.0754795 52:-0.0122743 53:-0.266217 54:-0.0750506 55:-0.58113 56:-0.203218 57:-0.130691 58:-0.275884 59:-0.0777615 60:-0.197739 
2 1.528146384025189 1:-0.268082 2:-0.106642 3:0.00647249 4:0.167596 5:0.073456 6:-0.135367 7:-0.0258424 8:-0.144392 9:0.33365 10:0.241117 11:0.340419 12:0.644285 13:0.24376 14:0.157085 15:0.161525 16:0.342899 17:0.00446075 18:-0.0390337 19:-0.0631203 20:0.0466424 21:0.214916 22:-0.0584503 23:0.287707 24:0.349632 25:0.108591 26:0.642608 27:0.0835685 28:0.290522 29:0.223662 30:0.547074 31:0.129438 32:0.00872029 33:0.191377 34:0.212742 35:0.317733 36:0.315563 37:0.52339 38:0.143647 39:0.438218 40:0.129241 41:-0.056743 42:0.1245 43:0.068739 44:0.040123 45:0.111566 46:0.176026 47:0.0565487 48:0.236741 49:0.155072 50:0.0116589 51:0.22766 52:0.0565015 53:0.122698 54:0.144717 55:0.11575 56:0.102609 57:0.0557206 58:0.195038 59:0.212538 60:0.183219 
1.450912588475423 1.386741713037011 1:0.335858 2:0.35546 3:0.862392 4:1 5:0.569657 6:0.179591 7:-0.181916 8:-0.292558 9:0.208408 10:0.382878 11:0.546264 12:0.535015 13:0.551321 14:0.404161 15:-0.416169 16:0.219081 17:-0.0185563 18:0.484804 19:0.162754 20:0.0980354 21:0.465069 22:-0.120597 23:0.272146 24:0.449183 25:0.191724 26:0.36191 27:0.781611 28:0.490768 29:0.0548798 30:0.712119 31:0.144841 32:0.455464 33:0.672311 34:0.546472 35:0.600599 36:0.460843 37:0.793043 38:0.811565 39:0.498222 40:0.734093 41:0.691115 42:0.692762 43:0.774437 44:0.779421 45:0.67602 46:0.719319 47:0.762257 48:0.722142 49:0.73439 50:0.694745 51:0.755664 52:0.744729 53:0.680258 54:0.735643 55:0.721226 56:0.709548 57:0.71243 58:0.762439 59:0.750433 60:0.706469 
0.4794864391005174 0.2300038026489106 1:0.436785 2:0.124871 3:0.293034 4:0.389835 5:0.507256 6:-0.158155 7:-0.0640365 8:-0.251252 9:0.0701432 10:0.502008 11:-0.261572 12:0.120075 13:0.133347 14:-0.4173 15:-0.541669 16:0.148682 17:-0.758651 18:0.00661055 19:0.139109 20:0.37663 21:-0.678915 22:-0.021325 23:-0.133628 24:0.0823661 25:-0.143002 26:-0.341973 27:-0.11904 28:0.408432 29:0.134099 30:0.420826 31:-0.31992 32:0.0479821 33:-0.104811 34:0.485237 35:0.09785 36:-0.209513 37:0.29169 38:0.0950799 39:0.276119 40:0.327834 41:0.313999 42:0.201329 43:0.267905 44:0.148926 45:0.154439 46:0.248474 47:0.3199 48:0.356626 49:0.344713 50:0.259129 51:0.389557 52:0.303696 53:0.258948 54:0.384049 55:0.202255 56:0.281277 57:0.201976 58:0.387469 59:0.364457 60:0.28233 
0.777117661900301 0 1:-0.0277652 2:-0.0113734 3:-0.0276175 4:0.0194019 5:0.282129 6:-0.0800617 7:0.0047206 8:-0.545055 9:-0.144525 10:-0.377866 11:-0.0534285 12:-0.0141233 13:-0.22621 14:-0.0814896 15:-0.098394 16:-0.226194 17:0.252825 18:0.0819617 19:-0.202219 20:0.326366 21:-0.382393 22:0.156761 23:-0.241218 24:0.00331549 25:-0.058352 26:0.134427 27:0.0471055 28:-0.09509 29:0.10503 30:0.23292 31:-0.0915702 32:0.234612 33:-0.48312 34:-0.0689689 35:0.0367423 36:-0.362524 37:-0.0527145 38:-0.191377 39:0.000791701 40:0.27044 41:0.0195222 42:0.0359314 43:-0.14052 44:-0.00063125 45:-0.484 46:0.027841 47:-0.0542469 48:-0.0979641 49:-0.24877 50:0.0128894 51:0.144444 52:0.0513322 53:-0.0591814 54:0.12159 55:-0.0604907 56:0.0948154 57:0.018515 58:0.100538 59:0.0495753 60:0.0232872 
0.3356162383624485 0.1805435145154504 1:-0.161816 2:-0.054808 3:0.152255 4:0.273058 5:-0.353394 6:-0.193204 7:-0.0198606 8:-0.629671 9:-0.0927572 10:0.0333227 11:-0.268589 12:-0.202368 13:0.254729 14:-0.00687265 15:-0.251219 16:-0.0867065 17:-0.288724 18:-0.0103798 19:-0.372041 20:-0.0836665 21:-0.470153 22:-0.490353 23:-0.195146 24:-0.067601 25:-0.187344 26:-0.0714555 27:-0.409954 28:0.24753 29:-0.027889 30:0.357931 31:0.30808 32:0.401543 33:0.0626472 34:0.13092 35:0.456252 36:0.266166 37:0.0891926 38:0.035701 39:0.464877 40:0.43557 41:0.278348 42:0.367507 43:0.382057 44:0.497876 45:0.281392 46:0.287443 47:0.402539 48:0.392688 49:0.383828 50:0.30969 51:0.518253 52:0.414699 53:0.371764 54:0.466598 55:0.310459 56:0.447481 57:0.4261 58:0.430113 59:0.530263 60:0.463027 
0.7916431366839526 0 1:-0.30076 2:-0.170813 3:0.272555 4:-0.0179288 5:0.0783634 6:-0.159817 7:-0.274556 8:-0.261841 9:-0.282082 10:0.102238 11:0.0853502 12:0.206515 13:0.121821 14:0.263745 15:-0.458769 16:-0.184249 17:0.0375469 18:-0.355934 19:0.0326755 20:0.252401 21:-0.168858 22:0.0911214 23:-0.0342035 24:0.247082 25:0.0625175 26:0.000295779 27:-0.360615 28:-0.447347 29:0.172524 30:0.0683717 31:0.310596 32:0.210803 33:-0.298263 34:-0.361417 35:0.130724 36:-0.194775 37:0.0109481 38:-0.0338694 39:0.00710081 40:-0.155983 41:0.228936 42:0.0921883 43:-0.264999 44:0.1259 45:-0.339041 46:0.101149 47:0.0713572 48:0.133938 49:-0.0583765 50:-0.120534 51:0.276067 52:0.0442468 53:-0.00407053 54:0.132981 55:0.073522 56:-0.0915676 57:0.0640826 58:0.14428 59:0.128501 60:0.170399 
2 2 1:-0.216765 2:0.128981 3:0.21977 4:0.225258 5:0.408911 6:0.23154 7:0.233027 8:0.0805347 9:0.217292 10:0.36919 11:0.135767 12:0.362222 13:0.237636 14:0.454064 15:0.16654 16:0.440479 17:0.318108 18:0.17397 19:0.0704367 20:0.0954072 21:-0.192383 22:0.254974 23:0.285356 24:0.0865453 25:0.308255 26:-0.201538 27:0.206461 28:0.156526 29:0.250047 30:0.196361 31:0.361198 32:0.163001 33:0.376326 34:0.187455 35:0.125581 36:-0.0784853 37:0.157768 38:-0.194872 39:0.243926 40:0.0285764 41:0.145917 42:-0.163573 43:0.316656 44:0.389803 45:0.0217631 46:0.257336 47:0.250849 48:0.113203 49:0.259258 50:0.0876215 51:0.370111 52:0.214532 53:0.180931 54:0.141483 55:0.190545 56:0.182894 57:0.232872 58:0.334358 59:0.345811 60:0.23072 
1.579095806211681 0 1:-0.225768 2:-0.174169 3:0.154832 4:-0.0426437 5:-0.0516633 6:0.0756929 7:0.136944 8:-0.0724565 9:-0.21651 10:0.19566 11:0.0886368 12:0.152548 13:0.176635 14:-0.0718773 15:-0.0774149 16:-0.103001 17:-0.441777 18:-0.180445 19:0.0492551 20:-0.0634308 21:-0.369736 22:0.233125 23:-0.354222 24:-0.255027 25:-0.00223633 26:0.148699 27:0.175084 28:0.0512773 29:0.254387 30:0.116643 31:-0.164212 32:-0.319048 33:0.171211 34:0.0418132 35:-0.185102 36:0.109463 37:-0.0658114 38:-0.444077 39:-0.193593 40:0.215557 41:0.0909256 42:-0.0954972 43:-0.00242432 44:0.261362 45:-0.162737 46:-0.00249626 47:0.0539509 48:0.209583 49:0.207962 50:-0.250046 51:0.154762 52:0.204597 53:0.0770368 54:0.135149 55:0.0395613 56:0.0922417 57:0.0382563 58:0.0577117 59:0.177906 60:0.00255495 
0.1913728809712549 0 1:-0.352687 2:-0.133544 3:0.696524 4:-0.455713 5:0.159663 6:-0.567533 7:-0.124974 8:-0.503802 9:-0.514575 10:-0.0239323 11:-0.0454493 12:-0.0275609 13:0.0898781 14:-0.341739 15:-0.40389 16:-0.174468 17:0.00334961 18:-0.211032 19:-0.145308 20:-0.205355 21:0.0780411 22:-0.221577 23:-0.361806 24:-0.0901901 25:0.0603934 26:-0.0130003 27:-0.17672 28:-0.516006 29:0.0042989 30:-0.218621 31:-0.19142 32:0.127654 33:0.276841 34:0.01522 35:-0.289126 36:0.0782438 37:0.271143 38:-0.216051 39:-0.0266772 40:0.0214795 41:-0.625133 42:0.034007 43:-0.117008 44:-0.0119039 45:-0.265004 46:-0.140189 47:0.0298117 48:-0.0485753 49:-0.0968277 50:-0.241063 51:0.0283902 52:-0.0510736 53:-0.15915 54:-0.134593 55:-0.0621008 56:-0.0904503 57:-0.0489535 58:0.10417 59:0.166366 60:-0.0576401 
0.7577936556217929 0 1:-0.21322 2:0.0275517 3:0.225654 4:-0.234964 5:0.253462 6:-0.253598 7:-0.566334 8:-0.115761 9:-0.176864 10:0.131649 11:-0.0726245 12:0.269529 13:-0.0503036 14:-0.368247 15:-0.473976 16:-0.268312 17:0.0651181 18:0.151574 19:-0.458094 20:0.00627795 21:-0.31661 22:-0.171852 23:0.248044 24:0.177505 25:0.0679195 26:0.295687 27:-0.135236 28:-0.531688 29:-0.0525912 30:-0.157629 31:0.185603 32:-0.0741232 33:-0.245242 34:0.116419 35:-0.0071103 36:-0.0590795 37:0.0065141 38:-0.0942806 39:0.114366 40:-0.365935 41:0.0170146 42:-0.466647 43:-0.183437 44:0.192406 45:-0.111469 46:-0.171647 47:0.076138 48:0.023089 49:0.0937018 50:-0.0507965 51:0.191761 52:-0.0359829 53:0.0481862 54:0.10248 55:-0.0721414 56:0.00475699 57:-0.0414704 58:0.22322 59:0.134483 60:0.0612166 
0.2570247678868823 0 1:-0.133185 2:-0.0431228 3:-0.0316552 4:0.123135 5:0.240275 6:-0.408002 7:0.00735545 8:-0.19184 9:-0.304194 10:0.154554 11:-0.180373 12:0.133167 13:-0.143389 14:-0.350436 15:-0.782585 16:-0.146881 17:-0.19977 18:-0.115391 19:0.0726393 20:0.296763 21:-0.191739 22:-0.409759 23:0.0997694 24:-0.738297 25:-0.381142 26:0.201789 27:0.152915 28:0.203741 29:-0.642964 30:0.0214171 31:-0.1342 32:0.117769 33:0.177837 34:-0.0256478 35:0.193405 36:-0.220331 37:0.152861 38:-0.17995 39:0.0931554 40:0.0701616 41:-0.0549879 42:-0.101493 43:-0.0432674 44:0.112358 45:0.0546914 46:0.170321 47:0.00735614 48:0.0241394 49:-0.197034 50:-0.0290836 51:0.200547 52:-0.0766329 53:-0.115025 54:-0.0551331 55:-0.0427143 56:-0.0759254 57:-0.0731074 58:-0.0209182 59:0.0737217 60:0.107525 
0.8017346225788673 0 1:-0.298545 2:0.0217483 3:0.237459 4:0.215694 5:0.147724 6:0.0508042 7:-0.160522 8:-0.890534 9:-0.284986 10:0.059319 11:0.292839 12:0.335933 13:0.240179 14:0.0831456 15:-0.241466 16:-0.144017 17:0.0770387 18:0.171859 19:-0.175121 20:0.385373 21:0.160519 22:0.187487 23:-0.418456 24:-0.227938 25:0.183759 26:-0.199356 27:0.0752927 28:0.26422 29:-0.01987 30:0.184758 31:-0.156065 32:0.0251955 33:0.00727155 34:0.202854 35:-0.432458 36:-0.128656 37:0.297752 38:-0.248026 39:-0.243743 40:-0.0283459 41:0.22649 42:-0.382913 43:-0.129421 44:-0.00338212 45:-0.124732 46:-0.109849 47:0.0336659 48:-0.0283074 49:-0.476199 50:-0.315933 51:0.135841 52:-0.342993 53:-0.174037 54:-0.163273 55:-0.267829 56:-0.0395711 57:-0.125062 58:0.0247691 59:0.0489019 60:-0.247398 
1.977293054465467 0.6852876052721175 1:-0.0122833 2:0.0164098 3:0.272627 4:-0.0789132 5:-0.302049 6:0.174008 7:0.309965 8:0.0522464 9:-0.170453 10:0.525313 11:-0.00534274 12:0.0304043 13:0.215494 14:0.289458 15:0.185225 16:0.345494 17:0.0102284 18:-0.0237801 19:0.312574 20:0.123612 21:-0.063055 22:-0.0936681 23:0.149769 24:-0.0268926 25:0.328188 26:-0.0521447 27:-0.627762 28:-0.144538 29:0.383735 30:-0.00376375 31:0.0536176 32:0.203953 33:-0.0286709 34:0.20615 35:0.00853227 36:-0.291924 37:0.269248 38:-0.39434 39:-0.396033 40:-0.117028 41:-0.0415103 42:-0.221302 43:-0.242032 44:-0.0816133 45:-0.431223 46:-0.577308 47:-0.629954 48:-0.197145 49:-0.705051 50:-0.588485 51:-0.0724478 52:-0.36268 53:-0.401453 54:-0.520336 55:-0.363122 56:-0.482005 57:-0.465206 58:-0.429625 59:-0.127817 60:-0.264305 
0.6151591809034627 0 1:-0.176693 2:0.121864 3:-0.435353 4:0.23911 5:0.063564 6:0.0280161 7:-0.110431 8:-0.425704 9:-0.0962058 10:0.282305 11:-0.246059 12:0.372777 13:0.00316207 14:-0.0676841 15:-0.245099 16:-0.0871375 17:-0.430436 18:-0.288571 19:0.158471 20:-0.10398 21:0.181052 22:0.0295983 23:-0.360432 24:-0.348295 25:-0.0391426 26:0.0758125 27:-0.073416 28:-0.272258 29:0.0929633 30:0.0330839 31:-0.104645 32:-0.0651445 33:0.185771 34:0.333558 35:0.284812 36:-0.0824714 37:-0.156376 38:-0.0443807 39:0.291242 40:0.228068 41:0.0364318 42:0.199783 43:0.0724756 44:0.28234 45:0.218351 46:0.160887 47:0.226932 48:0.190576 49:0.256613 50:0.0974112 51:0.167148 52:0.23661 53:0.193525 54:0.148932 55:0.175983 56:0.207501 57:0.266247 58:0.235029 59:0.302132 60:0.154364 
0.149100317697788 0.2189411907436164 1:-0.223188 2:-0.0908666 3:0.54456 4:-0.628426 5:0.256756 6:-0.0256931 7:-0.252214 8:-0.816688 9:0.228472 10:0.224911 11:-0.358613 12:-0.0868025 13:-0.54376 14:-0.0806354 15:-0.314708 16:-0.0196599 17:-0.323765 18:-0.46145 19:-0.163088 20:0.22334 21:-0.326076 22:0.075372 23:-0.318579 24:-0.757019 25:-0.264401 26:-0.369328 27:-0.257131 28:-0.279638 29:-0.209646 30:-0.732282 31:0.216263 32:0.231238 33:-0.225643 34:-0.154952 35:0.050201 36:-0.110945 37:0.188275 38:-0.254449 39:0.100039 40:-0.256802 41:-0.45244 42:-0.148735 43:-0.395199 44:-0.337357 45:-0.224494 46:-0.221801 47:-0.488768 48:-0.111017 49:-0.197318 50:-0.547403 51:0.11316 52:0.0619724 53:-0.255961 54:-0.244333 55:-0.256347 56:-0.456876 57:-0.117059 58:-0.275048 59:-0.158526 60:-0.350293 
0.7113190497243663 0.2370990224077352 1:-0.21523 2:-0.103011 3:-0.251953 4:0.22439 5:0.125488 6:-0.346439 7:-0.0618897 8:-0.565757 9:-0.2216 10:0.0428842 11:0.328216 12:0.157727 13:0.112359 14:-0.102716 15:-0.0543774 16:-0.00570878 17:0.198356 18:0.360658 19:-0.242641 20:0.328172 21:-0.595708 22:0.15989 23:-0.145669 24:-0.789488 25:-0.135876 26:0.0324953 27:-0.214642 28:0.0560217 29:-0.390802 30:-0.608305 31:0.133392 32:0.174865 33:-0.411004 34:-0.661288 35:-0.389243 36:0.122873 37:-0.0606601 38:-0.0530312 39:0.112824 40:0.189189 41:-0.0733389 42:-0.294356 43:0.0194171 44:0.113611 45:0.0333246 46:0.0761801 47:0.147866 48:0.128777 49:0.109111 50:0.0270934 51:0.0967897 52:0.00992291 53:0.0117566 54:-0.0110784 55:0.110829 56:-0.101688 57:0.00131821 58:0.134675 59:0.103955 60:0.0605318 
0.8024876269565407 0.5433140802088812 1:-0.121377 2:-0.256286 3:-0.0128693 4:0.0104438 5:0.176171 6:0.0573573 7:-0.213053 8:-0.309933 9:-0.0406138 10:0.617497 11:0.454324 12:0.572986 13:-0.0424199 14:-0.819968 15:0.146569 16:-0.0178378 17:-0.170585 18:0.0381577 19:-0.526175 20:-1 21:-0.248507 22:0.0229311 23:-0.404337 24:-0.691298 25:0.101655 26:0.0506146 27:-0.308071 28:0.288356 29:0.078747 30:-0.0471928 31:-0.211959 32:-0.121487 33:-0.241848 34:-0.0320719 35:-0.252105 36:-0.449851 37:-0.015214 38:-0.261779 39:-0.0324593 40:-0.262005 41:-0.272717 42:-0.0389496 43:-0.402292 44:0.030444 45:-0.0511573 46:-0.409733 47:0.064922 48:-0.0890297 49:-0.473611 50:-0.40059 51:-0.181487 52:-0.210837 53:-0.533326 54:-0.244547 55:-0.674088 56:-0.422173 57:-0.369179 58:-0.265863 59:-0.0412819 60:-0.192985 
1.621758700865223 0.2319073488121444 1:0.0889298 2:0.0410496 3:-0.479291 4:-0.0191836 5:0.394943 6:-0.122474 7:-0.0775427 8:-0.07869 9:-0.000848247 10:0.0277172 11:0.0928429 12:0.200136 13:0.428722 14:-0.899589 15:-0.544991 16:-0.0736348 17:-0.164973 18:-0.446618 19:0.0684405 20:0.0672991 21:-0.2946 22:0.238449 23:0.297966 24:0.190451 25:-0.00746669 26:0.219783 27:-0.205688 28:0.256163 29:0.132085 30:0.30416 31:0.00276795 32:0.250617 33:-0.521248 34:-0.0527288 35:-0.151605 36:0.00243866 37:-0.280054 38:-0.23867 39:0.124057 40:-0.194314 41:-0.165182 42:-0.103847 43:-0.268813 44:-0.120414 45:-0.152221 46:-0.169261 47:0.0455653 48:-0.0260445 49:-0.229814 50:-0.248682 51:0.0853122 52:-0.298853 53:-0.236106 54:-0.0732047 55:-0.171217 56:-0.0369594 57:-0.085449 58:-0.00407439 59:0.037073 60:-0.192534 
0.8476740374420343 0.4125300878881851 1:0.373718 2:0.536924 3:0.715946 4:0.423042 5:0.188209 6:0.311776 7:-0.198526 8:-0.597611 9:-0.296483 10:0.309782 11:-0.462268 12:0.441872 13:-0.17546 14:-0.547978 15:-0.156223 16:-0.46607 17:0.212949 18:-0.082632 19:-0.402862 20:0.190169 21:0.1388 22:-0.016001 23:0.0126674 24:-0.129634 25:0.136181 26:0.114189 27:-0.0644693 28:-0.234231 29:0.415 30:0.258316 31:0.541131 32:0.0203299 33:0.0443111 34:0.358197 35:0.0790905 36:0.205606 37:0.431918 38:0.241618 39:0.29181 40:0.351946 41:0.457776 42:0.32556 43:0.343949 44:0.441985 45:0.335417 46:0.386558 47:0.478378 48:0.467167 49:0.424882 50:0.348686 51:0.539403 52:0.429863 53:0.42147 54:0.4379 55:0.38269 56:0.46186 57:0.437978 58:0.504718 59:0.472263 60:0.469154 
0.6734877023296436 0 1:0.139317 2:0.000137888 3:0.25475 4:0.104341 5:0.148249 6:0.00678446 7:-0.0894083 8:-0.170189 9:-0.17438 10:0.195052 11:0.0140013 12:-0.0720287 13:0.262534 14:-0.105713 15:0.0435985 16:0.138404 17:0.109341 18:-0.672329 19:-0.0671356 20:0.402706 21:-0.133422 22:-0.34603 23:-0.158518 24:-0.168267 25:0.0338853 26:-0.0942335 27:-0.170385 28:0.223991 29:-0.377425 30:-0.0856627 31:0.0487619 32:0.182893 33:-0.468677 34:0.111512 35:0.099674 36:-0.101912 37:0.175677 38:0.0543415 39:0.081013 40:0.127019 41:-0.0231183 42:-0.158822 43:0.0719303 44:0.233401 45:-0.0608435 46:0.180575 47:0.0870004 48:0.321173 49:0.219532 50:0.123898 51:0.308903 52:0.195695 53:0.155007 54:0.111048 55:0.113156 56:0.177147 57:0.0416472 58:0.232013 59:0.30736 60:0.188352 
0.4356191898329841 0 1:-0.0992521 2:-0.155616 3:0.581288 4:0.146569 5:0.410333 6:-0.231872 7:-0.354728 8:-0.284438 9:-0.0712486 10:-0.0111994 11:-0.148988 12:0.0096301 13:0.18166 14:-0.188761 15:-0.127214 16:0.154531 17:-0.270575 18:0.115291 19:0.0555816 20:0.149079 21:-0.162683 22:0.152243 23:0.110146 24:-0.314511 25:0.143112 26:-0.0247141 27:-0.0917412 28:0.31675 29:0.204619 30:0.157806 31:0.226992 32:0.255633 33:-0.15307 34:-0.00784143 35:0.0392927 36:0.123444 37:-0.531656 38:0.101259 39:0.0422662 40:-0.135068 41:0.240487 42:0.0555447 43:-0.0682049 44:0.281174 45:-0.0454718 46:-0.0758293 47:0.0785432 48:0.0514583 49:0.0116502 50:0.0916213 51:0.244783 52:0.105372 53:0.0841819 54:0.0586394 55:-0.00205229 56:0.104377 57:0.0546958 58:0.264654 59:0.165463 60:0.149307 
0.8912100005795419 0.1122949575969585 1:-0.285802 2:0.00324843 3:0.193221 4:0.165726 5:0.0139012 6:-0.156194 7:-0.577688 8:-0.792752 9:0.171838 10:0.0221881 11:0.162611 12:-0.296699 13:0.29047 14:-0.0430479 15:-0.411439 16:0.137111 17:-0.048125 18:0.0246001 19:-0.675724 20:0.310488 21:-0.08105 22:0.138332 23:0.0257058 24:0.20282 25:-0.258897 26:-0.179985 27:-0.110854 28:0.0410654 29:0.43684 30:-0.0585321 31:0.33823 32:0.0706186 33:0.0591946 34:0.0916972 35:0.302027 36:-0.804631 37:0.280649 38:-0.111977 39:0.0888961 40:-0.180261 41:-0.04982 42:0.10911 43:-0.402532 44:0.190242 45:-0.308655 46:-0.117782 47:0.0349468 48:-0.0542436 49:-0.163834 50:-0.0337659 51:-0.000501502 52:0.0173407 53:-0.0340008 54:0.0112627 55:-0.177649 56:-0.0322159 57:-0.0326745 58:0.0477809 59:0.222898 60:-0.0459607 
0.1957155512170899 0 1:-0.324977 2:-0.0219334 3:0.697597 4:0.117571 5:0.115176 6:-0.10547 7:-0.267551 8:-0.117024 9:-0.212552 10:0.0238458 11:-0.490073 12:0.269169 13:-0.0798604 14:-0.0928929 15:-0.229929 16:0.05393 17:-0.323415 18:-0.154861 19:-0.707762 20:-0.143136 21:-0.288589 22:-0.104327 23:0.135659 24:0.18414 25:0.202027 26:-0.0781023 27:0.0631776 28:0.119217 29:0.243552 30:0.181514 31:0.336391 32:-0.0975618 33:0.0655293 34:-0.106547 35:-0.0593869 36:-0.0994541 37:0.0629719 38:-0.617454 39:0.10678 40:-0.0755577 41:0.203839 42:-0.073663 43:-0.109415 44:0.21083 45:0.0509417 46:0.194055 47:0.174297 48:0.175197 49:0.130734 50:-0.0706724 51:0.15421 52:-0.0300392 53:0.0641919 54:0.145896 55:0.122092 56:0.0271665 57:0.0925196 58:0.112563 59:0.178034 60:0.227554 
1.852362833408144 0 1:-0.222584 2:0.159537 3:0.0114078 4:-0.247809 5:0.15433 6:-0.0879635 7:-0.0801836 8:-0.389668 9:0.0221294 10:0.102442 11:-0.151007 12:0.145395 13:-0.143332 14:-0.58564 15:-0.0770521 16:0.13897 17:-0.261622 18:0.131837 19:0.250354 20:0.20321 21:0.189777 22:0.0933582 23:-0.110077 24:0.140057 25:0.220833 26:0.00683707 27:0.218083 28:-0.0127141 29:-0.100781 30:0.0793391 31:0.191984 32:-0.34606 33:-0.405904 34:-0.291365 35:-0.575383 36:0.00834343 37:0.306512 38:-0.238973 39:-0.132816 40:0.0362389 41:-0.256592 42:-0.110336 43:-0.281588 44:-0.179972 45:-0.250231 46:-0.379613 47:-0.121073 48:0.0156891 49:-0.118674 50:-0.181472 51:0.0430324 52:-0.228442 53:-0.275698 54:-0.125252 55:-0.131825 56:-0.157084 57:-0.19026 58:-0.167633 59:0.085429 60:-0.00831869 
0.3511572592276176 0 1:-0.19572 2:-0.157474 3:0.498778 4:-0.0965196 5:0.0483735 6:-0.148561 7:-0.149155 8:-0.190019 9:-0.248967 10:0.157788 11:-0.109981 12:0.227632 13:-0.0203223 14:-0.244331 15:-0.592067 16:0.203924 17:-0.877266 18:0.289785 19:-0.239064 20:0.0978176 21:-0.0331767 22:0.00213146 23:-0.326605 24:0.0744173 25:0.0532683 26:-0.379525 27:0.0123128 28:-0.465042 29:0.0963304 30:-0.453078 31:0.050721 32:0.109454 33:-0.489894 34:-0.132547 35:-0.0667606 36:-0.349915 37:0.0791775 38:-0.148897 39:0.0606127 40:-0.101496 41:0.0921304 42:-0.08645 43:-0.473131 44:0.213498 45:-0.0794219 46:0.209444 47:-0.0122186 48:0.00651422 49:-0.00160454 50:0.1228 51:0.228006 52:0.100414 53:0.0344559 54:0.0816957 55:0.0372021 56:0.00381567 57:0.106387 58:0.183923 59:0.131475 60:0.14646 
0.7453963391668149 0 1:0.0355364 2:-0.386562 3:0.558957 4:-0.216941 5:0.154099 6:-0.251818 7:-0.202023 8:-0.290505 9:-0.302836 10:-0.228151 11:0.00679648 12:0.216088 13:-0.215614 14:0.0758578 15:-0.0543778 16:0.00364275 17:0.0228177 18:0.235852 19:-0.10551 20:0.179078 21:-0.352474 22:-0.115921 23:-0.0745534 24:-0.345861 25:0.236861 26:-0.31556 27:0.0227622 28:0.205321 29:0.0551155 30:-0.0384662 31:0.0885992 32:0.181569 33:-0.597766 34:-0.484871 35:0.229469 36:0.00757504 37:0.277455 38:-0.324434 39:-0.118859 40:-0.134457 41:0.03245 42:-0.0919208 43:-0.440626 44:-0.110949 45:-0.230147 46:0.203103 47:-0.0377881 48:-0.0278127 49:-0.194574 50:-0.245023 51:0.0294155 52:-0.105201 53:-0.201782 54:-0.182247 55:-0.302177 56:-0.231833 57:-0.104432 58:-0.100142 59:-0.472293 60:-0.308338 
0.1275861201178188 0.2181092969261728 1:0.0403563 2:0.100598 3:0.704091 4:-0.353548 5:0.324663 6:-0.133769 7:-0.459101 8:-0.518329 9:-0.0954078 10:0.480518 11:0.00607106 12:-0.269412 13:-0.243082 14:-0.690269 15:-0.501322 16:-0.904993 17:-0.538822 18:-0.129958 19:-0.441254 20:-0.27796 21:-0.218939 22:0.309058 23:0.302537 24:-0.0494601 25:0.0260963 26:-0.0993126 27:0.0694797 28:-0.0657454 29:0.12599 30:0.00254276 31:-0.227399 32:0.27109 33:-0.0155531 34:0.165847 35:-0.182254 36:0.0698334 37:0.120944 38:-0.0274623 39:-0.156093 40:0.01399 41:0.172242 42:-0.231502 43:-0.0400714 44:0.281694 45:-0.0168321 46:0.200086 47:0.210817 48:0.0784791 49:0.14974 50:-0.0277116 51:0.367619 52:0.102877 53:-0.00926983 54:0.0513077 55:-0.0613001 56:0.0316038 57:0.0473878 58:0.128588 59:0.132334 60:0.125855 
0.5638626610186304 0 1:-0.0935747 2:0.076594 3:0.211372 4:0.211947 5:0.214579 6:-0.0506238 7:-0.212851 8:-0.604768 9:-0.110881 10:0.0703625 11:-0.10531 12:0.377986 13:-0.505914 14:-0.072699 15:0.0345339 16:-0.139353 17:0.181171 18:-0.127261 19:-0.433201 20:0.397743 21:-0.0633418 22:-0.154464 23:-0.399231 24:0.114664 25:0.284707 26:-0.0812643 27:-0.514122 28:0.187866 29:0.239487 30:-0.488025 31:0.250033 32:0.112336 33:0.0409651 34:0.357995 35:-0.348143 36:-0.3241 37:-0.0256832 38:0.126372 39:0.328797 40:0.342867 41:-0.10824 42:0.0747345 43:0.0400794 44:0.232414 45:0.0563082 46:0.239755 47:0.101802 48:0.189163 49:0.0433081 50:-0.0412105 51:0.331198 52:0.162773 53:0.125276 54:0.0897783 55:0.109272 56:0.0589252 57:0.0606273 58:0.233594 59:0.228464 60:0.204805 
1.640561200271711 0.009973583757423691 1:-0.187032 2:-0.147827 3:0.0171116 4:0.172801 5:0.0446188 6:0.228838 7:0.0588188 8:-0.363446 9:0.245819 10:0.260646 11:0.171597 12:-0.0766578 13:-0.00728083 14:0.177732 15:-0.209026 16:-0.123206 17:0.0326532 18:-0.356261 19:0.0119867 20:0.297866 21:-0.211638 22:0.270404 23:-0.190562 24:-0.56413 25:0.023857 26:0.13382 27:0.0439328 28:-0.237788 29:-0.132668 30:0.141198 31:-0.33303 32:-0.151451 33:0.0619051 34:0.232097 35:0.0832765 36:-0.319177 37:0.143311 38:-0.359288 39:-0.535139 40:-0.326843 41:-0.237033 42:0.0380302 43:-0.305157 44:0.0965637 45:-0.265301 46:-0.48644 47:-0.0171779 48:-0.129726 49:-0.234425 50:-0.333697 51:-0.0864382 52:-0.188219 53:-0.165705 54:-0.379229 55:-0.151148 56:-0.156799 57:-0.381568 58:-0.13748 59:-0.00480344 60:-0.0538945 
0.2833743972204996 0 1:-0.155208 2:0.0149874 3:0.226221 4:-0.221293 5:-0.382586 6:-0.263486 7:-0.282209 8:-0.216216 9:0.00762509 10:0.26358 11:-0.00251395 12:-0.392436 13:0.220099 14:-0.00302198 15:-0.412227 16:0.0823821 17:-0.615103 18:0.0488933 19:-0.117031 20:0.111919 21:-0.233009 22:0.110253 23:0.0906097 24:-0.579267 25:0.127542 26:-0.103924 27:-0.336699 28:0.12457 29:0.0374107 30:0.0397172 31:-0.370262 32:-0.00361399 33:-0.21563 34:0.242718 35:-0.120017 36:-0.136779 37:-0.55633 38:-0.299831 39:-0.168118 40:0.00954456 41:-0.0654113 42:-0.471771 43:-0.181816 44:0.0205104 45:-0.0986261 46:-0.10575 47:-0.386604 48:-0.240634 49:-0.0820967 50:-0.160911 51:-0.344154 52:-0.110631 53:-0.178628 54:-0.00573495 55:-0.233798 56:-0.119153 57:-0.104053 58:-0.195053 59:0.109455 60:-0.214498 
0.2969770791170828 0 1:-0.147422 2:0.164798 3:0.324447 4:0.224935 5:0.304003 6:-0.252047 7:-0.333897 8:-0.210887 9:0.0157876 10:0.253772 11:-0.635617 12:-0.276311 13:-0.00103944 14:0.091923 15:-0.283503 16:-0.528744 17:-0.4687 18:-0.0403917 19:-0.0275666 20:0.198205 21:-0.250747 22:0.158682 23:-0.160455 24:-0.00564567 25:-0.183692 26:-0.24916 27:-0.747703 28:-0.227865 29:-0.280247 30:-0.0430485 31:0.156804 32:-0.0252601 33:0.116199 34:0.260362 35:-0.109344 36:-0.156472 37:-0.160959 38:-0.253401 39:-0.00306808 40:0.124422 41:-0.159649 42:-0.218831 43:-0.103935 44:-0.114612 45:-0.375887 46:-0.201884 47:-0.193392 48:-0.25019 49:-0.10489 50:-0.572031 51:-0.0477431 52:-0.13287 53:-0.446433 54:-0.0759669 55:-0.435418 56:-0.588274 57:-0.324452 58:-0.344818 59:-0.0985924 60:-0.357449 
0.8132688957345805 0.03841911661005827 1:-0.440693 2:-0.196689 3:0.522519 4:0.213222 5:-0.0663226 6:-0.125199 7:-0.0601644 8:-0.258036 9:0.191058 10:0.284739 11:0.124847 12:-0.014105 13:-0.00356284 14:0.0184746 15:-0.0485788 16:0.0379756 17:-0.0268807 18:0.271821 19:-0.0300377 20:0.0210374 21:-0.49437 22:0.00306626 23:-0.0615955 24:-0.0396856 25:-0.204449 26:-0.0508247 27:0.0176616 28:-0.169794 29:0.203103 30:-0.366924 31:-0.0117348 32:-0.201749 33:-0.270156 34:-0.315545 35:-0.491271 36:-0.461783 37:-0.751055 38:-0.376245 39:-0.763838 40:-0.189389 41:-0.454399 42:-0.624189 43:-0.253461 44:0.0521773 45:-0.481289 46:-0.240129 47:-0.253667 48:-0.336698 49:-0.366116 50:-0.272658 51:-0.157724 52:-0.265832 53:-0.190486 54:-0.64895 55:-0.3784 56:-0.163932 57:-0.379728 58:-0.230008 59:-0.339931 60:-0.213192 
0.1453536277668399 0 1:-0.0940472 2:0.286746 3:0.342894 4:-0.293867 5:0.208219 6:0.06121 7:-0.197516 8:-0.569618 9:0.229959 10:0.306858 11:-0.249364 12:0.138695 13:-0.119341 14:-0.47621 15:-0.0901086 16:0.0884824 17:-0.321466 18:-0.286204 19:-0.331023 20:-0.0301691 21:-0.100469 22:0.26703 23:-0.121616 24:0.0309242 25:-0.106046 26:-0.0811129 27:-0.323003 28:-0.00913252 29:-0.10782 30:-0.181543 31:-0.228533 32:0.118601 33:-0.528504 34:-0.191572 35:-0.00179659 36:-0.301958 37:-0.104812 38:-0.535006 39:0.0328658 40:-0.328615 41:-0.369182 42:-0.268243 43:-0.00244106 44:-0.0373359 45:-0.628215 46:-0.191438 47:-0.0205726 48:-0.0204259 49:-0.829891 50:-0.466892 51:-0.394112 52:-0.104265 53:-0.391256 54:-0.479742 55:-0.443896 56:-0.11829 57:-0.298205 58:-0.594387 59:-0.258569 60:-0.450676 
0.6248013357713619 0 1:-0.373672 2:0.0749455 3:0.127761 4:0.0953563 5:0.175418 6:0.00776288 7:-0.495552 8:-0.318663 9:0.202123 10:0.130013 11:0.0629328 12:0.183237 13:-0.0328107 14:-0.556372 15:-0.0350723 16:-0.27726 17:-0.0546134 18:-0.757258 19:-0.305248 20:0.382258 21:-0.186348 22:0.0508011 23:-0.0429175 24:-0.0513427 25:0.202637 26:0.0750808 27:-0.662016 28:0.0732104 29:0.0522717 30:-0.185008 31:0.00627776 32:-0.0393885 33:-0.109049 34:0.123765 35:-0.226551 36:-0.0123335 37:-0.102089 38:-0.264032 39:-0.203106 40:0.127802 41:-0.309753 42:-0.084464 43:-0.214527 44:0.0820283 45:-0.488052 46:-0.118979 47:0.0177438 48:-0.103301 49:0.0440298 50:-0.18308 51:0.0535703 52:-0.136926 53:-0.0583269 54:-0.183418 55:-0.250069 56:-0.0699761 57:-0.1744 58:0.00827694 59:-0.0480537 60:-0.620189 
0.5634445118879644 0 1:-0.218941 2:0.111337 3:-0.112004 4:-0.227428 5:0.112873 6:-0.38316 7:-0.0978147 8:-0.394887 9:0.0499801 10:0.124943 11:-0.0572774 12:0.0602908 13:-0.177173 14:0.129715 15:0.00494982 16:-0.337837 17:-0.439014 18:-0.0830711 19:-0.252859 20:0.260675 21:0.0809809 22:-0.26712 23:-0.0745785 24:0.0218271 25:0.00996837 26:-0.503692 27:-0.387897 28:0.198372 29:-0.199146 30:-0.154163 31:-0.0183744 32:0.136599 33:-0.307199 34:-0.232871 35:0.282789 36:-0.140071 37:0.0679992 38:-0.0856804 39:-0.334346 40:0.0953032 41:0.173105 42:0.06148 43:0.038308 44:-0.0240752 45:0.0241196 46:0.0984475 47:0.323798 48:0.225702 49:0.193268 50:0.0900707 51:0.312978 52:0.250918 53:0.156736 54:0.238049 55:0.0730931 56:0.164914 57:0.0897215 58:0.213166 59:0.256516 60:0.200444 
1.170717479914374 0.5541380226785136 1:-0.407442 2:0.0176673 3:-0.933432 4:-0.00665167 5:0.265644 6:-0.34322 7:4.53702e-06 8:-0.742316 9:0.0582565 10:-0.0817021 11:-0.0655369 12:0.302226 13:0.192423 14:-0.398189 15:0.00660817 16:-0.0785528 17:-0.784547 18:-0.0589796 19:-0.360059 20:-0.181589 21:-0.212002 22:-0.590243 23:-0.179164 24:0.0637724 25:0.167215 26:0.127673 27:-0.204554 28:0.198171 29:0.0616542 30:0.102767 31:0.288231 32:-0.116218 33:-1 34:0.117113 35:-0.438575 36:-0.2502 37:0.201488 38:-0.340958 39:0.0121544 40:0.241932 41:-0.265463 42:-0.0859493 43:-0.0694872 44:0.0888413 45:0.0762669 46:0.138538 47:-0.022167 48:0.114202 49:-0.0211393 50:-0.130663 51:0.106766 52:-0.104358 53:-0.00141072 54:0.0676475 55:0.105225 56:-0.0283621 57:0.00539311 58:0.00557429 59:0.24229 60:0.120592 
0.6653399459364002 0 1:-0.0888905 2:-0.156589 3:0.464345 4:0.40306 5:0.157234 6:-0.0915302 7:-0.127126 8:-0.580945 9:0.0527628 10:0.189051 11:-0.0859089 12:0.0745012 13:-0.481877 14:-0.478492 15:-0.470046 16:0.174061 17:-0.191617 18:-0.181862 19:-0.27769 20:0.242846 21:0.0784593 22:-0.246851 23:-0.0289221 24:-0.304025 25:0.0444184 26:-0.718576 27:-0.335481 28:-0.116361 29:-0.0663907 30:0.146408 31:0.28784 32:0.0438977 33:-0.0426638 34:-0.0925935 35:0.0619355 36:0.00266151 37:-0.0477937 38:-0.150319 39:-0.0509866 40:-0.161725 41:-0.661648 42:-0.163962 43:-0.161428 44:-0.248282 45:-0.494057 46:-0.296005 47:-0.22179 48:-0.429792 49:-0.318138 50:-0.699942 51:-0.406397 52:-0.507806 53:-0.451013 54:-0.19805 55:-0.244166 56:-0.262301 57:-0.276982 58:-0.403499 59:-0.0736963 60:-0.170131 
0.9043355740867143 0 1:0.198012 2:-0.655694 3:-0.102867 4:-0.123692 5:0.0968248 6:-0.06914 7:-0.00697262 8:-0.472388 9:-0.454927 10:0.298759 11:-0.326578 12:0.0130956 13:-0.162257 14:-0.238495 15:-0.244852 16:0.243417 17:0.064191 18:0.338415 19:0.0202309 20:-0.0603357 21:-0.115313 22:-0.222471 23:-0.234956 24:-0.385225 25:-0.0172297 26:-0.197663 27:-0.306223 28:0.162632 29:0.0622339 30:0.0288443 31:0.0125833 32:0.0155302 33:0.0200496 34:-0.0260665 35:-0.0242546 36:-0.110852 37:-0.298895 38:-0.188 39:0.173034 40:-0.319234 41:-0.29657 42:-0.225264 43:-0.178407 44:0.0541659 45:-0.568376 46:-0.0816023 47:0.070375 48:-0.0687949 49:-0.422633 50:-0.0221575 51:0.112237 52:0.0248462 53:-0.0558691 54:-0.154607 55:-0.146921 56:-0.0633815 57:-0.198187 58:-0.0206137 59:0.188555 60:0.0162174 
0.7239816493163045 0.5436621628422761 1:-0.149775 2:-0.529001 3:-0.297466 4:0.0307879 5:0.0499713 6:-0.181051 7:-0.674567 8:-0.354654 9:-0.316318 10:-0.257931 11:-0.283508 12:-0.134873 13:-0.0238538 14:0.0637993 15:-1 16:0.0891247 17:-0.810457 18:0.00346457 19:-0.0426883 20:-0.114273 21:-0.379495 22:-0.499216 23:-0.250438 24:-0.188322 25:-0.0910049 26:-0.516941 27:-0.0294153 28:-0.0160244 29:-0.0106777 30:-0.0436813 31:-0.287167 32:-0.071189 33:-0.0612288 34:-0.108665 35:-0.271336 36:-0.134524 37:-0.0469649 38:-1 39:-0.502541 40:0.044376 41:-0.367059 42:-0.742375 43:-0.150967 44:-0.0588773 45:-0.496347 46:-0.296119 47:-0.154791 48:-1 49:-0.331031 50:-0.716219 51:-0.0884834 52:-0.425855 53:-0.467372 54:-0.27654 55:-0.2048 56:-0.272739 57:-0.29756 58:-0.0809358 59:-0.156076 60:-0.367289 
0.7641811903492242 0.06906692390232297 1:-0.26146 2:-0.087492 3:-0.136053 4:0.291882 5:0.298669 6:-0.425008 7:-0.458569 8:-0.0564218 9:-0.0844006 10:-0.0478929 11:-0.116058 12:0.356336 13:0.225065 14:0.152703 15:-0.234466 16:0.116734 17:-0.376254 18:-0.547713 19:-0.148725 20:0.17495 21:0.199611 22:-0.160926 23:0.0446832 24:-0.398975 25:0.370169 26:-0.312856 27:-0.0791374 28:0.353442 29:-0.438464 30:-0.0723567 31:0.0928163 32:0.263317 33:-0.0468291 34:-0.298842 35:0.311589 36:0.0869728 37:-0.247634 38:-0.450334 39:0.109459 40:0.164153 41:0.0773694 42:0.0646273 43:0.0913142 44:0.0426869 45:-0.227997 46:0.108829 47:-0.13794 48:0.14434 49:0.0410068 50:-0.137418 51:0.114664 52:0.0395494 53:-0.0910406 54:-0.00653389 55:-0.187597 56:-0.0775629 57:0.0296785 58:0.108163 59:0.0741291 60:0.0531884 
0.9944312163281138 0 1:-0.0517532 2:0.185939 3:0.321806 4:0.455983 5:0.124891 6:-0.400239 7:0.249451 8:-0.120675 9:0.141905 10:0.0682457 11:-0.201378 12:-0.0598349 13:-0.13526 14:0.00126723 15:-0.288986 16:0.162016 17:-0.213509 18:-0.110465 19:0.0522383 20:0.121731 21:0.0600563 22:0.111635 23:0.19878 24:0.0402255 25:0.222799 26:-0.602574 27:-0.20447 28:-0.382105 29:-0.296998 30:-0.283196 31:0.0621398 32:-0.269085 33:-0.154847 34:-0.00220006 35:-0.106216 36:-0.228808 37:0.0792926 38:-0.356637 39:0.123535 40:0.0527838 41:-0.401889 42:-0.185683 43:-0.419365 44:0.0822817 45:-0.138675 46:-0.393866 47:0.0418389 48:-0.178326 49:0.0462869 50:0.0621145 51:0.148721 52:-0.0800485 53:-0.117131 54:-0.0249193 55:-0.157327 56:0.0345472 57:-0.00873685 58:-0.0745011 59:-0.0349346 60:-0.127879 
0.2481602215321606 0 1:-0.077142 2:-0.0379323 3:0.380729 4:-0.118568 5:-0.119809 6:-0.226129 7:-0.366465 8:-0.739478 9:0.0412207 10:0.0988854 11:-0.084037 12:0.282196 13:0.141961 14:-0.243818 15:-0.0289294 16:0.00835208 17:-0.274581 18:-0.0521313 19:-0.104222 20:-0.048104 21:-0.117112 22:0.138543 23:-0.0187154 24:0.0748815 25:0.0885411 26:-0.14455 27:-0.669274 28:0.0137767 29:-0.099812 30:0.190944 31:-0.168713 32:0.124705 33:-0.107464 34:0.285876 35:-0.466633 36:-0.241037 37:0.111006 38:0.0680279 39:0.0284039 40:0.281293 41:-0.405896 42:-0.193843 43:0.172042 44:-0.010357 45:-0.264754 46:-0.138143 47:-0.370416 48:-0.124502 49:0.0152013 50:-0.431725 51:0.103296 52:-0.39414 53:-0.207406 54:-0.6569 55:-0.536312 56:-0.129108 57:-0.16235 58:-0.3936 59:-0.419383 60:-0.216477 
1.107842085976876 1.293365677432069 1:-0.141998 2:0.378133 3:0.469075 4:0.406703 5:0.651756 6:-0.586497 7:0.0464955 8:-0.0855949 9:0.260619 10:0.0669111 11:0.292964 12:0.122418 13:0.202654 14:0.3852 15:0.204068 16:0.479643 17:0.171837 18:0.310374 19:0.0605155 20:0.639654 21:0.0844111 22:0.406363 23:0.201921 24:0.317386 25:0.370261 26:0.458245 27:0.397075 28:0.570974 29:0.560465 30:-0.0627442 31:0.199195 32:0.367039 33:0.138152 34:0.352479 35:0.288943 36:0.119162 37:-0.133381 38:-0.0196117 39:0.304207 40:0.154516 41:0.234834 42:-0.12992 43:-0.00176944 44:-0.130785 45:0.0214133 46:0.109591 47:-0.555239 48:0.0290024 49:-0.0559638 50:-0.449812 51:0.165995 52:0.0565323 53:-0.364006 54:-0.110214 55:-0.892359 56:-0.245808 57:0.0889411 58:-0.159935 59:-0.349646 60:-0.236034 
1.045280639585273 0 1:-0.0490224 2:0.00432912 3:-0.301896 4:-0.0982884 5:0.137423 6:0.132125 7:-0.140766 8:-0.117126 9:-0.31101 10:0.160367 11:-0.0946088 12:-0.500898 13:0.115461 14:-0.0865781 15:-0.55771 16:0.044738 17:-0.159814 18:-0.341621 19:-0.240685 20:0.179318 21:-0.467626 22:0.226 23:0.267056 24:-0.0196673 25:-0.0346822 26:-0.520836 27:-0.163627 28:0.157519 29:-0.653352 30:-0.0531912 31:0.0965556 32:-0.00274406 33:-0.104807 34:-0.0706717 35:-0.0409555 36:0.102956 37:-0.146785 38:-0.6051 39:-0.0982902 40:-0.0829523 41:-0.237754 42:-0.0724403 43:-0.0270197 44:-0.115549 45:-0.357911 46:-0.0598126 47:-0.0619639 48:0.0266159 49:-0.287082 50:-0.184967 51:-0.142759 52:-0.011203 53:-0.297677 54:-0.0849295 55:-0.302866 56:-0.0802637 57:-0.0995751 58:-0.225167 59:0.0796641 60:-0.164991 
0.4695007422675153 0.5370655936911639 1:-0.116499 2:-0.0440091 3:0.200766 4:-0.464442 5:0.362216 6:0.0727822 7:-0.573035 8:-0.593041 9:-0.274459 10:0.275601 11:0.25587 12:-0.177593 13:-0.304593 14:-0.604109 15:-0.384628 16:-0.146874 17:-0.660129 18:0.0617542 19:-0.0736987 20:-0.0197307 21:-0.468811 22:0.113715 23:0.0252213 24:0.0273042 25:-0.926095 26:-0.121005 27:-0.597707 28:-0.405863 29:-0.26691 30:-0.00202599 31:0.219153 32:-0.443993 33:-0.46956 34:-0.597968 35:-0.0865336 36:-0.298247 37:-0.116642 38:-0.636254 39:-0.880382 40:-0.364721 41:-0.0396733 42:-0.204483 43:-0.206184 44:-0.425945 45:-0.660432 46:-0.533105 47:-0.415622 48:-0.306382 49:-0.268283 50:-0.727668 51:-0.113652 52:-0.595529 53:-0.75787 54:-0.292934 55:-0.864414 56:-0.435362 57:-0.465333 58:-0.27943 59:-0.236022 60:-0.396799 
0.601828410985368 0.2496058817435515 1:-0.0303465 2:-0.402147 3:0.0801195 4:-0.118697 5:0.16897 6:-0.0138689 7:-0.457568 8:-0.207822 9:0.0970002 10:0.244748 11:0.0530328 12:-0.323916 13:-0.0772774 14:-0.0873767 15:-0.340361 16:-0.244512 17:-0.157186 18:0.0827789 19:-0.272585 20:-0.603872 21:-0.319002 22:-0.509553 23:-0.119219 24:-0.247958 25:0.0585653 26:-0.452802 27:-0.227562 28:0.261671 29:0.0904224 30:-0.224881 31:-0.100278 32:0.0672518 33:-0.343361 34:-0.871983 35:-0.105779 36:-0.0619951 37:-0.27404 38:-0.427527 39:-0.120809 40:0.0439897 41:0.0071623 42:-0.690855 43:-0.286341 44:-0.14171 45:-0.219335 46:-0.148867 47:-0.25829 48:-0.120062 49:-0.251102 50:-0.179984 51:0.0145709 52:-1 53:-0.347639 54:-0.0524916 55:-0.210304 56:-0.0386272 57:-0.319578 58:-0.0385833 59:-0.164889 60:-0.121365 
0.1239546228070578 0 1:-0.116341 2:0.0162114 3:0.00561541 4:0.0862975 5:-0.189637 6:0.032078 7:-0.218816 8:-0.216171 9:-0.0842221 10:0.140897 11:-0.442766 12:0.0961378 13:0.0289666 14:-0.1279 15:-0.425848 16:0.00125546 17:-0.133807 18:-0.132779 19:-0.111196 20:0.204848 21:-0.167194 22:0.0284219 23:-0.230557 24:-0.236995 25:-0.233149 26:-0.055548 27:-0.0601387 28:-0.914142 29:-0.0267842 30:-0.422353 31:-0.0770639 32:-0.316485 33:-0.282978 34:-0.527321 35:-0.0491229 36:0.060569 37:-0.0448996 38:-0.179789 39:-0.057355 40:-0.101465 41:-0.310706 42:-0.170372 43:-0.552666 44:-0.10687 45:-0.442549 46:-0.0882556 47:0.097884 48:-0.0232718 49:-0.0887295 50:-0.235864 51:0.137329 52:-0.295684 53:-0.223571 54:0.065407 55:-0.237713 56:-0.227713 57:-0.064059 58:0.0975362 59:0.0880257 60:-0.0151786 
0.7795122932378845 0.401991874903208 1:-0.102375 2:0.164414 3:0.372301 4:0.317799 5:-0.122811 6:-0.0234384 7:-0.163239 8:-0.857101 9:0.365412 10:0.392122 11:-0.336695 12:-0.498177 13:0.307321 14:0.0712849 15:0.116182 16:-0.692231 17:-0.0556446 18:-0.404365 19:0.413302 20:0.483986 21:-0.691773 22:0.36982 23:0.296024 24:-0.0713799 25:0.113127 26:-0.223224 27:-0.0619608 28:0.144952 29:-0.146851 30:-0.140599 31:0.210464 32:0.0393881 33:-0.328421 34:0.150198 35:-0.197787 36:-0.023822 37:-0.209964 38:-0.135717 39:0.0385732 40:-0.0303405 41:-0.31436 42:-0.465935 43:0.109441 44:-0.0552723 45:-0.526567 46:-0.27696 47:-0.0509321 48:-0.0910384 49:-0.0573568 50:-0.373136 51:-0.0558584 52:-0.449024 53:-0.24085 54:-0.154779 55:-0.364693 56:-0.220355 57:-0.0469135 58:-0.132169 59:-0.192455 60:-0.20856 
0.4302198064858634 0 1:-0.285606 2:-0.213746 3:0.363733 4:-0.356806 5:-0.55775 6:-0.210704 7:-0.392223 8:-0.523567 9:-0.0664829 10:0.103622 11:-0.198777 12:0.2549 13:0.0807324 14:-0.671534 15:-0.0915435 16:-0.103599 17:-0.239412 18:0.00529594 19:0.044471 20:0.0570806 21:-0.272786 22:-0.0217482 23:-0.129373 24:0.0927435 25:-0.209481 26:-0.143387 27:0.110272 28:0.0402398 29:-0.508844 30:-0.262257 31:0.0542977 32:-0.058258 33:0.0138793 34:0.133412 35:0.233559 36:-0.112609 37:0.182442 38:-0.393065 39:-0.257593 40:-0.0532758 41:-0.194579 42:-0.400637 43:-0.305234 44:-0.100666 45:-0.412706 46:-0.0683816 47:-0.205494 48:-0.253945 49:-0.316186 50:-0.276545 51:-0.0179928 52:-0.188678 53:-0.682428 54:-0.249197 55:-0.217897 56:-0.138065 57:-0.510571 58:-0.471062 59:-0.0496902 60:-0.303607 
0.05817130450139781 0 1:-0.113861 2:0.0545175 3:0.291623 4:-0.213196 5:0.323073 6:-0.44693 7:-0.0456187 8:-0.52053 9:0.0619889 10:-0.109173 11:0.0242792 12:-0.180647 13:0.0244907 14:-0.567164 15:-0.127563 16:-0.325885 17:-0.758491 18:0.200693 19:-0.0775202 20:0.0349221 21:-0.25173 22:0.224017 23:-0.152739 24:-0.115808 25:-0.232122 26:0.00847925 27:-0.438574 28:-0.225086 29:0.199316 30:-0.387864 31:0.0889646 32:-0.150204 33:-0.571884 34:0.292021 35:-0.489102 36:-0.0396575 37:-0.0635781 38:-0.484769 39:-0.242611 40:-0.526694 41:-0.377761 42:-0.317283 43:-0.370968 44:-0.386722 45:-0.363053 46:-0.49534 47:-0.414339 48:-0.268168 49:-0.235129 50:-0.695744 51:-0.220594 52:-0.372116 53:-0.721726 54:-0.0646018 55:-0.364399 56:-0.620863 57:-0.470535 58:-0.296034 59:-0.104349 60:-0.214299 
0.6581505134716055 0.1630709712303655 1:-0.417758 2:-0.0653668 3:0.310916 4:0.127282 5:0.098484 6:0.136098 7:-0.601812 8:-0.144886 9:0.0285786 10:0.190338 11:0.237035 12:0.470932 13:-0.856968 14:-0.169253 15:-0.166191 16:-0.281149 17:-0.219611 18:-0.456933 19:0.0445474 20:0.395982 21:-0.104895 22:-0.126047 23:0.160882 24:-0.0757491 25:-0.0298374 26:0.114387 27:-0.0316473 28:-0.323401 29:0.0380128 30:0.0197176 31:-0.282541 32:0.278316 33:-0.191637 34:-0.345798 35:-0.734123 36:-0.0352233 37:-0.0110272 38:-0.0161125 39:-0.0283479 40:-0.344356 41:-0.135773 42:-0.147808 43:-0.278082 44:-0.0124898 45:-0.354248 46:-0.473733 47:0.035686 48:0.136354 49:-0.0109246 50:-0.103726 51:0.0370009 52:-0.0709017 53:-0.195539 54:-0.0102753 55:-0.276962 56:-0.226253 57:-0.139558 58:-0.159528 59:0.0626678 60:-0.185298 
1.067508090853419 0 1:-0.363434 2:0.0760561 3:0.114809 4:-0.14165 5:0.116025 6:-0.10503 7:-0.0160453 8:-0.266418 9:0.0890474 10:0.442957 11:-0.0151134 12:0.20311 13:-0.0691418 14:-0.19663 15:-0.361874 16:-0.357658 17:-0.100432 18:-0.467214 19:0.00928546 20:0.0133112 21:-0.482369 22:0.120848 23:-0.0852968 24:-0.100101 25:-0.0269373 26:-0.0744246 27:0.0748711 28:0.188208 29:-0.229747 30:-0.122202 31:-0.370319 32:-0.143158 33:-0.563931 34:0.102288 35:-0.149679 36:-0.505816 37:-0.00412975 38:-0.0485193 39:-0.197343 40:-0.43088 41:-0.173638 42:-0.275403 43:-0.32735 44:-0.0172065 45:-0.263543 46:-0.662036 47:-0.0132631 48:-0.501612 49:-0.0922847 50:-0.376338 51:-0.0747676 52:-0.142392 53:-0.299341 54:-0.206084 55:-0.367303 56:-0.467153 57:-0.437395 58:-0.107543 59:-0.107911 60:-0.324878 
1.07374982274108 0.1670786839810154 1:0.220055 2:0.223789 3:0.492031 4:0.435528 5:0.394386 6:0.0625227 7:0.0749692 8:-0.196959 9:0.139837 10:0.0177735 11:0.204921 12:0.655525 13:-0.0357804 14:0.224341 15:-0.0409578 16:0.254914 17:0.00774422 18:-0.0253327 19:0.219602 20:0.234388 21:0.144462 22:-0.157264 23:0.119988 24:-0.114317 25:0.430317 26:0.289771 27:-0.740929 28:0.318783 29:0.224856 30:0.0762002 31:0.16987 32:-0.00958914 33:0.0859502 34:-0.0560737 35:0.213174 36:0.0167876 37:0.247181 38:-0.199725 39:0.0731493 40:0.365271 41:0.246881 42:0.184041 43:0.36944 44:0.0642137 45:0.103448 46:0.249557 47:0.287605 48:0.257582 49:0.177368 50:0.144226 51:0.251554 52:0.195466 53:0.147181 54:0.290127 55:0.05648 56:0.110962 57:0.175794 58:0.241695 59:0.333666 60:0.256039 
0.8844648189066653 0.1156042567685989 1:0.0414699 2:-0.669748 3:-0.340783 4:0.15223 5:0.200621 6:-0.128246 7:-0.232965 8:-0.398184 9:-0.157404 10:-0.148074 11:0.083042 12:0.143062 13:-0.0591656 14:-0.272297 15:-0.164533 16:-0.201761 17:-0.239251 18:-0.429089 19:-0.073846 20:0.0845549 21:-0.414922 22:0.0949169 23:0.0245736 24:-0.0469133 25:-0.142122 26:-0.438199 27:-0.20746 28:-0.104652 29:-0.437801 30:0.0730039 31:0.0436463 32:-0.283448 33:-0.335417 34:-0.832322 35:-0.130147 36:-0.0564494 37:-0.0643298 38:-0.293057 39:-0.104896 40:-0.371487 41:-0.426514 42:-0.347897 43:-0.502368 44:-0.329866 45:-0.580077 46:-0.55678 47:-0.101889 48:-0.14325 49:-0.435003 50:-0.765391 51:-0.478714 52:-0.508362 53:-0.509526 54:-0.222921 55:-0.616596 56:-0.51939 57:-0.411028 58:-0.384268 59:-0.521241 60:-0.563251 
0.7517487065361055 0.3494419864307508 1:-0.25745 2:-0.322327 3:-0.415723 4:-0.488572 5:0.206653 6:-0.503217 7:-0.372404 8:-0.478799 9:0.108725 10:-0.0388759 11:0.299289 12:-0.136828 13:-0.240666 14:-0.213685 15:-0.114578 16:0.177557 17:0.101172 18:0.186587 19:0.168181 20:0.182171 21:-0.469765 22:0.0322491 23:-0.0999123 24:-0.172162 25:-0.0982705 26:0.0730082 27:-0.328735 28:0.0577772 29:-0.384148 30:-0.919955 31:-0.0646663 32:-0.0395415 33:0.0531865 34:-0.520419 35:-0.214306 36:0.00170907 37:0.284766 38:-0.173932 39:0.0665866 40:0.157853 41:-0.15992 42:-0.134674 43:0.0956533 44:0.323204 45:0.0448698 46:0.144108 47:0.185623 48:0.178075 49:0.0340088 50:0.0513694 51:0.203434 52:0.133497 53:0.0527164 54:0.0684744 55:0.0702078 56:0.214202 57:0.0588793 58:0.216029 59:0.180907 60:0.137876 
0.3902518719672589 0 1:-0.132417 2:-0.135915 3:0.184565 4:0.221572 5:-0.320349 6:-0.174335 7:0.0861253 8:-0.23081 9:-0.0379505 10:0.0461857 11:0.235444 12:-0.0842717 13:-0.00314938 14:-0.137883 15:-0.254144 16:-0.607659 17:-0.460237 18:-0.0834506 19:-0.293384 20:0.165079 21:0.114808 22:0.0164762 23:-0.536569 24:-0.0721741 25:-0.0783376 26:-0.671026 27:-0.477044 28:0.14064 29:0.102007 30:0.0775366 31:-0.160495 32:0.301179 33:-0.511497 34:-0.427935 35:0.0400812 36:-0.154768 37:-0.155095 38:-0.493898 39:-0.0201257 40:-0.145089 41:0.0644475 42:-0.0761457 43:-0.504071 44:0.054201 45:-0.073275 46:0.0711154 47:-0.106482 48:-0.0685619 49:0.0161554 50:-0.107438 51:0.138706 52:0.0964834 53:-0.0626572 54:-0.174818 55:0.026301 56:-0.15017 57:-0.087232 58:-0.110809 59:0.13718 60:-0.149685 
1.367436384453604 1.257683055159228 1:0.0905678 2:0.311885 3:0.804218 4:-0.172284 5:0.470854 6:0.239024 7:0.328908 8:-0.00147449 9:0.108803 10:0.151324 11:0.401136 12:0.327329 13:0.0376074 14:0.192209 15:-0.166827 16:0.181303 17:0.0243822 18:0.351262 19:0.382437 20:0.431506 21:0.368767 22:0.456578 23:-0.0898049 24:0.164747 25:0.525652 26:0.387772 27:0.286248 28:-0.348455 29:0.285776 30:0.49011 31:0.330795 32:0.333917 33:-0.0767699 34:0.226694 35:0.252958 36:-0.0256435 37:0.147166 38:-0.0909433 39:0.441719 40:0.314345 41:-0.245218 42:-0.2131 43:0.331048 44:0.228036 45:0.135202 46:0.113309 47:-0.22843 48:-0.112113 49:-0.0165288 50:-0.103602 51:0.0941084 52:-0.0593391 53:-0.14813 54:-0.047474 55:-1.99693e-05 56:-0.206961 57:-0.0660397 58:-0.322906 59:-0.053691 60:-0.133222 
0.1066571042657523 0 1:-0.291082 2:-0.235804 3:0.348468 4:0.12663 5:0.276466 6:-0.199252 7:-0.113123 8:-0.202233 9:-0.0233419 10:0.134044 11:-0.221464 12:0.456494 13:-0.102685 14:-0.52505 15:-0.509442 16:-0.38733 17:-0.00451445 18:0.168336 19:-0.0637731 20:0.097364 21:-0.444324 22:-0.35521 23:-0.0517063 24:-0.174005 25:-0.0867007 26:-0.0906821 27:-0.394529 28:-0.0269054 29:-0.0157961 30:-0.330401 31:-0.0235279 32:-0.0655539 33:-0.757497 34:-0.20273 35:-0.230516 36:-0.243601 37:0.265393 38:-0.227909 39:-0.0478263 40:0.0371863 41:-0.400051 42:-0.243832 43:-0.28689 44:-0.132194 45:-0.203352 46:0.0463647 47:0.0260644 48:-0.0909005 49:0.00170159 50:-0.187323 51:-0.0796978 52:-0.108539 53:-0.0125625 54:-0.0971039 55:-0.186992 56:0.0146514 57:-0.0995347 58:0.104006 59:-0.16042 60:-0.0956684 
0.6156828827212988 0.4497414339997305 1:-0.666668 2:-0.00375553 3:0.496967 4:-0.336146 5:0.237355 6:0.0831655 7:-0.138565 8:-0.378105 9:-0.0891383 10:0.447759 11:-0.0448705 12:0.457584 13:-0.445817 14:-0.544265 15:-0.217069 16:-0.266039 17:-0.02387 18:-0.143998 19:-0.04746 20:-0.0793174 21:-0.141894 22:-0.673685 23:-0.0917128 24:-0.0634619 25:0.158124 26:0.0133058 27:-0.364561 28:0.151221 29:-0.169657 30:-0.066778 31:0.054795 32:-0.396004 33:-0.175751 34:-0.306679 35:-0.699128 36:-0.63917 37:-0.304282 38:-0.485664 39:-1 40:-0.0603271 41:-0.403513 42:-0.335439 43:-0.374199 44:-0.213422 45:-0.6142 46:-0.44582 47:-0.367902 48:-0.282841 49:-0.169475 50:-0.73017 51:-0.498322 52:-0.329353 53:-0.571972 54:-0.546725 55:-0.55416 56:-0.293936 57:-0.444277 58:-0.202904 59:-0.383652 60:-0.433779 
0.2627954147956816 0.1480231751741123 1:-0.243786 2:0.299174 3:0.503249 4:0.167747 5:0.246295 6:-0.191166 7:-0.0885499 8:-0.7927 9:-0.085181 10:-0.0312225 11:-0.0172872 12:0.367677 13:-0.39496 14:0.0586453 15:-0.0839716 16:-0.00737162 17:-0.523167 18:-0.33577 19:-0.175834 20:-0.241224 21:-0.500648 22:-0.649164 23:-0.267325 24:-0.282983 25:0.0314048 26:0.0405777 27:-0.467837 28:-0.188545 29:-0.408454 30:-0.347257 31:0.0818764 32:-0.219962 33:-0.621938 34:-0.270552 35:-0.0364066 36:-0.531071 37:0.0894806 38:-0.333799 39:-0.345041 40:-0.191261 41:-0.593884 42:-0.521696 43:0.0671912 44:-0.418827 45:-0.585914 46:-0.0661379 47:-0.286565 48:-0.22092 49:-0.3218 50:-0.534882 51:-0.285746 52:-0.513578 53:-0.612204 54:-0.435346 55:-0.258764 56:-0.300729 57:-0.316868 58:-0.232383 59:-0.589582 60:-0.551883 
0.4363073659589682 0.3032130697397471 1:0.0484598 2:0.189121 3:0.254707 4:0.0288673 5:-0.529289 6:0.130688 7:-0.287005 8:-0.45551 9:-0.199967 10:-0.568496 11:0.0340348 12:-0.188496 13:0.27579 14:-0.256517 15:0.00667353 16:0.0538212 17:-0.0528553 18:-0.156903 19:0.133947 20:-0.501192 21:-0.132119 22:0.204789 23:0.185597 24:0.0523805 25:-0.282105 26:-0.0860417 27:-0.789329 28:0.13403 29:-0.408317 30:-0.282316 31:0.271055 32:0.131463 33:-0.108716 34:0.101892 35:0.13369 36:0.196197 37:0.10859 38:-0.110791 39:0.129757 40:0.189547 41:-0.114582 42:-0.204864 43:0.178401 44:0.313247 45:0.152031 46:0.200326 47:0.205231 48:0.233747 49:0.166364 50:0.21602 51:0.335134 52:0.307554 53:0.317939 54:0.316187 55:0.100771 56:0.243397 57:0.213789 58:0.296082 59:0.299124 60:0.267066 
0.942561059069255 0.4339910585344644 1:-0.0484839 2:0.371744 3:0.226745 4:0.0780383 5:0.516007 6:0.0246492 7:-0.0579015 8:-0.155325 9:0.191309 10:0.551461 11:-0.020298 12:-0.133365 13:-0.0410089 14:-0.220348 15:-0.243763 16:-0.185344 17:-0.363935 18:0.135908 19:-0.314158 20:0.0229746 21:0.069497 22:-0.0878164 23:-0.65211 24:-0.321938 25:0.17368 26:-0.0847229 27:-0.198735 28:-0.156495 29:-0.168683 30:-0.0277934 31:0.222738 32:0.0997741 33:-0.14073 34:-0.3652 35:0.297905 36:-0.570467 37:0.0500364 38:-0.6702 39:-0.132601 40:-0.495958 41:-0.0554591 42:-0.532084 43:-0.861278 44:-0.226942 45:-0.756596 46:-0.390956 47:-0.379887 48:-0.180095 49:-0.17347 50:-0.768823 51:-0.158686 52:-0.224292 53:-0.454171 54:-0.781238 55:-0.553101 56:-0.392443 57:-0.44954 58:-0.142869 59:-0.773694 60:-0.692206 
0.740796519879114 0.6839160632607328 1:-0.253859 2:-0.18019 3:-0.681138 4:-0.540462 5:-0.220451 6:-0.301572 7:-0.993466 8:-0.797881 9:0.0552185 10:-0.00843204 11:-0.565653 12:0.0286119 13:-0.0991355 14:-0.909023 15:-0.046604 16:-0.271578 17:-0.241427 18:-0.172091 19:-0.217039 20:0.157249 21:-0.338442 22:0.109271 23:-0.0512499 24:-0.135671 25:-0.450893 26:-0.0973821 27:-0.0673395 28:-0.220306 29:0.212595 30:0.126024 31:0.155252 32:-0.427036 33:-0.650608 34:-0.750014 35:0.236886 36:-0.421928 37:-0.379125 38:-0.458057 39:-0.0102193 40:-0.411073 41:-0.525452 42:-0.530237 43:-0.358755 44:0.000922698 45:-0.455422 46:-0.534672 47:-0.16131 48:-0.461209 49:-0.45938 50:-0.235065 51:-0.235853 52:-0.283326 53:-0.273853 54:-0.508462 55:-0.669229 56:-0.481306 57:-0.311606 58:-0.30985 59:-0.488977 60:-0.690027 
0.322952989563949 0.2432878487437785 1:-0.165342 2:0.00381378 3:0.051964 4:-0.440305 5:0.233376 6:-0.300179 7:-0.621633 8:-0.513749 9:-0.290627 10:-0.188938 11:-0.0117661 12:-0.245687 13:0.0163863 14:-0.179416 15:-0.146639 16:-0.235057 17:-0.442133 18:-0.699847 19:-0.113532 20:0.237469 21:-0.113124 22:-0.122337 23:-0.0913541 24:0.0351635 25:-0.0908407 26:-0.0614011 27:-0.430273 28:-0.160659 29:-0.273941 30:-0.536017 31:-0.106764 32:0.163166 33:-0.401018 34:0.0445766 35:0.139238 36:-0.802121 37:-0.205228 38:-0.626364 39:-0.188436 40:-0.291776 41:-0.411178 42:-0.813732 43:-0.691798 44:-0.434399 45:-0.474953 46:-0.716486 47:-0.161399 48:-0.255464 49:-0.262371 50:-0.921431 51:-0.302512 52:-0.102934 53:-0.484761 54:-0.435459 55:-0.664743 56:-0.446285 57:-0.647463 58:-0.421982 59:-0.234764 60:-0.293251 
1.073194565238275 0.2784258807312635 1:0.0140692 2:-0.111349 3:-0.233462 4:-0.0362093 5:0.220966 6:-0.273922 7:-0.0858014 8:-0.49102 9:-0.156006 10:-0.00350066 11:-0.0376249 12:0.12626 13:-0.29296 14:0.0760333 15:-0.0991051 16:-0.000203587 17:-0.0236404 18:0.0820711 19:-0.0388356 20:0.226276 21:-0.049192 22:0.181561 23:-0.0935405 24:-0.208163 25:-0.241568 26:0.0668599 27:-0.313687 28:-0.06434 29:-0.0948034 30:0.104795 31:-0.227827 32:0.117081 33:-0.38568 34:-0.353812 35:-0.272155 36:-0.436344 37:-0.430517 38:-0.41172 39:-0.183632 40:0.0836557 41:-0.200714 42:-0.523531 43:-0.897037 44:-0.339941 45:-1 46:-0.49926 47:-1 48:-0.650405 49:-0.399713 50:-0.482633 51:-0.281488 52:-0.3482 53:-0.388828 54:-0.312713 55:-0.603673 56:-0.515438 57:-0.423112 58:-0.537029 59:-0.0781385 60:-0.302661 
1.521021417602035 0.4240063131904265 1:-0.466075 2:-0.203085 3:0.0787906 4:0.0899598 5:0.337321 6:-0.0392565 7:-0.0486418 8:-0.0534169 9:0.386174 10:0.464232 11:0.14107 12:-0.260984 13:0.217638 14:0.113915 15:-0.916614 16:-0.0673656 17:-0.391772 18:0.0344961 19:0.125334 20:0.293023 21:0.096938 22:0.340667 23:0.0024185 24:-0.254693 25:-0.0125021 26:-0.21308 27:-0.136764 28:0.253926 29:0.304588 30:0.164314 31:-0.363627 32:-0.0853533 33:0.194371 34:0.31708 35:-0.209999 36:-0.195463 37:0.329267 38:-0.104071 39:-0.13669 40:0.15951 41:0.116849 42:0.0138625 43:-0.0564826 44:0.0252553 45:-0.18329 46:-0.0398132 47:0.205245 48:0.0239934 49:0.104019 50:-0.488855 51:0.262702 52:0.0627228 53:-0.0157976 54:0.0800607 55:0.117123 56:0.0671223 57:0.104943 58:0.234996 59:0.0725191 60:0.103978 
0.3309968102773401 0 1:-0.171895 2:-0.13546 3:-0.039165 4:0.0914874 5:-0.0443474 6:-0.0516239 7:-0.0900236 8:-0.45566 9:-0.282831 10:-0.102192 11:-0.161464 12:0.295784 13:-0.0437724 14:-0.120681 15:-0.307669 16:-0.137803 17:-0.452253 18:0.203816 19:-0.148912 20:0.0315916 21:0.0914726 22:0.024566 23:-0.102818 24:-0.0287338 25:-0.369657 26:-0.146022 27:-0.248212 28:0.175066 29:-0.724599 30:-0.287908 31:0.0131786 32:-0.159721 33:-0.352111 34:-0.0236529 35:-0.458772 36:-0.0893778 37:0.278309 38:-0.102087 39:-0.114249 40:-0.294467 41:-0.188387 42:-0.400436 43:-0.191283 44:-0.0108446 45:-0.0675774 46:-0.327495 47:-0.219817 48:-0.23625 49:-0.0854282 50:-0.22838 51:-0.0740397 52:-0.381929 53:-0.452115 54:-0.125879 55:-0.255623 56:-0.333234 57:-0.483387 58:-0.160795 59:-0.165169 60:-0.231056 
1.71682691934524 0.1937083411718601 1:-0.316085 2:-0.13525 3:0.293499 4:0.00995824 5:0.287883 6:-0.0815672 7:-0.151857 8:-0.351869 9:-0.332738 10:0.0851829 11:-0.347316 12:0.11347 13:-0.00852176 14:-0.0494167 15:-0.12675 16:0.139841 17:0.234292 18:-0.0621811 19:0.0971374 20:0.21745 21:-0.0807595 22:0.0318139 23:0.324456 24:0.156254 25:0.253682 26:0.245025 27:0.103439 28:0.304166 29:0.167269 30:-0.261325 31:-0.077354 32:-0.126187 33:-0.297047 34:-0.119459 35:-0.425093 36:0.169092 37:-0.762514 38:-0.157484 39:-0.0183289 40:0.0144006 41:-0.210358 42:-0.273942 43:-0.455087 44:-0.306438 45:-0.470221 46:-0.11583 47:-0.421981 48:-0.237427 49:-0.497169 50:-0.252077 51:-0.169664 52:-0.290504 53:-0.339163 54:-0.552126 55:-0.600794 56:-0.214769 57:-0.692487 58:-0.255427 59:-0.137438 60:-0.43013 
0.2577880910568896 0 1:-0.16798 2:0.0297014 3:0.205306 4:-0.0583303 5:-0.429098 6:-0.387984 7:0.13772 8:-0.36374 9:0.0750699 10:0.0723726 11:0.0244163 12:-0.665787 13:0.0947436 14:-0.208037 15:-0.654015 16:-0.172561 17:-0.266716 18:-0.0440498 19:0.0485744 20:-0.21261 21:-0.0779133 22:0.0497294 23:-0.368888 24:-0.10928 25:0.112549 26:0.012318 27:-0.213191 28:0.107767 29:0.263183 30:0.0169632 31:-0.0308262 32:0.0242879 33:-0.068724 34:-0.0833273 35:-0.329707 36:0.186222 37:-0.1114 38:-0.165808 39:0.316703 40:0.226771 41:-0.012045 42:-0.245239 43:-0.050261 44:0.187485 45:0.110047 46:0.184592 47:0.260496 48:0.17214 49:-0.0301346 50:0.121281 51:0.235782 52:0.117573 53:0.00190203 54:0.157227 55:-0.0652503 56:0.126026 57:0.0690315 58:0.184878 59:0.222744 60:0.17974 
0.107911103323304 0 1:-0.617249 2:-0.44899 3:0.431798 4:0.16126 5:-0.170641 6:-0.0422205 7:-0.313016 8:-0.644779 9:-0.0881792 10:-0.0568396 11:-0.043122 12:0.143524 13:0.173201 14:-0.577306 15:-0.318413 16:-0.365758 17:0.0660061 18:-0.195588 19:0.0320504 20:0.108707 21:0.0597332 22:-0.116696 23:-0.175233 24:-0.0446067 25:-0.00586571 26:-0.0253574 27:-0.0158719 28:0.130745 29:0.10182 30:-0.0425423 31:0.233191 32:0.417996 33:0.0297127 34:0.256299 35:0.11586 36:0.208034 37:0.374937 38:-0.0742922 39:0.195473 40:0.273095 41:0.210228 42:0.236038 43:0.346212 44:0.319577 45:0.282891 46:0.330809 47:0.297568 48:0.288732 49:0.347367 50:0.276415 51:0.391647 52:0.230389 53:0.294325 54:0.309538 55:0.214087 56:0.290439 57:0.269232 58:0.397554 59:0.429117 60:0.371903 
0.21070500633518 0 1:-0.0825014 2:0.0477351 3:0.597847 4:0.427532 5:-0.0112418 6:0.0364929 7:-0.48273 8:-0.431016 9:0.102909 10:0.282333 11:0.0291623 12:0.324986 13:0.245586 14:-0.0469557 15:-0.432879 16:0.164564 17:-0.28378 18:0.189403 19:0.0588079 20:0.267524 21:-0.359295 22:0.372596 23:-0.0761333 24:-0.0919703 25:0.0675047 26:0.207125 27:0.0713728 28:-0.305992 29:0.290784 30:-0.328846 31:-0.215553 32:0.120118 33:-0.690342 34:-0.292841 35:-0.374684 36:-0.478159 37:-0.180568 38:-0.0952081 39:-0.00581815 40:-0.494812 41:0.0815105 42:-0.215194 43:-0.126995 44:-0.0552379 45:-0.517203 46:-0.0574514 47:0.150684 48:-0.106177 49:0.0470956 50:-0.126985 51:0.0152467 52:-0.110919 53:-0.0843171 54:0.0112081 55:0.0144506 56:-0.092761 57:0.00333438 58:0.174566 59:0.175294 60:0.0356937 
0.3325988963050723 0 1:-0.464623 2:-0.0267233 3:0.526402 4:0.0300676 5:-0.156224 6:-0.11807 7:-0.0234795 8:-0.305197 9:0.113629 10:0.0504641 11:0.120399 12:-0.147603 13:0.0425833 14:-0.344298 15:-0.208533 16:-0.262645 17:-0.409244 18:-0.0694067 19:-0.342767 20:0.072531 21:-0.193288 22:0.014659 23:0.175824 24:-0.329409 25:-0.316304 26:-0.682334 27:-0.136674 28:0.212879 29:0.236943 30:-0.0130953 31:0.221004 32:-0.584318 33:-0.500254 34:-0.17801 35:-0.102566 36:-0.143753 37:-0.027874 38:-0.119333 39:0.0187725 40:-0.0209776 41:0.0474551 42:0.00944162 43:0.0661126 44:0.270823 45:-0.149571 46:0.14295 47:0.118133 48:0.0665946 49:-0.129721 50:-0.141854 51:0.302625 52:0.08691 53:-0.046226 54:0.11097 55:-0.109811 56:0.0399041 57:0.0576282 58:0.16006 59:0.204124 60:0.04134 
0.5756713131372433 0.03671761640574002 1:-0.110947 2:-0.0741559 3:0.00935818 4:0.134145 5:-0.107313 6:0.091856 7:-0.258414 8:-0.402507 9:-0.0333116 10:0.113788 11:0.259061 12:0.0486151 13:0.242566 14:0.129962 15:-0.1718 16:0.216633 17:-0.0608422 18:-0.57294 19:-0.102631 20:0.132928 21:0.12899 22:-0.107946 23:0.131282 24:-0.753702 25:0.223006 26:-0.331259 27:0.176615 28:0.256068 29:-0.119408 30:-0.243035 31:-0.0256131 32:-0.168244 33:-0.0044575 34:0.256891 35:0.253265 36:-0.349308 37:0.229041 38:0.0957328 39:-0.0962587 40:0.116027 41:0.233303 42:-0.172851 43:0.12535 44:0.18969 45:0.000414814 46:0.142172 47:-0.0275473 48:0.0165829 49:0.0273188 50:-0.212404 51:0.290543 52:0.193679 53:0.0377814 54:0.154723 55:-0.0475278 56:-0.0735459 57:0.0818527 58:0.147747 59:0.163761 60:0.111676 
1.029938516279296 0.23504749726356 1:0.0253504 2:-0.277027 3:-0.12068 4:-0.106752 5:-0.0224435 6:-0.173924 7:-0.134549 8:-0.203157 9:-0.0817853 10:0.190431 11:-0.0138966 12:0.201906 13:-0.0356115 14:-0.57993 15:-0.19643 16:-0.0842726 17:-0.323925 18:0.161663 19:0.119034 20:-0.338677 21:-0.0533529 22:-0.46098 23:0.276155 24:0.0411136 25:-0.024015 26:0.0723062 27:-0.299031 28:-0.0459565 29:0.041661 30:0.0376506 31:0.177266 32:0.0772524 33:0.0152747 34:0.0386413 35:-0.472432 36:-0.840168 37:-0.509904 38:-0.218078 39:-0.413021 40:-0.279812 41:0.0175478 42:-0.57571 43:-0.260799 44:-0.158096 45:-0.588025 46:-0.409607 47:-0.182645 48:-0.508877 49:-0.370533 50:-0.361756 51:-0.169817 52:-0.588406 53:-0.580184 54:-0.438791 55:-0.458802 56:-0.818836 57:-0.621473 58:-0.502345 59:-0.46335 60:-0.429446 
0.4317231652329088 0.5088899181641164 1:-0.208263 2:-0.138943 3:-0.0158517 4:0.0341922 5:-0.49342 6:-0.224079 7:-0.214572 8:-0.946825 9:-0.111321 10:-0.0769702 11:0.211224 12:0.38593 13:-0.221341 14:-0.452944 15:-0.696918 16:-0.582228 17:0.0713275 18:-0.350069 19:0.0240829 20:-0.0757194 21:-0.411262 22:0.28898 23:-0.124043 24:0.00733907 25:0.260045 26:0.0296143 27:-0.947959 28:-0.707685 29:0.109735 30:-0.400269 31:0.163358 32:-0.0608918 33:0.124073 34:0.217624 35:0.129636 36:0.32694 37:0.265233 38:-0.0451684 39:0.0241603 40:0.252258 41:-0.0702752 42:-0.024511 43:0.201965 44:0.0764108 45:0.0537812 46:0.0687428 47:-0.0631943 48:0.149023 49:0.239416 50:0.119868 51:0.121479 52:0.0887231 53:0.171941 54:0.126163 55:0.091297 56:0.13122 57:0.101027 58:0.241991 59:0.162218 60:0.27446 
0.4699215793588126 0.1710989007558141 1:-0.291381 2:-0.0477686 3:-0.226643 4:0.112654 5:-0.689873 6:-0.431351 7:-0.379222 8:-0.36198 9:-0.532345 10:-0.00646975 11:-0.192676 12:0.257708 13:-0.13324 14:-0.396227 15:-0.0931903 16:-0.0758991 17:-0.364262 18:-0.31228 19:-0.269771 20:-0.439735 21:-0.428431 22:-0.236049 23:0.222661 24:-0.186067 25:0.0805346 26:-0.0726679 27:-0.0945917 28:-0.284028 29:0.279362 30:-0.195926 31:-0.556642 32:-0.0688786 33:-0.0509992 34:-0.311882 35:-0.222524 36:-0.0736571 37:0.210808 38:-0.167699 39:0.175473 40:0.250836 41:0.133862 42:-0.140351 43:-0.0354839 44:0.194233 45:-0.4921 46:0.0663418 47:0.0323844 48:-0.113001 49:0.01668 50:-0.285457 51:0.164605 52:-0.0836331 53:-0.0616541 54:-0.0493838 55:-0.0440916 56:-0.10568 57:0.0519537 58:-0.00954043 59:0.126213 60:0.159814 
1.654311128036387 0.1357013068877332 1:-0.345508 2:-0.156393 3:-0.248914 4:0.134177 5:0.261245 6:-0.107218 7:-0.143716 8:-0.415976 9:0.000984221 10:-0.436264 11:0.101144 12:0.125681 13:0.0594765 14:-0.00473709 15:-0.224333 16:0.0364994 17:0.0713971 18:0.120746 19:0.0913861 20:0.203451 21:-0.251232 22:-0.0974143 23:0.150155 24:-0.074067 25:-0.229716 26:0.0324438 27:-0.360088 28:-0.0116843 29:0.169798 30:0.329236 31:0.13703 32:-0.700483 33:-0.41914 34:-0.00216911 35:0.124871 36:-0.217258 37:-0.478619 38:-0.32234 39:0.0310247 40:-0.209666 41:-0.00641033 42:-0.384704 43:-0.32404 44:-0.69262 45:-0.368716 46:-0.116767 47:-0.170572 48:-0.293889 49:-0.413029 50:-0.328345 51:0.0021793 52:-0.135161 53:-0.347192 54:-0.288001 55:-0.331073 56:-0.0898943 57:-0.109342 58:-0.143965 59:-0.175436 60:-0.10868 
0.5850878964458102 0.04858555008956484 1:-0.280517 2:-0.0937315 3:0.299537 4:-0.0240118 5:0.35447 6:0.0640749 7:-0.101428 8:-0.59274 9:-0.199757 10:0.281734 11:-0.388963 12:0.0568519 13:-0.247501 14:0.159238 15:0.207304 16:-0.25062 17:-0.0222599 18:-0.0904579 19:-0.314211 20:0.0133545 21:-0.261981 22:-0.150408 23:-0.239819 24:0.0741576 25:-0.343323 26:-0.0709487 27:-0.267523 28:0.244116 29:0.103681 30:-0.202577 31:-0.346658 32:-0.446355 33:-0.170463 34:-0.517902 35:-0.00789385 36:-0.634356 37:0.227103 38:-0.7044 39:-0.0877344 40:-0.173664 41:-0.303679 42:-0.160427 43:-0.346363 44:0.0544583 45:-0.304091 46:-0.174395 47:-0.105811 48:-0.241049 49:-0.0302753 50:-0.229301 51:-0.781759 52:-0.385556 53:-0.471399 54:-0.22057 55:-0.442299 56:-0.108516 57:-0.445469 58:-0.0795938 59:-0.125871 60:-0.31347 
0.575525158757092 0 1:-0.237019 2:-0.131453 3:0.230122 4:-0.135205 5:0.0456492 6:-0.101612 7:-0.688344 8:-0.375265 9:-0.0610102 10:-0.20028 11:-0.190636 12:-0.141509 13:0.0971446 14:-0.0212161 15:0.00164077 16:-0.0653932 17:-0.0940542 18:0.0405193 19:-0.134005 20:-0.179799 21:-0.426297 22:0.0666931 23:-0.123408 24:-0.232337 25:-0.213574 26:0.123676 27:-0.242735 28:-0.00159215 29:0.11186 30:-0.359901 31:-0.376852 32:0.238149 33:-0.158089 34:-0.0131891 35:-0.170762 36:-0.175565 37:0.0192308 38:-0.306418 39:-0.0185602 40:-0.150035 41:-0.662938 42:-0.345446 43:-0.132908 44:0.0590563 45:-0.533547 46:-0.526774 47:-0.210238 48:-0.0669608 49:-0.653432 50:-0.735149 51:-0.487677 52:-0.501096 53:-0.646263 54:-0.32399 55:-0.910471 56:-0.547865 57:-0.354096 58:-0.232249 59:-0.194573 60:-0.346937 
0.5196590334526801 0.4297720671110482 1:-0.00372636 2:-0.182936 3:0.0279434 4:-0.114245 5:-0.64942 6:-0.215189 7:-0.391541 8:-0.278446 9:0.11771 10:-0.24257 11:-0.457877 12:-0.174351 13:0.248464 14:-0.431529 15:-0.283265 16:-0.0650943 17:-0.238767 18:-0.485146 19:-0.56153 20:0.0413729 21:-0.437231 22:0.0170413 23:-0.0921448 24:-0.0157755 25:-0.191032 26:-0.0152392 27:-0.976001 28:-0.00069308 29:0.326771 30:-0.333728 31:-0.227564 32:-0.240468 33:-0.204063 34:0.106807 35:-0.919607 36:-0.449723 37:0.179008 38:-0.13332 39:-0.0809844 40:-0.351006 41:-0.734039 42:-0.0876237 43:-0.0224167 44:0.041921 45:-0.229216 46:0.0699772 47:0.0505789 48:0.1659 49:0.0569276 50:-0.108034 51:0.1528 52:0.145584 53:-0.144895 54:0.0444329 55:-0.186652 56:-0.0969084 57:0.11173 58:-0.0237465 59:-0.0817096 60:-0.0810658 
0.1857246138243345 0.213825043773963 1:-0.174222 2:-0.176125 3:0.489392 4:-0.153917 5:-0.0854697 6:-0.244318 7:-0.0965859 8:-0.649195 9:-0.312849 10:-0.128513 11:-0.2048 12:0.353078 13:-0.390845 14:-0.588231 15:-0.665848 16:-0.231519 17:-0.591288 18:-0.45142 19:-0.189465 20:-0.174303 21:-0.147776 22:0.0619974 23:0.289193 24:-0.816728 25:-0.0345398 26:-0.228176 27:-0.293216 28:-0.280459 29:-0.094347 30:0.0634593 31:-0.110927 32:0.0514094 33:-0.18104 34:-0.107199 35:0.0599387 36:-0.158626 37:0.0381746 38:-0.671121 39:-0.465402 40:-0.149219 41:0.0270564 42:-0.744258 43:-0.1986 44:-0.294955 45:-0.32421 46:-0.171595 47:-0.218306 48:-0.736374 49:-0.31837 50:-0.522815 51:-0.449096 52:-0.292984 53:-0.411073 54:-0.329898 55:-0.402717 56:-0.369945 57:-0.349493 58:-0.409138 59:0.0983326 60:-0.372386 
0.7805835212393001 0.07726009745899913 1:-0.0488212 2:-0.534108 3:0.167751 4:-0.103276 5:-0.413641 6:-0.077151 7:-0.361743 8:-0.149321 9:0.0550959 10:0.23451 11:0.103833 12:-0.212686 13:0.295145 14:-0.120403 15:-0.229161 16:-0.366193 17:-0.0868857 18:-0.454321 19:0.0359667 20:-0.151892 21:0.0225481 22:0.0347794 23:-0.101349 24:-0.566076 25:0.148055 26:0.0585227 27:-0.60765 28:0.152215 29:-0.209714 30:-0.0984383 31:-0.164772 32:-0.123803 33:-0.218917 34:0.0346407 35:0.0302552 36:-0.001596 37:-0.0891753 38:-0.43095 39:-0.121394 40:0.0359378 41:-0.460559 42:-0.560736 43:-0.0585577 44:-0.243361 45:-0.34589 46:-0.242211 47:-0.00525102 48:-0.232262 49:-0.424165 50:-0.955647 51:-0.0923242 52:-0.197768 53:-0.289151 54:-0.547648 55:-0.577414 56:-0.466091 57:-0.19476 58:-0.115825 59:-0.550062 60:-0.21242 
0.6503548830646257 0.06986009106510302 1:-0.441404 2:-0.118596 3:0.267035 4:-0.442553 5:-0.468808 6:-0.564307 7:-0.133261 8:-0.344723 9:-0.108037 10:-0.0347463 11:0.146679 12:0.221497 13:0.135768 14:-0.141587 15:-0.500288 16:-0.509218 17:-0.0702256 18:0.192314 19:-0.0363903 20:-0.150356 21:0.149476 22:0.273137 23:-0.111703 24:-0.117023 25:-0.286564 26:-0.133035 27:-0.632605 28:0.222241 29:-0.200964 30:0.0910249 31:-0.0655429 32:0.0675668 33:-0.246552 34:0.160044 35:0.226812 36:-0.277366 37:-0.244554 38:0.0205669 39:-0.116804 40:-0.296107 41:0.0189105 42:-0.437848 43:-0.0471597 44:-0.191323 45:-0.0698736 46:-0.382584 47:-0.225581 48:-0.0925137 49:-0.217037 50:-0.0561975 51:0.095804 52:-0.0209735 53:-0.0998679 54:-0.0148416 55:-0.174214 56:-0.305027 57:-0.062434 58:0.027479 59:0.01236 60:0.0404605 
0.8353149592778298 0.4654585159862147 1:-0.452062 2:-0.484685 3:0.276553 4:-0.458522 5:-0.34556 6:-0.154973 7:-0.353032 8:-0.452868 9:-0.232104 10:0.00894708 11:-0.0984815 12:0.23202 13:0.00672697 14:-0.173778 15:-0.188855 16:-0.127005 17:-0.0687976 18:-0.032867 19:-0.824777 20:-0.13076 21:0.244732 22:-0.0842039 23:-0.280791 24:-0.0455423 25:0.0530157 26:-0.0682077 27:-0.421912 28:-0.677983 29:0.0735983 30:-0.24295 31:-0.0788412 32:-0.295477 33:-0.316821 34:0.143531 35:-0.0841137 36:-0.134446 37:0.0840879 38:-0.674759 39:0.0819626 40:-0.186084 41:-0.227282 42:-0.0871088 43:-0.529528 44:-0.0765821 45:-0.4031 46:-0.40737 47:-0.40989 48:-0.489166 49:-0.594381 50:-0.317431 51:-0.309952 52:-0.30493 53:-0.317207 54:-0.313826 55:-0.496129 56:-0.282156 57:-0.787495 58:-0.557353 59:-0.758282 60:-0.748754 
0.2780222633566865 0.04263926937698355 1:0.00649865 2:0.073362 3:0.411874 4:-0.293186 5:0.337467 6:-0.227855 7:-0.351958 8:-0.228651 9:0.0566946 10:-0.159751 11:-0.221465 12:0.0137279 13:-0.244918 14:-0.431337 15:-0.234037 16:0.0497678 17:0.0204527 18:-0.219224 19:-0.127301 20:0.0406505 21:-0.772336 22:-0.202504 23:-0.313689 24:0.0593513 25:-0.642991 26:-0.158784 27:-0.303322 28:-0.0379743 29:0.193185 30:-0.314172 31:0.0503971 32:0.0215536 33:0.0520493 34:-0.0522209 35:0.017616 36:-0.0941458 37:-0.389871 38:-0.020269 39:-0.0146842 40:-0.365133 41:-0.364228 42:-0.458172 43:-0.354064 44:-0.38391 45:-0.721704 46:-0.283788 47:-0.805093 48:-0.261436 49:-0.413033 50:-0.514695 51:-0.219479 52:-0.349338 53:-0.421379 54:-0.294203 55:-0.537588 56:-0.519268 57:-0.314533 58:-0.282374 59:-0.453119 60:-0.442595 
0.3531566681572266 0 1:-0.411017 2:-0.238283 3:0.204311 4:-0.0012889 5:0.230655 6:0.0179101 7:-0.148755 8:-0.576359 9:-0.066251 10:0.0520765 11:-0.128921 12:0.118456 13:0.121367 14:-0.564513 15:-0.541154 16:-0.427075 17:-0.102172 18:0.0169539 19:0.0130495 20:-0.00370158 21:-0.22262 22:0.315011 23:0.012366 24:-0.162943 25:0.197243 26:-0.514242 27:-0.0611334 28:-0.136061 29:-0.0691652 30:0.131137 31:-0.267306 32:-0.0694133 33:-0.467615 34:-0.0340707 35:0.0314494 36:-0.0519203 37:-0.351183 38:0.0250407 39:-0.503735 40:-0.394888 41:-0.438633 42:-0.0506539 43:-0.176284 44:0.114458 45:-0.39041 46:-0.0664048 47:-0.117104 48:-0.380235 49:-0.342785 50:-0.539489 51:-0.0955701 52:-0.154078 53:-0.414921 54:-0.160694 55:-0.497117 56:-0.310097 57:-0.153427 58:-0.124059 59:-0.402361 60:-0.200397 
0.04385886069071053 0 1:-0.496762 2:0.221259 3:0.154063 4:0.181365 5:0.0513412 6:-0.373619 7:-0.172298 8:-0.618122 9:-0.459835 10:-0.00176695 11:0.0948186 12:-0.0272588 13:-0.21395 14:-0.294233 15:-0.294879 16:-0.563351 17:-0.317489 18:-0.0101407 19:-0.433199 20:-0.102887 21:-0.158518 22:-0.0449849 23:0.0505175 24:-0.0711698 25:-0.0359019 26:-0.188118 27:-0.0458763 28:-0.206078 29:-0.0476037 30:-0.282359 31:-0.112578 32:-0.142729 33:-0.357387 34:0.0104284 35:-0.761876 36:-0.0389573 37:-0.0279833 38:-0.22127 39:-0.656604 40:-0.353419 41:-0.316014 42:-0.595993 43:-0.12285 44:-0.194347 45:-0.413312 46:-0.190082 47:-0.409319 48:-0.399628 49:-0.397365 50:-0.417808 51:-0.40007 52:-0.438836 53:-0.414236 54:-0.368872 55:-0.747062 56:-0.341758 57:-0.533659 58:-0.232126 59:-0.257965 60:-0.463235 
1.050023195735556 0.3898107235660453 1:-0.309096 2:0.147992 3:-0.310451 4:-0.156241 5:-0.0270914 6:-0.141928 7:-0.0664546 8:-0.286843 9:-0.269263 10:0.0395666 11:0.13021 12:-0.7584 13:-0.0892047 14:-0.0661019 15:-0.262938 16:-0.150193 17:-0.280339 18:-0.262425 19:-0.375971 20:-0.0712371 21:-0.673529 22:-0.0493996 23:-0.149702 24:0.175671 25:0.209397 26:0.0592766 27:-0.702155 28:-0.157036 29:0.0931179 30:-0.15461 31:0.169269 32:0.131921 33:-0.378675 34:-0.132671 35:0.159552 36:-0.000735768 37:0.0839546 38:-0.195789 39:-0.205837 40:-0.155017 41:-0.553908 42:-0.298024 43:-0.182913 44:-0.490113 45:-0.110882 46:-0.180462 47:-0.277384 48:-0.629201 49:-0.435836 50:-0.366997 51:-0.292617 52:-0.248369 53:-0.624396 54:-0.576106 55:-0.659645 56:-0.595081 57:-0.89419 58:-0.487526 59:-0.411545 60:-0.193261 
1.530889329443246 0 1:-0.0630187 2:-0.239689 3:-0.50641 4:0.0448369 5:0.176384 6:-0.107704 7:0.0125445 8:-0.135883 9:0.066891 10:0.248831 11:0.0474354 12:0.0612211 13:-0.0666272 14:-0.105065 15:-0.0796067 16:-0.0341635 17:-0.337567 18:-0.176747 19:-0.270751 20:0.0887018 21:-0.263448 22:0.0890768 23:-0.308501 24:0.091741 25:-0.432746 26:0.100231 27:-0.353529 28:0.155761 29:0.156062 30:-0.0870775 31:-0.57839 32:-0.588364 33:-0.222476 34:0.21167 35:0.118201 36:0.0412804 37:0.152548 38:-0.397925 39:-0.106477 40:-0.47279 41:-0.109361 42:-0.373639 43:-0.285187 44:-0.00190643 45:-0.47368 46:-0.105282 47:-0.0796076 48:0.0445868 49:0.0353635 50:-0.32595 51:0.0117217 52:-0.0863855 53:-0.208548 54:-0.122272 55:-0.166055 56:-0.12036 57:-0.122478 58:0.0357556 59:0.0189807 60:0.0260408 
0.2254991864975886 0.3474826182140372 1:-0.103877 2:-0.224081 3:0.0477045 4:0.105194 5:0.166254 6:-0.488875 7:-0.761519 8:-0.49564 9:-0.0687572 10:-0.000699354 11:0.031829 12:-0.188765 13:-0.055772 14:-0.301355 15:-0.186776 16:-0.227653 17:-0.758368 18:-0.188915 19:-0.0571108 20:0.155379 21:-0.32748 22:-0.24425 23:-0.165123 24:-0.0857674 25:-0.115808 26:-0.196296 27:-0.814634 28:-1 29:-0.701846 30:-0.228498 31:-0.436394 32:-0.479889 33:-0.664997 34:-0.245979 35:0.0694928 36:-0.437452 37:-0.27537 38:-0.637303 39:-0.230933 40:-0.217798 41:-0.421831 42:-0.377621 43:-0.542492 44:-0.26344 45:-0.782172 46:-0.253489 47:-0.27871 48:-0.229148 49:-0.137221 50:-0.372028 51:-0.304067 52:-0.251225 53:-0.481242 54:-0.327992 55:-0.428135 56:-0.379403 57:-0.474364 58:-0.512112 59:-0.100854 60:-0.155562 
0.5027137056861515 0.2350983534310273 1:0.0530705 2:-0.142192 3:-0.00666995 4:0.221361 5:0.173417 6:0.122505 7:-0.215586 8:-0.473949 9:-0.385998 10:-0.271851 11:0.219063 12:-0.232417 13:-1 14:0.113536 15:-0.171571 16:-0.0571359 17:-0.53731 18:-0.332817 19:0.262939 20:0.113546 21:-0.59317 22:-0.0832676 23:-0.192246 24:-0.253462 25:-0.341066 26:0.138285 27:-0.184007 28:-0.226387 29:-0.58398 30:-0.090062 31:0.0520789 32:0.00817965 33:-0.307101 34:-0.0329232 35:0.11097 36:-0.285961 37:-0.0297166 38:-0.302537 39:-0.265585 40:-0.104941 41:-0.390381 42:-0.154216 43:-0.378032 44:-0.28648 45:-0.250621 46:-0.18798 47:-0.136461 48:-0.255309 49:-0.135294 50:-0.351261 51:-0.136029 52:-0.712605 53:-0.311353 54:-0.34983 55:-0.111563 56:-0.545897 57:-0.127717 58:-0.0745116 59:-0.0784264 60:-0.469289 
0.4585608033445935 0.3602529112693222 1:-0.0184081 2:-0.464193 3:-0.0313667 4:0.296285 5:0.12335 6:-0.367606 7:-0.176746 8:-0.507452 9:0.0777779 10:-0.0852438 11:-0.174447 12:-0.580483 13:-0.0822055 14:-1 15:-0.583041 16:-0.305988 17:-0.952825 18:-0.265645 19:-0.223207 20:0.205737 21:-0.0299436 22:-0.250584 23:-0.0948838 24:-0.140695 25:0.176431 26:-0.0709256 27:0.002219 28:-0.120224 29:0.0457769 30:-0.278361 31:-0.0749424 32:-0.144966 33:-0.32155 34:-0.834569 35:-0.0280621 36:-0.400948 37:-0.0997464 38:-0.507885 39:-0.174829 40:-0.1272 41:-0.156547 42:-0.23805 43:-0.392136 44:-0.112801 45:-0.289397 46:-0.793857 47:-0.205135 48:-0.198416 49:-0.136947 50:-0.483475 51:-0.341217 52:-0.259675 53:-0.437664 54:-0.521656 55:-0.394978 56:-0.398712 57:-0.396007 58:-0.302031 59:-0.481449 60:-0.616747 
1.825637938536027 0.3722343215589889 1:-0.131739 2:0.136838 3:-0.00357512 4:-0.0747743 5:-0.00687071 6:0.000938069 7:0.00146521 8:-0.117302 9:0.11554 10:0.307195 11:0.186578 12:-0.195735 13:-0.347891 14:-0.29553 15:-0.14072 16:0.434739 17:-0.0139581 18:-0.15292 19:0.0686573 20:0.475907 21:0.160462 22:0.397645 23:0.348808 24:0.227253 25:0.0750216 26:-0.171761 27:-0.260855 28:0.0434461 29:0.0282871 30:-0.177725 31:0.125911 32:0.239995 33:0.264682 34:-0.0965151 35:-0.175774 36:0.194615 37:-0.489547 38:-0.449433 39:-0.16571 40:0.322431 41:-0.0313249 42:-0.37776 43:-0.152406 44:0.0184398 45:-0.178653 46:-0.174441 47:0.0438174 48:0.186605 49:0.0854361 50:-0.0682256 51:0.0207066 52:-0.0829823 53:-0.00718309 54:0.0676117 55:-0.087313 56:-0.0506911 57:-0.171516 58:-0.0990935 59:-0.157497 60:-0.0846225 
0.0477793806234956 0.1121148609477774 1:-0.0942959 2:-0.026601 3:0.577768 4:-0.225093 5:0.113806 6:-0.416863 7:-0.378365 8:-0.34123 9:-0.316116 10:0.282911 11:-0.27664 12:0.0835245 13:0.0319187 14:0.233185 15:-0.481518 16:-0.731948 17:-0.463297 18:-0.319222 19:-0.342773 20:0.258163 21:-0.250685 22:0.178561 23:0.221496 24:-0.493587 25:-0.299219 26:-0.274477 27:0.173647 28:0.159516 29:-0.536688 30:0.315039 31:-0.0578663 32:0.12201 33:0.0182012 34:0.0888482 35:-0.00889916 36:0.144906 37:-0.0988627 38:-0.206216 39:-0.102364 40:0.0405003 41:-0.587147 42:-0.0839303 43:-0.0394262 44:-0.0820433 45:-0.0796765 46:0.164453 47:0.0669843 48:0.0910866 49:-0.127079 50:-0.0681566 51:0.176769 52:-0.0741291 53:-0.130834 54:0.124673 55:0.0224723 56:-0.108938 57:-0.222292 58:0.0423327 59:-0.0116064 60:-0.0481387 
2 0 1:-0.291949 2:-0.0303387 3:-0.0989848 4:0.0108294 5:-0.114362 6:0.0392532 7:-0.0940393 8:-0.242344 9:0.0197457 10:0.130779 11:0.0928756 12:0.390324 13:0.243477 14:0.172829 15:-0.0680159 16:-0.123795 17:-0.267199 18:-0.105796 19:-0.23044 20:0.393105 21:0.0279278 22:-0.106007 23:-0.179936 24:-0.203346 25:-0.058355 26:0.273853 27:-0.0387056 28:-0.0155808 29:-0.0933073 30:0.237725 31:-0.467093 32:0.16429 33:-0.125346 34:0.159694 35:-0.112535 36:-0.309376 37:0.174004 38:-0.452844 39:0.0376933 40:-0.141038 41:-0.0031257 42:-0.327489 43:-0.195047 44:-0.24617 45:-0.157523 46:-0.127415 47:-0.279288 48:-0.103782 49:0.0776255 50:-0.408448 51:-0.209873 52:-0.156937 53:-0.296805 54:-0.171386 55:-0.155095 56:-0.0947585 57:-0.0986823 58:-0.118344 59:-0.359589 60:-0.18027 
0.3642954752494807 0.269221014804731 1:-0.304538 2:-0.125127 3:-0.323809 4:0.316364 5:0.191356 6:-0.161227 7:-0.213165 8:-0.401875 9:-0.371097 10:-0.0281183 11:0.17058 12:-0.205048 13:-0.478088 14:-0.273348 15:-0.680841 16:-0.00750219 17:-0.0397794 18:-0.135582 19:0.0524886 20:0.404298 21:-0.124869 22:-0.662085 23:-0.27138 24:-0.654529 25:0.032484 26:-0.444535 27:-0.232304 28:-0.510099 29:-0.0513615 30:0.223129 31:0.0127616 32:0.0670645 33:0.168366 34:0.498782 35:0.0518209 36:-0.148325 37:-0.109314 38:-0.154969 39:0.153515 40:0.0592952 41:-0.0887512 42:-0.0994768 43:-0.236516 44:0.0595945 45:-0.0214518 46:0.106178 47:-0.0312333 48:0.0552657 49:0.0146438 50:-0.0153757 51:-0.0468939 52:0.101588 53:-0.126818 54:0.141609 55:-0.0146886 56:-0.0611816 57:0.123761 58:0.0960525 59:0.00856405 60:0.10184 
0.4492895730057168 0 1:-0.0112073 2:-0.113441 3:0.338839 4:-0.12261 5:0.0206372 6:0.0907627 7:-0.366819 8:-0.0952531 9:-0.0815396 10:0.122324 11:-0.210111 12:-0.33708 13:0.00856292 14:-0.201536 15:-0.212008 16:0.121686 17:0.0924696 18:-0.330868 19:-0.15706 20:0.104088 21:-0.110576 22:-0.047701 23:-0.11319 24:-0.396108 25:-0.387606 26:0.14847 27:0.0444722 28:0.245069 29:0.0686321 30:-0.173362 31:0.0770869 32:0.199997 33:-0.0274684 34:0.0115741 35:-0.392322 36:0.0196761 37:0.160731 38:-0.174081 39:0.158862 40:0.261082 41:0.186184 42:0.249642 43:0.104375 44:0.176192 45:0.293813 46:0.280551 47:0.157723 48:0.120327 49:0.117996 50:0.0967856 51:0.285292 52:0.209116 53:0.203949 54:0.202175 55:0.113088 56:0.228722 57:0.228842 58:0.287858 59:0.369118 60:0.241302 
0.7642261025400956 0 1:-0.208771 2:-0.328524 3:-0.372252 4:-0.36861 5:-0.0363748 6:-0.248898 7:-0.621507 8:-0.24227 9:-0.0214565 10:0.231151 11:0.0239816 12:0.401081 13:-0.461135 14:-0.0985252 15:-0.107388 16:0.0156779 17:-0.512871 18:0.0812003 19:0.0889564 20:-0.0222042 21:-0.402736 22:-0.442362 23:0.216163 24:-0.50312 25:-0.0270755 26:-0.410569 27:-0.292181 28:-0.00206146 29:-0.0539483 30:0.055399 31:0.104706 32:-0.0916498 33:0.131652 34:0.292767 35:0.100115 36:-0.100788 37:0.0808056 38:-0.0857098 39:0.314194 40:0.0839757 41:0.0256584 42:-0.0335681 43:0.158326 44:0.122057 45:0.0334509 46:0.173079 47:0.0931482 48:0.193987 49:0.158037 50:0.045664 51:0.229733 52:0.136975 53:0.146768 54:0.208377 55:0.102003 56:0.143814 57:0.177561 58:0.182075 59:0.0747459 60:0.109487 
1.372555111027897 0.5200533045773847 1:0.136852 2:-0.0964609 3:0.575749 4:0.198785 5:0.126076 6:0.405082 7:-0.297712 8:-0.286712 9:0.289067 10:0.331861 11:0.516185 12:0.148223 13:0.193366 14:0.272012 15:-0.508411 16:0.209679 17:-0.221835 18:0.226695 19:0.15583 20:0.436663 21:-0.224756 22:0.387319 23:0.226877 24:0.352974 25:0.0964382 26:0.325582 27:-0.0207086 28:0.26788 29:0.33986 30:-0.123663 31:-0.194657 32:0.165438 33:-0.0798126 34:-0.204608 35:0.0693199 36:-0.473491 37:0.0799893 38:-0.125879 39:-0.163254 40:-0.413388 41:-0.150873 42:-0.52481 43:-0.197352 44:-0.208394 45:-0.251512 46:-0.361414 47:-0.389672 48:-0.187165 49:0.125623 50:-0.356425 51:0.0961865 52:-0.319601 53:-0.108132 54:0.00779846 55:-0.465677 56:-0.358475 57:-0.138073 58:-0.1228 59:0.0550647 60:-0.172477 
0.4193205871788236 0 1:-0.0711377 2:0.0716495 3:0.00317663 4:-0.363533 5:0.113855 6:-0.0991156 7:-0.927042 8:-0.342971 9:-0.320814 10:0.25402 11:0.0722064 12:0.0955809 13:-0.324644 14:-0.479379 15:-0.390904 16:-0.149633 17:-0.18752 18:-0.29759 19:-0.0655546 20:0.050997 21:-0.673927 22:0.316003 23:-0.0333625 24:0.281962 25:0.079041 26:-0.00127033 27:0.0663729 28:-0.175182 29:-0.0128039 30:-0.242096 31:0.316895 32:0.25199 33:-0.325553 34:-0.134889 35:-0.0406369 36:-0.723739 37:0.185788 38:-0.252742 39:0.0599957 40:0.0295667 41:-0.536391 42:-0.392333 43:-0.189049 44:-0.155069 45:-0.201329 46:-0.257412 47:-0.126432 48:-0.437383 49:-0.414169 50:-0.258681 51:-0.209416 52:-0.223939 53:-0.276107 54:-0.390515 55:-0.513162 56:-0.284528 57:-0.377667 58:-0.125078 59:-0.205241 60:-0.0679474 
1.424960404983262 0 1:-0.362403 2:-0.212229 3:0.0323631 4:-0.410922 5:-0.103732 6:-0.364096 7:-0.0784853 8:-0.549419 9:-0.0216466 10:0.0587999 11:-0.377313 12:-0.223118 13:0.187993 14:0.0249894 15:-0.297055 16:0.0593003 17:-0.382017 18:-0.244544 19:0.0848021 20:0.102732 21:-0.0594851 22:0.244761 23:-0.0907381 24:-0.01221 25:-0.0963168 26:0.267215 27:-0.117342 28:0.112024 29:0.147049 30:-0.292961 31:0.197032 32:0.0775513 33:-0.333268 34:-0.263417 35:0.234528 36:-0.061443 37:0.0401781 38:-0.0433965 39:0.0762965 40:0.106889 41:0.00362806 42:0.0135873 43:-0.0709443 44:-0.164674 45:-0.258793 46:-0.0832703 47:0.0358081 48:-0.0803674 49:-0.152587 50:-0.274764 51:0.00273066 52:0.0567673 53:-0.108698 54:0.041419 55:-0.0459305 56:-0.0223379 57:-0.0992463 58:0.00234752 59:0.0696962 60:-0.0232028 
0.2591710510462177 0.07018689209216575 1:-0.232418 2:0.0983612 3:0.00607442 4:0.132965 5:0.150273 6:0.108864 7:-0.385977 8:-0.59645 9:0.186427 10:0.0273578 11:0.129388 12:0.421168 13:0.00871297 14:0.12612 15:-0.285878 16:0.0241047 17:-0.00232951 18:0.190568 19:-0.571516 20:-0.0022538 21:0.0476543 22:-0.0527608 23:0.0489126 24:-0.476809 25:-0.0199267 26:-0.475132 27:-0.403455 28:0.174712 29:-0.0397604 30:-0.590229 31:0.2123 32:-0.578531 33:-0.0440294 34:-0.229246 35:-0.269736 36:0.0385262 37:-0.325455 38:-0.328999 39:-0.200974 40:-0.047972 41:0.0105602 42:-0.172867 43:0.0174546 44:0.0328898 45:0.000263229 46:0.170965 47:0.0836682 48:0.176262 49:0.314317 50:0.0676259 51:0.253183 52:-0.08647 53:0.105004 54:0.102765 55:0.1031 56:0.18319 57:0.00630898 58:0.249795 59:0.199302 60:0.134548 
1.206429091751102 1.063234919346497 1:0.250355 2:0.428715 3:0.739316 4:0.75807 5:-0.211294 6:-0.0669768 7:0.491946 8:0.0969181 9:0.206278 10:0.368734 11:0.323058 12:0.428414 13:0.648478 14:0.210393 15:0.186611 16:0.388445 17:-0.180483 18:0.226411 19:-0.665479 20:-0.0265998 21:-0.0299675 22:0.281427 23:0.256122 24:0.255509 25:0.60211 26:0.124657 27:0.357196 28:0.261916 29:0.590917 30:0.437176 31:0.297494 32:0.292749 33:0.0644137 34:-0.261383 35:0.304831 36:0.0206234 37:0.164233 38:-0.0769689 39:0.199144 40:0.0573496 41:0.0686412 42:-0.0644531 43:0.167081 44:0.110144 45:-0.263853 46:-0.160218 47:0.0309502 48:-0.31193 49:-0.515999 50:-0.0588112 51:0.126132 52:0.0650298 53:-0.267065 54:-0.147253 55:-0.329612 56:-0.0442004 57:-0.0467102 58:-0.0447946 59:0.0254903 60:0.116996 
0.6328401702718326 0.3032396751189853 1:-0.301706 2:-0.985958 3:0.0251764 4:-0.168475 5:0.144245 6:-0.575191 7:-0.378282 8:-0.878115 9:-0.0906107 10:0.0842118 11:0.0106413 12:0.163853 13:-0.631244 14:-0.228816 15:-0.300506 16:0.0635869 17:-0.279991 18:-0.00711023 19:-0.525455 20:0.112186 21:0.0134827 22:-0.0366722 23:-0.183251 24:-0.100854 25:-0.0910592 26:-0.0772018 27:-0.624107 28:0.221222 29:0.560556 30:0.292273 31:0.206291 32:0.153662 33:-0.304362 34:-0.463084 35:-0.300597 36:0.0125386 37:-0.46786 38:-0.602781 39:-0.251969 40:-0.222265 41:-0.155909 42:-0.230162 43:-0.244101 44:-0.296326 45:-0.341428 46:-0.18764 47:-0.127927 48:-0.296808 49:0.00637674 50:-0.428489 51:-0.222602 52:-0.4336 53:-0.320539 54:-0.228228 55:-0.374853 56:-0.178535 57:-0.184412 58:-0.305644 59:-0.231912 60:-0.0904621 
0.8505744227398445 0.3037049713437843 1:-0.0987552 2:-0.010207 3:0.0406253 4:0.243389 5:0.323165 6:-0.0887041 7:-0.290261 8:-0.748104 9:-0.0930866 10:0.364302 11:-0.068788 12:-0.284668 13:-0.398935 14:0.055523 15:-0.12458 16:0.0980276 17:-0.23111 18:-0.49864 19:0.0476963 20:-0.0202241 21:0.0208668 22:-0.243536 23:-0.364987 24:-0.224778 25:0.106754 26:0.252491 27:0.012696 28:0.0183844 29:-0.171725 30:-0.674459 31:0.0761667 32:0.317797 33:0.0312173 34:0.178861 35:-0.404729 36:-0.207736 37:0.0674279 38:-0.433672 39:-0.0893624 40:-0.229478 41:0.180268 42:-0.726145 43:-0.464215 44:-0.0726055 45:-0.652968 46:-0.160088 47:-0.117919 48:-0.27968 49:-0.288885 50:-0.764915 51:-0.430354 52:-0.469118 53:-0.557783 54:-0.365644 55:-0.551699 56:-0.496661 57:-0.765276 58:-0.51815 59:-0.549019 60:-0.432196 
1.808486596499214 0.2310273578407634 1:-0.0264672 2:-0.29359 3:0.307758 4:0.0471759 5:0.370875 6:0.070958 7:0.223793 8:-0.190275 9:0.216722 10:0.119557 11:-0.367973 12:-0.0101462 13:0.219111 14:-0.0735165 15:0.355276 16:0.308457 17:-0.128539 18:0.312644 19:-0.222158 20:0.14565 21:-0.228493 22:-0.169886 23:0.0607672 24:-0.129476 25:-0.192889 26:0.0616093 27:0.0770806 28:-0.112045 29:-0.121744 30:-0.573711 31:0.459223 32:-0.0900814 33:0.00439666 34:0.0708572 35:-0.0348671 36:-0.546244 37:0.178797 38:-0.307255 39:-0.0451547 40:-0.10561 41:-0.337337 42:-0.542288 43:-0.219228 44:0.199064 45:-0.450609 46:-0.39785 47:-0.27977 48:-0.0369805 49:-0.420535 50:-0.218377 51:0.163378 52:-0.109649 53:-0.282564 54:-0.176748 55:-0.271884 56:-0.251747 57:-0.309136 58:-0.287536 59:-0.172091 60:-0.143514 
0.771391010958811 0.4807894123243424 1:-0.190415 2:0.0852658 3:-0.66092 4:0.10825 5:0.338169 6:-0.698511 7:-0.298388 8:-0.277222 9:0.152506 10:0.275737 11:0.0686457 12:0.22926 13:0.0186049 14:-0.155751 15:-0.140749 16:0.146435 17:-0.242575 18:-0.345086 19:-0.696148 20:-0.500458 21:-0.280897 22:0.154927 23:-0.421478 24:-0.161969 25:-1 26:-0.5717 27:-0.442363 28:-0.460466 29:-0.269791 30:-0.383331 31:0.118808 32:-0.0131869 33:-0.532737 34:0.0244099 35:-0.237357 36:-0.197541 37:0.240193 38:-0.384485 39:-0.047883 40:-0.0215483 41:-0.250783 42:-0.0564954 43:0.0217513 44:-0.109288 45:-0.0916564 46:0.145169 47:-0.164485 48:-0.00815716 49:0.00485027 50:-0.0536891 51:0.0397974 52:0.00126132 53:-0.20342 54:-0.0665046 55:-0.0523422 56:-0.113619 57:0.0985718 58:0.125967 59:0.177102 60:0.108985 
0.2028488521967315 0 1:-0.131056 2:-0.120755 3:0.114427 4:-0.0700826 5:-0.040488 6:-0.364553 7:-0.177589 8:-0.204267 9:0.11676 10:0.101115 11:-0.399811 12:0.39222 13:0.00746419 14:-0.172968 15:-0.503643 16:-0.226911 17:0.266425 18:-0.56731 19:-0.322008 20:0.0572751 21:-0.27353 22:-0.272163 23:-0.356362 24:-0.463787 25:0.0292087 26:-0.096085 27:-0.178317 28:-0.061012 29:-0.00334857 30:-0.325731 31:-0.0721206 32:0.220656 33:-0.263978 34:0.325255 35:0.144152 36:-0.350362 37:-0.221585 38:-0.327713 39:0.0538465 40:-0.260275 41:-0.0405653 42:-0.00198896 43:0.250683 44:0.0422232 45:-0.159962 46:-0.0975923 47:-0.321036 48:-0.257498 49:-0.033491 50:-0.0543858 51:0.196327 52:-0.0382544 53:-0.0370093 54:0.0827683 55:-0.131881 56:0.00845776 57:0.0868587 58:0.0886937 59:0.0106177 60:-0.0670271 
0.1054105535532991 0.04789765289366387 1:-0.00367576 2:-0.000251625 3:-0.353692 4:0.116001 5:0.0271056 6:-0.313711 7:-0.591166 8:-0.628676 9:0.0903646 10:0.106063 11:-0.258893 12:0.170208 13:0.114262 14:-0.211351 15:-0.198465 16:-0.295623 17:-0.407991 18:-0.0466994 19:-0.00417776 20:0.100671 21:0.11905 22:0.149305 23:0.110978 24:-0.394816 25:-0.0527243 26:-0.0332925 27:-0.690721 28:-0.173213 29:-0.385378 30:-0.0535534 31:-0.0238339 32:0.118871 33:-0.13596 34:0.284625 35:-0.751939 36:-0.383376 37:-0.00591122 38:0.0678219 39:-0.0891218 40:-0.309748 41:-0.0252713 42:0.140907 43:-0.0588643 44:-0.320463 45:-0.167615 46:0.0236152 47:0.104001 48:0.0924953 49:-0.0019627 50:-0.308733 51:0.0416729 52:-0.0778719 53:-0.190815 54:-0.1829 55:-0.100468 56:-0.0221077 57:-0.49478 58:0.151997 59:-0.327151 60:-0.0461141 
1.363371864760678 0.7937230654944384 1:-0.0627905 2:-0.298953 3:0.518798 4:-0.59748 5:0.579615 6:0.353985 7:0.376431 8:-0.364992 9:-0.00228223 10:0.253245 11:0.275196 12:0.18546 13:0.050174 14:0.117585 15:0.22622 16:-0.370142 17:0.245615 18:0.289274 19:-0.605518 20:0.253307 21:-0.385251 22:0.0134329 23:0.24057 24:0.0989535 25:0.498746 26:0.233627 27:-0.984721 28:0.315705 29:-0.164957 30:0.197351 31:0.369814 32:0.451241 33:0.0981342 34:0.00712236 35:-0.436417 36:0.0665443 37:-0.172809 38:-0.116477 39:0.279457 40:0.0778819 41:-0.324684 42:-0.0569781 43:0.112994 44:0.228045 45:-0.184683 46:-0.101282 47:-0.158961 48:-0.118417 49:-0.282821 50:-0.0775903 51:0.0664794 52:-0.501126 53:-0.28379 54:-0.439727 55:-0.146261 56:-0.328762 57:-0.181844 58:0.190592 59:0.0557094 60:-0.159474 
0.01457914867402546 0 1:-0.194771 2:-0.180805 3:0.594675 4:0.355039 5:0.133798 6:0.113216 7:-0.318361 8:-0.418928 9:-0.186691 10:0.0762602 11:0.0314349 12:0.149766 13:-0.409883 14:-0.21344 15:0.0810974 16:-0.100204 17:-0.294674 18:0.0763851 19:-0.642715 20:0.144685 21:-0.333252 22:0.171123 23:0.126019 24:-0.133228 25:-0.102815 26:-0.0622898 27:-0.103871 28:0.309003 29:0.13193 30:-0.168822 31:-0.264011 32:0.0522447 33:0.152689 34:0.0684633 35:-0.522437 36:-0.116287 37:-0.213717 38:-0.362759 39:-0.0139124 40:0.232707 41:-0.20669 42:-0.0484077 43:0.114522 44:0.0992694 45:-0.106239 46:-0.137193 47:-0.460478 48:0.122529 49:0.00699707 50:-0.0427539 51:0.169005 52:-0.000569002 53:-0.0756686 54:-0.0034427 55:0.0685394 56:0.0379614 57:-0.0755182 58:0.157499 59:0.134471 60:-0.172048 
0.620752040352464 0 1:-0.168693 2:-0.0293688 3:0.255651 4:0.215615 5:0.0511979 6:-0.169787 7:-0.0475509 8:-0.0729208 9:-0.0187415 10:-0.512006 11:0.103323 12:-0.44406 13:-0.294083 14:-0.35525 15:-0.162231 16:-0.039233 17:-0.510003 18:-0.186716 19:-0.0655575 20:0.0103445 21:-0.334875 22:-0.124741 23:-0.00158743 24:0.21019 25:0.367085 26:-0.0406467 27:-0.146803 28:-0.3155 29:-0.0278081 30:0.198794 31:0.408046 32:0.111128 33:-0.432306 34:0.378075 35:0.32428 36:0.0689483 37:0.339044 38:-0.0912705 39:0.187403 40:0.0729901 41:0.279365 42:0.204684 43:0.199252 44:0.262931 45:0.190324 46:0.330495 47:0.254773 48:0.262005 49:0.288205 50:0.200874 51:0.41662 52:0.244181 53:0.199767 54:0.381467 55:0.283337 56:0.243429 57:0.294103 58:0.378481 59:0.390477 60:0.2478 
0.2000954899310737 0 1:-0.245996 2:-0.471508 3:0.634693 4:0.0544452 5:-0.0683733 6:-0.25877 7:-0.142332 8:-0.59057 9:-0.307997 10:0.155958 11:-0.111468 12:0.291954 13:0.20129 14:-0.556772 15:-0.0742857 16:0.250014 17:0.170364 18:-0.0988925 19:-0.57406 20:-0.0470579 21:-0.358774 22:-0.0485704 23:-0.218596 24:0.220829 25:0.181556 26:0.163601 27:-0.512823 28:-0.0172115 29:-0.477751 30:-0.157601 31:0.127472 32:0.00884614 33:-0.0430675 34:-0.155592 35:-0.226647 36:-0.283201 37:-0.280821 38:-0.814107 39:0.149792 40:-0.158559 41:-0.340171 42:-0.252267 43:0.0606635 44:-0.0455875 45:-0.651397 46:-0.17352 47:-0.146096 48:-0.0342569 49:-0.266453 50:-0.377271 51:-0.159766 52:-0.0640886 53:-0.200153 54:-0.112337 55:-0.58581 56:-0.241037 57:-0.226146 58:-0.197086 59:-0.0255068 60:-0.00996614 
0.7488049924981508 0 1:-0.438568 2:-0.180893 3:0.34102 4:0.247989 5:-0.227244 6:-0.178055 7:-0.130454 8:-0.372338 9:-0.396205 10:-0.0925759 11:-0.421122 12:-0.0145579 13:-0.131082 14:-0.276426 15:-0.534619 16:-0.280987 17:-0.120683 18:-0.0569306 19:-0.126188 20:-0.145152 21:0.266914 22:-0.127196 23:-0.165876 24:-0.00192541 25:0.0415389 26:-0.412995 27:-0.0866421 28:-0.145242 29:-0.0630929 30:-0.0710677 31:0.0417513 32:0.170795 33:-0.00711464 34:-0.165708 35:-0.175433 36:-0.13957 37:0.0206876 38:-0.494406 39:-0.192407 40:-0.340564 41:-0.35445 42:-0.721204 43:-0.651659 44:-0.321247 45:-0.334405 46:-0.243954 47:-0.876384 48:-0.362024 49:-0.316064 50:-0.665197 51:0.0667718 52:-0.552183 53:-0.300658 54:-0.501347 55:-0.642281 56:-0.0917023 57:-0.290055 58:-0.337344 59:-0.116792 60:-0.366653 
0.3033581379730524 0 1:-0.436648 2:-0.312152 3:0.402289 4:-0.191071 5:0.286696 6:-0.536112 7:-0.232755 8:-0.262906 9:0.0606994 10:0.192806 11:-0.324203 12:0.046868 13:-0.18333 14:-0.438838 15:-0.644047 16:-0.390479 17:-0.457895 18:0.0820249 19:-0.333726 20:0.191852 21:-0.478373 22:-0.097709 23:-0.381529 24:0.0322056 25:-0.412131 26:-0.576317 27:-0.3008 28:-0.178693 29:-0.371082 30:-0.0259526 31:0.0957154 32:-0.0775911 33:-0.191777 34:-0.410223 35:-0.227284 36:-0.232091 37:-0.0525719 38:-0.297476 39:-0.103165 40:-0.46342 41:-0.266556 42:-0.827753 43:-0.382347 44:-0.144884 45:-0.602646 46:-0.34841 47:-0.375942 48:-0.256898 49:-0.204534 50:-0.358076 51:-0.0199768 52:-0.508334 53:-0.52825 54:-0.580837 55:-0.347153 56:-0.891339 57:-0.30645 58:-0.345946 59:-0.188122 60:-0.224012 
1.438535563387608 0.6273522537221571 1:-0.457773 2:-0.0977227 3:0.400441 4:0.247828 5:-0.00447137 6:-0.300327 7:0.206238 8:0.228697 9:0.465544 10:0.601018 11:0.554527 12:0.329799 13:0.16729 14:-0.160939 15:-0.297106 16:0.00703445 17:-0.146228 18:-0.146992 19:-0.0853794 20:0.386762 21:-0.338372 22:-0.055777 23:-0.0498907 24:-0.368362 25:0.0808479 26:-0.103893 27:-0.459996 28:0.152618 29:0.302022 30:-0.094866 31:0.167856 32:0.174021 33:0.229513 34:0.0745427 35:-1 36:-0.144677 37:0.0181399 38:-0.38562 39:-0.214787 40:-0.175067 41:-0.887703 42:0.0154993 43:-0.358839 44:0.0290704 45:-0.460681 46:-0.529924 47:-0.589842 48:-0.316541 49:-0.210026 50:-0.68798 51:-0.244754 52:-0.155792 53:-0.3555 54:-0.122423 55:-0.520747 56:-0.353124 57:-0.428297 58:-0.355042 59:-0.345932 60:-0.3329 
1.607221072481294 0.4648358428219184 1:-0.0341661 2:-0.504291 3:0.174431 4:0.439553 5:0.258707 6:0.131687 7:-0.0197532 8:-0.124384 9:0.0483855 10:0.131537 11:0.0807954 12:0.0388121 13:0.146387 14:-0.240231 15:-0.324328 16:-0.304028 17:-0.0935319 18:-0.128302 19:0.283824 20:0.201395 21:0.0296244 22:-0.0403003 23:-0.13595 24:-0.108929 25:-0.0537641 26:0.181195 27:-0.40321 28:0.346033 29:0.14324 30:-0.252609 31:0.23104 32:0.0824848 33:-0.246386 34:-0.230233 35:-0.226245 36:0.129389 37:0.222365 38:-0.140096 39:-0.0278904 40:-0.125943 41:-0.101912 42:-0.109176 43:-0.145462 44:-1 45:-0.691308 46:-0.244864 47:-0.350144 48:-0.185939 49:-0.507171 50:-0.742486 51:-0.148192 52:-0.318174 53:-0.30575 54:-0.22369 55:-0.816769 56:-0.195861 57:-0.981404 58:-0.355079 59:-0.0861727 60:-0.252699 
0 0.1720805327952126 1:-0.351211 2:0.0106634 3:0.156633 4:0.0407064 5:-0.164608 6:-0.261263 7:-0.572383 8:-0.748445 9:-1 10:-0.321112 11:-0.411275 12:-0.377394 13:-0.0955672 14:-0.0427553 15:-0.461431 16:0.00230977 17:-0.137196 18:-0.418407 19:-0.261214 20:-0.0132897 21:-0.755984 22:-0.0238715 23:-0.15505 24:-0.0647584 25:0.137155 26:-0.0447257 27:-0.109168 28:0.100309 29:0.213861 30:-0.155337 31:-0.0948354 32:-0.0778846 33:-0.0850044 34:0.0379138 35:-0.570212 36:-0.253573 37:0.0331051 38:-0.592937 39:0.0284747 40:0.0799453 41:-0.0359963 42:-0.460002 43:0.000208898 44:0.144375 45:-0.177488 46:-0.203348 47:0.0279828 48:-0.12699 49:-0.159531 50:-0.496663 51:0.139026 52:0.00139797 53:-0.133445 54:0.0981877 55:-0.148199 56:-0.0411972 57:0.00245986 58:0.0482534 59:0.0330831 60:-0.00167982 
