svm_type c_svc
kernel_type rbf
gamma 0.00012207
nr_class 4
total_sv 112
rho 5.33504 0.177881 -0.962711 -1.8111 -2.39377 8.91452
label 2 1 4 3
nr_sv 28 42 17 25
SV
2048 0 0 0:0.379923 1:0.254938 2:-0.0748171 3:0.0518098 4:-0.243948 5:-1 6:-0.46422 7:-0.519919 8:-0.293774 9:0.0353248 10:-0.376665 11:-0.0536284 12:-0.216045 13:0.0236642 14:-0.347436 15:-0.304142 16:-0.444485 17:-0.396988 18:-0.474805 19:-0.479558 20:-0.472555 21:-0.479805 22:-0.243074 23:-0.105712 24:-0.972834 25:-0.338113 26:-0.66003 27:-0.509064 28:-0.261417 29:-0.426528 30:-0.541787 31:-0.370752 32:-0.216585 33:-0.533355 34:-0.522822 35:-0.126174 36:-0.358386 37:-0.255009 38:-0.336212 39:-0.315728 40:-0.151735 41:-0.298836 42:-0.148511 43:-0.189117 44:-0.359248 45:-0.122655 46:-0.242719 47:-0.118721 48:-0.106434 49:-0.328865 50:-0.247721 51:-0.231009 52:-0.258141 53:-0.272592 54:-0.214669 55:-0.138876 56:-0.303692 57:-0.179827 58:-0.0961238 59:-0.117552 
2048 0 0 0:-0.530406 1:-0.334246 2:-0.159782 3:0.0192577 4:-0.157849 5:-0.15269 6:-0.338541 7:-0.684912 8:-0.34719 9:-0.336485 10:-0.59242 11:-0.765846 12:-0.650749 13:-0.557036 14:-0.66208 15:-0.129164 16:-0.255576 17:-0.363582 18:-0.515973 19:-0.099766 20:-0.680729 21:-0.597153 22:-0.526823 23:-0.399001 24:-0.379234 25:-0.368761 26:-0.434659 27:-0.412324 28:-0.198121 29:-0.505085 30:-0.414265 31:-0.478618 32:-0.25856 33:-0.52787 34:-0.680549 35:-0.174802 36:-0.293534 37:-0.532014 38:-0.777983 39:-0.522051 40:-0.557098 41:-0.795049 42:-0.607885 43:-0.594509 44:-0.631593 45:-0.587309 46:-0.942998 47:-0.348793 48:-0.512267 49:-0.737119 50:-0.758994 51:-0.865284 52:-0.746759 53:-0.814037 54:-0.539523 55:-0.605713 56:-0.810471 57:-0.740589 58:-0.458203 59:-0.67275 
2048 0 0 0:-0.653755 1:-0.219272 2:-0.659981 3:-0.393265 4:-0.419973 5:-0.623404 6:-0.414615 7:-0.883093 8:-0.559013 9:-0.0684017 10:-0.47048 11:-0.803492 12:-0.582417 13:-0.212455 14:-0.61908 15:-0.272273 16:-0.867082 17:-0.65763 18:-0.519598 19:-0.106456 20:-0.54701 21:-0.352028 22:-0.267292 23:-0.470556 24:-0.445146 25:-0.714619 26:-0.346081 27:-0.547466 28:-0.435471 29:-0.0740518 30:-0.181247 31:-0.303816 32:-0.446179 33:-0.884789 34:-0.421916 35:-0.402415 36:-0.237451 37:-0.69031 38:-0.484718 39:-0.593873 40:-0.482667 41:-0.633163 42:-0.43014 43:-0.781878 44:-0.579499 45:-0.677965 46:-0.676732 47:-0.404244 48:-0.582165 49:-1 50:-1 51:-0.656661 52:-0.757835 53:-0.851936 54:-0.790365 55:-0.639554 56:-0.925394 57:-0.688721 58:-0.682156 59:-0.693042 
2048 0 0 0:-0.494066 1:-0.58896 2:-0.455574 3:-0.549581 4:-0.534037 5:-0.571457 6:-0.890872 7:-0.425735 8:-0.436849 9:-0.274791 10:-0.561438 11:-0.376387 12:-0.702648 13:-0.236232 14:-0.626892 15:-0.455404 16:-0.600254 17:-0.429386 18:-0.432332 19:-0.421048 20:-0.560255 21:-0.486646 22:-0.364907 23:-0.566509 24:-0.579362 25:-0.608801 26:-0.367047 27:-0.387349 28:-0.154961 29:-0.309583 30:-0.587767 31:-0.160134 32:-0.349334 33:-0.478641 34:-0.665055 35:-0.27021 36:-0.157469 37:-0.384731 38:-0.668551 39:-0.431454 40:-0.450641 41:-0.437109 42:-0.17276 43:-0.265779 44:-0.505756 45:-0.550992 46:-0.801485 47:-0.255204 48:-0.325001 49:-0.582495 50:-0.47317 51:-0.613132 52:-0.517296 53:-0.567106 54:-0.71532 55:-0.615816 56:-0.438016 57:-0.511494 58:-0.310874 59:-0.520028 
2048 0 0 0:-0.440105 1:-0.347834 2:-0.408677 3:0.103611 4:-0.365042 5:-0.107037 6:-0.557702 7:-0.762886 8:-0.184064 9:-0.193009 10:-0.551398 11:-0.126978 12:-0.348693 13:-0.383142 14:-0.865186 15:-0.247857 16:-0.86521 17:-0.325241 18:-0.763733 19:-0.424472 20:-0.644871 21:-0.965159 22:-0.147428 23:-0.546836 24:-0.18775 25:-0.25578 26:-0.273549 27:-0.727292 28:-0.0869773 29:-0.425117 30:-0.644168 31:-0.448878 32:-0.276638 33:-0.463406 34:-0.424688 35:-0.282621 36:0.00770058 37:-0.424948 38:-0.295702 39:-0.585517 40:-0.441318 41:-0.70204 42:-0.367658 43:-0.390411 44:-0.613464 45:-0.616179 46:-0.496614 47:-0.281967 48:-0.572514 49:-0.352218 50:-0.598108 51:-0.46702 52:-0.462871 53:-0.483521 54:-0.385951 55:-0.480182 56:-0.524551 57:-0.526994 58:-0.350984 59:-0.435102 
2048 1196.881803274881 2048 0:0.363565 1:0.827862 2:0.0804428 3:0.313111 4:-0.113153 5:0.639544 6:-0.0991789 7:0.0882172 8:-0.403267 9:-0.123742 10:0.136971 11:0.0718547 12:-0.472978 13:0.225396 14:-0.348756 15:-0.0426161 16:0.210531 17:0.0261035 18:-0.182315 19:-0.0726554 20:-0.117517 21:-0.167752 22:0.084198 23:-0.283628 24:0.336686 25:-0.0843646 26:-0.612748 27:-0.166893 28:0.060847 29:0.2132 30:-0.0704554 31:-0.184242 32:0.0417395 33:-0.239455 34:-0.619992 35:0.2171 36:0.29207 37:-0.214709 38:-0.148401 39:-0.0452318 40:0.0202654 41:-0.176925 42:-0.208121 43:0.121584 44:-0.0106145 45:-0.0329198 46:-0.0513439 47:0.167192 48:-0.0260839 49:-0.0535414 50:-0.0774298 51:0.0200812 52:0.0239401 53:0.0315184 54:0.0917518 55:0.120201 56:0.0252115 57:0.0107606 58:0.114324 59:0.0607996 
2048 0 1283.337814989083 0:-0.547088 1:-0.129719 2:-0.478746 3:-0.367201 4:-0.082144 5:-0.288398 6:-0.276374 7:-0.159599 8:-0.356613 9:-0.144563 10:-0.156601 11:-0.191022 12:-0.341026 13:-0.181386 14:-0.544179 15:-0.133907 16:-0.378075 17:-0.473232 18:-0.27801 19:-0.214269 20:-0.686532 21:-0.257154 22:-0.340157 23:-0.5769 24:-0.672678 25:-0.422454 26:-0.772541 27:-0.291713 28:-0.339278 29:-0.185333 30:-0.905806 31:-0.404349 32:-0.244226 33:-0.669046 34:-0.459432 35:-0.27203 36:-0.23685 37:-0.42764 38:-0.34866 39:-0.54618 40:-0.520172 41:-0.660491 42:-0.432397 43:-0.51059 44:-0.593197 45:-0.646541 46:-0.462511 47:-0.395761 48:-0.691886 49:-0.555093 50:-0.710961 51:-0.730742 52:-0.558188 53:-0.771275 54:-0.646476 55:-0.592049 56:-0.81935 57:-0.519432 58:-0.450802 59:-0.527725 
1998.896513267015 0 0 0:-0.43918 1:-0.149487 2:-0.212415 3:-0.532986 4:-0.474494 5:-0.330602 6:-0.722172 7:-0.520165 8:-0.801144 9:-0.18824 10:-0.212601 11:-0.336267 12:-0.595865 13:-0.377519 14:-0.733773 15:-0.578555 16:-0.738658 17:-0.551801 18:-0.810358 19:-0.583141 20:-0.982401 21:-0.622283 22:-0.477864 23:-0.84836 24:-0.536601 25:-0.844754 26:-0.583328 27:-0.373735 28:-0.473147 29:-0.311857 30:-0.832285 31:-0.393959 32:-0.449441 33:-1 34:-0.592565 35:-0.709363 36:-0.488377 37:-0.734976 38:-0.717691 39:-0.614423 40:-0.767306 41:-0.768008 42:-0.564896 43:-0.916964 44:-0.70855 45:-0.62474 46:-0.710413 47:-0.526433 48:-0.717602 49:-0.687064 50:-0.790017 51:-0.594066 52:-0.76825 53:-0.672137 54:-0.635162 55:-0.71002 56:-1 57:-0.827806 58:-0.453574 59:-0.921646 
282.8651468288143 0 0 0:-0.420377 1:-0.261519 2:-0.292975 3:-0.0753958 4:-0.644762 5:-0.201893 6:-1 7:-1 8:-0.295325 9:-0.273997 10:-0.381988 11:-0.203302 12:-0.732997 13:-0.569872 14:-0.881692 15:-0.307812 16:-0.332576 17:-0.572538 18:-0.740037 19:-0.313324 20:-0.661392 21:-0.754381 22:-0.557697 23:-1 24:-0.468479 25:-0.736625 26:-0.808101 27:-0.809011 28:-0.574937 29:-0.584675 30:-0.804181 31:-1 32:-1 33:-0.792215 34:-0.807517 35:-0.477792 36:-0.795536 37:-0.620943 38:-1 39:-0.728356 40:-0.652253 41:-0.741426 42:-0.812262 43:-0.807904 44:-0.813272 45:-0.786993 46:-0.874292 47:-0.436401 48:-0.532602 49:-0.796018 50:-0.887676 51:-0.927214 52:-0.814442 53:-0.850143 54:-0.773402 55:-0.706101 56:-0.659587 57:-0.74785 58:-0.654545 59:-0.866042 
2048 0 0 0:-0.511159 1:-0.133584 2:-0.474237 3:-0.456848 4:-0.74188 5:-0.545907 6:-0.785743 7:-0.923552 8:-0.632951 9:-0.489754 10:-0.388707 11:-0.343132 12:-0.690811 13:-0.5711 14:-0.825506 15:-0.625986 16:-1 17:-0.7226 18:-0.659165 19:-0.35285 20:-0.575149 21:-0.850644 22:-0.525027 23:-0.603703 24:-0.605269 25:-0.901817 26:-0.867832 27:-0.768509 28:-0.614323 29:-1 30:-0.754635 31:-0.662493 32:-0.402149 33:-0.949036 34:-0.571026 35:-0.507693 36:-0.521984 37:-0.536422 38:-0.882512 39:-0.678071 40:-0.82699 41:-0.740755 42:-0.459867 43:-1 44:-0.767052 45:-0.652177 46:-0.732418 47:-0.367372 48:-0.647826 49:-0.725366 50:-0.587186 51:-0.773132 52:-0.863261 53:-0.67126 54:-0.805144 55:-0.913341 56:-0.898764 57:-0.893962 58:-0.776148 59:-0.667702 
2048 0 0 0:-0.392831 1:-0.506112 2:-0.361156 3:-0.163815 4:-0.63349 5:-0.322973 6:-0.794424 7:-0.378592 8:-0.725351 9:-0.224892 10:-0.426655 11:-0.45928 12:-0.636396 13:-0.374782 14:-0.84322 15:-0.158016 16:-0.484301 17:-0.415923 18:-0.493195 19:-0.24546 20:-0.583077 21:-1 22:-0.345041 23:-0.454832 24:-0.282103 25:-0.310656 26:-0.416447 27:-0.608877 28:-0.235216 29:-0.295016 30:-0.409321 31:-0.339584 32:-0.824589 33:-0.835169 34:-0.800805 35:-0.347529 36:-0.467633 37:-0.342366 38:-0.63295 39:-0.389563 40:-0.296412 41:-0.672418 42:-0.428095 43:-0.446953 44:-0.748354 45:-0.791356 46:-0.695691 47:-0.30448 48:-0.650174 49:-0.859527 50:-0.560938 51:-0.444041 52:-0.531959 53:-0.837569 54:-0.533962 55:-0.444645 56:-0.613333 57:-0.567627 58:-0.393541 59:-0.441543 
2048 0 0 0:-0.641245 1:-0.613334 2:-0.338884 3:-0.714722 4:-0.372408 5:-0.612547 6:-0.86829 7:-0.689699 8:-0.635973 9:0.0983707 10:-0.200043 11:-0.0361574 12:-0.543065 13:-0.569363 14:-0.736325 15:-0.422269 16:-0.647541 17:-0.853949 18:-0.623819 19:-0.406247 20:-1 21:-0.445456 22:-0.0532676 23:-0.20907 24:-0.820725 25:-0.501638 26:-0.800439 27:-0.501885 28:-0.219772 29:-0.366384 30:-0.587514 31:-0.285049 32:-0.648581 33:-0.741952 34:-0.633 35:-0.435404 36:-1 37:-0.561495 38:-0.497382 39:-0.665803 40:-0.689253 41:-0.606187 42:-0.674976 43:-0.567363 44:-0.685504 45:-0.620077 46:-0.971915 47:-0.419958 48:-0.565577 49:-0.61385 50:-0.682338 51:-0.764639 52:-0.569019 53:-0.666303 54:-0.605578 55:-0.549823 56:-0.837538 57:-0.897405 58:-0.599805 59:-0.650411 
2048 0 0 0:-0.740957 1:-0.427611 2:-0.484192 3:-0.456784 4:-0.664711 5:-0.562916 6:-0.557743 7:-0.650076 8:-0.588226 9:-0.458405 10:-0.400055 11:-0.333237 12:-0.461055 13:-0.323317 14:-0.589444 15:-0.340983 16:-0.778891 17:-0.684255 18:-0.529102 19:-0.318553 20:-0.58036 21:-0.789792 22:-0.479649 23:-0.525321 24:-0.288188 25:-0.327176 26:-0.623463 27:-0.488232 28:-0.152263 29:-0.38042 30:-0.513158 31:-0.659408 32:-0.521794 33:-0.677043 34:-0.64526 35:-0.381921 36:-0.477519 37:-0.643352 38:-0.580812 39:-0.729988 40:-0.52063 41:-0.636497 42:-0.465469 43:-0.870261 44:-0.537826 45:-0.486047 46:-0.587356 47:-0.410251 48:-0.750546 49:-0.800255 50:-0.794574 51:-0.526164 52:-0.796522 53:-0.824285 54:-0.758187 55:-0.792602 56:-0.687483 57:-0.689838 58:-0.707703 59:-0.818369 
2048 0 0 0:-0.55631 1:-0.661415 2:-0.48065 3:-0.242992 4:-0.408262 5:-0.484055 6:-0.551095 7:-0.492702 8:-0.33 9:-0.216455 10:-1 11:-0.2271 12:-0.3712 13:-0.246282 14:-0.658904 15:-0.457329 16:-0.726727 17:-0.522998 18:-0.651398 19:-0.140556 20:-0.622844 21:-0.709521 22:-0.333627 23:-0.605031 24:-0.226613 25:-0.361922 26:-0.567897 27:-0.544582 28:-0.223066 29:-0.62318 30:-0.400869 31:-0.442712 32:-0.49678 33:-0.878688 34:-0.607282 35:-0.257035 36:-0.306411 37:-0.602734 38:-0.602592 39:-0.356276 40:-0.529637 41:-0.622115 42:-0.647804 43:-0.692382 44:-0.479638 45:-0.473141 46:-0.57481 47:-0.310504 48:-0.473411 49:-0.813246 50:-0.500398 51:-0.580999 52:-0.656851 53:-0.605358 54:-0.435096 55:-0.482138 56:-0.544483 57:-0.626257 58:-0.490804 59:-0.641352 
1000.25376543127 0 0 0:0.481845 1:0.42469 2:-0.430679 3:-0.339937 4:-0.0880131 5:-0.259432 6:-0.806554 7:-0.31286 8:-0.467656 9:0.302904 10:-0.334142 11:-0.0522742 12:-0.306373 13:-0.20768 14:-0.847217 15:-0.376576 16:-0.164073 17:-0.325888 18:-0.396004 19:-0.00127755 20:-0.469598 21:-0.483927 22:-0.258422 23:-0.5179 24:-0.56206 25:-0.287611 26:-0.277419 27:-0.52407 28:-0.176684 29:0.0373904 30:-0.312269 31:-0.284803 32:-0.154822 33:-0.324856 34:-0.87214 35:-0.506274 36:-0.271042 37:-0.303694 38:-0.290969 39:-0.0114219 40:-0.243942 41:-0.331769 42:-0.166992 43:-0.0518947 44:-0.258692 45:-0.131875 46:-0.239686 47:-0.0307051 48:-0.0751243 49:-0.191922 50:-0.205485 51:-0.0767229 52:-0.143798 53:-0.211803 54:-0.0849588 55:-0.0952475 56:-0.17299 57:-0.162581 58:-0.0660003 59:-0.0868181 
2048 0 0 0:-0.407386 1:-0.600934 2:-0.355484 3:-0.262128 4:-0.672346 5:-0.245579 6:-0.651404 7:-0.566778 8:-0.246269 9:-0.317234 10:-0.244404 11:-0.217517 12:-0.34813 13:-0.533297 14:-0.377901 15:-0.619565 16:-0.518831 17:-0.307123 18:-0.512912 19:-0.139122 20:-0.825121 21:-0.465589 22:-0.194062 23:-0.46628 24:-0.324603 25:-0.190295 26:-0.402626 27:-0.44135 28:-0.170506 29:-0.166203 30:-1 31:-0.182724 32:-0.189963 33:-0.919193 34:-0.363837 35:-0.384329 36:-0.207775 37:-0.62573 38:-0.525645 39:-0.473852 40:-0.833621 41:-0.663367 42:-0.423169 43:-0.478168 44:-0.517097 45:-0.803393 46:-0.529582 47:-0.45972 48:-0.745625 49:-0.68369 50:-0.706734 51:-0.595439 52:-0.696604 53:-0.981535 54:-0.677175 55:-0.531004 56:-0.657245 57:-0.535776 58:-0.401387 59:-0.485225 
2048 0 0 0:-0.662267 1:-0.188232 2:-0.538175 3:-0.278203 4:-0.350499 5:-0.988588 6:-0.516723 7:-0.603321 8:-0.591077 9:-0.340073 10:-0.302765 11:-0.176762 12:-0.400742 13:-0.559612 14:-0.339743 15:-0.60226 16:-0.422797 17:-0.88932 18:-0.691464 19:-0.331165 20:-0.83994 21:-0.358022 22:-0.323229 23:-0.337571 24:-0.409206 25:-0.350262 26:-0.387133 27:-0.280755 28:-0.331219 29:-0.374047 30:-0.418038 31:-0.506561 32:-0.190571 33:-0.835905 34:-0.593181 35:-0.0131321 36:-0.205656 37:-0.562416 38:-0.512443 39:-0.677736 40:-0.648958 41:-0.763545 42:-0.440327 43:-0.858031 44:-0.590965 45:-0.62517 46:-0.532971 47:-0.427699 48:-0.710818 49:-0.762971 50:-0.77371 51:-0.632474 52:-0.878916 53:-0.744946 54:-0.581379 55:-0.712859 56:-0.723292 57:-0.643522 58:-0.707828 59:-0.75746 
2048 0 0 0:-0.750289 1:-0.763994 2:-0.637368 3:-0.0892412 4:-0.705474 5:-0.406768 6:-0.745005 7:-0.511291 8:-0.377053 9:-0.25889 10:-0.542064 11:-0.0719919 12:-0.432651 13:-0.862138 14:-0.678719 15:-0.257573 16:-0.294411 17:-0.45752 18:-0.474169 19:-0.150573 20:-0.503615 21:-0.883634 22:-0.417115 23:-0.411449 24:-0.309082 25:-0.685041 26:-0.610379 27:-0.284291 28:-0.472199 29:-0.632627 30:-0.642662 31:-0.667875 32:-0.444657 33:-0.510646 34:-0.780504 35:-0.255624 36:-0.592681 37:-0.740486 38:-0.558337 39:-0.538851 40:-0.600394 41:-0.551808 42:-0.489167 43:-0.717766 44:-0.440517 45:-0.441825 46:-0.861952 47:-0.405057 48:-0.332274 49:-0.912409 50:-0.547475 51:-0.779102 52:-0.931147 53:-0.918759 54:-0.658512 55:-0.679598 56:-0.849764 57:-0.831724 58:-0.638519 59:-0.842394 
2048 0 0 0:-0.55908 1:-0.695016 2:-0.358671 3:-0.0530309 4:-0.707181 5:-0.357247 6:-0.550308 7:-0.455108 8:-0.625481 9:-0.11628 10:-0.406494 11:-0.304308 12:-0.573913 13:-0.450671 14:-0.501043 15:-0.442989 16:-0.606182 17:-0.452109 18:-0.583322 19:-0.422002 20:-0.777452 21:-0.326475 22:-1 23:-0.447257 24:-0.492395 25:-0.31184 26:-0.490318 27:-0.455545 28:-0.285887 29:-0.527802 30:-0.63637 31:-0.598804 32:-0.499975 33:-0.843561 34:-0.435286 35:-0.344425 36:-0.358801 37:-0.635353 38:-0.759829 39:-0.931966 40:-0.68634 41:-0.759898 42:-0.499214 43:-0.516215 44:-0.58092 45:-0.537389 46:-0.823767 47:-0.221217 48:-0.51266 49:-0.639842 50:-0.611142 51:-0.936239 52:-0.736792 53:-0.878082 54:-0.659349 55:-0.631301 56:-0.778234 57:-0.832537 58:-0.521662 59:-0.564404 
1395.203145625736 0 0 0:0.554823 1:0.596704 2:-0.62828 3:-0.240835 4:-0.572087 5:-0.340377 6:-0.46535 7:-0.450776 8:-0.42615 9:-0.0256972 10:-0.408056 11:-0.0119119 12:-0.706348 13:-0.360168 14:-0.697631 15:-0.38614 16:-0.276201 17:-0.45956 18:-0.280796 19:-0.0702803 20:-0.376338 21:-0.809637 22:-0.159124 23:0.00432896 24:-0.541639 25:-0.493598 26:-0.221584 27:-0.172562 28:-0.0797149 29:-0.283219 30:-0.234523 31:-0.222081 32:-0.237303 33:-0.303861 34:-0.43719 35:-0.149628 36:-0.276396 37:-0.162451 38:-0.505253 39:-0.436058 40:-0.402732 41:-0.522656 42:-0.431009 43:-0.709147 44:-0.547885 45:-0.653862 46:-0.366467 47:-0.178568 48:-0.597075 49:-0.632687 50:-0.472019 51:-0.400334 52:-0.541513 53:-0.622714 54:-0.340868 55:-0.487726 56:-0.613619 57:-0.64992 58:-0.401768 59:-0.561492 
2048 0 1474.439490604562 0:-0.475266 1:-0.567116 2:-0.699924 3:-0.271269 4:-0.791577 5:-0.643942 6:-0.726221 7:-0.789231 8:-0.258505 9:0.0230474 10:-0.437461 11:0.130111 12:-0.309198 13:-0.301802 14:-0.513087 15:-0.275513 16:-0.2144 17:-0.401465 18:-0.631743 19:-0.200984 20:-0.318878 21:-0.400624 22:-0.138305 23:-0.0958067 24:-0.00657025 25:-0.186513 26:-0.285597 27:-0.256285 28:-0.0253559 29:-0.336284 30:-0.216464 31:-0.19293 32:-0.307809 33:-0.30923 34:-0.847317 35:-0.207338 36:0.00976484 37:-0.395634 38:-0.412858 39:-0.589891 40:-0.508714 41:-0.57651 42:-0.23744 43:-0.528833 44:-0.399191 45:-0.460439 46:-0.609472 47:-0.391374 48:-0.280436 49:-0.659734 50:-0.494378 51:-0.434859 52:-0.615156 53:-0.711158 54:-0.646019 55:-0.511224 56:-0.519516 57:-0.597089 58:-0.39088 59:-0.470612 
2048 0 0 0:-0.269422 1:-0.49075 2:-0.609092 3:-0.559995 4:-0.514393 5:-0.280788 6:-0.547479 7:-0.689086 8:-0.340258 9:-0.274637 10:-0.298034 11:0.0210993 12:-0.722866 13:-0.328409 14:-1 15:-0.479579 16:-0.365548 17:-0.347998 18:-0.570512 19:-0.21593 20:-0.470485 21:-0.337927 22:-0.155664 23:-0.218983 24:-0.154162 25:-0.349578 26:-0.275167 27:-0.503876 28:-0.20155 29:-0.286272 30:-0.375276 31:-0.564461 32:-0.388363 33:-0.593118 34:-0.466111 35:-0.267067 36:-0.200863 37:-0.351435 38:-0.728986 39:-0.317522 40:-0.515813 41:-0.660049 42:-0.305552 43:-0.396527 44:-0.766277 45:-0.650341 46:-0.618659 47:-0.244891 48:-0.479375 49:-0.587327 50:-0.613189 51:-0.503174 52:-0.485978 53:-0.668404 54:-0.45181 55:-0.442454 56:-0.494533 57:-0.69005 58:-0.508898 59:-0.654888 
2048 0 0 0:-0.475881 1:-0.178565 2:-0.493015 3:-0.0916723 4:-0.73839 5:-0.444433 6:-0.46861 7:-0.3551 8:-0.53584 9:-0.433732 10:-0.481692 11:-0.226112 12:-0.455864 13:-0.400436 14:-0.412042 15:-0.602239 16:-0.365819 17:-0.366805 18:-0.557129 19:-0.518821 20:-0.69617 21:-0.2707 22:-0.00282426 23:-0.434766 24:0.105619 25:-1 26:-0.33897 27:-0.166204 28:-0.203454 29:-0.220516 30:-0.488799 31:-0.42056 32:-0.11 33:-0.338636 34:-0.541455 35:-0.0253847 36:-0.377567 37:-0.43197 38:-0.452176 39:-0.464313 40:-0.455888 41:-0.588618 42:-0.478743 43:-0.424472 44:-0.537681 45:-0.39248 46:-0.594117 47:-0.274141 48:-0.654809 49:-0.562937 50:-0.791381 51:-0.564598 52:-0.407006 53:-0.779741 54:-0.539036 55:-0.577332 56:-0.533306 57:-0.692974 58:-0.632825 59:-0.525544 
2048 0 23.69181260464869 0:-0.582351 1:-0.346979 2:-0.452282 3:-0.629261 4:-0.687321 5:-0.2626 6:-0.51457 7:-0.654526 8:-0.376408 9:-0.254566 10:-0.217178 11:0.0108713 12:-0.734829 13:-1 14:-0.300195 15:-0.589454 16:-0.210879 17:-0.372875 18:-0.225649 19:-0.198191 20:-0.469368 21:-0.226266 22:-0.256582 23:-0.338809 24:-0.507293 25:-0.379925 26:-0.293937 27:-0.221138 28:-0.240624 29:-0.119698 30:-0.340975 31:-0.454634 32:-0.154288 33:-0.244477 34:-0.465922 35:0.0300552 36:-0.510477 37:-0.3597 38:-0.416395 39:-0.41864 40:-0.451907 41:-0.425769 42:-0.586049 43:-0.30266 44:-0.632614 45:-0.47465 46:-0.533155 47:-0.206097 48:-0.362554 49:-0.645709 50:-0.5408 51:-0.528564 52:-0.561801 53:-0.632386 54:-0.382576 55:-0.551057 56:-0.621244 57:-0.591408 58:-0.658215 59:-0.36646 
2048 0 38.76130692866506 0:-0.559949 1:-0.205622 2:-0.535414 3:-0.144294 4:-0.663044 5:-0.987224 6:-0.272872 7:-0.517883 8:-0.514761 9:-0.0116904 10:-0.423392 11:-0.445878 12:-0.275892 13:-0.199853 14:-0.678904 15:-0.449747 16:-0.4336 17:-0.418271 18:-0.378884 19:-0.529716 20:-0.547293 21:-0.559382 22:-0.0850971 23:-0.299996 24:-0.42442 25:-0.218487 26:-0.419969 27:-0.550911 28:-0.177269 29:-0.272041 30:-0.111646 31:-0.365453 32:-0.372959 33:-0.819896 34:-0.494845 35:-0.00486677 36:-0.0581318 37:-0.527037 38:-0.359996 39:-0.457022 40:-0.514357 41:-0.409911 42:-0.385625 43:-0.361235 44:-0.417534 45:-0.381882 46:-0.388437 47:-0.165966 48:-0.340884 49:-0.727203 50:-0.483395 51:-0.454054 52:-0.549752 53:-0.502824 54:-0.378556 55:-0.398708 56:-0.34414 57:-0.581568 58:-0.363352 59:-0.385067 
2048 0 0 0:-0.449916 1:-0.527744 2:-0.212737 3:-0.624597 4:-0.267446 5:-0.326097 6:-0.751826 7:-0.262889 8:-0.547552 9:-0.266089 10:-0.850415 11:-0.154418 12:-0.760719 13:-0.189376 14:-0.670435 15:-0.46628 16:-0.499436 17:-0.501803 18:-1 19:-0.293294 20:-0.171637 21:-0.220271 22:-0.221529 23:-0.249885 24:-0.355582 25:-0.332707 26:-0.4663 27:-0.471858 28:-0.511075 29:-0.4486 30:-0.165818 31:-0.180704 32:-0.164626 33:-0.433226 34:-0.567754 35:-0.0994708 36:-0.719874 37:-0.659055 38:-0.644572 39:-0.406326 40:-0.425843 41:-0.637595 42:-0.393184 43:-0.613654 44:-0.499538 45:-0.361681 46:-0.6692 47:-0.4286 48:-0.467612 49:-0.901358 50:-0.6574 51:-0.807739 52:-0.736107 53:-0.545589 54:-0.501899 55:-0.573451 56:-0.665105 57:-0.715748 58:-0.4126 59:-0.56638 
2048 0 0 0:-0.725683 1:-0.388755 2:-0.384597 3:-0.867451 4:-0.649419 5:-0.198077 6:-0.753777 7:-0.288645 8:-0.194627 9:-0.142633 10:-0.157542 11:0.174582 12:-0.639939 13:-0.58627 14:-0.893172 15:-0.690913 16:-0.414901 17:-0.476934 18:-0.240585 19:-0.376727 20:-0.184619 21:-0.432175 22:-0.350689 23:-0.427801 24:-0.288155 25:-0.29395 26:-0.259509 27:-0.262272 28:-0.302075 29:-0.210963 30:-0.237448 31:-0.146429 32:-0.244473 33:-0.665805 34:-0.676622 35:-0.323455 36:-0.152891 37:-0.237914 38:-0.417105 39:-0.384061 40:-0.627882 41:-0.410668 42:-0.203834 43:-0.308253 44:-0.370501 45:-0.51704 46:-0.406196 47:-0.250181 48:-0.36449 49:-0.387472 50:-0.355278 51:-0.354277 52:-0.551903 53:-0.6332 54:-0.301456 55:-0.389133 56:-0.419077 57:-0.63992 58:-0.369359 59:-0.412054 
2048 0 474.2962834508998 0:-0.891849 1:-0.543068 2:-0.546461 3:-0.401558 4:-0.610427 5:-0.393929 6:-0.572199 7:-0.568643 8:-0.472492 9:-0.106023 10:-0.520499 11:-0.328994 12:-0.440479 13:-0.230172 14:-0.675058 15:-0.323688 16:-0.397846 17:-0.61118 18:-0.462935 19:-0.175872 20:-0.431372 21:-0.363988 22:-0.332598 23:-0.112209 24:-0.107228 25:-0.335141 26:-0.370519 27:-0.450015 28:-0.198309 29:-0.430876 30:-0.539635 31:-0.411091 32:-0.551676 33:-0.661782 34:-0.595336 35:-0.178925 36:-0.13134 37:-0.388345 38:-0.481837 39:-0.510824 40:-0.642646 41:-0.494831 42:-0.520672 43:-0.662182 44:-0.466969 45:-0.377511 46:-0.643064 47:-0.297359 48:-0.399162 49:-0.672838 50:-0.850474 51:-0.718148 52:-0.776973 53:-0.752858 54:-0.762072 55:-0.588677 56:-0.666054 57:-0.902765 58:-0.55561 59:-0.782333 
-260.9948932261942 0 0 0:-0.36572 1:-0.50792 2:-0.258583 3:-0.427975 4:-0.405281 5:-0.515892 6:-0.283366 7:-0.425329 8:-0.231863 9:-0.391074 10:-0.410139 11:-0.792406 12:-0.50468 13:-0.171097 14:-0.521743 15:-0.790533 16:-0.569336 17:-0.62216 18:-0.828822 19:-0.284738 20:-0.688101 21:-0.485933 22:-0.210273 23:-0.258983 24:-0.225094 25:-0.415951 26:-0.508722 27:-0.609431 28:-0.506107 29:-0.645313 30:-0.82684 31:-0.416747 32:-0.173916 33:-0.617892 34:-0.398408 35:-0.61657 36:-0.137714 37:-0.500921 38:-0.650025 39:-0.361962 40:-0.382722 41:-0.560235 42:-0.356756 43:-0.597266 44:-0.449887 45:-0.385868 46:-0.321948 47:-0.47305 48:-0.389884 49:-0.502149 50:-0.546551 51:-0.43813 52:-0.587543 53:-0.451092 54:-0.568522 55:-0.423073 56:-0.481509 57:-0.580741 58:-0.430177 59:-0.477981 
-1936.953929099904 0 0 0:-0.504022 1:-0.239547 2:-0.388019 3:-0.655363 4:-0.559008 5:-0.313074 6:-0.94755 7:-0.503184 8:-0.419066 9:0.0410689 10:-0.434832 11:-0.15829 12:-0.820632 13:-0.228469 14:-0.866453 15:-0.332803 16:-0.446381 17:-0.330453 18:-0.412233 19:-0.316562 20:-0.476047 21:-0.333485 22:-0.323765 23:-0.190152 24:-0.105488 25:-0.361198 26:-0.0790385 27:-0.391088 28:-1 29:-0.37314 30:-0.368238 31:-0.466689 32:-0.692503 33:-0.759472 34:-0.697952 35:-0.525931 36:-0.556086 37:-0.639828 38:-0.824238 39:-0.54798 40:-0.739807 41:-0.749697 42:-0.681173 43:-0.456434 44:-0.560418 45:-0.79389 46:-0.601333 47:-0.318974 48:-0.788661 49:-0.809144 50:-0.808317 51:-1 52:-0.831282 53:-0.783907 54:-0.723218 55:-1 56:-0.974698 57:-0.957899 58:-0.634863 59:-0.821693 
-2048 0 0 0:-0.51047 1:-0.379218 2:-0.333821 3:-0.670576 4:-0.540966 5:-0.35345 6:-0.826391 7:-0.412257 8:-1 9:-0.319221 10:-0.590866 11:-0.407116 12:-0.946771 13:-0.644931 14:-0.640268 15:-0.529715 16:-0.423118 17:-0.927408 18:-0.730839 19:-0.438704 20:-0.720836 21:-0.398076 22:-0.211053 23:-0.543708 24:-0.645635 25:-0.765041 26:-0.637733 27:-0.387362 28:-0.465423 29:-0.287035 30:-0.754222 31:-0.589629 32:-0.136624 33:-0.593536 34:-0.289776 35:-0.221468 36:-0.27698 37:-0.570762 38:-0.546252 39:-0.687608 40:-0.615835 41:-0.567327 42:-1 43:-0.385127 44:-0.577621 45:-0.576948 46:-0.503555 47:-0.365341 48:-0.604291 49:-0.793976 50:-0.511035 51:-0.592401 52:-0.588945 53:-0.586739 54:-0.524006 55:-0.495084 56:-0.556097 57:-0.59475 58:-0.617462 59:-0.804346 
-2048 0 0 0:-0.653123 1:-0.541299 2:-0.437949 3:-0.619516 4:-0.760425 5:-0.345854 6:-0.410788 7:-0.49639 8:-0.584721 9:-0.22084 10:-0.488492 11:0.0878373 12:-0.167916 13:-0.229216 14:-0.625079 15:-0.671081 16:-0.245294 17:-0.612491 18:-0.581925 19:-0.193293 20:-0.685779 21:-0.218025 22:-0.267681 23:-0.299233 24:-0.311424 25:-0.579935 26:-0.65503 27:-0.346996 28:-0.377065 29:-0.210833 30:-0.53576 31:-0.832513 32:-0.370354 33:-0.877194 34:-0.651355 35:-0.335332 36:-0.382944 37:-0.578507 38:-0.336699 39:-0.269232 40:-0.503719 41:-0.482668 42:-0.338782 43:-0.582404 44:-0.575156 45:-0.692899 46:-0.66901 47:-0.283589 48:-0.463098 49:-0.716294 50:-0.787258 51:-0.826042 52:-0.765468 53:-0.73612 54:-0.550298 55:-0.953686 56:-0.97143 57:-0.890088 58:-0.834348 59:-0.863813 
-2048 0 0 0:-0.595057 1:-0.482259 2:-0.55487 3:-0.187535 4:-0.467277 5:-0.523899 6:-0.812978 7:-0.767357 8:-0.348212 9:-0.218085 10:-0.244067 11:-0.0440679 12:-0.379896 13:-0.207875 14:-0.796801 15:-1 16:-0.565239 17:-0.442436 18:-0.776108 19:-0.697319 20:-0.300252 21:-0.586051 22:-0.263694 23:-0.225409 24:-0.423005 25:-0.341163 26:-0.537655 27:-0.487774 28:-0.415197 29:-0.653526 30:-0.350795 31:-0.21301 32:-0.547982 33:-0.738403 34:-0.570436 35:-0.223254 36:-0.164816 37:-0.356593 38:-0.56435 39:-0.666882 40:-0.796521 41:-0.419865 42:-0.799123 43:-0.799715 44:-0.707241 45:-0.475921 46:-0.636969 47:-0.197476 48:-0.491722 49:-0.534104 50:-0.715647 51:-0.694504 52:-0.696834 53:-0.680955 54:-1 55:-0.565027 56:-0.672586 57:-0.900641 58:-0.628898 59:-0.749199 
-2048 0 0 0:-0.552631 1:-0.574966 2:-0.365075 3:0.216034 4:-0.263323 5:-0.55517 6:-0.156969 7:-0.575209 8:-0.494437 9:-0.0177037 10:-0.475356 11:0.177395 12:-0.409023 13:-0.453578 14:-0.604773 15:-0.23536 16:-0.234169 17:-0.850014 18:-0.490939 19:-0.256672 20:-0.600822 21:-0.441601 22:-0.352535 23:-0.705341 24:-0.107469 25:-0.228448 26:-0.33806 27:-0.392619 28:-0.257519 29:-0.303822 30:-0.497573 31:-0.185747 32:-0.155714 33:-0.709482 34:-0.694674 35:-0.270629 36:-0.23851 37:-0.479731 38:-0.602784 39:-0.396742 40:-0.467818 41:-0.522813 42:-0.671865 43:-0.889489 44:-0.727769 45:-0.679147 46:-0.543524 47:-0.482465 48:-0.650731 49:-0.763549 50:-0.64709 51:-0.639036 52:-0.587697 53:-0.798666 54:-0.579195 55:-0.547027 56:-0.635019 57:-0.600452 58:-0.486869 59:-0.589217 
-1639.642869439856 0 0 0:-0.751577 1:-0.51213 2:-0.460468 3:-0.203416 4:-0.746835 5:-0.583319 6:-0.35076 7:-0.611206 8:-0.415112 9:-0.225272 10:-0.88407 11:-0.233334 12:-0.625318 13:-0.305267 14:-0.314913 15:-0.207095 16:-0.368708 17:-0.538087 18:-0.525633 19:-0.321559 20:-0.612417 21:-0.609114 22:-0.350227 23:-0.372192 24:-0.433467 25:-0.013436 26:-0.461327 27:-0.458761 28:-0.0272815 29:-0.698251 30:-0.924033 31:-0.110553 32:-0.276739 33:-0.410307 34:-0.246467 35:-0.500267 36:-0.512837 37:-0.436671 38:-0.763782 39:-0.549065 40:-0.701447 41:-0.758968 42:-0.263917 43:-0.397327 44:-0.647356 45:-0.492391 46:-0.786583 47:-0.53134 48:-0.548713 49:-0.526478 50:-0.752901 51:-0.750766 52:-0.713147 53:-0.640179 54:-0.628033 55:-0.668037 56:-0.550368 57:-0.641489 58:-0.481809 59:-0.864424 
-2048 0 0 0:-0.672886 1:-0.462538 2:-0.611016 3:-0.310452 4:-0.60194 5:-0.25343 6:-0.276045 7:-0.537108 8:-0.785379 9:-0.320786 10:-0.403921 11:-0.10951 12:-0.700151 13:-0.638678 14:-0.669677 15:-0.590948 16:-0.500634 17:-0.435391 18:-0.834145 19:-0.0182669 20:-0.780946 21:-0.345061 22:-0.37875 23:-0.302653 24:-0.232774 25:-0.277625 26:-0.633739 27:-0.51701 28:-0.135356 29:-0.288244 30:-0.67893 31:-0.241432 32:-0.380175 33:-0.507447 34:-0.536929 35:-0.28953 36:-0.266994 37:-0.369964 38:-0.48199 39:-0.449196 40:-0.595987 41:-0.65813 42:-0.171339 43:-0.412815 44:-0.5656 45:-0.529032 46:-0.58019 47:-0.18217 48:-0.510511 49:-0.556985 50:-0.546049 51:-0.479331 52:-0.519209 53:-0.451394 54:-0.483942 55:-0.580246 56:-0.423589 57:-0.490731 58:-0.419041 59:-0.490352 
-661.3810098465336 0 0 0:-0.567343 1:-0.603743 2:-0.283049 3:-0.411603 4:-0.793378 5:-0.0714391 6:-0.514824 7:-0.486723 8:-0.390732 9:-0.152057 10:-0.5678 11:-0.174508 12:-0.573855 13:-0.230768 14:-0.444098 15:-0.456645 16:-0.643474 17:-0.415194 18:-0.643193 19:-0.178953 20:-0.299565 21:-0.466024 22:-0.148798 23:-0.280903 24:-0.720139 25:-0.200559 26:-0.235609 27:-0.413141 28:-0.313623 29:-0.0655827 30:-0.326133 31:-0.344813 32:-0.445914 33:-0.55372 34:-0.471829 35:-0.156424 36:-0.595735 37:-0.354537 38:-0.439943 39:-0.48944 40:-0.672965 41:-0.570549 42:-0.452685 43:-0.672353 44:-0.503287 45:-0.471707 46:-1 47:-0.276193 48:-0.542797 49:-0.647885 50:-0.910352 51:-0.535496 52:-0.540414 53:-0.559246 54:-0.457702 55:-0.450201 56:-0.585859 57:-0.816172 58:-0.443535 59:-0.514881 
-0 52.87157724143204 2048 0:-0.297114 1:-0.404882 2:-0.840163 3:-0.0327643 4:-0.599274 5:0.100438 6:-0.362007 7:-0.0319347 8:0.0536255 9:0.140061 10:0.361763 11:-0.205723 12:-0.509358 13:0.176023 14:-0.273835 15:-0.18544 16:0.117753 17:-0.225726 18:-0.190317 19:-0.0134548 20:-0.30572 21:-0.0883761 22:0.0219365 23:-0.115886 24:-0.0813511 25:-0.248338 26:-0.177152 27:0.0555069 28:-0.124651 29:-0.231796 30:-0.270169 31:0.00354082 32:-0.312781 33:-0.544041 34:-0.299397 35:0.080449 36:-0.020769 37:-0.402939 38:-0.546759 39:-0.477822 40:-0.141021 41:-0.656955 42:-0.213777 43:-0.534659 44:-0.361542 45:-0.129284 46:-0.487681 47:-0.0447601 48:-0.267187 49:-0.438593 50:-0.44572 51:-0.354521 52:-0.284815 53:-0.319476 54:-0.316906 55:-0.237803 56:-0.263318 57:-0.410641 58:-0.238633 59:-0.228753 
-0 0 428.6181994477772 0:-0.337419 1:-0.0834794 2:-0.192207 3:-0.173786 4:-0.379796 5:0.112201 6:-0.0348818 7:-0.281951 8:0.093012 9:-0.10033 10:-0.0520286 11:-0.284087 12:-0.0371114 13:-0.0910963 14:-0.503453 15:0.188987 16:0.0464641 17:-0.00514023 18:-0.505938 19:-0.0355125 20:-0.344068 21:-0.0805639 22:-0.148157 23:-0.0588448 24:0.0506764 25:-0.18097 26:-0.190589 27:-0.469249 28:-0.209224 29:0.129467 30:-0.13471 31:-0.127958 32:-0.0904863 33:-0.269791 34:-0.350885 35:0.0182914 36:-0.020636 37:-0.097424 38:-0.33775 39:-0.0604052 40:-0.0243539 41:-0.472581 42:-0.273507 43:-0.0762275 44:-0.129807 45:-0.00196712 46:-0.182843 47:0.047825 48:-0.0757833 49:-0.205432 50:-0.279039 51:-0.160311 52:-0.0671596 53:-0.208569 54:-0.0632283 55:-0.0833895 56:-0.107287 57:-0.145475 58:-0.0748919 59:-0.155205 
-324.1380440574201 0 0 0:0.0745817 1:-0.195758 2:-0.524327 3:-0.322107 4:-0.373135 5:-0.76225 6:-0.00935041 7:-0.142343 8:-0.631379 9:-0.117245 10:-0.237546 11:-0.137821 12:-0.430297 13:0.0788992 14:0.0207211 15:0.214406 16:-0.452787 17:-0.588698 18:-0.272878 19:-0.614322 20:-0.453559 21:-0.341323 22:-0.141477 23:-0.0588722 24:-0.0995106 25:-0.182956 26:-0.067349 27:-0.432539 28:-0.0765655 29:-0.00296649 30:-0.03562 31:-0.0104662 32:-0.0100612 33:-0.219808 34:-0.677918 35:0.0837422 36:-0.258227 37:-0.411323 38:-0.189958 39:-0.143646 40:-0.30128 41:-0.253557 42:-0.0462055 43:-0.210804 44:-0.22555 45:-0.204792 46:-0.112425 47:-0.0799227 48:-0.179247 49:-0.114588 50:-0.213401 51:-0.0919626 52:-0.208731 53:-0.180867 54:-0.0942762 55:-0.178 56:-0.177408 57:-0.141125 58:0.0362695 59:-0.117958 
-1914.46415751602 0 0 0:-0.337783 1:-0.439392 2:-0.511081 3:0.127455 4:-0.514419 5:0.126062 6:-0.322632 7:-0.39254 8:-0.466254 9:0.112044 10:-0.145271 11:-0.295111 12:-0.226571 13:-0.046217 14:-0.170167 15:-0.0894211 16:0.0562837 17:-0.123256 18:-0.733677 19:-0.0214665 20:-0.382582 21:-0.294272 22:0.144506 23:-0.254575 24:0.0617532 25:-0.267682 26:-0.192153 27:-0.363175 28:-0.161969 29:-0.509784 30:-0.150518 31:-0.294254 32:-0.0364343 33:-0.672367 34:-0.534753 35:-0.226584 36:-0.0177694 37:-0.5692 38:-0.394104 39:-0.57862 40:-0.379647 41:-0.521006 42:-0.377522 43:-0.631497 44:-0.481336 45:-0.366052 46:-0.734013 47:-0.288493 48:-0.475236 49:-0.472379 50:-0.910704 51:-0.855899 52:-0.618149 53:-0.675118 54:-0.509205 55:-0.606079 56:-0.713454 57:-0.619532 58:-0.372838 59:-0.508703 
-2048 0 0 0:-0.609419 1:-0.558095 2:-0.238764 3:0.012261 4:-0.603158 5:-0.636175 6:-0.303123 7:-0.258058 8:-0.523486 9:-0.212819 10:-0.420008 11:-0.224754 12:-0.244468 13:-0.350401 14:-0.569269 15:-0.443631 16:-0.822358 17:-1 18:-0.560907 19:-0.548478 20:-0.737323 21:-0.413952 22:-0.433738 23:-0.230154 24:-0.408851 25:-0.68762 26:-0.893113 27:-0.719135 28:-0.511056 29:-0.361018 30:-0.600753 31:-0.55224 32:-0.320751 33:-0.857772 34:-0.933519 35:-0.361955 36:-0.3929 37:-0.795104 38:-0.548956 39:-0.703962 40:-0.470997 41:-0.845495 42:-0.629167 43:-0.518342 44:-0.533323 45:-0.566756 46:-0.726149 47:-0.376984 48:-0.546316 49:-0.67015 50:-0.668438 51:-0.738016 52:-0.645243 53:-0.619913 54:-0.619917 55:-0.552414 56:-0.722519 57:-0.836621 58:-0.728352 59:-0.46536 
-2048 0 0 0:-0.718695 1:-0.396157 2:-0.577914 3:-0.397799 4:-0.539223 5:-0.211504 6:-0.580439 7:-0.671359 8:-0.285552 9:-0.174462 10:-0.618244 11:-0.495882 12:-0.436156 13:-0.621154 14:-0.672933 15:-0.573122 16:-0.352643 17:-0.494291 18:-0.586885 19:-0.284827 20:-0.382771 21:-0.340868 22:-0.316136 23:-0.481212 24:-0.188599 25:-0.11608 26:-0.389121 27:-0.367959 28:-0.523314 29:-0.631611 30:-0.476856 31:-0.372009 32:-0.447363 33:-0.53804 34:-1 35:-0.383828 36:-0.67414 37:-0.503724 38:-0.785658 39:-0.449508 40:-0.432521 41:-0.512913 42:-0.39333 43:-0.709163 44:-0.650825 45:-0.584338 46:-0.835642 47:-0.368598 48:-0.46686 49:-0.587611 50:-0.594559 51:-0.573132 52:-0.526355 53:-0.694923 54:-0.402339 55:-0.657785 56:-0.427259 57:-0.6244 58:-0.412654 59:-0.767472 
-2048 0 0 0:-0.00529512 1:0.467692 2:-0.314289 3:-0.167444 4:-0.512286 5:-0.313284 6:-0.405592 7:-0.458996 8:-0.215433 9:0.11334 10:-0.283592 11:-0.0525708 12:-0.436459 13:-0.146991 14:-0.293898 15:-0.100225 16:-0.360271 17:-0.450181 18:-0.527461 19:-0.368437 20:-0.319828 21:-0.41601 22:-0.254499 23:-0.518063 24:-0.28069 25:-0.444442 26:-0.712678 27:-0.211324 28:-0.0980128 29:-0.30448 30:-0.405223 31:-0.359592 32:-0.205466 33:-0.326066 34:-0.593393 35:-0.101595 36:-0.150659 37:-0.13113 38:-0.180629 39:-0.257218 40:-0.244669 41:-0.292948 42:-0.308138 43:-0.137096 44:-0.193522 45:-0.272098 46:-0.329845 47:0.0381097 48:-0.231694 49:-0.434925 50:-0.25542 51:-0.0911423 52:-0.235044 53:-0.199045 54:-0.0994198 55:-0.149443 56:-0.194223 57:-0.303496 58:-0.142905 59:-0.218738 
-2048 0 0 0:-0.46451 1:-0.286298 2:-0.413573 3:-0.380375 4:-0.918104 5:-0.316514 6:-0.609552 7:-0.56246 8:-0.320676 9:-0.252008 10:-0.4908 11:-0.336479 12:-0.574357 13:-0.485485 14:-0.889609 15:-0.434136 16:-0.809597 17:-0.883669 18:-0.423569 19:-0.331746 20:-0.582427 21:-0.538127 22:-0.249955 23:-0.581108 24:-0.500364 25:-0.531934 26:-0.512174 27:-0.237916 28:-0.449033 29:-0.474266 30:-0.590784 31:-0.762625 32:-0.442031 33:-0.894678 34:-0.561881 35:-0.454512 36:-0.719569 37:-0.589618 38:-0.56667 39:-0.674942 40:-0.556845 41:-0.654688 42:-0.642854 43:-0.8429 44:-0.662226 45:-0.871313 46:-0.668118 47:-0.425214 48:-0.787671 49:-0.788831 50:-0.898512 51:-0.759777 52:-0.914079 53:-0.720303 54:-0.69804 55:-0.770245 56:-0.67548 57:-1 58:-0.640159 59:-0.594472 
-2048 0 0 0:-0.112646 1:-0.218682 2:-0.261367 3:-0.221845 4:-0.587804 5:-0.623651 6:-0.780503 7:-0.77468 8:-0.174845 9:-0.00266447 10:-0.453622 11:-0.600207 12:-0.250987 13:-0.373473 14:-0.651108 15:-0.452898 16:-0.31069 17:-0.571625 18:-0.564472 19:-0.286293 20:-0.549801 21:-0.323313 22:-0.390395 23:-0.686928 24:-0.684208 25:-0.173116 26:-0.67166 27:-0.568889 28:-0.479712 29:-0.481362 30:-0.539236 31:-0.371917 32:-0.344608 33:-0.524644 34:-0.846037 35:-0.318084 36:-0.153564 37:-0.324685 38:-0.425367 39:-0.791505 40:-0.54616 41:-0.468245 42:-0.376512 43:-0.688608 44:-0.400287 45:-0.514506 46:-0.408216 47:-0.0818527 48:-0.483898 49:-0.527737 50:-0.510887 51:-0.524395 52:-0.517812 53:-0.502152 54:-0.357282 55:-0.370702 56:-0.521013 57:-0.531724 58:-0.434839 59:-0.375211 
-1382.709377640383 0 0 0:-0.162957 1:-0.664857 2:-0.789021 3:-0.566159 4:-0.547336 5:-0.19633 6:-0.544836 7:-0.225705 8:-0.447292 9:0.0803537 10:-0.107989 11:-0.49643 12:-0.698248 13:-0.571716 14:-0.412827 15:-0.524139 16:-0.474701 17:-0.126702 18:-0.271488 19:-0.279215 20:-0.625174 21:-0.44756 22:-0.180027 23:0.0169306 24:-0.175928 25:-0.397659 26:-0.384895 27:-0.424903 28:-0.315912 29:-0.182856 30:-0.138691 31:-0.33182 32:-0.490831 33:-0.712648 34:-0.529764 35:-0.447771 36:-0.124366 37:-0.455089 38:-0.444024 39:-0.451233 40:-0.343115 41:-0.546151 42:-0.193083 43:-0.324355 44:-0.335391 45:-0.313075 46:-0.306716 47:-0.064865 48:-0.144969 49:-0.304056 50:-0.371318 51:-0.203221 52:-0.250473 53:-0.297215 54:-0.217554 55:-0.169033 56:-0.29396 57:-0.329939 58:-0.176839 59:-0.236955 
-2048 0 0 0:-0.574418 1:-0.701414 2:-0.666372 3:-0.226146 4:-0.531415 5:-0.0255815 6:-0.893997 7:-0.300672 8:-0.225687 9:-0.371596 10:-0.320802 11:-0.127327 12:-0.276135 13:-0.533266 14:-0.44215 15:-0.420336 16:-0.0969419 17:-0.343295 18:-0.460369 19:-0.274026 20:-0.590647 21:-0.642019 22:-0.103157 23:-0.511145 24:-0.479113 25:-0.595245 26:-0.533533 27:-0.386123 28:-0.320259 29:-0.468459 30:-0.33269 31:-0.466445 32:-0.68401 33:-0.650905 34:-0.867247 35:-0.469404 36:-0.377192 37:-0.591001 38:-0.83483 39:-0.715979 40:-0.508604 41:-0.735261 42:-0.65961 43:-0.851904 44:-1 45:-0.556326 46:-0.647241 47:-0.620669 48:-1 49:-0.712147 50:-0.928597 51:-0.671814 52:-0.941808 53:-1 54:-0.594808 55:-0.685423 56:-0.851335 57:-0.923731 58:-0.657976 59:-1 
-734.1582143188375 0 0 0:-0.643504 1:-0.555769 2:-0.87433 3:-0.558661 4:-0.483688 5:-0.235674 6:-0.311384 7:-0.766424 8:-0.318985 9:-0.444884 10:-0.249417 11:-0.0731149 12:-0.286024 13:-0.535064 14:-0.457904 15:-0.55675 16:-0.362227 17:-0.407492 18:-0.489976 19:0.0401281 20:-0.506359 21:-0.802319 22:-0.340057 23:-0.333052 24:-0.448021 25:-0.388291 26:-0.425953 27:-0.476681 28:-0.619468 29:-0.578006 30:-0.700344 31:-0.309096 32:-0.506767 33:-0.948565 34:-0.661739 35:-0.442684 36:-0.435309 37:-0.619993 38:-0.73392 39:-1 40:-0.553078 41:-0.59502 42:-0.440452 43:-0.607195 44:-0.651016 45:-1 46:-0.509123 47:-0.441387 48:-0.372202 49:-0.618737 50:-0.445512 51:-0.574928 52:-0.569684 53:-0.660801 54:-0.663266 55:-0.748408 56:-0.639457 57:-0.633023 58:-0.389754 59:-0.651909 
-1530.691960832515 0 0 0:-0.437262 1:-0.49212 2:-0.524751 3:-0.35302 4:-0.617983 5:-0.981181 6:-0.569614 7:-0.189204 8:-0.628518 9:-0.218497 10:-0.146588 11:-0.279011 12:-0.293542 13:-0.00793185 14:-0.414093 15:-0.0922213 16:-0.777979 17:-0.502579 18:-0.313542 19:-0.420219 20:-0.437284 21:-0.242317 22:-0.221556 23:-0.105905 24:-0.293972 25:-0.378085 26:-0.460793 27:-0.275278 28:-0.112732 29:-0.579989 30:-0.492165 31:-0.292483 32:-0.361827 33:-0.640605 34:-0.801231 35:-0.42581 36:-0.483213 37:-0.537112 38:-0.725556 39:-0.513141 40:-0.440364 41:-0.725626 42:-0.688316 43:-0.382947 44:-0.498772 45:-0.463848 46:-0.530836 47:-0.297459 48:-0.452232 49:-0.65009 50:-0.737229 51:-0.553966 52:-0.538825 53:-0.548632 54:-0.599727 55:-0.56976 56:-0.538331 57:-0.666635 58:-0.389255 59:-0.586178 
-2048 0 0 0:-0.431662 1:0.0649919 2:-0.467116 3:-0.228912 4:-0.250263 5:-0.937953 6:-0.582518 7:-0.483621 8:-0.536543 9:-0.207403 10:-0.41357 11:-0.367882 12:-0.807635 13:0.0591188 14:-0.761296 15:-0.219829 16:-0.424125 17:-0.363502 18:-0.263746 19:-0.183562 20:-0.3485 21:-0.758446 22:-0.107718 23:-0.45426 24:-0.94699 25:-0.29893 26:-0.369748 27:-0.742784 28:-0.307012 29:-0.181512 30:-0.688885 31:-0.620465 32:-0.317289 33:-0.511357 34:-0.607109 35:-0.31096 36:-0.591761 37:-0.511464 38:-0.708694 39:-0.712743 40:-0.71584 41:-0.6246 42:-0.578455 43:-0.754049 44:-0.630726 45:-0.410908 46:-0.668984 47:-0.331205 48:-0.843939 49:-0.518948 50:-0.630895 51:-0.717209 52:-0.765951 53:-0.834429 54:-0.530092 55:-0.702688 56:-0.628355 57:-0.755681 58:-0.537838 59:-0.49888 
-1499.597551123038 0 0 0:-0.69503 1:-0.563621 2:-0.592853 3:-0.107824 4:-0.278529 5:-0.296189 6:-0.560206 7:-0.177833 8:-0.250838 9:-0.367699 10:-0.20765 11:0.0195518 12:-0.944313 13:-0.214677 14:-0.591776 15:-0.200658 16:-0.520539 17:-0.254237 18:-0.239911 19:-0.227818 20:-0.84462 21:-0.513087 22:-0.294877 23:-0.151244 24:-0.388905 25:-0.640638 26:-0.601577 27:-0.525897 28:-0.428066 29:-0.45033 30:-0.58608 31:-0.250102 32:-0.316293 33:-0.691144 34:-0.738661 35:-0.266831 36:-0.53973 37:-0.512789 38:-0.593882 39:-0.557062 40:-1 41:-1 42:-0.544806 43:-0.664256 44:-0.575135 45:-0.555717 46:-0.608223 47:-1 48:-0.70885 49:-0.849728 50:-0.747607 51:-0.501344 52:-0.66075 53:-0.920954 54:-0.726558 55:-0.655243 56:-0.709501 57:-0.833586 58:-0.480217 59:-0.588942 
-2048 0 0 0:-0.129427 1:-0.0761879 2:-0.610861 3:-0.428561 4:-0.468743 5:-0.577781 6:-0.646722 7:-0.661758 8:-0.684961 9:-0.103648 10:-0.466654 11:-0.239423 12:-0.738513 13:-0.533745 14:-0.880523 15:-0.368506 16:-0.719994 17:-0.351324 18:-0.505775 19:-0.226889 20:-0.527622 21:-0.564096 22:-0.287249 23:-0.749542 24:-0.463582 25:-0.266372 26:-0.823197 27:-0.716485 28:-0.283882 29:-0.293612 30:-0.827691 31:-0.389354 32:-0.877772 33:-0.845084 34:-0.49733 35:-0.298232 36:-0.604641 37:-0.513265 38:-0.80241 39:-0.577665 40:-0.448745 41:-0.665077 42:-0.617917 43:-0.62579 44:-0.447386 45:-0.630474 46:-0.42881 47:-0.348372 48:-0.461645 49:-0.74694 50:-0.672678 51:-0.606692 52:-0.489722 53:-0.628527 54:-0.637669 55:-0.475558 56:-0.59886 57:-0.536739 58:-0.505948 59:-0.486193 
-2048 0 0 0:-0.867865 1:-0.573186 2:-0.685994 3:-0.788024 4:-0.836712 5:-0.447317 6:-0.379774 7:-0.596711 8:-0.49313 9:-0.354045 10:-0.729368 11:-0.530468 12:-0.594073 13:-0.410609 14:-0.974271 15:-0.696656 16:-0.697258 17:-0.722041 18:-0.468194 19:-0.330318 20:-0.732972 21:-0.433544 22:-0.478477 23:-0.715834 24:-1 25:-0.489894 26:-0.327104 27:-0.428342 28:-0.25942 29:-0.494141 30:-0.475395 31:-0.381326 32:-0.286197 33:-0.57734 34:-0.463087 35:-0.032277 36:-0.256346 37:-0.403428 38:-0.670696 39:-0.547177 40:-0.532631 41:-0.679938 42:-0.58637 43:-0.465048 44:-0.469675 45:-0.478735 46:-0.595516 47:-0.203285 48:-0.524643 49:-0.684796 50:-0.661992 51:-0.469609 52:-0.750455 53:-0.777906 54:-0.800869 55:-0.485345 56:-0.890559 57:-0.688811 58:-0.542208 59:-0.564633 
-2048 0 0 0:-0.683731 1:-0.344156 2:-0.572446 3:-0.411173 4:-0.512607 5:-0.226811 6:-0.807412 7:-0.526846 8:-0.419475 9:-0.129194 10:-0.4737 11:-0.306271 12:-0.721068 13:-0.558162 14:-0.702944 15:-0.717558 16:-0.680611 17:-0.522873 18:-0.790943 19:-0.169757 20:-0.853452 21:-0.445669 22:-0.4788 23:-0.49355 24:-0.462248 25:-0.637549 26:-0.752227 27:-0.444722 28:-0.547668 29:-0.220864 30:-0.628287 31:-0.309759 32:-0.453238 33:-0.606013 34:-0.681877 35:-0.0902094 36:-0.324792 37:-0.310998 38:-0.385148 39:-0.582101 40:-0.59878 41:-0.608523 42:-0.46957 43:-0.539812 44:-0.551407 45:-0.748086 46:-0.495899 47:-0.400324 48:-0.558922 49:-0.82398 50:-0.580775 51:-0.602405 52:-0.537105 53:-0.43709 54:-0.460774 55:-0.557314 56:-0.516287 57:-0.671999 58:-0.516502 59:-0.626598 
-1428.553517539024 0 0 0:-0.67322 1:-0.903934 2:-0.67743 3:-0.571143 4:-1 5:-0.603004 6:-0.951496 7:-0.658538 8:-0.25129 9:-0.205866 10:-0.478188 11:-0.36435 12:-1 13:-0.725542 14:-0.739813 15:-0.530133 16:-0.7212 17:-0.712461 18:-0.747684 19:-0.413203 20:-0.854641 21:-0.676782 22:-0.386569 23:-0.564821 24:-0.681831 25:-0.311338 26:-0.548946 27:-0.708414 28:-0.332721 29:-0.464523 30:-0.571654 31:-0.758432 32:-0.499307 33:-0.690427 34:-0.668621 35:-0.52242 36:-0.395713 37:-0.592301 38:-0.524993 39:-0.455762 40:-0.983679 41:-0.630586 42:-0.62702 43:-0.512291 44:-0.521165 45:-0.613485 46:-0.747278 47:-0.528791 48:-0.571995 49:-0.664471 50:-0.603013 51:-0.592258 52:-0.642037 53:-0.649292 54:-0.460452 55:-0.493768 56:-0.59079 57:-0.801893 58:-0.601595 59:-0.549387 
-570.1088663503846 0 0 0:-0.454353 1:-0.447462 2:-0.439516 3:-0.501715 4:-0.259546 5:-0.509563 6:-0.509341 7:-0.205406 8:-0.370797 9:0.0338511 10:-0.584984 11:-0.274643 12:-0.309292 13:-0.381283 14:-0.594138 15:-0.379947 16:-0.884949 17:-0.602889 18:-0.745037 19:-0.0380985 20:-0.347332 21:-0.43379 22:-0.148076 23:0.0163284 24:0.0785758 25:0.0268789 26:-1 27:-0.284973 28:-0.348195 29:-0.333101 30:-0.350894 31:-0.495227 32:-0.207335 33:-0.380404 34:-0.323946 35:-0.327119 36:-0.219208 37:-0.409981 38:-0.718582 39:-0.471453 40:-0.554709 41:-0.486344 42:-0.225336 43:-0.3136 44:-0.445398 45:-0.532164 46:-0.245146 47:-0.0587056 48:-0.163549 49:-0.401459 50:-0.479323 51:-0.379289 52:-0.395355 53:-0.550835 54:-0.287444 55:-0.340879 56:-0.570243 57:-0.376993 58:-0.352649 59:-0.265694 
-2048 0 0 0:-0.641414 1:-0.5101 2:-0.562342 3:-0.0861244 4:-0.431508 5:-0.948234 6:-0.686214 7:-0.406466 8:-0.254921 9:-0.402932 10:-0.281442 11:-0.0190136 12:-0.710239 13:-0.154378 14:-0.70576 15:-0.383408 16:-0.701833 17:-0.49003 18:-0.595894 19:0.00303377 20:-0.535156 21:-0.302428 22:-0.184736 23:-0.122126 24:-0.445269 25:-0.243989 26:-0.240317 27:-0.318667 28:-0.210962 29:-0.175419 30:-0.29885 31:-0.0747925 32:-0.177501 33:-0.754589 34:-0.798661 35:-0.15809 36:-0.216812 37:-0.638077 38:-0.247705 39:-0.272297 40:-0.470043 41:-0.487783 42:-0.303606 43:-0.519057 44:-0.897638 45:-0.524944 46:-0.565171 47:-0.304735 48:-0.652288 49:-0.5762 50:-0.649562 51:-0.502733 52:-0.82211 53:-0.97093 54:-0.929731 55:-0.889615 56:-0.875955 57:-0.669494 58:-0.636051 59:-0.648795 
-2024.978635888371 0 0 0:-0.553489 1:-0.740828 2:-0.428047 3:-0.401773 4:-0.342184 5:-0.315645 6:-0.529499 7:-0.581093 8:-0.25128 9:-0.259745 10:-0.173269 11:0.0349555 12:-0.573341 13:-0.223559 14:-0.780123 15:-0.354387 16:-0.436136 17:-0.531524 18:-0.530758 19:-0.0356353 20:-0.571736 21:-0.688079 22:-0.514692 23:-0.765756 24:-0.213145 25:-0.154787 26:-0.218894 27:-0.395136 28:-0.272683 29:0.0430203 30:-0.300362 31:-0.478889 32:-0.420621 33:-0.427777 34:-0.416087 35:-0.0631015 36:-0.18996 37:-0.808059 38:-0.315339 39:-0.664173 40:-0.460887 41:-0.730118 42:-0.449905 43:-0.440596 44:-0.562827 45:-0.532833 46:-0.638879 47:-0.521594 48:-0.516771 49:-0.59943 50:-0.900421 51:-0.72005 52:-0.708925 53:-0.585769 54:-0.448535 55:-0.595499 56:-0.669778 57:-0.993542 58:-0.4982 59:-0.597981 
-2048 0 0 0:-0.61638 1:-0.512638 2:-0.81413 3:-0.256244 4:-0.613622 5:-0.300334 6:-0.546749 7:-0.353734 8:-0.427816 9:-0.211501 10:-0.442394 11:-0.195251 12:-0.657525 13:-0.459327 14:-0.873688 15:-0.349637 16:-0.422089 17:-0.340568 18:-0.368425 19:-1 20:-0.613087 21:-0.918284 22:-0.157272 23:-0.315554 24:-0.23679 25:-0.502067 26:-0.439613 27:-0.480031 28:-0.155816 29:-0.105547 30:-0.401355 31:-0.376528 32:-0.421871 33:-0.261803 34:-0.458817 35:-0.0399056 36:-0.197821 37:-0.376512 38:-0.397691 39:-0.43179 40:-0.35441 41:-0.548792 42:-0.284149 43:-0.444171 44:-0.49918 45:-0.590122 46:-0.517505 47:-0.582072 48:-0.525014 49:-0.684358 50:-0.50293 51:-0.989905 52:-0.576299 53:-0.584764 54:-0.836106 55:-0.63835 56:-0.7221 57:-0.844485 58:-0.488254 59:-0.582842 
-405.3421599258584 0 0 0:-0.576362 1:-0.539215 2:-0.849944 3:-0.488749 4:-0.377723 5:-0.304977 6:-0.425541 7:-0.693186 8:-0.51908 9:-1 10:-0.357404 11:-0.422041 12:-0.411397 13:-0.367604 14:-0.575387 15:-0.402513 16:-0.672291 17:-0.179639 18:-0.38835 19:-0.187269 20:-0.634556 21:-0.598865 22:-0.318128 23:-0.252634 24:-0.377458 25:-0.333969 26:-0.371424 27:-0.0366157 28:-0.497104 29:-0.249007 30:-0.319401 31:-0.502387 32:-0.131428 33:-0.366098 34:-0.552997 35:-0.1903 36:-0.392229 37:-0.556355 38:-0.32447 39:-0.488874 40:-0.269688 41:-0.564461 42:-0.342403 43:-0.222772 44:-0.70021 45:-0.377378 46:-0.331114 47:-0.16007 48:-0.340666 49:-0.505626 50:-0.426797 51:-0.364991 52:-0.498397 53:-0.516241 54:-0.504019 55:-0.472281 56:-0.448606 57:-0.514274 58:-0.305679 59:-0.451558 
-0 0 1358.606051665568 0:-0.28173 1:-0.150933 2:-0.277472 3:-0.12089 4:-0.413905 5:0.2947 6:-0.301412 7:-0.182591 8:0.209489 9:0.173998 10:0.222622 11:-0.664408 12:-0.00267604 13:0.0341856 14:-0.766035 15:-0.12467 16:-0.0325589 17:-0.0586632 18:-0.0415382 19:0.10776 20:-0.175119 21:-0.0631469 22:-0.058469 23:0.0937832 24:0.18858 25:-0.381125 26:-0.136974 27:0.159977 28:-0.249216 29:0.0412637 30:-0.199809 31:-0.288142 32:0.310443 33:-0.433917 34:-0.51724 35:-0.231522 36:-0.277497 37:-0.491049 38:-0.239571 39:-0.120479 40:-0.225707 41:-0.219203 42:-0.448415 43:-0.289015 44:-0.63998 45:-0.253942 46:-0.290099 47:-0.130223 48:-0.332672 49:-0.33878 50:-0.226974 51:-0.300445 52:-0.363295 53:-0.279749 54:-0.227097 55:-0.351582 56:-0.37194 57:-0.243294 58:-0.255139 59:-0.198976 
-0 0 2048 0:-0.45166 1:-0.363682 2:-0.358294 3:-0.0265282 4:-0.25962 5:-0.15809 6:-0.387544 7:0.0744872 8:-0.105695 9:0.0974493 10:-0.28398 11:-0.097234 12:-0.0416528 13:0.226929 14:-0.365951 15:-0.0724511 16:0.181199 17:-0.0614756 18:-0.373952 19:-0.0352841 20:-0.363815 21:-0.109393 22:0.0457899 23:-0.293324 24:-0.279517 25:-0.0463594 26:-0.385111 27:0.0407264 28:-0.187285 29:0.16475 30:-0.0601861 31:-0.133976 32:-0.0795622 33:-0.368595 34:-0.502037 35:-0.247009 36:-0.110639 37:-0.252226 38:-0.272367 39:-0.477845 40:-0.546756 41:-0.428561 42:-0.264851 43:-0.319273 44:-0.499944 45:-0.377165 46:-0.592505 47:-0.0382961 48:-0.415033 49:-0.681092 50:-0.552575 51:-0.50775 52:-0.590087 53:-0.493103 54:-0.385325 55:-0.400538 56:-0.437951 57:-0.592676 58:-0.51382 59:-0.44242 
-0 757.1458346789635 2048 0:-0.553264 1:-0.925544 2:-0.495761 3:-0.0612626 4:-0.0518252 5:-0.0384123 6:-0.302143 7:0.153722 8:-0.250711 9:0.32532 10:0.0542126 11:0.0647278 12:-0.063454 13:-0.159485 14:-0.14203 15:0.0475323 16:-0.12138 17:-0.134646 18:0.10414 19:-0.0540389 20:0.00439284 21:0.083222 22:0.0812709 23:-0.00250673 24:0.080957 25:0.27902 26:-0.277272 27:-0.0277239 28:-0.0202536 29:0.0382846 30:-0.395972 31:-0.0146923 32:-0.0667738 33:-0.510307 34:-0.274194 35:-0.0748707 36:-0.353778 37:-0.439992 38:-0.303039 39:-0.331156 40:-0.331125 41:-0.588361 42:-0.372868 43:-0.609579 44:-0.53576 45:-0.581712 46:-0.533005 47:-0.319865 48:-0.51965 49:-0.474332 50:-0.614251 51:-0.526796 52:-0.677447 53:-0.706678 54:-0.558225 55:-0.627655 56:-0.515549 57:-0.57403 58:-0.331991 59:-0.495496 
-651.5033843484955 0 117.8950621621481 0:-0.575735 1:-0.690376 2:-0.36993 3:-0.683849 4:0.064511 5:-0.394057 6:-0.33822 7:-0.0835402 8:-0.134257 9:0.055531 10:-0.0675864 11:-0.0490546 12:-0.138172 13:-0.00308321 14:-0.0475257 15:0.131712 16:-0.0454322 17:-0.0830981 18:-0.170845 19:0.133655 20:-0.724545 21:-0.278438 22:0.223717 23:-0.0145402 24:-0.0934938 25:-0.629495 26:-0.205978 27:0.0320538 28:-0.0499073 29:-0.200598 30:-0.216377 31:-0.573193 32:-0.252976 33:-0.360778 34:-0.443777 35:-0.286493 36:-0.20994 37:-0.334942 38:-0.350035 39:-0.882723 40:-0.454186 41:-0.650052 42:-0.309533 43:-0.449292 44:-0.740621 45:-0.495198 46:-0.602329 47:-0.133118 48:-0.480676 49:-0.85066 50:-0.649439 51:-0.672646 52:-0.796766 53:-0.855159 54:-0.833815 55:-0.625926 56:-0.762614 57:-0.818849 58:-0.899714 59:-0.47437 
-0 0 1387.842535696527 0:-0.731036 1:-0.719495 2:-0.379855 3:0.0441301 4:-0.397353 5:-0.247412 6:-0.426042 7:-0.0818225 8:0.0751243 9:0.134117 10:0.0296499 11:0.00983883 12:0.0822714 13:-0.235543 14:-0.203568 15:-0.0509173 16:-0.119742 17:0.0872696 18:-0.420815 19:0.165877 20:-0.243002 21:0.140764 22:0.167182 23:0.240903 24:-0.0513265 25:0.0274854 26:-0.35124 27:0.028766 28:0.0165294 29:0.0385387 30:-0.172693 31:-0.19498 32:-0.0295811 33:-0.497214 34:-0.400609 35:-0.19819 36:-0.303947 37:-0.302571 38:-0.523328 39:-0.458885 40:-0.62875 41:-0.373386 42:-0.565214 43:-0.516515 44:-0.51372 45:-0.59355 46:-0.617267 47:-0.22167 48:-0.783279 49:-0.799135 50:-0.815719 51:-0.471675 52:-0.445223 53:-0.570072 54:-0.59324 55:-0.620488 56:-0.565637 57:-0.919945 58:-0.348378 59:-0.628787 
-0 0 2048 0:-0.525767 1:-0.489143 2:-0.368422 3:0.0773086 4:-0.33179 5:-0.436346 6:-0.151393 7:0.088559 8:-0.136039 9:0.0542947 10:-0.253135 11:-0.322917 12:-0.488124 13:-0.0515883 14:-0.231086 15:0.0815099 16:0.30787 17:-0.585283 18:-0.078694 19:0.116613 20:-0.262355 21:0.120165 22:0.187072 23:0.149746 24:0.261028 25:0.154573 26:0.0986362 27:-0.116392 28:-0.254239 29:-0.0851677 30:-0.197688 31:-0.0616935 32:-0.139642 33:-0.163708 34:-0.314681 35:-0.0718997 36:-0.187647 37:-0.361429 38:-0.214216 39:-0.198871 40:-0.469038 41:-0.47012 42:-0.360014 43:-0.449807 44:-0.257555 45:-0.462767 46:-0.391327 47:-0.193714 48:-0.419811 49:-0.595217 50:-0.516749 51:-0.386226 52:-0.491287 53:-0.46586 54:-0.597005 55:-0.502712 56:-0.610447 57:-0.501055 58:-0.469737 59:-0.454325 
-2048 2006.920425492432 2048 0:0.123951 1:0.860238 2:0.079193 3:0.439913 4:-0.0159697 5:-0.0907997 6:-0.0532451 7:-0.253793 8:-0.0977584 9:-0.0564906 10:-0.165757 11:-0.169177 12:-0.0676181 13:-0.0090595 14:-0.0231067 15:-0.21272 16:-0.231126 17:-0.0631392 18:-0.00543928 19:-0.0224217 20:-0.143808 21:-0.241545 22:0.030734 23:0.2852 24:0.259243 25:0.139082 26:-0.019134 27:-0.194472 28:0.172394 29:0.236972 30:0.250029 31:0.335276 32:0.626251 33:0.287992 34:0.297423 35:0.485817 36:0.457048 37:0.302064 38:0.338652 39:0.397356 40:0.369329 41:0.326959 42:0.445135 43:0.412988 44:0.422934 45:0.453484 46:0.454645 47:0.558464 48:0.456706 49:0.373913 50:0.432319 51:0.453474 52:0.415175 53:0.399228 54:0.442612 55:0.45523 56:0.423679 57:0.429257 58:0.500485 59:0.494032 
-0 0 938.6372731782659 0:-0.479667 1:-0.454238 2:-0.545859 3:-0.332601 4:-0.23361 5:-0.17411 6:0.0859081 7:0.165324 8:-0.12364 9:-0.0709014 10:-0.0452581 11:-0.00834731 12:-0.27924 13:-0.0565422 14:-0.47506 15:-0.0803966 16:-0.432885 17:0.179146 18:-0.431427 19:0.144714 20:-0.303764 21:-0.0778606 22:0.0603934 23:0.0829045 24:0.148406 25:-0.0512387 26:-0.146419 27:-0.0922094 28:0.181292 29:-0.186601 30:-0.0810375 31:-0.359759 32:0.132524 33:-0.219193 34:-0.315838 35:-0.0454167 36:-0.260157 37:-0.301047 38:-0.432642 39:-0.221468 40:-0.262309 41:-0.718377 42:-0.171923 43:-0.440219 44:-0.383839 45:-0.238597 46:-0.349902 47:-0.423743 48:-0.354141 49:-0.391167 50:-0.424049 51:-0.439791 52:-0.366869 53:-0.347292 54:-0.21236 55:-0.241048 56:-0.456398 57:-0.36012 58:-0.206063 59:-0.321836 
-0 103.6893271349226 2048 0:-0.537774 1:-0.651392 2:-0.323952 3:-0.370291 4:-0.257774 5:0.0596149 6:-0.114476 7:-0.218616 8:-0.100353 9:0.126198 10:0.0409738 11:-0.297549 12:0.128772 13:0.0893517 14:-0.208257 15:0.0289607 16:-0.0119389 17:-0.306216 18:0.0551384 19:0.237059 20:-0.0296054 21:-0.4021 22:-0.168018 23:-0.251432 24:0.0572301 25:-0.332173 26:0.0826984 27:-0.186203 28:-0.0955524 29:-0.251908 30:-0.142113 31:-0.0591827 32:-0.306042 33:-0.201265 34:-0.404983 35:-0.0200849 36:-0.225838 37:-0.347039 38:-0.34474 39:-0.271923 40:-0.356849 41:-0.485996 42:-0.207196 43:-0.550431 44:-0.828908 45:-0.372258 46:-0.689007 47:-0.175785 48:-0.663895 49:-0.616671 50:-0.52908 51:-0.489543 52:-0.70842 53:-0.575304 54:-0.455986 55:-0.617937 56:-0.48452 57:-0.818253 58:-0.423988 59:-0.588234 
-0 -0 1.899213532895078 0:0.362032 1:0.288244 2:0.271369 3:0.298795 4:0.236163 5:0.960564 6:0.584242 7:0.617127 8:0.580108 9:0.793555 10:0.194151 11:0.457103 12:0.708957 13:0.719623 14:0.953465 15:0.810467 16:0.749798 17:0.826763 18:0.717735 19:0.85021 20:1 21:1 22:0.822098 23:0.544348 24:0.473003 25:0.653017 26:0.577828 27:0.706378 28:0.412928 29:0.464537 30:0.487028 31:0.534661 32:0.690516 33:0.0338555 34:0.269304 35:0.451262 36:0.613292 37:0.165478 38:0.410006 39:0.28867 40:0.195715 41:0.100019 42:0.0938099 43:0.4612 44:0.233756 45:0.29315 46:0.110829 47:0.139282 48:0.230594 49:-0.0308008 50:-0.0402758 51:0.253919 52:0.131256 53:-0.0778123 54:0.186373 55:-0.101817 56:0.00593857 57:-0.144209 58:0.155411 59:0.100393 
-0 -0 609.8216009245242 0:0.0593977 1:0.354793 2:0.337612 3:0.388856 4:-0.0911602 5:0.277591 6:0.171011 7:0.625563 8:0.547681 9:0.717518 10:0.476569 11:0.53424 12:0.247905 13:0.776494 14:0.351168 15:0.704171 16:0.565838 17:0.340006 18:0.715467 19:0.535153 20:0.616224 21:0.193935 22:0.429627 23:0.715153 24:0.414384 25:0.610465 26:0.452996 27:0.383562 28:0.727172 29:0.438081 30:0.661017 31:0.748583 32:0.569701 33:0.501356 34:0.146419 35:0.473422 36:0.170621 37:0.0975637 38:0.183995 39:0.388388 40:0.168936 41:-0.0261853 42:0.356626 43:0.187471 44:0.141693 45:0.164976 46:0.292991 47:0.184993 48:0.251536 49:0.0835625 50:0.146794 51:0.0685295 52:-0.259592 53:-0.226442 54:0.119308 55:-0.0521803 56:-0.00717229 57:-0.187468 58:0.0305593 59:-0.0381298 
-0 -0 102.4930127977428 0:0.834028 1:0.774455 2:1 3:0.291224 4:1 5:0.447499 6:1 7:0.326569 8:0.795609 9:0.736992 10:0.689014 11:0.157163 12:0.746769 13:1 14:0.306763 15:0.72965 16:0.599051 17:0.443449 18:0.399021 19:0.867494 20:0.89519 21:0.453718 22:0.386676 23:0.47976 24:0.96673 25:0.558161 26:0.419891 27:0.549145 28:0.658743 29:0.414578 30:0.750081 31:0.68736 32:0.707101 33:0.855445 34:0.683658 35:0.922441 36:0.672949 37:0.590858 38:0.659838 39:0.651919 40:0.651867 41:0.475386 42:0.657943 43:0.448233 44:0.362594 45:0.594016 46:0.406502 47:0.650899 48:0.545489 49:0.427022 50:0.529397 51:0.543304 52:0.586453 53:0.53293 54:0.550438 55:0.593744 56:0.497988 57:0.510744 58:0.572713 59:0.540287 
-0 -0 1442.93234789474 0:0.300038 1:0.584463 2:0.120345 3:0.0766631 4:0.0346828 5:0.432702 6:0.422623 7:0.662404 8:0.731645 9:0.713513 10:0.811964 11:0.625638 12:0.332568 13:0.637604 14:0.157988 15:0.325622 16:0.382004 17:0.595696 18:0.519363 19:0.601931 20:0.11993 21:0.301881 22:0.436414 23:0.722941 24:0.628344 25:0.250608 26:0.43871 27:0.43167 28:0.725468 29:0.557022 30:0.630156 31:-0.282813 32:0.519191 33:0.278315 34:0.446064 35:0.460586 36:0.468963 37:0.358581 38:0.263866 39:0.130387 40:0.212214 41:-0.169956 42:0.0338446 43:0.181089 44:0.0552597 45:-0.0854433 46:0.00201696 47:0.0066481 48:0.12036 49:0.101046 50:0.0476763 51:0.0202259 52:0.0460346 53:-0.107305 54:0.0292549 55:0.0341339 56:0.039084 57:-0.0986761 58:0.0668676 59:-0.00961196 
-0 -0 1945.283454701603 0:-0.211905 1:-0.444484 2:-0.306988 3:0.0721323 4:0.0121613 5:0.346901 6:0.316588 7:0.532968 8:0.0507498 9:0.747648 10:0.420895 11:0.331057 12:0.402151 13:0.45168 14:0.121299 15:0.551134 16:0.654906 17:0.234016 18:0.440766 19:0.50632 20:0.426094 21:0.615126 22:0.488073 23:0.548254 24:0.59485 25:0.298551 26:0.490999 27:0.438287 28:0.501546 29:0.517535 30:0.310299 31:0.112521 32:0.511558 33:0.267878 34:0.39295 35:0.649591 36:0.197557 37:-0.127238 38:0.0116619 39:0.135186 40:0.208303 41:-0.0267735 42:0.0952094 43:0.163945 44:-0.0453022 45:-0.031128 46:-0.0274603 47:0.369626 48:0.0153043 49:-0.0377658 50:0.106869 51:-0.192654 52:0.0672276 53:-0.102067 54:0.019096 55:-0.0150711 56:-0.0116032 57:-0.022203 58:0.0885119 59:-0.026478 
-0 -0 2048 0:-0.220901 1:-0.436643 2:-0.467065 3:-0.0214119 4:0.174614 5:0.193284 6:0.196082 7:0.452837 8:0.680001 9:0.487878 10:0.603887 11:0.451104 12:0.418777 13:0.58521 14:0.35317 15:0.460303 16:0.741392 17:0.17532 18:0.372792 19:0.669055 20:0.582066 21:0.0134008 22:0.43002 23:0.386517 24:0.455324 25:0.398073 26:0.507235 27:0.13401 28:0.26783 29:0.467338 30:-0.00137871 31:0.52424 32:0.237864 33:0.317619 34:0.297176 35:0.241558 36:0.196444 37:-0.0102584 38:0.163648 39:0.298116 40:-0.0698501 41:0.0274095 42:0.0194736 43:-0.111502 44:0.0125505 45:-0.0801967 46:0.0128738 47:0.194465 48:-0.110089 49:-0.140732 50:-0.259073 51:-0.0629652 52:-0.0718637 53:-0.118736 54:-0.042444 55:-0.0166952 56:-0.0598535 57:-0.177439 58:-0.0296786 59:-0.0723868 
-0 -0 1278.951961657523 0:0.831644 1:0.70795 2:0.315923 3:0.742095 4:0.291623 5:0.716645 6:0.437403 7:0.367239 8:0.361278 9:0.682966 10:0.648377 11:0.920569 12:0.617612 13:0.590309 14:0.207046 15:0.0116525 16:0.698278 17:0.547611 18:1 19:0.361911 20:0.599161 21:-0.0245246 22:0.72184 23:0.863821 24:0.903341 25:0.592738 26:0.456678 27:0.711525 28:0.700454 29:0.303941 30:0.827436 31:0.553331 32:0.208208 33:0.617296 34:0.466883 35:0.899869 36:0.436325 37:0.655551 38:0.313584 39:0.562683 40:0.589476 41:0.513412 42:0.519777 43:0.549715 44:0.559314 45:0.506143 46:0.560959 47:0.571358 48:0.551255 49:0.498457 50:0.495098 51:0.588413 52:0.529514 53:0.517117 54:0.521409 55:0.54156 56:0.522052 57:0.503571 58:0.596036 59:0.56744 
-496.7770664088611 -872.6271645477499 2048 0:0.273476 1:0.828749 2:0.0557246 3:0.423847 4:0.186605 5:0.410447 6:-0.243341 7:0.503793 8:0.345115 9:0.637784 10:0.521782 11:0.352867 12:0.481573 13:0.142385 14:0.364683 15:0.456316 16:0.173533 17:0.716646 18:0.160828 19:0.0699698 20:0.156188 21:0.117394 22:0.460749 23:0.300987 24:0.407593 25:-0.0193954 26:0.0994775 27:0.312124 28:0.345419 29:0.490012 30:0.325743 31:0.343377 32:0.590299 33:-0.0781108 34:0.0705458 35:0.398664 36:0.37596 37:0.220857 38:0.0852758 39:0.227591 40:0.252119 41:0.269271 42:0.271189 43:0.263642 44:0.154804 45:0.239383 46:0.305102 47:0.367297 48:0.332261 49:0.166737 50:0.248144 51:0.253884 52:0.215687 53:0.209658 54:0.279569 55:0.293622 56:0.181777 57:0.269447 58:0.275877 59:0.272736 
-0 -0 134.3671061039588 0:-0.0721179 1:0.11192 2:-0.670185 3:0.187754 4:0.306104 5:0.041985 6:0.139054 7:0.663013 8:0.742088 9:0.430479 10:0.273489 11:0.212166 12:0.351653 13:0.650331 14:0.160351 15:0.279298 16:0.582979 17:0.421086 18:0.319091 19:0.439409 20:0.518567 21:0.213007 22:0.186975 23:0.715654 24:0.818165 25:0.491802 26:0.604755 27:0.356213 28:0.527943 29:0.427266 30:0.572369 31:0.57795 32:0.536665 33:0.225215 34:0.129412 35:0.0845811 36:0.194004 37:0.227777 38:0.290991 39:0.117643 40:-0.0361178 41:-0.130127 42:0.179783 43:-0.118452 44:-0.0272549 45:-0.480268 46:-0.172652 47:0.045419 48:-0.0579456 49:-0.114267 50:-0.176699 51:-0.130474 52:-0.0947739 53:-0.254932 54:-0.0949722 55:-0.173371 56:-0.0420233 57:-0.204698 58:-0.0439906 59:-0.124121 
-0 -0 1746.374463995762 0:-0.539524 1:-0.509965 2:-0.43483 3:0.0344917 4:0.0620649 5:0.643233 6:0.450452 7:0.559361 8:0.478277 9:0.899685 10:0.833549 11:0.626113 12:-0.0919058 13:0.929006 14:0.440079 15:0.467968 16:0.384266 17:0.719059 18:0.52272 19:0.913066 20:0.645486 21:0.719956 22:0.501416 23:0.459958 24:0.6783 25:0.946386 26:0.546521 27:0.397238 28:0.570307 29:0.329615 30:0.750909 31:0.430636 32:0.432651 33:0.121897 34:0.300246 35:0.544654 36:0.47984 37:0.261106 38:0.146032 39:0.232513 40:-0.199039 41:0.111059 42:0.0143754 43:-0.0695138 44:0.0326784 45:0.123273 46:0.0071781 47:0.339224 48:-0.144233 49:-0.0530318 50:-0.258463 51:-0.429127 52:-0.24512 53:-0.393643 54:-0.228108 55:-0.489464 56:-0.564959 57:-0.329193 58:-0.294539 59:-0.101691 
-0 -0 879.811381084019 0:-0.312465 1:-0.31005 2:-0.207504 3:0.131587 4:0.235128 5:0.631076 6:0.732987 7:0.640236 8:0.799479 9:0.39762 10:0.808492 11:0.367488 12:0.686016 13:0.757818 14:0.342551 15:0.439757 16:0.712669 17:0.610388 18:0.60385 19:0.627621 20:0.415654 21:0.617628 22:0.446611 23:0.778538 24:0.615518 25:0.12642 26:0.341519 27:0.716372 28:0.64438 29:0.754348 30:0.699009 31:0.47609 32:0.57506 33:0.250635 34:0.231064 35:0.332426 36:0.544523 37:0.288504 38:-0.123461 39:0.500917 40:0.325651 41:0.0295727 42:0.195337 43:0.0487399 44:0.216739 45:0.170105 46:0.174197 47:0.305286 48:0.122786 49:-0.122692 50:0.0783893 51:0.176451 52:-0.0543652 53:0.112899 54:0.0171196 55:0.0488102 56:0.154318 57:0.0857987 58:0.110517 59:0.0523672 
-0 -0 840.1445779664681 0:-0.47553 1:-0.318967 2:-0.0955976 3:0.605983 4:0.399404 5:0.395414 6:0.745972 7:0.635395 8:0.798914 9:0.858011 10:0.454387 11:0.119976 12:0.679846 13:0.675747 14:0.306003 15:0.673308 16:0.845395 17:0.517067 18:0.729703 19:0.678848 20:0.597651 21:0.636104 22:0.307211 23:0.715147 24:0.702501 25:0.245422 26:0.564895 27:0.48889 28:0.282586 29:0.520818 30:0.515519 31:0.596869 32:0.720633 33:0.454394 34:0.466519 35:0.528705 36:0.363147 37:0.206025 38:0.294152 39:-0.129947 40:0.229376 41:0.129846 42:0.166216 43:-0.129743 44:0.159106 45:-0.0137768 46:0.0140488 47:0.147703 48:0.0286566 49:0.0574209 50:-0.0758958 51:0.0152561 52:-0.0133255 53:-0.233796 54:0.0311892 55:-0.0719156 56:0.0684872 57:-0.219116 58:0.0543638 59:-0.0606201 
-0 -0 183.3927096650651 0:-0.293102 1:0.0245929 2:-0.590016 3:0.302333 4:-0.0928985 5:0.641262 6:-0.148429 7:0.288037 8:0.3848 9:0.952663 10:0.38383 11:0.0286524 12:0.347024 13:0.835945 14:0.445493 15:0.556429 16:0.277812 17:0.370549 18:0.712481 19:0.445113 20:0.342139 21:0.200123 22:0.719617 23:0.714088 24:0.527692 25:0.515101 26:0.359488 27:0.703357 28:0.582234 29:0.369585 30:0.33409 31:0.579486 32:0.404495 33:0.535889 34:0.412855 35:0.465215 36:0.505355 37:0.435285 38:0.406727 39:0.281342 40:0.135924 41:0.135127 42:0.375372 43:0.256251 44:0.235573 45:0.159193 46:0.363968 47:0.263441 48:0.17991 49:0.264028 50:0.121268 51:0.0702347 52:0.155193 53:0.197383 54:0.147933 55:0.169447 56:0.191932 57:0.0700401 58:0.237776 59:0.157918 
-0 -0 2048 0:-0.350055 1:-0.336408 2:-0.250405 3:-0.0834521 4:-0.449567 5:0.542376 6:0.272462 7:0.510385 8:0.498229 9:0.753975 10:0.381177 11:0.0747806 12:0.2732 13:0.388403 14:0.262673 15:0.36623 16:0.684006 17:0.244026 18:0.334518 19:0.403245 20:0.403694 21:0.447389 22:0.171198 23:0.600964 24:0.618854 25:0.284542 26:0.485163 27:0.495899 28:0.55737 29:0.480077 30:0.417068 31:0.391381 32:0.365425 33:0.372084 34:0.117446 35:0.451218 36:0.236312 37:0.274717 38:0.16254 39:0.366951 40:0.315395 41:0.244939 42:0.242306 43:0.271635 44:0.176438 45:0.180827 46:-0.0944076 47:0.474334 48:-0.128458 49:0.0785258 50:0.225345 51:0.121305 52:0.177547 53:0.215135 54:0.143071 55:0.239095 56:0.197023 57:0.156443 58:0.25971 59:0.191104 
-700.1047368660197 -2048 2048 0:-0.270858 1:0.0395523 2:-0.421777 3:0.085485 4:-0.0603955 5:0.156472 6:-0.00794995 7:-0.0204428 8:0.316265 9:0.302282 10:0.157019 11:-0.0237532 12:-0.115708 13:0.4166 14:0.185656 15:0.332829 16:0.296319 17:0.0930234 18:0.223687 19:0.736432 20:0.0669316 21:0.128244 22:0.222652 23:0.270494 24:0.550645 25:0.234382 26:0.291859 27:0.157151 28:0.260886 29:-0.0738899 30:0.332911 31:0.346873 32:0.3162 33:0.324109 34:0.2863 35:0.496055 36:0.351321 37:0.0584225 38:-0.056892 39:0.346976 40:0.11621 41:0.103289 42:0.19538 43:0.124379 44:0.19745 45:-0.0195923 46:-0.00255837 47:0.23108 48:0.11002 49:0.076119 50:0.0353937 51:0.137525 52:0.0810505 53:-0.0283698 54:0.0453175 55:0.0643528 56:0.0381328 57:0.057061 58:0.128247 59:0.0566984 
-0 -0 643.9794000599902 0:0.420589 1:0.437254 2:0.239302 3:0.667683 4:0.0107087 5:0.830531 6:0.333436 7:0.484394 8:0.537127 9:0.528494 10:0.494881 11:0.0815853 12:-0.214214 13:0.589527 14:0.406192 15:0.315173 16:0.631943 17:0.38904 18:0.464061 19:0.881181 20:0.798095 21:0.275468 22:0.410952 23:0.880412 24:0.518226 25:0.528398 26:0.574106 27:0.559258 28:0.310866 29:0.771907 30:0.867809 31:0.586414 32:0.531408 33:0.524877 34:0.950823 35:0.69001 36:0.674942 37:0.572106 38:0.228681 39:0.550888 40:0.52942 41:0.542752 42:0.484038 43:0.598521 44:0.568345 45:0.553678 46:0.548928 47:0.6068 48:0.575731 49:0.504199 50:0.520962 51:0.569283 52:0.538457 53:0.555068 54:0.532432 55:0.548239 56:0.606351 57:0.532562 58:0.584309 59:0.560306 
-0 -0 1397.027070835832 0:-0.304767 1:-0.45584 2:-0.297398 3:-0.235836 4:-0.100894 5:0.742734 6:0.378051 7:0.623238 8:0.497616 9:0.361809 10:0.762415 11:0.467121 12:0.469503 13:0.736302 14:0.264166 15:0.566087 16:0.585639 17:0.120536 18:0.0187746 19:0.668996 20:0.559238 21:0.31284 22:0.394429 23:0.589201 24:0.675884 25:0.166775 26:0.560147 27:0.457169 28:0.475671 29:0.427815 30:0.430842 31:0.550818 32:0.425835 33:0.11825 34:0.309904 35:0.563232 36:0.720436 37:0.282438 38:0.0294391 39:0.286971 40:-0.230097 41:-0.0717943 42:-0.0276678 43:0.0425595 44:0.0095825 45:0.139168 46:-0.332838 47:0.251761 48:-0.158956 49:-0.294609 50:-0.115288 51:-0.0793257 52:-0.129981 53:-0.262025 54:-0.328806 55:-0.0818226 56:0.0100867 57:-0.0844394 58:-0.110092 59:-0.136311 
-0 -0 -2048 0:1 1:0.922727 2:0.538999 3:1 4:0.70266 5:0.65699 6:0.855022 7:0.835353 8:0.963014 9:0.579898 10:0.939671 11:1 12:0.928522 13:0.49159 14:0.526483 15:0.487286 16:0.32232 17:0.483755 18:0.208496 19:0.696809 20:0.701034 21:0.846304 22:0.935273 23:0.729603 24:0.789276 25:0.380433 26:0.331213 27:0.667491 28:0.798333 29:0.907514 30:0.796049 31:0.991464 32:0.878778 33:0.834507 34:1 35:1 36:1 37:1 38:1 39:1 40:1 41:1 42:1 43:1 44:1 45:1 46:1 47:1 48:1 49:1 50:1 51:1 52:1 53:1 54:1 55:1 56:1 57:1 58:1 59:1 
-0 -0 -2048 0:-0.516727 1:-0.627209 2:-0.463967 3:0.0936289 4:-0.483631 5:0.632181 6:0.663445 7:0.486916 8:0.831044 9:0.881556 10:0.85172 11:0.0483843 12:-0.261752 13:0.507785 14:0.313887 15:0.727806 16:0.512942 17:0.383783 18:0.646406 19:0.526522 20:0.411031 21:0.360677 22:0.494009 23:0.378527 24:0.433764 25:0.609091 26:0.427821 27:0.349855 28:0.439961 29:0.325386 30:0.243555 31:0.30744 32:0.311085 33:0.177497 34:0.200981 35:0.263582 36:0.241752 37:0.257983 38:-0.050425 39:0.160198 40:0.0797524 41:0.0334065 42:0.0808883 43:-0.0128014 44:0.110832 45:0.0637259 46:0.150635 47:0.288061 48:0.191269 49:0.0640713 50:0.0949851 51:0.0816032 52:0.106376 53:0.0623558 54:0.0836945 55:0.173804 56:0.13733 57:0.106196 58:0.169083 59:0.103515 
-0 -0 -1679.764332486387 0:-0.442916 1:-0.702507 2:-0.163612 3:0.294323 4:0.282825 5:0.585393 6:0.470318 7:0.468376 8:0.0940293 9:0.618977 10:0.249322 11:0.11092 12:0.0592974 13:0.637489 14:0.156738 15:0.485109 16:0.334978 17:0.448481 18:0.231123 19:0.538151 20:0.430689 21:0.0545679 22:0.431252 23:0.502329 24:0.380755 25:0.34001 26:-0.0512299 27:0.350163 28:0.374414 29:0.481066 30:0.403678 31:0.387009 32:0.187028 33:0.303193 34:0.0441998 35:0.190163 36:0.240583 37:0.0623994 38:0.0297922 39:0.116727 40:0.0274453 41:-0.0363199 42:-0.0202797 43:0.0417607 44:-0.0279623 45:0.0718568 46:0.0182787 47:0.111973 48:-0.0582085 49:-0.128109 50:-0.16194 51:0.058232 52:0.0142708 53:-0.108086 54:-0.0477927 55:-0.059414 56:-0.0523588 57:-0.101128 58:0.0420955 59:0.00581914 
-0 -0 -63.80560607898273 0:-0.621969 1:-0.536583 2:-0.553022 3:-0.325509 4:0.404706 5:-0.0250579 6:0.127739 7:0.526976 8:-0.00807764 9:0.543119 10:0.233415 11:0.329461 12:0.0934235 13:0.423937 14:0.154166 15:0.274803 16:0.0235257 17:0.429387 18:0.504425 19:0.365163 20:0.232174 21:0.0981933 22:0.550462 23:0.0426898 24:0.169583 25:0.31644 26:-0.0667036 27:0.078785 28:0.311688 29:0.442814 30:0.0629768 31:0.140448 32:-0.213795 33:-0.231456 34:0.0503297 35:0.000772307 36:-0.170681 37:0.0416959 38:-0.022209 39:0.143034 40:0.00160667 41:-0.066831 42:-0.159888 43:-0.273411 44:-0.175986 45:-0.164447 46:-0.16178 47:-0.0140799 48:-0.149316 49:-0.373237 50:-0.406603 51:-0.321836 52:-0.434332 53:-0.459696 54:-0.221692 55:-0.299943 56:-0.378061 57:-0.548112 58:-0.193463 59:-0.24663 
-0 -0 -2048 0:-0.259237 1:-0.50742 2:-0.622057 3:0.334901 4:-0.0851658 5:0.195462 6:-0.418591 7:0.122099 8:0.248381 9:0.192193 10:0.541213 11:0.147771 12:-0.252393 13:0.32389 14:0.118062 15:0.158575 16:0.107992 17:0.392075 18:0.272553 19:0.300422 20:0.318484 21:0.11088 22:0.138021 23:0.175337 24:0.433594 25:0.149323 26:0.290348 27:-0.0627412 28:0.255365 29:0.244335 30:0.0802603 31:0.150786 32:-0.107724 33:0.000284905 34:-0.050222 35:0.236837 36:0.138483 37:-0.205614 38:-0.33717 39:-0.30598 40:-0.32017 41:-0.536405 42:-0.165705 43:-0.311894 44:-0.452755 45:-0.285697 46:-0.734346 47:-0.079392 48:-0.448639 49:-0.612154 50:-0.337022 51:-0.496009 52:-0.458372 53:-0.60987 54:-0.347512 55:-0.488612 56:-0.324746 57:-0.613017 58:-0.21198 59:-0.611164 
-0 -0 -38.09169576461277 0:0.994449 1:1 2:0.399306 3:0.858386 4:0.335628 5:0.689114 6:0.494302 7:0.728545 8:0.238705 9:0.720639 10:0.672841 11:0.546524 12:1 13:0.607357 14:0.100051 15:0.717794 16:0.212533 17:0.498453 18:0.705506 19:0.584061 20:0.473763 21:0.698966 22:0.563042 23:0.606063 24:0.905655 25:0.433747 26:-0.331855 27:0.27009 28:0.255892 29:0.264522 30:-0.113144 31:0.200499 32:0.300345 33:-0.59254 34:0.59235 35:-0.0558054 36:0.747709 37:0.256424 38:0.12516 39:-0.0700036 40:-0.285989 41:-0.197325 42:-0.5747 43:-0.455899 44:-0.242085 45:-0.50088 46:-0.609335 47:0.0178062 48:-0.191085 49:-0.424295 50:-0.646668 51:-0.0752376 52:-0.515469 53:-0.408483 54:-0.51946 55:-0.399913 56:-0.728613 57:-0.397682 58:-0.52213 59:-0.406363 
-0 -0 -2048 0:0.68508 1:0.782209 2:0.41723 3:0.0297627 4:0.316031 5:0.689555 6:0.706009 7:0.429771 8:0.669698 9:0.895612 10:0.778188 11:0.810837 12:0.72515 13:0.266384 14:0.777625 15:0.534545 16:0.28424 17:0.229208 18:0.518759 19:0.421017 20:0.533566 21:0.495254 22:0.449864 23:0.982379 24:0.609243 25:0.499237 26:0.160609 27:0.647309 28:0.637727 29:0.51543 30:0.596862 31:0.64612 32:0.342553 33:0.435836 34:0.239047 35:0.512963 36:0.293851 37:0.165273 38:0.124685 39:0.0444865 40:0.224512 41:0.0631298 42:0.116542 43:0.0154896 44:0.0789891 45:-0.0823979 46:0.051163 47:0.254984 48:0.0702134 49:0.10004 50:0.0428506 51:0.110923 52:0.0493618 53:0.0538407 54:0.142129 55:0.159203 56:-0.00318403 57:0.0653932 58:0.184899 59:0.10015 
-0 -325.6674499290825 -0 0:-0.25542 1:-0.293788 2:-0.523816 3:0.0672767 4:0.0663343 5:0.28381 6:0.212048 7:0.336365 8:0.307531 9:0.366117 10:0.172491 11:0.370683 12:0.250716 13:-0.057912 14:-0.0950493 15:0.184268 16:0.185493 17:-0.222123 18:0.318234 19:0.430624 20:0.141057 21:-0.265211 22:0.411967 23:0.708407 24:0.156441 25:-0.068984 26:0.124345 27:0.271026 28:-0.144817 29:0.309285 30:0.255209 31:0.0665215 32:0.333026 33:-0.0820916 34:-0.107525 35:0.100096 36:-0.253341 37:-0.17679 38:-0.460788 39:-0.0827627 40:-0.35116 41:-0.690019 42:-0.431855 43:-0.302974 44:-0.449039 45:-0.412869 46:-0.497847 47:-0.330075 48:-0.26955 49:-0.384506 50:-0.201457 51:-0.321759 52:-0.388092 53:-0.382778 54:-0.419513 55:-0.297947 56:-0.439716 57:-0.415642 58:-0.301263 59:-0.387268 
-0 -1025.004868351233 -0 0:-0.256593 1:-0.374309 2:-0.458668 3:-0.267632 4:0.0341387 5:0.316862 6:0.0251263 7:0.256264 8:0.307916 9:0.503088 10:-0.106254 11:0.20389 12:0.150676 13:0.40782 14:0.0948897 15:0.192032 16:0.214216 17:-0.147849 18:0.0949956 19:0.00593782 20:-0.294818 21:-0.0168137 22:0.256442 23:0.180172 24:0.268007 25:-0.204269 26:0.0351481 27:0.000937746 28:-0.340658 29:0.172313 30:0.0277701 31:0.183433 32:-0.0323806 33:-0.322351 34:-0.319798 35:0.00481427 36:-0.143226 37:-0.19566 38:-0.310918 39:-0.462331 40:-0.243577 41:-0.555639 42:-0.165012 43:-0.63297 44:-0.348747 45:-0.399201 46:-0.479328 47:-0.191636 48:-0.451998 49:-0.500607 50:-0.379355 51:-0.474737 52:-0.673128 53:-0.559457 54:-0.529251 55:-0.465353 56:-0.571447 57:-0.64923 58:-0.42242 59:-0.444661 
-0 -0 -2048 0:0.136043 1:0.546805 2:0.140949 3:0.427565 4:0.23817 5:0.597223 6:0.750635 7:0.889784 8:0.38967 9:0.671532 10:0.423283 11:0.680334 12:-0.174062 13:0.665968 14:0.428365 15:0.572395 16:0.665332 17:0.274729 18:0.640743 19:0.811613 20:0.364897 21:0.626908 22:0.444602 23:0.720716 24:0.947544 25:0.67384 26:0.168586 27:0.797539 28:0.375232 29:0.560608 30:0.649531 31:0.785442 32:0.7096 33:0.198321 34:0.470043 35:0.528851 36:0.468785 37:0.274118 38:0.485856 39:0.334173 40:0.415453 41:0.434962 42:0.478788 43:0.454705 44:0.502754 45:0.533086 46:0.538602 47:0.562266 48:0.521435 49:0.456323 50:0.481284 51:0.504268 52:0.489456 53:0.447605 54:0.51243 55:0.519738 56:0.491942 57:0.475057 58:0.525799 59:0.525398 
-0 -0 -2048 0:-0.465307 1:-0.653573 2:-0.416549 3:-0.266068 4:0.192749 5:0.283552 6:0.593713 7:0.443038 8:0.789531 9:0.706293 10:0.402357 11:0.0461277 12:0.25672 13:0.614328 14:0.10287 15:0.522423 16:0.515909 17:0.358653 18:0.567484 19:0.630856 20:0.39008 21:0.320099 22:0.414479 23:0.46553 24:0.722314 25:0.485757 26:0.152984 27:0.469873 28:0.535629 29:0.296071 30:0.462101 31:0.272362 32:-0.0448452 33:0.215004 34:0.171981 35:0.136082 36:0.0513253 37:-0.18799 38:-0.159187 39:0.122771 40:-0.270946 41:-0.186466 42:-0.132634 43:-0.00703062 44:-0.126861 45:-0.140872 46:-0.25375 47:-0.0538926 48:-0.123374 49:-0.293581 50:-0.298708 51:-0.145841 52:-0.238361 53:-0.315338 54:-0.282484 55:-0.252502 56:-0.152458 57:-0.349853 58:-0.183628 59:-0.205904 
-0 -412.8887804500754 -0 0:-0.460662 1:-0.683741 2:-0.514549 3:-0.0038319 4:-0.182903 5:0.206433 6:0.0551701 7:0.219199 8:-0.00620802 9:0.303883 10:0.521587 11:0.119756 12:-0.0674101 13:0.505861 14:0.107243 15:0.236717 16:-0.0836998 17:-0.183493 18:0.0844688 19:0.203571 20:-0.40476 21:0.1258 22:-0.0192024 23:-0.0333437 24:0.503073 25:0.162311 26:-0.217333 27:0.330134 28:0.181044 29:0.20709 30:-0.0359269 31:-0.00742064 32:-0.0812799 33:-0.276752 34:-0.355845 35:0.354393 36:-0.0665949 37:-0.0122968 38:-0.393413 39:-0.102832 40:-0.156995 41:-0.595362 42:-0.32335 43:-0.466858 44:-0.395839 45:-0.246717 46:-0.397318 47:-0.185477 48:-0.401055 49:-0.441398 50:-0.568811 51:-0.440804 52:-0.567428 53:-0.840585 54:-0.486436 55:-0.441495 56:-0.608124 57:-0.622433 58:-0.504324 59:-0.54327 
-0 -2028.33997113174 -777.1728149981694 0:-0.409125 1:-0.316754 2:-0.389289 3:0.0121151 4:-0.23295 5:0.327984 6:-0.446261 7:0.204908 8:0.013059 9:0.529014 10:0.107082 11:0.0171615 12:0.00567355 13:0.0564931 14:-0.132609 15:0.141063 16:0.0501068 17:0.142488 18:-0.127543 19:0.284411 20:0.174856 21:0.388906 22:0.215976 23:0.550617 24:-0.0432757 25:0.165062 26:-0.0390046 27:0.430391 28:-0.00584909 29:0.186117 30:-0.221105 31:0.15593 32:0.155215 33:-0.0767563 34:0.207168 35:0.17854 36:0.0364296 37:-0.302822 38:-0.436571 39:-0.199204 40:-0.389001 41:-0.363184 42:-0.293411 43:-0.578203 44:-0.229778 45:-0.331457 46:-0.178533 47:-0.0990941 48:-0.169112 49:-0.251265 50:-0.321164 51:-0.39646 52:-0.340821 53:-0.354287 54:-0.325341 55:-0.241412 56:-0.269731 57:-0.442194 58:-0.18731 59:-0.410587 
-0 -0 -411.5541557716486 0:0.248892 1:0.984008 2:-0.000265322 3:0.340221 4:0.319226 5:0.896886 6:0.54702 7:0.709246 8:0.625437 9:0.892864 10:0.526834 11:0.361359 12:0.380395 13:0.660229 14:0.52302 15:0.174141 16:0.167801 17:0.125753 18:-0.630438 19:0.337221 20:0.243358 21:0.375298 22:0.244252 23:0.672231 24:0.570435 25:0.488406 26:0.171044 27:-0.0217101 28:0.370348 29:0.365028 30:-0.138119 31:0.471176 32:0.38951 33:-0.353776 34:0.1973 35:0.275239 36:0.373574 37:0.320708 38:0.291643 39:0.405233 40:0.290999 41:0.270731 42:0.147744 43:0.202378 44:0.265004 45:0.228653 46:0.180524 47:0.354717 48:0.305366 49:0.188124 50:0.260145 51:0.225083 52:0.197517 53:0.279277 54:0.30309 55:0.255185 56:0.246363 57:0.245822 58:0.323929 59:0.278923 
-0 -0 -2048 0:-0.357472 1:-0.41615 2:-0.326263 3:0.129506 4:-0.290365 5:0.329721 6:0.465386 7:0.424295 8:0.544547 9:0.611466 10:0.305438 11:0.639574 12:0.506124 13:0.329486 14:0.118026 15:0.432703 16:0.117241 17:0.0763105 18:0.0836881 19:0.256977 20:0.20769 21:0.185653 22:0.389008 23:0.359714 24:0.454095 25:0.413132 26:0.355324 27:0.0938151 28:0.107181 29:0.00841315 30:0.437872 31:0.0907718 32:0.0529502 33:-0.137124 34:-0.105236 35:0.318879 36:0.427568 37:-0.0435199 38:0.000893734 39:0.089652 40:0.020988 41:-0.202392 42:0.108806 43:-0.138089 44:-0.292679 45:-0.297616 46:-0.319209 47:-0.000784606 48:-0.228969 49:-0.326508 50:-0.18337 51:-0.300084 52:-0.274942 53:-0.274605 54:-0.298535 55:-0.145455 56:-0.372986 57:-0.370706 58:-0.216674 59:-0.268677 
-0 -375.8704254792398 -0 0:-0.586916 1:-1 2:-0.592436 3:-0.0494115 4:-0.268467 5:0.119768 6:-0.000755578 7:0.461494 8:0.236448 9:0.300621 10:-0.453296 11:-0.58227 12:0.312911 13:0.37425 14:-0.0217669 15:0.310802 16:0.168085 17:-0.122412 18:0.331278 19:0.318743 20:0.0657467 21:0.11422 22:0.218401 23:0.136522 24:0.0615565 25:0.285978 26:-0.0373004 27:0.127754 28:-0.0602019 29:0.175837 30:-0.00176193 31:0.300351 32:0.0349919 33:-0.121501 34:-0.275409 35:0.0651047 36:0.0818256 37:-0.343584 38:-0.39806 39:-0.133716 40:-0.146212 41:-0.317367 42:-0.208727 43:-0.509585 44:-0.402967 45:-0.426856 46:-0.494617 47:-0.178488 48:-0.600469 49:-0.555382 50:-0.399504 51:-0.602397 52:-0.708628 53:-0.632987 54:-0.643846 55:-0.527106 56:-0.517009 57:-0.495778 58:-0.487696 59:-0.63909 
-0 -1220.949648717522 -0 0:-0.525593 1:-0.638702 2:-0.727335 3:-0.249654 4:-0.414495 5:0.331178 6:0.278818 7:0.158537 8:0.257291 9:0.31144 10:-0.139101 11:-0.0819608 12:-0.311406 13:0.0370699 14:-0.48584 15:-0.0569325 16:-0.225719 17:-0.0367794 18:-0.0510747 19:0.17327 20:0.0121759 21:0.0537789 22:0.16253 23:-0.0338286 24:0.0218337 25:0.240826 26:0.163306 27:0.0857924 28:0.0447278 29:0.389789 30:0.112226 31:-0.0801977 32:0.0411545 33:-0.383426 34:-0.347328 35:-0.281096 36:0.0137461 37:-0.392691 38:-0.470319 39:-0.293223 40:-0.407257 41:-0.671133 42:-0.759018 43:-0.417311 44:-0.454656 45:-0.434989 46:-0.423538 47:-0.199797 48:-0.685246 49:-0.540155 50:-0.644589 51:-0.618104 52:-0.723156 53:-0.952342 54:-0.534344 55:-0.412032 56:-0.769623 57:-0.879475 58:-1 59:-0.804631 
-0 -0 -44.08969612032325 0:0.913461 1:0.422534 2:-0.0642756 3:0.276664 4:0.0441139 5:1 6:0.420706 7:0.433562 8:0.602074 9:0.610468 10:0.77324 11:0.20217 12:0.419449 13:0.425686 14:0.133731 15:0.644032 16:-0.0382552 17:0.526713 18:0.483298 19:0.203947 20:-0.106914 21:-0.0335357 22:0.487066 23:0.318731 24:0.0393421 25:-0.0193919 26:-0.215881 27:0.279243 28:0.489168 29:0.151166 30:0.316122 31:0.14574 32:0.474789 33:0.294732 34:0.25262 35:0.499867 36:0.350373 37:0.328598 38:0.24742 39:0.347823 40:0.164358 41:0.350054 42:0.411691 43:0.301284 44:0.31302 45:0.289396 46:0.310883 47:0.498501 48:0.342486 49:0.307744 50:0.332533 51:0.314604 52:0.319538 53:0.292135 54:0.346675 55:0.323431 56:0.311711 57:0.313632 58:0.396463 59:0.35132 
-0 -0 -2048 0:-0.11033 1:-0.564247 2:-0.369479 3:0.122308 4:0.0140412 5:0.589051 6:0.34468 7:0.36251 8:0.290619 9:0.582336 10:0.517933 11:0.24737 12:0.173168 13:0.445708 14:0.0530684 15:0.532756 16:0.191568 17:0.321441 18:0.580368 19:0.608726 20:0.257584 21:-0.267593 22:0.292787 23:0.623738 24:0.489683 25:0.425228 26:0.299072 27:0.234629 28:0.310967 29:0.346718 30:0.479703 31:0.521611 32:0.222845 33:0.259318 34:0.323442 35:0.472214 36:0.48861 37:0.254503 38:0.0403116 39:0.101571 40:0.122545 41:0.145859 42:0.268953 43:0.325383 44:0.121594 45:0.236149 46:0.177095 47:0.367587 48:0.200375 49:0.162016 50:0.159267 51:0.278153 52:0.166825 53:0.193879 54:0.219681 55:0.226128 56:0.181309 57:0.209835 58:0.258331 59:0.209186 
-0 -2048 -0 0:-0.428391 1:-0.530162 2:-0.360066 3:0.222949 4:-0.161745 5:0.388254 6:0.0955237 7:-0.00945693 8:-0.0882508 9:0.108727 10:0.176382 11:-0.340517 12:-0.2933 13:-0.0659585 14:-0.137995 15:0.0162068 16:0.0985063 17:-0.0728271 18:-0.0926722 19:-0.235434 20:-0.375029 21:-0.333739 22:0.147946 23:-0.143176 24:0.181284 25:0.0570427 26:0.291475 27:-0.129155 28:-0.206294 29:0.0337881 30:-0.100785 31:-0.11509 32:-0.054696 33:0.0646865 34:-0.211015 35:0.0742559 36:0.268587 37:-0.164457 38:-0.127833 39:-0.346939 40:-0.637881 41:-0.304027 42:0.0392672 43:-0.214232 44:-0.270402 45:-0.165438 46:-0.153436 47:-0.125316 48:-0.358032 49:-0.311119 50:-0.318631 51:-0.21851 52:-0.30336 53:-0.293486 54:-0.183559 55:-0.305285 56:-0.256993 57:-0.319233 58:-0.189169 59:-0.253367 
-760.6426520014606 -2048 -0 0:-0.653617 1:-0.293938 2:-0.434752 3:0.30994 4:-0.12917 5:0.0954219 6:0.00698656 7:-0.0712416 8:-0.220787 9:0.231744 10:0.0386133 11:-0.409765 12:-0.466214 13:0.0354762 14:-0.127394 15:0.128608 16:-0.0103517 17:0.0908011 18:-0.21527 19:0.218627 20:-0.352322 21:0.0831938 22:-0.116611 23:-0.19967 24:0.0555446 25:-0.0836968 26:-0.11102 27:-0.101679 28:0.0326971 29:0.0932756 30:-0.0522006 31:0.0502175 32:-0.204574 33:-0.807412 34:-0.161617 35:-0.428175 36:-0.0166906 37:-0.186155 38:-0.246489 39:-0.232697 40:-0.247796 41:-0.448104 42:-0.206148 43:-0.340298 44:-0.305722 45:-0.23468 46:-0.379024 47:-0.000148799 48:-0.279574 49:-0.209982 50:-0.290562 51:-0.215568 52:-0.230773 53:-0.368664 54:-0.325506 55:-0.32779 56:-0.309404 57:-0.329869 58:-0.158646 59:-0.244781 
-485.8840565763983 -890.8779780913933 -0 0:0.853127 1:0.951022 2:0.308401 3:0.694329 4:0.521817 5:0.0672612 6:0.592287 7:0.016335 8:0.0675806 9:0.44341 10:0.479877 11:0.118658 12:-0.373156 13:0.521233 14:0.0605664 15:0.155328 16:0.160737 17:0.118856 18:-0.342312 19:0.276022 20:0.182353 21:-0.338313 22:0.378396 23:-0.00776575 24:0.242485 25:0.137788 26:-0.347502 27:-0.263298 28:-0.171389 29:0.0604748 30:0.236286 31:-0.094838 32:0.0846397 33:-0.491004 34:0.193257 35:0.276144 36:0.316557 37:0.206613 38:0.267819 39:0.218979 40:0.140762 41:0.101391 42:0.0753208 43:0.227205 44:0.13023 45:0.225697 46:0.229458 47:0.374528 48:0.264679 49:0.156013 50:0.114336 51:0.208426 52:0.207957 53:0.20325 54:0.203765 55:0.237443 56:0.226557 57:0.168208 58:0.324525 59:0.21694 
-0 -2048 -0 0:-0.446945 1:-0.192198 2:-0.409583 3:-0.330742 4:-0.212026 5:-0.327069 6:-0.541412 7:-0.059465 8:0.32883 9:0.223927 10:0.161363 11:-0.575473 12:-0.0657434 13:0.00228239 14:-0.0289081 15:0.225294 16:0.0882325 17:-0.457707 18:-0.0494275 19:0.27082 20:0.0523744 21:-0.00552054 22:0.0869017 23:-0.0256796 24:0.16073 25:0.325513 26:0.0615264 27:0.0167921 28:0.0119346 29:-0.112862 30:-0.328188 31:0.0522976 32:-0.0234601 33:-0.033348 34:-0.0124284 35:-0.151211 36:-0.0085858 37:-0.269151 38:-0.385686 39:-0.319732 40:-0.309646 41:-0.368243 42:-0.112342 43:-0.433453 44:-0.376371 45:-0.619412 46:-0.340943 47:-0.0537782 48:-0.314583 49:-0.60688 50:-0.295468 51:-0.435971 52:-0.49273 53:-0.362563 54:-0.40044 55:-0.345136 56:-0.563249 57:-0.545566 58:-0.297748 59:-0.5624 
-2048 -2048 -0 0:-0.342895 1:-0.158261 2:-0.186209 3:0.253209 4:-0.009112 5:0.0611543 6:-0.335323 7:-0.316473 8:-0.168089 9:0.104172 10:-0.0483374 11:-0.142238 12:-0.351136 13:-0.0359171 14:-0.0345364 15:-0.258954 16:0.0735904 17:-0.100152 18:0.0372256 19:-0.0241134 20:-0.489586 21:0.0360285 22:-0.270234 23:-0.314724 24:0.094665 25:0.00389507 26:-0.346377 27:-0.412107 28:-0.0967931 29:0.0727893 30:-0.2802 31:-0.185974 32:-0.0112962 33:-0.175507 34:-0.742848 35:0.0264711 36:0.123988 37:-0.237176 38:-0.283862 39:-0.345579 40:-0.231059 41:-0.189547 42:-0.171715 43:-0.218744 44:-0.189495 45:-0.264092 46:-0.197403 47:0.0316978 48:-0.126186 49:-0.309635 50:-0.320101 51:-0.337757 52:-0.238503 53:-0.305543 54:-0.220628 55:-0.129596 56:-0.242976 57:-0.295836 58:-0.118501 59:-0.158982 
-2048 -2048 -0 0:-0.655073 1:-0.510519 2:-0.73506 3:-0.53517 4:-0.28687 5:0.0363992 6:-0.258536 7:0.000377827 8:-0.207831 9:-0.194927 10:-0.16815 11:-0.381136 12:0.228927 13:-0.105584 14:-0.553499 15:-0.298562 16:-0.18834 17:-0.187495 18:-0.0379241 19:-0.165879 20:-0.343963 21:-0.115801 22:0.121486 23:-0.0321155 24:0.018248 25:-0.142936 26:-0.271523 27:-0.0916351 28:0.122693 29:-0.113192 30:-0.546786 31:-0.218521 32:-0.180325 33:-0.417185 34:-0.678804 35:-0.261118 36:-0.0668695 37:-0.401841 38:-0.426106 39:-0.381298 40:-0.379685 41:-0.807393 42:-0.200532 43:-0.327861 44:-0.71497 45:-0.383094 46:-0.529507 47:-0.327754 48:-0.364412 49:-0.700247 50:-0.673524 51:-0.561931 52:-0.701453 53:-0.528147 54:-0.533012 55:-0.597527 56:-0.536119 57:-0.818826 58:-0.546838 59:-0.694494 
