svm_type c_svc
kernel_type rbf
gamma 0.125
nr_class 2
total_sv 348
rho 1.05631
label 2 1
nr_sv 120 228
SV
1.138243362153538 0:0.12054 1:-0.00565132 2:-0.545396 3:0.0565689 4:-0.0695651 5:-0.339117 6:0.222758 7:0.0832083 8:-0.126576 9:0.775894 10:0.555951 11:-0.0216515 12:0.329472 13:-0.110227 14:-0.142857 15:0.110301 16:-0.483988 17:-0.283071 18:-0.267167 19:-0.173596 20:-0.153671 21:0.386435 22:-0.0479128 23:-0.150727 24:-0.422496 25:-0.509297 26:-0.422923 27:-0.626214 28:-0.291467 29:0.106553 30:0.00591656 31:-0.303712 32:0.0315273 33:-0.275109 34:-0.201199 35:-0.269391 36:0.291722 37:0.274819 38:-0.0291784 39:0.372803 40:0.0601739 41:0.14708 42:-0.0997265 43:0.00914301 44:-0.51835 45:0.54293 46:0.182459 47:-0.286143 48:-0.159298 49:0.110404 50:-0.485771 51:-0.264684 52:0.0948524 53:0.0343745 54:-0.412342 55:-0.446776 56:-0.146012 57:0.106624 58:0.271168 59:-0.0442411 60:-0.335032 61:-0.139743 62:-0.282103 63:-0.263395 64:-0.0579965 65:-0.15494 66:-0.191702 67:-0.312372 68:-0.264397 69:-0.384213 70:-0.423785 71:-0.362872 72:-0.51705 73:-0.416321 74:-0.639567 75:-0.234425 76:-0.339851 77:-0.588638 78:-0.493766 79:-0.558204 80:-0.24775 81:-0.581073 82:-0.424593 83:-0.612593 84:-0.737943 85:-0.377062 86:-0.803487 87:-0.453653 88:-0.528714 89:-0.509298 90:-0.398495 91:-0.657409 92:-0.666433 93:-0.64871 94:-0.664777 95:-0.645031 96:-0.712656 97:-0.577082 98:-0.753497 99:-0.737746 100:-0.682057 101:-0.648133 102:-0.521822 103:-0.751411 104:-0.789487 105:-0.598671 106:-0.496343 107:-0.503275 108:-0.812289 109:-0.671103 110:-0.586847 111:-0.6416 112:-0.63336 113:-0.490548 114:-0.601179 115:-0.647764 116:-0.655405 117:-0.620901 118:-0.61389 119:-0.734901 120:-0.640318 121:-0.608771 122:-0.734462 123:-0.69954 124:-0.715751 125:-0.739643 126:-0.78717 127:-0.65178 
2 0:0.336879 1:-0.602623 2:0.237989 3:0.207088 4:-0.815749 5:1 6:-0.336514 7:-0.625373 8:0.792794 9:-0.0405643 10:-0.0944327 11:0.0679295 12:0.242482 13:0.320432 14:0.149099 15:0.0197536 16:-0.0648466 17:0.0230928 18:-0.0775487 19:0.0516156 20:0.312837 21:0.555711 22:-0.0212952 23:0.378737 24:-0.430934 25:0.103061 26:0.299146 27:0.188771 28:-0.52134 29:-0.171963 30:0.369917 31:0.127483 32:0.102959 33:-0.0143674 34:0.180368 35:0.147786 36:0.277333 37:-0.280991 38:0.346635 39:-0.0144075 40:0.28858 41:0.114088 42:0.0774011 43:0.0586332 44:-0.104802 45:-0.0524497 46:0.331212 47:0.260733 48:0.0675902 49:0.169032 50:-0.415809 51:0.480588 52:0.201026 53:-0.0435727 54:0.0122117 55:0.323251 56:-0.183734 57:0.22664 58:0.377943 59:0.331991 60:0.120343 61:0.126044 62:0.0579626 63:0.0892971 64:0.156415 65:0.148381 66:0.14256 67:0.21349 68:-0.159751 69:-0.391162 70:-0.110662 71:-0.370452 72:0.017049 73:-0.132321 74:-0.174996 75:0.00755561 76:0.323422 77:-0.354237 78:-0.215775 79:0.205061 80:-0.113671 81:-0.213925 82:0.0484779 83:-0.306434 84:-0.421865 85:0.081935 86:-0.047848 87:-0.142256 88:-0.115144 89:-0.115062 90:-0.232005 91:-0.153513 92:-0.100456 93:-0.176422 94:-0.476147 95:-0.26598 96:-0.187428 97:-0.189213 98:-0.0652957 99:-0.333211 100:-0.195633 101:-0.246643 102:-0.267671 103:-0.177982 104:-0.276991 105:-0.167343 106:-0.162466 107:-0.200509 108:-0.280644 109:-0.320552 110:-0.176038 111:-0.266997 112:-0.279974 113:-0.0350783 114:-0.23622 115:-0.273336 116:-0.215115 117:-0.206557 118:-0.243146 119:-0.137255 120:-0.343259 121:-0.199689 122:-0.167304 123:-0.227682 124:-0.294908 125:-0.219602 126:-0.253922 127:-0.187614 
2 0:-0.529877 1:0.0473776 2:-0.488251 3:-0.0129852 4:-0.207805 5:-0.0105963 6:-0.00561162 7:-0.352207 8:0.366636 9:0.467347 10:0.0309243 11:0.154057 12:0.0987948 13:0.164114 14:-0.516214 15:-0.311875 16:-0.0320276 17:-0.0490358 18:-0.439508 19:-0.136393 20:0.243727 21:0.248151 22:0.305285 23:-0.00117284 24:0.265307 25:-0.020654 26:0.133217 27:0.124217 28:-0.777456 29:-0.333975 30:0.0945609 31:0.436457 32:0.130028 33:-0.22097 34:-0.30248 35:-0.175023 36:0.13538 37:-0.301572 38:-0.111168 39:0.254252 40:-0.0996734 41:0.152867 42:0.382743 43:0.203749 44:-0.103999 45:-0.0125602 46:-0.18138 47:-0.272331 48:-0.55631 49:-0.0996669 50:-0.253487 51:-0.084423 52:0.141382 53:0.00103394 54:0.0159887 55:-0.0643388 56:-0.480838 57:-0.00302955 58:-0.198433 59:0.123167 60:-0.138265 61:-0.551789 62:-0.220065 63:-0.242446 64:0.0826011 65:0.193698 66:-0.416431 67:-0.243646 68:-0.230749 69:-0.596912 70:-0.672348 71:-0.676223 72:-0.349398 73:-0.520413 74:-0.434995 75:-0.354273 76:-0.305327 77:-0.572411 78:-0.234628 79:-0.80289 80:-0.685982 81:-0.642565 82:-0.549249 83:-0.542958 84:-0.546645 85:-0.512885 86:-0.796745 87:-0.609458 88:-0.74607 89:-0.675509 90:-0.593849 91:-0.879677 92:-0.642304 93:-0.740914 94:-0.658531 95:-0.585555 96:-0.655056 97:-0.751139 98:-0.631748 99:-0.563388 100:-0.607995 101:-0.648515 102:-0.551678 103:-0.754854 104:-0.827194 105:-0.636894 106:-0.545827 107:-0.681826 108:-0.697049 109:-0.654384 110:-0.7111 111:-0.775104 112:-0.639208 113:-0.651528 114:-0.74169 115:-0.746536 116:-0.68315 117:-0.578489 118:-0.653764 119:-0.754214 120:-0.708933 121:-0.657322 122:-0.657314 123:-0.754668 124:-0.661167 125:-0.723769 126:-0.738185 127:-0.662862 
0.7190364343920743 0:0.14917 1:0.0498709 2:-0.615463 3:-0.0400612 4:-0.0116524 5:0.0598793 6:-0.0069958 7:-0.321915 8:-0.111207 9:0.739214 10:0.100825 11:0.0749271 12:-0.00542463 13:0.0368434 14:0.330026 15:0.144191 16:-0.0476467 17:-0.238021 18:0.159262 19:-0.451213 20:0.633528 21:0.162396 22:-0.0465012 23:-0.312874 24:0.533768 25:0.333314 26:0.030449 27:0.51426 28:0.00160712 29:0.500761 30:-0.421979 31:0.154043 32:-0.0588608 33:0.144717 34:-0.191965 35:-0.608025 36:0.145985 37:-0.297854 38:0.44187 39:0.138641 40:-0.311199 41:0.0862171 42:-0.0825925 43:0.471139 44:0.115478 45:0.147616 46:-0.0264378 47:-0.0080938 48:-0.354275 49:-0.0311416 50:-0.228242 51:-0.384039 52:0.255537 53:0.0911243 54:-0.0441987 55:0.17139 56:0.302513 57:0.0998486 58:-0.0367713 59:0.1865 60:0.24884 61:-0.364835 62:-0.212857 63:-0.415143 64:0.226714 65:0.126122 66:-0.624415 67:-0.243638 68:-0.162705 69:-0.339338 70:-0.0909029 71:-0.139638 72:-0.194937 73:-0.301192 74:-0.22894 75:-0.414895 76:-0.430968 77:-0.69519 78:-0.605118 79:-0.151991 80:-0.229842 81:-0.419439 82:-0.188929 83:-0.352578 84:-0.459717 85:-0.196631 86:-0.396919 87:-0.785517 88:-0.538488 89:-0.450694 90:-0.493419 91:-0.35461 92:-0.545437 93:-0.416781 94:-0.383244 95:-0.619735 96:-0.451479 97:-0.504341 98:-0.389207 99:-0.340716 100:-0.475331 101:-0.479052 102:-0.381351 103:-0.444746 104:-0.46555 105:-0.484254 106:-0.259216 107:-0.533847 108:-0.616057 109:-0.40696 110:-0.543798 111:-0.587949 112:-0.451063 113:-0.469266 114:-0.359906 115:-0.41716 116:-0.530153 117:-0.478753 118:-0.415011 119:-0.522727 120:-0.494509 121:-0.427271 122:-0.379443 123:-0.437254 124:-0.588437 125:-0.598379 126:-0.575848 127:-0.452261 
1.857956115946253 0:0.159808 1:0.084086 2:-0.434165 3:0.00024435 4:-0.117002 5:0.274579 6:-0.552231 7:-0.247351 8:-0.593646 9:0.393059 10:-0.394869 11:0.0168308 12:-0.00566283 13:-0.283957 14:0.243383 15:-0.305881 16:0.271388 17:-0.147375 18:-0.443225 19:-0.0616629 20:-0.244367 21:0.322887 22:0.190389 23:0.155333 24:-0.346993 25:-0.00332873 26:0.454311 27:0.185892 28:-0.309905 29:-0.15977 30:-0.322411 31:-0.306118 32:-0.946279 33:-0.211506 34:0.373941 35:-0.523065 36:0.319255 37:-0.167758 38:0.201588 39:-0.0721306 40:0.295198 41:0.319863 42:0.602116 43:0.0135647 44:0.0693149 45:0.166593 46:-0.107067 47:-0.0467971 48:-0.127489 49:-0.200785 50:-0.0762852 51:-0.00952368 52:0.595645 53:0.0755308 54:0.109468 55:-0.515609 56:0.115719 57:0.379318 58:-0.344504 59:0.0383518 60:-0.33313 61:-0.381503 62:-0.257379 63:0.00234264 64:-0.188049 65:0.158392 66:-0.692298 67:-0.501981 68:0.280545 69:-0.242402 70:-0.237676 71:-0.702192 72:-0.323688 73:-0.460527 74:-0.236909 75:0.123717 76:-0.239337 77:-0.388721 78:-0.616879 79:-0.158726 80:-0.381652 81:-0.588016 82:-0.388602 83:-0.396016 84:-0.384858 85:-0.140761 86:-0.311194 87:-0.361585 88:-0.495801 89:-0.374841 90:-0.370131 91:-0.432082 92:-0.359432 93:-0.271994 94:-0.411557 95:-0.494617 96:-0.459125 97:-0.505113 98:-0.399132 99:-0.537437 100:-0.474364 101:-0.549417 102:-0.546227 103:-0.522386 104:-0.572643 105:-0.433936 106:-0.345123 107:-0.424584 108:-0.491658 109:-0.488054 110:-0.463978 111:-0.513819 112:-0.490804 113:-0.389337 114:-0.48975 115:-0.556186 116:-0.441572 117:-0.349786 118:-0.271938 119:-0.596337 120:-0.452554 121:-0.428696 122:-0.430096 123:-0.452535 124:-0.580017 125:-0.46647 126:-0.522064 127:-0.375973 
2 0:0.0912407 1:0.0578929 2:-0.391751 3:0.0268182 4:-0.088318 5:0.282617 6:-0.545401 7:-0.433152 8:-1 9:0.467986 10:-0.0461583 11:-0.338283 12:0.504887 13:0.262392 14:-0.816483 15:0.0226214 16:-0.0460192 17:-0.160049 18:-0.62736 19:0.182444 20:0.330501 21:0.0431704 22:0.20816 23:0.229759 24:-0.475328 25:-0.121901 26:0.126009 27:0.113501 28:-0.024944 29:-0.0676092 30:-0.225379 31:-0.258692 32:-0.239911 33:0.301924 34:-0.0984139 35:-0.0944867 36:0.317703 37:0.0231244 38:-0.259526 39:0.0645627 40:0.255989 41:-0.307559 42:0.412631 43:0.258829 44:-0.322167 45:-0.206131 46:0.0425925 47:-0.117679 48:-0.116483 49:-0.13153 50:0.225405 51:-0.397858 52:0.348692 53:-0.0747265 54:-0.355703 55:0.0289777 56:0.346424 57:-0.259376 58:0.153442 59:0.102518 60:-0.144036 61:-0.414453 62:-0.352969 63:-0.222708 64:-0.0685413 65:-0.337353 66:0.162501 67:-0.164614 68:0.130706 69:-0.437216 70:-0.508601 71:-0.607594 72:-0.0800664 73:-0.16116 74:-0.429297 75:0.00480886 76:-0.514511 77:-0.797408 78:-0.567641 79:-0.123448 80:-0.311229 81:-0.60231 82:-0.514754 83:-0.323883 84:-0.54948 85:-0.230465 86:-0.491108 87:-0.343531 88:-0.464825 89:-0.377604 90:-0.47518 91:-0.48363 92:-0.329699 93:-0.537089 94:-0.420902 95:-0.396987 96:-0.396339 97:-0.425748 98:-0.4672 99:-0.613011 100:-0.555907 101:-0.471595 102:-0.509152 103:-0.454444 104:-0.55185 105:-0.467349 106:-0.417357 107:-0.476248 108:-0.65978 109:-0.465338 110:-0.461802 111:-0.617208 112:-0.62547 113:-0.312671 114:-0.49071 115:-0.598934 116:-0.462202 117:-0.50579 118:-0.441382 119:-0.455198 120:-0.449444 121:-0.522055 122:-0.504001 123:-0.55305 124:-0.567777 125:-0.582465 126:-0.592478 127:-0.507522 
2 0:0.0599356 1:0.0651975 2:-0.567399 3:-0.0718071 4:-0.169807 5:0.0860488 6:0.0931154 7:-0.336898 8:0.131984 9:0.434916 10:-0.48382 11:0.594884 12:0.315282 13:0.132672 14:-0.446607 15:-0.199099 16:-0.259354 17:-0.0932445 18:-0.263521 19:-0.220496 20:0.041714 21:-0.0426114 22:0.1353 23:0.202562 24:0.142186 25:-0.0349099 26:0.243315 27:0.115568 28:-0.344423 29:-0.191193 30:-0.315372 31:0.210762 32:-0.0332154 33:0.250723 34:-0.192005 35:-0.196558 36:0.38612 37:-0.77203 38:0.0920637 39:0.36193 40:0.454687 41:0.366748 42:-0.0976466 43:0.275499 44:0.0789353 45:-0.122632 46:-0.460636 47:0.0472224 48:-0.250284 49:0.00938437 50:-0.407824 51:0.0807852 52:0.465979 53:0.10581 54:-0.00912749 55:0.16836 56:-0.115832 57:-0.00858866 58:0.518939 59:0.196199 60:0.432016 61:0.220983 62:-0.579075 63:-0.220516 64:0.268893 65:0.0102324 66:-0.222784 67:-0.00409648 68:-0.0988382 69:-0.0996286 70:-0.0595145 71:-0.358207 72:-0.409657 73:-0.265545 74:-0.39154 75:-0.139159 76:-0.271841 77:-0.519379 78:-0.28047 79:-0.0710343 80:-0.340483 81:-0.43023 82:-0.295609 83:-0.409204 84:-0.31084 85:-0.0757435 86:-0.291175 87:-0.398532 88:-0.221153 89:-0.440142 90:-0.36087 91:-0.32459 92:-0.469147 93:-0.578661 94:-0.371121 95:-0.38308 96:-0.405163 97:-0.251394 98:-0.426814 99:-0.524873 100:-0.452385 101:-0.437183 102:-0.448739 103:-0.393005 104:-0.4813 105:-0.452658 106:-0.112558 107:-0.441057 108:-0.46675 109:-0.423175 110:-0.394732 111:-0.449875 112:-0.431715 113:-0.381105 114:-0.429089 115:-0.292402 116:-0.44143 117:-0.300226 118:-0.343501 119:-0.530236 120:-0.404679 121:-0.447634 122:-0.446636 123:-0.476722 124:-0.393665 125:-0.469197 126:-0.495547 127:-0.415766 
2 0:0.141268 1:0.0703606 2:-0.493501 3:-0.0759459 4:-0.0925385 5:-0.200738 6:-0.499027 7:-0.679196 8:-0.373348 9:0.65008 10:-0.354366 11:0.0353793 12:0.135915 13:0.0186322 14:-0.424174 15:-0.212489 16:0.336345 17:0.0199791 18:0.004062 19:-0.368236 20:-0.002728 21:-0.0639655 22:-0.0586976 23:0.152485 24:0.46931 25:0.00330139 26:-0.449065 27:-0.131974 28:-0.116414 29:-0.350774 30:0.003445 31:-0.394777 32:-0.267115 33:0.202897 34:-0.229148 35:-0.0451409 36:-0.439926 37:-0.0772077 38:0.278904 39:0.152582 40:0.0126254 41:0.0847917 42:0.0202846 43:0.109169 44:-0.123108 45:0.0444337 46:0.152264 47:0.250558 48:0.12185 49:-0.226063 50:-0.115114 51:-0.219799 52:0.204951 53:0.229511 54:0.0736173 55:-0.0728299 56:0.0643186 57:0.0853877 58:0.225757 59:-0.21872 60:0.0996931 61:-0.263778 62:-0.130864 63:-0.292838 64:-0.304042 65:-0.136668 66:-0.377475 67:-0.263084 68:0.0304324 69:-0.26108 70:-0.165126 71:-0.509362 72:-0.518781 73:-0.687069 74:-0.346449 75:0.0415207 76:-0.743644 77:-0.365195 78:-0.644189 79:-0.374941 80:-0.615631 81:-0.277741 82:-0.706373 83:-0.284738 84:-0.460641 85:-0.369232 86:-0.292731 87:-0.415547 88:-0.476378 89:-0.54118 90:-0.524206 91:-0.465954 92:-0.376029 93:-0.496149 94:-0.443485 95:-0.598345 96:-0.477954 97:-0.550669 98:-0.453813 99:-0.544841 100:-0.492376 101:-0.429402 102:-0.500052 103:-0.586751 104:-0.725201 105:-0.381543 106:-0.446185 107:-0.549013 108:-0.631756 109:-0.42579 110:-0.435115 111:-0.498709 112:-0.390094 113:-0.392988 114:-0.498962 115:-0.597237 116:-0.445835 117:-0.516603 118:-0.382361 119:-0.574954 120:-0.541698 121:-0.413715 122:-0.588628 123:-0.44252 124:-0.706627 125:-0.551381 126:-0.604404 127:-0.532652 
2 0:0.0207282 1:0.0725681 2:-0.5695 3:0.009345 4:-0.0334857 5:0.129038 6:0.00532539 7:-0.365272 8:-0.255819 9:-0.404862 10:-0.662544 11:-0.00464871 12:0.440894 13:0.51384 14:-0.428879 15:0.0876795 16:-0.0679737 17:-0.126186 18:-0.684787 19:-0.0298531 20:-0.357955 21:-0.123189 22:0.0657267 23:0.305606 24:0.254871 25:-0.089652 26:-0.133717 27:0.283289 28:-0.197422 29:-0.34002 30:-0.315612 31:0.0204686 32:-0.53476 33:0.347437 34:-0.218031 35:-0.203099 36:0.231783 37:-0.323209 38:0.149678 39:-0.113454 40:0.122873 41:-0.521998 42:0.321042 43:0.234935 44:-0.125835 45:0.176377 46:0.552259 47:0.0424678 48:-0.153179 49:0.175016 50:0.229392 51:-0.0896295 52:0.482724 53:-0.0788257 54:0.117504 55:-0.185699 56:0.0546487 57:-0.343907 58:0.180711 59:0.0419059 60:-0.003487 61:0.0561189 62:-0.908068 63:-0.0369223 64:0.251318 65:-0.489535 66:0.112125 67:-0.420947 68:-0.210542 69:-0.267942 70:-0.303685 71:-0.274444 72:-0.267399 73:-0.436733 74:-0.671137 75:-0.142997 76:-0.0638541 77:-0.585199 78:-0.261105 79:-0.162946 80:-0.131856 81:-0.50649 82:-0.466494 83:-0.409168 84:-0.310776 85:-0.117793 86:-0.354213 87:-0.367853 88:-0.501604 89:-0.294799 90:-0.440747 91:-0.48478 92:-0.453487 93:-0.478343 94:-0.476263 95:-0.390163 96:-0.392876 97:-0.507684 98:-0.586234 99:-0.407271 100:-0.521823 101:-0.622785 102:-0.457642 103:-0.61442 104:-0.713463 105:-0.485888 106:-0.365551 107:-0.438406 108:-0.592272 109:-0.395446 110:-0.527458 111:-0.472325 112:-0.588452 113:-0.382202 114:-0.440059 115:-0.496503 116:-0.590134 117:-0.424243 118:-0.405367 119:-0.573809 120:-0.518063 121:-0.482793 122:-0.517671 123:-0.537868 124:-0.595567 125:-0.531593 126:-0.558486 127:-0.48609 
1.601573777566 0:0.0951918 1:0.062262 2:-0.531459 3:0.0627809 4:-0.198694 5:0.00951614 6:-0.115765 7:-0.36526 8:0.154195 9:-0.122666 10:-0.17263 11:0.132886 12:-0.0424666 13:0.111087 14:-0.578918 15:-0.130273 16:-0.0601627 17:0.0677766 18:-0.252968 19:-0.363459 20:-0.174519 21:0.585255 22:0.0834699 23:-0.222064 24:-0.152737 25:-0.104562 26:-0.114243 27:-0.0678579 28:-0.219415 29:0.102805 30:-0.166452 31:-0.11509 32:-0.338048 33:0.692717 34:-0.324307 35:0.111716 36:-0.00458596 37:0.108779 38:0.264686 39:0.051086 40:-0.0679104 41:0.265666 42:0.271475 43:0.0304717 44:-0.338025 45:-0.157823 46:-0.209478 47:0.216538 48:-0.089223 49:0.302531 50:-0.039088 51:-0.20964 52:0.270411 53:0.0882828 54:-0.0608257 55:-0.334889 56:-0.341812 57:0.436574 58:0.442307 59:0.0838247 60:0.171299 61:0.0337233 62:0.098821 63:0.298061 64:-0.328647 65:0.0415257 66:-0.37766 67:-0.443044 68:-0.263744 69:-0.416299 70:-0.534267 71:-0.250254 72:0.0276576 73:-0.455321 74:-0.332678 75:-0.317244 76:-0.313464 77:-0.511331 78:-0.595132 79:-0.0081871 80:-0.329778 81:-0.405013 82:-0.29626 83:-0.503692 84:-0.373565 85:-0.488164 86:-0.692569 87:-0.690249 88:-0.194106 89:-0.49577 90:-0.508932 91:-0.333808 92:-0.408494 93:-0.415446 94:-0.383081 95:-0.504137 96:-0.63658 97:-0.557584 98:-0.48044 99:-0.639746 100:-0.507709 101:-0.442369 102:-0.345546 103:-0.526879 104:-0.61786 105:-0.386216 106:-0.358983 107:-0.57767 108:-0.601921 109:-0.384132 110:-0.421193 111:-0.603707 112:-0.480342 113:-0.390092 114:-0.492454 115:-0.471095 116:-0.549503 117:-0.369516 118:-0.429147 119:-0.446838 120:-0.44115 121:-0.520611 122:-0.558661 123:-0.456851 124:-0.555003 125:-0.444204 126:-0.545546 127:-0.459764 
2 0:0.119871 1:0.0968729 2:-0.531555 3:-0.107214 4:-0.1845 5:-0.0552937 6:-0.411014 7:-0.23283 8:-0.203326 9:-0.158536 10:-0.101638 11:0.279235 12:0.0358346 13:-0.260325 14:-0.214172 15:-0.143033 16:-0.0159566 17:-0.268762 18:-0.315341 19:-0.296921 20:0.375813 21:0.265553 22:-0.0418583 23:0.392039 24:0.0199455 25:-0.255708 26:0.174667 27:-0.254194 28:0.0837658 29:-0.416766 30:-0.180552 31:0.426074 32:-0.398925 33:-0.151806 34:-0.0644371 35:-0.151526 36:0.0274816 37:-0.118588 38:0.230487 39:0.0500744 40:-0.333985 41:0.587479 42:0.452034 43:0.165325 44:-0.380032 45:0.405498 46:-0.364781 47:-0.398782 48:0.0779547 49:-0.0882752 50:-0.192961 51:-0.287608 52:0.235805 53:-0.147117 54:-0.081184 55:-0.0986388 56:0.21113 57:-0.220152 58:0.287964 59:0.271037 60:0.278511 61:-0.0261659 62:-0.344526 63:0.303347 64:0.683656 65:-0.321672 66:-0.550601 67:-0.266435 68:-0.13064 69:-0.225176 70:-0.363067 71:-0.404722 72:-0.205175 73:0.132122 74:-0.265313 75:-0.21108 76:-0.462003 77:-0.30877 78:-0.305181 79:-0.600286 80:-0.263575 81:-0.359855 82:-0.61344 83:-0.260741 84:-0.404973 85:-0.4723 86:-0.342344 87:-0.63205 88:-0.334568 89:-0.465953 90:-0.419728 91:-0.581596 92:-0.367845 93:-0.5421 94:-0.437455 95:-0.385172 96:-0.4706 97:-0.512009 98:-0.436774 99:-0.503585 100:-0.419318 101:-0.50635 102:-0.340567 103:-0.481627 104:-0.575842 105:-0.418148 106:-0.338251 107:-0.512434 108:-0.556161 109:-0.511871 110:-0.427576 111:-0.498616 112:-0.476797 113:-0.260158 114:-0.450141 115:-0.494644 116:-0.514378 117:-0.374304 118:-0.335061 119:-0.449952 120:-0.434099 121:-0.442617 122:-0.466602 123:-0.501261 124:-0.467464 125:-0.502394 126:-0.434843 127:-0.410974 
2 0:0.0540393 1:0.0551709 2:-0.532981 3:-0.0583803 4:-0.0756484 5:-0.0917801 6:-0.107273 7:-0.685002 8:0.250327 9:-0.0314068 10:0.196974 11:0.150394 12:0.00695525 13:-0.176139 14:-0.157737 15:0.173482 16:0.0769919 17:0.114888 18:-0.43747 19:-0.320604 20:-0.211885 21:0.145134 22:-0.0149727 23:-0.106424 24:0.124792 25:-0.0227359 26:-0.201446 27:0.0566357 28:-0.592849 29:-0.0247436 30:-0.463804 31:-0.191578 32:-0.402232 33:0.0595919 34:-0.318276 35:-0.231851 36:0.102583 37:-0.242223 38:-0.138963 39:-0.339118 40:0.118251 41:-0.130564 42:0.28933 43:-0.432461 44:-0.182673 45:0.108651 46:0.221942 47:0.0906254 48:-0.326132 49:-0.239004 50:0.25406 51:-0.352467 52:0.208202 53:0.0286584 54:-0.0227107 55:-0.0158962 56:0.0883353 57:-0.0879829 58:0.356792 59:-0.252599 60:-0.158987 61:-0.0317207 62:-0.45582 63:0.0991735 64:0.198594 65:0.229969 66:0.141922 67:-0.00506337 68:-0.302153 69:-0.189694 70:-0.634425 71:-0.424835 72:-0.174482 73:-0.355399 74:-0.280476 75:0.035039 76:-0.518946 77:-0.76032 78:-0.778137 79:0.196744 80:-0.268851 81:-0.399946 82:-0.277285 83:-0.675661 84:-0.514684 85:-0.459824 86:-0.581637 87:-0.578695 88:-0.599563 89:-0.323941 90:-0.642923 91:-0.676724 92:-0.476254 93:-0.627682 94:-0.583 95:-0.693007 96:-0.395721 97:-0.579124 98:-0.671196 99:-0.597566 100:-0.55967 101:-0.554411 102:-0.465614 103:-0.778458 104:-0.597639 105:-0.554996 106:-0.403341 107:-0.485242 108:-0.618939 109:-0.593466 110:-0.530335 111:-0.526339 112:-0.492921 113:-0.543252 114:-0.636359 115:-0.584635 116:-0.603236 117:-0.498535 118:-0.529146 119:-0.601085 120:-0.508783 121:-0.481222 122:-0.682745 123:-0.647361 124:-0.649879 125:-0.455595 126:-0.536105 127:-0.595501 
2 0:0.0741596 1:0.114021 2:-0.583927 3:-0.00528921 4:-0.136011 5:-0.0978285 6:-0.449996 7:-0.39791 8:-0.378909 9:0.238809 10:-0.0930292 11:0.407857 12:0.145904 13:0.168268 14:-0.266308 15:0.25141 16:0.321814 17:-0.0445647 18:-0.232058 19:-0.527104 20:-0.0651807 21:0.359088 22:0.188682 23:0.221237 24:0.136978 25:-0.343103 26:-0.00802207 27:0.287202 28:-0.48155 29:0.138235 30:-0.132575 31:0.00107713 32:-0.271109 33:0.191225 34:-0.128383 35:0.203693 36:0.0684374 37:-0.257356 38:0.248917 39:0.189695 40:0.218184 41:0.123758 42:0.0151127 43:0.149542 44:-0.156842 45:0.20124 46:-0.0771376 47:-0.293669 48:-0.200839 49:0.0818 50:0.147692 51:-0.321469 52:-0.00950078 53:0.160808 54:0.121964 55:-0.051076 56:-0.360125 57:-0.459124 58:-0.0550603 59:-0.323058 60:-0.182706 61:0.105498 62:0.491799 63:-0.198251 64:-0.70123 65:-0.0677918 66:-0.149135 67:-0.409155 68:-0.280779 69:-0.0953538 70:-0.25852 71:-0.190842 72:-0.534998 73:-0.705417 74:-0.327861 75:-0.555843 76:-0.499729 77:-0.4453 78:-0.73353 79:-0.356274 80:-0.369614 81:-0.563439 82:-0.484224 83:-0.604381 84:-0.372316 85:-0.481199 86:-0.526143 87:-0.613911 88:-0.219804 89:-0.21931 90:-0.62501 91:-0.574072 92:-0.324698 93:-0.644369 94:-0.653115 95:-0.635372 96:-0.624202 97:-0.421623 98:-0.540761 99:-0.538898 100:-0.402153 101:-0.602752 102:-0.515141 103:-0.603791 104:-0.555178 105:-0.536093 106:-0.44284 107:-0.399711 108:-0.682459 109:-0.423514 110:-0.529949 111:-0.614598 112:-0.54886 113:-0.328938 114:-0.663454 115:-0.552819 116:-0.535532 117:-0.341013 118:-0.520255 119:-0.578558 120:-0.600352 121:-0.577233 122:-0.473256 123:-0.544943 124:-0.458138 125:-0.451932 126:-0.493582 127:-0.585417 
2 0:0.0485685 1:0.0506125 2:-0.551941 3:0.00182456 4:-0.190912 5:-0.161896 6:0.137256 7:-0.551023 8:0.146468 9:0.497343 10:-0.142732 11:0.247075 12:0.293898 13:0.19181 14:0.0181053 15:-0.109592 16:-0.0478544 17:-0.41355 18:-0.666696 19:-0.0973085 20:-0.333731 21:-0.212986 22:0.0804117 23:-0.016076 24:0.061074 25:-0.0122382 26:0.388779 27:-0.077528 28:-0.445561 29:0.0264089 30:-0.0843717 31:-0.190678 32:-0.203186 33:-0.372813 34:-0.404072 35:0.204476 36:0.201081 37:-0.11742 38:-0.164255 39:0.423749 40:0.166635 41:-0.0276013 42:0.124706 43:-0.213619 44:-0.0385872 45:0.0769271 46:-0.291636 47:-0.267873 48:-0.0406489 49:0.0429615 50:0.302303 51:-0.193928 52:0.379328 53:0.17557 54:-0.323688 55:-0.0746613 56:0.0658261 57:-0.432938 58:0.298235 59:-0.24771 60:0.257504 61:-0.157347 62:-0.441022 63:-0.00916093 64:-0.0650264 65:0.000835241 66:-0.182736 67:0.184421 68:0.414168 69:-0.24828 70:-0.154104 71:-0.500933 72:-0.278543 73:-0.334313 74:-0.217421 75:0.350068 76:-0.267408 77:-0.599742 78:-0.220197 79:0.279886 80:-0.0965209 81:-0.175441 82:-0.624326 83:-0.284179 84:-0.156629 85:-0.428159 86:-0.213298 87:-0.449743 88:-0.452169 89:-0.246938 90:-0.368759 91:-0.180711 92:-0.234703 93:-0.183614 94:-0.20819 95:-0.444904 96:-0.401583 97:-0.325954 98:-0.474598 99:-0.614249 100:-0.289773 101:-0.407272 102:-0.363361 103:-0.396614 104:-0.420173 105:-0.335177 106:-0.197962 107:-0.469133 108:-0.453051 109:-0.392606 110:-0.368616 111:-0.44 112:-0.343739 113:-0.302058 114:-0.354062 115:-0.489245 116:-0.502103 117:-0.331856 118:-0.34536 119:-0.458474 120:-0.355225 121:-0.417448 122:-0.367454 123:-0.38471 124:-0.418301 125:-0.346531 126:-0.435031 127:-0.425325 
2 0:0.0675339 1:0.0346158 2:-0.51981 3:0.0379038 4:-0.219148 5:-0.203707 6:-0.264895 7:-0.221871 8:0.110681 9:0.170317 10:-0.130794 11:0.332484 12:0.106733 13:0.0385503 14:-0.320027 15:0.0800979 16:-0.499482 17:-0.0457619 18:-0.420776 19:-0.0823881 20:-0.0516055 21:0.00904567 22:0.0831654 23:-0.19861 24:-0.583048 25:-0.0858829 26:-0.0466365 27:0.269015 28:-0.0980297 29:0.128094 30:-0.61028 31:0.0218346 32:-0.434569 33:-0.0538755 34:-0.312981 35:-0.0894136 36:0.106065 37:-0.405919 38:-0.293807 39:0.26957 40:-0.201645 41:-0.306498 42:0.0192239 43:0.327891 44:0.00501781 45:-0.179693 46:0.175106 47:0.0804878 48:-0.185404 49:0.141582 50:0.0228811 51:-0.210233 52:-0.0302214 53:0.136807 54:-0.215434 55:0.02795 56:-0.105312 57:0.281571 58:0.0794607 59:0.504031 60:-0.181844 61:-0.272209 62:-0.372981 63:-0.226251 64:-0.0158172 65:-0.262048 66:-0.518933 67:0.00886098 68:0.456855 69:-0.368767 70:-0.522515 71:-0.649001 72:-0.120339 73:-0.645222 74:-0.556952 75:-0.0989011 76:-0.385746 77:-0.944848 78:-0.478869 79:-0.325232 80:-0.458763 81:-0.452726 82:-0.449926 83:-0.333516 84:-0.654986 85:-0.1916 86:-0.491294 87:-0.815066 88:-0.447366 89:-0.616416 90:-0.504333 91:-0.506921 92:-0.548189 93:-0.365773 94:-0.560012 95:-0.430116 96:-0.643487 97:-0.615213 98:-0.582385 99:-0.595377 100:-0.446586 101:-0.555796 102:-0.34478 103:-0.695733 104:-0.435962 105:-0.371952 106:-0.375009 107:-0.495479 108:-0.550533 109:-0.513962 110:-0.407281 111:-0.621076 112:-0.466832 113:-0.369357 114:-0.549007 115:-0.540771 116:-0.511459 117:-0.537789 118:-0.436211 119:-0.503566 120:-0.470401 121:-0.413782 122:-0.481126 123:-0.542034 124:-0.527783 125:-0.606168 126:-0.591655 127:-0.524419 
2 0:0.0942192 1:0.0731711 2:-0.497394 3:0.0957944 4:-0.1762 5:0.16513 6:0.0134091 7:-0.293706 8:-0.0466613 9:0.158738 10:0.384088 11:-0.136007 12:0.0155894 13:-0.17277 14:-0.295611 15:-0.209483 16:0.0433093 17:-0.0302322 18:-0.567418 19:-0.356691 20:0.00117145 21:0.408351 22:0.381658 23:-0.259325 24:-0.189838 25:0.0786474 26:0.210304 27:0.273662 28:-0.269115 29:0.334368 30:-0.36874 31:-0.35251 32:-0.330326 33:-0.246052 34:-0.142896 35:-0.206168 36:0.282105 37:-0.44105 38:-0.158981 39:-0.194557 40:0.348176 41:-0.220632 42:0.0107435 43:0.0827179 44:-0.521003 45:-0.442389 46:-0.186914 47:-0.251846 48:-0.11291 49:-0.451243 50:-0.019169 51:-0.0688412 52:-0.0705455 53:0.183734 54:0.0285174 55:0.213074 56:0.0139096 57:0.144575 58:0.284609 59:0.38813 60:-0.344535 61:-0.92287 62:0.287338 63:-0.212758 64:0.142355 65:-0.0587551 66:-0.104022 67:-0.382041 68:-0.361821 69:-0.468554 70:-0.276938 71:-0.220009 72:-0.614227 73:-0.326704 74:-0.343521 75:-0.689482 76:-0.419171 77:-0.433878 78:-0.609863 79:-0.663965 80:-0.422543 81:-0.337762 82:-0.512189 83:-0.494874 84:-0.6899 85:-0.431794 86:-0.59337 87:-0.43061 88:-0.624411 89:-0.645704 90:-0.933148 91:-0.623336 92:-0.695376 93:-0.698428 94:-0.580301 95:-0.598938 96:-0.549815 97:-0.573709 98:-0.612474 99:-0.643794 100:-0.473537 101:-0.52173 102:-0.655958 103:-0.657693 104:-0.874327 105:-0.569795 106:-0.460032 107:-0.793448 108:-0.591906 109:-0.512279 110:-0.581465 111:-0.652028 112:-0.665057 113:-0.601828 114:-0.607807 115:-0.683913 116:-0.586126 117:-0.5568 118:-0.55422 119:-0.607671 120:-0.648948 121:-0.680516 122:-0.630743 123:-0.727172 124:-0.704911 125:-0.650997 126:-0.675331 127:-0.599011 
2 0:0.0907544 1:0.0848203 2:-0.404178 3:0.0351661 4:-0.0638756 5:0.0775721 6:-0.357473 7:-0.488566 8:0.00892396 9:-0.629482 10:0.407586 11:0.166615 12:0.139287 13:0.251313 14:-0.535895 15:0.196177 16:-0.245182 17:-0.00139535 18:-0.721142 19:0.220059 20:0.148173 21:-0.0893058 22:0.173277 23:-0.0492196 24:0.182658 25:-0.101161 26:0.392349 27:0.464693 28:-0.147281 29:-0.359669 30:-0.143887 31:-0.0264795 32:-0.066213 33:0.415899 34:-0.0597466 35:-0.187737 36:0.163045 37:0.387134 38:-0.248957 39:-0.0343688 40:-0.0384645 41:0.122644 42:0.399644 43:-0.0757134 44:0.205189 45:0.0742101 46:0.02475 47:0.159425 48:0.0683764 49:-0.0325255 50:0.187803 51:-0.156261 52:-0.299129 53:0.249831 54:0.06283 55:0.383724 56:-0.149197 57:-0.254749 58:0.239001 59:-0.034744 60:0.186473 61:0.0278067 62:-0.423847 63:0.04079 64:-0.0158172 65:-0.15916 66:-0.225993 67:-0.12131 68:-0.0712299 69:-0.552913 70:-0.477806 71:-0.341063 72:0.0131142 73:-0.522254 74:-0.884082 75:-0.0419241 76:-0.365221 77:-0.292551 78:-0.825593 79:-0.441523 80:-0.424164 81:-0.856175 82:-0.274931 83:-0.147525 84:-0.261137 85:-0.392522 86:-0.319167 87:-0.40073 88:-0.256338 89:-0.476802 90:-0.306867 91:-0.322859 92:-0.362009 93:-0.381714 94:-0.361704 95:-0.575913 96:-0.459403 97:-0.523415 98:-0.433702 99:-0.513449 100:-0.348394 101:-0.430762 102:-0.493625 103:-0.557119 104:-0.518763 105:-0.406207 106:-0.344187 107:-0.388016 108:-0.533561 109:-0.405502 110:-0.376782 111:-0.380441 112:-0.441718 113:-0.445888 114:-0.502669 115:-0.487876 116:-0.400246 117:-0.31371 118:-0.345131 119:-0.424966 120:-0.501915 121:-0.541223 122:-0.561791 123:-0.471032 124:-0.421158 125:-0.515058 126:-0.5165 127:-0.444906 
2 0:0.0342228 1:0.0173897 2:-0.528163 3:-0.0543098 4:-0.267349 5:-0.300363 6:-0.141884 7:-0.0402268 8:0.574738 9:0.174826 10:0.401297 11:0.478238 12:0.620864 13:-0.160587 14:-0.308666 15:-0.317988 16:0.172288 17:-0.0540326 18:-0.0535796 19:-0.609194 20:0.283921 21:0.0447043 22:-0.156495 23:-0.151726 24:-0.455466 25:0.233706 26:0.338488 27:0.186311 28:-0.193961 29:-0.226974 30:-0.243123 31:-0.00977177 32:-0.563646 33:0.155209 34:0.133703 35:0.207607 36:0.113745 37:-0.224408 38:0.410848 39:-0.00412631 40:-0.527743 41:-0.201238 42:0.279929 43:-0.0131905 44:0.21054 45:0.450102 46:0.0280198 47:0.32759 48:-0.397356 49:-0.523303 50:-0.174032 51:0.0112995 52:0.389278 53:-0.0276531 54:0.333199 55:0.0190493 56:0.539307 57:0.368801 58:0.0282635 59:0.0564716 60:0.219494 61:-0.424142 62:0.238683 63:-0.0879194 64:0.293497 65:0.0968531 66:-0.127238 67:-0.238907 68:0.289023 69:-0.264403 70:-0.227481 71:-0.664903 72:0.0282403 73:-0.670934 74:-0.439824 75:-0.0124805 76:-0.213368 77:-0.183292 78:0.0407804 79:0.0642501 80:-0.188281 81:-0.208133 82:-0.080862 83:-0.335666 84:-0.43417 85:-0.335409 86:-0.24875 87:-0.581625 88:-0.091621 89:-0.442511 90:-0.342761 91:-0.429363 92:-0.211707 93:-0.410133 94:-0.52223 95:-0.47181 96:-0.536069 97:-0.468335 98:-0.346375 99:-0.479736 100:-0.434671 101:-0.414107 102:-0.284734 103:-0.483884 104:-0.482776 105:-0.307808 106:-0.182919 107:-0.412058 108:-0.503461 109:-0.387295 110:-0.359477 111:-0.501066 112:-0.334642 113:-0.303079 114:-0.326296 115:-0.429328 116:-0.516886 117:-0.281837 118:-0.380273 119:-0.413455 120:-0.404074 121:-0.275748 122:-0.439597 123:-0.371102 124:-0.372459 125:-0.327594 126:-0.413355 127:-0.416488 
2 0:0.0348915 1:0.0576668 2:-0.490412 3:0.0490636 4:-0.35034 5:-0.482574 6:0.0173205 7:-0.91536 8:0.512301 9:0.113334 10:0.0121219 11:-0.181782 12:-0.0663077 13:0.154719 14:-0.439505 15:-0.0444603 16:0.235347 17:0.000976267 18:-0.298416 19:-0.102873 20:-0.482116 21:0.314495 22:0.310127 23:0.0630767 24:0.445895 25:0.463954 26:0.335055 27:-0.190755 28:-0.482721 29:-0.402296 30:-0.256681 31:0.207154 32:-0.493909 33:-0.0456263 34:0.132119 35:-0.129223 36:0.00982559 37:-0.106796 38:0.200701 39:-0.0758567 40:0.0868075 41:0.20484 42:0.182852 43:0.265442 44:0.173564 45:0.232719 46:0.0590388 47:-0.317099 48:0.11321 49:-0.253189 50:0.0341901 51:0.185004 52:0.00578284 53:0.190166 54:-0.531673 55:-0.161607 56:-0.316448 57:0.277469 58:-0.302589 59:0.0417736 60:-0.309538 61:-0.86325 62:-0.218225 63:0.0942886 64:-0.14587 65:-0.166641 66:-0.430493 67:0.046641 68:-0.404599 69:-0.351527 70:-0.441366 71:-0.43098 72:-0.189386 73:-0.808305 74:-0.10541 75:-0.623781 76:-0.498602 77:-0.758822 78:-0.807402 79:-0.147433 80:-0.245166 81:-0.616203 82:-0.616671 83:-0.49079 84:-0.526929 85:-0.226798 86:-0.549105 87:-0.746674 88:-0.592314 89:-0.502503 90:-0.670479 91:-0.57767 92:-0.647244 93:-0.671092 94:-0.637992 95:-0.580115 96:-0.595381 97:-0.59039 98:-0.660151 99:-0.709059 100:-0.676178 101:-0.555001 102:-0.522078 103:-0.657134 104:-0.69205 105:-0.686409 106:-0.660509 107:-0.591136 108:-0.716836 109:-0.620417 110:-0.563 111:-0.748333 112:-0.604447 113:-0.500882 114:-0.653113 115:-0.692097 116:-0.675273 117:-0.610683 118:-0.526433 119:-0.711065 120:-0.633534 121:-0.536227 122:-0.703697 123:-0.6643 124:-0.663924 125:-0.553509 126:-0.681393 127:-0.666442 
2 0:0.0434624 1:0.0560896 2:-0.528549 3:0.00503455 4:-0.0713398 5:-0.363259 6:-0.14175 7:-0.188565 8:-0.0190868 9:-0.0751434 10:-0.336378 11:0.293531 12:0.464878 13:-0.263288 14:-0.225232 15:-0.0223588 16:-0.0205275 17:-0.102224 18:-0.42035 19:0.172983 20:0.0420802 21:-0.137249 22:0.33468 23:-0.251075 24:0.113105 25:-0.351836 26:0.670109 27:0.1931 28:-0.0975403 29:-0.230223 30:-0.388829 31:-0.228166 32:-0.23907 33:0.265336 34:-0.405558 35:0.108116 36:0.137951 37:-0.435393 38:0.192159 39:0.0660771 40:0.0466834 41:0.208966 42:0.231485 43:-0.136692 44:-0.222797 45:-0.0389551 46:-0.0712201 47:-0.0991667 48:-0.396345 49:0.29658 50:-0.096849 51:-0.326069 52:-0.0434732 53:0.439469 54:0.00657267 55:-0.21009 56:0.255709 57:0.100803 58:0.304627 59:0.0345533 60:0.153408 61:-0.606931 62:-0.0674984 63:-0.0649471 64:0.40246 65:-0.00819784 66:0.0549851 67:-0.228698 68:0.386933 69:-0.0991202 70:-0.0938452 71:-0.0840676 72:-0.0913153 73:-0.473233 74:-0.519898 75:-0.134992 76:-0.161286 77:-0.63987 78:0.024694 79:0.0324331 80:-0.205794 81:-0.240156 82:-0.00762651 83:-0.173122 84:-0.36563 85:-0.15377 86:-0.201795 87:-0.337188 88:-0.267589 89:-0.383683 90:-0.515426 91:-0.283985 92:-0.487283 93:-0.282907 94:-0.524908 95:-0.351763 96:-0.36555 97:-0.426354 98:-0.489664 99:-0.560421 100:-0.313239 101:-0.487592 102:-0.389507 103:-0.457319 104:-0.660784 105:-0.362059 106:-0.2532 107:-0.401022 108:-0.494389 109:-0.44547 110:-0.303497 111:-0.481283 112:-0.299241 113:-0.276668 114:-0.526065 115:-0.337831 116:-0.442228 117:-0.3004 118:-0.368263 119:-0.423889 120:-0.453665 121:-0.366261 122:-0.47536 123:-0.473907 124:-0.509796 125:-0.399752 126:-0.477654 127:-0.411413 
2 0:-0.93666 1:1 2:-0.460805 3:-0.359317 4:-1 5:-1 6:-0.114134 7:0.687459 8:0.594802 9:0.473135 10:0.348018 11:-0.981085 12:-1 13:0.70789 14:-0.168585 15:-0.664755 16:0.981775 17:0.378559 18:-0.285036 19:0.0508208 20:-0.0954732 21:0.114081 22:0.169414 23:1 24:0.0929107 25:0.335169 26:0.354037 27:0.583191 28:1 29:0.53155 30:-0.221199 31:0.495239 32:-0.459964 33:0.494864 34:0.00542128 35:-1 36:0.0402955 37:0.406548 38:-1 39:0.181334 40:0.374596 41:0.0936157 42:0.124262 43:-0.0499023 44:-0.322808 45:0.156754 46:0.64415 47:0.278639 48:0.273573 49:-0.601373 50:-0.696991 51:0.185557 52:0.831067 53:1 54:0.567195 55:-0.328475 56:-0.0582352 57:-0.520392 58:0.115266 59:0.502776 60:0.491687 61:0.856556 62:0.735524 63:0.855468 64:0.602812 65:0.339734 66:-0.414085 67:-0.181034 68:0.76664 69:0.351577 70:-0.38861 71:0.251907 72:0.0752168 73:-0.435484 74:-0.193655 75:0.368772 76:0.333407 77:1 78:0.180653 79:0.117709 80:0.255141 81:0.263826 82:-0.278538 83:0.428015 84:0.0219285 85:0.302079 86:0.402175 87:0.150054 88:0.0529282 89:0.172865 90:-0.215174 91:-0.0818221 92:0.268841 93:0.403886 94:0.1342 95:-0.0850468 96:0.255509 97:0.0117221 98:0.101048 99:-0.0427627 100:0.0440787 101:-0.0728702 102:0.198832 103:0.0689967 104:-0.159832 105:0.124802 106:0.180105 107:-0.0219508 108:0.00484909 109:0.11161 110:0.0795978 111:0.104558 112:0.171764 113:0.21588 114:0.202072 115:0.164242 116:0.119305 117:0.27795 118:0.272764 119:0.179058 120:0.153813 121:0.159449 122:0.129819 123:0.0715971 124:0.124456 125:0.0760021 126:0.0704136 127:0.0442723 
2 0:0.307276 1:0.427903 2:-1 3:-1 4:0.076533 5:0.639182 6:-0.156877 7:-0.508475 8:0.191095 9:0.410752 10:-0.30502 11:-0.949966 12:0.178029 13:-0.195771 14:-0.662629 15:-0.430671 16:0.0133589 17:-0.299823 18:-0.535339 19:0.257772 20:0.146371 21:0.177972 22:0.323552 23:-0.378975 24:-0.289168 25:-0.781922 26:0.150466 27:0.3575 28:-0.437613 29:-0.213661 30:-0.366107 31:-0.532405 32:-0.551413 33:-0.773421 34:-0.223782 35:-0.472913 36:0.067018 37:-0.158266 38:0.247448 39:-0.195426 40:-0.331104 41:-0.319221 42:-0.0336223 43:-0.228901 44:-1 45:-0.0957 46:0.609627 47:-0.693335 48:-0.313337 49:0.0900064 50:0.221566 51:-0.101818 52:0.726811 53:0.487739 54:0.114362 55:-0.376626 56:-0.0775344 57:-0.381803 58:0.0501895 59:0.353318 60:0.181139 61:0.413893 62:-0.158691 63:0.399833 64:0.525483 65:0.0815995 66:0.590352 67:-0.367981 68:-0.373213 69:-0.227925 70:-0.550721 71:-0.544828 72:-0.431782 73:-0.657331 74:-0.823838 75:-1 76:-0.166467 77:-0.743296 78:-0.287266 79:-0.12113 80:-0.354434 81:-0.616411 82:-0.772621 83:-0.566819 84:-0.634194 85:-0.345398 86:-0.460594 87:-0.523104 88:-0.360613 89:-0.48344 90:-0.507252 91:-0.397074 92:-0.618661 93:-0.617971 94:-0.552708 95:-0.737139 96:-0.676034 97:-0.513293 98:-0.541685 99:-0.56299 100:-0.442841 101:-0.672408 102:-0.581713 103:-0.697738 104:-0.764219 105:-0.592843 106:-0.567794 107:-0.587972 108:-0.712072 109:-0.591215 110:-0.549933 111:-0.668689 112:-0.625472 113:-0.530451 114:-0.475916 115:-0.728896 116:-0.664424 117:-0.592695 118:-0.491962 119:-0.723001 120:-0.581069 121:-0.519136 122:-0.709388 123:-0.648813 124:-0.657314 125:-0.511998 126:-0.666763 127:-0.678628 
1.69579268628358 0:-0.400158 1:-0.0790319 2:-0.245236 3:0.0774683 4:-0.283936 5:-0.115495 6:0.44572 7:0.0283621 8:0.423048 9:0.118097 10:-0.67515 11:0.252487 12:0.511402 13:-0.362365 14:0.236639 15:-0.497134 16:-0.0571661 17:-0.0385506 18:-0.0978974 19:-0.0842128 20:0.0187589 21:0.601835 22:0.139752 23:0.101142 24:-0.158944 25:-0.359877 26:0.111443 27:0.251958 28:-0.297052 29:-0.250319 30:-0.492028 31:-0.218797 32:-0.0663001 33:0.329758 34:-0.187521 35:-0.325097 36:0.43587 37:-0.435851 38:0.150964 39:0.399133 40:0.279538 41:-0.0330296 42:-0.233794 43:0.612623 44:-0.248104 45:0.0821967 46:-0.20105 47:-0.148505 48:0.00019402 49:-0.46949 50:-0.22657 51:-0.110234 52:-0.422463 53:0.31849 54:0.0992048 55:-0.639817 56:-0.112521 57:0.134576 58:-0.101161 59:0.0499365 60:-0.089011 61:0.247572 62:-0.604632 63:0.144159 64:-0.413005 65:-0.266842 66:-0.186457 67:-0.115289 68:-0.379741 69:-0.274592 70:-0.0915622 71:-0.734388 72:-0.527555 73:-0.362716 74:-0.529901 75:-0.156271 76:-0.319757 77:-0.673354 78:-0.798927 79:-0.237417 80:-0.263931 81:-0.445583 82:-0.590242 83:-0.365368 84:-0.331948 85:-0.550937 86:-0.358809 87:-0.757414 88:-0.540833 89:-0.56689 90:-0.696274 91:-0.38396 92:-0.545801 93:-0.443345 94:-0.463023 95:-0.650639 96:-0.44082 97:-0.52264 98:-0.524137 99:-0.735206 100:-0.587207 101:-0.513367 102:-0.414523 103:-0.56513 104:-0.685484 105:-0.518855 106:-0.460914 107:-0.526546 108:-0.586203 109:-0.545779 110:-0.431952 111:-0.606554 112:-0.608956 113:-0.441189 114:-0.489086 115:-0.551345 116:-0.526216 117:-0.490203 118:-0.502716 119:-0.629188 120:-0.533056 121:-0.4607 122:-0.522528 123:-0.596529 124:-0.622111 125:-0.542337 126:-0.450059 127:-0.560843 
2 0:0.0257735 1:0.0599558 2:-0.527729 3:-0.0948167 4:-0.237428 5:0.107593 6:0.300199 7:-0.199862 8:0.146612 9:-0.789016 10:-0.158551 11:0.00957025 12:0.127759 13:0.554105 14:-0.301501 15:0.289169 16:-0.0027413 17:0.288082 18:-0.353966 19:-0.048509 20:0.43897 21:-0.0526003 22:-0.345992 23:0.830253 24:-0.649442 25:0.242867 26:-0.194973 27:-0.0320202 28:-0.302888 29:-0.0327388 30:0.0754793 31:0.35378 32:-0.365405 33:0.278908 34:0.424843 35:-0.676538 36:1 37:0.350637 38:-0.0072936 39:-0.722554 40:0.0974492 41:0.421657 42:-0.383775 43:-0.420263 44:0.0680907 45:-0.388293 46:-1 47:0.326582 48:0.116999 49:-0.924629 50:-0.0484825 51:0.06198 52:-0.328138 53:-0.0532875 54:0.0802486 55:-0.0754259 56:0.0474497 57:0.71074 58:0.905817 59:-0.225274 60:-0.230787 61:0.372265 62:-0.748168 63:-0.323577 64:0.332162 65:-0.359002 66:-0.533078 67:-0.413401 68:-0.0240496 69:-0.0952132 70:-0.64906 71:-0.319035 72:-0.0577991 73:-0.525101 74:-0.632311 75:-0.205809 76:-0.419561 77:-0.851959 78:-0.437138 79:-0.162255 80:-0.202437 81:-0.736067 82:-0.267908 83:-0.415665 84:-0.672641 85:-0.653155 86:-0.174393 87:-0.527454 88:-0.307906 89:-0.222989 90:-0.561223 91:-0.623707 92:-0.674885 93:-0.644467 94:-0.675257 95:-0.625872 96:-0.527857 97:-0.561002 98:-0.611063 99:-0.736442 100:-0.537743 101:-0.513893 102:-0.474705 103:-0.606736 104:-0.679428 105:-0.454816 106:-0.483719 107:-0.4247 108:-0.563406 109:-0.534615 110:-0.646282 111:-0.657407 112:-0.427618 113:-0.373906 114:-0.377098 115:-0.653394 116:-0.578454 117:-0.328301 118:-0.441581 119:-0.505796 120:-0.552672 121:-0.458304 122:-0.590433 123:-0.470333 124:-0.476611 125:-0.612584 126:-0.611691 127:-0.4623 
1.965927754102085 0:0.0226734 1:0.00532888 2:-0.518947 3:-0.0716495 4:-0.283364 5:0.294089 6:0.0206122 7:-0.490778 8:-0.179204 9:0.0230474 10:-0.0872191 11:0.227996 12:-0.0353914 13:0.0398799 14:0.248567 15:-0.484446 16:0.274287 17:0.0209989 18:-0.454573 19:-0.0547246 20:-0.432898 21:0.243424 22:0.173149 23:-0.299079 24:0.0721866 25:-0.165707 26:0.5307 27:0.0149195 28:-0.233154 29:0.242212 30:-0.0880275 31:0.049277 32:0.250149 33:-0.446876 34:-0.421689 35:-0.185617 36:0.204245 37:0.0439163 38:-0.248682 39:0.310186 40:0.507291 41:-0.0310878 42:0.247078 43:-0.200191 44:0.175805 45:0.132972 46:0.251318 47:0.12747 48:-0.479028 49:-0.253379 50:0.380887 51:-0.0571236 52:-0.0101558 53:0.061881 54:-0.150127 55:0.200817 56:0.107119 57:-0.000799575 58:0.0077829 59:0.409045 60:0.295642 61:0.164681 62:0.103322 63:0.0176836 64:0.156415 65:0.301778 66:-0.34417 67:-0.386501 68:-0.304022 69:0.0108033 70:-0.232421 71:-0.106285 72:0.016858 73:8.3069e-05 74:-0.127382 75:-0.452724 76:-0.103174 77:-0.543709 78:-0.000892222 79:0.0910304 80:-0.161614 81:-0.463039 82:-0.0714341 83:-0.300895 84:-0.430377 85:-0.383247 86:-0.366227 87:-0.70064 88:-0.247852 89:-0.365847 90:-0.422275 91:-0.135185 92:-0.344921 93:-0.322267 94:-0.296841 95:-0.52837 96:-0.480769 97:-0.420487 98:-0.470183 99:-0.422923 100:-0.339555 101:-0.495105 102:-0.401661 103:-0.530299 104:-0.529895 105:-0.360759 106:-0.207074 107:-0.392035 108:-0.454187 109:-0.449602 110:-0.382178 111:-0.432495 112:-0.484547 113:-0.283344 114:-0.43127 115:-0.473794 116:-0.464858 117:-0.268386 118:-0.306341 119:-0.429514 120:-0.460722 121:-0.365141 122:-0.458445 123:-0.455945 124:-0.4592 125:-0.470998 126:-0.478241 127:-0.352704 
1.981744451073361 0:0.0791441 1:0.0767262 2:-0.470279 3:-0.023013 4:-0.278537 5:-0.115725 6:-0.158131 7:-0.582812 8:-0.202518 9:0.0647756 10:0.0635221 11:0.187145 12:-0.0413675 13:0.351272 14:-0.298468 15:-0.43569 16:0.256436 17:0.455366 18:-0.305837 19:-0.843177 20:0.00121056 21:-0.00375515 22:0.139137 23:0.311567 24:-0.117188 25:-0.0768682 26:-0.0184409 27:0.583886 28:-0.0728094 29:0.186518 30:-0.339146 31:0.372263 32:0.111146 33:-0.361124 34:0.168424 35:0.114449 36:0.435894 37:-0.270999 38:0.11019 39:-0.433373 40:-0.385761 41:0.223134 42:-0.37024 43:-0.0393315 44:-0.10321 45:0.673827 46:0.154859 47:-0.163422 48:-0.475693 49:-0.094382 50:-0.346826 51:-0.1054 52:0.150335 53:0.142735 54:-0.266153 55:-0.247356 56:-0.192709 57:-0.0836929 58:0.331278 59:-0.21927 60:-0.32549 61:-0.313856 62:-0.261446 63:-0.364205 64:0.0685413 65:0.0334871 66:-0.289978 67:-0.487969 68:-0.0696411 69:-0.619511 70:-0.571901 71:-0.418968 72:-0.364011 73:-0.497075 74:-0.374981 75:-0.470311 76:-0.14527 77:-0.552253 78:-0.61561 79:-0.238944 80:-0.450766 81:-0.698126 82:-0.520544 83:-0.615241 84:-0.550291 85:-0.323968 86:-0.616308 87:-0.741134 88:-0.525829 89:-0.51947 90:-0.49085 91:-0.457236 92:-0.445828 93:-0.655812 94:-0.519049 95:-0.608851 96:-0.410196 97:-0.608824 98:-0.506347 99:-0.731943 100:-0.667187 101:-0.585019 102:-0.585086 103:-0.584215 104:-0.736443 105:-0.414587 106:-0.538594 107:-0.528038 108:-0.584006 109:-0.63898 110:-0.522208 111:-0.736188 112:-0.625712 113:-0.506041 114:-0.568234 115:-0.617416 116:-0.527184 117:-0.476676 118:-0.469389 119:-0.63143 120:-0.583139 121:-0.531783 122:-0.705226 123:-0.672197 124:-0.65924 125:-0.596865 126:-0.693243 127:-0.522741 
1.702346440755925 0:0.208376 1:0.0721356 2:-0.532276 3:-0.0551467 4:0.0162775 5:0.0433464 6:-0.269546 7:-0.573974 8:0.140674 9:-0.705975 10:-0.87475 11:0.397725 12:0.234984 13:0.418832 14:0.23555 15:-0.40831 16:0.0963609 17:-0.345004 18:-0.529453 19:-0.0801278 20:-0.161924 21:0.504479 22:0.699581 23:0.0677462 24:0.488274 25:0.416944 26:0.297585 27:-0.214598 28:-0.565232 29:-0.485596 30:-0.476173 31:-0.0515596 32:-0.111239 33:0.370141 34:-0.121815 35:-0.270722 36:0.305094 37:-0.421342 38:-0.278834 39:0.124975 40:0.197201 41:0.137321 42:0.468638 43:0.407424 44:-0.212724 45:0.0899967 46:0.556001 47:-0.0713205 48:-0.219275 49:0.289501 50:0.0334384 51:0.0323445 52:-0.107688 53:0.0506119 54:-0.331754 55:0.17805 56:0.0218478 57:0.0827064 58:0.410881 59:0.0449878 60:0.15288 61:-0.207577 62:0.099872 63:0.1979 64:0.029877 65:-0.239162 66:-0.29318 67:-0.194853 68:-0.112473 69:-0.279739 70:-0.423793 71:-0.356867 72:-0.396956 73:-0.35661 74:-0.521352 75:-0.193684 76:-0.349276 77:-0.594585 78:-0.603778 79:-0.112659 80:-0.192066 81:-0.24307 82:-0.486093 83:-0.186349 84:-0.220331 85:-0.199164 86:-0.285823 87:-0.557436 88:-0.568642 89:-0.539456 90:-0.439489 91:-0.547769 92:-0.546795 93:-0.44599 94:-0.410846 95:-0.515159 96:-0.627461 97:-0.495952 98:-0.60119 99:-0.694247 100:-0.471895 101:-0.519924 102:-0.519084 103:-0.485242 104:-0.648202 105:-0.413327 106:-0.269003 107:-0.499204 108:-0.611197 109:-0.532224 110:-0.455748 111:-0.59908 112:-0.5472 113:-0.350215 114:-0.411613 115:-0.514195 116:-0.597721 117:-0.424118 118:-0.499477 119:-0.533995 120:-0.533964 121:-0.487964 122:-0.529593 123:-0.467943 124:-0.627402 125:-0.56279 126:-0.487328 127:-0.514983 
2 0:0.0120357 1:0.0466039 2:-0.506602 3:-0.0993624 4:-0.41062 5:0.384106 6:-0.122634 7:-0.0507375 8:0.190164 9:0.550153 10:0.61401 11:0.487156 12:0.403559 13:-0.308798 14:-0.398455 15:-0.25507 16:-0.285451 17:-0.119389 18:-0.17349 19:-0.21205 20:-0.280463 21:0.31637 22:0.486764 23:0.0904604 24:-0.499621 25:0.138306 26:-0.155991 27:0.329422 28:-0.160014 29:-0.331752 30:-0.498265 31:-0.0546011 32:-0.335432 33:-0.0257218 34:-0.230334 35:0.17127 36:-0.155534 37:-0.166499 38:0.25515 39:0.07319 40:0.190991 41:-0.201715 42:0.419108 43:-0.0509739 44:-0.16182 45:-0.286304 46:0.132463 47:0.13743 48:-0.125417 49:-0.185099 50:0.28423 51:-0.16622 52:0.126532 53:0.243342 54:-0.00642782 55:0.212269 56:0.223298 57:-0.0107705 58:-0.390456 59:-0.0524162 60:0.00506553 61:-0.0361373 62:0.315485 63:-0.0408132 64:0.107206 65:0.0625706 66:-0.165349 67:-0.11733 68:-0.0914345 69:-0.190729 70:-0.466878 71:-0.38269 72:-0.0793284 73:-0.436606 74:-0.223318 75:-0.34989 76:-0.227454 77:-0.180627 78:-0.510445 79:-0.358926 80:-0.0222198 81:-0.23228 82:-0.121638 83:-0.281611 84:-0.613263 85:-0.497136 86:-0.30079 87:-0.515223 88:-0.404286 89:-0.534671 90:-0.38837 91:-0.366156 92:-0.259281 93:-0.436348 94:-0.389199 95:-0.631563 96:-0.301314 97:-0.612267 98:-0.577089 99:-0.525532 100:-0.481186 101:-0.454263 102:-0.466915 103:-0.515311 104:-0.559957 105:-0.351176 106:-0.229039 107:-0.359692 108:-0.560679 109:-0.516422 110:-0.433188 111:-0.392239 112:-0.427893 113:-0.368543 114:-0.506609 115:-0.412159 116:-0.464916 117:-0.354795 118:-0.358199 119:-0.518903 120:-0.519259 121:-0.507505 122:-0.41194 123:-0.403131 124:-0.509892 125:-0.384454 126:-0.452692 127:-0.49086 
0.9061950025215394 0:0.103945 1:0.0672727 2:-0.546341 3:0.094621 4:0.0819925 5:-0.107838 6:-0.362349 7:-0.328584 8:0.0744633 9:0.0101676 10:-0.392301 11:0.418538 12:0.096562 13:0.217902 14:-0.308782 15:-0.466261 16:0.0700276 17:-0.0971201 18:-0.420116 19:-0.123873 20:-0.292061 21:-0.0228903 22:0.341537 23:0.421646 24:-0.28258 25:-0.254919 26:-0.0506398 27:-0.109066 28:-0.822527 29:-0.119078 30:-0.246388 31:-0.00364067 32:0.0190696 33:-0.0236325 34:-0.153653 35:-0.194822 36:0.201099 37:-0.265351 38:0.527744 39:0.175006 40:-0.0923952 41:0.0133781 42:-0.0947928 43:-0.275853 44:-0.303687 45:0.292028 46:0.186139 47:0.132892 48:-0.292887 49:0.085962 50:-0.0509914 51:-0.212303 52:0.134627 53:0.163995 54:-0.0514797 55:0.135215 56:0.148241 57:-0.176204 58:0.226396 59:0.437504 60:-0.0697416 61:-0.135542 62:-0.478064 63:-0.222716 64:-0.202109 65:-0.0297029 66:-0.035905 67:-0.43935 68:-0.306162 69:-0.349074 70:-0.824941 71:-0.419041 72:-0.273041 73:-0.427365 74:-0.200326 75:-0.196944 76:-0.41067 77:-0.295845 78:-0.638427 79:-0.262773 80:-0.444037 81:-0.409001 82:-0.506329 83:-0.438918 84:-0.531386 85:-0.273441 86:-0.448807 87:-0.485157 88:-0.41612 89:-0.529033 90:-0.504082 91:-0.349107 92:-0.508322 93:-0.459323 94:-0.549186 95:-0.4784 96:-0.472078 97:-0.463184 98:-0.619338 99:-0.659152 100:-0.480911 101:-0.555788 102:-0.412982 103:-0.530719 104:-0.630637 105:-0.481602 106:-0.451417 107:-0.425012 108:-0.642734 109:-0.541262 110:-0.470286 111:-0.542619 112:-0.514197 113:-0.487792 114:-0.566381 115:-0.575131 116:-0.469659 117:-0.38901 118:-0.418912 119:-0.548745 120:-0.494521 121:-0.493529 122:-0.56595 123:-0.538773 124:-0.613924 125:-0.625253 126:-0.51548 127:-0.486729 
1.386783460903276 0:-0.0445566 1:0.0238944 2:-0.527483 3:-0.0272766 4:-0.116812 5:-0.209498 6:-0.00719294 7:-0.0621198 8:-0.00101958 9:0.553733 10:0.150748 11:0.348601 12:0.19472 13:0.19392 14:-0.540388 15:0.134186 16:-0.00684278 17:-0.168858 18:-0.459164 19:-0.136079 20:0.0617403 21:-0.291461 22:0.505507 23:0.150885 24:0.203002 25:0.280587 26:0.255878 27:-0.0893219 28:-0.44006 29:0.0961424 30:-0.31748 31:-0.0109559 32:-0.239562 33:0.216003 34:0.137242 35:-0.115785 36:-0.00660817 37:-0.365856 38:0.218455 39:-0.0770696 40:0.251184 41:0.122433 42:0.26911 43:0.0164705 44:-0.0815069 45:0.0565699 46:-0.232746 47:-0.143691 48:-0.0970733 49:0.0937718 50:0.0746151 51:-0.0833174 52:0.204708 53:0.304505 54:-0.046557 55:0.107768 56:-0.100217 57:-0.0102142 58:-0.122522 59:0.0576107 60:-0.100813 61:-0.125746 62:-0.134985 63:-0.0771139 64:0.086116 65:0.0568996 66:-0.156797 67:-0.0578992 68:0.201352 69:-0.350856 70:-0.490626 71:-0.342655 72:-0.212439 73:-0.155357 74:-0.547128 75:-0.0261152 76:-0.298545 77:-0.598761 78:-0.530509 79:-0.0873718 80:-0.376175 81:-0.434414 82:-0.25855 83:-0.357491 84:-0.531499 85:-0.47969 86:-0.343615 87:-0.441175 88:-0.484484 89:-0.371268 90:-0.34731 91:-0.394435 92:-0.416862 93:-0.469773 94:-0.423957 95:-0.318508 96:-0.470671 97:-0.517374 98:-0.568064 99:-0.557067 100:-0.500097 101:-0.554849 102:-0.433544 103:-0.659293 104:-0.582453 105:-0.442388 106:-0.316388 107:-0.480905 108:-0.508416 109:-0.435778 110:-0.499012 111:-0.528868 112:-0.537129 113:-0.369193 114:-0.471237 115:-0.414768 116:-0.53242 117:-0.430616 118:-0.427063 119:-0.484465 120:-0.569139 121:-0.446632 122:-0.528386 123:-0.591676 124:-0.504071 125:-0.477705 126:-0.518149 127:-0.445053 
2 0:0.146313 1:0.0529279 2:-0.60304 3:-0.00728041 4:-0.213581 5:0.378397 6:-0.167074 7:-0.604327 8:0.235169 9:0.137512 10:0.118405 11:0.18087 12:0.0969749 13:0.120503 14:-0.321454 15:-0.196016 16:0.293586 17:-0.304872 18:-0.229743 19:-0.269758 20:0.355192 21:0.136297 22:-0.0805248 23:-0.246347 24:0.072901 25:-0.209497 26:-0.243356 27:0.0397745 28:-0.170321 29:-0.120965 30:-0.239592 31:0.178572 32:-0.349875 33:0.0173932 34:-0.000317425 35:0.139231 36:-0.0438187 37:-0.331984 38:-0.0577395 39:0.184115 40:0.198917 41:-0.083939 42:0.217339 43:-0.0714684 44:-0.098581 45:-0.103999 46:-0.258318 47:0.284554 48:-0.377719 49:-0.019123 50:-0.0629936 51:-0.0458845 52:0.438821 53:-0.0105076 54:0.0519702 55:-0.404677 56:-0.46282 57:0.156212 58:0.535804 59:0.422963 60:-0.212515 61:-0.069322 62:-0.479154 63:0.439055 64:0.0790861 65:0.0100676 66:-0.335404 67:-0.0482478 68:0.270903 69:-0.209838 70:-0.366678 71:-0.686227 72:-0.224509 73:-0.269117 74:-0.305468 75:-0.154266 76:-0.476282 77:-0.50367 78:-0.249736 79:-0.0875919 80:-0.185133 81:-0.218805 82:-0.357447 83:-0.259013 84:-0.333238 85:-0.186271 86:-0.39518 87:-0.376588 88:-0.200071 89:-0.400231 90:-0.337863 91:-0.423853 92:-0.364744 93:-0.494344 94:-0.430583 95:-0.510637 96:-0.372911 97:-0.598739 98:-0.359991 99:-0.440445 100:-0.351134 101:-0.6036 102:-0.41067 103:-0.535126 104:-0.513544 105:-0.481224 106:-0.26865 107:-0.415253 108:-0.575602 109:-0.421371 110:-0.292753 111:-0.413034 112:-0.399409 113:-0.41776 114:-0.405574 115:-0.49291 116:-0.437073 117:-0.256195 118:-0.33484 119:-0.411079 120:-0.492397 121:-0.390035 122:-0.434965 123:-0.430655 124:-0.465636 125:-0.427356 126:-0.474257 127:-0.490463 
2 0:0.159078 1:0.016972 2:-0.490394 3:-0.00502902 4:0.0243285 5:0.286083 6:-0.610515 7:-0.485009 8:-0.0954993 9:0.365918 10:0.149021 11:-0.13858 12:-0.188881 13:-0.134756 14:-0.0959659 15:0.246432 16:-0.0368507 17:-0.2937 18:-0.558383 19:-0.340689 20:0.237261 21:0.0391585 22:0.213412 23:0.090987 24:0.213731 25:0.405692 26:0.144851 27:-0.327876 28:-0.220582 29:-0.0749402 30:-0.252094 31:-0.541565 32:-0.334002 33:-0.154988 34:-0.200313 35:-0.251598 36:-0.0451641 37:-0.182431 38:-0.126706 39:-0.0794895 40:0.0132879 41:-0.0250716 42:0.390965 43:-0.0421765 44:-0.045542 45:0.0491268 46:-0.218033 47:-0.102987 48:-0.138874 49:-0.154272 50:-0.283194 51:-0.211851 52:0.111561 53:0.0626463 54:-0.0253772 55:-0.0948259 56:0.0345811 57:0.0683592 58:0.172982 59:0.048965 60:-0.378052 61:0.22163 62:-0.359735 63:-0.0181377 64:-0.391916 65:-0.144327 66:-0.201093 67:-0.326984 68:0.0311262 69:-0.378624 70:-0.497081 71:-0.464401 72:-0.189972 73:-0.376597 74:-0.328397 75:-0.0220453 76:-0.35413 77:-0.399898 78:-0.469585 79:-0.186964 80:-0.211588 81:-0.43875 82:-0.486583 83:-0.240609 84:-0.489755 85:-0.550369 86:-0.551809 87:-0.549683 88:-0.567741 89:-0.454746 90:-0.616042 91:-0.511215 92:-0.501014 93:-0.540566 94:-0.50166 95:-0.599261 96:-0.553777 97:-0.421489 98:-0.549847 99:-0.592862 100:-0.519287 101:-0.614204 102:-0.538382 103:-0.504151 104:-0.689665 105:-0.627855 106:-0.436866 107:-0.592601 108:-0.618084 109:-0.589408 110:-0.538023 111:-0.634246 112:-0.560994 113:-0.464776 114:-0.675655 115:-0.574687 116:-0.540491 117:-0.505931 118:-0.390252 119:-0.584736 120:-0.539319 121:-0.444288 122:-0.562973 123:-0.486679 124:-0.692442 125:-0.487322 126:-0.60961 127:-0.489567 
2 0:-0.105951 1:0.135065 2:-0.534151 3:-0.119608 4:-0.381288 5:0.455895 6:-0.351868 7:-0.785945 8:0.227518 9:0.201684 10:0.258386 11:0.34382 12:-0.0413166 13:-0.121032 14:0.0472367 15:-0.041051 16:0.0724555 17:-0.0437693 18:-0.10218 19:0.169533 20:0.0602614 21:-0.115409 22:-0.0491361 23:-0.0988148 24:-0.0938113 25:-0.0915349 26:0.0886874 27:0.369879 28:-0.28278 29:-0.141529 30:-0.235707 31:-0.0234758 32:-0.325019 33:-0.107157 34:-0.257112 35:-0.146063 36:0.181729 37:0.00652758 38:0.39104 39:0.011316 40:0.164819 41:-0.116727 42:0.218982 43:0.232316 44:0.0909103 45:-0.0748077 46:-0.019708 47:-0.357535 48:-0.294481 49:0.0897377 50:-0.077541 51:-0.202987 52:0.0365285 53:0.120954 54:0.0510018 55:0.0902003 56:-0.0305638 57:0.0859633 58:0.241873 59:0.0961285 60:-0.00764154 61:0.0420429 62:-0.200029 63:-0.0278145 64:0.268893 65:0.0944023 66:-0.156479 67:-0.0691084 68:0.13272 69:-0.331386 70:-0.360353 71:-0.470599 72:-0.114933 73:-0.436805 74:-0.571973 75:-0.130167 76:-0.532188 77:-0.391298 78:-0.283178 79:-0.0755346 80:-0.149008 81:-0.361861 82:-0.379849 83:-0.274498 84:-0.480026 85:-0.452297 86:-0.363961 87:-0.383071 88:-0.583113 89:-0.466058 90:-0.482857 91:-0.41824 92:-0.510689 93:-0.396588 94:-0.532291 95:-0.526721 96:-0.420829 97:-0.487158 98:-0.660615 99:-0.542917 100:-0.340002 101:-0.564225 102:-0.398112 103:-0.567288 104:-0.506243 105:-0.417218 106:-0.266597 107:-0.455728 108:-0.628331 109:-0.482503 110:-0.427742 111:-0.566774 112:-0.384649 113:-0.345569 114:-0.461507 115:-0.467068 116:-0.532802 117:-0.338571 118:-0.462799 119:-0.505646 120:-0.420567 121:-0.457335 122:-0.535937 123:-0.452226 124:-0.497482 125:-0.401462 126:-0.461911 127:-0.433434 
2 0:0.0336758 1:0.0705249 2:-0.597492 3:-0.00327111 4:-0.158251 5:-0.498553 6:-0.0237084 7:-0.326583 8:0.487558 9:0.358276 10:0.105572 11:0.117503 12:0.316054 13:0.145582 14:-0.251472 15:0.161048 16:-0.0576906 17:-0.261461 18:-0.716006 19:-0.139599 20:-0.150216 21:0.366844 22:0.241455 23:-0.385391 24:0.0865201 25:-0.73771 26:0.0191494 27:-0.24866 28:-0.402298 29:0.0780609 30:-0.0287503 31:0.321435 32:-0.411026 33:-0.133154 34:-0.185297 35:0.36802 36:0.0630421 37:-0.246402 38:-0.0606317 39:0.240354 40:0.0639998 41:-0.214406 42:0.00145885 43:0.247423 44:0.0127924 45:-0.0704782 46:0.171098 47:0.0784516 48:-0.215263 49:-0.0403371 50:-0.087449 51:-0.182819 52:0.291825 53:0.0148204 54:-0.280062 55:0.0921843 56:-0.295027 57:0.186561 58:0.324768 59:0.14299 60:-0.216114 61:-0.366311 62:-0.520022 63:-0.0490905 64:-0.11775 65:0.139727 66:-0.156891 67:-0.194662 68:-0.0673825 69:-0.327823 70:-0.375518 71:-0.295778 72:-0.549794 73:-0.529362 74:-0.371411 75:-0.27634 76:-0.599938 77:-0.407996 78:-0.598949 79:-0.25532 80:-0.315792 81:-0.346529 82:-0.526985 83:-0.429991 84:-0.558746 85:-0.533273 86:-0.558689 87:-0.611525 88:-0.422601 89:-0.332674 90:-0.549728 91:-0.419957 92:-0.506049 93:-0.500959 94:-0.490865 95:-0.537454 96:-0.674144 97:-0.546609 98:-0.626053 99:-0.58433 100:-0.432583 101:-0.617151 102:-0.511696 103:-0.536535 104:-0.635027 105:-0.440524 106:-0.430984 107:-0.56463 108:-0.561385 109:-0.537626 110:-0.414078 111:-0.524111 112:-0.455022 113:-0.400795 114:-0.493749 115:-0.531481 116:-0.484523 117:-0.422613 118:-0.519604 119:-0.613744 120:-0.617737 121:-0.446785 122:-0.512412 123:-0.577857 124:-0.467553 125:-0.478844 126:-0.522979 127:-0.475954 
2 0:0.224424 1:0.0945182 2:-0.534821 3:0.0277247 4:-0.129456 5:-0.441225 6:-0.184051 7:-0.0805098 8:-0.0738693 9:-0.117762 10:-0.221847 11:0.499395 12:-0.0515139 13:-0.0192177 14:-0.319949 15:-0.0387059 16:-0.00830697 17:-0.311675 18:-0.554545 19:-0.17047 20:-0.14076 21:0.104904 22:0.0729743 23:-0.330611 24:-0.218035 25:-0.23588 26:0.207389 27:0.0198495 28:0.0133557 29:-0.0658345 30:-0.247328 31:0.0924422 32:-0.734857 33:0.317507 34:0.192947 35:-0.407694 36:-0.164492 37:-0.332649 38:0.124568 39:0.250171 40:0.287012 41:-0.0289578 42:-0.0775467 43:-0.135731 44:0.143624 45:0.068543 46:-0.174609 47:0.107978 48:-0.246386 49:-0.196541 50:0.0734951 51:-0.150675 52:0.187151 53:0.413113 54:-0.0219057 55:0.028557 56:0.0872791 57:0.0124774 58:0.253918 59:0.199964 60:-0.184573 61:0.0606708 62:0.210937 63:-0.100211 64:-0.13181 65:-0.183544 66:-0.251479 67:-0.218424 68:0.0108234 69:-0.495848 70:-0.405931 71:-0.415509 72:-0.25499 73:-0.765296 74:-0.447769 75:-0.261148 76:-0.425281 77:-0.413684 78:-0.558342 79:-0.0757451 80:-0.418759 81:-0.506882 82:-0.477402 83:-0.409522 84:-0.4367 85:-0.410286 86:-0.49998 87:-0.529078 88:-0.573679 89:-0.403655 90:-0.509056 91:-0.490115 92:-0.422553 93:-0.436357 94:-0.498809 95:-0.643509 96:-0.4255 97:-0.469844 98:-0.492602 99:-0.599184 100:-0.318833 101:-0.458342 102:-0.421154 103:-0.586323 104:-0.732248 105:-0.509462 106:-0.432074 107:-0.582678 108:-0.612703 109:-0.514201 110:-0.470413 111:-0.621179 112:-0.59822 113:-0.449286 114:-0.56449 115:-0.599634 116:-0.604911 117:-0.473034 118:-0.485272 119:-0.414613 120:-0.566719 121:-0.568349 122:-0.584695 123:-0.629906 124:-0.550475 125:-0.569461 126:-0.569687 127:-0.541389 
2 0:0.0378093 1:0.0533164 2:-0.482251 3:-0.0718986 4:-0.239916 5:0.10897 6:0.0236768 7:-0.650038 8:0.162152 9:0.144625 10:0.302696 11:0.635896 12:0.137998 13:-0.0643397 14:-0.134686 15:-0.0809913 16:-0.046795 17:-0.241996 18:-0.58853 19:0.173568 20:-0.385456 21:-0.116843 22:0.411775 23:-0.128542 24:0.420688 25:0.0374298 26:-0.0398126 27:0.489126 28:-0.294134 29:0.0126241 30:-0.237454 31:-0.19237 32:-0.275185 33:-0.131715 34:-0.00188133 35:-0.35183 36:0.34731 37:0.112593 38:-0.0542831 39:0.10254 40:-0.102026 41:-0.0434442 42:0.581519 43:0.214929 44:0.0551394 45:0.253702 46:-0.223194 47:-0.083435 48:-0.110743 49:-0.039137 50:0.0451453 51:-0.220406 52:0.0105568 53:-0.185257 54:0.100396 55:0.134176 56:0.24206 57:0.159873 58:-0.0533421 59:0.208326 60:0.0494405 61:-0.110489 62:-0.0122641 63:-0.00687597 64:-0.318102 65:-0.260461 66:-0.301016 67:-0.194073 68:-0.0220324 69:-0.202178 70:-0.338089 71:-0.217504 72:-0.379376 73:-0.547399 74:-0.567136 75:0.0195017 76:-0.355512 77:-0.446509 78:-0.199456 79:-0.139415 80:-0.105566 81:-0.166569 82:-0.482314 83:-0.431401 84:-0.338295 85:-0.297093 86:-0.29656 87:-0.39615 88:-0.211858 89:-0.358721 90:-0.475017 91:-0.257208 92:-0.26716 93:-0.404814 94:-0.428236 95:-0.465124 96:-0.490386 97:-0.465165 98:-0.506 99:-0.620434 100:-0.476616 101:-0.572519 102:-0.334753 103:-0.399966 104:-0.477466 105:-0.3487 106:-0.351326 107:-0.468435 108:-0.549676 109:-0.472912 110:-0.346157 111:-0.579022 112:-0.357031 113:-0.354087 114:-0.416797 115:-0.43376 116:-0.459034 117:-0.439659 118:-0.443894 119:-0.51231 120:-0.473898 121:-0.358301 122:-0.424382 123:-0.449592 124:-0.536081 125:-0.421026 126:-0.534075 127:-0.513778 
2 0:0.161024 1:0.0962354 2:-0.563537 3:0.0804835 4:-0.110106 5:-0.0403976 6:-0.117649 7:-0.515608 8:-0.29791 9:-0.409219 10:-0.0737964 11:0.377215 12:-0.0494878 13:-0.0777616 14:-0.296645 15:-0.18961 16:0.0779504 17:-0.264419 18:-0.435035 19:-0.133173 20:0.0231511 21:0.0978104 22:-0.0854111 23:-0.0236017 24:0.290273 25:-0.222899 26:-0.103332 27:-0.141747 28:-0.230289 29:-0.153781 30:-0.291232 31:-0.407949 32:-0.310141 33:0.125064 34:-0.337021 35:-0.162505 36:0.185095 37:-0.468638 38:-0.0224342 39:0.196318 40:0.00494807 41:0.125198 42:-0.221031 43:0.000873635 44:0.23597 45:0.0578421 46:-0.180512 47:0.0929252 48:-0.278009 49:0.349411 50:-0.0410392 51:-0.229623 52:0.315799 53:0.047575 54:-0.125868 55:0.0353439 56:-0.101016 57:0.217437 58:0.0222035 59:0.347278 60:-0.304862 61:-0.275059 62:-0.25348 63:-0.32787 64:0.275923 65:0.000865026 66:-0.333089 67:-0.274961 68:0.205254 69:-0.2151 70:-0.317456 71:-0.271106 72:-0.525316 73:-0.24832 74:-0.40933 75:-0.298357 76:-0.657303 77:-0.249977 78:-0.488675 79:-0.278969 80:-0.116026 81:-0.284804 82:-0.507693 83:-0.621407 84:-0.449516 85:-0.395924 86:-0.20742 87:-0.537196 88:-0.499016 89:-0.36863 90:-0.454065 91:-0.320794 92:-0.468903 93:-0.454435 94:-0.394442 95:-0.630944 96:-0.442147 97:-0.363005 98:-0.378982 99:-0.502153 100:-0.277937 101:-0.578879 102:-0.295084 103:-0.503619 104:-0.629096 105:-0.380575 106:-0.427532 107:-0.328193 108:-0.449729 109:-0.428358 110:-0.371392 111:-0.57067 112:-0.406307 113:-0.366554 114:-0.350073 115:-0.436786 116:-0.569532 117:-0.362801 118:-0.394121 119:-0.463855 120:-0.439256 121:-0.390096 122:-0.53969 123:-0.453107 124:-0.541815 125:-0.425252 126:-0.45425 127:-0.431726 
2 0:0.00285697 1:0.0773872 2:-0.456629 3:-0.0830274 4:-0.246336 5:0.00815534 6:-0.386408 7:-0.546261 8:-0.200612 9:0.159191 10:-0.152864 11:0.0938181 12:0.0320324 13:-0.223293 14:0.107569 15:-0.103153 16:-0.0847661 17:-0.119597 18:-0.313451 19:-0.463583 20:-0.112834 21:-0.0926754 22:0.0596909 23:-0.0043059 24:-0.404266 25:-0.0472905 26:-0.019521 27:0.390567 28:-0.208331 29:-0.10075 30:-0.329883 31:-0.0868536 32:-0.180976 33:-0.0885683 34:-0.24741 35:-0.365411 36:0.169283 37:-0.315838 38:0.182167 39:0.216418 40:-0.0750937 41:-0.241895 42:0.154302 43:0.279665 44:-0.19923 45:-0.0115066 46:0.203396 47:-0.106449 48:-0.220117 49:0.300176 50:0.115039 51:-0.065113 52:0.00903401 53:0.243307 54:0.105678 55:0.032522 56:0.0123397 57:0.104302 58:0.0861093 59:-0.0331628 60:0.0221949 61:-0.105097 62:-0.252991 63:-0.155199 64:-0.128295 65:-0.205765 66:-0.205742 67:-0.17853 68:0.188885 69:-0.446912 70:-0.628163 71:-0.390366 72:-0.183456 73:-0.685006 74:-0.805969 75:-0.0869309 76:-0.505193 77:-0.21886 78:-0.532762 79:-0.514191 80:-0.483264 81:-0.413856 82:-0.481494 83:-0.352344 84:-0.544927 85:-0.50482 86:-0.410906 87:-0.559384 88:-0.531263 89:-0.476301 90:-0.388783 91:-0.517344 92:-0.315653 93:-0.433303 94:-0.420525 95:-0.616109 96:-0.568149 97:-0.607303 98:-0.423108 99:-0.55279 100:-0.466344 101:-0.599869 102:-0.540247 103:-0.470365 104:-0.59557 105:-0.438262 106:-0.491187 107:-0.502118 108:-0.56172 109:-0.473926 110:-0.450314 111:-0.52315 112:-0.474827 113:-0.460177 114:-0.587397 115:-0.559827 116:-0.55332 117:-0.451781 118:-0.450852 119:-0.568533 120:-0.57656 121:-0.492648 122:-0.594254 123:-0.585796 124:-0.504872 125:-0.532836 126:-0.479796 127:-0.598359 
2 0:0.044435 1:0.091225 2:-0.511029 3:-0.0500942 4:-0.0577972 5:-0.409323 6:-0.150573 7:-0.13042 8:-0.0934888 9:-0.365153 10:0.06993 11:0.0142044 12:0.0371093 13:-0.0783817 14:-0.306385 15:-0.0939239 16:0.0681188 17:-0.259547 18:-0.451451 19:-0.165411 20:0.173547 21:0.105747 22:0.345265 23:0.261625 24:-0.0978508 25:0.0180106 26:-0.0106758 27:-0.161882 28:-0.514831 29:-0.31368 30:-0.277673 31:-0.1192 32:-0.610189 33:-0.067278 34:-0.144286 35:-0.201785 36:0.108431 37:-0.17347 38:0.0964949 39:0.0588406 40:0.503427 41:-0.0365543 42:0.275658 43:0.224779 44:-0.284711 45:0.04519 46:-0.109187 47:0.0670776 48:-0.203769 49:0.179483 50:0.0853957 51:-0.23562 52:0.161092 53:0.0259326 54:-0.166049 55:0.0175352 56:-0.144228 57:0.163262 58:0.0957115 59:0.119023 60:0.161553 61:-0.0641151 62:-0.207124 63:-0.330079 64:-0.219684 65:-0.161526 66:-0.0687902 67:-0.199757 68:-0.26993 69:-0.543932 70:-0.309578 71:-0.276321 72:-0.291912 73:-0.43322 74:-0.46719 75:-0.0770335 76:-0.29497 77:-0.426162 78:-0.296308 79:-0.388229 80:-0.126625 81:-0.577134 82:-0.483652 83:-0.536459 84:-0.318287 85:-0.314315 86:-0.392245 87:-0.542219 88:-0.492013 89:-0.324415 90:-0.304742 91:-0.43215 92:-0.459001 93:-0.393828 94:-0.452818 95:-0.625163 96:-0.433081 97:-0.482356 98:-0.515159 99:-0.578756 100:-0.570585 101:-0.612201 102:-0.324151 103:-0.46646 104:-0.601243 105:-0.363502 106:-0.342423 107:-0.543948 108:-0.620098 109:-0.485302 110:-0.491242 111:-0.679464 112:-0.442216 113:-0.392192 114:-0.498651 115:-0.604687 116:-0.577519 117:-0.410205 118:-0.433823 119:-0.533411 120:-0.544096 121:-0.446929 122:-0.510675 123:-0.533799 124:-0.528605 125:-0.483216 126:-0.536031 127:-0.414871 
2 0:0.0542216 1:0.0338774 2:-0.531293 3:-0.0723738 4:-0.431319 5:-0.311876 6:0.00744695 7:-0.480043 8:0.0556628 9:-0.111842 10:0.0387096 11:-0.0724519 12:0.291168 13:0.114182 14:-0.274946 15:-0.126121 16:0.144637 17:0.0345071 18:-0.157808 19:-0.0346948 20:-0.0583808 21:-0.209876 22:0.520758 23:0.105084 24:0.24941 25:0.341545 26:-0.0088784 27:0.00109647 28:-0.0872362 29:-0.0330421 30:-0.0831611 31:-0.0707765 32:-0.356704 33:-0.0159746 34:-0.040168 35:-0.0855109 36:0.0733347 37:-0.335566 38:-0.0643151 39:0.00837778 40:0.027642 41:-0.12481 42:0.223946 43:0.0520374 44:0.203647 45:-0.187547 46:0.149654 47:-0.0308667 48:-0.0930696 49:-0.0146013 50:-0.441364 51:-0.20474 52:0.150369 53:0.309935 54:0.00621233 55:-0.148367 56:-0.0433319 57:0.464802 58:0.193723 59:-0.00258508 60:0.138266 61:-0.0883731 62:-0.279377 63:-0.142348 64:-0.0790861 65:-0.0780814 66:0.0624574 67:-0.0961857 68:-0.0326536 69:-0.277845 70:-0.425947 71:-0.429805 72:-0.175306 73:-0.441319 74:-0.249647 75:-0.190812 76:-0.46436 77:-0.376068 78:-0.49891 79:-0.0427966 80:-0.262598 81:-0.322229 82:-0.419981 83:-0.305528 84:-0.293067 85:-0.273587 86:-0.420873 87:-0.424758 88:-0.473482 89:-0.281563 90:-0.376107 91:-0.324995 92:-0.44679 93:-0.453316 94:-0.445918 95:-0.495812 96:-0.492332 97:-0.454066 98:-0.516943 99:-0.592409 100:-0.443888 101:-0.5001 102:-0.472205 103:-0.601025 104:-0.464858 105:-0.317621 106:-0.345586 107:-0.364033 108:-0.47957 109:-0.407828 110:-0.438864 111:-0.494424 112:-0.440915 113:-0.359029 114:-0.469865 115:-0.40624 116:-0.438039 117:-0.358632 118:-0.443066 119:-0.401041 120:-0.538298 121:-0.473599 122:-0.475813 123:-0.464089 124:-0.511853 125:-0.368281 126:-0.549545 127:-0.424991 
2 0:0.0753146 1:0.00880164 2:-0.587559 3:0.0747472 4:-0.0898787 5:-0.408543 6:-0.211689 7:-0.275215 8:-0.333394 9:-0.158881 10:0.147145 11:-0.0776671 12:-0.0369778 13:0.124107 14:-0.63495 15:0.0333926 16:0.0976767 17:-0.328485 18:-0.551115 19:-0.475239 20:0.0922903 21:0.105057 22:0.138912 23:-0.195958 24:0.239136 25:-0.161981 26:0.0994145 27:-0.0257654 28:-0.542768 29:-0.154564 30:-0.387439 31:-0.0764871 32:0.0616388 33:0.0419718 34:0.0205032 35:-0.329334 36:0.0147433 37:-0.579976 38:0.28184 39:0.443701 40:-0.327983 41:0.252971 42:-0.120506 43:-0.311305 44:-0.132053 45:0.221764 46:-0.0940963 47:-0.211978 48:0.170772 49:-0.271362 50:-0.192373 51:0.18546 52:-0.277489 53:0.0314663 54:-0.0561345 55:0.308981 56:-0.333972 57:0.0229128 58:0.62792 59:-0.0022632 60:0.0541383 61:-0.0620573 62:-0.572467 63:-0.11821 64:0.0931459 65:0.0839142 66:-0.45104 67:-0.290989 68:0.0236683 69:-0.530299 70:-0.593155 71:0.0805072 72:-0.348941 73:-0.57926 74:-0.0342244 75:-0.569086 76:-0.627107 77:-0.530458 78:-0.256639 79:0.0710112 80:-0.589184 81:-0.543606 82:-0.611 83:-0.483241 84:-0.610276 85:-0.262026 86:-0.534046 87:-0.738206 88:-0.477522 89:-0.614711 90:-0.504169 91:-0.5458 92:-0.543799 93:-0.583484 94:-0.721063 95:-0.660983 96:-0.568142 97:-0.667145 98:-0.663917 99:-0.690901 100:-0.511062 101:-0.690204 102:-0.341635 103:-0.846891 104:-0.616747 105:-0.457786 106:-0.411023 107:-0.598277 108:-0.5802 109:-0.597413 110:-0.582883 111:-0.568531 112:-0.559531 113:-0.535736 114:-0.657205 115:-0.585652 116:-0.639681 117:-0.491175 118:-0.468558 119:-0.534087 120:-0.557564 121:-0.628377 122:-0.612356 123:-0.644255 124:-0.522743 125:-0.527478 126:-0.618968 127:-0.509395 
1.098416298226055 0:0.402042 1:-1 2:0.967446 3:-0.740839 4:0.437354 5:-0.503308 6:-0.00663764 7:-0.235039 8:0.511822 9:0.357882 10:-0.462428 11:0.347222 12:-0.248659 13:-0.122896 14:-0.610692 15:-0.534685 16:0.45795 17:-0.238126 18:-0.0924285 19:-0.229802 20:0.246235 21:-0.114671 22:0.0926762 23:0.177958 24:0.0510876 25:0.337772 26:0.47812 27:-0.354213 28:-0.0709455 29:-0.269146 30:0.0376164 31:0.483339 32:0.0297918 33:-0.118172 34:0.390712 35:-0.156618 36:0.0319856 37:0.0119208 38:0.301348 39:-0.225649 40:0.0987732 41:0.101468 42:0.259142 43:0.062696 44:-0.213933 45:-0.173833 46:0.135564 47:-0.205047 48:0.143128 49:0.00710601 50:-0.240975 51:-0.0367791 52:0.122239 53:-0.0988474 54:0.110958 55:0.343732 56:0.0887707 57:0.112491 58:0.16814 59:0.735367 60:0.0319416 61:0.274381 62:0.0720214 63:0.0282606 64:0.546573 65:0.31018 66:-0.155175 67:0.127059 68:0.589479 69:-0.176534 70:-0.280368 71:-0.0268478 72:-0.409847 73:-0.00948348 74:-0.410303 75:-0.258409 76:-0.277376 77:-0.335401 78:-0.000508554 79:0.18303 80:-0.0013759 81:-0.0691871 82:0.0435898 83:0.0218187 84:0.00564246 85:0.135529 86:-0.162752 87:-0.173086 88:0.183722 89:-0.263323 90:-0.173715 91:-0.0822965 92:-0.0467119 93:-0.376819 94:-0.255176 95:-0.149539 96:-0.0795169 97:-0.0901127 98:-0.0296307 99:-0.171894 100:-0.0466284 101:-0.316719 102:0.0189458 103:-0.217943 104:-0.201921 105:-0.0123412 106:-0.00344795 107:0.00690441 108:-0.281568 109:-0.106791 110:-0.140255 111:-0.00202258 112:-0.12572 113:-0.120388 114:-0.204339 115:-0.219987 116:-0.140002 117:-0.154068 118:-0.123288 119:-0.0931529 120:-0.0499529 121:-0.0238753 122:-0.220605 123:-0.0891582 124:-0.213605 125:-0.0525712 126:-0.19576 127:-0.117768 
1.480180365672016 0:-0.676555 1:0.0151121 2:-0.47712 3:0.0167399 4:-0.463107 5:-0.384499 6:-0.0510378 7:-0.637891 8:-0.146384 9:-0.293819 10:0.32795 11:0.188668 12:0.18025 13:0.161356 14:0.0493619 15:0.186131 16:0.0857892 17:0.151982 18:-0.703969 19:-0.368241 20:-0.316198 21:0.0920594 22:0.257748 23:-0.634162 24:-0.233642 25:-0.557393 26:0.193686 27:-0.397469 28:-0.5795 29:-0.23277 30:-0.240314 31:0.054542 32:-0.581669 33:0.10053 34:-0.414118 35:-0.266795 36:0.024154 37:-0.219512 38:-0.00886962 39:-0.0891616 40:-0.0063107 41:-0.0736635 42:0.366883 43:-0.166211 44:-0.259346 45:-0.106071 46:-0.0520935 47:-0.634295 48:-0.213733 49:-0.275212 50:-0.228502 51:-0.296855 52:-0.274572 53:0.0312616 54:-0.193184 55:-0.171963 56:-0.443464 57:0.297066 58:0.461518 59:-0.150357 60:-0.628945 61:-0.205805 62:-0.46822 63:-0.222592 64:-0.578207 65:-0.484338 66:-0.650365 67:-0.476457 68:-0.23914 69:-0.451022 70:-0.691761 71:-0.695545 72:-0.713077 73:-0.686209 74:-1 75:-0.483617 76:-0.785073 77:-0.827566 78:-0.938343 79:-0.877175 80:-1 81:-0.932794 82:-0.910504 83:-0.773162 84:-0.819121 85:-0.894345 86:-0.7413 87:-0.9683 88:-1 89:-0.912114 90:-0.964662 91:-0.831912 92:-0.954658 93:-1 94:-0.965795 95:-0.951435 96:-1 97:-1 98:-1 99:-0.976307 100:-0.968926 101:-1 102:-1 103:-0.943211 104:-1 105:-1 106:-1 107:-1 108:-0.926544 109:-1 110:-0.973983 111:-1 112:-1 113:-0.928192 114:-1 115:-1 116:-1 117:-1 118:-1 119:-1 120:-1 121:-1 122:-1 123:-1 124:-1 125:-1 126:-1 127:-1 
0.3751746088926802 0:0.14066 1:0.135243 2:-0.56086 3:-0.0180048 4:-0.0411572 5:0.0929556 6:-0.471809 7:-0.577135 8:0.284295 9:-0.139009 10:-0.332046 11:0.146138 12:0.40086 13:0.319195 14:0.0804494 15:-0.580963 16:-0.389896 17:-0.0240832 18:-0.510724 19:0.0359512 20:0.260416 21:0.536863 22:0.296539 23:0.106926 24:0.402918 25:-0.296673 26:0.239361 27:-0.188745 28:-0.314541 29:-0.0856608 30:-0.145066 31:0.266239 32:0.0542717 33:0.201162 34:-0.310267 35:-0.303972 36:0.265791 37:-0.417741 38:-0.127045 39:-0.111848 40:0.217108 41:-0.123792 42:0.35873 43:0.0604943 44:0.324241 45:-0.0376004 46:-0.139033 47:-0.267868 48:0.019801 49:-0.0833502 50:0.10293 51:-0.269353 52:0.304215 53:0.0286753 54:-0.319149 55:-0.160931 56:-0.287567 57:-0.0183928 58:0.401242 59:-0.0695198 60:-0.306526 61:-0.470174 62:0.192534 63:-0.326915 64:0.100176 65:0.160701 66:-0.289779 67:0.253609 68:-0.204949 69:-0.438024 70:-0.46505 71:-0.543477 72:-0.168458 73:-0.229904 74:-0.503321 75:-0.143918 76:-0.749254 77:-0.761384 78:-0.920999 79:0.178977 80:-0.446371 81:-0.535202 82:-0.354178 83:-0.322396 84:-0.36303 85:-0.386415 86:-0.387198 87:-0.505956 88:-0.507664 89:-0.524133 90:-0.272801 91:-0.482312 92:-0.293258 93:-0.413543 94:-0.39847 95:-0.552637 96:-0.467757 97:-0.404995 98:-0.622113 99:-0.513276 100:-0.489059 101:-0.496272 102:-0.433589 103:-0.526287 104:-0.605966 105:-0.30271 106:-0.304052 107:-0.368746 108:-0.581155 109:-0.462912 110:-0.454918 111:-0.594147 112:-0.446573 113:-0.365902 114:-0.518442 115:-0.56707 116:-0.523905 117:-0.386743 118:-0.406427 119:-0.472562 120:-0.610733 121:-0.410928 122:-0.44245 123:-0.498122 124:-0.592931 125:-0.394907 126:-0.466357 127:-0.506684 
2 0:0.166981 1:0.137025 2:-0.571541 3:-0.0463012 4:-0.240517 5:-0.286096 6:-0.0205665 7:0.0128633 8:-0.141681 9:0.365356 10:0.282463 11:-0.0864685 12:-0.117089 13:0.147052 14:-0.0241691 15:-0.100573 16:0.2592 17:-0.0436494 18:-0.416959 19:0.113741 20:0.0152425 21:0.0300015 22:0.137145 23:-0.0419816 24:-0.137405 25:-0.443058 26:0.196094 27:-0.107597 28:-0.0296971 29:0.111508 30:-0.296425 31:0.077754 32:-0.165149 33:0.0046611 34:-0.427941 35:-0.0488799 36:0.108213 37:-0.466682 38:0.228388 39:-0.228535 40:0.0223214 41:0.0273806 42:0.48665 43:-0.0292246 44:-0.226158 45:0.150939 46:-0.00816209 47:0.268688 48:-0.187079 49:0.291617 50:0.0117513 51:-0.000441217 52:0.136625 53:-0.0516458 54:0.0343817 55:0.426879 56:-0.0812373 57:-0.00803615 58:0.310012 59:-0.163974 60:-0.0341499 61:0.173709 62:-0.066025 63:0.0985732 64:-0.13181 65:0.084869 66:-0.526191 67:0.110404 68:-0.307329 69:-0.278146 70:-0.349929 71:-0.312669 72:-0.195192 73:-0.391175 74:-0.395913 75:-0.310257 76:-0.292639 77:-0.322421 78:-0.273573 79:-0.515087 80:-0.0206536 81:-0.233311 82:-0.439024 83:-0.279771 84:-0.423112 85:-0.0466344 86:-0.585762 87:-0.654492 88:-0.255586 89:-0.529048 90:-0.466595 91:-0.368691 92:-0.331433 93:-0.257495 94:-0.447214 95:-0.507031 96:-0.424089 97:-0.529716 98:-0.542915 99:-0.698319 100:-0.45053 101:-0.462234 102:-0.391938 103:-0.532822 104:-0.592352 105:-0.31393 106:-0.366866 107:-0.426624 108:-0.628807 109:-0.431855 110:-0.413067 111:-0.4897 112:-0.394006 113:-0.378335 114:-0.46053 115:-0.388547 116:-0.479541 117:-0.39964 118:-0.523787 119:-0.38759 120:-0.544497 121:-0.40084 122:-0.553893 123:-0.555544 124:-0.545118 125:-0.400651 126:-0.557074 127:-0.499791 
2 0:0.0458331 1:0.0573469 2:-0.489046 3:0.0220747 4:-0.176082 5:0.108888 6:-0.565714 7:-0.535398 8:-0.196979 9:0.200302 10:0.243703 11:0.160031 12:0.224385 13:0.0334349 14:0.220993 15:-0.670656 16:0.00646086 17:-0.149925 18:-0.246008 19:-0.0438417 20:-0.196483 21:0.32066 22:-0.0591453 23:0.18893 24:0.0647551 25:0.308483 26:0.317827 27:0.20529 28:-0.111446 29:0.0973497 30:0.0371071 31:0.0509855 32:-0.211364 33:0.169747 34:-0.341655 35:-0.223792 36:0.442044 37:-0.485993 38:0.302336 39:-0.251338 40:-0.360531 41:0.399193 42:-0.0285531 43:0.296113 44:0.0174489 45:0.270697 46:0.00883774 47:-0.332426 48:-0.220186 49:-0.510772 50:-0.395075 51:0.0230579 52:0.228391 53:0.376776 54:-0.170008 55:0.227182 56:0.117526 57:0.0400788 58:0.101312 59:-0.0537447 60:-0.470503 61:0.172408 62:-0.407348 63:0.0678051 64:0.0755712 65:0.121714 66:-0.330074 67:-0.343995 68:0.00336984 69:-0.324659 70:-0.297132 71:-0.306757 72:-0.176923 73:-0.583475 74:-0.208277 75:0.0797065 76:-0.194815 77:-0.0480138 78:-0.422451 79:-0.284721 80:-0.10815 81:-0.116156 82:-0.183034 83:-0.291763 84:-0.36629 85:-0.313805 86:-0.191731 87:-0.327559 88:-0.492114 89:-0.331206 90:-0.547258 91:-0.505704 92:-0.326002 93:-0.416835 94:-0.526154 95:-0.494118 96:-0.548605 97:-0.438598 98:-0.522718 99:-0.497008 100:-0.557695 101:-0.499494 102:-0.305877 103:-0.584633 104:-0.422424 105:-0.484104 106:-0.368585 107:-0.422283 108:-0.611904 109:-0.390802 110:-0.333922 111:-0.492989 112:-0.444323 113:-0.287169 114:-0.44055 115:-0.542359 116:-0.50788 117:-0.399456 118:-0.444902 119:-0.380704 120:-0.445864 121:-0.339393 122:-0.505356 123:-0.579067 124:-0.525375 125:-0.367883 126:-0.537424 127:-0.350663 
2 0:0.103216 1:0.0197594 2:-0.497312 3:0.0527665 4:-0.364387 5:0.119617 6:0.0127444 7:0.162325 8:-0.304303 9:0.197371 10:0.172831 11:0.418753 12:0.355958 13:-0.0455555 14:0.0703645 15:-0.171879 16:-0.170664 17:-0.208166 18:-0.4415 19:-0.00224505 20:-0.194635 21:-0.0257396 22:-0.0109866 23:-0.14519 24:0.00430982 25:-0.489053 26:0.337235 27:-0.422097 28:-0.0769724 29:-0.283221 30:-0.104361 31:-0.00418246 32:-0.265664 33:-0.102857 34:-0.0271328 35:-0.338055 36:-0.14299 37:0.0199702 38:0.00737822 39:-0.028613 40:0.0532947 41:0.113103 42:0.0409577 43:0.342937 44:-0.243111 45:0.24185 46:0.0735902 47:-0.156899 48:-0.0820012 49:0.239322 50:0.00251006 51:-0.431438 52:-0.178242 53:0.363601 54:-0.0378008 55:0.0163984 56:-0.180626 57:-0.236584 58:0.277509 59:-0.157483 60:0.144821 61:-0.0878543 62:-0.546159 63:0.0655225 64:-0.272408 65:0.241501 66:-0.111679 67:-0.398226 68:-0.273081 69:-0.223433 70:-0.343073 71:-0.542525 72:-0.314983 73:-0.393174 74:-0.491677 75:0.0625835 76:-0.336662 77:-0.45221 78:-0.325293 79:-0.389509 80:-0.386473 81:-0.446065 82:-0.313841 83:-0.305677 84:-0.52183 85:-0.560529 86:-0.751907 87:-0.856693 88:-0.448663 89:-0.582803 90:-0.673432 91:-0.686485 92:-0.564946 93:-0.497154 94:-0.592796 95:-0.66061 96:-0.577245 97:-0.482959 98:-0.603767 99:-0.76327 100:-0.512974 101:-0.656949 102:-0.513365 103:-0.638322 104:-0.645852 105:-0.508847 106:-0.380237 107:-0.636384 108:-0.675779 109:-0.664231 110:-0.610167 111:-0.651982 112:-0.686581 113:-0.469038 114:-0.555744 115:-0.616043 116:-0.676599 117:-0.451761 118:-0.406602 119:-0.690519 120:-0.574907 121:-0.579833 122:-0.629796 123:-0.654733 124:-0.703656 125:-0.539553 126:-0.721662 127:-0.532879 
2 0:0.0775029 1:0.0810949 2:-0.461035 3:-0.0197877 4:-0.266974 5:-0.0264419 6:0.140735 7:-0.174202 8:-0.105578 9:0.1334 10:0.316021 11:-0.161163 12:-0.0266863 13:-0.114838 14:-0.277903 15:0.27095 16:-0.243273 17:0.182817 18:-0.479992 19:-0.300631 20:-0.378312 21:-0.274615 22:-0.120974 23:0.336077 24:0.190437 25:0.236146 26:0.218915 27:0.213545 28:-0.122073 29:0.0964224 30:-0.173991 31:-0.399809 32:0.4496 33:-0.34115 34:-0.567593 35:-0.263182 36:0.387021 37:-0.353467 38:0.463106 39:0.171392 40:0.202563 41:0.282013 42:0.319418 43:-0.182261 44:0.204607 45:0.273445 46:0.08788 47:0.0466102 48:-0.0877483 49:-0.34189 50:-0.134975 51:-0.257494 52:0.379088 53:0.0641638 54:0.398035 55:0.191426 56:0.218081 57:0.627207 58:0.39235 59:0.00604571 60:0.368071 61:-0.0752442 62:0.0645619 63:0.200677 64:0.472759 65:0.243536 66:-0.416441 67:-0.264506 68:-0.173177 69:-0.331122 70:-0.248543 71:-0.0868015 72:-0.143515 73:-0.286664 74:-0.514028 75:-0.359618 76:-0.170712 77:-0.67195 78:-0.40689 79:0.047185 80:0.137551 81:-0.399961 82:-0.235695 83:-0.439227 84:-0.164587 85:-0.433474 86:-0.397671 87:-0.509023 88:-0.260444 89:-0.460044 90:-0.502373 91:-0.263598 92:-0.381335 93:-0.180979 94:-0.553155 95:-0.503649 96:-0.362928 97:-0.409982 98:-0.491718 99:-0.560896 100:-0.486323 101:-0.434922 102:-0.384024 103:-0.578469 104:-0.408699 105:-0.336567 106:-0.319336 107:-0.375939 108:-0.431523 109:-0.427495 110:-0.354726 111:-0.461318 112:-0.400977 113:-0.202111 114:-0.476046 115:-0.502102 116:-0.382536 117:-0.274387 118:-0.31252 119:-0.362618 120:-0.412421 121:-0.373452 122:-0.360269 123:-0.384869 124:-0.443766 125:-0.348234 126:-0.392805 127:-0.407552 
2 0:0.104006 1:0.0777187 2:-0.475918 3:0.0142152 4:-0.30391 5:0.318604 6:0.25645 7:-0.274178 8:0.129885 9:-0.0968548 10:-0.180595 11:-0.112316 12:0.418181 13:0.209104 14:-0.479084 15:0.33473 16:-0.029787 17:-0.129582 18:-0.60045 19:-0.322792 20:0.508253 21:-0.238224 22:0.103002 23:-0.45896 24:0.140965 25:0.34643 26:0.0256083 27:0.228013 28:-0.232481 29:-0.0532955 30:0.127454 31:-0.376454 32:-0.305522 33:-0.250527 34:0.135989 35:-0.236786 36:0.12113 37:-0.201511 38:-0.271969 39:0.240679 40:-0.0698345 41:0.219724 42:-0.0288581 43:0.0406524 44:-0.0968343 45:-0.110585 46:-0.181572 47:-0.354586 48:-0.458672 49:-0.374642 50:-0.439235 51:-0.394633 52:0.0714467 53:0.373516 54:-0.288389 55:-0.0586856 56:-0.0859866 57:-0.512461 58:0.0408225 59:0.33861 60:-0.242924 61:-0.555118 62:-0.120509 63:0.0430058 64:0.0544815 65:0.108833 66:-0.211692 67:-0.258566 68:-0.006842 69:-0.342211 70:-0.556055 71:-0.563478 72:-0.305657 73:-0.592812 74:-0.342351 75:-0.267902 76:-0.227566 77:-0.504248 78:-0.325725 79:-0.431313 80:-0.216696 81:-0.598458 82:-0.726031 83:-0.464368 84:-0.391286 85:-0.14486 86:-0.401865 87:-0.491686 88:-0.444285 89:-0.457655 90:-0.51149 91:-0.434664 92:-0.475886 93:-0.505519 94:-0.483835 95:-0.647994 96:-0.534288 97:-0.531474 98:-0.614686 99:-0.534667 100:-0.472251 101:-0.473765 102:-0.448309 103:-0.656839 104:-0.686338 105:-0.489013 106:-0.501524 107:-0.538579 108:-0.663452 109:-0.570365 110:-0.481941 111:-0.706 112:-0.458485 113:-0.416892 114:-0.613076 115:-0.531551 116:-0.572458 117:-0.448358 118:-0.455521 119:-0.558395 120:-0.583117 121:-0.564108 122:-0.566974 123:-0.504867 124:-0.615931 125:-0.482289 126:-0.606264 127:-0.543393 
2 0:0.104674 1:0.0803854 2:-0.471871 3:0.0144994 4:-0.375399 5:-0.0536285 6:-0.237155 7:-0.0827449 8:0.0259917 9:0.207659 10:-0.313619 11:-0.0942367 12:0.213728 13:-0.0725925 14:-0.217462 15:-0.0855773 16:-0.218794 17:-0.0665106 18:-0.381533 19:-0.0892088 20:0.751467 21:0.0170979 22:0.127573 23:-0.295836 24:-0.662929 25:-0.159013 26:0.669988 27:-0.0828627 28:-0.250706 29:0.0202504 30:-0.0275912 31:0.0814765 32:-0.0315907 33:0.499682 34:-0.142452 35:0.0790361 36:0.161812 37:-0.0559146 38:-0.108511 39:-0.0923619 40:-0.0732493 41:-0.0947565 42:0.394006 43:0.14848 44:-0.264684 45:0.0590705 46:-0.116254 47:0.504245 48:0.241123 49:0.258991 50:0.342641 51:-0.410134 52:0.120648 53:0.389995 54:-0.216211 55:-0.0408998 56:-0.136252 57:0.369588 58:0.240553 59:0.268739 60:-0.00109927 61:0.237081 62:-0.561276 63:-0.166979 64:-0.360281 65:-0.23498 66:-0.169279 67:0.253297 68:-0.335967 69:-0.445321 70:-0.397987 71:-0.543691 72:-0.229528 73:-0.210093 74:-0.406201 75:0.209774 76:-0.286707 77:-0.425139 78:-0.326508 79:-0.360298 80:-0.339742 81:-0.492263 82:-0.893414 83:-0.360141 84:-0.523432 85:-0.422786 86:-0.43231 87:-0.419686 88:-0.492296 89:-0.250363 90:-0.538895 91:-0.45287 92:-0.421827 93:-0.421739 94:-0.562047 95:-0.521347 96:-0.541619 97:-0.467143 98:-0.408222 99:-0.530535 100:-0.513131 101:-0.52574 102:-0.379796 103:-0.512082 104:-0.677238 105:-0.412678 106:-0.35286 107:-0.451512 108:-0.435398 109:-0.495543 110:-0.389733 111:-0.453971 112:-0.571133 113:-0.564364 114:-0.460592 115:-0.490404 116:-0.527553 117:-0.333617 118:-0.344998 119:-0.494287 120:-0.549402 121:-0.448332 122:-0.478512 123:-0.481464 124:-0.500868 125:-0.459051 126:-0.566431 127:-0.422598 
2 0:0.0255304 1:0.0534364 2:-0.516795 3:0.013051 4:-0.265555 5:0.0219383 6:-0.018207 7:-0.408651 8:-0.0284356 9:0.385278 10:-0.3464 11:0.286522 12:0.200312 13:-0.165203 14:-0.27044 15:0.11155 16:-0.188299 17:-0.277848 18:-0.197126 19:0.0425697 20:-0.47117 21:-0.236086 22:-0.130451 23:0.0108833 24:0.600767 25:-0.250823 26:0.203555 27:-0.015278 28:0.039174 29:-0.253252 30:-0.0905095 31:-0.0561494 32:-0.252708 33:-0.139669 34:-0.137383 35:0.0123287 36:0.00607469 37:-0.167088 38:0.0435722 39:-0.294089 40:0.0276135 41:0.0376268 42:0.415902 43:-0.14376 44:-0.165155 45:0.600169 46:0.252084 47:0.577596 48:-0.354496 49:0.251049 50:-0.293688 51:-0.241844 52:0.116825 53:0.149328 54:0.132709 55:-0.0139571 56:-0.0854933 57:-0.0937046 58:0.440729 59:0.394703 60:-0.0188172 61:0.264652 62:0.154601 63:0.111446 64:0.14587 65:-0.122149 66:0.0111968 67:0.16701 68:0.22505 69:-0.270304 70:-0.246476 71:-0.132362 72:-0.0591126 73:-0.274022 74:-0.200437 75:-0.218481 76:-0.276202 77:-0.472609 78:-0.399082 79:-0.00886635 80:-0.148004 81:-0.365811 82:-0.206137 83:-0.265321 84:-0.438478 85:-0.258305 86:-0.272512 87:-0.319329 88:-0.239117 89:-0.189761 90:-0.467134 91:-0.50683 92:-0.302103 93:-0.175699 94:-0.507092 95:-0.356871 96:-0.45122 97:-0.33213 98:-0.461062 99:-0.469433 100:-0.466899 101:-0.416722 102:-0.390331 103:-0.616534 104:-0.470125 105:-0.292513 106:-0.212765 107:-0.400655 108:-0.475238 109:-0.502076 110:-0.354301 111:-0.41748 112:-0.359172 113:-0.325271 114:-0.397346 115:-0.389667 116:-0.451303 117:-0.192404 118:-0.306214 119:-0.366019 120:-0.496812 121:-0.456661 122:-0.461243 123:-0.475052 124:-0.416519 125:-0.399909 126:-0.481861 127:-0.385452 
0.9750873823134507 0:0.140721 1:0.0622041 2:-0.572294 3:-0.000481686 4:0.0457133 5:0.180785 6:-0.0943578 7:-0.742698 8:-0.0392082 9:0.160126 10:-0.644223 11:0.0523824 12:0.117357 13:0.0300563 14:-0.151698 15:-0.100498 16:-0.0784872 17:-0.109462 18:-0.266806 19:-0.197823 20:-0.127512 21:-0.192922 22:-0.358459 23:-0.160597 24:-0.0596386 25:0.361438 26:-0.210464 27:0.286586 28:-0.181099 29:0.0333021 30:-0.199097 31:-0.268961 32:-0.115705 33:0.0285488 34:0.118738 35:-0.338576 36:-0.156588 37:-0.199274 38:0.287426 39:-0.155626 40:0.265697 41:0.0315684 42:0.420575 43:-0.192994 44:-0.0851911 45:-0.113527 46:-0.219973 47:0.131738 48:-0.138373 49:0.0601878 50:0.166075 51:-0.314987 52:0.127146 53:-0.0322704 54:-0.203286 55:-0.328825 56:-0.0735684 57:0.0882895 58:0.122374 59:-0.123058 60:-0.461911 61:0.00618111 62:-0.478967 63:0.0146572 64:0.121265 65:0.13142 66:-0.52725 67:-0.490485 68:-0.0380089 69:-0.402671 70:-0.342108 71:-0.403195 72:-0.209604 73:-0.490835 74:-0.603224 75:-0.343434 76:-0.443829 77:-0.50977 78:-0.396377 79:-0.408053 80:-0.478437 81:-0.49262 82:-0.514508 83:-0.46036 84:-0.31267 85:-0.365271 86:-0.387416 87:-0.646303 88:-0.477972 89:-0.511473 90:-0.411851 91:-0.5778 92:-0.472216 93:-0.539881 94:-0.567174 95:-0.542225 96:-0.725658 97:-0.52389 98:-0.549421 99:-0.65382 100:-0.490323 101:-0.608504 102:-0.514895 103:-0.682352 104:-0.664509 105:-0.446453 106:-0.339275 107:-0.458995 108:-0.682846 109:-0.573295 110:-0.517423 111:-0.617714 112:-0.548583 113:-0.479287 114:-0.538402 115:-0.642096 116:-0.522652 117:-0.515671 118:-0.529576 119:-0.536319 120:-0.536601 121:-0.541029 122:-0.526405 123:-0.607211 124:-0.608542 125:-0.511963 126:-0.595973 127:-0.52974 
2 0:-0.0393897 1:0.0614609 2:-0.507278 3:-0.00050977 4:-0.159674 5:0.266265 6:-0.244676 7:-0.250498 8:0.036782 9:-0.04629 10:-0.271425 11:0.0580492 12:0.420442 13:-0.14572 14:-0.314523 15:-0.124689 16:-0.38395 17:0.0422588 18:-0.348655 19:0.0661276 20:-0.240653 21:-0.149113 22:0.374154 23:-0.443873 24:-0.114521 25:0.277408 26:-0.151718 27:-0.0792877 28:-0.160924 29:-0.667156 30:-0.0033817 31:-0.554712 32:-0.504306 33:0.206899 34:0.0831196 35:-0.20679 36:0.061183 37:-0.147387 38:0.380912 39:-0.0735095 40:0.330946 41:-0.306849 42:0.116958 43:0.0628885 44:0.113724 45:0.145566 46:0.0992675 47:0.2207 48:-0.242852 49:-0.496189 50:0.187184 51:-0.0578105 52:0.036163 53:-0.296732 54:0.0564826 55:-0.785687 56:0.154371 57:0.259714 58:0.00272161 59:0.0382266 60:-0.162057 61:0.0276369 62:-0.288378 63:0.328933 64:-0.0123023 65:-0.147362 66:-0.222406 67:-0.120506 68:-0.195941 69:-0.399572 70:-0.466446 71:-0.337653 72:-0.182115 73:-0.50156 74:-0.563638 75:-0.0861454 76:-0.380269 77:-0.356532 78:-0.347486 79:-0.273341 80:-0.176712 81:-0.291667 82:-0.639549 83:-0.460643 84:-0.354081 85:-0.374443 86:-0.29306 87:-0.458134 88:-0.565395 89:-0.377486 90:-0.431776 91:-0.353529 92:-0.368835 93:-0.525995 94:-0.510428 95:-0.435535 96:-0.584175 97:-0.485178 98:-0.293424 99:-0.638975 100:-0.427184 101:-0.552365 102:-0.43456 103:-0.568646 104:-0.605294 105:-0.39025 106:-0.491236 107:-0.539781 108:-0.600771 109:-0.354851 110:-0.352449 111:-0.425282 112:-0.511007 113:-0.516713 114:-0.545125 115:-0.478319 116:-0.526037 117:-0.332976 118:-0.374529 119:-0.460905 120:-0.515706 121:-0.414108 122:-0.589599 123:-0.613807 124:-0.545064 125:-0.497841 126:-0.556349 127:-0.517414 
2 0:0.0863777 1:0.0410499 2:-0.561544 3:0.0582181 4:-0.0819709 5:0.0236167 6:-0.206994 7:-0.343675 8:-0.337399 9:-0.0158177 10:0.102407 11:0.256272 12:0.225587 13:0.145773 14:-0.22889 15:0.109828 16:-0.249454 17:-0.0343169 18:-0.296659 19:-0.277177 20:-0.133912 21:-0.00124442 22:0.272001 23:-0.033357 24:-0.174987 25:-0.150188 26:0.174736 27:0.20845 28:-0.391131 29:0.136223 30:0.128527 31:-0.00489787 32:-0.415188 33:-0.133171 34:0.226487 35:-0.185255 36:0.0504867 37:-0.000389763 38:0.160328 39:-0.0975145 40:0.0855149 41:0.132882 42:0.0981446 43:-0.0156705 44:0.449171 45:-0.104768 46:-0.111331 47:0.0999618 48:-0.237704 49:0.0360458 50:-0.0342209 51:0.0894273 52:0.273135 53:-0.0105255 54:-0.0598022 55:0.256479 56:-0.386733 57:0.0445604 58:-0.0663255 59:0.215068 60:-0.392658 61:-0.171984 62:-0.445118 63:-0.244021 64:-0.458699 65:0.0661762 66:0.186675 67:-0.386471 68:-0.0672435 69:-0.423616 70:-0.498159 71:-0.75788 72:-0.281342 73:-0.34062 74:-0.46012 75:-0.284295 76:-0.239394 77:-0.34105 78:-0.750969 79:-0.486332 80:-0.324743 81:-0.335752 82:-0.666426 83:-0.500519 84:-0.563995 85:-0.316541 86:-0.585956 87:-0.756701 88:-0.347841 89:-0.470602 90:-0.649281 91:-0.634648 92:-0.525737 93:-0.521043 94:-0.292959 95:-0.601248 96:-0.521745 97:-0.514767 98:-0.618557 99:-0.578994 100:-0.611336 101:-0.492955 102:-0.594988 103:-0.613757 104:-0.630846 105:-0.437123 106:-0.517356 107:-0.480283 108:-0.705282 109:-0.59019 110:-0.554591 111:-0.53966 112:-0.474313 113:-0.47253 114:-0.53833 115:-0.538745 116:-0.639525 117:-0.445574 118:-0.51434 119:-0.554254 120:-0.36775 121:-0.436056 122:-0.595559 123:-0.586452 124:-0.58429 125:-0.547223 126:-0.5531 127:-0.457096 
2 0:0.0950094 1:0.0650562 2:-0.507657 3:-0.0803273 4:-0.22247 5:-0.315275 6:-0.127899 7:-0.0747123 8:-0.037747 9:0.414515 10:-0.214293 11:0.0172053 12:-0.128219 13:0.498991 14:-0.528669 15:0.108462 16:-0.431928 17:-0.0834382 18:-0.476223 19:0.360584 20:0.0193427 21:-0.142014 22:0.182095 23:-0.28391 24:-0.121891 25:0.363662 26:-0.387961 27:0.40681 28:-0.120511 29:-0.164187 30:-0.0781154 31:0.0024392 32:-0.438906 33:0.16171 34:-0.200863 35:-0.152891 36:0.0936605 37:-0.335299 38:-0.0948688 39:-0.0792297 40:-0.0626024 41:0.30882 42:0.376934 43:-0.0301883 44:0.0479718 45:0.177913 46:-0.167237 47:0.425729 48:-0.225781 49:0.0622226 50:0.18074 51:-0.0847524 52:0.245207 53:0.418726 54:0.0769936 55:-0.0540479 56:0.0297492 57:0.020734 58:-0.00887448 59:0.461243 60:-0.204139 61:0.774604 62:-0.122692 63:0.0500823 64:0.244288 65:-0.0864084 66:-0.453497 67:-0.200144 68:-0.0819996 69:-0.443887 70:-0.315509 71:-0.448669 72:-0.111909 73:-0.725761 74:-0.118343 75:-0.35976 76:-0.556008 77:-0.318263 78:-0.218267 79:-0.0408534 80:-0.488782 81:-0.515923 82:-0.351211 83:-0.414761 84:-0.450332 85:-0.241365 86:-0.407465 87:-0.647433 88:-0.438029 89:-0.540564 90:-0.451092 91:-0.389787 92:-0.401487 93:-0.510686 94:-0.38817 95:-0.345623 96:-0.453923 97:-0.302982 98:-0.454715 99:-0.392769 100:-0.469678 101:-0.591435 102:-0.330667 103:-0.481468 104:-0.466703 105:-0.458552 106:-0.459119 107:-0.417093 108:-0.526147 109:-0.385718 110:-0.435931 111:-0.547932 112:-0.402587 113:-0.347619 114:-0.385926 115:-0.427471 116:-0.543586 117:-0.40485 118:-0.368464 119:-0.466313 120:-0.374539 121:-0.393927 122:-0.423777 123:-0.438337 124:-0.51205 125:-0.415427 126:-0.468547 127:-0.450022 
2 0:0.0891739 1:0.0560823 2:-0.504694 3:0.000915057 4:-0.292881 5:-0.237996 6:-0.375479 7:-0.236609 8:0.218771 9:-0.0434554 10:0.150467 11:-0.0707588 12:0.0560024 13:-0.0849428 14:-0.226509 15:0.146934 16:0.0125683 17:-0.0398172 18:-0.486493 19:-0.320483 20:-0.00825769 21:0.187928 22:-0.0327871 23:0.0150137 24:0.332942 25:-0.296931 26:0.191041 27:-0.13029 28:-0.368181 29:0.0156506 30:-0.257523 31:-0.336117 32:-0.379428 33:-0.237395 34:-0.150468 35:0.00685005 36:0.461514 37:-0.0163075 38:0.131347 39:0.3044 40:-0.334783 41:0.056047 42:-0.0866157 43:-0.320119 44:0.138113 45:-0.0924212 46:-0.199207 47:-0.0820586 48:-0.266183 49:-0.0224255 50:-0.327306 51:0.0708351 52:0.40931 53:0.139443 54:-0.261512 55:0.223851 56:0.159293 57:-0.0820113 58:0.320048 59:0.157039 60:-0.224696 61:-0.606505 62:-0.14385 63:0.277573 64:0.521968 65:-0.181388 66:-0.354242 67:-0.0954884 68:-0.0498395 69:-0.172257 70:-0.527119 71:-0.230792 72:-0.124184 73:-0.361988 74:-0.410414 75:0.0261465 76:-0.596195 77:-0.419173 78:-0.398398 79:-0.151237 80:-0.206279 81:-0.437932 82:-0.610269 83:-0.240483 84:-0.389299 85:-0.211345 86:-0.285977 87:-0.667525 88:-0.544053 89:-0.217789 90:-0.39696 91:-0.368386 92:-0.463024 93:-0.451066 94:-0.403924 95:-0.261709 96:-0.584058 97:-0.534375 98:-0.547446 99:-0.721808 100:-0.455631 101:-0.60438 102:-0.399434 103:-0.549252 104:-0.565107 105:-0.397901 106:-0.335256 107:-0.441231 108:-0.516261 109:-0.441878 110:-0.532051 111:-0.598774 112:-0.533107 113:-0.393459 114:-0.576724 115:-0.501339 116:-0.594193 117:-0.389928 118:-0.41502 119:-0.531613 120:-0.499429 121:-0.406832 122:-0.52932 123:-0.639944 124:-0.472494 125:-0.524587 126:-0.504478 127:-0.579752 
2 0:0.057808 1:0.0664663 2:-0.522841 3:-0.0823337 4:-0.144552 5:-0.0287086 6:0.0910446 7:-0.0515329 8:-0.327371 9:0.347404 10:-0.284801 11:0.0558411 12:0.366761 13:-0.0969799 14:-0.121445 15:-0.271536 16:-0.04254 17:0.203413 18:-0.69992 19:-0.165285 20:-0.155701 21:0.254503 22:0.189232 23:0.0179388 24:0.0498951 25:0.0927179 26:0.0322131 27:-0.177913 28:-0.33717 29:-0.467951 30:0.0841925 31:-0.0537724 32:-0.188278 33:-0.18842 34:-0.210122 35:-0.161355 36:0.220192 37:-0.0217698 38:0.0504441 39:0.0868149 40:-0.184403 41:0.21852 42:0.457453 43:-0.236569 44:-0.447754 45:-0.0774817 46:0.18702 47:0.141703 48:-0.079291 49:-0.475587 50:-0.218126 51:-0.214604 52:0.0664939 53:-0.0939604 54:-0.232317 55:0.173262 56:-0.0699659 57:-0.0642971 58:0.000325506 59:-0.147671 60:-0.113626 61:-0.671235 62:-0.282736 63:-0.142171 64:-0.128295 65:-0.056911 66:-0.0854988 67:-0.495637 68:0.0947816 69:-0.458857 70:-0.549657 71:-0.44251 72:-0.551377 73:-0.743331 74:-0.483549 75:-0.0624572 76:-0.700614 77:-0.959782 78:-0.311905 79:-0.417921 80:-0.202314 81:-0.497211 82:-0.260383 83:-0.369232 84:-0.541892 85:-0.646445 86:-0.433977 87:-0.415593 88:-0.190527 89:-0.547705 90:-0.614523 91:-0.574637 92:-0.504183 93:-0.582569 94:-0.503444 95:-0.662812 96:-0.639519 97:-0.398207 98:-0.549636 99:-0.681844 100:-0.533244 101:-0.530857 102:-0.500952 103:-0.559981 104:-0.623985 105:-0.490339 106:-0.468415 107:-0.547874 108:-0.715981 109:-0.572606 110:-0.455962 111:-0.655158 112:-0.484033 113:-0.482729 114:-0.571184 115:-0.616423 116:-0.632879 117:-0.539159 118:-0.532827 119:-0.638803 120:-0.652421 121:-0.548333 122:-0.653695 123:-0.625855 124:-0.662248 125:-0.569054 126:-0.57281 127:-0.601297 
2 0:0.101939 1:0.0962893 2:-0.462092 3:-0.0467961 4:-0.18241 5:0.0186998 6:0.128512 7:-0.296331 8:-0.0161496 9:0.196998 10:-0.0701211 11:0.292727 12:-0.0440544 13:-0.0109082 14:0.0258743 15:0.329935 16:-0.158619 17:-0.180574 18:-0.24054 19:-0.393548 20:0.299822 21:0.259861 22:0.0537897 23:0.121656 24:-0.133721 25:0.31992 26:0.396037 27:-0.678777 28:-0.464946 29:-0.279135 30:-0.368866 31:0.0160539 32:-0.442552 33:0.205514 34:0.0310723 35:-0.166168 36:0.0261913 37:-0.284654 38:0.458388 39:-0.204165 40:0.028733 41:-0.0758786 42:0.505842 43:-0.141166 44:-0.0128126 45:-0.0617474 46:-0.118655 47:-0.243614 48:-0.242316 49:-0.21238 50:-0.121159 51:-0.0502976 52:0.352246 53:0.0561707 54:-0.326758 55:0.198017 56:-0.291521 57:0.321902 58:-0.0203386 59:0.310606 60:-0.0826535 61:-0.0560548 62:-0.522594 63:-0.160488 64:0.521968 65:-0.225541 66:-0.396264 67:-0.161561 68:-0.0109662 69:-0.510698 70:-0.460897 71:-0.235806 72:-0.320425 73:-0.64205 74:-0.182707 75:-0.426214 76:-0.0549909 77:-0.530314 78:-0.608836 79:-0.410115 80:-0.453423 81:-0.519334 82:-0.527153 83:-0.460994 84:-0.526448 85:-0.418529 86:-0.698261 87:-0.561188 88:-0.487243 89:-0.530355 90:-0.541503 91:-0.38728 92:-0.519406 93:-0.51305 94:-0.425053 95:-0.618132 96:-0.674503 97:-0.602039 98:-0.619132 99:-0.647831 100:-0.543933 101:-0.691396 102:-0.412357 103:-0.609784 104:-0.724628 105:-0.471772 106:-0.37509 107:-0.707119 108:-0.618412 109:-0.417062 110:-0.469894 111:-0.68037 112:-0.567029 113:-0.473787 114:-0.588838 115:-0.410095 116:-0.586541 117:-0.492496 118:-0.497706 119:-0.530098 120:-0.559591 121:-0.452625 122:-0.615415 123:-0.558192 124:-0.591305 125:-0.517926 126:-0.59497 127:-0.545709 
2 0:-0.00735518 1:0.0570598 2:-0.582817 3:-0.0127154 4:-0.20086 5:0.0718928 6:0.0110813 7:-0.0633882 8:-0.116819 9:0.535209 10:0.0172068 11:-0.0488862 12:0.318708 13:-0.16328 14:-0.104025 15:-0.000827858 16:0.302488 17:0.056581 18:-0.224574 19:0.294951 20:-0.2853 21:0.273889 22:0.112472 23:-0.0733489 24:0.403771 25:0.103364 26:0.371623 27:-0.0188796 28:-0.4593 29:0.311504 30:-0.239289 31:-0.202317 32:-0.00785225 33:0.321501 34:0.0890674 35:-0.478405 36:0.193908 37:-0.34294 38:-0.118703 39:-0.114785 40:0.329878 41:0.471104 42:-0.0473747 43:0.14556 44:-0.0810318 45:-0.314338 46:-0.0597194 47:-0.246808 48:-0.00507547 49:-0.0397937 50:0.104997 51:0.170444 52:0.459648 53:-0.161146 54:-0.164293 55:0.394673 56:0.0517002 57:0.286195 58:0.412489 59:0.155413 60:0.208736 61:-0.179572 62:-0.344873 63:0.0170579 64:0.156415 65:0.481222 66:-0.160625 67:0.321899 68:0.103185 69:-0.357697 70:-0.389066 71:-0.298602 72:-0.388834 73:-0.211528 74:-0.544969 75:-0.138009 76:-0.360824 77:-0.419782 78:-0.506138 79:0.154492 80:-0.296378 81:-0.450822 82:-0.291904 83:-0.430494 84:-0.114537 85:-0.258415 86:-0.455533 87:-0.405098 88:-0.220322 89:-0.357107 90:-0.487005 91:-0.35435 92:-0.363383 93:-0.338461 94:-0.365425 95:-0.234131 96:-0.45627 97:-0.319705 98:-0.400538 99:-0.463331 100:-0.329389 101:-0.523171 102:-0.261572 103:-0.373734 104:-0.484785 105:-0.371504 106:-0.350249 107:-0.310019 108:-0.55354 109:-0.382336 110:-0.292459 111:-0.423273 112:-0.401503 113:-0.275309 114:-0.331346 115:-0.407297 116:-0.389949 117:-0.200372 118:-0.275686 119:-0.378621 120:-0.401084 121:-0.310124 122:-0.422989 123:-0.399259 124:-0.465559 125:-0.357141 126:-0.442047 127:-0.410963 
1.815581657608552 0:0.0526412 1:0.0729982 2:-0.47097 3:-0.0204919 4:-0.234545 5:-0.286438 6:0.0578668 7:-0.22301 8:-0.365178 9:0.605282 10:-0.186987 11:0.369583 12:0.23292 13:-0.389522 14:0.138232 15:-0.176872 16:0.0442133 17:-0.000168271 18:-0.540603 19:-0.0693673 20:-0.433267 21:-0.0533404 22:0.211724 23:-0.195044 24:-0.331462 25:-0.483968 26:0.204453 27:-0.315625 28:-0.277712 29:0.00945404 30:-0.284744 31:0.366338 32:-0.208225 33:-0.116623 34:-0.000492196 35:-0.29191 36:0.0436733 37:-0.350361 38:0.383191 39:0.170731 40:0.0085371 41:0.232271 42:-0.0250642 43:-0.250456 44:-0.344847 45:-0.202776 46:0.139066 47:-0.0438367 48:-0.340728 49:-0.260614 50:0.0271622 51:-0.307055 52:0.437827 53:-0.23665 54:0.0740872 55:0.205054 56:0.2037 57:-0.0404877 58:0.021218 59:0.12658 60:0.216525 61:0.301704 62:-0.32945 63:-0.272362 64:-0.170475 65:-0.25905 66:-0.454317 67:-0.134392 68:-0.209184 69:-0.444554 70:-0.271897 71:-0.337173 72:-0.292826 73:-0.396477 74:-0.484277 75:-0.0064645 76:-0.324456 77:-0.364804 78:-0.338072 79:-0.172298 80:-0.138745 81:-0.405663 82:-0.53408 83:-0.580484 84:-0.645532 85:-0.252327 86:-0.482957 87:-0.35031 88:-0.305352 89:-0.34457 90:-0.486792 91:-0.519368 92:-0.503942 93:-0.570981 94:-0.459705 95:-0.454579 96:-0.324837 97:-0.479148 98:-0.641569 99:-0.56721 100:-0.615765 101:-0.585755 102:-0.45881 103:-0.420251 104:-0.531362 105:-0.599858 106:-0.348814 107:-0.38958 108:-0.645846 109:-0.491701 110:-0.491339 111:-0.581775 112:-0.488526 113:-0.363788 114:-0.465556 115:-0.545459 116:-0.493157 117:-0.440633 118:-0.392273 119:-0.569956 120:-0.622706 121:-0.479081 122:-0.551083 123:-0.546968 124:-0.577906 125:-0.471794 126:-0.506877 127:-0.487918 
