svm_type c_svc
kernel_type rbf
gamma 0.5
nr_class 2
total_sv 175
rho 1.09165
label 0 3
nr_sv 83 92
SV
0.5 0:-0.0931355 1:0.0284245 2:-0.55755 3:-0.162626 4:0.235502 5:0.146988 6:-0.337729 7:-0.825797 8:-0.00555952 9:0.307477 10:-0.123097 11:0.0459336 12:-0.141339 13:-0.313725 14:0.05578 15:-0.0352881 16:-0.0777443 17:-0.506766 18:-0.146129 19:0.0586434 20:0.221358 21:-0.14678 22:0.0353114 23:-0.0421882 24:0.264442 25:0.564665 26:-0.331393 27:0.108922 28:0.503686 29:-0.590535 30:0.380122 31:-0.0232096 32:-0.153559 33:-0.298865 34:0.665754 35:0.308659 36:-0.804871 37:0.784996 38:-0.686039 39:-0.101014 40:-0.00651496 41:-0.343493 42:-0.3393 43:0.0194573 44:0.383696 45:0.182264 46:0.133437 47:-0.0106014 48:0.644812 49:0.136787 50:-0.300068 51:0.183339 52:-0.492947 53:-0.0469416 54:0.0172035 55:-0.243827 56:-0.168306 57:0.236642 58:0.235472 59:-0.0616473 60:0.243601 61:0.416831 62:0.636252 63:0.00508625 64:0.261375 65:-0.128105 66:0.511891 67:-0.080929 68:0.0319212 69:-0.0705837 70:0.0463766 71:0.0910445 72:-0.0960315 73:0.286971 74:0.115048 75:0.0594552 76:-0.240854 77:-0.509601 78:-0.342938 79:0.0673004 80:-0.0689112 81:0.0287801 82:0.0683772 83:0.0485792 84:0.0214068 85:-0.0393566 86:-0.0385096 87:0.00995305 88:0.160447 89:0.181719 90:0.135508 91:0.110184 92:0.0730072 93:0.158871 94:0.0761238 95:0.201045 96:0.051735 97:0.0623615 98:-0.00532082 99:0.0577029 100:0.145663 101:0.034575 102:0.151053 103:0.101258 104:0.0179627 105:0.0373833 106:0.0848894 107:0.166076 108:0.166564 109:0.139027 110:0.117785 111:0.07162 112:0.0593894 113:0.0655082 114:0.100479 115:0.0891774 116:0.0998759 117:0.112074 118:0.0697957 119:0.0658897 120:0.0525616 121:0.0970679 122:0.0416804 123:0.0708392 124:0.0592878 125:0.0398754 126:0.0442888 127:0.093334 
0.01479879426187796 0:-0.0903707 1:-0.0130984 2:-0.470328 3:-0.0822365 4:0.284922 5:0.0733681 6:-0.355166 7:-0.458915 8:-0.192649 9:0.32475 10:0.281907 11:-0.236432 12:0.170742 13:-0.0254618 14:-0.183701 15:-0.164372 16:-0.0998088 17:-0.496167 18:-0.153773 19:0.211407 20:0.0790631 21:-0.098065 22:0.050166 23:-0.283434 24:0.0525797 25:0.430294 26:-0.4415 27:0.146149 28:-0.00027582 29:-0.393357 30:0.0661994 31:-0.395704 32:-0.0952201 33:0.0976092 34:0.154605 35:0.301444 36:0.131759 37:0.245743 38:-0.574326 39:0.108057 40:0.21634 41:-0.225898 42:-0.0406398 43:-0.108759 44:0.21521 45:0.0147226 46:0.0301612 47:0.210483 48:0.481442 49:0.132539 50:-0.0927821 51:0.486826 52:-0.477141 53:-0.0468486 54:0.228958 55:0.114108 56:0.412284 57:0.359076 58:0.00989324 59:-0.0518866 60:0.272713 61:0.266555 62:0.497717 63:-0.0673183 64:0.344627 65:-0.0220922 66:0.511082 67:0.0266777 68:0.0734686 69:0.134717 70:0.241076 71:0.181879 72:0.0259316 73:0.37798 74:0.294459 75:0.213667 76:-0.0956762 77:-0.425552 78:-0.260096 79:0.0929589 80:0.138209 81:-0.00235091 82:0.206489 83:0.137571 84:0.242789 85:0.118505 86:0.206747 87:0.157961 88:0.232856 89:0.260473 90:0.170758 91:0.271813 92:0.235608 93:0.280117 94:0.208567 95:0.282274 96:0.180383 97:0.146393 98:0.128637 99:0.199044 100:0.167717 101:0.191581 102:0.238191 103:0.173581 104:0.153547 105:0.134204 106:0.191711 107:0.259735 108:0.251926 109:0.209977 110:0.235762 111:0.180599 112:0.145816 113:0.203278 114:0.204531 115:0.190947 116:0.202324 117:0.225977 118:0.188872 119:0.179257 120:0.166437 121:0.181031 122:0.178791 123:0.165918 124:0.166706 125:0.163222 126:0.148369 127:0.225311 
0.2230516511283081 0:-0.0862748 1:-0.0151077 2:-0.480511 3:-0.0961035 4:0.246477 5:-0.0132826 6:-0.424337 7:-0.560065 8:0.0424147 9:0.127693 10:0.173063 11:-0.433781 12:-0.0774702 13:-0.119589 14:0.39604 15:0.0297774 16:-0.334769 17:-0.350737 18:-0.278076 19:0.0390873 20:0.145334 21:-0.244169 22:0.0913885 23:-0.146666 24:0.490966 25:0.299399 26:-0.385343 27:-0.0708658 28:0.102071 29:-0.511788 30:0.241983 31:-0.156541 32:0.0831104 33:0.17978 34:-0.0256936 35:0.351084 36:-0.16364 37:0.18252 38:-0.458961 39:-0.0444659 40:0.246849 41:-0.419324 42:-0.0364468 43:0.0561811 44:0.459544 45:0.0995758 46:0.158396 47:0.296218 48:0.374242 49:0.156142 50:-0.0721171 51:0.219374 52:-0.522412 53:-0.0759716 54:0.0193549 55:-0.235478 56:0.327999 57:0.339934 58:0.0142113 59:-0.0490604 60:0.15859 61:0.339302 62:0.536452 63:0.100854 64:0.303969 65:0.0495496 66:0.0522846 67:0.105737 68:0.0168357 69:-0.0500241 70:0.0375529 71:0.388466 72:0.136539 73:0.147319 74:0.343655 75:0.22387 76:0.00591988 77:-0.419231 78:-0.0987805 79:0.163238 80:0.0517935 81:0.0161512 82:0.176627 83:0.0921423 84:0.0986847 85:0.101771 86:0.0442567 87:0.103645 88:0.213291 89:0.298627 90:0.140409 91:0.199906 92:0.145326 93:0.228545 94:0.145556 95:0.263917 96:0.174493 97:0.111559 98:0.0956232 99:0.165217 100:0.139564 101:0.192531 102:0.218007 103:0.155488 104:0.120961 105:0.149293 106:0.201141 107:0.194856 108:0.233135 109:0.197275 110:0.186246 111:0.165973 112:0.131579 113:0.128011 114:0.173966 115:0.18357 116:0.20847 117:0.202445 118:0.130325 119:0.167273 120:0.148735 121:0.145401 122:0.160116 123:0.163249 124:0.139494 125:0.126543 126:0.130132 127:0.189597 
0.1403668495919636 0:-0.102863 1:-0.0511342 2:-0.483267 3:-0.0561885 4:0.225168 5:-0.0560451 6:-0.513706 7:-0.448713 8:0.018021 9:0.0669905 10:-0.179124 11:0.017112 12:0.0193209 13:-0.0348761 14:0.200468 15:-0.332571 16:-0.255523 17:-0.528526 18:-0.265876 19:0.0866129 20:0.181015 21:-0.232697 22:0.0535523 23:0.0451364 24:0.370931 25:0.608888 26:-0.205616 27:0.201591 28:0.230353 29:-0.236738 30:0.131692 31:-0.172208 32:0.115389 33:-0.239837 34:-0.0054546 35:0.164092 36:0.138709 37:0.275263 38:-0.661888 39:-0.017449 40:0.494034 41:-0.161945 42:-0.128114 43:-0.0958501 44:0.504906 45:0.190481 46:-0.180259 47:0.336267 48:0.341914 49:-0.00332696 50:-0.00337795 51:0.09383 52:-0.513929 53:0.0768118 54:0.135082 55:-0.156746 56:0.0601478 57:0.608511 58:0.0630059 59:-0.0790605 60:0.175575 61:0.29686 62:0.913275 63:-0.0189515 64:0.205227 65:-0.136386 66:0.116151 67:-0.0291652 68:0.0329931 69:0.0115563 70:0.0879974 71:0.234599 72:0.0816588 73:0.194738 74:0.391843 75:0.198534 76:-0.0605048 77:-0.384564 78:-0.211781 79:0.181644 80:0.0361841 81:-0.0251217 82:0.23784 83:0.0464842 84:0.209333 85:0.0454997 86:0.104279 87:0.0949019 88:0.225469 89:0.226083 90:0.124214 91:0.195947 92:0.176782 93:0.174768 94:0.175634 95:0.22101 96:0.100089 97:0.113585 98:0.0514772 99:0.114971 100:0.18911 101:0.137315 102:0.177184 103:0.133839 104:0.106085 105:0.152707 106:0.190479 107:0.197947 108:0.163918 109:0.172654 110:0.168818 111:0.114264 112:0.148359 113:0.146436 114:0.129842 115:0.173102 116:0.163637 117:0.153703 118:0.153271 119:0.11646 120:0.11234 121:0.120589 122:0.129371 123:0.11877 124:0.117575 125:0.117001 126:0.0930423 127:0.145132 
0.5 0:-0.10416 1:0.120349 2:-0.622519 3:0.0245517 4:0.260149 5:0.158492 6:-0.320699 7:-0.546485 8:-0.324392 9:0.021907 10:0.252392 11:-0.527708 12:-0.244681 13:0.0541255 14:-0.210527 15:-0.17278 16:-0.32801 17:-0.444733 18:-0.278991 19:0.0281838 20:-0.0512733 21:-0.1002 22:-0.0933953 23:0.00469811 24:0.199302 25:0.283038 26:-0.366273 27:0.305046 28:-0.00781513 29:-0.404452 30:0.455551 31:-0.218091 32:-0.1353 33:0.00136834 34:-0.0453663 35:0.676288 36:0.216877 37:0.448227 38:-0.591849 39:-0.184029 40:0.542967 41:-0.300104 42:0.16352 43:-0.118602 44:0.335007 45:-0.180781 46:0.182461 47:0.41561 48:0.492128 49:0.201161 50:-0.196288 51:0.471475 52:-0.603348 53:0.0409485 54:0.0902544 55:0.106539 56:-0.170243 57:0.167256 58:-0.0305902 59:-0.255635 60:0.712312 61:0.0574606 62:0.585136 63:0.0845319 64:0.191675 65:-0.235119 66:0.325903 67:-0.0674029 68:0.0768852 69:0.0367351 70:0.158544 71:-0.056288 72:0.0168261 73:0.0997068 74:0.347841 75:0.173731 76:-0.200636 77:-0.515394 78:-0.311391 79:-0.0109594 80:0.0347083 81:-0.0345111 82:0.231651 83:-0.0418677 84:0.141939 85:0.0509672 86:0.119413 87:0.0572408 88:0.155124 89:0.137998 90:0.100469 91:0.22369 92:0.142183 93:0.149445 94:0.13825 95:0.207218 96:0.114122 97:0.0439933 98:0.0211963 99:0.129215 100:0.0958939 101:0.074067 102:0.147626 103:0.0714195 104:0.0323016 105:0.082971 106:0.148217 107:0.165297 108:0.187373 109:0.10615 110:0.131427 111:0.0478529 112:0.108223 113:0.102591 114:0.130241 115:0.139358 116:0.108473 117:0.126856 118:0.0804421 119:0.108316 120:0.0791964 121:0.0866975 122:0.0969258 123:0.0937916 124:0.0983262 125:0.053012 126:0.0718605 127:0.0816877 
0.5 0:-0.0656671 1:-0.0190512 2:-0.45059 3:-0.146978 4:0.183076 5:0.350907 6:-0.214404 7:-0.424966 8:-0.208244 9:0.41425 10:0.337105 11:0.18684 12:0.0626923 13:-0.123284 14:0.00874446 15:-0.145095 16:-0.267077 17:-0.48772 18:-0.412045 19:-0.060648 20:0.0687389 21:-0.244765 22:-0.338803 23:-0.222675 24:0.16055 25:0.431163 26:-0.544914 27:0.23374 28:0.403473 29:-0.436757 30:0.272695 31:-0.245206 32:-0.216276 33:0.431291 34:0.300105 35:0.0280741 36:0.352433 37:0.0477588 38:-0.380592 39:0.150976 40:0.206722 41:-0.533666 42:0.2038 43:0.0804711 44:0.47502 45:0.249229 46:0.245317 47:0.23938 48:0.431035 49:0.0464735 50:0.059933 51:0.0487441 52:-0.610259 53:-0.129252 54:0.106935 55:0.185196 56:-0.146897 57:0.25625 58:0.137631 59:-0.122256 60:0.406271 61:0.561081 62:0.44301 63:0.209875 64:0.324298 65:-0.0254827 66:0.183861 67:0.163485 68:-0.0404399 69:-0.139608 70:0.145039 71:0.230541 72:-0.0735851 73:0.218445 74:0.31283 75:0.462029 76:-0.0658 77:-0.326013 78:-0.160391 79:0.21163 80:0.21672 81:0.0864704 82:0.3154 83:0.0996224 84:0.223641 85:0.110684 86:0.157607 87:0.108754 88:0.209916 89:0.347476 90:0.186183 91:0.187958 92:0.191038 93:0.362123 94:0.226139 95:0.261343 96:0.15748 97:0.112077 98:0.0992895 99:0.141516 100:0.184445 101:0.173384 102:0.273159 103:0.199513 104:0.140752 105:0.173579 106:0.199385 107:0.276273 108:0.25717 109:0.234296 110:0.224865 111:0.163574 112:0.161357 113:0.154946 114:0.184095 115:0.18521 116:0.205701 117:0.216691 118:0.16773 119:0.161493 120:0.165498 121:0.200069 122:0.201975 123:0.207492 124:0.17724 125:0.158699 126:0.187337 127:0.215188 
0.4173646715404085 0:-0.0958917 1:-0.0139568 2:-0.477854 3:-0.0764457 4:0.189287 5:0.0462435 6:-0.479219 7:-0.489537 8:-0.580579 9:-0.0898886 10:0.17184 11:-0.229554 12:-0.112984 13:0.0452927 14:0.493899 15:-0.442457 16:-0.492165 17:-0.446626 18:-0.0935713 19:0.23485 20:0.255011 21:-0.105525 22:-0.238205 23:0.0244594 24:0.283767 25:0.310435 26:-0.323252 27:0.145248 28:0.178319 29:-0.296511 30:0.299891 31:-0.081485 32:0.0611155 33:-0.0342006 34:-0.0974281 35:0.396723 36:0.00791156 37:-0.0959416 38:-0.465531 39:0.244375 40:0.2844 41:-0.574381 42:-0.116409 43:-0.332951 44:0.527477 45:0.0233982 46:0.413945 47:0.385158 48:0.347044 49:-0.0370166 50:0.125567 51:0.323187 52:-0.578156 53:-0.0775342 54:0.301417 55:0.0202743 56:-0.653933 57:0.358204 58:-0.0267836 59:0.119215 60:0.276622 61:0.261495 62:0.501811 63:0.00388729 64:0.240077 65:-0.056892 66:0.387754 67:0.215275 68:0.00528012 69:-0.0699219 70:0.228922 71:0.256571 72:0.140379 73:0.245166 74:0.22616 75:0.209058 76:-0.0927566 77:-0.399781 78:-0.294036 79:0.124026 80:-0.0475166 81:0.0117252 82:0.267541 83:0.0939681 84:0.178124 85:0.165777 86:0.127445 87:0.12097 88:0.169134 89:0.245932 90:0.100531 91:0.186323 92:0.161121 93:0.268524 94:0.174022 95:0.26277 96:0.059805 97:0.156629 98:0.0697499 99:0.106617 100:0.180624 101:0.144912 102:0.197144 103:0.14487 104:0.157379 105:0.128258 106:0.144508 107:0.192239 108:0.221364 109:0.15092 110:0.156626 111:0.134058 112:0.149857 113:0.143932 114:0.148029 115:0.167995 116:0.166587 117:0.156465 118:0.136242 119:0.11924 120:0.132364 121:0.127697 122:0.145577 123:0.147778 124:0.0995725 125:0.124335 126:0.115952 127:0.127395 
0.5 0:-0.0836124 1:-0.050643 2:-0.498273 3:-0.112012 4:0.274785 5:-0.216129 6:-0.487994 7:-0.523078 8:0.105156 9:0.254564 10:0.153024 11:-0.158483 12:0.0212722 13:-0.0201719 14:-0.0344181 15:-0.117082 16:-0.184456 17:-0.521135 18:-0.15079 19:0.0404138 20:0.370752 21:-0.0503656 22:0.0214265 23:0.0101732 24:-0.0195625 25:0.49808 26:-0.1443 27:0.0900471 28:0.0930257 29:-0.157826 30:0.341415 31:-0.146378 32:-0.32575 33:-0.284654 34:0.256277 35:0.0130144 36:0.402863 37:0.173945 38:-0.532807 39:-0.0597223 40:0.139925 41:-0.41197 42:-0.119868 43:-0.0586886 44:0.296185 45:0.0736207 46:-0.17026 47:0.371032 48:0.176639 49:0.212976 50:0.0984759 51:0.407256 52:-0.591984 53:-0.0831178 54:0.364708 55:-0.331837 56:0.226056 57:0.370597 58:0.306053 59:-0.104335 60:0.128712 61:0.278188 62:0.632464 63:-0.00186251 64:0.24395 65:-0.116927 66:0.222687 67:0.0717949 68:0.119159 69:0.156106 70:0.305233 71:0.261844 72:-0.0280402 73:0.137403 74:0.23069 75:0.37719 76:-0.0275225 77:-0.405976 78:-0.340711 79:0.117039 80:0.0453999 81:0.0379421 82:0.213768 83:0.0248364 84:0.112716 85:0.0136639 86:0.0785415 87:0.142958 88:0.142726 89:0.259506 90:0.118596 91:0.15448 92:0.181386 93:0.181623 94:0.182134 95:0.282703 96:0.0774247 97:0.0916426 98:0.106941 99:0.0745767 100:0.138699 101:0.113595 102:0.217502 103:0.116386 104:0.0658839 105:0.0567832 106:0.139594 107:0.194116 108:0.164293 109:0.147285 110:0.154268 111:0.135864 112:0.134035 113:0.124935 114:0.123454 115:0.137718 116:0.157217 117:0.153139 118:0.13353 119:0.155157 120:0.110789 121:0.106073 122:0.117788 123:0.0980119 124:0.112495 125:0.13441 126:0.097679 127:0.109277 
0.4927065132095511 0:-0.104655 1:-0.0122322 2:-0.451377 3:-0.15541 4:0.218637 5:0.108002 6:-0.24914 7:-0.478197 8:-0.452729 9:0.0592188 10:0.233534 11:-0.114433 12:0.0781117 13:-0.0718465 14:-0.0513687 15:-0.0566231 16:0.159375 17:-0.395565 18:-0.298495 19:0.0946531 20:-0.0544884 21:0.0207625 22:0.199275 23:-0.188165 24:0.0449586 25:0.150594 26:-0.32247 27:-0.26716 28:0.0641804 29:-0.270531 30:0.010332 31:0.080088 32:-0.0434331 33:9.25887e-05 34:0.0172139 35:0.430046 36:0.0549146 37:-0.0833043 38:-0.387773 39:0.100437 40:0.351848 41:-0.195835 42:0.390047 43:-0.167966 44:0.342154 45:0.0825636 46:0.0512385 47:0.589575 48:0.520299 49:0.039783 50:-0.110119 51:0.321606 52:-0.537951 53:-0.147394 54:0.0180334 55:-0.0078923 56:-0.410352 57:0.231938 58:-0.10428 59:-0.0636688 60:0.375604 61:0.276089 62:0.571629 63:-0.32668 64:0.284608 65:-0.0442243 66:0.0870606 67:0.0511901 68:-0.0602894 69:0.0616234 70:0.216058 71:-0.131487 72:0.0371988 73:0.215072 74:0.196952 75:0.268946 76:-0.0323087 77:-0.482073 78:-0.289061 79:-0.00142827 80:-0.0373782 81:-0.00755699 82:0.166025 83:-0.0447711 84:0.152931 85:0.0537927 86:0.0761055 87:0.0945318 88:0.141516 89:0.243919 90:0.130271 91:0.162329 92:0.155539 93:0.235824 94:0.130747 95:0.179091 96:0.0603886 97:0.115867 98:0.0557112 99:0.0573241 100:0.144831 101:0.0608813 102:0.189979 103:0.0930955 104:0.083321 105:0.0920485 106:0.180149 107:0.142789 108:0.169153 109:0.140875 110:0.159155 111:0.0974121 112:0.10324 113:0.120258 114:0.126065 115:0.131498 116:0.171233 117:0.118749 118:0.0946623 119:0.104664 120:0.0921057 121:0.0865972 122:0.0934926 123:0.0811439 124:0.0900781 125:0.105865 126:0.0542813 127:0.108871 
0.5 0:-0.0898246 1:-0.0156827 2:-0.496709 3:-0.128816 4:0.181819 5:0.331657 6:-0.308699 7:-0.506773 8:-0.494653 9:0.379757 10:0.301557 11:-0.0647891 12:-0.0753379 13:-0.322604 14:0.217271 15:0.0506563 16:-0.0702391 17:-0.264208 18:-0.304284 19:-0.118074 20:0.188728 21:-0.367007 22:0.104983 23:-0.0547038 24:-0.0644098 25:0.425913 26:-0.249581 27:0.00685009 28:0.245615 29:-0.261376 30:0.358852 31:-0.0446125 32:-0.164699 33:-0.307203 34:0.0288914 35:0.451084 36:0.43033 37:0.140275 38:-0.465958 39:-0.194412 40:0.200497 41:-0.015505 42:0.118225 43:0.321347 44:0.436696 45:0.0278723 46:0.0384549 47:0.299623 48:0.629878 49:0.298411 50:-0.181024 51:0.294817 52:-0.449893 53:0.0664315 54:0.243347 55:0.0313796 56:-0.0322796 57:0.21629 58:0.0439053 59:0.160553 60:0.0400188 61:0.53033 62:0.775544 63:0.0570969 64:0.0338819 65:0.0560236 66:0.451974 67:0.008689 68:-0.0243997 69:0.037262 70:0.198373 71:0.200008 72:0.162582 73:0.307758 74:0.318897 75:0.133499 76:-0.205446 77:-0.409328 78:-0.195584 79:0.306782 80:0.132294 81:0.0475472 82:0.21732 83:0.084158 84:0.220757 85:0.139198 86:0.16835 87:0.13395 88:0.245831 89:0.25434 90:0.193048 91:0.219435 92:0.215414 93:0.248468 94:0.158745 95:0.351006 96:0.147063 97:0.13319 98:0.111634 99:0.217682 100:0.246569 101:0.13674 102:0.205609 103:0.211282 104:0.137546 105:0.170682 106:0.205687 107:0.218003 108:0.213481 109:0.183614 110:0.188908 111:0.132475 112:0.152742 113:0.185175 114:0.210537 115:0.198316 116:0.185925 117:0.217917 118:0.166829 119:0.18581 120:0.140603 121:0.155292 122:0.178296 123:0.163398 124:0.138064 125:0.133408 126:0.161033 127:0.195684 
0.1117660224513104 0:-0.0932123 1:-0.00670556 2:-0.458162 3:-0.0628685 4:0.163212 5:-0.099177 6:-0.514728 7:-0.360213 8:-0.140982 9:0.257985 10:0.089614 11:-0.644516 12:-0.0885742 13:0.070569 14:0.0964572 15:-0.0997831 16:-0.41688 17:-0.325316 18:-0.273592 19:-0.0790915 20:0.333248 21:-0.224117 22:-0.0161259 23:-0.0989497 24:0.408805 25:0.697249 26:-0.343965 27:0.00814347 28:0.0124686 29:-0.25398 30:0.284775 31:-0.179135 32:0.00505 33:-0.0339587 34:-0.136905 35:0.450787 36:-0.0961889 37:0.311546 38:-0.584819 39:0.111517 40:0.227474 41:-0.351572 42:0.202784 43:-0.251588 44:0.463233 45:-0.200212 46:0.305097 47:0.376576 48:0.434488 49:0.209765 50:-0.00784602 51:0.210558 52:-0.510109 53:-0.00363942 54:0.0763667 55:-0.184709 56:-0.215322 57:0.30956 58:0.172413 59:0.0628082 60:0.334006 61:0.334015 62:0.560143 63:0.0626518 64:0.130687 65:0.00751694 66:0.25197 67:-0.0840009 68:0.0772969 69:-0.089207 70:0.0519701 71:0.0616342 72:0.105016 73:0.352724 74:0.352314 75:0.100129 76:-0.335044 77:-0.5624 78:-0.261423 79:0.139621 80:0.0157156 81:-0.0254903 82:0.275102 83:0.144314 84:0.0819221 85:0.0952584 86:0.038065 87:0.0785852 88:0.150781 89:0.202288 90:0.132499 91:0.201578 92:0.131275 93:0.261946 94:0.152312 95:0.195389 96:0.129248 97:0.11142 98:0.0442352 99:0.124641 100:0.166398 101:0.0795964 102:0.169418 103:0.0931322 104:0.106968 105:0.120679 106:0.124879 107:0.194141 108:0.17828 109:0.131329 110:0.15034 111:0.0737716 112:0.0637214 113:0.101252 114:0.15046 115:0.140579 116:0.126812 117:0.149611 118:0.099003 119:0.128703 120:0.105714 121:0.136106 122:0.104358 123:0.138491 124:0.0965916 125:0.0793833 126:0.129015 127:0.126221 
0.2145390703789314 0:-0.0970437 1:-0.0366446 2:-0.402841 3:-0.235712 4:0.357188 5:-0.184302 6:-0.349067 7:-0.61746 8:0.0309765 9:0.19983 10:0.101863 11:-0.176235 12:0.293028 13:0.00696548 14:0.0103286 15:-0.133049 16:-0.371578 17:-0.301994 18:-0.141817 19:0.151253 20:-0.0391804 21:-0.304643 22:0.120607 23:-0.216125 24:0.131305 25:0.153934 26:-0.304267 27:0.198071 28:0.261488 29:-0.447711 30:0.230488 31:-0.36778 32:0.110796 33:-0.252179 34:0.217462 35:0.308486 36:-0.033874 37:0.114896 38:-0.358296 39:0.00847603 40:0.212819 41:-0.317052 42:-0.014829 43:0.0799455 44:0.512733 45:0.0521507 46:0.264394 47:0.556066 48:0.544318 49:0.201965 50:-0.0053364 51:0.221197 52:-0.415069 53:-0.11619 54:-0.00315535 55:-0.19608 56:0.103774 57:0.0875406 58:-0.256512 59:0.0213734 60:0.2655 61:0.444278 62:0.512756 63:0.041414 64:0.329138 65:-0.163121 66:0.279079 67:0.339229 68:0.0216282 69:-0.0133591 70:0.216332 71:0.0314759 72:0.0764075 73:0.345152 74:0.265201 75:0.225705 76:0.0598182 77:-0.32403 78:-0.142381 79:0.202006 80:0.12975 81:0.12657 82:0.198346 83:0.101128 84:0.165419 85:0.147977 86:0.154377 87:0.172027 88:0.261092 89:0.299262 90:0.153699 91:0.239889 92:0.221835 93:0.294784 94:0.21267 95:0.289399 96:0.127277 97:0.158748 98:0.129131 99:0.167573 100:0.177774 101:0.166656 102:0.237884 103:0.205938 104:0.147898 105:0.141431 106:0.231583 107:0.26225 108:0.222592 109:0.236214 110:0.195696 111:0.175016 112:0.152445 113:0.176556 114:0.203405 115:0.222506 116:0.202706 117:0.234161 118:0.178144 119:0.163655 120:0.168757 121:0.186941 122:0.208609 123:0.169214 124:0.170391 125:0.17107 126:0.150727 127:0.180956 
0.1318470009400893 0:-0.0863345 1:-0.042425 2:-0.47682 3:-0.201 4:0.150705 5:0.000212087 6:-0.341536 7:-0.494818 8:-0.646428 9:0.262024 10:0.0872363 11:-0.412351 12:0.262693 13:-0.0024604 14:-0.0633837 15:-0.0283826 16:-0.239187 17:-0.612772 18:0.0190079 19:0.146588 20:0.0417764 21:-0.19014 22:0.101586 23:-0.0506588 24:0.358579 25:0.667361 26:-0.402273 27:0.0867952 28:-0.150669 29:-0.269298 30:0.104591 31:-0.22065 32:0.0746656 33:-0.172568 34:0.0780329 35:0.343492 36:-0.200564 37:0.336302 38:-0.427675 39:-0.220989 40:0.208446 41:-0.262865 42:-0.224565 43:0.138948 44:0.436847 45:-0.0517584 46:0.327305 47:0.269278 48:0.523123 49:0.139634 50:-0.130659 51:0.156111 52:-0.478384 53:-0.11377 54:0.192774 55:0.101283 56:0.151515 57:0.438181 58:0.018792 59:-0.191803 60:0.156447 61:0.341345 62:0.543709 63:0.040218 64:0.24395 65:0.0238892 66:0.260298 67:0.0168937 68:0.0295751 69:0.0249291 70:0.0467229 71:0.282161 72:-0.100743 73:0.382482 74:0.302881 75:0.32144 76:-0.203658 77:-0.457884 78:-0.313676 79:0.162085 80:0.0519837 81:-0.0466411 82:0.250208 83:-0.00187254 84:0.127712 85:0.0394096 86:0.0987509 87:0.166628 88:0.146182 89:0.296279 90:0.0765978 91:0.178847 92:0.204511 93:0.236013 94:0.12901 95:0.255199 96:0.0755042 97:0.119716 98:0.0780188 99:0.0787698 100:0.156964 101:0.125739 102:0.184928 103:0.116934 104:0.105999 105:0.116335 106:0.152626 107:0.203048 108:0.184016 109:0.148714 110:0.153913 111:0.123669 112:0.104023 113:0.0847027 114:0.120758 115:0.173596 116:0.171129 117:0.1549 118:0.0993771 119:0.112964 120:0.133559 121:0.127177 122:0.109805 123:0.167299 124:0.130087 125:0.100201 126:0.138047 127:0.133848 
0.1113867431644836 0:-0.0880412 1:-0.0367648 2:-0.483385 3:-0.128491 4:0.20434 5:-0.106483 6:-0.42743 7:-0.5806 8:-0.393498 9:0.199888 10:0.267152 11:-0.208748 12:-0.221273 13:-0.0824272 14:-0.0922592 15:-0.137432 16:-0.184361 17:-0.346143 18:-0.176226 19:0.129529 20:0.202681 21:0.00485821 22:-0.177376 23:0.00312808 24:0.517618 25:0.314307 26:-0.343156 27:-0.0846083 28:0.327717 29:-0.498008 30:0.175728 31:0.211634 32:0.0831376 33:-0.154863 34:-0.0536373 35:0.472554 36:-0.022247 37:0.102986 38:-0.440751 39:-0.0265958 40:0.238729 41:-0.439217 42:-0.0397632 43:-0.133387 44:0.4048 45:0.158771 46:0.154988 47:0.336896 48:0.528401 49:0.18529 50:-0.0895277 51:0.256915 52:-0.368551 53:0.000853055 54:0.232357 55:-0.268902 56:0.217294 57:0.536381 58:-0.0444321 59:0.0577972 60:0.267 61:0.356367 62:0.552195 63:0.19108 64:0.252662 65:-0.152864 66:0.309702 67:0.0219772 68:0.084908 69:-0.138648 70:0.0337189 71:0.0651058 72:0.116295 73:0.343915 74:0.407756 75:0.322612 76:0.0245528 77:-0.403568 78:-0.206717 79:0.173718 80:0.00394397 81:0.0398649 82:0.334925 83:0.0433277 84:0.166051 85:0.0582433 86:0.160897 87:0.196115 88:0.228544 89:0.361661 90:0.151591 91:0.195184 92:0.24783 93:0.280778 94:0.183534 95:0.270205 96:0.15708 97:0.154483 98:0.106423 99:0.150589 100:0.147853 101:0.141062 102:0.221296 103:0.172485 104:0.128418 105:0.174732 106:0.190344 107:0.240598 108:0.184343 109:0.179793 110:0.203875 111:0.146471 112:0.154416 113:0.167119 114:0.18519 115:0.209749 116:0.175574 117:0.148502 118:0.152864 119:0.158198 120:0.149282 121:0.182324 122:0.164943 123:0.1343 124:0.144026 125:0.149609 126:0.128101 127:0.147645 
0.322488131295684 0:-0.0957978 1:-0.00655483 2:-0.463249 3:-0.0538729 4:0.231655 5:0.206096 6:-0.418686 7:-0.626448 8:-0.433649 9:0.00363696 10:0.385365 11:-0.0830102 12:-0.215108 13:-0.307647 14:0.459252 15:-0.101269 16:-0.0618627 17:-0.484153 18:-0.238997 19:0.0230975 20:0.311591 21:-0.508346 22:-0.089939 23:-0.0582619 24:0.174591 25:0.592141 26:-0.271225 27:0.0672879 28:0.0692265 29:-0.246621 30:0.518645 31:-0.165844 32:-0.342553 33:-0.0665719 34:-0.00122249 35:0.50949 36:-0.169547 37:-0.0631782 38:-0.267156 39:0.0287319 40:0.180823 41:-0.357817 42:0.0779249 43:-0.341912 44:0.261582 45:-0.15148 46:0.242984 47:0.28519 48:0.266738 49:0.143225 50:-0.136523 51:0.282445 52:-0.596316 53:0.13184 54:0.230444 55:-0.263188 56:0.129392 57:0.366533 58:0.0622962 59:0.110879 60:0.357751 61:0.420649 62:0.592657 63:0.0654364 64:0.0745402 65:-0.0302918 66:0.17108 67:0.173655 68:-0.107795 69:-0.318865 70:-0.0246962 71:0.489753 72:0.11756 73:0.219925 74:0.223921 75:0.239454 76:-0.143255 77:-0.386123 78:-0.351103 79:0.153774 80:0.0888188 81:-0.042437 82:0.188559 83:0.0638826 84:0.13748 85:0.0389165 86:0.0140378 87:0.144268 88:0.182416 89:0.239565 90:0.0928406 91:0.170358 92:0.194209 93:0.206607 94:0.112348 95:0.29573 96:0.14399 97:0.122437 98:0.12707 99:0.0914951 100:0.147538 101:0.0800553 102:0.205252 103:0.140899 104:0.107152 105:0.0912652 106:0.182823 107:0.164716 108:0.191017 109:0.137757 110:0.176928 111:0.127294 112:0.109569 113:0.14772 114:0.145769 115:0.163439 116:0.142558 117:0.152553 118:0.126651 119:0.131913 120:0.0932321 121:0.156099 122:0.153122 123:0.139228 124:0.143491 125:0.0969095 126:0.140697 127:0.135232 
0.1296774647355093 0:-0.086838 1:-0.0244956 2:-0.444443 3:-0.156587 4:0.214248 5:0.0469358 6:-0.234271 7:-0.602849 8:-0.405282 9:0.0705814 10:0.0533424 11:-0.196874 12:0.334047 13:-0.0806643 14:0.107812 15:-0.181981 16:-0.252932 17:-0.424956 18:-0.167384 19:-0.0987873 20:-0.167412 21:-0.359638 22:0.0882062 23:-0.080285 24:0.241214 25:0.297324 26:-0.235869 27:0.167479 28:0.0251943 29:-0.198347 30:0.296045 31:-0.170421 32:0.103591 33:-0.153565 34:0.101214 35:0.200486 36:0.206911 37:0.138961 38:-0.500411 39:0.0301496 40:0.192762 41:-0.618406 42:0.040801 43:-0.0912912 44:0.169234 45:0.126666 46:0.00975512 47:0.144753 48:0.430596 49:0.23321 50:0.0819568 51:0.24084 52:-0.437288 53:-0.0356914 54:0.183073 55:-0.280081 56:0.185335 57:0.301941 58:0.290186 59:0.234728 60:0.150089 61:0.200415 62:0.651436 63:-0.0643959 64:0.202323 65:-0.0899217 66:0.289519 67:-0.107278 68:-0.140305 69:-0.0756019 70:0.240172 71:0.112123 72:0.145739 73:0.261051 74:0.265158 75:0.0648445 76:0.0695669 77:-0.583882 78:-0.4119 79:0.226203 80:0.0444318 81:0.0494967 82:0.309109 83:0.0852873 84:0.166213 85:0.114956 86:0.0522589 87:0.129375 88:0.212735 89:0.284425 90:0.131857 91:0.166983 92:0.242142 93:0.250924 94:0.193312 95:0.218565 96:0.12329 97:0.0804951 98:0.0971614 99:0.126983 100:0.22934 101:0.134736 102:0.216397 103:0.109655 104:0.0663016 105:0.149982 106:0.229784 107:0.245419 108:0.222559 109:0.21019 110:0.14953 111:0.121222 112:0.141916 113:0.119165 114:0.184615 115:0.167239 116:0.170425 117:0.142855 118:0.149683 119:0.154333 120:0.119771 121:0.157468 122:0.133532 123:0.152571 124:0.152085 125:0.12727 126:0.121823 127:0.148891 
0.1384306209162066 0:-0.0921542 1:-0.0335534 2:-0.470996 3:-0.188479 4:0.230044 5:0.0977062 6:-0.336837 7:-0.623864 8:-0.420659 9:0.0906551 10:0.161053 11:-0.237932 12:-0.0823775 13:0.1371 14:0.295607 15:-0.150864 16:-0.594133 17:-0.412382 18:-0.290476 19:0.0780333 20:0.218224 21:-0.381388 22:-0.0599787 23:0.0828685 24:0.248371 25:0.586318 26:-0.38327 27:0.104406 28:0.14229 29:-0.234236 30:0.318332 31:-0.233459 32:-0.0251277 33:-0.101948 34:-0.0736976 35:0.544384 36:-0.426946 37:0.441866 38:-0.383631 39:-0.0290973 40:0.272586 41:-0.402712 42:0.0377798 43:0.0531191 44:0.663 45:0.145806 46:0.257164 47:0.240657 48:0.12395 49:0.234113 50:-0.0843875 51:0.302847 52:-0.575663 53:0.00442206 54:0.190094 55:-0.0395709 56:-0.380053 57:0.447132 58:0.0532704 59:-0.112042 60:0.142918 61:0.517337 62:0.657289 63:-0.0883216 64:0.267183 65:-0.0587748 66:-0.0345878 67:0.168944 68:-0.0705093 69:0.0152091 70:0.127453 71:0.248221 72:0.0885683 73:0.240755 74:0.340107 75:0.315832 76:-0.0350812 77:-0.417481 78:-0.27793 79:0.186925 80:0.0958283 81:0.0169117 82:0.208398 83:0.0368758 84:0.141238 85:0.122269 86:0.110409 87:0.127569 88:0.141378 89:0.247276 90:0.130068 91:0.184671 92:0.18934 93:0.272972 94:0.189097 95:0.27622 96:0.117676 97:0.105087 98:0.109156 99:0.0732559 100:0.149034 101:0.123384 102:0.23013 103:0.138444 104:0.107326 105:0.151643 106:0.1829 107:0.232125 108:0.182512 109:0.162423 110:0.154748 111:0.111252 112:0.126045 113:0.109866 114:0.152861 115:0.166917 116:0.142203 117:0.161183 118:0.108803 119:0.120619 120:0.132522 121:0.14301 122:0.143591 123:0.154366 124:0.127243 125:0.115188 126:0.137748 127:0.136896 
0.2005371637959308 0:-0.101157 1:-0.0100441 2:-0.473836 3:-0.102438 4:0.281432 5:-0.060583 6:-0.401956 7:-0.566276 8:-0.371082 9:0.327773 10:0.226855 11:-0.0907916 12:-0.2886 13:-0.423014 14:-0.111283 15:-0.0245905 16:-0.618711 17:-0.58327 18:-0.383292 19:0.319591 20:0.227144 21:-0.055611 22:0.0134796 23:-0.0723405 24:0.0427427 25:0.340782 26:-0.405344 27:0.0708277 28:0.126428 29:-0.456722 30:0.0882818 31:-0.107177 32:0.135827 33:0.0397352 34:0.341587 35:0.331958 36:0.0738431 37:0.318521 38:-0.653663 39:0.124562 40:0.150248 41:-0.367262 42:0.0423082 43:-0.341359 44:0.515633 45:0.0707555 46:0.0812202 47:0.215023 48:0.489257 49:0.0829952 50:0.0691449 51:0.219879 52:-0.550587 53:-0.0536881 54:0.322107 55:-0.0360624 56:0.100851 57:0.28916 58:0.295175 59:0.0422286 60:0.155248 61:0.333603 62:0.791745 63:0.0212689 64:0.196515 65:-0.0562108 66:0.31733 67:0.11966 68:-0.0310136 69:0.0157687 70:-0.00490704 71:0.350073 72:0.174042 73:0.266737 74:0.423144 75:0.231036 76:-0.149105 77:-0.4751 78:-0.264164 79:0.215847 80:0.0967286 81:0.0649146 82:0.249224 83:0.132986 84:0.254084 85:0.0960361 86:0.0677831 87:0.0889968 88:0.231405 89:0.279318 90:0.151504 91:0.181168 92:0.172629 93:0.205797 94:0.178035 95:0.22946 96:0.12575 97:0.136871 98:0.0729265 99:0.122024 100:0.133509 101:0.129786 102:0.224002 103:0.149419 104:0.0729552 105:0.124757 106:0.158313 107:0.242734 108:0.223993 109:0.181539 110:0.173854 111:0.12223 112:0.155156 113:0.132862 114:0.191412 115:0.13807 116:0.181793 117:0.200252 118:0.151824 119:0.166814 120:0.115437 121:0.144214 122:0.145662 123:0.129013 124:0.140554 125:0.134671 126:0.141486 127:0.154278 
0.1035925082004645 0:-0.0887836 1:-0.0374397 2:-0.478469 3:-0.0708201 4:0.285437 5:0.154303 6:-0.298673 7:-0.376302 8:-0.475249 9:-0.0183402 10:0.391688 11:-0.49524 12:-0.103744 13:-0.25922 14:0.385206 15:-0.0848866 16:-0.220461 17:-0.592789 18:-0.17764 19:0.379434 20:0.138071 21:-0.576506 22:-0.177981 23:-0.221034 24:0.0952011 25:0.589723 26:-0.439297 27:0.540842 28:0.202097 29:-0.239916 30:0.113389 31:-0.237717 32:-0.243415 33:-0.255603 34:0.0218737 35:0.316466 36:0.133139 37:0.158247 38:-0.556763 39:-0.0194062 40:-0.0516745 41:-0.437926 42:0.0155998 43:0.118704 44:0.331467 45:-0.0498273 46:-0.0385383 47:0.206359 48:0.689536 49:0.140696 50:0.0884218 51:0.453157 52:-0.615478 53:0.0420464 54:0.0422512 55:-0.329948 56:-0.0686156 57:0.143009 58:-0.0599125 59:0.0566592 60:-0.0286055 61:0.219723 62:0.614824 63:-0.0742233 64:0.298161 65:-0.136977 66:0.149321 67:0.00185707 68:0.0550636 69:-0.0880666 70:0.0682998 71:0.228396 72:0.0774478 73:0.237241 74:0.34057 75:0.12004 76:-0.126971 77:-0.41623 78:-0.325095 79:0.109135 80:-0.041202 81:-0.0223977 82:0.232914 83:0.0140625 84:0.158588 85:0.0177278 86:0.039116 87:0.0643342 88:0.191621 89:0.241617 90:0.090869 91:0.120338 92:0.137087 93:0.240376 94:0.150136 95:0.247577 96:0.101456 97:0.0789108 98:0.0625569 99:0.0692367 100:0.141706 101:0.117732 102:0.167234 103:0.110268 104:0.105224 105:0.0892707 106:0.15727 107:0.182629 108:0.185365 109:0.156551 110:0.158616 111:0.115098 112:0.11912 113:0.116039 114:0.148478 115:0.111732 116:0.128384 117:0.135717 118:0.122619 119:0.130619 120:0.0933405 121:0.11029 122:0.123493 123:0.126756 124:0.103996 125:0.0813539 126:0.123059 127:0.127779 
0.1838216559151238 0:-0.0912155 1:-0.017787 2:-0.476106 3:-0.0479328 4:0.245177 5:0.0562187 6:-0.360346 7:-0.507378 8:-0.0177841 9:0.155699 10:-0.01536 11:-0.547317 12:-0.073437 13:-0.340902 14:0.166734 15:-0.128216 16:0.099366 17:-0.489446 18:-0.0228717 19:0.123878 20:0.123281 21:-0.055205 22:-0.104344 23:-0.0147914 24:0.37012 25:0.492498 26:-0.182451 27:0.404519 28:0.431425 29:-0.538181 30:0.260964 31:-0.236173 32:0.0338133 33:-0.0477385 34:0.12199 35:0.58302 36:-0.03345 37:-0.0722827 38:-0.550914 39:-0.0197632 40:-0.0301301 41:-0.457814 42:0.0969651 43:0.033718 44:0.366926 45:-0.0477227 46:0.138523 47:0.280817 48:0.268025 49:0.146786 50:-0.0779093 51:0.298379 52:-0.413358 53:-0.173024 54:0.346511 55:0.127845 56:-0.272254 57:0.326569 58:0.0843301 59:-0.086892 60:0.446488 61:0.465068 62:0.497879 63:-0.0849856 64:0.449177 65:0.034694 66:0.28716 67:0.178222 68:0.0775433 69:0.0890813 70:0.0577543 71:0.31074 72:0.0373983 73:0.212714 74:0.326091 75:0.218269 76:-0.199455 77:-0.481532 78:-0.243674 79:0.0316188 80:-0.0123563 81:0.128415 82:0.221686 83:0.0862797 84:0.225992 85:0.0671888 86:0.0371768 87:0.109321 88:0.217274 89:0.245275 90:0.124183 91:0.184387 92:0.167415 93:0.272843 94:0.198965 95:0.200814 96:0.108258 97:0.179853 98:0.0946814 99:0.12414 100:0.17474 101:0.0985484 102:0.212703 103:0.116771 104:0.0709252 105:0.112396 106:0.177523 107:0.197106 108:0.174581 109:0.188555 110:0.201108 111:0.140275 112:0.109426 113:0.138443 114:0.207021 115:0.193037 116:0.202718 117:0.154492 118:0.146406 119:0.157242 120:0.132617 121:0.168384 122:0.155143 123:0.171313 124:0.136703 125:0.141706 126:0.146701 127:0.167397 
0.5 0:-0.0428835 1:-0.034804 2:-0.556702 3:-0.259074 4:0.226428 5:-0.270606 6:-0.219042 7:-0.293449 8:-0.944706 9:0.017144 10:0.00351732 11:-0.215799 12:0.0862531 13:-0.0544478 14:0.291226 15:0.0026575 16:-0.407386 17:-0.395995 18:-0.160898 19:0.111779 20:0.277024 21:-0.11619 22:-0.0417558 23:-0.221882 24:0.152046 25:0.153384 26:-0.357214 27:-0.3902 28:-0.0705629 29:-0.192151 30:0.0988 31:-0.295699 32:0.290999 33:0.0619089 34:0.166884 35:0.420121 36:-0.852105 37:0.214645 38:-0.524761 39:0.187544 40:0.0590326 41:-0.537432 42:-0.259538 43:0.153596 44:0.372638 45:0.0618811 46:0.102449 47:0.490531 48:0.333277 49:0.0497014 50:-0.208454 51:0.36939 52:-0.495402 53:-0.103524 54:0.314165 55:-0.185814 56:-0.178131 57:0.299373 58:0.0662886 59:-0.0729913 60:0.0180111 61:0.0428418 62:0.715863 63:0.191276 64:0.123911 65:-0.0729489 66:0.16561 67:-0.232545 68:-0.0245763 69:-0.0587614 70:0.278814 71:0.460109 72:0.0143054 73:0.384524 74:0.201367 75:0.079229 76:-0.0344153 77:-0.519847 78:-0.331959 79:0.163513 80:0.0505819 81:0.0687955 82:0.166727 83:0.0916466 84:0.0803839 85:0.065424 86:0.00337088 87:0.110909 88:0.140589 89:0.309108 90:0.0893179 91:0.125037 92:0.117241 93:0.275306 94:0.153068 95:0.242065 96:0.132675 97:0.148941 98:0.010748 99:0.0713858 100:0.116918 101:0.13374 102:0.169119 103:0.133866 104:0.0679537 105:0.131632 106:0.156906 107:0.192363 108:0.170278 109:0.17771 110:0.161864 111:0.138723 112:0.13856 113:0.0822565 114:0.161799 115:0.132504 116:0.167161 117:0.165164 118:0.135857 119:0.103611 120:0.145723 121:0.126832 122:0.128711 123:0.147802 124:0.121566 125:0.0973243 126:0.114426 127:0.132935 
0.5 0:-0.0637301 1:-0.0493683 2:-0.45741 3:-0.124665 4:0.25946 5:-0.113955 6:-0.442459 7:-0.489574 8:-0.37689 9:-0.0283009 10:0.16186 11:-0.655427 12:-0.0811641 13:-0.269573 14:0.0789126 15:0.00304766 16:0.196921 17:-0.656282 18:-0.0802707 19:0.11391 20:0.340428 21:0.0304728 22:-0.119226 23:0.00213487 24:-0.108305 25:0.161911 26:-0.35562 27:0.167406 28:0.387403 29:-0.087275 30:0.402965 31:-0.27665 32:-0.0772005 33:0.239803 34:-0.112214 35:0.481652 36:-0.274356 37:-0.385531 38:-0.535205 39:-0.105437 40:0.183285 41:-0.447007 42:-0.0444212 43:-0.395551 44:0.495571 45:0.0486633 46:-0.168098 47:0.278326 48:0.227334 49:0.186623 50:-0.108853 51:0.0918552 52:-0.549905 53:0.111985 54:0.193214 55:-0.157988 56:0.451683 57:0.497711 58:-0.016907 59:0.249353 60:0.182705 61:0.190217 62:0.619002 63:-0.165454 64:0.142304 65:-0.137028 66:0.247231 67:0.0869453 68:-0.144416 69:0.051571 70:-0.090573 71:0.0614763 72:0.0449264 73:0.279807 74:0.15893 75:0.427482 76:-0.0542869 77:-0.418646 78:-0.325462 79:0.149456 80:0.0395272 81:-0.00342005 82:0.126341 83:0.0738092 84:0.158508 85:-0.0269483 86:0.0102753 87:0.0186142 88:0.156462 89:0.202521 90:0.13409 91:0.167837 92:0.106938 93:0.214316 94:0.0942365 95:0.251601 96:0.124743 97:0.068279 98:0.0430056 99:0.0350604 100:0.0665494 101:0.0577063 102:0.1378 103:0.0974456 104:0.0719274 105:0.0668657 106:0.142903 107:0.185459 108:0.13981 109:0.144601 110:0.134582 111:0.10557 112:0.0878174 113:0.0771381 114:0.0916495 115:0.110307 116:0.142686 117:0.115512 118:0.0745921 119:0.074292 120:0.0914624 121:0.0917835 122:0.111791 123:0.0870283 124:0.0662321 125:0.0737981 126:0.0750341 127:0.12113 
0.5 0:-0.100218 1:-0.00254223 2:-0.468375 3:-0.174498 4:0.216793 5:-0.0886148 6:-0.278611 7:-0.549685 8:0.161244 9:0.377886 10:0.0299001 11:-0.33195 12:-0.028708 13:-0.157307 14:-0.258438 15:0.0541204 16:-0.393869 17:-0.388739 18:-0.283312 19:0.19601 20:-0.0432792 21:-0.177855 22:-0.223967 23:0.199167 24:0.129811 25:0.544289 26:-0.288165 27:0.397721 28:-0.095397 29:-0.351973 30:0.125799 31:-0.17989 32:0.242259 33:0.140076 34:0.131543 35:0.124805 36:0.0512596 37:0.307507 38:-0.418781 39:-0.160891 40:0.182385 41:-0.363762 42:0.154605 43:-0.255209 44:0.3859 45:-0.0776254 46:0.172045 47:0.42515 48:0.732726 49:0.296525 50:-0.188513 51:0.243934 52:-0.433926 53:0.0999563 54:0.0900271 55:-0.47343 56:0.316757 57:0.170256 58:0.309151 59:0.0132416 60:0.126342 61:0.303075 62:0.959348 63:0.19859 64:0.165537 65:-0.0315798 66:0.12804 67:-0.0762742 68:0.124148 69:0.0969398 70:0.244404 71:0.300318 72:0.0380263 73:0.229461 74:0.408616 75:0.272345 76:0.0533367 77:-0.529894 78:-0.220227 79:0.237326 80:0.15894 81:0.101789 82:0.210977 83:0.0723658 84:0.211464 85:0.141348 86:0.0211886 87:0.116274 88:0.132198 89:0.269924 90:0.178947 91:0.199924 92:0.212789 93:0.274078 94:0.144496 95:0.277753 96:0.178492 97:0.114872 98:0.104587 99:0.155635 100:0.182663 101:0.101764 102:0.266315 103:0.138192 104:0.146114 105:0.123655 106:0.195321 107:0.273817 108:0.211717 109:0.174862 110:0.208852 111:0.161291 112:0.154594 113:0.15422 114:0.192904 115:0.216942 116:0.181343 117:0.202972 118:0.144338 119:0.173905 120:0.187254 121:0.195151 122:0.20279 123:0.189979 124:0.163537 125:0.160951 126:0.161538 127:0.212529 
0.3818627041769653 0:-0.083382 1:-0.0293136 2:-0.472794 3:-0.175207 4:0.267263 5:-0.0130432 6:-0.508644 7:-0.723465 8:-0.148208 9:-0.192754 10:0.0739571 11:-0.253054 12:0.102355 13:-0.336432 14:-0.0412067 15:-0.184748 16:-0.484068 17:-0.470948 18:-0.100588 19:0.16471 20:0.392878 21:-0.00892949 22:-0.0199956 23:0.0489776 24:-0.0258868 25:0.342399 26:-0.309767 27:0.0114172 28:0.262881 29:-0.538553 30:0.141403 31:-0.367485 32:0.137765 33:0.0928354 34:0.00720396 35:0.249133 36:0.438791 37:0.119914 38:-0.419203 39:-0.0457429 40:0.329456 41:-0.113635 42:-0.0320884 43:0.0312489 44:0.323724 45:-0.0967715 46:0.0943005 47:0.287773 48:0.336619 49:0.273175 50:0.182027 51:0.15067 52:-0.481882 53:-0.0379359 54:0.10359 55:-0.236238 56:-0.200793 57:0.119271 58:0.115608 59:-0.152997 60:0.52595 61:0.0913943 62:0.657805 63:-0.0454537 64:0.196515 65:0.137394 66:0.415631 67:0.102128 68:0.160127 69:0.170043 70:0.293792 71:-0.00593147 72:0.0360796 73:0.193027 74:0.420556 75:0.346979 76:-0.116138 77:-0.481092 78:-0.264974 79:0.182422 80:0.184108 81:-0.00996116 82:0.235162 83:0.142312 84:0.173406 85:0.0299757 86:0.101104 87:0.0784862 88:0.160315 89:0.201169 90:0.105701 91:0.125099 92:0.167496 93:0.225689 94:0.155372 95:0.216559 96:0.14425 97:0.131214 98:0.092234 99:0.093459 100:0.125253 101:0.110851 102:0.199809 103:0.127321 104:0.0967917 105:0.157079 106:0.149381 107:0.181635 108:0.182515 109:0.179911 110:0.13878 111:0.116282 112:0.144706 113:0.117545 114:0.144786 115:0.140239 116:0.140718 117:0.195723 118:0.0993417 119:0.137617 120:0.118096 121:0.108749 122:0.138139 123:0.172333 124:0.135535 125:0.125981 126:0.0951719 127:0.127755 
0.5 0:-0.11161 1:-0.0338836 2:-0.459317 3:-0.0888125 4:0.274108 5:-0.109483 6:-0.358192 7:-0.325671 8:-0.387772 9:-0.0206351 10:-0.0107041 11:-0.576877 12:-0.00608798 13:0.102833 14:0.526133 15:-0.114279 16:-0.447331 17:-0.416508 18:-0.157691 19:0.323285 20:-0.0077971 21:-0.171359 22:-0.017602 23:-0.248765 24:0.101648 25:0.585964 26:-0.387761 27:-0.00746657 28:0.0343811 29:-0.337394 30:0.519008 31:0.0225845 32:-0.0253445 33:-0.388292 34:-0.132845 35:0.590454 36:-0.247378 37:0.134951 38:-0.352899 39:-0.166837 40:0.171745 41:-0.416425 42:0.27689 43:-0.376804 44:0.389605 45:-0.0945978 46:0.341138 47:0.596533 48:0.415686 49:-0.1256 50:-0.0143824 51:0.153357 52:-0.589367 53:0.0870119 54:0.183718 55:-0.147855 56:-0.335391 57:0.596241 58:0.0394922 59:-0.156039 60:0.218693 61:0.19928 62:0.564238 63:-0.181002 64:0.188771 65:-0.107093 66:0.300421 67:-0.0950459 68:-0.105157 69:0.0195211 70:0.0502191 71:0.353994 72:-0.00319664 73:0.209198 74:0.275719 75:0.410439 76:-0.00534192 77:-0.510415 78:-0.128159 79:0.109261 80:0.145492 81:0.0641506 82:0.239754 83:0.00524177 84:0.15147 85:0.0955322 86:0.0144422 87:0.0675203 88:0.164719 89:0.290284 90:0.181269 91:0.185787 92:0.16918 93:0.25911 94:0.128079 95:0.304735 96:0.0837251 97:0.143654 98:0.0693493 99:0.0724826 100:0.137065 101:0.0870894 102:0.216898 103:0.125869 104:0.10058 105:0.101316 106:0.171986 107:0.166137 108:0.205837 109:0.164564 110:0.1862 111:0.101643 112:0.120851 113:0.104606 114:0.134151 115:0.174717 116:0.155641 117:0.155744 118:0.137281 119:0.120427 120:0.102866 121:0.142596 122:0.117196 123:0.135955 124:0.104805 125:0.122576 126:0.109366 127:0.115444 
0.5 0:-0.0861724 1:-0.0313848 2:-0.425641 3:-0.113617 4:0.083618 5:-0.0405629 6:-0.400356 7:-0.346014 8:-0.297642 9:-0.141291 10:0.35109 11:-0.409761 12:-0.166152 13:-0.173313 14:0.350132 15:-0.35359 16:-0.432039 17:-0.630362 18:-0.0895311 19:0.315687 20:0.163309 21:-0.112122 22:-0.102841 23:-0.192913 24:0.038482 25:0.465923 26:-0.439329 27:-0.120697 28:0.122736 29:-0.367922 30:0.324454 31:0.203999 32:0.347056 33:0.026486 34:-0.0477528 35:-0.00592671 36:0.309792 37:0.0686939 38:-0.440989 39:-0.131667 40:0.167292 41:-0.42793 42:-0.0856367 43:-0.260484 44:0.363592 45:0.146257 46:-0.0108393 47:0.360631 48:0.710285 49:0.288765 50:-0.0563446 51:0.360787 52:-0.478513 53:-0.241568 54:0.0150271 55:0.172916 56:0.0190147 57:0.270744 58:-0.0171233 59:-0.109197 60:0.0611008 61:0.410174 62:0.407624 63:0.13511 64:0.454017 65:0.0595716 66:0.448418 67:0.0690229 68:-0.178097 69:0.15635 70:0.157037 71:0.276885 72:-0.0838611 73:0.240558 74:0.217458 75:0.0662895 76:-0.0624205 77:-0.502853 78:-0.158709 79:0.217971 80:-0.0144396 81:0.0208409 82:0.269625 83:0.0396438 84:0.235158 85:0.0893951 86:0.126146 87:0.0573749 88:0.211321 89:0.257383 90:0.128102 91:0.150396 92:0.156793 93:0.225283 94:0.155556 95:0.204435 96:0.0929571 97:0.184617 98:0.0744448 99:0.129739 100:0.146032 101:0.0986373 102:0.160042 103:0.116555 104:0.0712461 105:0.107407 106:0.165286 107:0.18092 108:0.182875 109:0.200569 110:0.177749 111:0.130481 112:0.134458 113:0.142576 114:0.151176 115:0.139953 116:0.18104 117:0.148982 118:0.157612 119:0.120681 120:0.108557 121:0.143969 122:0.111194 123:0.151479 124:0.129798 125:0.12809 126:0.114575 127:0.158853 
0.5 0:-0.108077 1:-0.0304295 2:-0.509039 3:-0.139554 4:0.255383 5:-0.0327663 6:-0.447039 7:-0.605962 8:-0.0489487 9:0.545473 10:-0.0975739 11:0.123445 12:-0.205603 13:0.162158 14:-0.196087 15:-0.423514 16:-0.0801967 17:-0.409153 18:-0.402993 19:0.270318 20:0.288432 21:-0.0482423 22:-0.0183664 23:-0.302578 24:0.391301 25:0.137641 26:-0.315002 27:0.428279 28:0.165544 29:-0.225629 30:0.194685 31:-0.332029 32:0.0225076 33:0.174872 34:0.0777375 35:0.14066 36:0.208363 37:0.110062 38:-0.27612 39:0.131302 40:0.266628 41:-0.251359 42:0.159443 43:-0.300086 44:0.175067 45:0.201189 46:0.0377476 47:0.330747 48:0.248748 49:0.254853 50:-0.213184 51:0.206686 52:-0.445073 53:-0.0596935 54:0.196417 55:-0.0866728 56:-0.103726 57:0.245181 58:-0.262534 59:-0.151221 60:0.0984458 61:0.544742 62:0.381686 63:-0.220179 64:0.217812 65:-0.073322 66:-0.000765869 67:-0.0682918 68:0.119043 69:0.0506275 70:0.0926969 71:0.0597414 72:0.164973 73:0.243433 74:0.309266 75:0.237567 76:-0.305718 77:-0.457927 78:-0.260057 79:0.111597 80:0.112986 81:0.0180021 82:0.161068 83:0.0497946 84:0.23539 85:0.0505572 86:0.0545127 87:0.15173 88:0.17991 89:0.177532 90:0.180295 91:0.199484 92:0.131997 93:0.195796 94:0.128709 95:0.221229 96:0.0630457 97:0.147274 98:0.0643021 99:0.11973 100:0.154569 101:0.116244 102:0.175728 103:0.119412 104:0.111666 105:0.0964771 106:0.168592 107:0.192529 108:0.157799 109:0.1234 110:0.173026 111:0.10506 112:0.130775 113:0.114052 114:0.161314 115:0.147646 116:0.166296 117:0.132606 118:0.129534 119:0.101543 120:0.11982 121:0.144957 122:0.138619 123:0.098043 124:0.124286 125:0.112001 126:0.0984525 127:0.143463 
0.5 0:-0.0912752 1:-0.0231996 2:-0.463306 3:-0.0783539 4:0.169161 5:0.0207682 6:-0.414597 7:-0.279957 8:-0.317665 9:0.116199 10:0.211951 11:-0.372679 12:0.149623 13:0.069886 14:0.151129 15:-0.196418 16:-0.459805 17:-0.310756 18:-0.404802 19:0.0482446 20:0.075685 21:-0.538664 22:0.126391 23:-0.0794052 24:0.28912 25:0.575305 26:-0.305508 27:0.201497 28:0.256827 29:-0.499261 30:0.544538 31:-0.240953 32:0.0929324 33:-0.143733 34:0.0593066 35:0.0485671 36:-0.353638 37:0.257459 38:-0.440865 39:-0.131646 40:-0.0833621 41:-0.482109 42:-0.239845 43:-0.190366 44:0.457197 45:0.440456 46:-0.031427 47:0.372693 48:0.723359 49:0.100247 50:-0.150513 51:0.343076 52:-0.525583 53:0.162907 54:-0.0206378 55:0.093541 56:-0.505545 57:0.400312 58:0.022551 59:-0.21881 60:0.0824612 61:0.343604 62:0.440066 63:-0.142283 64:0.185866 65:-0.260267 66:0.139417 67:0.138542 68:0.179266 69:-0.0847815 70:0.484368 71:0.292445 72:-0.0638966 73:0.246113 74:0.212381 75:0.379443 76:0.0400927 77:-0.396277 78:-0.254831 79:0.0716973 80:0.0123002 81:0.0314456 82:0.186405 83:0.0708296 84:0.188079 85:0.0849708 86:0.0613863 87:0.12574 88:0.226998 89:0.252209 90:0.133547 91:0.212773 92:0.153961 93:0.237851 94:0.0901842 95:0.249612 96:0.108166 97:0.127864 98:0.0369806 99:0.0647472 100:0.182305 101:0.109408 102:0.185781 103:0.137353 104:0.11013 105:0.134993 106:0.146626 107:0.19802 108:0.220558 109:0.159846 110:0.20746 111:0.116875 112:0.123701 113:0.0866674 114:0.108583 115:0.155344 116:0.187224 117:0.16231 118:0.122978 119:0.117833 120:0.110301 121:0.11805 122:0.130836 123:0.148984 124:0.115642 125:0.0837745 126:0.111797 127:0.114457 
0.4715587778206974 0:-0.0871537 1:-0.0365336 2:-0.495462 3:-0.203167 4:0.207388 5:-0.133851 6:-0.366034 7:-0.481467 8:-0.40004 9:0.114821 10:0.0571205 11:-0.306799 12:-0.037284 13:-0.327558 14:0.154138 15:-0.0943345 16:0.0552433 17:-0.527553 18:-0.183005 19:0.0704679 20:0.432304 21:-0.426759 22:0.0576836 23:-0.0900049 24:0.0402422 25:0.608083 26:-0.394323 27:-0.134515 28:0.109614 29:-0.321163 30:0.571998 31:-0.332358 32:0.0525297 33:-0.0281192 34:0.164175 35:0.402902 36:0.156068 37:-0.218497 38:-0.235127 39:0.115913 40:0.147554 41:-0.16787 42:-0.0236888 43:-0.0683007 44:0.458067 45:-0.0390616 46:0.0675555 47:0.453418 48:0.294018 49:0.353446 50:-0.0767936 51:0.495001 52:-0.544099 53:0.0665642 54:0.144629 55:-0.18716 56:-0.177053 57:0.375012 58:0.153814 59:-0.0985627 60:0.473758 61:0.36517 62:0.610303 63:0.105052 64:-0.0784124 65:-0.080039 66:0.194243 67:0.0876504 68:0.0800502 69:0.103803 70:0.451116 71:0.139045 72:0.248964 73:0.223217 74:0.454729 75:0.548991 76:0.0209605 77:-0.322231 78:-0.127488 79:0.081131 80:0.212029 81:0.116825 82:0.223745 83:0.200439 84:0.139373 85:0.196035 86:0.097488 87:0.123491 88:0.233457 89:0.247972 90:0.120881 91:0.203474 92:0.135228 93:0.327121 94:0.191657 95:0.30025 96:0.14937 97:0.14482 98:0.13484 99:0.172532 100:0.222081 101:0.168989 102:0.259532 103:0.163092 104:0.153587 105:0.150826 106:0.216812 107:0.274762 108:0.243263 109:0.217216 110:0.233194 111:0.16804 112:0.159681 113:0.184803 114:0.194865 115:0.228222 116:0.199571 117:0.212784 118:0.1694 119:0.205889 120:0.139501 121:0.206061 122:0.159374 123:0.191489 124:0.170125 125:0.143881 126:0.172593 127:0.20891 
0.5 0:-0.0955162 1:-0.0119614 2:-0.499656 3:-0.12407 4:0.234017 5:0.0574502 6:-0.304314 7:-0.615706 8:-0.0787815 9:0.140898 10:0.139364 11:-0.297753 12:0.0382496 13:-0.293506 14:0.0163156 15:-0.413277 16:-0.294547 17:-0.539616 18:-0.389685 19:0.530322 20:0.112435 21:-0.311911 22:-0.155736 23:-0.0210281 24:0.109209 25:0.141806 26:-0.369765 27:-0.151815 28:0.168531 29:-0.501372 30:0.0883716 31:-0.515349 32:-0.25879 33:-0.21332 34:0.275339 35:0.278024 36:0.105438 37:0.401644 38:-0.411852 39:0.163128 40:-0.0490268 41:-0.241487 42:0.0105489 43:-0.337571 44:0.399691 45:0.160312 46:-0.102545 47:0.328002 48:0.281841 49:0.436085 50:0.188929 51:0.47851 52:-0.479348 53:-0.193842 54:0.519516 55:-0.210018 56:-0.4231 57:0.174719 58:-0.00473444 59:0.0595659 60:0.413122 61:0.500609 62:0.566621 63:0.119254 64:0.190707 65:0.00204499 66:0.284972 67:0.0384881 68:-0.082032 69:0.0142414 70:0.245638 71:0.10383 72:-0.0564233 73:0.173409 74:0.386783 75:0.120413 76:-0.13451 77:-0.569389 78:-0.223444 79:0.103406 80:0.0556611 81:0.0541828 82:0.148592 83:-0.0165986 84:0.165758 85:0.113965 86:0.08435 87:0.115151 88:0.19651 89:0.260756 90:0.116855 91:0.126307 92:0.126415 93:0.115564 94:0.0882045 95:0.273009 96:0.069369 97:0.0869177 98:0.10249 99:0.0976409 100:0.113743 101:0.0624698 102:0.164504 103:0.0999909 104:0.0878082 105:0.0902205 106:0.144805 107:0.169611 108:0.183702 109:0.146191 110:0.188092 111:0.086534 112:0.0805222 113:0.125999 114:0.126355 115:0.118269 116:0.141756 117:0.143419 118:0.112682 119:0.0901695 120:0.0932927 121:0.0811231 122:0.116461 123:0.148138 124:0.0868982 125:0.0840184 126:0.104204 127:0.157549 
0.5 0:-0.08799 1:-0.0501517 2:-0.443145 3:-0.17196 4:0.251801 5:0.102365 6:-0.466876 7:-0.384853 8:-0.382803 9:0.0546144 10:0.0517994 11:-0.360522 12:0.205154 13:-0.16268 14:0.0479556 15:-0.23221 16:-0.393142 17:-0.3737 18:-0.40186 19:0.195017 20:0.123244 21:-0.268333 22:-0.214521 23:0.037299 24:0.217586 25:-0.0114467 26:-0.464419 27:-0.239353 28:0.0628354 29:-0.229944 30:0.160055 31:-0.270236 32:-0.107894 33:-0.147466 34:-0.0282551 35:0.562811 36:0.229989 37:0.0686509 38:-0.573718 39:0.410556 40:0.515699 41:-0.425649 42:0.321011 43:-0.0282062 44:0.525755 45:0.218777 46:-0.0121484 47:0.611797 48:0.43253 49:0.187728 50:0.044806 51:0.434858 52:-0.630726 53:0.028982 54:-0.0490816 55:0.141995 56:-0.229543 57:0.245247 58:-0.106159 59:-0.109458 60:0.352496 61:0.523303 62:0.480465 63:-0.0924123 64:0.0861568 65:-0.079236 66:0.0673704 67:-0.0372166 68:-0.0453844 69:0.0877779 70:0.139227 71:0.315276 72:0.0800575 73:0.173844 74:0.227751 75:0.248011 76:-0.102292 77:-0.500553 78:-0.250939 79:0.0981507 80:0.0840702 81:0.0441915 82:0.229579 83:0.0305136 84:0.121364 85:0.0336429 86:0.18947 87:0.0719681 88:0.199913 89:0.251796 90:0.132471 91:0.155488 92:0.109558 93:0.229571 94:0.143397 95:0.258969 96:0.0975072 97:0.0795613 98:0.0806286 99:0.155235 100:0.114408 101:0.135993 102:0.204922 103:0.162358 104:0.151021 105:0.141732 106:0.18515 107:0.240308 108:0.197169 109:0.188826 110:0.154788 111:0.0951472 112:0.113324 113:0.122202 114:0.148633 115:0.175249 116:0.15703 117:0.138505 118:0.105615 119:0.126701 120:0.0930154 121:0.156244 122:0.154444 123:0.12935 124:0.140855 125:0.0930334 126:0.139389 127:0.16753 
0.4712180290673719 0:-0.0819485 1:-0.026669 2:-0.45823 3:-0.0895375 4:0.177601 5:0.0742553 6:-0.48499 7:-0.60218 8:-0.164359 9:-0.105326 10:-0.013991 11:-0.350416 12:0.343014 13:-0.186167 14:-0.159723 15:-0.201704 16:-0.10043 17:-0.277997 18:-0.221689 19:0.204551 20:0.400186 21:-0.28852 22:-0.176065 23:-0.172699 24:0.174417 25:0.502621 26:-0.344821 27:0.364272 28:0.0867444 29:-0.789982 30:0.223914 31:-0.14896 32:0.120211 33:0.0298837 34:0.24108 35:-0.0544767 36:0.134093 37:0.203773 38:-0.539707 39:-0.242662 40:0.17259 41:-0.265515 42:-0.223249 43:0.181637 44:0.345921 45:0.103618 46:0.0313579 47:0.383211 48:0.339068 49:0.295267 50:0.189452 51:0.108239 52:-0.493645 53:-0.0258253 54:0.181262 55:-0.025131 56:-0.467327 57:0.033844 58:0.16895 59:-0.0435071 60:0.408181 61:0.0310121 62:0.492748 63:0.039259 64:0.315586 65:0.0359244 66:0.392017 67:0.134426 68:0.0215367 69:-0.241701 70:0.212973 71:0.358909 72:-0.0361572 73:0.145174 74:0.216113 75:0.201086 76:-0.25086 77:-0.465445 78:-0.268167 79:0.198151 80:0.160333 81:-0.0920694 82:0.236243 83:0.0448075 84:0.179063 85:0.0807952 86:0.0897206 87:0.117486 88:0.132594 89:0.308488 90:0.166149 91:0.188032 92:0.238121 93:0.322475 94:0.196136 95:0.289171 96:0.148889 97:0.138487 98:0.0702356 99:0.090673 100:0.179044 101:0.14954 102:0.182686 103:0.133404 104:0.129831 105:0.139931 106:0.183291 107:0.218185 108:0.229482 109:0.174102 110:0.180879 111:0.146183 112:0.14644 113:0.140601 114:0.1688 115:0.171822 116:0.188315 117:0.199591 118:0.153773 119:0.154903 120:0.146201 121:0.137584 122:0.147501 123:0.162951 124:0.141356 125:0.126568 126:0.120995 127:0.155376 
0.5 0:-0.101908 1:-0.0261482 2:-0.489802 3:-0.13041 4:0.195817 5:-0.15084 6:-0.353927 7:-0.64351 8:-0.36412 9:0.215422 10:-0.0525972 11:0.0889364 12:-0.023247 13:-0.431741 14:0.309692 15:0.0483201 16:-0.162507 17:-0.393218 18:-0.122073 19:0.00361648 20:0.0505264 21:-0.395722 22:-0.235779 23:0.0777202 24:0.0305715 25:0.527168 26:-0.324525 27:-0.257453 28:0.162467 29:-0.257597 30:0.631804 31:-0.245113 32:-0.014368 33:0.143213 34:0.332631 35:0.137448 36:0.14922 37:-0.351833 38:-0.324209 39:0.252516 40:0.200066 41:-0.2041 42:-0.0919112 43:-0.100831 44:0.534582 45:0.113467 46:0.162363 47:0.282951 48:0.419561 49:0.162167 50:-0.167133 51:0.46657 52:-0.593087 53:-0.0196002 54:0.098054 55:0.116634 56:-0.258437 57:0.137022 58:0.142629 59:-0.281097 60:0.327414 61:0.25523 62:0.533367 63:0.161404 64:0.0919652 65:-0.178055 66:0.345523 67:-0.028102 68:-0.0143155 69:-0.239891 70:0.44698 71:0.170674 72:-0.0100474 73:0.177994 74:0.209222 75:0.160675 76:-0.452318 77:-0.632169 78:-0.34325 79:0.0813177 80:-0.0378995 81:0.00698785 82:0.150885 83:-0.00586359 84:0.048253 85:-0.0189609 86:0.0482604 87:0.0469783 88:0.155815 89:0.210202 90:0.0940043 91:0.146369 92:0.0971398 93:0.251079 94:0.127673 95:0.218342 96:0.0928744 97:0.0493442 98:0.00658585 99:0.0719252 100:0.0864178 101:0.0446642 102:0.14029 103:0.044925 104:0.0614201 105:0.061045 106:0.110993 107:0.157779 108:0.134574 109:0.117734 110:0.11159 111:0.070355 112:0.0610289 113:0.0760395 114:0.0790853 115:0.109844 116:0.129627 117:0.110377 118:0.0676266 119:0.0837056 120:0.10547 121:0.0820009 122:0.082194 123:0.103952 124:0.0483384 125:0.0858223 126:0.0889466 127:0.100604 
0.5 0:-0.0877937 1:-0.0202703 2:-0.468065 3:-0.0646542 4:0.290472 5:-0.0398411 6:-0.32881 7:-0.470861 8:-0.695598 9:0.431118 10:0.0479294 11:-0.238239 12:-0.22826 13:0.190693 14:-0.11978 15:-0.15503 16:0.0176535 17:-0.35161 18:0.0857086 19:0.184516 20:-0.117261 21:-0.34177 22:-0.216361 23:-0.109306 24:0.142455 25:0.434293 26:-0.386666 27:0.143423 28:0.356729 29:-0.198805 30:0.10308 31:-0.0923776 32:-0.0527944 33:-0.239982 34:0.0884063 35:0.0188271 36:-0.566532 37:0.169088 38:-0.196638 39:-0.229037 40:0.0813442 41:-0.40489 42:0.0549212 43:-0.0431619 44:0.389386 45:0.0827433 46:0.0688506 47:0.353117 48:0.485149 49:-0.257903 50:-0.289497 51:0.442985 52:-0.405461 53:-0.106252 54:0.088579 55:-0.239443 56:0.271654 57:0.398342 58:0.274354 59:0.169003 60:0.5374 61:0.659225 62:0.347733 63:0.18214 64:0.224589 65:-0.01582 66:0.2545 67:0.45698 68:0.211069 69:0.169052 70:0.171741 71:0.61037 72:0.243529 73:0.375263 74:0.438542 75:0.165839 76:-0.096702 77:-0.275954 78:-0.0153925 79:0.154148 80:0.1456 81:0.124627 82:0.269708 83:0.149536 84:0.20652 85:0.204697 86:0.171207 87:0.206349 88:0.241955 89:0.326569 90:0.141308 91:0.273699 92:0.236638 93:0.244252 94:0.330206 95:0.304703 96:0.177204 97:0.230695 98:0.160745 99:0.179969 100:0.187332 101:0.142056 102:0.295693 103:0.208747 104:0.145817 105:0.217376 106:0.198869 107:0.244903 108:0.237794 109:0.192284 110:0.207271 111:0.17633 112:0.148861 113:0.162015 114:0.19948 115:0.211057 116:0.222547 117:0.207365 118:0.167267 119:0.192859 120:0.180047 121:0.194185 122:0.183363 123:0.196527 124:0.17904 125:0.172301 126:0.199633 127:0.200288 
0.5 0:-0.121432 1:0.0387821 2:-0.398471 3:-0.297629 4:0.203396 5:0.0714464 6:-0.431738 7:-0.45938 8:0.0557712 9:0.171036 10:0.297587 11:-0.418843 12:0.0844996 13:-0.137126 14:0.0398096 15:0.0929168 16:-0.146003 17:-0.517236 18:-0.0748884 19:-0.00753804 20:0.046848 21:-0.171447 22:-0.165624 23:-0.251834 24:-0.0840813 25:0.498182 26:-0.470416 27:-0.278027 28:0.257805 29:-0.337575 30:0.0846221 31:-0.348077 32:0.0768361 33:-0.388235 34:0.238776 35:0.180817 36:-0.375085 37:-0.0330083 38:-0.516059 39:0.0590633 40:0.37515 41:-0.230372 42:-0.0286256 43:-0.0757531 44:0.265083 45:0.0182474 46:0.0393425 47:0.413097 48:0.406946 49:0.00836789 50:0.107656 51:0.361613 52:-0.433573 53:0.12048 54:0.282773 55:-0.205972 56:-0.590749 57:0.260473 58:-0.168168 59:-0.136686 60:0.210035 61:0.332405 62:0.352684 63:0.227556 64:0.223621 65:-0.0794113 66:0.381685 67:-0.178044 68:-0.121848 69:-0.228175 70:0.346584 71:0.205521 72:0.0540503 73:0.137091 74:0.268584 75:0.147108 76:-0.276691 77:-0.56117 78:-0.244919 79:0.056202 80:0.0459071 81:-0.00109627 82:0.0881757 83:0.0635989 84:0.201377 85:0.00990291 86:0.0526037 87:0.0919773 88:0.0748524 89:0.169189 90:0.0762119 91:0.111113 92:0.113427 93:0.194758 94:0.13828 95:0.220034 96:0.0685039 97:0.109867 98:-0.0101348 99:0.046043 100:0.126296 101:0.0905634 102:0.165731 103:0.0729049 104:0.0865824 105:0.0577644 106:0.120706 107:0.174367 108:0.147817 109:0.129775 110:0.117484 111:0.0798203 112:0.067666 113:0.0687204 114:0.116423 115:0.0901939 116:0.133723 117:0.133242 118:0.0995225 119:0.0968167 120:0.0761473 121:0.0526566 122:0.086019 123:0.0967752 124:0.0764049 125:0.0730125 126:0.0771136 127:0.103166 
0.5 0:-0.0635594 1:-0.00842642 2:-0.468705 3:-0.0786335 4:0.232551 5:-0.0730913 6:-0.375902 7:-0.371694 8:-0.355721 9:0.400383 10:0.20728 11:-0.176853 12:-0.0961846 13:0.0583234 14:0.167913 15:-0.244831 16:0.0899975 17:-0.488675 18:-0.241095 19:0.042633 20:0.0493365 21:-0.353656 22:0.0330504 23:0.00846186 24:-0.0412017 25:0.283121 26:-0.437721 27:0.207441 28:-0.0668219 29:-0.446304 30:-0.0374938 31:0.116176 32:-0.200194 33:-0.0106845 34:0.327885 35:0.239909 36:0.193553 37:0.00314978 38:-0.108726 39:-0.339323 40:0.382724 41:-0.147609 42:0.249632 43:0.0914171 44:0.475408 45:0.0483221 46:-0.260736 47:0.358147 48:0.299055 49:0.0296677 50:-0.154128 51:0.295426 52:-0.6207 53:0.00372772 54:0.119133 55:-0.149877 56:-0.509703 57:0.311549 58:0.0377912 59:0.134763 60:0.345072 61:0.203692 62:0.371393 63:0.0516203 64:0.470474 65:-0.157975 66:0.438947 67:-0.00195039 68:0.268086 69:0.0520677 70:0.492214 71:0.604126 72:-0.0247622 73:0.278342 74:0.40458 75:0.327646 76:-0.120894 77:-0.410147 78:-0.173345 79:-0.0909511 80:0.0802965 81:-0.00969265 82:0.155375 83:0.0320111 84:0.197717 85:-0.00787509 86:0.0594989 87:0.0743546 88:0.186927 89:0.291942 90:0.15228 91:0.18654 92:0.153161 93:0.237418 94:0.103286 95:0.269439 96:0.0833395 97:0.0917284 98:0.0887634 99:0.146033 100:0.119807 101:0.142619 102:0.13038 103:0.0849932 104:0.0825553 105:0.145377 106:0.166866 107:0.1812 108:0.167975 109:0.165986 110:0.140023 111:0.122462 112:0.081468 113:0.110228 114:0.150187 115:0.162753 116:0.177119 117:0.134883 118:0.127932 119:0.0994693 120:0.100509 121:0.105194 122:0.0906098 123:0.117689 124:0.127877 125:0.11084 126:0.129805 127:0.109285 
0.5 0:-0.0895003 1:-0.0381203 2:-0.450821 3:-0.0948783 4:0.232242 5:-0.072715 6:-0.381817 7:-0.504073 8:-0.160053 9:0.417829 10:0.111986 11:-0.638031 12:-0.120115 13:0.0849623 14:0.513752 15:0.0872861 16:-0.069903 17:-0.529942 18:0.0456272 19:0.101267 20:0.0436712 21:-0.370446 22:0.236574 23:0.147461 24:0.235862 25:0.139972 26:-0.522575 27:0.0179466 28:0.0712769 29:-0.254769 30:0.21919 31:-0.150851 32:-0.0951735 33:-0.221671 34:0.199857 35:0.573829 36:-0.121236 37:0.377722 38:-0.709575 39:0.153447 40:0.0396058 41:-0.280235 42:0.17427 43:-0.0343268 44:0.435016 45:0.175297 46:-0.0819385 47:0.508327 48:0.541677 49:0.118981 50:0.404936 51:0.334522 52:-0.416114 53:0.0949105 54:0.0259861 55:0.0517131 56:0.438303 57:0.633286 58:0.258198 59:-0.354745 60:0.563686 61:0.294023 62:0.785978 63:0.0516593 64:0.186834 65:-0.132092 66:0.252797 67:0.252966 68:-0.0271177 69:0.0708475 70:0.319111 71:0.437593 72:0.121074 73:0.298865 74:0.285902 75:0.199919 76:-0.105731 77:-0.328903 78:-0.226218 79:0.201807 80:0.0758849 81:-0.0294731 82:0.308353 83:0.0549276 84:0.172695 85:0.0785978 86:0.0914153 87:0.118573 88:0.265826 89:0.280057 90:0.184483 91:0.317844 92:0.235946 93:0.244386 94:0.246038 95:0.284846 96:0.175283 97:0.224401 98:0.12209 99:0.137554 100:0.227463 101:0.189634 102:0.204531 103:0.179006 104:0.163633 105:0.15909 106:0.216914 107:0.251291 108:0.253266 109:0.203093 110:0.233188 111:0.124358 112:0.155973 113:0.161742 114:0.192285 115:0.197039 116:0.191134 117:0.241013 118:0.176998 119:0.188025 120:0.176742 121:0.197358 122:0.178114 123:0.220587 124:0.189126 125:0.175988 126:0.163594 127:0.208041 
0.5 0:-0.0845767 1:-0.0344044 2:-0.478174 3:-0.000558085 4:0.276905 5:0.12309 6:-0.439808 7:-0.548327 8:-0.479318 9:0.0490911 10:0.267633 11:-0.45014 12:0.089489 13:-0.200221 14:0.365995 15:-0.16917 16:-0.135552 17:-0.410404 18:-0.347833 19:0.252292 20:-0.131641 21:-0.505805 22:0.298615 23:-0.106838 24:0.203867 25:0.814699 26:-0.327039 27:0.0761967 28:0.433726 29:-0.367324 30:0.489581 31:-0.164171 32:-0.0254615 33:0.242624 34:0.196861 35:0.381081 36:0.403413 37:-0.323947 38:-0.398312 39:-0.142967 40:0.143413 41:-0.2437 42:0.205022 43:-0.336351 44:0.353546 45:0.0833079 46:0.151216 47:0.0681519 48:0.463721 49:0.00360338 50:-0.0849678 51:0.154011 52:-0.472754 53:0.0776052 54:0.276908 55:-0.475148 56:0.16427 57:0.285096 58:0.000600052 59:-0.113344 60:0.449143 61:0.347265 62:0.475158 63:0.208083 64:0.333011 65:-0.0286586 66:0.467235 67:-0.00086641 68:0.143306 69:0.0781274 70:0.0749693 71:0.370633 72:0.328275 73:0.353855 74:0.38552 75:0.323729 76:-0.111089 77:-0.294642 78:-0.181881 79:0.126699 80:0.112742 81:0.100418 82:0.247982 83:0.0745432 84:0.225766 85:0.128182 86:0.178252 87:0.0932507 88:0.296742 89:0.356602 90:0.155605 91:0.287344 92:0.228231 93:0.336782 94:0.280649 95:0.317011 96:0.183102 97:0.209868 98:0.179167 99:0.160261 100:0.230173 101:0.181551 102:0.321049 103:0.185354 104:0.164379 105:0.179985 106:0.225393 107:0.251439 108:0.276812 109:0.258149 110:0.197508 111:0.201313 112:0.182909 113:0.19437 114:0.221909 115:0.201558 116:0.233697 117:0.224174 118:0.179746 119:0.184485 120:0.18861 121:0.201808 122:0.205932 123:0.196055 124:0.180369 125:0.176569 126:0.180245 127:0.252575 
0.5 0:-0.0981701 1:-0.015692 2:-0.5173 3:-0.0859641 4:0.242841 5:0.0503367 6:-0.369033 7:-0.511104 8:-0.792997 9:0.336816 10:-0.0981782 11:-0.0087143 12:-0.157362 13:-0.177535 14:0.387676 15:-0.00718699 16:-0.355447 17:-0.468941 18:-0.297381 19:0.0856508 20:0.200542 21:-0.298997 22:-0.0984075 23:-0.0970933 24:0.400343 25:0.385326 26:-0.302573 27:-0.116895 28:0.0450454 29:-0.0261135 30:0.197748 31:-0.213179 32:0.119796 33:-0.204608 34:0.0995506 35:-0.0275323 36:-0.219883 37:0.226206 38:-0.510001 39:-0.112936 40:0.0668487 41:-0.288239 42:-0.431221 43:-0.537956 44:0.453847 45:-0.00179881 46:-0.048839 47:0.222217 48:0.349696 49:0.0918416 50:0.0612685 51:0.310997 52:-0.621909 53:0.0745368 54:0.305812 55:-0.196682 56:0.516361 57:0.342858 58:0.216093 59:0.0596721 60:-0.0674327 61:0.501951 62:0.616235 63:-0.0225299 64:0.0871249 65:-0.285892 66:0.390884 67:0.0354682 68:-0.101101 69:0.0553196 70:-0.0876015 71:0.0645491 72:0.0398434 73:0.314244 74:0.226983 75:0.00994385 76:-0.336743 77:-0.734209 78:-0.193689 79:0.0689885 80:0.0896642 81:-0.0107231 82:0.142502 83:-0.139371 84:0.0835908 85:-0.0120134 86:0.058423 87:0.0503852 88:0.0946282 89:0.157137 90:0.0584845 91:0.137654 92:0.116124 93:0.222505 94:0.0706889 95:0.243199 96:0.0933008 97:0.0967608 98:0.0142814 99:0.00867533 100:0.111427 101:0.07045 102:0.118446 103:0.0845953 104:0.0699456 105:0.0573012 106:0.118279 107:0.12075 108:0.145613 109:0.0803676 110:0.123572 111:0.069331 112:0.0926523 113:0.0618532 114:0.0867937 115:0.0915766 116:0.0996866 117:0.0910896 118:0.0462147 119:0.0698685 120:0.0500885 121:0.082896 122:0.0633857 123:0.0892136 124:0.066614 125:0.0607761 126:0.0726434 127:0.0792846 
0.5 0:-0.0430627 1:0.0607122 2:-0.514068 3:-0.831892 4:0.112559 5:-0.124423 6:-0.0082031 7:-0.656108 8:-0.209996 9:0.281711 10:0.656937 11:-0.751142 12:-0.129918 13:0.0111998 14:0.31744 15:-0.223838 16:-0.188441 17:-0.172516 18:-0.345046 19:0.0257954 20:-0.0459149 21:-0.2307 22:-0.110929 23:-0.0425349 24:0.408388 25:0.507802 26:-0.360243 27:0.135997 28:0.476049 29:-0.294184 30:0.294858 31:-0.0205352 32:0.0653668 33:-0.00483341 34:-0.213035 35:0.582759 36:0.0157764 37:0.124544 38:-0.421365 39:-0.0713465 40:0.188179 41:-0.402948 42:-0.00979074 43:-0.12505 44:0.355187 45:0.0312517 46:0.0527794 47:0.370273 48:0.531328 49:0.302856 50:0.00451851 51:0.316665 52:-0.482815 53:-0.041928 54:0.176294 55:-0.0318666 56:0.293383 57:0.312024 58:0.104211 59:-0.0181738 60:0.38872 61:0.310452 62:0.640703 63:0.224038 64:0.18393 65:-0.0106307 66:0.417815 67:-0.0421588 68:-0.0409346 69:0.117732 70:0.23731 71:0.310621 72:-0.0214901 73:0.264058 74:0.254576 75:0.382286 76:-0.198688 77:-0.458372 78:-0.143306 79:0.173145 80:0.0833373 81:0.0345626 82:0.277318 83:0.0906638 84:0.161455 85:0.0739724 86:0.0715966 87:0.128897 88:0.209976 89:0.284291 90:0.163185 91:0.226168 92:0.240401 93:0.250229 94:0.216287 95:0.250898 96:0.127768 97:0.169334 98:0.139071 99:0.171971 100:0.217176 101:0.146341 102:0.255941 103:0.131703 104:0.162705 105:0.108572 106:0.214301 107:0.216341 108:0.219169 109:0.186906 110:0.228297 111:0.176461 112:0.144392 113:0.132591 114:0.200666 115:0.206301 116:0.187181 117:0.195001 118:0.166572 119:0.189502 120:0.151132 121:0.189913 122:0.182193 123:0.203242 124:0.160582 125:0.177084 126:0.172765 127:0.196096 
0.4949394244781455 0:-0.0947227 1:-0.0218103 2:-0.446571 3:-0.104883 4:0.244537 5:-0.090154 6:-0.331701 7:-0.549512 8:-0.547504 9:0.139085 10:0.160842 11:-0.180997 12:0.0129866 13:0.0269061 14:0.111825 15:0.0021106 16:-0.461381 17:-0.256046 18:-0.287371 19:0.244965 20:0.0602867 21:-0.197368 22:0.0202882 23:-0.154252 24:0.260356 25:-0.0654741 26:-0.283592 27:-0.0181173 28:-0.28248 29:-0.365144 30:0.176669 31:-0.238363 32:0.0467003 33:0.0375218 34:0.310251 35:0.28423 36:-0.355133 37:0.300202 38:-0.314016 39:-0.0515354 40:0.101165 41:-0.439663 42:-0.030955 43:-0.0859558 44:0.418638 45:-0.0782933 46:0.0596638 47:0.226724 48:0.427217 49:0.185736 50:-0.0257004 51:0.194808 52:-0.426667 53:-0.0991871 54:0.139411 55:-0.240346 56:0.0716945 57:0.428738 58:0.00771334 59:-0.153009 60:0.417547 61:0.328643 62:0.461342 63:-0.0773083 64:0.395934 65:-0.00424296 66:-0.0108575 67:-0.0149429 68:0.0727437 69:-0.0917243 70:0.249112 71:0.602941 72:0.132277 73:0.0972131 74:0.210825 75:0.454333 76:-0.267765 77:-0.3408 78:-0.198708 79:0.248061 80:0.0583349 81:0.102185 82:0.178556 83:0.112594 84:0.145764 85:0.163448 86:0.0553687 87:0.19046 88:0.132335 89:0.303796 90:0.148422 91:0.146242 92:0.174199 93:0.188873 94:0.143902 95:0.255267 96:0.153321 97:0.176098 98:0.0976582 99:0.128691 100:0.157039 101:0.11032 102:0.219917 103:0.149148 104:0.0783578 105:0.13108 106:0.156115 107:0.213503 108:0.215259 109:0.192372 110:0.210388 111:0.0984098 112:0.152162 113:0.0955936 114:0.144666 115:0.107353 116:0.163387 117:0.17304 118:0.139243 119:0.123556 120:0.109764 121:0.134613 122:0.162754 123:0.126653 124:0.138737 125:0.136056 126:0.103556 127:0.113988 
0.468097653774094 0:-0.0919238 1:-0.0187771 2:-0.442988 3:-0.197103 4:0.209731 5:-0.0657503 6:-0.411452 7:-0.528438 8:-0.396034 9:0.245046 10:0.0809702 11:-0.13633 12:0.160135 13:-0.0562359 14:0.161305 15:-0.126182 16:0.0311003 17:-0.492545 18:-0.32283 19:0.234166 20:0.0014402 21:-0.213066 22:0.0606795 23:-0.130709 24:0.26311 25:0.651836 26:-0.150805 27:0.0399369 28:0.29019 29:-0.360457 30:0.384219 31:-0.121139 32:-0.148735 33:-0.184228 34:0.369082 35:0.445615 36:0.204523 37:-0.0562461 38:-0.476584 39:0.095423 40:0.159945 41:-0.396204 42:0.351133 43:-0.0989798 44:0.426539 45:0.0683254 46:-0.0530305 47:0.413561 48:0.512001 49:0.199977 50:0.128941 51:0.388926 52:-0.528317 53:0.0909278 54:0.160776 55:0.00888643 56:0.269667 57:0.476018 58:0.226436 59:-0.182641 60:0.0373187 61:0.442531 62:0.641476 63:-0.140887 64:0.249758 65:-0.126851 66:0.343062 67:0.102319 68:0.194106 69:0.0520291 70:0.346402 71:0.274865 72:0.0934263 73:0.242846 74:0.378982 75:0.526818 76:0.00509014 77:-0.563639 78:-0.201597 79:0.106271 80:0.175609 81:0.160819 82:0.293047 83:0.192761 84:0.414794 85:0.279038 86:0.145672 87:0.161457 88:0.289257 89:0.239141 90:0.122824 91:0.253153 92:0.191203 93:0.303701 94:0.249829 95:0.340979 96:0.172299 97:0.191303 98:0.111347 99:0.164005 100:0.254134 101:0.150748 102:0.279194 103:0.238572 104:0.169733 105:0.19109 106:0.223804 107:0.27675 108:0.244605 109:0.222049 110:0.256027 111:0.214481 112:0.170325 113:0.18703 114:0.24091 115:0.222538 116:0.21419 117:0.230468 118:0.219663 119:0.200138 120:0.158574 121:0.197314 122:0.205322 123:0.219069 124:0.20801 125:0.190363 126:0.191404 127:0.241796 
0.3788208057281953 0:-0.0917958 1:-0.0398362 2:-0.502326 3:-0.102041 4:0.192464 5:-0.287513 6:-0.319752 7:-0.412053 8:-0.294852 9:0.159739 10:-0.0105089 11:-0.180391 12:0.130737 13:0.249968 14:0.15032 15:-0.147899 16:-0.178195 17:-0.337797 18:-0.163716 19:0.0976489 20:0.0184999 21:-0.162093 22:0.00125827 23:-0.100372 24:0.320016 25:0.232913 26:-0.300061 27:0.234121 28:0.0672034 29:-0.36848 30:0.0260815 31:-0.080366 32:0.110091 33:-0.221656 34:-0.0133557 35:0.351753 36:0.0827384 37:0.277512 38:-0.416119 39:-0.118037 40:0.0719041 41:-0.220563 42:-0.069517 43:-0.036169 44:0.356735 45:0.130442 46:0.205545 47:0.376552 48:0.5799 49:0.0526855 50:0.140208 51:0.217111 52:-0.423704 53:0.0608966 54:0.197553 55:-0.0992338 56:0.280787 57:0.241397 58:0.191539 59:-0.00157529 60:0.279569 61:0.0292547 62:0.345643 63:0.0655146 64:0.296225 65:-0.096963 66:0.222622 67:0.0446077 68:-0.141207 69:-0.240809 70:0.091584 71:0.251781 72:-0.00332242 73:0.310553 74:0.37131 75:-0.0209685 76:-0.157391 77:-0.372237 78:-0.172203 79:0.113864 80:0.00979945 81:0.0116904 82:0.216234 83:0.0163788 84:0.111152 85:0.108082 86:0.114057 87:0.0703664 88:0.158686 89:0.223363 90:0.171405 91:0.151421 92:0.0565505 93:0.286511 94:0.0904776 95:0.228615 96:0.060251 97:0.0898945 98:0.0381801 99:0.0715281 100:0.12057 101:0.0791542 102:0.152063 103:0.0912714 104:0.11492 105:0.117629 106:0.179359 107:0.164654 108:0.216548 109:0.182698 110:0.16854 111:0.104091 112:0.118638 113:0.0931589 114:0.139867 115:0.147956 116:0.14596 117:0.124369 118:0.101612 119:0.143615 120:0.102189 121:0.0994204 122:0.110125 123:0.134091 124:0.0906574 125:0.0801654 126:0.0905118 127:0.146129 
0.5 0:-0.0875462 1:-0.0342312 2:-0.483394 3:-0.159715 4:0.20892 5:0.0237762 6:-0.36649 7:-0.550054 8:-0.462128 9:0.208805 10:0.141742 11:-0.15417 12:-0.015265 13:-0.218289 14:0.0769662 15:-0.334607 16:-0.2428 17:-0.473107 18:-0.213285 19:0.215749 20:0.229099 21:-0.213942 22:-0.184949 23:-0.159727 24:0.0782613 25:0.654917 26:-0.419456 27:0.0404184 28:-0.0326403 29:-0.310678 30:0.200523 31:-0.128773 32:0.0874129 33:-0.108324 34:0.140466 35:0.38877 36:-0.0113281 37:0.224701 38:-0.311794 39:0.0225874 40:0.35397 41:-0.0617761 42:-0.1267 43:-0.0175867 44:0.344573 45:0.0878519 46:0.0395877 47:0.289651 48:0.425101 49:0.0852357 50:0.155163 51:0.384414 52:-0.54445 53:0.0763581 54:-0.0773671 55:-0.26588 56:0.681556 57:0.292132 58:-0.0728579 59:0.00905336 60:0.124218 61:0.512884 62:0.690909 63:-0.0026503 64:0.10939 65:0.00305291 66:0.357269 67:0.147567 68:0.0360991 69:0.106128 70:0.11791 71:0.431513 72:0.0273283 73:0.372075 74:0.278808 75:0.312951 76:-0.29561 77:-0.419801 78:-0.0914667 79:0.273229 80:0.121484 81:0.166998 82:0.204029 83:0.0490493 84:0.18886 85:0.0468113 86:0.0352696 87:0.15399 88:0.181021 89:0.245088 90:0.140871 91:0.196683 92:0.223695 93:0.27194 94:0.195555 95:0.315196 96:0.135867 97:0.151142 98:0.108269 99:0.137307 100:0.202886 101:0.139752 102:0.233379 103:0.158788 104:0.107132 105:0.126097 106:0.171504 107:0.205601 108:0.201193 109:0.15147 110:0.188782 111:0.154486 112:0.11261 113:0.125498 114:0.18128 115:0.154641 116:0.170023 117:0.180748 118:0.121031 119:0.151583 120:0.135044 121:0.154016 122:0.137021 123:0.176475 124:0.118613 125:0.15795 126:0.157915 127:0.1212 
0.01052788850886579 0:-0.0901403 1:-0.0203073 2:-0.441964 3:-0.0537979 4:0.171939 5:0.111165 6:-0.413535 7:-0.56678 8:-0.404101 9:0.104353 10:0.0408949 11:-0.138339 12:0.0916252 13:-0.0539906 14:0.0248259 15:-0.0423214 16:-0.303273 17:-0.478133 18:-0.227102 19:0.145048 20:0.053273 21:-0.174438 22:-0.0320016 23:-0.00675662 24:0.373963 25:0.740503 26:-0.242163 27:0.0076789 28:0.165532 29:-0.330175 30:0.369698 31:-0.211573 32:-0.0563521 33:-0.0362364 34:0.189483 35:0.382368 36:-0.157218 37:0.0348366 38:-0.401432 39:0.0847676 40:0.290019 41:-0.268537 42:0.308302 43:-0.0191176 44:0.447011 45:0.214142 46:-0.188962 47:0.404499 48:0.459237 49:0.152757 50:0.132958 51:0.173988 52:-0.5897 53:-0.135242 54:0.194346 55:0.11026 56:0.22146 57:0.0670966 58:0.146097 59:-0.0665405 60:0.231761 61:0.367964 62:0.396078 63:0.123601 64:0.270087 65:-0.0510517 66:0.0647663 67:0.0922066 68:-0.00948619 69:-0.120903 70:-0.0568214 71:0.427502 72:0.0160402 73:0.210563 74:0.309349 75:0.410503 76:-0.173952 77:-0.393431 78:-0.020991 79:0.183215 80:0.0640661 81:0.0770161 82:0.285175 83:0.0153678 84:0.219658 85:0.0985619 86:0.073444 87:0.0916417 88:0.224271 89:0.214274 90:0.146839 91:0.227789 92:0.110459 93:0.245389 94:0.101048 95:0.266762 96:0.134229 97:0.152179 98:0.0766384 99:0.0654135 100:0.147741 101:0.151547 102:0.183177 103:0.0836554 104:0.120248 105:0.116553 106:0.158897 107:0.228711 108:0.20756 109:0.17778 110:0.179619 111:0.121434 112:0.132303 113:0.146747 114:0.139408 115:0.180307 116:0.173641 117:0.135496 118:0.128995 119:0.123386 120:0.124504 121:0.156821 122:0.142782 123:0.130127 124:0.132803 125:0.124669 126:0.137789 127:0.162775 
0.02658097893071995 0:-0.091608 1:-0.0262732 2:-0.471168 3:-0.100106 4:0.260584 5:0.0141673 6:-0.372283 7:-0.56208 8:0.110246 9:0.293227 10:-0.0545539 11:-0.289725 12:0.0398755 13:0.129834 14:0.0172306 15:-0.182794 16:-0.275459 17:-0.369999 18:-0.197891 19:0.254875 20:0.0769201 21:-0.192604 22:-0.147436 23:-0.131709 24:0.225823 25:0.242961 26:-0.383759 27:-0.000534659 28:-0.074747 29:-0.377788 30:0.273157 31:-0.17369 32:-0.137057 33:-0.0349634 34:0.384271 35:0.369539 36:-0.0910067 37:-0.0558652 38:-0.282886 39:-0.123962 40:0.439686 41:-0.315952 42:0.155586 43:-0.302433 44:0.477024 45:0.0710424 46:0.0835846 47:0.293322 48:0.36648 49:0.118186 50:-0.105853 51:0.543609 52:-0.499291 53:0.0635431 54:-0.0610126 55:-0.105756 56:0.371406 57:0.152317 58:0.237548 59:-0.0218037 60:0.0147548 61:0.27044 62:0.449409 63:0.132418 64:0.100678 65:-0.0177742 66:0.161302 67:0.00377417 68:0.0661821 69:0.0687778 70:0.381713 71:0.250755 72:0.0515126 73:0.340317 74:0.388727 75:0.265685 76:-0.125425 77:-0.438633 78:-0.141756 79:0.202825 80:0.0778181 81:0.128625 82:0.203718 83:0.11484 84:0.219309 85:0.0675912 86:0.189917 87:0.151355 88:0.260513 89:0.285111 90:0.150917 91:0.185304 92:0.156141 93:0.241712 94:0.169097 95:0.269877 96:0.176711 97:0.128663 98:0.0570426 99:0.0904325 100:0.162586 101:0.131824 102:0.201019 103:0.191318 104:0.16613 105:0.152483 106:0.237644 107:0.262979 108:0.211947 109:0.181911 110:0.18133 111:0.154475 112:0.135454 113:0.125821 114:0.19536 115:0.16335 116:0.189465 117:0.182777 118:0.138994 119:0.167411 120:0.146643 121:0.151064 122:0.166014 123:0.152725 124:0.162494 125:0.168275 126:0.138036 127:0.173115 
0.5 0:-0.0978885 1:-0.0166218 2:-0.481044 3:-0.0613206 4:0.217979 5:0.19442 6:-0.516322 7:-0.467032 8:-0.28699 9:0.0660133 10:0.0861255 11:-0.11449 12:-0.0819464 13:-0.0871373 14:0.536251 15:-0.435061 16:-0.153946 17:-0.499216 18:-0.166652 19:-0.0526651 20:0.285702 21:-0.354339 22:-0.116284 23:0.0115751 24:0.240066 25:0.711683 26:-0.0796687 27:-0.0735292 28:-0.121877 29:-0.109614 30:0.177429 31:0.00806175 32:-0.0483522 33:0.168106 34:-0.105121 35:0.477276 36:-0.264687 37:0.297119 38:-0.596529 39:-0.240591 40:0.139993 41:-0.273756 42:-0.197164 43:-0.0290444 44:0.383666 45:0.0919718 46:0.126976 47:0.323859 48:0.601992 49:-0.0153593 50:-0.032126 51:0.263755 52:-0.472311 53:-0.148654 54:0.281595 55:0.108579 56:0.187798 57:0.170583 58:0.055671 59:-0.288204 60:0.210293 61:0.25199 62:0.63264 63:-0.00400418 64:0.0580833 65:0.0578831 66:0.207403 67:0.028181 68:-0.0851151 69:0.0733088 70:-0.150953 71:0.428208 72:0.0515344 73:0.276331 74:0.257145 75:0.350652 76:-0.274456 77:-0.578542 78:-0.15621 79:0.0326975 80:0.0433516 81:0.0126528 82:0.204866 83:0.00465464 84:0.145584 85:0.0260149 86:0.0845939 87:0.117839 88:0.160152 89:0.274165 90:0.147844 91:0.167276 92:0.128721 93:0.178996 94:0.181791 95:0.257378 96:0.123278 97:0.107277 98:0.0779253 99:0.119443 100:0.135949 101:0.101782 102:0.215372 103:0.0962709 104:0.110997 105:0.0882369 106:0.148576 107:0.179117 108:0.224356 109:0.145183 110:0.131599 111:0.136467 112:0.109089 113:0.0825457 114:0.15102 115:0.136173 116:0.182668 117:0.151548 118:0.130987 119:0.141512 120:0.0762086 121:0.132264 122:0.116099 123:0.154916 124:0.0694019 125:0.0940563 126:0.114688 127:0.147107 
0.2932938443800043 0:-0.0896881 1:-0.0345204 2:-0.50602 3:-0.123998 4:0.282521 5:0.0444097 6:-0.447488 7:-0.624908 8:-0.220551 9:0.0520069 10:0.0504721 11:-0.44471 12:0.00561887 13:0.011672 14:0.0323966 15:-0.064255 16:-0.200826 17:-0.462428 18:-0.168598 19:0.02075 20:0.139455 21:-0.499441 22:0.137077 23:-0.140093 24:0.340829 25:0.490302 26:-0.343629 27:0.0759569 28:0.151595 29:-0.031742 30:0.19442 31:0.0132071 32:0.0402704 33:0.113113 34:0.325151 35:0.425057 36:0.255061 37:-0.219887 38:-0.568286 39:0.0549615 40:0.254032 41:-0.500052 42:-0.219606 43:0.315959 44:0.501181 45:0.0659743 46:0.0733415 47:0.321069 48:0.412147 49:0.0103918 50:0.0609369 51:0.41431 52:-0.473848 53:0.0290541 54:0.123286 55:-0.277977 56:-0.110913 57:0.602513 58:-0.0772423 59:-0.0427206 60:0.462425 61:0.306168 62:0.581129 63:0.129046 64:0.45789 65:-0.0617849 66:0.143215 67:0.0696395 68:0.0590552 69:0.108733 70:0.0783799 71:0.140486 72:0.166835 73:0.225378 74:0.340405 75:0.27608 76:-0.265631 77:-0.476086 78:-0.344259 79:0.228774 80:0.140074 81:0.035745 82:0.277844 83:0.00834547 84:0.176751 85:0.127592 86:0.0117474 87:0.145105 88:0.239757 89:0.285143 90:0.157871 91:0.155716 92:0.192879 93:0.274852 94:0.198133 95:0.291653 96:0.122083 97:0.119396 98:0.149746 99:0.0912113 100:0.156498 101:0.137835 102:0.210089 103:0.183984 104:0.14777 105:0.148293 106:0.219064 107:0.238865 108:0.187897 109:0.176133 110:0.184809 111:0.162112 112:0.126495 113:0.121196 114:0.159051 115:0.204215 116:0.207298 117:0.18167 118:0.153215 119:0.143162 120:0.173383 121:0.157544 122:0.160653 123:0.162356 124:0.147725 125:0.121362 126:0.149186 127:0.148747 
0.5 0:-0.0997999 1:-0.0366435 2:-0.456822 3:-0.0603264 4:0.22296 5:-0.0425558 6:-0.285317 7:-0.481627 8:-0.163482 9:0.15541 10:0.170073 11:-0.458702 12:-0.0979836 13:0.0615541 14:0.179314 15:-0.168259 16:-0.0545443 17:-0.392829 18:-0.127239 19:0.263301 20:0.12757 21:-0.672189 22:-0.031832 23:-0.0735371 24:0.0280545 25:0.159562 26:-0.34017 27:0.252686 28:0.267003 29:-0.39234 30:0.154915 31:-0.284284 32:0.122726 33:0.0905545 34:0.172252 35:0.0754696 36:-0.178302 37:0.296783 38:-0.527076 39:0.159974 40:0.20616 41:-0.257486 42:0.0646935 43:-0.130693 44:0.395635 45:0.00568668 46:-0.030141 47:0.297854 48:0.485674 49:0.208286 50:-0.0726876 51:0.12913 52:-0.549952 53:-0.239185 54:0.0444159 55:-0.273821 56:0.337579 57:0.11378 58:0.164386 59:-0.0164594 60:0.00772401 61:0.319284 62:0.541232 63:-0.087474 64:0.143272 65:-0.0514074 66:0.539085 67:0.0814239 68:0.0829043 69:0.0674569 70:0.484115 71:0.0757741 72:-0.0204784 73:0.231974 74:0.25419 75:0.195257 76:-0.165676 77:-0.446977 78:-0.15638 79:0.136711 80:0.000992689 81:0.0463086 82:0.255079 83:0.0599383 84:0.0677608 85:0.121539 86:0.0994245 87:0.0403027 88:0.207355 89:0.229687 90:0.110099 91:0.159613 92:0.136342 93:0.192339 94:0.131601 95:0.224558 96:0.118501 97:0.139685 98:0.0599979 99:0.101002 100:0.163991 101:0.109572 102:0.184661 103:0.147951 104:0.122356 105:0.0982293 106:0.156364 107:0.19425 108:0.234945 109:0.18588 110:0.175488 111:0.114575 112:0.122158 113:0.123861 114:0.167136 115:0.140527 116:0.177185 117:0.180885 118:0.124438 119:0.152054 120:0.134507 121:0.13742 122:0.111215 123:0.128802 124:0.144712 125:0.0872485 126:0.119435 127:0.144146 
0.248682387660864 0:-0.0882118 1:0.0239042 2:-0.464503 3:-0.197007 4:0.139805 5:-0.126136 6:-0.408296 7:-0.590435 8:-0.0991987 9:0.364199 10:0.319157 11:-0.506986 12:0.114283 13:0.0289325 14:-0.43056 15:-0.121498 16:-0.294444 17:-0.361425 18:-0.340937 19:-0.0525663 20:0.208435 21:-0.123899 22:-0.0422923 23:-0.227788 24:0.200864 25:0.377846 26:-0.339724 27:0.0260951 28:0.570292 29:-0.207846 30:0.332708 31:-0.183567 32:0.0813395 33:-0.0392348 34:0.119187 35:0.0957229 36:-0.156137 37:0.0617978 38:-0.473566 39:-0.0874273 40:0.203953 41:-0.257142 42:0.0933292 43:-0.256438 44:0.376302 45:0.18001 46:0.3808 47:0.445625 48:0.473267 49:0.336228 50:-0.0263549 51:0.376596 52:-0.666442 53:0.0347019 54:0.193572 55:-0.180361 56:-0.308305 57:0.0642078 58:-0.129881 59:-0.156993 60:0.433901 61:0.313648 62:0.796118 63:0.0257084 64:0.208132 65:-0.0271535 66:0.0146037 67:-0.114615 68:0.184683 69:0.0514068 70:0.057069 71:0.237102 72:0.0295076 73:0.233817 74:0.258525 75:0.151719 76:-0.123219 77:-0.566046 78:-0.200088 79:0.15226 80:0.0343034 81:-0.0154413 82:0.257137 83:0.113814 84:0.147338 85:-0.045043 86:0.12584 87:0.0960328 88:0.178654 89:0.282715 90:0.0729902 91:0.19789 92:0.19987 93:0.23258 94:0.216685 95:0.280445 96:0.12328 97:0.127698 98:0.114438 99:0.108329 100:0.192511 101:0.151674 102:0.176453 103:0.149581 104:0.0928723 105:0.114569 106:0.201249 107:0.223726 108:0.197602 109:0.175363 110:0.185102 111:0.140347 112:0.0781598 113:0.128451 114:0.121035 115:0.170918 116:0.153037 117:0.166382 118:0.142037 119:0.124562 120:0.092842 121:0.136992 122:0.139281 123:0.122227 124:0.13225 125:0.124503 126:0.145908 127:0.181958 
0.1702047259444646 0:-0.0976922 1:-0.0315494 2:-0.414161 3:-0.00795464 4:0.227153 5:0.2268 6:-0.44082 7:-0.520438 8:-0.454112 9:0.0135161 10:0.225263 11:-0.16385 12:-0.169359 13:-0.0322885 14:0.255663 15:-0.0718741 16:-0.162156 17:-0.608635 18:-0.181282 19:-0.219362 20:0.14506 21:-0.256112 22:-0.0224199 23:-0.1666 24:0.210128 25:0.357097 26:-0.396256 27:0.167666 28:-0.0420595 29:-0.333627 30:0.161557 31:-0.0293409 32:-0.236686 33:0.247419 34:0.338641 35:0.598338 36:-0.198642 37:-0.0218511 38:-0.326211 39:0.0259901 40:0.260682 41:-0.297858 42:0.0672302 43:-0.0159133 44:0.348125 45:0.0765368 46:0.116998 47:0.189813 48:0.395985 49:0.0366056 50:0.0423104 51:0.356064 52:-0.465246 53:0.0727412 54:-0.0380638 55:-0.183296 56:0.333741 57:0.222184 58:0.0790285 59:-0.163595 60:0.0380798 61:0.162661 62:0.716347 63:-0.111432 64:0.215876 65:-0.163559 66:0.174879 67:0.103885 68:-0.123346 69:0.108128 70:0.0274831 71:0.522178 72:0.241728 73:0.289156 74:0.24829 75:0.229785 76:-0.0141814 77:-0.366021 78:-0.138114 79:0.224691 80:0.078494 81:0.0944344 82:0.216819 83:0.0271131 84:0.291924 85:0.0822814 86:0.130065 87:0.161356 88:0.209199 89:0.311523 90:0.200072 91:0.255124 92:0.172099 93:0.254061 94:0.205967 95:0.263788 96:0.114406 97:0.185513 98:0.116283 99:0.120727 100:0.145241 101:0.165974 102:0.250696 103:0.180339 104:0.142989 105:0.140206 106:0.22484 107:0.238484 108:0.243684 109:0.177285 110:0.239522 111:0.170097 112:0.149919 113:0.123169 114:0.187379 115:0.17805 116:0.181882 117:0.194026 118:0.164383 119:0.160743 120:0.140561 121:0.160679 122:0.170202 123:0.163599 124:0.144994 125:0.142931 126:0.15667 127:0.192386 
0.2856344797594206 0:-0.0824861 1:-0.0176919 2:-0.486037 3:-0.18511 4:0.2499 5:-0.0904232 6:-0.448187 7:-0.532391 8:-0.35521 9:0.000869265 10:0.444712 11:-0.502811 12:-0.0562438 13:-0.123982 14:-0.288789 15:-0.0831012 16:-0.10588 17:-0.220585 18:-0.25427 19:-0.0392227 20:0.162584 21:-0.202234 22:-0.0490183 23:-0.0949483 24:0.0911317 25:0.227331 26:-0.457928 27:0.0113778 28:0.0565478 29:-0.382769 30:0.481382 31:-0.091855 32:0.0376151 33:-0.392598 34:0.13027 35:0.358656 36:0.0824082 37:0.213115 38:-0.428123 39:-0.110251 40:0.242752 41:-0.335908 42:0.171236 43:-0.216671 44:0.386362 45:0.110629 46:0.314998 47:0.351509 48:0.510727 49:0.118041 50:0.131601 51:0.411067 52:-0.521457 53:0.051509 54:-0.378817 55:-0.0870367 56:0.0143317 57:0.533378 58:0.0931834 59:-0.184244 60:0.264224 61:0.374515 62:0.619543 63:0.261869 64:0.199419 65:0.00051776 66:0.197865 67:0.0993157 68:-0.0346922 69:-0.0964792 70:0.362351 71:0.385286 72:0.149156 73:0.222176 74:0.260203 75:0.126291 76:0.0420033 77:-0.561431 78:-0.262824 79:0.158557 80:0.134676 81:0.100282 82:0.216213 83:0.129031 84:0.25798 85:0.188029 86:0.220023 87:0.109648 88:0.139841 89:0.251333 90:0.171578 91:0.169848 92:0.161718 93:0.314044 94:0.160477 95:0.251136 96:0.167772 97:0.145865 98:0.0829326 99:0.114979 100:0.134154 101:0.102515 102:0.197324 103:0.140029 104:0.12178 105:0.128829 106:0.171665 107:0.267232 108:0.204571 109:0.203534 110:0.176647 111:0.148172 112:0.104613 113:0.129787 114:0.170822 115:0.173682 116:0.175347 117:0.180866 118:0.154811 119:0.101119 120:0.156577 121:0.162853 122:0.146666 123:0.174169 124:0.14115 125:0.123363 126:0.148788 127:0.165944 
0.5 0:-0.0978202 1:-0.0233975 2:-0.469632 3:-0.093342 4:0.309197 5:0.0894418 6:-0.411434 7:-0.67326 8:-0.473149 9:0.176868 10:0.332021 11:-0.129772 12:-0.0978022 13:-0.135747 14:-0.218981 15:-0.107431 16:-0.253287 17:-0.469596 18:-0.317725 19:-0.267915 20:0.3398 21:-0.246211 22:0.17903 23:0.0734351 24:0.355861 25:0.695701 26:-0.20637 27:0.304789 28:0.374825 29:-0.417417 30:0.313948 31:-0.249942 32:-0.0762469 33:-0.174176 34:0.0671616 35:0.560828 36:0.0252109 37:0.232888 38:-0.501517 39:0.0840557 40:0.407788 41:-0.302389 42:-0.0214519 43:-0.102036 44:0.386834 45:-0.240233 46:0.0269123 47:0.521803 48:-0.00569612 49:0.0655984 50:0.0683498 51:0.304909 52:-0.515235 53:0.0881371 54:0.17148 55:-0.3539 56:0.0738415 57:0.407303 58:-0.0691929 59:-0.153333 60:0.225315 61:0.459775 62:0.624269 63:0.0515654 64:0.0251694 65:-0.145881 66:-0.0776174 67:-0.215152 68:0.0632221 69:0.0654624 70:0.14362 71:0.154996 72:0.0918433 73:0.322842 74:0.362708 75:0.0816505 76:-0.0447419 77:-0.465568 78:-0.148574 79:0.0168298 80:0.0498077 81:0.110234 82:0.231794 83:0.0136506 84:0.195041 85:0.1211 86:0.024966 87:0.15964 88:0.181641 89:0.159319 90:0.0819558 91:0.16131 92:0.146685 93:0.222307 94:0.14794 95:0.267558 96:0.106817 97:0.149721 98:0.0638531 99:0.125074 100:0.20347 101:0.173527 102:0.175111 103:0.131691 104:0.110376 105:0.106998 106:0.200179 107:0.197781 108:0.192435 109:0.148742 110:0.148219 111:0.120075 112:0.131188 113:0.095002 114:0.139281 115:0.156368 116:0.161814 117:0.142885 118:0.111665 119:0.149886 120:0.122031 121:0.12092 122:0.13693 123:0.134402 124:0.134942 125:0.107189 126:0.105738 127:0.126741 
0.5 0:-0.0794568 1:-0.0339724 2:-0.464265 3:-0.131083 4:0.216243 5:-0.118177 6:-0.15543 7:-0.610046 8:-0.484211 9:0.205285 10:0.20125 11:-0.250092 12:-0.1253 13:-0.375819 14:-0.0952482 15:0.0039614 16:-0.47226 17:-0.468354 18:-0.202769 19:0.403666 20:0.0316188 21:-0.115949 22:-0.152727 23:0.0561847 24:0.182428 25:0.24455 26:-0.319442 27:0.341645 28:0.105627 29:-0.672992 30:0.218436 31:-0.286974 32:-0.000732839 33:-0.274205 34:0.128227 35:0.246726 36:0.23778 37:0.286651 38:-0.208809 39:0.0156975 40:0.00603386 41:-0.475842 42:0.268379 43:-0.0360911 44:0.565109 45:0.194863 46:0.102345 47:0.416608 48:0.785798 49:0.12144 50:-0.215733 51:0.17195 52:-0.451719 53:-0.125865 54:0.212689 55:-0.303424 56:-0.850451 57:0.531053 58:0.199587 59:-0.00891491 60:0.184021 61:0.405154 62:0.50553 63:-0.0468584 64:0.384318 65:-0.209457 66:0.0827368 67:0.0933001 68:0.146798 69:-0.188662 70:0.232669 71:0.129643 72:0.226791 73:0.209833 74:0.279495 75:0.227489 76:-0.19497 77:-0.539923 78:-0.213317 79:0.218837 80:0.0136885 81:-0.0260482 82:0.210688 83:0.0684984 84:0.128573 85:0.0666788 86:0.194723 87:0.0725527 88:0.191159 89:0.293785 90:0.135793 91:0.20868 92:0.142716 93:0.264172 94:0.199358 95:0.271214 96:0.128099 97:0.0888329 98:0.0694264 99:0.123969 100:0.225505 101:0.0969183 102:0.239272 103:0.151692 104:0.109787 105:0.128783 106:0.147498 107:0.229835 108:0.232186 109:0.204037 110:0.173154 111:0.117124 112:0.112649 113:0.141714 114:0.1552 115:0.161083 116:0.18207 117:0.151352 118:0.153674 119:0.151155 120:0.16785 121:0.153858 122:0.166037 123:0.179535 124:0.123326 125:0.142542 126:0.113284 127:0.158527 
0.5 0:-0.0861041 1:-0.0120552 2:-0.535336 3:-0.0374576 4:0.29323 5:0.15005 6:-0.322158 7:-0.42231 8:-0.388934 9:0.108566 10:-0.0287511 11:-0.484287 12:0.0639749 13:-0.158563 14:0.301379 15:0.0905728 16:-0.357635 17:-0.413253 18:-0.288383 19:0.433716 20:0.294679 21:-0.243703 22:-0.277919 23:-0.219848 24:0.197387 25:0.0330238 26:-0.550533 27:0.36052 28:0.276664 29:-0.0271299 30:0.368408 31:-0.575345 32:-0.195412 33:0.429354 34:-0.108803 35:0.0998943 36:-0.790574 37:0.0295352 38:-0.549343 39:-0.352812 40:0.273115 41:-0.308074 42:-0.221236 43:-0.137404 44:0.39097 45:0.162211 46:-0.0261572 47:0.252343 48:0.426368 49:0.179782 50:0.13648 51:0.318086 52:-0.441069 53:-0.294619 54:0.142612 55:0.0625834 56:0.382066 57:0.262564 58:-0.151248 59:-0.284919 60:0.274145 61:0.457182 62:0.466932 63:0.0220952 64:0.219748 65:0.0895455 66:0.0748995 67:-0.0944625 68:-0.0429296 69:-0.17421 70:0.14392 71:0.179371 72:0.0522095 73:0.2193 74:0.191495 75:0.153637 76:-0.108405 77:-0.579049 78:-0.40953 79:0.113713 80:0.00520956 81:0.0290421 82:0.159012 83:-0.0388801 84:0.171869 85:0.0101043 86:0.111757 87:0.0631518 88:0.270076 89:0.172708 90:0.0280337 91:0.0834588 92:0.08793 93:0.221915 94:0.117592 95:0.179794 96:0.107515 97:0.0790551 98:0.0638809 99:0.0622008 100:0.116191 101:0.0794687 102:0.163451 103:0.0846908 104:0.0526962 105:0.0676032 106:0.162727 107:0.164993 108:0.148714 109:0.146048 110:0.163406 111:0.0665865 112:0.115838 113:0.0986155 114:0.121492 115:0.133247 116:0.129027 117:0.095463 118:0.107702 119:0.0837265 120:0.100407 121:0.0736297 122:0.0803159 123:0.113384 124:0.103407 125:0.0969338 126:0.0809764 127:0.110618 
0.0869964560552435 0:-0.0996975 1:-0.0429024 2:-0.481956 3:-0.161298 4:0.326401 5:-0.203083 6:-0.420151 7:-0.518746 8:-0.213861 9:0.288011 10:0.440067 11:0.108066 12:0.0384481 13:-0.122569 14:0.368055 15:-0.224571 16:0.0071172 17:-0.5436 18:-0.0445415 19:-0.0830022 20:0.213606 21:-0.140385 22:-0.0307546 23:-0.184091 24:-0.162341 25:0.245663 26:-0.346909 27:-0.165106 28:0.223655 29:-0.387166 30:0.421122 31:-0.164688 32:-0.241814 33:-0.0100854 34:0.252691 35:0.291509 36:-0.0728913 37:0.416443 38:-0.567524 39:-0.220962 40:0.179401 41:-0.183166 42:0.0560579 43:-0.0604058 44:0.38004 45:0.152208 46:0.156479 47:0.353751 48:0.309239 49:0.255507 50:-0.117372 51:0.171595 52:-0.548899 53:0.126996 54:0.035111 55:-0.0969205 56:-0.053146 57:0.410209 58:0.0329947 59:-0.227198 60:0.477585 61:0.631198 62:0.580695 63:0.0147697 64:0.227493 65:-0.057244 66:0.228922 67:-0.0985723 68:0.0777524 69:0.0628458 70:0.237903 71:0.268167 72:0.137298 73:0.188169 74:0.37696 75:0.177883 76:-0.180673 77:-0.324981 78:-0.333392 79:0.131553 80:0.128036 81:0.0942646 82:0.226693 83:0.0563418 84:0.20335 85:0.147028 86:0.0631781 87:0.0842127 88:0.227052 89:0.167299 90:0.116094 91:0.159838 92:0.15999 93:0.235862 94:0.123269 95:0.25851 96:0.113618 97:0.176638 98:0.0497766 99:0.175248 100:0.203504 101:0.0978185 102:0.195373 103:0.159438 104:0.0981397 105:0.120056 106:0.157114 107:0.228413 108:0.193377 109:0.160755 110:0.164766 111:0.156941 112:0.178918 113:0.144015 114:0.159705 115:0.167663 116:0.173168 117:0.160789 118:0.166246 119:0.130704 120:0.114763 121:0.166618 122:0.132622 123:0.161782 124:0.10365 125:0.144318 126:0.130213 127:0.133475 
0.5 0:-0.101293 1:-0.0212437 2:-0.473908 3:-0.217726 4:0.122538 5:0.0401247 6:-0.345182 7:-0.488323 8:0.0697178 9:0.21429 10:0.414168 11:-0.349044 12:0.023113 13:-0.0742037 14:-0.165492 15:-0.152831 16:-0.260209 17:-0.502177 18:-0.250853 19:0.179222 20:0.446539 21:-0.365519 22:0.138395 23:-0.169706 24:-0.0681076 25:0.850863 26:-0.102015 27:-0.0405011 28:0.447914 29:-0.436824 30:-0.0118921 31:-0.547784 32:-0.351983 33:0.184593 34:0.49689 35:0.170262 36:0.437306 37:0.131404 38:-0.283967 39:0.0628355 40:0.0176034 41:-0.36227 42:0.0132445 43:-0.103899 44:0.394919 45:0.0217953 46:0.0312789 47:0.269617 48:0.706139 49:0.20631 50:-0.0252259 51:0.286417 52:-0.446236 53:-0.200299 54:0.0933929 55:-0.142087 56:-0.119969 57:0.0427941 58:0.154683 59:-0.100999 60:0.576766 61:0.28463 62:0.490634 63:0.145194 64:0.127783 65:0.0519483 66:0.419182 67:0.253606 68:0.145495 69:-0.18322 70:0.603628 71:0.158822 72:-0.0695633 73:0.338947 74:0.251104 75:0.0669325 76:-0.224807 77:-0.411937 78:-0.0662306 79:0.12394 80:0.0545427 81:0.0868225 82:0.197347 83:0.102994 84:0.222367 85:0.24046 86:0.157125 87:0.164689 88:0.241535 89:0.332665 90:0.193395 91:0.210413 92:0.204829 93:0.274357 94:0.19624 95:0.341596 96:0.181829 97:0.236025 98:0.0876226 99:0.171037 100:0.193888 101:0.215505 102:0.248037 103:0.184611 104:0.187493 105:0.141352 106:0.257488 107:0.270231 108:0.27701 109:0.227068 110:0.243356 111:0.223681 112:0.167385 113:0.177881 114:0.205675 115:0.201731 116:0.240353 117:0.22573 118:0.174672 119:0.174425 120:0.18809 121:0.190204 122:0.159838 123:0.214151 124:0.167568 125:0.166081 126:0.177681 127:0.219914 
0.4423099545942285 0:-0.0872305 1:-0.0236151 2:-0.45813 3:-0.172857 4:0.313197 5:-0.0166203 6:-0.422519 7:-0.631097 8:-0.347489 9:0.572538 10:0.244607 11:-0.0742627 12:0.0585391 13:-0.113772 14:-0.0554106 15:-0.181527 16:-0.423574 17:-0.716116 18:-0.181639 19:0.00191854 20:0.093377 21:-0.473178 22:-0.29579 23:-0.177982 24:0.409669 25:0.559197 26:-0.218678 27:0.275151 28:0.302045 29:-0.226118 30:0.0688817 31:-0.37791 32:-0.217589 33:-0.19566 34:-0.0390277 35:0.285919 36:-0.0670529 37:0.0568712 38:-0.514684 39:-0.113888 40:0.136265 41:-0.233634 42:0.0224851 43:-0.11793 44:0.538434 45:-0.0555714 46:0.196315 47:0.0196905 48:0.302674 49:0.0574691 50:0.250682 51:0.175158 52:-0.417655 53:-0.00675635 54:0.162657 55:-0.10074 56:0.21855 57:0.292785 58:0.0324358 59:-0.0839176 60:0.061992 61:0.327163 62:0.401582 63:0.0966328 64:-0.00871249 65:-0.0746639 66:0.0922869 67:0.174497 68:-0.0389025 69:-0.0989504 70:0.0623723 71:0.390441 72:-0.125083 73:0.273686 74:0.303037 75:0.254042 76:-0.0776346 77:-0.581479 78:-0.284797 79:0.0183892 80:0.0517207 81:-0.0293411 82:0.154881 83:0.0991727 84:0.110238 85:-0.0626814 86:0.0757183 87:0.0638625 88:0.0910082 89:0.213561 90:0.131429 91:0.15064 92:0.143306 93:0.214257 94:0.0850523 95:0.209603 96:0.0849909 97:0.0320069 98:0.011619 99:0.0784052 100:0.12193 101:0.0701484 102:0.129338 103:0.101835 104:0.00953407 105:0.0865581 106:0.13349 107:0.189649 108:0.101115 109:0.11235 110:0.0874368 111:0.0848425 112:0.0415532 113:0.0603541 114:0.112587 115:0.100461 116:0.0959964 117:0.120964 118:0.0258683 119:0.0663532 120:0.0640477 121:0.0602561 122:0.0984668 123:0.105001 124:0.0883534 125:0.0607136 126:0.0287166 127:0.0782725 
0.5 0:-0.0921115 1:-0.00881963 2:-0.428388 3:-0.104839 4:0.271996 5:-0.0766426 6:-0.402223 7:-0.488041 8:-0.119168 9:-0.101803 10:0.170298 11:0.0400594 12:0.0169229 13:-0.0583191 14:0.17013 15:-0.116946 16:-0.318179 17:-0.641595 18:-0.150884 19:0.113873 20:0.190851 21:-0.62867 22:-0.011 23:-0.158199 24:0.067037 25:0.452573 26:-0.108517 27:0.330138 28:-0.204774 29:-0.146255 30:0.324159 31:-0.243969 32:-0.233531 33:0.20287 34:0.1247 35:0.22251 36:0.0560549 37:0.624082 38:-0.341031 39:-0.0129768 40:0.226186 41:-0.314396 42:-0.018289 43:-0.33079 44:0.587216 45:0.0308884 46:0.317154 47:0.466565 48:0.597895 49:-0.214181 50:0.0857318 51:0.236404 52:-0.547739 53:0.0103759 54:0.511046 55:-0.346534 56:0.483306 57:0.56223 58:-0.133968 59:-0.36222 60:0.222289 61:0.376174 62:0.711107 63:0.0916632 64:0.168441 65:0.00727879 66:0.478845 67:-0.0740242 68:-0.0578673 69:-0.149862 70:0.239108 71:0.63673 72:0.0981682 73:0.375706 74:0.325853 75:0.212343 76:-0.178055 77:-0.536298 78:-0.163679 79:-0.000743153 80:0.154424 81:0.0257077 82:0.17406 83:0.0860623 84:0.14617 85:0.0444299 86:0.121893 87:0.11001 88:0.151323 89:0.268065 90:0.211478 91:0.20516 92:0.168674 93:0.295716 94:0.210999 95:0.275314 96:0.143831 97:0.132311 98:0.0995197 99:0.173792 100:0.217946 101:0.170104 102:0.191647 103:0.164752 104:0.134288 105:0.155593 106:0.19335 107:0.228106 108:0.227875 109:0.212453 110:0.192029 111:0.162905 112:0.141752 113:0.17983 114:0.179255 115:0.223623 116:0.210176 117:0.190402 118:0.170869 119:0.135718 120:0.150684 121:0.153356 122:0.158829 123:0.200759 124:0.178496 125:0.163781 126:0.132643 127:0.159902 
0.5 0:-0.0897649 1:-0.0303064 2:-0.43794 3:-0.140679 4:0.152671 5:-0.0855736 6:-0.476294 7:-0.488781 8:-0.355306 9:0.219383 10:-0.192328 11:-0.297793 12:0.0625118 13:-0.286756 14:0.17982 15:0.0275534 16:-0.417378 17:-0.198346 18:-0.0909534 19:0.237042 20:0.36372 21:-0.293161 22:-0.366702 23:-0.124043 24:0.175584 25:0.159942 26:-0.457021 27:0.117475 28:0.154305 29:-0.142287 30:0.0566277 31:0.111091 32:-0.540789 33:-0.104434 34:0.251352 35:0.247757 36:0.0334016 37:0.142626 38:-0.512525 39:0.108597 40:0.606571 41:-0.464602 42:0.35311 43:0.131797 44:0.468426 45:0.0388366 46:0.188229 47:0.331218 48:0.35396 49:0.269407 50:0.0752819 51:0.233435 52:-0.542114 53:0.0837816 54:0.186092 55:-0.144108 56:-0.313163 57:0.122098 58:-0.0295727 59:-0.174128 60:0.165425 61:0.203555 62:0.427232 63:0.137771 64:0.0997096 65:-0.133605 66:0.0938389 67:0.157867 68:0.0715424 69:-0.106091 70:0.20862 71:0.274756 72:0.0168169 73:0.157105 74:0.408922 75:0.205466 76:-0.00880212 77:-0.362089 78:-0.232775 79:0.150515 80:0.0148512 81:0.00376321 82:0.17717 83:0.122089 84:0.144839 85:0.0750456 86:0.124066 87:0.101286 88:0.180777 89:0.245629 90:0.147151 91:0.198413 92:0.151396 93:0.234189 94:0.19544 95:0.263484 96:0.0804299 97:0.104352 98:0.075145 99:0.0692215 100:0.139216 101:0.100965 102:0.161644 103:0.14349 104:0.144817 105:0.0598542 106:0.203233 107:0.197076 108:0.187818 109:0.149406 110:0.146067 111:0.139819 112:0.0922069 113:0.0852605 114:0.12813 115:0.148302 116:0.175616 117:0.126271 118:0.135165 119:0.125536 120:0.0894979 121:0.115795 122:0.124837 123:0.126242 124:0.104042 125:0.0880021 126:0.1222 127:0.138835 
0.5 0:-0.0820167 1:-0.0183139 2:-0.468083 3:-0.112204 4:0.245322 5:-0.118643 6:-0.509339 7:-0.594981 8:-0.52972 9:0.222442 10:-0.0574828 11:-0.244909 12:-0.136593 13:0.000898462 14:0.112472 15:-0.218824 16:-0.347858 17:-0.0861764 18:-0.0328817 19:0.20247 20:0.38055 21:-0.245562 22:0.182684 23:-0.0456916 24:0.197732 25:0.497344 26:-0.17086 27:0.221924 28:0.0771496 29:-0.694466 30:0.136817 31:-0.144797 32:-0.344444 33:0.448263 34:0.203512 35:0.188757 36:0.114712 37:0.290966 38:-0.144237 39:-0.0864449 40:0.163782 41:-0.401429 42:-0.785666 43:0.153045 44:0.46567 45:0.112655 46:0.0374933 47:0.427459 48:0.549753 49:0.340092 50:-0.0364507 51:0.255168 52:-0.717306 53:0.00293406 54:0.307135 55:-0.158408 56:-0.424077 57:0.31162 58:-0.117173 59:0.0915502 60:0.265092 61:0.0974512 62:0.245129 63:-0.0622155 64:0.181994 65:-0.109956 66:0.170854 67:0.109275 68:0.0146225 69:-0.0887964 70:0.198319 71:0.151716 72:0.182528 73:0.432892 74:0.291338 75:0.350127 76:-0.326634 77:-0.467795 78:-0.333492 79:0.283906 80:0.11113 81:-0.00321445 82:0.0959614 83:0.170427 84:0.137402 85:0.0759061 86:0.110009 87:0.158219 88:0.165312 89:0.245364 90:0.140598 91:0.179904 92:0.20185 93:0.30495 94:0.139461 95:0.262042 96:0.12039 97:0.161252 98:0.0781806 99:0.145201 100:0.186731 101:0.159324 102:0.186289 103:0.162174 104:0.130027 105:0.167191 106:0.15812 107:0.219879 108:0.214318 109:0.197682 110:0.209963 111:0.157292 112:0.162311 113:0.164356 114:0.172459 115:0.141508 116:0.202315 117:0.207267 118:0.153269 119:0.154218 120:0.135206 121:0.154399 122:0.171517 123:0.136916 124:0.145124 125:0.119888 126:0.138649 127:0.207422 
