svm_type c_svc
kernel_type rbf
gamma 0.0078125
nr_class 3
total_sv 57
rho -0.44563 2.78014 0.748267
label 5 0 3
nr_sv 20 14 23
SV
0 11.74538617049794 0:-0.482584 1:-0.527604 2:-0.606376 3:-0.267327 4:0.244905 5:0.395325 6:0.335197 7:0.207351 8:0.160698 9:0.160704 10:0.093178 11:-0.257547 12:0.0887797 13:0.451032 14:0.478065 15:0.377765 16:0.658423 17:0.509152 18:0.392025 19:-0.049969 20:0.633924 21:0.244319 22:0.148756 23:0.590054 24:0.617324 25:0.775636 26:-0.181826 27:0.524315 28:0.491678 29:0.417331 30:0.642337 31:0.396357 32:0.621558 33:0.392209 34:0.364598 35:0.504129 36:0.410266 37:-0.0863377 38:-0.0230874 39:0.127845 40:0.296852 41:0.153186 42:0.112496 43:-0.0650036 44:-0.0597191 45:-0.034021 46:-0.0221897 47:0.16497 48:-0.0486572 49:-0.0415349 50:-0.0836858 51:-0.0625308 52:-0.0868917 53:-0.0159018 54:-0.0840067 55:-0.109552 56:-0.101904 57:-0.137965 58:0.0715143 59:0.0290047 
2.61909026399006 0 0:-0.161569 1:0.208835 2:0.108807 3:-0.40358 4:-0.21495 5:-0.574557 6:-0.359074 7:-0.170445 8:-0.360552 9:0.0833134 10:-0.151286 11:-0.479487 12:-0.125238 13:0.239824 14:-0.10579 15:0.118324 16:0.127295 17:0.00786546 18:0.231044 19:-0.276978 20:0.182248 21:-0.512856 22:-0.13535 23:0.0665729 24:-0.104092 25:-0.256917 26:0.0488691 27:0.217114 28:-0.104415 29:0.0685933 30:0.0928957 31:0.249865 32:0.0536448 33:0.533518 34:-0.173049 35:0.27287 36:0.185232 37:0.214297 38:0.250058 39:0.273958 40:0.0633408 41:0.0372499 42:-0.0301096 43:0.0272671 44:-0.00611155 45:0.0330779 46:0.0860765 47:0.112345 48:-0.0877775 49:-0.000845072 50:0.0200437 51:0.0528813 52:0.0349342 53:-0.00702181 54:-0.0474036 55:0.0100292 56:0.0416855 57:-0.0017135 58:0.118612 59:0.0851949 
20.79993068232691 2.403092784589526 0:-0.563892 1:-0.28883 2:-0.515684 3:-0.212641 4:-0.0355596 5:-0.10796 6:-0.103084 7:-0.250845 8:-0.279281 9:-0.00396008 10:0.13576 11:0.166071 12:0.135311 13:-0.103335 14:0.173242 15:-0.00881313 16:0.350238 17:0.386037 18:-0.142328 19:-0.0351141 20:0.367891 21:0.0268736 22:0.227796 23:-0.0351225 24:-0.324898 25:-0.0639869 26:0.278722 27:0.288572 28:0.138584 29:0.0915083 30:0.190861 31:0.15346 32:0.188601 33:0.173629 34:0.0058674 35:0.0888516 36:0.0248265 37:0.0356196 38:-0.290041 39:0.0940196 40:-0.19379 41:-0.0541279 42:-0.290555 43:-0.157797 44:-0.296891 45:-0.309579 46:-0.11373 47:-0.150339 48:-0.258593 49:-0.325579 50:-0.260501 51:-0.436163 52:-0.371168 53:-0.218281 54:-0.417675 55:-0.383971 56:-0.376305 57:-0.442435 58:-0.175508 59:-0.255385 
16.68288366943517 14.18002811831571 0:-0.722537 1:-0.584205 2:-0.734885 3:-0.542732 4:-0.0401631 5:-0.108814 6:0.152936 7:-0.142713 8:-0.563708 9:-0.0424926 10:-0.410101 11:-0.175541 12:-0.408014 13:-0.00337348 14:-0.380609 15:-0.103039 16:-0.36848 17:-0.318258 18:0.178174 19:-0.131571 20:-0.152244 21:0.232977 22:0.245474 23:-0.0698976 24:-0.0592129 25:0.40155 26:0.264749 27:0.376201 28:0.366677 29:-0.326961 30:0.302623 31:0.105411 32:-0.230734 33:-0.219415 34:-0.305008 35:0.179871 36:0.121507 37:-0.043712 38:-0.609186 39:-0.267175 40:-0.363332 41:-0.0982411 42:-0.214887 43:-0.558493 44:-0.406775 45:-0.65043 46:-0.543764 47:-0.365096 48:-0.300557 49:-0.452539 50:-0.423246 51:-0.50136 52:-0.479593 53:-0.624984 54:-0.493473 55:-0.631305 56:-0.680027 57:-0.474965 58:-0.307224 59:-0.245133 
23.66957891047335 13.02101656394945 0:-0.551224 1:-0.530657 2:-0.178904 3:-0.678318 4:0.109303 5:-0.26062 6:-0.0771753 7:-0.21607 8:-0.145235 9:-0.643464 10:-0.0495166 11:-0.379389 12:0.0413845 13:-0.0202332 14:0.167499 15:-0.174663 16:-0.21232 17:0.287005 18:0.294975 19:0.495491 20:0.0563475 21:-0.017278 22:0.240233 23:0.17499 24:0.371196 25:0.242981 26:0.219014 27:0.197899 28:0.197627 29:-0.0632179 30:-0.260279 31:-0.233594 32:0.056554 33:0.160437 34:-0.508128 35:-0.517773 36:-0.121306 37:0.0317305 38:-0.535576 39:0.21259 40:-0.141579 41:-0.365321 42:-0.232251 43:-0.336097 44:-0.393157 45:-0.375544 46:-0.289197 47:-0.546585 48:-0.433658 49:-0.337741 50:-0.494825 51:-0.604912 52:-0.599563 53:-0.772719 54:-0.587918 55:-0.661845 56:-0.573276 57:-0.477978 58:-0.446173 59:-0.476872 
0 13.44480970800214 0:0.533482 1:1 2:0.748447 3:0.244656 4:0.968324 5:0.621866 6:0.539987 7:0.980898 8:-0.0256403 9:0.254154 10:0.079475 11:-0.314933 12:0.455555 13:-0.0963071 14:0.303738 15:0.36588 16:0.411227 17:0.411096 18:0.71517 19:-0.233559 20:0.457885 21:0.442115 22:0.124291 23:0.104782 24:-0.20665 25:0.247145 26:0.369312 27:-0.185799 28:0.367352 29:-0.0901006 30:0.358799 31:-0.0343477 32:0.22357 33:0.257882 34:-0.309503 35:0.22255 36:-0.0536049 37:-0.00982251 38:0.153641 39:0.278293 40:0.169272 41:-0.0567239 42:0.0764797 43:0.179415 44:0.00486418 45:-0.0239484 46:-0.043822 47:0.0441182 48:0.0696045 49:0.105345 50:0.0113065 51:0.0219068 52:0.0384441 53:0.0195702 54:0.0623138 55:0.0481968 56:0.0142916 57:0.0638 58:0.131623 59:0.134801 
0 14.71909372072042 0:-0.286689 1:0.117071 2:-0.179019 3:-0.18064 4:0.43188 5:0.288281 6:0.522977 7:0.397285 8:0.0065104 9:0.501491 10:0.136402 11:0.101013 12:0.39266 13:0.478107 14:0.350592 15:-0.229895 16:0.827383 17:0.485 18:0.194204 19:0.252279 20:-0.249974 21:0.173311 22:0.418702 23:0.649385 24:0.451312 25:0.572087 26:0.592413 27:0.211681 28:0.342952 29:-0.0249495 30:0.206131 31:-0.0916512 32:0.250824 33:0.47112 34:0.0330678 35:-0.1411 36:0.283414 37:-0.0656424 38:-0.0634874 39:0.141358 40:-0.290935 41:0.0440592 42:0.209763 43:-0.00067687 44:-0.0254702 45:-0.139309 46:-0.0826003 47:-0.310035 48:-0.373793 49:-0.211658 50:-0.26941 51:-0.0470219 52:-0.147618 53:-0.04736 54:-0.177624 55:-0.24088 56:-0.0594406 57:-0.129156 58:0.00517432 59:-0.0425288 
0 32 0:-0.492374 1:-0.40977 2:-0.469429 3:-0.140251 4:0.176636 5:-0.128837 6:0.38373 7:0.470422 8:-0.0323862 9:0.285169 10:0.351209 11:-0.469839 12:0.058454 13:0.39178 14:0.0079555 15:0.0737029 16:0.521292 17:0.476698 18:0.421472 19:-0.00112212 20:0.334861 21:0.0764399 22:0.188744 23:0.530056 24:0.494538 25:0.496131 26:0.505138 27:0.307715 28:0.176279 29:0.383148 30:0.431115 31:0.0879984 32:0.357158 33:0.377792 34:0.0787502 35:0.339154 36:0.125574 37:-0.229559 38:-0.114029 39:0.0855227 40:-0.249211 41:-0.476979 42:-0.359648 43:-0.612346 44:-0.199232 45:-0.297734 46:-0.145223 47:-0.0840105 48:-0.27476 49:-0.341094 50:-0.179747 51:-0.431069 52:-0.277079 53:-0.515343 54:-0.509402 55:-0.44992 56:-0.298355 57:-0.459326 58:-0.0629158 59:-0.302983 
0 8.470871422456751 0:-0.687212 1:-0.29148 2:-0.517821 3:-0.118986 4:0.0318997 5:0.283461 6:0.508616 7:-0.25844 8:-0.0393631 9:0.242884 10:0.349843 11:0.306246 12:-0.113656 13:0.577099 14:0.484816 15:0.30398 16:0.664863 17:0.601712 18:0.495164 19:0.398625 20:0.510027 21:0.539988 22:0.327285 23:0.446864 24:0.232406 25:0.489959 26:0.181839 27:0.612033 28:0.773817 29:0.263998 30:0.320731 31:0.495824 32:0.288168 33:0.18895 34:-0.025598 35:0.0999307 36:0.369526 37:-0.325433 38:-0.0105095 39:0.139451 40:0.261539 41:-0.0481427 42:-0.111391 43:-0.0627222 44:-0.394166 45:-0.401126 46:-0.254914 47:-0.255164 48:-0.319493 49:-0.407396 50:-0.589259 51:-0.474361 52:-0.318873 53:-0.409405 54:-0.453841 55:-0.349369 56:-0.25702 57:-0.127339 58:-0.178568 59:-0.286587 
0 29.45153535193754 0:0.0439758 1:0.0124348 2:-0.611626 3:-0.164819 4:0.297541 5:0.439201 6:0.444432 7:0.838501 8:0.454939 9:0.270385 10:0.533914 11:0.181324 12:0.38293 13:0.880934 14:0.532432 15:0.597406 16:0.727575 17:0.412896 18:0.442297 19:0.927258 20:0.804054 21:0.519645 22:0.245709 23:0.557258 24:0.263612 25:1 26:0.349084 27:0.79583 28:0.58109 29:0.420225 30:0.677437 31:0.282491 32:0.489052 33:0.25755 34:0.121857 35:0.205201 36:0.184036 37:0.163172 38:0.00114068 39:0.300915 40:0.147089 41:0.0605799 42:-0.118262 43:0.00594188 44:-0.0113015 45:-0.0245541 46:-0.0970973 47:-0.079143 48:-0.197606 49:-0.320084 50:-0.236627 51:-0.256505 52:-0.299887 53:-0.110998 54:-0.259835 55:-0.326653 56:-0.304149 57:-0.192957 58:-0.0353881 59:-0.183258 
0 5.402522033055366 0:-0.489643 1:-0.100445 2:-0.256645 3:-0.198287 4:0.265202 5:0.40601 6:0.220636 7:0.189121 8:0.307453 9:0.556385 10:-0.0174988 11:-0.202306 12:0.277188 13:0.265273 14:0.28583 15:0.557006 16:0.692954 17:0.467074 18:0.512932 19:0.295626 20:0.769579 21:0.464107 22:0.648502 23:0.432073 24:0.685993 25:0.139563 26:0.297697 27:-0.00386496 28:0.719127 29:-0.166989 30:0.694065 31:0.284883 32:0.471079 33:0.219398 34:0.0282553 35:-0.0384577 36:0.276582 37:0.0257857 38:0.00407736 39:0.319211 40:0.0576092 41:0.0378689 42:0.00373294 43:-0.100132 44:-0.0644634 45:0.123731 46:-0.0817801 47:-0.0507156 48:-0.24647 49:-0.192996 50:0.033253 51:-0.0332386 52:0.0173688 53:-0.00714823 54:-0.0337292 55:0.00907711 56:-0.000126946 57:-0.114931 58:0.120964 59:0.0536592 
0 1.969663315081583 0:0.893733 1:0.766399 2:0.711364 3:0.717981 4:1 5:0.538832 6:0.205126 7:0.255154 8:0.689598 9:0.207718 10:-0.150807 11:-0.227029 12:0.0589766 13:0.604421 14:0.311356 15:0.394828 16:0.742569 17:0.689999 18:0.185773 19:0.43248 20:0.184975 21:0.307204 22:0.409229 23:0.425515 24:0.374753 25:0.732965 26:0.180113 27:0.268229 28:-0.143667 29:0.64039 30:0.472157 31:0.118194 32:0.626937 33:0.254707 34:0.0474883 35:-0.573726 36:0.46316 37:0.0338799 38:-0.0609106 39:0.00922176 40:0.18417 41:-0.138621 42:-0.217277 43:-0.22859 44:-0.237836 45:-0.0509095 46:-0.290295 47:-0.197533 48:-0.129659 49:-0.119139 50:-0.245508 51:-0.251563 52:-0.196413 53:-0.274219 54:-0.472673 55:-0.109204 56:-0.0490917 57:-0.214688 58:-0.0765567 59:0.0337933 
0 3.436490004278045 0:-0.1937 1:-0.0661098 2:-0.281915 3:-0.299065 4:0.389252 5:-0.00598702 6:0.107197 7:-0.0909739 8:-0.287346 9:-0.0614812 10:-0.0917029 11:-0.581314 12:-0.0614885 13:0.394025 14:0.14217 15:-0.153803 16:-0.14509 17:0.326914 18:0.0197247 19:0.277348 20:0.199102 21:0.142285 22:0.102154 23:-0.141313 24:0.3555 25:0.269642 26:0.398746 27:0.167152 28:0.190623 29:0.374145 30:0.104799 31:-0.111367 32:0.11729 33:0.237651 34:-0.25255 35:0.0271452 36:-0.25531 37:-0.0266541 38:0.0107435 39:0.0377537 40:0.0184816 41:-0.0338571 42:-0.141073 43:-0.325889 44:-0.194304 45:-0.217469 46:-0.118182 47:-0.249429 48:-0.143685 49:-0.256936 50:-0.20967 51:-0.0927487 52:-0.0989228 53:-0.316424 54:-0.151919 55:-0.286145 56:-0.134156 57:-0.151094 58:-0.0326419 59:-0.179787 
0 11.12086682221847 0:-0.414288 1:-0.205579 2:-0.129432 3:0.149949 4:0.396006 5:0.234944 6:-0.15469 7:-0.15523 8:0.0563922 9:-0.198231 10:-0.137033 11:-0.186334 12:0.249807 13:0.099145 14:0.149303 15:0.118435 16:0.320228 17:0.428967 18:-0.138681 19:0.167909 20:0.305155 21:0.296445 22:0.220874 23:0.282532 24:0.326732 25:0.621702 26:0.316028 27:0.0352303 28:0.262204 29:0.348646 30:-0.12503 31:0.338535 32:-0.02963 33:0.0449297 34:0.102955 35:0.189309 36:0.154755 37:0.181499 38:0.0442447 39:0.129555 40:0.0565965 41:-0.0335912 42:-0.151526 43:-0.0137193 44:-0.0484194 45:-0.128478 46:0.13722 47:-0.0896317 48:-0.173243 49:-0.153652 50:-0.0562708 51:-0.00607561 52:-0.0739622 53:-0.0810542 54:-0.119908 55:-0.0499202 56:-0.137931 57:-0.150455 58:0.0620833 59:-0.0509129 
0 3.439100269004622 0:0.882433 1:0.785483 2:1 3:1 4:0.899022 5:1 6:0.447098 7:0.823687 8:0.485098 9:0.0172863 10:-0.130601 11:0.48559 12:0.249169 13:0.273078 14:-0.532194 15:0.383178 16:0.927739 17:0.902795 18:0.577202 19:0.0732335 20:0.0855855 21:-0.0711531 22:0.314016 23:0.487836 24:0.131681 25:0.533152 26:0.412855 27:0.566274 28:0.36001 29:0.0236751 30:0.575367 31:0.217915 32:0.255406 33:0.161703 34:0.0801521 35:0.465331 36:0.123923 37:0.0321626 38:0.0725718 39:0.545317 40:0.269048 41:0.0895438 42:0.162005 43:0.15615 44:0.264603 45:0.216766 46:0.257624 47:0.221679 48:0.156371 49:0.102464 50:0.152597 51:0.123827 52:0.200667 53:0.205845 54:0.214422 55:0.299479 56:0.252034 57:0.246064 58:0.364171 59:0.285081 
0 20.46520980021742 0:0.290133 1:0.185215 2:0.636281 3:-0.203946 4:0.851405 5:0.49623 6:0.503576 7:0.564765 8:0.274605 9:0.249705 10:-0.185123 11:0.483735 12:0.058484 13:0.840647 14:0.303572 15:0.769378 16:0.640019 17:0.714094 18:0.513036 19:0.394496 20:0.870266 21:0.55334 22:0.579847 23:0.442124 24:0.778692 25:0.4018 26:0.719968 27:0.496144 28:0.50574 29:0.419088 30:0.477251 31:0.68114 32:0.415486 33:0.70549 34:0.137137 35:0.604733 36:0.465827 37:0.438569 38:0.284788 39:0.583707 40:0.171485 41:0.370239 42:0.413104 43:0.449625 44:0.268467 45:0.324129 46:0.357114 47:0.30682 48:0.36754 49:0.363962 50:0.360078 51:0.336746 52:0.33948 53:0.350611 54:0.309112 55:0.375776 56:0.37708 57:0.414332 58:0.420023 59:0.447989 
0 32 0:-0.446541 1:-0.306935 2:-0.154636 3:0.0658823 4:-0.101846 5:0.451995 6:0.382788 7:0.373739 8:0.44551 9:0.379041 10:0.0536108 11:0.246009 12:0.537761 13:0.762051 14:0.469366 15:0.343321 16:0.721619 17:0.694696 18:0.773704 19:0.265519 20:0.458586 21:0.352116 22:0.30825 23:0.507641 24:0.464474 25:0.497471 26:0.52553 27:0.629612 28:0.60338 29:0.479065 30:0.621411 31:0.198318 32:0.0783754 33:-0.181991 34:0.0122232 35:0.201804 36:0.527231 37:0.203021 38:-0.129258 39:0.312583 40:0.0572584 41:0.172953 42:0.192208 43:0.214632 44:-0.170364 45:0.179308 46:-0.00611157 47:0.0450651 48:0.0744774 49:0.0114888 50:0.0376559 51:0.104139 52:0.049108 53:0.0837067 54:-0.0569951 55:0.0224517 56:-0.0191344 57:0.0521533 58:0.132502 59:0.142899 
8.123349351682167 32 0:-0.214969 1:-0.0809644 2:-0.250568 3:-0.5328 4:-0.301233 5:-0.2307 6:-0.0227666 7:0.191154 8:-0.284107 9:-0.259697 10:0.429806 11:-0.244617 12:-0.203624 13:0.487017 14:0.157561 15:0.482632 16:0.391601 17:0.415718 18:0.453522 19:0.0472039 20:0.36046 21:0.300812 22:0.0659605 23:-0.17145 24:0.161708 25:0.516589 26:0.122027 27:0.117447 28:-0.238838 29:-0.443408 30:0.229462 31:0.280674 32:-0.0284911 33:-0.191777 34:0.00839279 35:-0.489942 36:-0.170721 37:0.029297 38:-0.167622 39:-0.0383411 40:-0.424798 41:-0.425284 42:-0.373787 43:-0.489458 44:-0.367363 45:-0.642617 46:-0.717849 47:-0.427437 48:-0.650852 49:-0.450239 50:-0.651366 51:-0.827652 52:-0.637749 53:-0.661666 54:-0.592192 55:-0.654436 56:-0.635554 57:-0.688093 58:-0.460768 59:-1 
0 0.7722434829097667 0:-0.493058 1:-0.306483 2:-0.269669 3:-0.270552 4:0.214355 5:-0.203085 6:0.160718 7:0.551548 8:-0.370848 9:0.0899757 10:0.337852 11:-0.0829451 12:-0.183866 13:0.468738 14:0.429639 15:0.41678 16:0.470131 17:0.556869 18:0.303455 19:0.624269 20:0.275281 21:0.452608 22:0.289094 23:0.327974 24:0.216746 25:0.491002 26:0.329411 27:0.126721 28:0.597818 29:-0.296328 30:0.389826 31:0.327516 32:0.21526 33:0.0949239 34:0.248204 35:0.00827296 36:0.0633933 37:-0.163088 38:0.02723 39:0.239766 40:-0.1369 41:-0.0780356 42:-0.139904 43:-0.216331 44:-0.296704 45:-0.247883 46:-0.124203 47:-0.470142 48:-0.41281 49:-0.0623501 50:-0.293329 51:-0.166719 52:-0.608634 53:-0.287946 54:-0.30166 55:-0.236968 56:-0.301407 57:-0.322439 58:-0.149706 59:-0.151619 
0 17.30323030689807 0:-0.773767 1:-0.156391 2:-0.16081 3:-0.242337 4:-0.0676155 5:0.256726 6:0.459813 7:0.5598 8:0.0765927 9:0.778436 10:-0.00144072 11:0.272607 12:0.379752 13:0.952126 14:0.667534 15:0.967926 16:0.414105 17:0.908133 18:0.947421 19:0.37889 20:0.908517 21:0.66152 22:0.484102 23:0.595457 24:0.00908974 25:0.79124 26:0.736176 27:0.594335 28:0.659598 29:0.135281 30:0.551389 31:0.252511 32:0.675775 33:0.376774 34:0.31184 35:0.23377 36:0.325288 37:0.298051 38:-0.155635 39:-0.0518617 40:0.0914355 41:0.0750302 42:0.0753002 43:-0.230924 44:-0.0127803 45:-0.292446 46:-0.125078 47:-0.0920918 48:-0.596825 49:-0.00775471 50:-0.338598 51:-0.132452 52:-0.275778 53:-0.412331 54:-0.220321 55:-0.226 56:-0.312672 57:-0.250249 58:-0.146735 59:-0.0881576 
-0 6.169418411420196 0:-0.361111 1:-0.411364 2:-0.475376 3:-0.107966 4:-0.00396175 5:0.00861534 6:-0.0370324 7:-0.318813 8:-0.250772 9:-0.406805 10:-0.423661 11:-0.570957 12:-0.524955 13:-0.0248125 14:-0.145708 15:-0.00238174 16:-0.0650329 17:0.516941 18:-0.140485 19:-0.292796 20:-0.299371 21:-0.329393 22:-0.308212 23:-0.140683 24:-0.369179 25:0.0417811 26:-0.432592 27:-0.530067 28:-0.46938 29:-0.468509 30:-0.338204 31:-0.175425 32:-0.577189 33:-0.468283 34:-0.34558 35:-0.640019 36:-0.573157 37:-0.474289 38:-0.484515 39:-0.0906195 40:-0.13663 41:-0.556299 42:-0.553004 43:-0.445406 44:-0.544856 45:-0.456158 46:-0.49393 47:-0.370197 48:-0.481845 49:-0.376483 50:-0.443437 51:-0.526273 52:-0.423428 53:-0.419459 54:-0.430204 55:-0.400829 56:-0.424505 57:-0.318626 58:-0.231599 59:-0.230768 
-0 10.22406705377638 0:-0.146582 1:-0.492263 2:-0.169804 3:-0.361658 4:0.19068 5:-0.0405399 6:-0.0458562 7:-0.114203 8:-0.150157 9:-0.215433 10:0.00660744 11:-0.507807 12:-0.0714688 13:-0.425333 14:-0.429786 15:-0.019762 16:0.171107 17:0.301442 18:0.240758 19:-0.02054 20:0.0228355 21:0.227534 22:-0.440525 23:-0.0776375 24:-0.149708 25:0.00565614 26:0.0192028 27:-0.366977 28:0.142914 29:-0.164786 30:-0.460503 31:-0.510781 32:-0.912382 33:-0.302042 34:-0.523838 35:-0.550843 36:-0.498528 37:-0.2183 38:-0.449009 39:-0.398562 40:-0.530187 41:-0.365208 42:-0.753466 43:-0.608172 44:-0.69668 45:-0.518236 46:-0.648375 47:-0.421247 48:-0.430082 49:-0.57916 50:-0.43806 51:-0.445826 52:-0.577819 53:-0.755548 54:-0.556579 55:-0.629042 56:-0.466477 57:-0.391652 58:-0.313074 59:-0.236097 
-0 1.062095952756866 0:-0.493598 1:-0.541123 2:-0.245898 3:0.146437 4:-0.0078732 5:-0.330708 6:0.05532 7:0.177737 8:-0.675104 9:0.163677 10:-0.0992082 11:-0.100196 12:-0.280582 13:0.102458 14:-0.22289 15:-0.0541042 16:0.246261 17:0.158786 18:-0.104692 19:-0.0437021 20:0.021948 21:-0.0679505 22:-0.135894 23:-0.0724674 24:-0.302404 25:-0.0888992 26:-0.113712 27:-0.0699014 28:0.0973691 29:0.0748873 30:-0.483767 31:-0.088672 32:-0.30744 33:-0.550924 34:-0.295039 35:-0.288587 36:-0.574149 37:-0.358462 38:-0.594992 39:-0.254955 40:-0.255661 41:-0.41679 42:-0.516328 43:-0.662152 44:-0.777218 45:-0.563103 46:-0.333637 47:-0.464393 48:-0.746655 49:-0.621252 50:-0.489683 51:-0.75564 52:-0.621793 53:-0.450975 54:-0.69774 55:-0.507054 56:-0.440611 57:-0.432434 58:-0.325944 59:-0.35447 
-0 10.59520520944457 0:-0.81952 1:-0.564338 2:-0.87236 3:-0.148647 4:0.259628 5:-0.0400343 6:0.212239 7:0.132537 8:0.0428947 9:-0.0332172 10:-0.196181 11:-0.237282 12:-0.172587 13:-0.668245 14:0.203989 15:0.0272252 16:0.298145 17:-0.32249 18:0.059815 19:-0.110947 20:0.249108 21:0.158388 22:0.0629275 23:-0.315987 24:-0.0772886 25:0.066205 26:-0.056709 27:-0.246633 28:-0.176452 29:-0.200566 30:-0.0894702 31:-0.16463 32:-0.328145 33:-0.29194 34:-1 35:-0.197378 36:-0.691219 37:-0.560215 38:-0.731905 39:-0.594224 40:-0.396803 41:-0.530709 42:-0.663912 43:-0.912832 44:-0.610551 45:-0.650693 46:-0.719584 47:-0.766904 48:-1 49:-0.908806 50:-0.679906 51:-0.706393 52:-1 53:-0.840751 54:-0.96692 55:-0.834205 56:-0.934042 57:-0.708287 58:-0.667629 59:-0.680045 
-0 7.024770898345654 0:-0.661078 1:-0.576781 2:-0.536355 3:-0.333063 4:-0.174582 5:-0.374627 6:-0.0738255 7:0.0389538 8:0.112873 9:-0.143417 10:-0.277849 11:-0.311439 12:-0.0146755 13:-0.448204 14:0.0820192 15:-0.363828 16:0.0287706 17:0.256883 18:0.374564 19:-0.1371 20:-0.00516808 21:-0.20796 22:-0.0475088 23:0.00343843 24:-0.159278 25:0.205726 26:-0.0124512 27:-0.418344 28:0.0250274 29:-0.657878 30:-0.366843 31:-0.599541 32:-0.240651 33:-0.273275 34:-0.396371 35:-0.271201 36:-0.520077 37:-0.292001 38:-0.509091 39:-0.392722 40:-0.563331 41:-0.543851 42:-0.711431 43:-0.311949 44:-0.667352 45:-0.66654 46:-0.413798 47:-0.468429 48:-0.644207 49:-0.634579 50:-0.481147 51:-0.561864 52:-0.550921 53:-0.522739 54:-0.633591 55:-0.501445 56:-0.486623 57:-0.695331 58:-0.417411 59:-0.398975 
-32 32 0:-0.444689 1:-0.402992 2:-0.77081 3:-0.122768 4:0.0453231 5:-0.20874 6:0.0833593 7:-0.00903469 8:-0.186474 9:-0.108858 10:-0.0751799 11:-0.406422 12:0.0463425 13:-0.307184 14:0.148797 15:-0.193944 16:0.267839 17:0.414067 18:0.188896 19:-0.235551 20:-0.171794 21:-0.356603 22:-0.36291 23:-0.0504633 24:-0.0857614 25:-0.18584 26:-0.122238 27:0.0411849 28:-0.0334831 29:-0.174624 30:-0.195626 31:0.174155 32:0.0504715 33:-0.0232483 34:-0.308503 35:-0.330856 36:-0.104909 37:-0.227843 38:-0.376886 39:-0.0886169 40:-0.282761 41:-0.218224 42:-0.447101 43:-0.634809 44:-0.450506 45:-0.22261 46:-0.350873 47:-0.304953 48:-0.412229 49:-0.299204 50:-0.414409 51:-0.449478 52:-0.390004 53:-0.346013 54:-0.491218 55:-0.412796 56:-0.317736 57:-0.320761 58:-0.200403 59:-0.229015 
-4.752375543557581 32 0:-0.717781 1:-0.400937 2:-0.664261 3:-0.58467 4:0.084183 5:-0.0501058 6:0.0402267 7:-0.126372 8:-0.241927 9:0.0891869 10:0.109993 11:-0.172513 12:-0.0883319 13:-0.00528982 14:-0.740006 15:-0.292762 16:0.158961 17:0.385835 18:-0.0453073 19:-0.275005 20:-0.0599 21:-0.243318 22:-0.284653 23:-0.152792 24:-0.0862761 25:0.0635574 26:-0.0294416 27:-0.0757393 28:-0.133046 29:-0.0261988 30:-0.172032 31:-0.292486 32:-0.49563 33:-0.127045 34:-0.529969 35:-0.307026 36:-0.428884 37:-0.527067 38:-0.228022 39:-0.283957 40:-0.456297 41:-0.0825956 42:-0.225248 43:-0.463901 44:-0.390154 45:-0.239772 46:-0.264219 47:-0.223582 48:-0.466834 49:-0.349344 50:-0.274898 51:-0.304446 52:-0.343133 53:-0.343518 54:-0.303556 55:-0.308625 56:-0.255596 57:-0.25234 58:-0.151282 59:-0.142276 
-0 5.100824162633159 0:-0.637611 1:-0.457793 2:-0.357931 3:-0.293393 4:-0.182973 5:-0.503568 6:0.0522966 7:-0.0170296 8:0.0483383 9:-0.193253 10:0.0993112 11:-0.142509 12:0.211753 13:0.0766107 14:-0.0704003 15:-0.0948098 16:0.367316 17:0.117744 18:0.123835 19:-0.285487 20:-0.388857 21:-0.0847099 22:-0.116301 23:-0.406679 24:-0.15457 25:-0.414101 26:0.0960027 27:-0.137149 28:-0.482733 29:-0.864083 30:0.000498365 31:-0.233205 32:-0.554125 33:-0.508585 34:-0.605253 35:-0.365086 36:-0.309495 37:-0.396498 38:-0.519075 39:-0.334611 40:-0.279974 41:-0.306965 42:-0.318389 43:-0.693551 44:-0.652049 45:-0.746527 46:-0.503232 47:-0.559595 48:-0.711727 49:-0.643615 50:-0.601543 51:-0.641531 52:-0.727717 53:-0.903651 54:-0.667586 55:-0.650356 56:-0.556143 57:-0.561605 58:-0.602684 59:-0.579253 
-0.648610665982709 0 0:-0.782112 1:-0.595329 2:-0.525695 3:-0.580764 4:0.285196 5:-0.76829 6:-0.576773 7:-0.0465147 8:-0.127042 9:-0.15131 10:0.0432376 11:-0.188679 12:-0.3818 13:-0.185368 14:0.0522821 15:0.0828111 16:-0.0923148 17:0.271952 18:0.127433 19:0.393465 20:0.0454537 21:-0.268008 22:-0.191287 23:-0.0883278 24:0.0150358 25:-0.41238 26:-0.154944 27:-0.0731444 28:-0.099577 29:0.0918231 30:-0.566453 31:-0.405801 32:-0.240443 33:-0.106111 34:-0.0373196 35:-0.350763 36:-0.627525 37:-0.505517 38:-0.341275 39:-0.418712 40:-0.510819 41:-0.501127 42:-0.601941 43:-0.66882 44:-0.579881 45:-0.664091 46:-0.557467 47:-0.487388 48:-0.572997 49:-0.542851 50:-0.741887 51:-0.578009 52:-0.547555 53:-0.567283 54:-0.578498 55:-0.780265 56:-0.649562 57:-0.70566 58:-0.540586 59:-0.316954 
-1.746483684241648 1.911311057968516 0:-0.699926 1:-0.497545 2:-0.281548 3:-0.0612621 4:0.273002 5:-0.00200498 6:-0.00463451 7:-0.474039 8:-0.452068 9:-0.0947481 10:0.176867 11:-0.129453 12:-0.0582891 13:0.106046 14:0.141953 15:-0.587027 16:0.173082 17:-0.156794 18:-0.334082 19:0.145715 20:0.0687835 21:-0.256277 22:-0.174781 23:-0.0839649 24:-0.124195 25:-0.0221064 26:-0.043067 27:-0.263629 28:-0.292454 29:0.000942148 30:-0.254546 31:-0.245471 32:-0.729576 33:-0.292207 34:-0.404941 35:-0.249428 36:-0.659442 37:-0.219269 38:-0.484798 39:-0.146959 40:-0.334488 41:-0.307283 42:-0.646283 43:-0.540131 44:-0.678014 45:-0.53753 46:-0.481433 47:-0.692067 48:-0.491762 49:-0.594858 50:-0.56232 51:-0.43693 52:-0.560153 53:-0.604768 54:-0.355142 55:-0.518383 56:-0.512873 57:-0.682715 58:-0.281744 59:-0.452567 
-12.34575281853718 32 0:-0.759039 1:-0.339071 2:-0.286048 3:-0.235108 4:-0.0296594 5:-0.332264 6:0.189443 7:-0.298488 8:0.0547188 9:-0.152683 10:0.175269 11:-0.297297 12:-0.350579 13:0.0717273 14:0.0942138 15:0.0122284 16:-0.0637619 17:-0.0187222 18:-0.149672 19:0.00335117 20:0.0172735 21:0.0577215 22:-0.200624 23:-0.149407 24:0.30385 25:0.0708789 26:-0.192007 27:0.0159667 28:-0.216516 29:-0.204798 30:-0.562421 31:-0.406666 32:-0.233554 33:-0.514397 34:-0.39177 35:-0.2477 36:-0.697225 37:-0.435747 38:-0.697164 39:-0.142781 40:-0.266141 41:-0.188498 42:-0.39335 43:-0.416026 44:-0.618883 45:-0.446405 46:-0.392188 47:-0.438562 48:-0.352315 49:-0.730015 50:-0.407669 51:-0.443646 52:-0.623151 53:-0.557973 54:-0.711221 55:-0.430179 56:-0.629138 57:-0.444861 58:-0.371392 59:-0.337714 
-13.30045042673558 15.44912595295887 0:-0.684453 1:-0.537494 2:-0.505231 3:-0.510585 4:0.2884 5:-0.088696 6:-0.209046 7:-0.157546 8:0.0573609 9:-0.210632 10:-0.169707 11:-0.0420895 12:0.162157 13:-0.155205 14:-0.226966 15:-0.0995131 16:0.0666792 17:0.0655365 18:0.284338 19:-0.204035 20:-0.259536 21:-0.0327335 22:0.164699 23:-0.151416 24:-0.286942 25:0.355528 26:-0.257341 27:0.220415 28:0.0796811 29:-0.0907423 30:-0.556081 31:-0.553284 32:-0.44974 33:-0.317851 34:-0.460341 35:-0.105523 36:-0.463744 37:-0.204637 38:-0.469979 39:-0.191816 40:-0.426571 41:-0.654934 42:-0.634693 43:-0.529821 44:-0.583753 45:-0.376646 46:-0.376801 47:-0.430206 48:-0.671538 49:-0.756852 50:-0.493822 51:-0.405813 52:-0.5958 53:-0.493762 54:-0.612558 55:-0.675412 56:-0.591514 57:-0.512736 58:-0.392965 59:-0.470322 
-0 1.14215804476258 0:-0.648492 1:-0.455032 2:-0.549335 3:-0.314852 4:0.0367636 5:-0.203934 6:-0.260835 7:0.274496 8:-0.152842 9:0.14211 10:-0.165315 11:-0.210709 12:0.0742555 13:-0.221505 14:-0.169001 15:0.408588 16:0.0251221 17:0.220667 18:0.229103 19:-0.233304 20:0.0825485 21:-0.364309 22:-0.204965 23:-0.310679 24:0.148947 25:-0.0635507 26:-0.250917 27:0.0308203 28:-0.327916 29:-0.376757 30:-0.133962 31:-0.286493 32:-0.72989 33:-0.606411 34:-0.308492 35:-0.114895 36:-0.952962 37:-0.166103 38:-0.163732 39:-0.461426 40:-0.187032 41:-0.197187 42:-0.353016 43:-0.571385 44:-0.456546 45:-0.507276 46:-0.674179 47:-0.450623 48:-0.556933 49:-0.432959 50:-0.509608 51:-0.572548 52:-0.474458 53:-0.447139 54:-0.712476 55:-0.464119 56:-0.542383 57:-0.490181 58:-0.225677 59:-0.45442 
-7.101159738852961 32 0:-0.576832 1:-0.685726 2:-0.295955 3:-0.280474 4:0.106861 5:-0.0920958 6:-0.566143 7:0.0905973 8:0.0219157 9:0.230179 10:0.120265 11:-0.177827 12:-0.227258 13:0.285163 14:0.0477858 15:-0.189924 16:0.443723 17:-0.025263 18:0.0203063 19:-0.458031 20:0.213355 21:0.154648 22:0.187844 23:-0.21404 24:-0.0361244 25:0.191936 26:0.0707753 27:-0.197283 28:0.14431 29:-0.0663974 30:-0.586488 31:-0.462456 32:-0.0521871 33:-0.141867 34:-0.41043 35:-0.301657 36:-0.707606 37:-0.267773 38:-0.373415 39:-0.378685 40:-0.248501 41:-0.493513 42:-0.548822 43:-0.64552 44:-0.788172 45:-0.637902 46:-0.546904 47:-0.553488 48:-0.530446 49:-0.611581 50:-0.648535 51:-0.569346 52:-0.511307 53:-0.543532 54:-0.627281 55:-0.478065 56:-0.612068 57:-0.650139 58:-0.463488 59:-0.363947 
-24.55074652433625 -0 0:-0.606566 1:-0.754652 2:-0.0777951 3:0.0096198 4:0.544973 5:0.462536 6:0.61708 7:0.538801 8:0.0487954 9:0.651943 10:0.235982 11:-0.0525789 12:0.142942 13:0.956575 14:0.367043 15:0.654718 16:0.57342 17:0.824736 18:0.498826 19:0.608202 20:0.716056 21:0.13115 22:0.357466 23:0.444872 24:0.364478 25:0.563498 26:0.00852362 27:0.460294 28:0.426586 29:0.471464 30:0.50491 31:0.312168 32:0.0977282 33:0.438693 34:0.0119062 35:0.038712 36:0.0961852 37:0.0437794 38:-0.0528674 39:0.184124 40:0.0476931 41:0.0335624 42:-0.129774 43:-0.02782 44:-0.143948 45:0.00714158 46:0.0154067 47:-0.106382 48:-0.194094 49:-0.135056 50:-0.190986 51:0.00985015 52:-0.013655 53:-0.119979 54:-0.156872 55:-0.133975 56:-0.0902413 57:-0.0910666 58:0.0420955 59:0.0374061 
-23.18247018954617 -0 0:-0.415551 1:-0.593759 2:-0.598963 3:0.0426654 4:0.165294 5:0.121925 6:-0.267708 7:0.159827 8:0.217751 9:0.11497 10:0.559021 11:-0.008951 12:-0.141034 13:0.47841 14:0.327616 15:0.190161 16:0.280315 17:0.761229 18:0.542596 19:0.267601 20:0.598206 21:0.192947 22:-0.0163493 23:0.0667388 24:0.423725 25:0.339557 26:0.458863 27:-0.0378268 28:0.265556 29:0.178062 30:0.10744 31:0.0433609 32:-0.286726 33:0.118685 34:-0.0857059 35:0.0941143 36:-0.025329 37:-0.229557 38:-0.451094 39:-0.206329 40:-0.292686 41:-0.4328 42:-0.290805 43:-0.407155 44:-0.616671 45:-0.375342 46:-0.73942 47:-0.344801 48:-0.634659 49:-0.622082 50:-0.370445 51:-0.572864 52:-0.499688 53:-0.627148 54:-0.487793 55:-0.593381 56:-0.372434 57:-0.598278 58:-0.21198 59:-0.559974 
-0.7452352476860754 -0 0:0.888209 1:0.649441 2:0.562142 3:0.468978 4:0.599453 5:0.553138 6:0.640952 7:0.823536 8:0.207159 9:0.779852 10:0.704695 11:0.463131 12:1 13:0.910632 14:0.309254 15:0.985757 16:0.415309 17:0.880999 18:1 19:0.673979 20:0.761296 21:0.838312 22:0.525474 23:0.56483 24:0.953031 25:0.673582 26:-0.361455 27:0.363695 28:0.266267 29:0.203082 30:-0.130248 31:0.0999303 32:0.245531 33:-0.507605 34:0.578577 35:-0.253256 36:0.699738 37:0.241657 38:0.0506258 39:0.0116415 40:-0.259216 41:-0.116586 42:-0.743693 43:-0.561617 44:-0.382231 45:-0.60553 46:-0.614043 47:-0.223703 48:-0.344033 49:-0.433066 50:-0.687831 51:-0.130476 52:-0.558403 53:-0.423601 54:-0.677641 55:-0.498439 56:-0.790839 57:-0.38491 58:-0.52213 59:-0.36168 
-25.51947481018088 -0 0:0.566483 1:0.469825 2:0.582517 3:-0.205831 4:0.579233 5:0.553524 6:0.851677 7:0.496551 8:0.678932 9:1 10:0.821284 11:0.776051 12:0.749589 13:0.390727 14:1 15:0.725051 16:0.507903 17:0.57786 18:0.802707 19:0.440381 20:0.824107 21:0.614758 22:0.381193 23:1 24:0.620674 25:0.750494 26:0.287814 27:0.818765 28:0.782756 29:0.514056 30:0.742327 31:0.60702 32:0.300584 33:0.578824 34:0.213336 35:0.421881 36:0.159582 37:0.148696 38:0.0501103 39:0.117396 40:0.240657 41:0.126306 42:0.0217313 43:-0.0559987 44:-0.0249294 45:-0.157869 46:0.0483871 47:0.071794 48:-0.0491811 49:0.0944982 50:0.0189239 51:0.0652479 52:0.0224301 53:0.0436857 54:0.0528219 55:0.100028 56:-0.0392964 57:0.0739332 58:0.184899 59:0.12874 
-0 -6.273752698067551 0:-0.411582 1:-0.417572 2:-0.487281 3:-0.175281 4:0.321606 5:0.199098 6:0.360007 7:0.394324 8:0.282498 9:0.333798 10:0.150953 11:0.254954 12:0.317341 13:-0.103749 14:0.110361 15:0.226715 16:0.380392 17:0.0697134 18:0.590857 19:0.454145 20:0.411854 21:-0.219775 22:0.332882 23:0.68318 24:0.112961 25:0.0831786 26:0.240003 27:0.364824 28:-0.27575 29:0.258561 30:0.322446 31:-0.0525275 32:0.288158 33:0.0316588 34:-0.144945 35:-0.068199 36:-0.491655 37:-0.20016 38:-0.585244 39:-0.00014407 40:-0.32303 41:-0.576056 42:-0.585518 43:-0.397586 44:-0.612536 45:-0.511382 46:-0.502229 47:-0.657124 48:-0.432573 49:-0.393032 50:-0.231491 51:-0.389663 52:-0.427417 53:-0.39762 54:-0.567289 55:-0.389296 56:-0.491543 57:-0.402707 58:-0.301263 59:-0.343192 
-0 -16.22869774709371 0:-0.412802 1:-0.48398 2:-0.41322 3:-0.448022 4:0.288388 5:0.22797 6:0.173952 7:0.30666 8:0.282919 9:0.506133 10:-0.157538 11:0.0574872 12:0.226196 13:0.606384 14:0.303992 15:0.237761 16:0.417482 17:0.153338 18:0.355011 19:-0.154317 20:-0.0459471 21:0.0528158 22:0.134615 23:0.0723311 24:0.238056 25:-0.075699 26:0.122405 27:0.0389943 28:-0.540654 29:0.0887987 30:0.042931 31:0.0805107 32:-0.188454 33:-0.222163 34:-0.36439 35:-0.1813 36:-0.360602 37:-0.219405 38:-0.422605 39:-0.35075 40:-0.217687 41:-0.450738 42:-0.290038 43:-0.751545 44:-0.500927 45:-0.496761 46:-0.483656 47:-0.484644 48:-0.638451 49:-0.509848 50:-0.413836 51:-0.550499 52:-0.720528 53:-0.576194 54:-0.688451 55:-0.568484 56:-0.628015 57:-0.634161 58:-0.42242 59:-0.398761 
-32 -0 0:-0.00448329 1:0.275682 2:0.268436 3:0.118129 4:0.498899 5:0.47287 6:0.896096 7:1 8:0.372408 9:0.718066 10:0.428507 11:0.621548 12:-0.0696671 13:1 14:0.64395 15:0.7789 16:1 17:0.629112 18:0.93158 19:1 20:0.646954 21:0.759236 22:0.374484 23:0.697414 24:1 25:0.955546 26:0.298331 27:1 28:0.427693 29:0.570048 30:0.807055 31:0.76556 32:0.779335 33:0.327901 34:0.452138 35:0.440739 36:0.367778 37:0.259703 38:0.442052 39:0.384978 40:0.427623 41:0.473064 42:0.422852 43:0.41511 44:0.446649 45:0.50053 46:0.537252 47:0.454633 48:0.459982 49:0.452975 50:0.468318 51:0.478801 52:0.474992 53:0.441676 54:0.461672 55:0.485937 56:0.473653 57:0.479854 58:0.525799 59:0.540477 
-23.13308133402056 -0 0:-0.571426 1:-0.436513 2:-0.334348 3:-0.220203 4:0.0128152 5:0.237685 6:-0.29525 7:0.250455 8:-0.039836 9:0.538752 10:0.0785639 11:-0.16358 12:0.0940865 13:0.0706922 14:0.0720705 15:0.165247 16:0.20557 17:0.480224 18:0.119904 19:0.244662 20:0.447354 21:0.498052 22:0.083029 23:0.500712 24:-0.110975 25:0.35804 26:0.0246414 27:0.557079 28:-0.0877755 29:0.105908 30:-0.262928 31:0.0492137 32:0.0562324 33:0.0372953 34:0.18038 35:0.024915 36:-0.146787 37:-0.328695 38:-0.558964 39:-0.1077 40:-0.360083 41:-0.27126 42:-0.432216 43:-0.692801 44:-0.368535 45:-0.424294 46:-0.18198 47:-0.369348 48:-0.319239 49:-0.258971 50:-0.35419 51:-0.468201 52:-0.378807 53:-0.368822 54:-0.463313 55:-0.328782 56:-0.315438 57:-0.429016 58:-0.18731 59:-0.36577 
-3.333337042376372 -0 0:0.112874 1:0.636252 2:0.107901 3:0.0469982 4:0.58253 5:0.73463 6:0.693425 7:0.802414 8:0.630483 9:0.996542 10:0.543108 11:0.243915 12:0.435489 13:0.991248 14:0.740446 15:0.212307 16:0.357546 17:0.461382 18:-0.411391 19:0.320324 20:0.519301 21:0.483119 22:0.119075 23:0.641346 24:0.577159 25:0.737775 26:0.301571 27:0.0116723 28:0.421087 29:0.327649 30:-0.160941 31:0.407944 32:0.361832 33:-0.255362 34:0.170179 35:0.139699 36:0.254463 37:0.307218 38:0.231293 39:0.450616 40:0.30576 41:0.319908 42:0.0562823 43:0.144461 44:0.182073 45:0.17487 46:0.178127 47:0.19605 48:0.216167 49:0.183124 50:0.241651 51:0.185273 52:0.174782 53:0.271541 54:0.230539 55:0.202765 56:0.219234 57:0.252714 58:0.323929 59:0.301833 
-28.01713586891324 -0 0:-0.51771 1:-0.518487 2:-0.2627 3:-0.124602 4:-0.0464234 5:0.239202 6:0.612171 7:0.490558 8:0.54194 9:0.642492 10:0.298087 11:0.573293 12:0.550039 13:0.486943 14:0.327579 15:0.580161 16:0.29226 17:0.405715 18:0.343065 19:0.205355 20:0.481839 21:0.275003 22:0.303613 23:0.279953 24:0.446712 25:0.649373 26:0.544527 27:0.15104 28:0.0651147 29:-0.114337 30:0.546933 31:-0.024932 32:-0.0771544 33:-0.0264798 34:-0.142579 35:0.1915 36:0.318724 37:-0.0642434 38:-0.084228 39:0.159115 40:0.0413703 41:-0.121311 42:0.0131651 43:-0.220729 44:-0.438533 45:-0.388093 46:-0.323068 47:-0.246865 48:-0.386781 49:-0.334677 50:-0.212951 51:-0.366873 52:-0.311061 53:-0.288286 54:-0.433717 55:-0.226072 56:-0.422411 57:-0.358181 58:-0.216674 59:-0.228369 
-15.21064787509556 -0 0:-0.756318 1:-1 2:-0.565289 3:-0.270308 4:-0.0238296 5:0.0558052 6:0.14819 7:0.531269 8:0.204689 9:0.251393 10:-0.541613 11:-0.873244 12:0.374006 13:0.555198 14:0.185068 15:0.406732 16:0.357913 17:0.181976 18:0.604638 19:0.293849 20:0.332755 21:0.196612 22:0.08612 23:0.0218536 24:0.00657033 25:0.500044 26:0.0268884 27:0.191984 28:-0.161296 29:0.0931662 30:0.00663709 31:0.213556 32:-0.100578 33:-0.00997565 34:-0.318502 35:-0.109734 36:-0.092759 37:-0.370267 38:-0.517171 39:-0.0472091 40:-0.122348 41:-0.228532 42:-0.338445 43:-0.619201 44:-0.561266 45:-0.526344 46:-0.498989 47:-0.468264 48:-0.805987 49:-0.56496 50:-0.434489 51:-0.684717 52:-0.757033 53:-0.650513 54:-0.814976 55:-0.634584 56:-0.571618 57:-0.48211 58:-0.487696 59:-0.587013 
-10.51228609482081 -0 0:-0.68647 1:-0.446784 2:-0.566234 3:-0.254696 4:0.240654 5:0.152901 6:0.830552 7:0.351338 8:0.055764 9:0.080967 10:0.0108736 11:-0.559735 12:0.0395123 13:0.388023 14:0.0511961 15:0.0020659 16:0.0647199 17:0.320171 18:0.368477 19:0.245594 20:0.377406 21:0.142001 22:-0.182766 23:0.164455 24:-0.0684922 25:0.115682 26:-0.119823 27:-0.126946 28:0.125343 29:-0.139217 30:0.00473953 31:-0.0706214 32:0.136161 33:-0.227797 34:-0.132682 35:0.134538 36:-0.346482 37:-0.245715 38:-0.386336 39:-0.309107 40:-0.500983 41:-0.589203 42:-0.203736 43:-0.365996 44:-0.669274 45:-0.407347 46:-0.321069 47:-0.387602 48:-0.534786 49:-0.488405 50:-0.86862 51:-0.680236 52:-0.805867 53:-0.794495 54:-0.69215 55:-0.623959 56:-0.616257 57:-0.56979 58:-0.716519 59:-0.607686 
-0 -17.90375596953846 0:-0.692546 1:-0.70203 2:-0.718646 3:-0.43338 4:-0.174496 5:0.240475 6:0.426467 7:0.199705 8:0.227505 9:0.265004 10:-0.19389 11:-0.28093 12:-0.194799 13:0.0410764 14:-0.288027 15:-0.116439 16:-0.150601 17:0.278389 18:0.200692 19:0.0854256 20:0.27649 21:0.130284 22:0.0148948 23:-0.175139 24:-0.0379696 25:0.447017 26:0.291369 27:0.141361 28:-0.0193628 29:0.358337 30:0.146725 31:-0.219485 32:-0.0925399 33:-0.286686 34:-0.39285 35:-0.520679 36:-0.173783 37:-0.420348 38:-0.595586 39:-0.194546 40:-0.377959 41:-0.558443 42:-0.947791 43:-0.520226 44:-0.618787 45:-0.535045 46:-0.427703 47:-0.494813 48:-0.901649 49:-0.549639 50:-0.6857 51:-0.701232 52:-0.771973 53:-0.973296 54:-0.694075 55:-0.511411 56:-0.833325 57:-0.862302 58:-1 59:-0.747294 
-8.306101337818426 -0 0:0.803986 1:0.173193 2:0.0351329 3:-0.00476111 4:0.29868 5:0.824702 6:0.567698 7:0.500699 8:0.60491 9:0.641236 10:0.815809 11:0.0554518 12:0.47107 13:0.633625 14:0.343588 15:0.880817 16:0.0914691 17:0.912817 18:0.765243 19:0.129377 20:0.15141 21:0.034465 22:0.428619 23:0.23256 24:-0.0183379 25:0.141419 26:-0.208554 27:0.374737 28:0.581808 29:0.0625897 30:0.397306 31:0.0376181 32:0.473064 33:0.429755 34:0.227368 35:0.406334 36:0.226851 37:0.315264 38:0.183301 39:0.397586 40:0.181755 41:0.393882 42:0.348555 43:0.250548 44:0.235508 45:0.239849 46:0.308867 47:0.375188 48:0.258054 49:0.303481 50:0.315848 51:0.279392 52:0.300261 53:0.284538 54:0.278662 55:0.275814 56:0.286935 57:0.319904 58:0.396463 59:0.37193 
-7.802481407354003 -0 0:-0.260697 1:-0.640626 2:-0.311828 3:-0.130465 4:0.267652 5:0.465732 6:0.492024 7:0.422938 8:0.263986 9:0.605841 10:0.533257 11:0.108963 12:0.246688 13:0.664155 14:0.261358 15:0.722505 16:0.388237 17:0.681704 18:0.867795 19:0.709318 20:0.534243 21:-0.222389 22:0.180949 23:0.585269 24:0.486616 25:0.663578 26:0.470365 27:0.320916 28:0.340765 29:0.304955 30:0.598342 31:0.465337 32:0.144445 33:0.392341 34:0.300583 35:0.373511 36:0.391373 37:0.239698 38:-0.0414518 39:0.170124 40:0.140813 41:0.203456 42:0.190499 43:0.276397 44:0.0224827 45:0.182889 46:0.174687 47:0.212085 48:0.0976945 49:0.156856 50:0.138251 51:0.241069 52:0.143221 53:0.185227 54:0.138447 55:0.171663 56:0.151838 57:0.217055 58:0.258331 59:0.234311 
-18.84000227409722 -0 0:-0.511387 1:-0.712184 2:-0.654795 3:-0.0994302 4:0.326977 5:-0.14104 6:0.569024 7:0.374008 8:-0.116615 9:0.0625819 10:0.15277 11:0.396507 12:-0.104218 13:0.311144 14:0.500133 15:0.242517 16:0.410394 17:0.769184 18:0.51476 19:0.319319 20:0.407453 21:0.189058 22:-0.0329125 23:-0.00901552 24:0.453798 25:0.394356 26:0.437709 27:0.474605 28:0.504702 29:0.00953223 30:-0.115929 31:-0.197427 32:-0.0355843 33:-0.398111 34:-0.334404 35:-0.157804 36:0.034255 37:-0.0901325 38:-0.0665431 39:-0.16694 40:-0.618157 41:-0.092922 42:-0.277948 43:-0.153035 44:-0.21773 45:-0.239855 46:-0.149475 47:-0.19866 48:-0.247907 49:-0.149744 50:-0.375206 51:-0.203213 52:-0.145657 53:-0.29278 54:-0.193327 55:-0.184838 56:-0.267022 57:-0.211622 58:-0.0654835 59:-0.129425 
-22.57295442746833 -13.72562599499936 0:-0.591462 1:-0.612515 2:-0.301127 3:-0.048505 4:0.0862825 5:0.290332 6:0.244023 7:0.0158489 8:-0.150731 9:0.00995524 10:0.155259 11:-0.587034 12:-0.178303 13:-0.116018 14:0.0665802 15:-0.0123847 16:0.268067 17:0.237803 18:0.156745 19:-0.500138 20:-0.130192 21:-0.294978 22:-0.00369715 23:-0.301588 24:0.140817 25:0.231184 26:0.460349 27:-0.117947 28:-0.358906 29:-0.0828874 30:-0.115059 31:-0.25919 32:-0.217561 33:0.186723 34:-0.251932 35:-0.0988713 36:0.129514 37:-0.187583 38:-0.223922 39:-0.244163 40:-0.603782 41:-0.216092 42:-0.0638363 43:-0.302401 44:-0.413742 45:-0.246699 46:-0.156811 47:-0.402018 48:-0.532417 49:-0.319193 50:-0.351593 51:-0.281109 52:-0.340284 53:-0.307369 54:-0.306772 55:-0.397151 56:-0.302242 57:-0.307179 58:-0.189169 59:-0.213546 
-0 -32 0:-0.825684 1:-0.417696 2:-0.386032 3:0.0223381 4:0.119892 5:0.0345381 6:0.155896 7:-0.0517697 8:-0.295808 9:0.164733 10:0.00278853 11:-0.669016 12:-0.335842 13:0.0386464 14:0.077387 15:0.147528 16:0.1275 17:0.42203 18:0.027223 19:0.150411 20:-0.106343 21:0.162564 22:-0.340958 23:-0.366917 24:-0.000170548 25:0.0658999 26:-0.0703041 27:-0.0848012 28:-0.0356361 29:-0.00915907 30:-0.0553504 31:-0.0710803 32:-0.413052 33:-0.734607 34:-0.200864 35:-0.695264 36:-0.210007 37:-0.209711 38:-0.352687 39:-0.138638 40:-0.221818 41:-0.350454 42:-0.335588 43:-0.437621 44:-0.453048 45:-0.320768 46:-0.383058 47:-0.246073 48:-0.443885 49:-0.217433 50:-0.322823 51:-0.278016 52:-0.265641 53:-0.383353 54:-0.463496 55:-0.42124 56:-0.35654 57:-0.317717 58:-0.158646 59:-0.205232 
-5.51532140871728 -0 0:0.741242 1:0.609048 2:0.458799 3:0.335375 4:0.791555 5:0.00993925 6:0.738483 7:0.0440763 8:0.0198443 9:0.431047 10:0.49114 11:-0.0434184 12:-0.251059 13:0.779312 14:0.269002 15:0.185542 16:0.348425 17:0.453617 18:-0.106994 19:0.232641 20:0.455227 21:-0.299997 22:0.290085 23:-0.145 24:0.20944 25:0.32601 26:-0.382084 27:-0.279775 28:-0.311692 29:-0.0498121 30:0.29919 31:-0.236145 32:-0.0358207 33:-0.400337 34:0.165999 35:0.140773 36:0.186605 37:0.190857 38:0.205439 39:0.278573 40:0.158651 41:0.161987 42:-0.0239135 43:0.17109 44:0.0320935 45:0.171708 46:0.227204 47:0.220732 48:0.170256 49:0.150816 50:0.0921966 51:0.167761 52:0.185518 53:0.194698 54:0.120875 55:0.183774 56:0.198715 57:0.175809 58:0.324525 59:0.24182 
-0 -7.606529434031135 0:-0.635904 1:-0.453395 2:-0.361466 3:0.132846 4:0.289105 5:0.332134 6:0.413511 7:-0.0749457 8:0.494176 9:0.564629 10:0.0826086 11:0.0129943 12:0.315379 13:0.33713 14:0.0259258 15:-0.129277 16:0.210803 17:0.369138 18:0.235416 19:0.0626965 20:0.187361 21:0.0173276 22:-0.0730101 23:0.0383064 24:-0.0217117 25:0.104839 26:-0.157627 27:0.0724319 28:0.126013 29:-0.28393 30:-0.116609 31:0.0843246 32:-0.138923 33:-0.313533 34:-0.17136 35:-0.646828 36:-0.148306 37:-0.312604 38:-0.52904 39:-0.153991 40:-0.421629 41:-0.33462 42:-0.577978 43:-0.489343 44:-0.782851 45:-0.374521 46:-0.357419 47:-0.422734 48:-0.461314 49:-0.468264 50:-0.379818 51:-0.443898 52:-0.494058 53:-0.437007 54:-0.568897 55:-0.33761 56:-0.360475 57:-0.389382 58:-0.206895 59:-0.437415 
-15.58171347955071 -28.94061490033657 0:-0.610756 1:-0.333789 2:-0.35742 3:-0.499417 4:0.0344044 5:-0.334514 6:-0.38996 7:-0.0388811 8:0.305812 9:0.154898 10:0.138637 11:-0.865198 12:0.0290198 13:-0.0119664 14:0.177788 15:0.285081 16:0.254801 17:-0.195527 18:0.202432 19:0.225189 20:0.31871 21:0.0652089 22:-0.0815169 23:-0.165716 24:0.117771 25:0.546473 26:0.157182 27:0.0581207 28:-0.0637204 29:-0.264644 30:-0.39453 31:-0.0687134 32:-0.176819 33:0.083154 34:-0.0466353 35:-0.366504 36:-0.200361 37:-0.294355 38:-0.503744 39:-0.219032 40:-0.28238 41:-0.275979 42:-0.231715 43:-0.53754 44:-0.531668 45:-0.732326 46:-0.344866 47:-0.312889 48:-0.48339 49:-0.616775 50:-0.327852 51:-0.509742 52:-0.535019 53:-0.377187 54:-0.546231 55:-0.439807 56:-0.619522 57:-0.531444 58:-0.297748 59:-0.512759 
-0 -32 0:-0.502551 1:-0.305801 2:-0.103484 3:-0.0238622 4:0.243763 5:0.00460475 6:-0.184827 7:-0.320157 8:-0.238123 9:0.00422426 10:-0.0934409 11:-0.352292 12:-0.230996 13:-0.0702117 14:0.17205 15:-0.403853 16:0.235894 17:0.207039 18:0.293979 19:-0.197372 20:-0.250513 21:0.110805 22:-0.536799 23:-0.499966 24:0.0436939 25:0.168767 26:-0.380601 27:-0.459295 28:-0.210791 29:-0.0345497 30:-0.335555 31:-0.339852 32:-0.160953 33:-0.0670294 34:-0.801734 35:-0.155593 36:-0.0425803 37:-0.261746 38:-0.393244 39:-0.242906 40:-0.205429 41:-0.109332 42:-0.29746 43:-0.307241 44:-0.323707 45:-0.352231 46:-0.200906 47:-0.206396 48:-0.2708 49:-0.3177 50:-0.353101 51:-0.406482 52:-0.27359 53:-0.319555 54:-0.3477 55:-0.209097 56:-0.28772 57:-0.283996 58:-0.118501 59:-0.122159 
-2.522170552150925 -32 0:-0.827198 1:-0.596315 2:-0.727427 3:-0.665897 4:-0.0428167 5:-0.0170192 6:-0.108395 7:0.0266123 8:-0.281626 9:-0.372097 10:-0.226039 11:-0.635123 12:0.297489 13:-0.176438 14:-0.357001 15:-0.460203 16:-0.102334 17:0.1087 18:0.214585 19:-0.400484 20:-0.0975641 21:-0.0558128 22:-0.0374278 23:-0.173158 24:-0.0419901 25:-0.00367066 26:-0.281913 27:-0.0726839 28:0.0860961 29:-0.265054 30:-0.66318 31:-0.376888 32:-0.381422 33:-0.322351 34:-0.735526 35:-0.496965 36:-0.269727 37:-0.42968 38:-0.547608 39:-0.2759 40:-0.350961 41:-0.685515 42:-0.32937 43:-0.424281 44:-0.908471 45:-0.479531 46:-0.533982 47:-0.654232 48:-0.539617 49:-0.710717 50:-0.715359 51:-0.642173 52:-0.749655 53:-0.544548 54:-0.692604 55:-0.709961 56:-0.591416 57:-0.802206 58:-0.546838 59:-0.640657 
