svm_type c_svc
kernel_type rbf
gamma 2
nr_class 3
total_sv 559
rho 0.613158 0.879191 0.823663
label 0 1 3
nr_sv 200 239 120
SV
0.5 0 0:-0.388367 1:-0.139847 2:0.255882 3:-0.406319 4:0.375223 5:-0.298058 6:0.145463 7:-0.380574 8:-0.136965 9:0.256496 10:0.0890494 11:0.280288 12:0.188373 13:0.193685 14:-0.0837595 15:-0.0333687 16:-0.0664771 17:-0.107825 18:0.315139 19:-0.067546 20:0.183848 21:0.301032 22:0.461168 23:0.105083 24:-0.232644 25:-0.0163724 26:0.421663 27:-0.0493711 28:0.28846 29:0.220736 30:-0.435166 31:0.249632 32:-0.00669455 33:0.101388 34:0.279845 35:0.132618 36:-0.267867 37:0.106625 38:0.148695 39:0.136766 40:0.0602866 41:0.222269 42:0.159425 43:0.206959 44:0.19198 45:0.123848 46:0.135307 47:0.179887 48:0.109108 49:0.162588 50:0.213134 51:0.160155 52:0.139247 53:0.160709 54:0.15079 55:0.145926 56:0.147123 57:0.15188 58:0.118339 59:0.122068 
0.5 0.5 0:-0.366788 1:-0.0782125 2:0.148452 3:-0.614487 4:0.289579 5:0.0336665 6:0.048556 7:-0.345138 8:-0.232931 9:0.272085 10:0.178563 11:0.452721 12:0.294463 13:0.0900139 14:0.131109 15:0.108616 16:-0.347752 17:-0.117994 18:0.166678 19:-0.338826 20:0.20651 21:0.294991 22:0.471497 23:-0.210076 24:-0.161707 25:-0.390001 26:0.0492258 27:0.0725638 28:0.465097 29:0.347687 30:-0.300548 31:-0.00770119 32:-0.0701391 33:-0.0231446 34:0.206326 35:-0.0734598 36:-0.360661 37:0.005292 38:0.0582777 39:-0.00976115 40:-0.0136137 41:0.170902 42:0.123564 43:0.114272 44:0.107184 45:0.0289099 46:0.102008 47:0.090865 48:0.0594341 49:0.0612583 50:0.166319 51:0.128543 52:0.0654745 53:0.0947637 54:0.105964 55:0.067833 56:0.0748466 57:0.0562363 58:0.0495541 59:0.0687374 
0.5 0.2905357682118425 0:-0.358011 1:-0.000524981 2:0.0650197 3:-0.37996 4:0.517774 5:0.0839449 6:0.0798742 7:-0.43044 8:-0.157801 9:0.190494 10:0.0369326 11:0.259573 12:0.227263 13:-0.087901 14:-0.300181 15:0.0643933 16:0.157409 17:-0.28068 18:0.43347 19:-0.111801 20:-0.00782112 21:0.114542 22:0.499131 23:0.170784 24:-0.147777 25:0.0977375 26:0.446058 27:-0.0239801 28:0.395963 29:0.240266 30:-0.175684 31:0.0669517 32:0.140339 33:0.0879481 34:0.340073 35:0.0767534 36:-0.267555 37:0.0715309 38:0.171332 39:0.179039 40:0.181685 41:0.24643 42:0.218418 43:0.256998 44:0.222044 45:0.137617 46:0.183265 47:0.214106 48:0.163521 49:0.163105 50:0.255846 51:0.222704 52:0.17649 53:0.197662 54:0.214129 55:0.184041 56:0.173745 57:0.172365 58:0.164959 59:0.186724 
0.5 0 0:-0.369726 1:-0.0533599 2:-0.088316 3:-0.506876 4:0.452058 5:0.200558 6:0.308127 7:-0.485423 8:-0.395895 9:0.112947 10:0.0923918 11:0.307001 12:0.265258 13:-0.00448318 14:-0.0483923 15:0.101117 16:0.015201 17:-0.395829 18:0.267714 19:-0.20014 20:0.106341 21:0.0666406 22:0.499436 23:0.177156 24:-0.109148 25:-0.236567 26:0.216638 27:-0.0258561 28:0.41402 29:0.237033 30:-0.549889 31:-0.0350536 32:-0.00568744 33:0.137866 34:0.301796 35:0.10354 36:-0.254098 37:0.0906449 38:0.12481 39:0.109882 40:0.13273 41:0.226627 42:0.136854 43:0.21903 44:0.179871 45:0.0706746 46:0.164522 47:0.145349 48:0.0939636 49:0.13556 50:0.161269 51:0.167044 52:0.124326 53:0.140965 54:0.150264 55:0.118208 56:0.114829 57:0.120437 58:0.111738 59:0.122177 
0.5 0 0:-0.378653 1:-0.0592298 2:-0.0794169 3:-0.305602 4:0.473236 5:-0.19943 6:0.318658 7:-0.432223 8:-0.247465 9:-0.0524824 10:0.097342 11:0.360169 12:0.242554 13:0.184162 14:-0.134591 15:0.183982 16:0.25529 17:-0.177828 18:0.369806 19:-0.134773 20:0.188309 21:0.108439 22:0.454915 23:0.0631949 24:-0.200959 25:0.0482469 26:0.227739 27:-0.019228 28:0.36124 29:0.293822 30:-0.437721 31:-0.000353617 32:0.115687 33:0.179954 34:0.208698 35:0.0803746 36:-0.27616 37:0.073016 38:0.0818551 39:0.142295 40:0.0950896 41:0.181383 42:0.124141 43:0.190574 44:0.155764 45:0.0892669 46:0.136195 47:0.145917 48:0.127873 49:0.147724 50:0.191015 51:0.173413 52:0.112947 53:0.151371 54:0.148756 55:0.120004 56:0.13945 57:0.153868 58:0.119399 59:0.123628 
0.5 0 0:-0.387951 1:-0.0428466 2:-0.17629 3:-0.407947 4:0.247234 5:0.0563161 6:0.233279 7:-0.39984 8:-0.190176 9:0.260612 10:-0.0144836 11:0.345618 12:0.255027 13:0.107693 14:0.0228432 15:0.073456 16:0.0369318 17:-0.225415 18:0.278781 19:-0.0865998 20:0.162781 21:0.187388 22:0.608588 23:0.163767 24:-0.206089 25:-0.228926 26:0.309173 27:-0.0254466 28:0.436139 29:0.315729 30:-0.290889 31:0.131364 32:0.0419825 33:0.279061 34:0.286592 35:0.118177 36:-0.202068 37:0.0956803 38:0.153046 39:0.170642 40:0.16155 41:0.241187 42:0.178525 43:0.270133 44:0.208018 45:0.130201 46:0.164255 47:0.204324 48:0.165359 49:0.183785 50:0.216727 51:0.206184 52:0.158731 53:0.176517 54:0.191626 55:0.152064 56:0.157782 57:0.171479 58:0.162398 59:0.158547 
0.5 0 0:-0.33993 1:-0.000594602 2:0.129022 3:-0.62221 4:0.273132 5:0.0520877 6:0.250206 7:-0.520244 8:-0.34984 9:0.200861 10:-0.05703 11:0.521706 12:0.52278 13:-0.121325 14:-0.112506 15:-0.160806 16:0.275393 17:-0.257283 18:0.384627 19:-0.279249 20:0.0408596 21:0.134962 22:0.531125 23:-0.0432733 24:-0.14122 25:-0.217626 26:0.258935 27:0.0374318 28:0.386671 29:0.242005 30:-0.450446 31:0.10035 32:-0.0730227 33:0.0578498 34:0.213852 35:0.0707878 36:-0.193615 37:0.0848935 38:0.0986497 39:0.12173 40:0.0490745 41:0.19737 42:0.154964 43:0.175411 44:0.173359 45:0.102366 46:0.146395 47:0.177931 48:0.111198 49:0.138049 50:0.209598 51:0.174887 52:0.0992363 53:0.13372 54:0.164671 55:0.147347 56:0.135808 57:0.15603 58:0.114669 59:0.124791 
0.5 0 0:-0.370924 1:0.00197318 2:-0.087216 3:-0.54702 4:0.349021 5:0.0349373 6:0.00477216 7:-0.330127 8:-0.273683 9:0.104971 10:0.129981 11:0.23712 12:0.167985 13:-0.0714578 14:0.00368264 15:0.0709464 16:0.0606854 17:-0.161981 18:0.409573 19:-0.125477 20:0.144376 21:0.122995 22:0.540815 23:0.103345 24:-0.218387 25:-0.0435252 26:0.146503 27:-0.0298179 28:0.365262 29:0.33575 30:-0.387437 31:-0.0630772 32:-0.0534013 33:0.0799833 34:0.251268 35:0.09377 36:-0.337992 37:0.0476582 38:0.126698 39:0.0664647 40:0.0260727 41:0.187405 42:0.110724 43:0.214101 44:0.130833 45:0.0746948 46:0.091989 47:0.122726 48:0.0793016 49:0.116008 50:0.194817 51:0.138177 52:0.0782952 53:0.111484 54:0.125232 55:0.0905488 56:0.0958117 57:0.129885 58:0.0848536 59:0.0852619 
0.5 0 0:-0.357455 1:-0.0323836 2:-0.0905213 3:-0.369943 4:0.335929 5:-0.174292 6:0.370094 7:-0.32443 8:-0.336961 9:0.129952 10:0.149446 11:0.498403 12:0.130049 13:-0.121483 14:-0.0400235 15:0.108213 16:0.0382752 17:-0.220633 18:0.345705 19:-0.245201 20:0.291076 21:0.252148 22:0.502294 23:-0.0106563 24:-0.204322 25:-0.381378 26:0.387292 27:-0.02048 28:0.37584 29:0.348183 30:-0.325575 31:0.0747197 32:-0.0616612 33:0.23432 34:0.243834 35:0.127406 36:-0.17476 37:0.0675752 38:0.133529 39:0.100268 40:0.0747654 41:0.255236 42:0.16847 43:0.185319 44:0.193283 45:0.103683 46:0.152296 47:0.204843 48:0.138151 49:0.17535 50:0.213922 51:0.191831 52:0.141759 53:0.178823 54:0.205463 55:0.148891 56:0.147066 57:0.16168 58:0.133 59:0.159775 
0.5 0 0:-0.390564 1:-0.0472451 2:-0.108315 3:-0.594987 4:0.429803 5:-0.0520271 6:0.0981763 7:-0.46528 8:-0.240214 9:0.110784 10:0.152658 11:0.248379 12:0.136545 13:-0.0566666 14:-0.0914307 15:-0.0525396 16:0.231169 17:-0.198064 18:0.51999 19:-0.0488403 20:0.142602 21:0.180573 22:0.492582 23:0.129298 24:-0.0545844 25:-0.0529094 26:0.272794 27:-0.0491493 28:0.404289 29:0.32462 30:-0.309484 31:0.0116059 32:-0.0642667 33:0.130584 34:0.243891 35:0.0818756 36:-0.137768 37:0.0819582 38:0.14333 39:0.144834 40:0.138389 41:0.228616 42:0.16564 43:0.206104 44:0.184041 45:0.091227 46:0.144212 47:0.153601 48:0.127064 49:0.1446 50:0.200264 51:0.156477 52:0.138101 53:0.166053 54:0.169698 55:0.120227 56:0.146225 57:0.156603 58:0.149194 59:0.152761 
0.5 0 0:-0.366447 1:0.00308406 2:0.0110261 3:-0.419488 4:0.408081 5:0.10612 6:0.239525 7:-0.565749 8:-0.223997 9:0.195379 10:0.0604004 11:0.434491 12:0.314015 13:-0.193996 14:-0.0525199 15:-0.0725774 16:0.0331344 17:-0.0981251 18:0.388587 19:-0.0882701 20:0.0112753 21:0.0920106 22:0.4116 23:0.0215774 24:-0.168977 25:-0.0367273 26:0.189469 27:-0.0718735 28:0.41629 29:0.128134 30:-0.439029 31:0.0586467 32:-0.0595289 33:0.122692 34:0.192241 35:0.0760446 36:-0.28145 37:0.0641299 38:0.125836 39:0.0520635 40:0.101661 41:0.166467 42:0.120526 43:0.172988 44:0.135096 45:0.0729577 46:0.114243 47:0.118975 48:0.0814614 49:0.113679 50:0.162178 51:0.138948 52:0.094381 53:0.138501 54:0.143688 55:0.085398 56:0.0688148 57:0.120121 58:0.0911948 59:0.0936568 
0.5 0 0:-0.369808 1:0.00227262 2:0.0562756 3:-0.501889 4:0.241472 5:-0.154699 6:0.157516 7:-0.306856 8:-0.145692 9:0.0446316 10:0.203472 11:0.337382 12:0.208422 13:0.222994 14:-0.0846732 15:-0.160964 16:-0.116213 17:-0.288476 18:0.432876 19:-0.157551 20:0.189967 21:0.15878 22:0.608085 23:0.0735191 24:-0.069561 25:-0.236185 26:0.392849 27:-0.0607403 28:0.390546 29:0.23263 30:-0.333368 31:0.0654547 32:0.000431443 33:0.169931 34:0.236802 35:0.0705424 36:-0.219117 37:0.124559 38:0.112652 39:0.164575 40:0.107537 41:0.223346 42:0.184414 43:0.256348 44:0.21745 45:0.141282 46:0.168159 47:0.182987 48:0.151218 49:0.147235 50:0.231247 51:0.180442 52:0.145928 53:0.176771 54:0.18565 55:0.134416 56:0.160962 57:0.171529 58:0.135136 59:0.139564 
0.5 0 0:-0.363779 1:-0.0828081 2:0.0659565 3:-0.456806 4:0.344828 5:-0.111331 6:0.140285 7:-0.404313 8:-0.229053 9:0.106511 10:0.0646834 11:0.310763 12:0.307475 13:-0.0369394 14:-0.17147 15:-0.0408925 16:-0.0578358 17:-0.159835 18:0.40441 19:-0.199711 20:0.19047 21:0.184503 22:0.41201 23:-0.0272202 24:-0.204757 25:-0.183132 26:0.312112 27:-0.0410758 28:0.554979 29:0.349383 30:-0.395799 31:0.0435458 32:-0.00365944 33:0.0790715 34:0.235524 35:0.105587 36:-0.261154 37:0.059283 38:0.106519 39:0.17534 40:0.0722255 41:0.185246 42:0.15338 43:0.229895 44:0.154558 45:0.0879456 46:0.118613 47:0.164709 48:0.119065 49:0.143234 50:0.188859 51:0.137091 52:0.110118 53:0.135191 54:0.176716 55:0.130505 56:0.10512 57:0.114638 58:0.127923 59:0.115694 
0.5 0 0:-0.377554 1:-0.0868189 2:-0.173641 3:-0.493948 4:0.418703 5:-0.105425 6:0.180814 7:-0.281535 8:-0.178491 9:0.170454 10:0.163572 11:0.311918 12:0.172819 13:-0.0253505 14:0.00532405 15:-0.0491384 16:0.0590447 17:-0.21393 18:0.344863 19:-0.3026 20:0.162938 21:0.306148 22:0.528988 23:0.0572874 24:-0.21151 25:0.106362 26:0.401714 27:-0.0587986 28:0.370975 29:0.361406 30:-0.348884 31:0.0381512 32:0.110228 33:0.245005 34:0.286202 35:0.0817818 36:-0.276302 37:0.0885042 38:0.14686 39:0.101496 40:0.122681 41:0.246014 42:0.142022 43:0.221789 44:0.230759 45:0.118774 46:0.157376 47:0.160501 48:0.143748 49:0.160272 50:0.224797 51:0.182156 52:0.140929 53:0.153472 54:0.169964 55:0.179557 56:0.144727 57:0.153297 58:0.126307 59:0.153428 
0.5 0 0:-0.369784 1:-0.0772459 2:0.0370719 3:-0.483028 4:0.407518 5:0.0350438 6:0.200569 7:-0.403388 8:-0.331116 9:0.132103 10:0.0850128 11:0.345736 12:0.335192 13:-0.120876 14:-0.108021 15:0.122358 16:0.175568 17:-0.168862 18:0.208497 19:-0.164756 20:0.176418 21:0.127588 22:0.572056 23:-0.0546794 24:-0.173202 25:-0.109835 26:0.110858 27:-0.0543452 28:0.501918 29:0.221497 30:-0.377835 31:0.0617189 32:-0.0722494 33:0.200626 34:0.256965 35:-0.0157573 36:-0.314149 37:0.0616748 38:0.10715 39:0.0712596 40:0.0721473 41:0.215535 42:0.100348 43:0.200007 44:0.157393 45:0.08712 46:0.0918248 47:0.108843 48:0.0868215 49:0.11963 50:0.172504 51:0.152701 52:0.0957565 53:0.110599 54:0.138106 55:0.109517 56:0.105278 57:0.108736 58:0.0955774 59:0.0822978 
0.5 0 0:-0.376046 1:-0.0392833 2:0.388903 3:-0.398186 4:0.339797 5:-0.118409 6:0.286267 7:-0.462338 8:-0.277857 9:0.107925 10:0.111627 11:0.347451 12:0.158174 13:0.0683969 14:0.0883797 15:0.111802 16:-0.0251542 17:-0.105448 18:0.382078 19:-0.174308 20:0.208643 21:0.273788 22:0.427074 23:0.17882 24:-0.237091 25:-0.155812 26:0.140988 27:-0.0235412 28:0.521134 29:0.308254 30:-0.44421 31:0.0533565 32:0.0777809 33:0.200709 34:0.284736 35:0.053007 36:-0.22687 37:0.0520269 38:0.15598 39:0.142388 40:0.150385 41:0.236816 42:0.140593 43:0.172631 44:0.199157 45:0.116184 46:0.146455 47:0.17071 48:0.141569 49:0.159089 50:0.222075 51:0.193119 52:0.143505 53:0.162149 54:0.182751 55:0.163253 56:0.159959 57:0.16145 58:0.137641 59:0.148994 
0.5 0.09635678090994805 0:-0.384992 1:0.115724 2:-0.138376 3:-0.77447 4:0.272177 5:-0.123123 6:0.276101 7:-0.305532 8:-0.175788 9:0.231867 10:0.0652884 11:0.553749 12:0.187878 13:-0.0398674 14:-0.146854 15:-0.140256 16:-0.0654 17:-0.1399 18:0.355196 19:0.0145894 20:0.268923 21:0.0931635 22:0.595528 23:0.101547 24:-0.223933 25:-0.243112 26:0.0465064 27:-0.122068 28:0.355249 29:0.326918 30:-0.24632 31:0.0919167 32:0.0842539 33:0.103314 34:0.281277 35:0.033708 36:-0.210577 37:0.0615608 38:0.12356 39:0.113671 40:0.101485 41:0.186645 42:0.142209 43:0.208321 44:0.16671 45:0.0930896 46:0.113911 47:0.174189 48:0.114706 49:0.152319 50:0.186552 51:0.150096 52:0.117895 53:0.132243 54:0.165383 55:0.0994658 56:0.121136 57:0.135503 58:0.104439 59:0.106291 
0.5 0 0:-0.35589 1:-0.0202953 2:0.0711556 3:-0.384922 4:0.408643 5:-0.0911369 6:0.110343 7:-0.380096 8:-0.184354 9:0.0950318 10:0.175305 11:0.213683 12:0.164641 13:-0.0667877 14:-0.0853473 15:0.050343 16:0.147247 17:-0.136521 18:0.366983 19:-0.136976 20:0.149841 21:0.127689 22:0.520847 23:0.0672643 24:-0.142247 25:-0.379848 26:0.262324 27:-0.0147306 28:0.519168 29:0.323144 30:-0.350023 31:0.135019 32:0.0598238 33:0.117123 34:0.342718 35:0.109584 36:-0.30833 37:0.0841811 38:0.136197 39:0.153184 40:0.10921 41:0.184411 42:0.14238 43:0.189126 44:0.202244 45:0.148695 46:0.134426 47:0.179713 48:0.127979 49:0.168445 50:0.23444 51:0.17702 52:0.139702 53:0.175145 54:0.203884 55:0.134658 56:0.148392 57:0.146412 58:0.126903 59:0.139083 
0.5 0 0:-0.38209 1:-0.0541401 2:-0.054119 3:-0.450878 4:0.464262 5:0.0139257 6:0.287783 7:-0.361891 8:-0.218444 9:0.149606 10:0.245263 11:0.539853 12:0.526082 13:0.0980615 14:-0.199852 15:-0.0710605 16:0.0658788 17:-0.200495 18:0.375674 19:-0.215236 20:0.0500696 21:0.13354 22:0.487722 23:-0.0259518 24:-0.123621 25:-0.171736 26:0.353907 27:-0.0752224 28:0.300983 29:0.191177 30:-0.325418 31:-0.00104282 32:-0.00432711 33:0.134656 34:0.288811 35:0.0504334 36:-0.357479 37:0.0659971 38:0.0924856 39:0.160336 40:0.116888 41:0.21253 42:0.134039 43:0.217477 44:0.144294 45:0.117073 46:0.0930528 47:0.147937 48:0.130205 49:0.134643 50:0.18112 51:0.148282 52:0.103042 53:0.150435 54:0.104631 55:0.094504 56:0.12084 57:0.123463 58:0.109189 59:0.112243 
0.5 0 0:-0.350141 1:-0.01159 2:0.058864 3:-0.406633 4:0.265484 5:-0.113702 6:0.239549 7:-0.450415 8:-0.375929 9:0.0706494 10:0.0130363 11:0.329961 12:0.392735 13:0.0163391 14:0.0148465 15:0.106752 16:0.238579 17:-0.123998 18:0.279806 19:-0.032882 20:0.215364 21:0.168638 22:0.500831 23:-0.0468353 24:-0.0919406 25:-0.138914 26:0.304119 27:-0.0487559 28:0.368551 29:0.372867 30:-0.4259 31:-0.0197143 32:-0.0345751 33:0.190704 34:0.263423 35:0.145334 36:-0.17501 37:0.123477 38:0.174115 39:0.113452 40:0.116586 41:0.212036 42:0.194511 43:0.246945 44:0.239867 45:0.10764 46:0.18332 47:0.172668 48:0.13408 49:0.184356 50:0.254523 51:0.184241 52:0.165296 53:0.201388 54:0.190882 55:0.151161 56:0.167172 57:0.196702 58:0.15397 59:0.166746 
0.5 0.5 0:-0.381039 1:-0.129963 2:0.562013 3:-0.474032 4:0.358026 5:0.0593358 6:0.16274 7:-0.376614 8:-0.140325 9:0.192136 10:0.180622 11:0.485395 12:0.231611 13:0.0281417 14:-0.0506211 15:-0.0881551 16:0.388132 17:-0.17611 18:0.433454 19:-0.314826 20:0.192974 21:0.226569 22:0.536226 23:0.116862 24:-0.171807 25:-0.248427 26:0.287635 27:-0.00663852 28:0.409643 29:0.260873 30:-0.436051 31:-0.0290958 32:-0.0933008 33:0.206283 34:0.236338 35:-0.0234832 36:-0.250897 37:-0.00567054 38:0.0918597 39:0.122128 40:0.103997 41:0.240417 42:0.119284 43:0.176029 44:0.143135 45:0.0812628 46:0.136839 47:0.144715 48:0.109878 49:0.145631 50:0.206402 51:0.140837 52:0.110294 53:0.144854 54:0.128746 55:0.110429 56:0.116535 57:0.115278 58:0.106823 59:0.0998686 
0.5 0 0:-0.38421 1:-0.0426912 2:-0.163413 3:-0.441923 4:0.377044 5:0.0843526 6:0.24468 7:-0.302103 8:-0.246208 9:0.207158 10:0.188653 11:0.424943 12:0.500731 13:0.148108 14:-0.0489478 15:-0.00237425 16:0.0186237 17:-0.158638 18:0.37693 19:-0.196561 20:0.240921 21:0.360057 22:0.564571 23:0.127958 24:-0.283249 25:-0.318183 26:0.338988 27:0.141621 28:0.525771 29:0.289149 30:-0.317036 31:0.0294602 32:-0.0801649 33:0.140939 34:0.324934 35:0.0577992 36:-0.204806 37:0.0660533 38:0.148319 39:0.17253 40:0.108021 41:0.265353 42:0.146056 43:0.202931 44:0.147014 45:0.11325 46:0.185084 47:0.168875 48:0.152781 49:0.168539 50:0.215616 51:0.14447 52:0.139068 53:0.185281 54:0.174058 55:0.121122 56:0.141604 57:0.156674 58:0.139555 59:0.1384 
0.5 0 0:-0.358648 1:0.0269259 2:-0.116999 3:-0.448698 4:0.330468 5:0.00449128 6:0.30527 7:-0.35074 8:-0.282244 9:0.334843 10:-0.00781579 11:0.396207 12:0.293441 13:0.0180895 14:0.0301171 15:-0.0694322 16:0.123406 17:-0.23896 18:0.29784 19:-0.118137 20:0.0960962 21:0.279176 22:0.591171 23:0.119421 24:-0.168567 25:-0.147003 26:0.158219 27:-0.0809708 28:0.379289 29:0.293741 30:-0.346526 31:0.100463 32:-0.0647363 33:0.13647 34:0.302766 35:0.143961 36:-0.360126 37:0.027116 38:0.110881 39:0.127491 40:0.0987567 41:0.151025 42:0.133561 43:0.165492 44:0.153463 45:0.105774 46:0.114522 47:0.166238 48:0.0736414 49:0.130489 50:0.171498 51:0.142911 52:0.098818 53:0.144211 54:0.125288 55:0.108752 56:0.0959756 57:0.127029 58:0.0966343 59:0.124998 
0.5 0 0:-0.376725 1:0.000819356 2:0.106332 3:-0.598793 4:0.317418 5:-0.145106 6:0.257637 7:-0.465268 8:-0.24579 9:0.224276 10:0.0363077 11:0.445644 12:0.488111 13:0.203695 14:0.115125 15:0.0407897 16:0.0149073 17:-0.247884 18:0.502099 19:-0.156356 20:0.353349 21:0.130302 22:0.56887 23:0.0295254 24:-0.148606 25:0.105261 26:0.382222 27:0.0525036 28:0.554008 29:0.330063 30:-0.29107 31:0.00113637 32:0.0551967 33:0.208312 34:0.268814 35:0.196081 36:-0.233452 37:0.0629822 38:0.215805 39:0.144241 40:0.138019 41:0.265354 42:0.17723 43:0.215849 44:0.234821 45:0.142045 46:0.169674 47:0.171935 48:0.17365 49:0.196773 50:0.237914 51:0.185332 52:0.156545 53:0.187552 54:0.200928 55:0.171779 56:0.172358 57:0.160216 58:0.159062 59:0.181304 
0.5 0 0:-0.374979 1:0.00931908 2:0.0899103 3:-0.575665 4:0.375565 5:0.0147703 6:0.307531 7:-0.375785 8:-0.279102 9:0.240323 10:-0.0591033 11:0.404511 12:0.303353 13:0.128554 14:-0.11805 15:0.012272 16:0.0768384 17:-0.331585 18:0.447914 19:-0.184602 20:0.149724 21:-0.0550064 22:0.524229 23:0.138746 24:-0.147876 25:-0.223429 26:0.0700131 27:-0.0127303 28:0.444022 29:0.315816 30:-0.502958 31:0.00091348 32:-0.100542 33:0.171484 34:0.255326 35:0.104449 36:-0.226845 37:0.0662642 38:0.118316 39:0.138657 40:0.107995 41:0.201634 42:0.131979 43:0.184742 44:0.151258 45:0.0663581 46:0.100556 47:0.162706 48:0.10607 49:0.136951 50:0.17833 51:0.170265 52:0.106447 53:0.143945 54:0.150831 55:0.111407 56:0.132387 57:0.130252 58:0.110705 59:0.111076 
0.5 0 0:-0.378381 1:-0.0957201 2:0.293299 3:-0.523765 4:0.294842 5:-0.0845063 6:0.396834 7:-0.390533 8:-0.137874 9:0.00402495 10:0.0529573 11:0.32414 12:0.324025 13:-0.0863237 14:-0.0764845 15:0.0516478 16:0.058967 17:-0.209647 18:0.412091 19:-0.143791 20:0.144305 21:0.22957 22:0.48376 23:0.178995 24:-0.125437 25:-0.26389 26:0.256361 27:0.0780063 28:0.440313 29:0.376966 30:-0.3856 31:0.071726 32:0.166472 33:0.103426 34:0.314946 35:-0.000838574 36:-0.188474 37:0.09855 38:0.154563 39:0.146874 40:0.150986 41:0.261527 42:0.177993 43:0.218178 44:0.181649 45:0.104523 46:0.146308 47:0.174393 48:0.114807 49:0.139286 50:0.212649 51:0.17296 52:0.121063 53:0.14921 54:0.182336 55:0.118943 56:0.145555 57:0.147963 58:0.10893 59:0.14639 
0.5 0 0:-0.387691 1:0.000979978 2:0.027935 3:-0.404705 4:0.130235 5:-0.0287772 6:0.232137 7:-0.504521 8:-0.35098 9:0.0808903 10:0.0569632 11:0.423841 12:0.395608 13:0.177511 14:-0.223736 15:0.0481615 16:-0.183309 17:-0.167952 18:0.407604 19:-0.0133217 20:0.157651 21:0.131374 22:0.62891 23:0.06602 24:-0.172139 25:-0.219014 26:0.0780396 27:0.0297249 28:0.328341 29:0.280693 30:-0.329391 31:0.126264 32:0.0331902 33:0.241251 34:0.257502 35:0.156657 36:-0.237208 37:0.0435494 38:0.133126 39:0.111147 40:0.110075 41:0.191781 42:0.147735 43:0.190379 44:0.185915 45:0.0874376 46:0.126426 47:0.172325 48:0.106897 49:0.147569 50:0.219703 51:0.172832 52:0.122585 53:0.140437 54:0.161867 55:0.135861 56:0.128822 57:0.140194 58:0.136114 59:0.129502 
0.5 0 0:-0.360664 1:-0.0335181 2:0.131507 3:-0.471323 4:0.325846 5:-0.242506 6:0.290047 7:-0.457573 8:-0.276621 9:0.239437 10:-0.00955564 11:0.314266 12:0.234612 13:0.124505 14:-0.14745 15:-0.13541 16:0.277706 17:-0.247296 18:0.352765 19:-0.152082 20:0.0676831 21:0.149864 22:0.539831 23:0.0652372 24:-0.21747 25:-0.110411 26:0.0539654 27:-0.0479152 28:0.420498 29:0.29185 30:-0.194628 31:-0.0697671 32:-0.00844575 33:0.084027 34:0.261415 35:-0.0943473 36:-0.251685 37:0.105916 38:0.116488 39:0.176991 40:0.081174 41:0.21692 42:0.187434 43:0.214479 44:0.197697 45:0.120666 46:0.124242 47:0.168515 48:0.102491 49:0.150202 50:0.203118 51:0.198886 52:0.150725 53:0.182591 54:0.177388 55:0.140917 56:0.148942 57:0.165635 58:0.113791 59:0.120438 
0.5 0 0:-0.357976 1:-0.0669088 2:-0.0948982 3:-0.456418 4:0.232199 5:-0.0731616 6:0.176421 7:-0.395913 8:-0.27211 9:0.138432 10:0.0990935 11:0.419107 12:0.250897 13:0.0808017 14:-0.130367 15:-0.153795 16:0.0942638 17:-0.292394 18:0.563342 19:-0.272793 20:0.184072 21:0.29582 22:0.478192 23:0.110973 24:-0.118663 25:-0.299437 26:0.107114 27:-0.0860703 28:0.410075 29:0.264711 30:-0.384054 31:0.0519515 32:0.00236982 33:0.101792 34:0.206813 35:0.0294185 36:-0.225263 37:0.0651306 38:0.118681 39:0.0846428 40:0.106073 41:0.202378 42:0.140422 43:0.225727 44:0.169831 45:0.127718 46:0.138383 47:0.153656 48:0.127191 49:0.152132 50:0.18491 51:0.142257 52:0.144045 53:0.14932 54:0.156062 55:0.131475 56:0.119302 57:0.156371 58:0.116376 59:0.119911 
0.5 0 0:-0.358789 1:-0.0263053 2:0.143489 3:-0.545188 4:0.276403 5:-0.21696 6:0.319129 7:-0.499556 8:-0.265278 9:0.26516 10:0.0562173 11:0.323066 12:0.405244 13:0.102175 14:0.00673036 15:0.0290074 16:0.104667 17:-0.0653774 18:0.314437 19:-0.207504 20:0.314436 21:0.218316 22:0.508717 23:0.0953582 24:-0.265277 25:-0.141764 26:0.157615 27:0.0367669 28:0.389135 29:0.259445 30:-0.362527 31:0.0657606 32:-0.0104884 33:0.0943068 34:0.281508 35:0.068986 36:-0.216782 37:0.0880597 38:0.113409 39:0.147786 40:0.0663755 41:0.195927 42:0.163411 43:0.190552 44:0.180602 45:0.0962433 46:0.158762 47:0.157585 48:0.142799 49:0.161784 50:0.209593 51:0.178598 52:0.126195 53:0.166333 54:0.156898 55:0.103427 56:0.131551 57:0.156759 58:0.141278 59:0.144371 
0.5 0 0:-0.363104 1:-0.106077 2:0.0444942 3:-0.494229 4:0.287534 5:-0.183172 6:0.287695 7:-0.377002 8:-0.177367 9:0.0971118 10:-0.0310136 11:0.443576 12:0.39449 13:-0.193789 14:-0.0244877 15:0.0463523 16:0.107335 17:-0.258156 18:0.523097 19:-0.167905 20:0.229204 21:0.155108 22:0.582829 23:0.164253 24:-0.268031 25:0.013345 26:0.211598 27:-0.0834633 28:0.447887 29:0.287684 30:-0.377144 31:-0.0203161 32:-0.0276513 33:0.0641499 34:0.240226 35:0.0836603 36:-0.262906 37:0.099126 38:0.107224 39:0.117681 40:0.0847816 41:0.241679 42:0.152438 43:0.204863 44:0.202177 45:0.0977473 46:0.139053 47:0.170813 48:0.143515 49:0.165097 50:0.212056 51:0.169359 52:0.128137 53:0.14106 54:0.15044 55:0.139171 56:0.121196 57:0.167843 58:0.115002 59:0.128124 
0.5 0 0:-0.373399 1:-0.0184283 2:-0.295566 3:-0.429705 4:0.279838 5:-0.0118827 6:0.306238 7:-0.409734 8:-0.364682 9:0.36368 10:0.239047 11:0.376131 12:0.184119 13:-0.0794292 14:-0.0435983 15:0.126163 16:0.0916711 17:-0.248679 18:0.411676 19:-0.0927246 20:0.104236 21:0.197565 22:0.589108 23:0.0983498 24:-0.0970141 25:-0.115822 26:0.0116964 27:-0.0974561 28:0.348374 29:0.289069 30:-0.385355 31:-0.0703439 32:-0.0458566 33:0.104739 34:0.240255 35:0.0167627 36:-0.220254 37:0.0786961 38:0.13802 39:0.102967 40:0.0741348 41:0.227004 42:0.181024 43:0.176921 44:0.1772 45:0.0961027 46:0.126743 47:0.130108 48:0.101606 49:0.15383 50:0.200966 51:0.144509 52:0.111757 53:0.141693 54:0.152291 55:0.121728 56:0.121979 57:0.174149 58:0.125673 59:0.118072 
0.5 0 0:-0.365373 1:-0.109928 2:-0.0824475 3:-0.313024 4:0.504178 5:-0.0297114 6:0.164078 7:-0.519662 8:-0.153134 9:0.262559 10:0.0720562 11:0.19387 12:0.182494 13:-0.145151 14:-0.0400457 15:-0.129773 16:0.162171 17:-0.181684 18:0.350451 19:-0.0348374 20:0.271401 21:0.0901289 22:0.434098 23:0.140681 24:-0.140119 25:-0.175709 26:0.117567 27:0.0206124 28:0.297001 29:0.244239 30:-0.439618 31:0.0198142 32:0.122494 33:0.0926921 34:0.366494 35:0.109348 36:-0.321995 37:0.103063 38:0.107287 39:0.0972997 40:0.0559255 41:0.279793 42:0.172315 43:0.261205 44:0.197645 45:0.121757 46:0.125667 47:0.147918 48:0.129567 49:0.157428 50:0.224347 51:0.176525 52:0.153167 53:0.178374 54:0.179822 55:0.158903 56:0.150649 57:0.154272 58:0.135647 59:0.14778 
0.5 0 0:-0.365999 1:-0.0737244 2:0.1837 3:-0.457125 4:0.244296 5:-0.145075 6:0.245239 7:-0.411324 8:-0.296735 9:0.0767014 10:-0.0446419 11:0.338807 12:0.261455 13:0.0456446 14:-0.0198793 15:-0.160646 16:0.16498 17:-0.133915 18:0.291557 19:-0.106461 20:0.122327 21:0.22031 22:0.532094 23:-0.0123687 24:-0.237592 25:-0.234947 26:0.0281432 27:-0.0333823 28:0.476476 29:0.292688 30:-0.360558 31:-0.0753729 32:-0.0496748 33:0.105161 34:0.246173 35:-0.161185 36:-0.327118 37:0.0126234 38:0.0957634 39:0.0809357 40:0.0420384 41:0.153619 42:0.0732445 43:0.132183 44:0.133369 45:0.0741725 46:0.050082 47:0.10767 48:0.0592631 49:0.0842365 50:0.143951 51:0.0969422 52:0.0580687 53:0.112135 54:0.102556 55:0.0649995 56:0.0722156 57:0.0687043 58:0.0689004 59:0.061727 
0.5 0 0:-0.367034 1:0.0139923 2:0.0136403 3:-0.421932 4:0.313184 5:0.105775 6:0.287282 7:-0.464221 8:-0.199935 9:0.159348 10:0.145927 11:0.253355 12:0.386509 13:0.00921759 14:0.0131602 15:-0.00269092 16:-0.0432965 17:-0.18057 18:0.514313 19:-0.210283 20:0.281906 21:0.310902 22:0.462025 23:0.0388429 24:-0.0286609 25:-0.0525903 26:0.244697 27:-0.0523949 28:0.4787 29:0.352741 30:-0.241803 31:0.23412 32:0.104966 33:0.166901 34:0.321983 35:0.141395 36:-0.1974 37:0.0797748 38:0.161894 39:0.172958 40:0.131136 41:0.235355 42:0.157426 43:0.18562 44:0.20858 45:0.119324 46:0.153155 47:0.156852 48:0.148829 49:0.147154 50:0.236447 51:0.197368 52:0.141083 53:0.174253 54:0.186581 55:0.138815 56:0.142486 57:0.169442 58:0.129478 59:0.168991 
0.5 0 0:-0.364993 1:-0.0276442 2:0.237398 3:-0.422543 4:0.45879 5:-0.125092 6:0.306015 7:-0.443148 8:-0.128588 9:0.180581 10:0.193755 11:0.213869 12:0.206464 13:0.0475231 14:0.00887479 15:-0.096569 16:0.133669 17:-0.215125 18:0.352436 19:-0.205884 20:0.1932 21:0.110063 22:0.526682 23:0.145711 24:-0.219793 25:-0.361378 26:0.159168 27:0.0595973 28:0.413972 29:0.27085 30:-0.203647 31:0.0438386 32:-0.085899 33:0.0840527 34:0.248548 35:0.0991786 36:-0.250908 37:0.0881403 38:0.138336 39:0.139298 40:0.0814788 41:0.221099 42:0.159774 43:0.229333 44:0.170391 45:0.0769241 46:0.142804 47:0.17464 48:0.131918 49:0.151166 50:0.197883 51:0.16831 52:0.136052 53:0.153645 54:0.1755 55:0.124851 56:0.128991 57:0.146729 58:0.141695 59:0.145759 
0.5 0 0:-0.369886 1:-0.129538 2:0.198413 3:-0.486031 4:0.209275 5:0.0661295 6:0.21087 7:-0.38487 8:-0.393212 9:0.3734 10:0.093199 11:0.566126 12:0.322495 13:0.0515234 14:0.0210123 15:-0.00464425 16:0.231446 17:-0.266481 18:0.515252 19:-0.145043 20:0.217161 21:0.228568 22:0.621393 23:0.115116 24:-0.156971 25:-0.0405359 26:0.353021 27:0.0277876 28:0.404171 29:0.340337 30:-0.41401 31:0.0518317 32:-0.0224349 33:0.198615 34:0.30453 35:0.0640844 36:-0.259292 37:0.110689 38:0.129081 39:0.105314 40:0.105541 41:0.23819 42:0.157393 43:0.245804 44:0.189269 45:0.121552 46:0.144997 47:0.192662 48:0.120693 49:0.139903 50:0.187472 51:0.173066 52:0.139132 53:0.16979 54:0.176365 55:0.1323 56:0.147251 57:0.162574 58:0.138397 59:0.134612 
0.5 0 0:-0.369014 1:-0.0830771 2:0.0934552 3:-0.492883 4:0.301173 5:-0.0258345 6:0.342479 7:-0.394656 8:-0.279395 9:0.191529 10:0.0164441 11:0.280988 12:0.326542 13:0.209698 14:-0.0992114 15:0.177102 16:0.194106 17:-0.190879 18:0.441353 19:-0.127071 20:0.163974 21:0.138674 22:0.508297 23:-0.0529419 24:-0.191567 25:-0.38806 26:0.328677 27:-0.0317286 28:0.395305 29:0.23927 30:-0.443331 31:0.0350386 32:-0.104954 33:0.163888 34:0.297639 35:0.0288821 36:-0.363408 37:0.0939909 38:0.098625 39:0.0729998 40:0.115193 41:0.206577 42:0.120799 43:0.160073 44:0.174333 45:0.113639 46:0.129362 47:0.192997 48:0.12154 49:0.146919 50:0.200387 51:0.146727 52:0.13306 53:0.163144 54:0.158588 55:0.131255 56:0.125886 57:0.141682 58:0.113331 59:0.110981 
0.5 0.2487523156133604 0:-0.378127 1:-0.0811325 2:0.0621527 3:-0.559168 4:0.330025 5:0.025415 6:0.383334 7:-0.293583 8:-0.197716 9:-0.0351079 10:0.109703 11:0.191925 12:0.406819 13:-0.101427 14:-0.135291 15:-0.180113 16:0.143333 17:-0.101199 18:0.392389 19:-0.087752 20:0.232964 21:-0.0138637 22:0.485433 23:0.0732235 24:-0.29337 25:-0.281842 26:0.349833 27:-0.00161081 28:0.545417 29:0.3133 30:-0.181693 31:0.0659606 32:0.0487424 33:0.0354034 34:0.314606 35:0.0934729 36:-0.19041 37:0.11352 38:0.237047 39:0.136816 40:0.142487 41:0.265737 42:0.202011 43:0.212353 44:0.212983 45:0.133784 46:0.171077 47:0.19346 48:0.140277 49:0.178057 50:0.237167 51:0.185541 52:0.155998 53:0.181223 54:0.170606 55:0.17137 56:0.164256 57:0.160618 58:0.151954 59:0.155958 
0.5 0 0:-0.359386 1:-0.0487075 2:0.159119 3:-0.50604 4:0.577176 5:-0.0917967 6:0.270964 7:-0.302369 8:-0.333844 9:0.232556 10:-0.0309381 11:0.187465 12:0.219583 13:0.205104 14:-0.218721 15:-0.0525114 16:0.181998 17:-0.302714 18:0.378647 19:-0.161592 20:0.313814 21:0.116511 22:0.491398 23:0.179396 24:-0.24693 25:-0.0771642 26:0.0662199 27:-0.0966229 28:0.490273 29:0.164146 30:-0.469561 31:-0.0894471 32:-0.0249776 33:0.0237114 34:0.200962 35:-0.0423563 36:-0.349058 37:0.0298821 38:0.118854 39:0.0900103 40:0.0809095 41:0.179376 42:0.135266 43:0.128804 44:0.13028 45:0.0941906 46:0.0914189 47:0.13669 48:0.101399 49:0.118353 50:0.17519 51:0.134139 52:0.084936 53:0.129686 54:0.137589 55:0.108775 56:0.0926127 57:0.131587 58:0.0880304 59:0.109897 
0.5 0.4495500510494606 0:-0.372668 1:0.0732146 2:-0.131212 3:-0.297857 4:0.387859 5:0.00893124 6:0.332525 7:-0.30837 8:-0.219852 9:0.0414526 10:0.128392 11:0.267303 12:0.248763 13:-0.0356745 14:-0.151822 15:0.170239 16:0.0781806 17:-0.199901 18:0.458872 19:-0.0376929 20:0.266367 21:0.217752 22:0.56631 23:0.126983 24:-0.15432 25:-0.191206 26:0.199139 27:0.0925181 28:0.4371 29:0.457143 30:-0.249488 31:0.24345 32:0.0259368 33:0.227246 34:0.350655 35:0.180489 36:-0.233414 37:0.137649 38:0.201647 39:0.246572 40:0.166716 41:0.322516 42:0.176422 43:0.316921 44:0.260521 45:0.176942 46:0.211792 47:0.237114 48:0.215524 49:0.230755 50:0.283974 51:0.265636 52:0.20735 53:0.24618 54:0.22962 55:0.232513 56:0.18421 57:0.219247 58:0.210242 59:0.216279 
0.5 0 0:-0.35251 1:-0.0542986 2:-0.176586 3:-0.534364 4:0.299853 5:-0.135104 6:0.243155 7:-0.469123 8:-0.137542 9:0.339079 10:0.0737632 11:0.35502 12:0.315461 13:-0.108634 14:0.0564726 15:-0.223348 16:0.139141 17:-0.209981 18:0.358685 19:-0.233037 20:0.101757 21:0.147319 22:0.542371 23:0.0307212 24:-0.164928 25:-0.15186 26:0.232246 27:-0.0352795 28:0.388467 29:0.339225 30:-0.557819 31:0.0407009 32:0.0412945 33:0.115281 34:0.241148 35:0.0766802 36:-0.289116 37:0.0752775 38:0.114919 39:0.147364 40:0.106325 41:0.188504 42:0.150911 43:0.199243 44:0.171175 45:0.0828269 46:0.086018 47:0.108893 48:0.118608 49:0.152391 50:0.188857 51:0.164649 52:0.112294 53:0.146892 54:0.15847 55:0.117231 56:0.117853 57:0.133928 58:0.115555 59:0.110191 
0.5 0 0:-0.363609 1:0.0480833 2:-0.148121 3:-0.553892 4:0.408446 5:-0.0983754 6:0.104642 7:-0.347886 8:-0.23054 9:0.140577 10:0.0307979 11:0.414515 12:0.11339 13:0.142048 14:-0.0846173 15:-0.00939276 16:0.151918 17:-0.363047 18:0.416685 19:-0.208606 20:0.115337 21:0.163273 22:0.523105 23:0.0748742 24:-0.16309 25:-0.0285754 26:0.324419 27:-0.0808743 28:0.517049 29:0.309555 30:-0.278566 31:0.0546255 32:0.15662 33:0.10445 34:0.25583 35:0.0601449 36:-0.288415 37:0.12235 38:0.122739 39:0.0866834 40:0.0984501 41:0.205374 42:0.14139 43:0.15243 44:0.159722 45:0.103389 46:0.118958 47:0.150328 48:0.0912498 49:0.153034 50:0.207973 51:0.149053 52:0.115496 53:0.14487 54:0.167811 55:0.119486 56:0.127159 57:0.130609 58:0.138666 59:0.131224 
0.5 0 0:-0.365883 1:-0.0233746 2:0.0155019 3:-0.507363 4:0.423662 5:0.170994 6:0.190619 7:-0.538053 8:-0.22819 9:0.17152 10:0.160792 11:0.454032 12:0.253316 13:0.225175 14:-0.0830732 15:0.046487 16:0.137964 17:-0.246987 18:0.331725 19:-0.142757 20:0.282394 21:0.217947 22:0.506316 23:-0.0130711 24:-0.0737884 25:-0.283963 26:0.151349 27:-0.0729626 28:0.189853 29:0.216508 30:-0.391918 31:0.0105 32:0.130035 33:0.161838 34:0.26514 35:-0.0127141 36:-0.339339 37:0.0476807 38:0.163042 39:0.0846063 40:0.0792451 41:0.202743 42:0.160727 43:0.209181 44:0.136752 45:0.0583515 46:0.0845634 47:0.117193 48:0.0903296 49:0.103632 50:0.166373 51:0.130764 52:0.109978 53:0.126997 54:0.137522 55:0.112358 56:0.0959863 57:0.121688 58:0.0937229 59:0.0984891 
0.5 0 0:-0.376549 1:-0.0318665 2:0.0142377 3:-0.433856 4:0.364921 5:0.0199357 6:0.212092 7:-0.418866 8:-0.180101 9:0.0310858 10:0.0929618 11:0.350701 12:0.358007 13:0.146447 14:-0.105416 15:-0.022569 16:0.228338 17:-0.213763 18:0.446617 19:-0.00371337 20:0.240289 21:0.190456 22:0.517463 23:0.261611 24:-0.168709 25:-0.0281112 26:0.430313 27:0.034717 28:0.453305 29:0.300696 30:-0.358197 31:-0.00380804 32:0.0330698 33:0.123885 34:0.400607 35:0.0810078 36:-0.254765 37:0.12675 38:0.168258 39:0.115217 40:0.126505 41:0.232456 42:0.210193 43:0.211539 44:0.204809 45:0.143674 46:0.145692 47:0.177681 48:0.154151 49:0.215745 50:0.252405 51:0.238216 52:0.162355 53:0.198772 54:0.211163 55:0.186483 56:0.193204 57:0.175952 58:0.157702 59:0.191049 
0.5 0 0:-0.342918 1:-0.051501 2:-0.163789 3:-0.491945 4:0.212426 5:-0.0761355 6:0.163457 7:-0.470634 8:-0.366217 9:0.000796091 10:0.0116132 11:0.206585 12:0.347874 13:0.120469 14:-0.153141 15:0.0519794 16:-0.0220057 17:-0.12119 18:0.389627 19:0.0369632 20:0.226012 21:0.217363 22:0.557776 23:0.173637 24:-0.146461 25:-0.303151 26:0.385198 27:-0.10048 28:0.302611 29:0.182265 30:-0.438845 31:-0.014613 32:0.0698478 33:0.165983 34:0.280455 35:0.101057 36:-0.27971 37:0.0616147 38:0.140694 39:0.100049 40:0.140651 41:0.232669 42:0.119662 43:0.187741 44:0.178196 45:0.0877002 46:0.131361 47:0.149356 48:0.102372 49:0.157948 50:0.18061 51:0.173184 52:0.106319 53:0.14165 54:0.138383 55:0.119104 56:0.120926 57:0.142541 58:0.121973 59:0.138705 
0.5 0 0:-0.366857 1:-0.0192357 2:-0.185143 3:-0.594934 4:0.260233 5:-0.0399475 6:0.291372 7:-0.417379 8:-0.248701 9:0.149837 10:0.0876677 11:0.43127 12:0.203226 13:0.039695 14:-0.0677418 15:0.0398171 16:0.111171 17:-0.148801 18:0.409097 19:-0.0467971 20:0.129974 21:0.185594 22:0.468396 23:0.0660682 24:-0.154159 25:-0.298461 26:0.304011 27:-0.104344 28:0.476811 29:0.373853 30:-0.471051 31:0.0714737 32:-0.0299325 33:0.231046 34:0.320219 35:0.0302199 36:-0.272383 37:0.08094 38:0.0981566 39:0.163368 40:0.150797 41:0.24862 42:0.203795 43:0.210557 44:0.198781 45:0.0957843 46:0.12401 47:0.160891 48:0.1406 49:0.151522 50:0.190282 51:0.1921 52:0.158504 53:0.163673 54:0.188161 55:0.145435 56:0.154304 57:0.160461 58:0.122821 59:0.150672 
0.5 0.1840733296377423 0:-0.376706 1:-0.0969742 2:-0.412012 3:-0.446294 4:0.292472 5:-0.0809943 6:0.0991702 7:-0.321849 8:-0.209404 9:0.00886558 10:0.205339 11:0.537633 12:0.284324 13:-0.142233 14:-0.065555 15:0.0200382 16:0.261592 17:-0.240268 18:0.294538 19:0.0224356 20:0.224604 21:0.170201 22:0.471373 23:0.0714003 24:-0.230907 25:-0.0844022 26:-0.0285345 27:0.0322113 28:0.370542 29:0.288011 30:-0.232936 31:0.0845112 32:0.0184233 33:0.0755858 34:0.228586 35:0.107039 36:-0.224794 37:0.0378267 38:0.120415 39:0.0729362 40:0.0968011 41:0.18816 42:0.152994 43:0.180486 44:0.149091 45:0.0665253 46:0.111358 47:0.126443 48:0.11066 49:0.117706 50:0.192272 51:0.151393 52:0.116971 53:0.12603 54:0.168814 55:0.116312 56:0.106191 57:0.117275 58:0.0958184 59:0.11665 
0.5 0 0:-0.365297 1:-0.016194 2:-0.0769788 3:-0.415657 4:0.183095 5:-0.0565363 6:0.0992357 7:-0.346176 8:-0.252704 9:0.324814 10:0.0599956 11:0.203199 12:0.10953 13:0.0752772 14:-0.222626 15:0.0696814 16:0.337889 17:-0.30243 18:0.410285 19:-0.230076 20:0.119811 21:0.0807006 22:0.586706 23:0.00100939 24:-0.170743 25:-0.245615 26:0.236427 27:-0.00307545 28:0.419439 29:0.271614 30:-0.34111 31:0.129633 32:0.0684391 33:0.0935651 34:0.143644 35:0.240447 36:-0.265498 37:0.110866 38:0.149316 39:0.130002 40:0.0954444 41:0.178554 42:0.148476 43:0.183784 44:0.172009 45:0.0925537 46:0.131585 47:0.146667 48:0.128609 49:0.119118 50:0.202502 51:0.168206 52:0.120145 53:0.156728 54:0.163151 55:0.117919 56:0.113834 57:0.131304 58:0.103616 59:0.136451 
0.5 0 0:-0.344994 1:0.0085342 2:0.0381513 3:-0.474017 4:0.24519 5:-0.106317 6:0.335759 7:-0.421579 8:-0.206125 9:-0.0930773 10:0.192516 11:0.409517 12:0.227926 13:0.133347 14:0.0100971 15:-0.0182811 16:0.223339 17:-0.361696 18:0.585412 19:-0.266793 20:0.276225 21:0.263477 22:0.460773 23:0.252333 24:-0.250035 25:-0.137392 26:0.246639 27:-0.0502717 28:0.505873 29:0.195309 30:-0.408428 31:0.0660732 32:0.00209494 33:0.111078 34:0.309063 35:-0.0495456 36:-0.238699 37:0.0706118 38:0.0890778 39:0.0847269 40:0.0957712 41:0.210456 42:0.133286 43:0.184271 44:0.172771 45:0.114027 46:0.121924 47:0.163695 48:0.126125 49:0.145429 50:0.192648 51:0.183761 52:0.133935 53:0.154142 54:0.160336 55:0.136054 56:0.137031 57:0.143513 58:0.131328 59:0.131953 
0.5 0 0:-0.37263 1:-0.0218933 2:-0.0106641 3:-0.45847 4:0.357451 5:-0.156234 6:0.325123 7:-0.405176 8:-0.147728 9:0.235542 10:-0.12606 11:0.313081 12:0.334112 13:-0.059961 14:-0.0952797 15:0.0552665 16:0.146102 17:-0.0892395 18:0.441048 19:-0.0992123 20:0.16577 21:0.189877 22:0.488262 23:0.00904699 24:-0.0844987 25:-0.366299 26:0.183725 27:-0.0926992 28:0.286461 29:0.281424 30:-0.443612 31:-0.0199247 32:0.0695643 33:0.15964 34:0.21998 35:0.13106 36:-0.292937 37:0.0594143 38:0.191592 39:0.126999 40:0.0927911 41:0.236486 42:0.182677 43:0.230572 44:0.16784 45:0.109653 46:0.153452 47:0.161626 48:0.130355 49:0.150913 50:0.200875 51:0.174026 52:0.136703 53:0.179491 54:0.193894 55:0.13445 56:0.145679 57:0.15391 58:0.128991 59:0.140544 
0.5 0.1164474024700223 0:-0.3648 1:-0.0765594 2:0.0245162 3:-0.600034 4:0.258268 5:-0.0771637 6:0.23705 7:-0.344279 8:-0.20551 9:0.393734 10:-0.0994736 11:0.53558 12:0.250157 13:0.240441 14:0.0100258 15:-0.262939 16:-0.0859082 17:-0.233457 18:0.525774 19:-0.163377 20:0.259519 21:0.131114 22:0.595559 23:0.0592351 24:-0.0479935 25:0.0204118 26:0.248094 27:0.111466 28:0.314744 29:0.318304 30:-0.412146 31:0.0273352 32:-0.117237 33:0.114924 34:0.284408 35:-0.035317 36:-0.255946 37:0.00841544 38:0.122209 39:0.0751868 40:0.0877494 41:0.252656 42:0.137302 43:0.243687 44:0.150886 45:0.057858 46:0.1071 47:0.130961 48:0.0851927 49:0.121917 50:0.173124 51:0.160452 52:0.0998517 53:0.151274 54:0.162159 55:0.0908157 56:0.116911 57:0.129443 58:0.112732 59:0.092098 
0.5 0 0:-0.368829 1:-0.0122341 2:0.03713 3:-0.357109 4:0.201878 5:-0.0447821 6:0.250111 7:-0.425754 8:-0.275146 9:0.33059 10:0.116795 11:0.235354 12:0.339463 13:0.0362114 14:-0.186782 15:0.150508 16:0.137311 17:-0.337422 18:0.416271 19:-0.132933 20:0.374962 21:0.250312 22:0.488439 23:0.0346029 24:-0.116751 25:-0.431363 26:0.263733 27:0.0426005 28:0.454116 29:0.329646 30:-0.285965 31:0.0388091 32:0.0115153 33:0.0995547 34:0.306299 35:0.102456 36:-0.318346 37:0.0486907 38:0.188705 39:0.17968 40:0.140154 41:0.223769 42:0.137547 43:0.282732 44:0.199948 45:0.133611 46:0.18487 47:0.177655 48:0.157056 49:0.18852 50:0.222124 51:0.190215 52:0.127462 53:0.17265 54:0.211531 55:0.160182 56:0.161249 57:0.181757 58:0.14127 59:0.167147 
0.5 0 0:-0.367479 1:-0.109861 2:-0.0799998 3:-0.526402 4:0.297537 5:-0.219324 6:0.315812 7:-0.415438 8:-0.206912 9:0.160488 10:0.111029 11:0.501926 12:0.452712 13:0.0344948 14:0.0252407 15:-0.0793033 16:-0.115649 17:-0.315564 18:0.422552 19:-0.138072 20:0.222217 21:0.315768 22:0.342818 23:0.083249 24:-0.190199 25:-0.256312 26:0.18262 27:0.00854389 28:0.548469 29:0.362066 30:-0.367232 31:0.0288342 32:-0.00746213 33:0.104847 34:0.242528 35:0.080318 36:-0.23043 37:0.0271969 38:0.106949 39:0.0921388 40:0.0794955 41:0.189713 42:0.160154 43:0.151242 44:0.14921 45:0.0782297 46:0.0953338 47:0.126121 48:0.0882537 49:0.0891215 50:0.184968 51:0.159715 52:0.0962465 53:0.105079 54:0.137968 55:0.093542 56:0.0903972 57:0.105924 58:0.0993788 59:0.117183 
0.5 0 0:-0.340639 1:-0.00868475 2:0.0764384 3:-0.488152 4:0.239438 5:0.0840726 6:0.27501 7:-0.388802 8:-0.241936 9:0.187894 10:0.109886 11:0.242592 12:0.414679 13:-0.0702921 14:-0.0947662 15:0.101509 16:0.140674 17:-0.284705 18:0.229718 19:-0.0923235 20:0.0604123 21:0.199678 22:0.52329 23:0.211133 24:-0.114982 25:-0.204591 26:0.0401435 27:-0.101862 28:0.421643 29:0.218414 30:-0.380008 31:0.0276099 32:-0.0821998 33:0.161777 34:0.270605 35:0.0227649 36:-0.358209 37:0.0524471 38:0.130231 39:0.161631 40:0.0761202 41:0.194879 42:0.160145 43:0.205273 44:0.165138 45:0.0991325 46:0.105275 47:0.160612 48:0.0938757 49:0.138661 50:0.193221 51:0.150999 52:0.122248 53:0.16148 54:0.140694 55:0.131179 56:0.128449 57:0.144552 58:0.115722 59:0.116403 
0.5 0 0:-0.358192 1:-0.0187795 2:-0.0216501 3:-0.431814 4:0.342401 5:-0.158615 6:0.270959 7:-0.483807 8:-0.185716 9:0.210071 10:0.153337 11:0.356894 12:0.423172 13:-0.113712 14:0.0143708 15:-0.0418727 16:0.222699 17:-0.207558 18:0.391996 19:-0.0638076 20:0.105766 21:0.244939 22:0.627722 23:0.151823 24:-0.112779 25:-0.0679578 26:0.0491589 27:0.00317948 28:0.481835 29:0.30504 30:-0.450625 31:-0.0752966 32:-0.0139715 33:0.0454449 34:0.306048 35:0.113008 36:-0.387231 37:0.109475 38:0.125959 39:0.176771 40:0.106426 41:0.200373 42:0.150246 43:0.142793 44:0.16395 45:0.132466 46:0.129939 47:0.138264 48:0.114626 49:0.162174 50:0.187486 51:0.169422 52:0.112543 53:0.148267 54:0.155753 55:0.130713 56:0.124336 57:0.133325 58:0.108658 59:0.135387 
0.5 0 0:-0.352887 1:-0.00880921 2:0.198994 3:-0.465553 4:0.214093 5:0.0637879 6:0.260253 7:-0.426705 8:-0.214407 9:0.184734 10:0.0425578 11:0.228813 12:0.294835 13:0.171913 14:-0.0539444 15:0.112495 16:-0.0974817 17:-0.21929 18:0.326901 19:-0.185894 20:0.165637 21:0.112713 22:0.509751 23:0.215807 24:-0.146485 25:-0.306512 26:0.320657 27:-0.0884017 28:0.555908 29:0.289529 30:-0.331649 31:0.150088 32:0.0744169 33:0.0787735 34:0.328324 35:0.120558 36:-0.109893 37:0.0689447 38:0.114719 39:0.0965987 40:0.0727167 41:0.227555 42:0.177517 43:0.189161 44:0.218516 45:0.0819788 46:0.126055 47:0.186613 48:0.133575 49:0.142994 50:0.205871 51:0.202284 52:0.144677 53:0.14804 54:0.158556 55:0.140626 56:0.131165 57:0.1503 58:0.11962 59:0.157726 
0.5 0 0:-0.379488 1:-0.000459262 2:0.0582138 3:-0.42764 4:0.371497 5:-0.165158 6:0.272755 7:-0.366167 8:-0.253964 9:0.0924478 10:0.100885 11:0.334507 12:0.248736 13:0.0280271 14:-0.134148 15:0.188471 16:0.0962764 17:-0.264425 18:0.48995 19:-0.0338612 20:0.248123 21:0.224643 22:0.552482 23:0.194769 24:-0.183839 25:-0.33964 26:0.182398 27:-0.042874 28:0.356599 29:0.333809 30:-0.438924 31:0.0327072 32:-0.0499279 33:0.189046 34:0.30103 35:-0.0294657 36:-0.276751 37:0.0545622 38:0.116482 39:0.140391 40:0.0972382 41:0.22332 42:0.155987 43:0.195953 44:0.140669 45:0.0924249 46:0.139772 47:0.13726 48:0.102372 49:0.145884 50:0.17178 51:0.138606 52:0.108599 53:0.140548 54:0.141824 55:0.0989015 56:0.116994 57:0.135704 58:0.101143 59:0.100369 
0.5 0 0:-0.35543 1:-0.00259591 2:0.012724 3:-0.463345 4:0.267323 5:-0.0503057 6:0.330807 7:-0.437281 8:-0.205559 9:0.0767465 10:-0.0156685 11:0.349087 12:0.369776 13:0.322503 14:-0.0316261 15:0.2416 16:0.155692 17:-0.154788 18:0.306704 19:-0.132256 20:0.22172 21:0.100168 22:0.513329 23:0.191335 24:-0.156634 25:-0.142117 26:0.333224 27:-0.0379019 28:0.468457 29:0.450566 30:-0.313482 31:0.0253973 32:0.0102489 33:0.185562 34:0.328165 35:0.137483 36:-0.250508 37:0.0821741 38:0.173908 39:0.139768 40:0.117501 41:0.228133 42:0.150474 43:0.207233 44:0.193829 45:0.123774 46:0.125279 47:0.157742 48:0.13196 49:0.15791 50:0.215029 51:0.190639 52:0.139064 53:0.171579 54:0.15926 55:0.14557 56:0.139079 57:0.149961 58:0.150897 59:0.13733 
0.5 0 0:-0.361756 1:-0.0306376 2:-0.107081 3:-0.535118 4:0.266849 5:-0.00155065 6:0.224007 7:-0.322293 8:-0.202767 9:0.159238 10:0.109836 11:0.258349 12:0.30526 13:0.119978 14:0.0525604 15:-0.00507806 16:0.102126 17:-0.0804287 18:0.47574 19:-0.155305 20:0.194862 21:0.319384 22:0.483879 23:0.12941 24:-0.164173 25:-0.271902 26:-0.0181748 27:0.0176525 28:0.407694 29:0.300484 30:-0.272753 31:0.0414663 32:0.0479587 33:0.290383 34:0.297265 35:0.0457579 36:-0.19536 37:0.0844566 38:0.123592 39:0.179212 40:0.137105 41:0.238143 42:0.165457 43:0.246232 44:0.217941 45:0.133528 46:0.126962 47:0.173123 48:0.141716 49:0.170569 50:0.20279 51:0.196224 52:0.149913 53:0.181686 54:0.185344 55:0.137644 56:0.13726 57:0.18406 58:0.14452 59:0.168213 
0.5 0.5 0:-0.399659 1:-0.0220928 2:-0.232385 3:-0.28558 4:0.108882 5:0.119832 6:0.3043 7:-0.630537 8:-0.303233 9:0.169325 10:0.245158 11:0.540633 12:0.460992 13:0.213061 14:-0.121282 15:-0.0770106 16:0.0446668 17:-0.334786 18:0.50105 19:-0.109399 20:0.242881 21:0.109828 22:0.447234 23:-0.0510555 24:-0.108736 25:-0.2058 26:0.479219 27:-0.0148879 28:0.361009 29:0.47361 30:-0.492124 31:0.0179934 32:-0.00206759 33:0.142828 34:0.291704 35:0.0838849 36:-0.217771 37:0.0510352 38:0.140224 39:0.125297 40:0.099462 41:0.225771 42:0.158045 43:0.175814 44:0.163471 45:0.0828887 46:0.152314 47:0.156582 48:0.119903 49:0.17169 50:0.180998 51:0.170761 52:0.136446 53:0.151718 54:0.158679 55:0.134774 56:0.116471 57:0.124079 58:0.117287 59:0.119008 
0.5 0.3625983315035898 0:-0.349589 1:0.0468938 2:0.178351 3:-0.507731 4:0.312249 5:-0.328073 6:0.112059 7:-0.509669 8:-0.343361 9:0.0784266 10:0.124432 11:0.298821 12:0.395568 13:-0.103053 14:0.06128 15:-0.116836 16:0.521909 17:-0.200697 18:0.413838 19:-0.064851 20:0.087233 21:0.0700234 22:0.614452 23:0.0809788 24:-0.207929 25:-0.0451421 26:-0.0104537 27:-0.15398 28:0.513581 29:0.363943 30:-0.489649 31:0.0231497 32:0.0445085 33:-0.00533341 34:0.221094 35:0.0080383 36:-0.346468 37:-0.0043465 38:0.0921213 39:0.095276 40:0.0874742 41:0.146706 42:0.158584 43:0.145673 44:0.15165 45:0.032726 46:0.112432 47:0.109616 48:0.0517778 49:0.115762 50:0.176292 51:0.118626 52:0.086386 53:0.134851 54:0.117648 55:0.094448 56:0.0829523 57:0.0953612 58:0.0756049 59:0.0767593 
0.5 0.5 0:-0.324056 1:-0.101367 2:0.467985 3:-0.357559 4:0.603457 5:0.234913 6:0.135847 7:-0.491111 8:-0.484709 9:0.0646186 10:-0.177412 11:0.331415 12:0.199091 13:0.156529 14:-0.0741377 15:0.246372 16:0.0459284 17:-0.222257 18:0.457595 19:-0.208871 20:0.317867 21:0.410087 22:0.459721 23:-0.0362733 24:-0.312183 25:0.0325559 26:0.0766278 27:-0.00486267 28:0.633578 29:0.358836 30:-0.31592 31:0.0718007 32:-0.0678866 33:0.042398 34:0.265969 35:0.228415 36:-0.156406 37:0.164731 38:0.205326 39:0.165701 40:0.132511 41:0.27753 42:0.18702 43:0.273259 44:0.21317 45:0.105757 46:0.163139 47:0.221602 48:0.170008 49:0.186549 50:0.266758 51:0.229641 52:0.15995 53:0.184659 54:0.211186 55:0.164596 56:0.182808 57:0.204729 58:0.167943 59:0.201221 
0.5 0.5 0:-0.367891 1:-0.0561216 2:-0.10437 3:-0.563773 4:0.198993 5:-0.0909948 6:0.528686 7:-0.758503 8:-0.10268 9:0.333521 10:0.0428412 11:0.365531 12:0.325379 13:0.123425 14:0.0434042 15:-0.0528223 16:0.170643 17:-0.354355 18:0.56467 19:-0.392506 20:0.127247 21:0.354221 22:0.45711 23:0.215762 24:-0.254164 25:0.0962642 26:-0.0932186 27:0.0532665 28:0.395205 29:0.279802 30:-0.310634 31:0.121625 32:0.0114737 33:0.188322 34:0.238113 35:0.0754768 36:-0.271834 37:0.0211352 38:0.178997 39:0.171791 40:0.124119 41:0.206882 42:0.140993 43:0.212737 44:0.162024 45:0.113689 46:0.143894 47:0.170154 48:0.151151 49:0.136425 50:0.206745 51:0.153736 52:0.142657 53:0.158126 54:0.161535 55:0.127699 56:0.130027 57:0.146676 58:0.111989 59:0.121657 
0.5 0.5 0:-0.380399 1:-0.0242614 2:-0.338807 3:-0.313088 4:0.404639 5:0.0302309 6:0.172508 7:-0.456072 8:-0.245854 9:0.475567 10:0.202385 11:0.238459 12:0.438116 13:0.186975 14:0.0308185 15:-0.205272 16:0.0606796 17:-0.281727 18:0.276059 19:-0.280466 20:0.0886297 21:0.0338948 22:0.47832 23:0.257177 24:-0.269524 25:-0.115297 26:0.361741 27:0.0810408 28:0.325375 29:0.342133 30:-0.414135 31:0.113523 32:0.181785 33:0.0829221 34:0.184261 35:0.198067 36:-0.301139 37:0.0615525 38:0.117389 39:0.0619085 40:0.111633 41:0.200126 42:0.13552 43:0.1815 44:0.17723 45:0.0992037 46:0.106875 47:0.16381 48:0.0910282 49:0.0984012 50:0.179262 51:0.150732 52:0.131603 53:0.130667 54:0.155182 55:0.144397 56:0.108428 57:0.107916 58:0.123483 59:0.10346 
0.5 0.3590877954151241 0:-0.36899 1:-0.0843797 2:0.219575 3:-0.502137 4:0.325498 5:0.0887755 6:0.131023 7:-0.17656 8:-0.322161 9:0.172287 10:0.193442 11:0.144521 12:0.0521989 13:0.0665194 14:-0.0462941 15:-0.0314655 16:0.224574 17:-0.288358 18:0.503241 19:0.117898 20:0.0652142 21:0.174986 22:0.637991 23:0.0358708 24:-0.259168 25:-0.205539 26:-0.0770101 27:-0.0820132 28:0.456461 29:0.14069 30:-0.390248 31:0.00659344 32:0.0851114 33:-0.0199701 34:0.208394 35:0.135612 36:-0.315372 37:-0.0162242 38:0.0584918 39:0.102079 40:0.0855713 41:0.19185 42:0.145391 43:0.194123 44:0.121349 45:0.0861352 46:0.1014 47:0.12327 48:0.0881876 49:0.136325 50:0.15592 51:0.149897 52:0.106992 53:0.128812 54:0.14504 55:0.0996879 56:0.0893475 57:0.0873282 58:0.097994 59:0.0814936 
0.5 0.5 0:-0.36761 1:-0.0914776 2:0.340397 3:-0.543398 4:0.562773 5:0.017916 6:0.139913 7:-0.132067 8:-0.438453 9:0.0686153 10:0.215933 11:0.180376 12:0.294986 13:0.201847 14:0.104226 15:-0.250491 16:0.447353 17:-0.245562 18:0.217169 19:0.112474 20:0.42241 21:0.12882 22:0.655395 23:-0.037642 24:-0.0585049 25:0.0475569 26:0.100714 27:0.107862 28:0.420024 29:0.444749 30:-0.330321 31:0.00535848 32:0.0625463 33:0.181697 34:0.315332 35:-0.0165164 36:-0.222741 37:0.145752 38:0.149391 39:0.178922 40:0.150678 41:0.250013 42:0.205493 43:0.231299 44:0.215639 45:0.122536 46:0.232232 47:0.170022 48:0.174258 49:0.188274 50:0.215751 51:0.186227 52:0.156865 53:0.204357 54:0.201892 55:0.176366 56:0.147958 57:0.170859 58:0.13573 59:0.178306 
0.5 0.2612837828091186 0:-0.353834 1:-0.0642352 2:-0.270429 3:-0.275352 4:0.372747 5:-0.290283 6:0.305926 7:-0.428657 8:-0.396096 9:0.305079 10:0.109588 11:0.600466 12:0.217052 13:0.0449891 14:-0.0259844 15:-0.105901 16:0.159687 17:-0.2584 18:0.442006 19:-0.0818661 20:0.119463 21:0.131028 22:0.579075 23:0.0315841 24:-0.151794 25:-0.285554 26:0.0871672 27:0.112318 28:0.466836 29:0.339921 30:-0.383081 31:0.0153188 32:-0.0788858 33:0.094184 34:0.35481 35:-0.0924759 36:-0.345267 37:0.0326485 38:0.208383 39:0.0887628 40:0.0588808 41:0.176098 42:0.165078 43:0.194074 44:0.157871 45:0.0782141 46:0.145674 47:0.123004 48:0.10008 49:0.12279 50:0.186241 51:0.140712 52:0.0795677 53:0.145463 54:0.13819 55:0.113926 56:0.120932 57:0.121397 58:0.0879631 59:0.127622 
0.5 0 0:-0.357288 1:-0.0460581 2:-0.147868 3:-0.4232 4:0.342897 5:0.192016 6:0.215767 7:-0.413609 8:-0.181031 9:-0.0745716 10:0.124855 11:0.203016 12:0.376301 13:0.047255 14:-0.176341 15:0.0360992 16:0.0729687 17:-0.173992 18:0.363196 19:-0.16312 20:0.349251 21:0.283377 22:0.693581 23:0.0413282 24:-0.133284 25:-0.372943 26:0.0605109 27:-0.10415 28:0.492304 29:0.305035 30:-0.373852 31:0.190598 32:0.0399966 33:0.0648745 34:0.308909 35:0.152284 36:-0.145329 37:0.14773 38:0.148752 39:0.156472 40:0.163444 41:0.279853 42:0.194349 43:0.256893 44:0.206993 45:0.14411 46:0.172711 47:0.201078 48:0.176795 49:0.186739 50:0.242497 51:0.216215 52:0.167952 53:0.213064 54:0.218405 55:0.170864 56:0.177862 57:0.188943 58:0.170732 59:0.165796 
0.5 0 0:-0.371931 1:-0.153054 2:0.0186036 3:-0.595046 4:0.374001 5:0.0507966 6:0.165896 7:-0.484114 8:-0.0692633 9:0.0854038 10:0.216264 11:0.555451 12:0.220599 13:-0.0829936 14:-0.168448 15:-0.019881 16:0.011678 17:-0.125387 18:0.203333 19:-0.226788 20:0.318994 21:0.248738 22:0.542432 23:-0.101676 24:-0.187474 25:0.0520193 26:0.381268 27:-0.0966754 28:0.375844 29:0.319889 30:-0.300058 31:0.0384948 32:-0.0123627 33:0.0440498 34:0.346471 35:0.0890346 36:-0.315382 37:0.0429231 38:0.121614 39:0.0824181 40:0.13362 41:0.219958 42:0.124821 43:0.219651 44:0.150236 45:0.0991072 46:0.118156 47:0.154343 48:0.111443 49:0.134574 50:0.193569 51:0.15128 52:0.10407 53:0.147478 54:0.16303 55:0.106204 56:0.130363 57:0.138506 58:0.115102 59:0.135954 
0.5 0.3800069131373641 0:-0.370391 1:-0.00871024 2:0.13422 3:-0.422782 4:0.313577 5:-0.191505 6:0.334641 7:-0.506658 8:-0.150776 9:0.475607 10:0.168635 11:0.374415 12:0.327956 13:0.246724 14:-0.153079 15:-0.182885 16:0.0903541 17:-0.125765 18:0.248675 19:-0.174391 20:0.0541849 21:-0.0750904 22:0.385959 23:-0.203565 24:-0.185461 25:-0.182897 26:0.17565 27:-0.00506006 28:0.487726 29:0.365932 30:-0.439092 31:0.132149 32:-0.0226037 33:0.144752 34:0.294574 35:0.0146771 36:-0.239362 37:0.0471244 38:0.111757 39:0.189779 40:0.0791857 41:0.205424 42:0.146398 43:0.178133 44:0.134472 45:0.0713118 46:0.121797 47:0.162591 48:0.0921555 49:0.147144 50:0.166844 51:0.147731 52:0.110151 53:0.118906 54:0.132982 55:0.117313 56:0.108428 57:0.10713 58:0.105812 59:0.112493 
0.5 0 0:-0.349086 1:-0.056338 2:0.0396796 3:-0.516318 4:0.457661 5:-0.179393 6:0.0792941 7:-0.347534 8:-0.0298779 9:0.158556 10:0.0588569 11:0.290604 12:0.223292 13:-0.000527673 14:0.0174356 15:0.0951899 16:0.467596 17:-0.268624 18:0.241772 19:-0.0922703 20:0.16441 21:0.0973584 22:0.562492 23:-0.0383742 24:-0.185746 25:-0.295715 26:-0.0706537 27:-0.00343036 28:0.493945 29:0.303578 30:-0.634722 31:0.0621829 32:0.038121 33:0.173535 34:0.320168 35:0.0338782 36:-0.278449 37:0.110242 38:0.152574 39:0.104355 40:0.0821888 41:0.232195 42:0.160127 43:0.230344 44:0.192624 45:0.0811922 46:0.132019 47:0.195027 48:0.117923 49:0.119176 50:0.188281 51:0.173994 52:0.11867 53:0.148651 54:0.161399 55:0.133662 56:0.149167 57:0.140801 58:0.133533 59:0.121971 
0.5 0.2602388971154427 0:-0.373008 1:-0.077394 2:-0.17377 3:-0.564745 4:0.431648 5:-0.14836 6:0.100113 7:-0.357002 8:-0.216926 9:0.377347 10:0.0689437 11:0.521916 12:0.156142 13:0.0489496 14:0.14147 15:-0.0781221 16:0.218519 17:-0.243287 18:0.353472 19:-0.260737 20:0.137473 21:0.29162 22:0.58969 23:0.00380837 24:-0.0249229 25:-0.197026 26:0.497571 27:0.0116194 28:0.443541 29:0.40356 30:-0.400918 31:0.0708502 32:-0.116833 33:0.102648 34:0.376937 35:0.190693 36:-0.22566 37:0.0630591 38:0.186173 39:0.110752 40:0.178989 41:0.293974 42:0.172151 43:0.263665 44:0.201733 45:0.130729 46:0.149211 47:0.179837 48:0.150358 49:0.182578 50:0.212579 51:0.191679 52:0.156028 53:0.197609 54:0.162063 55:0.155544 56:0.165827 57:0.149646 58:0.146825 59:0.137844 
0.5 0 0:-0.358666 1:-0.0167311 2:0.103511 3:-0.619909 4:0.372176 5:-0.0794414 6:0.293939 7:-0.365032 8:-0.317636 9:0.0597973 10:0.0871963 11:0.404026 12:0.317047 13:0.0913207 14:0.134167 15:-0.244201 16:0.16945 17:-0.185745 18:0.359385 19:-0.146727 20:-0.101219 21:0.127426 22:0.451345 23:-0.0130141 24:-0.149321 25:-0.194467 26:0.30948 27:0.0889339 28:0.528404 29:0.357652 30:-0.474709 31:0.0403521 32:-0.251546 33:0.259426 34:0.22391 35:0.0700691 36:-0.29572 37:0.0550661 38:0.124958 39:0.0869227 40:0.0809387 41:0.210506 42:0.1294 43:0.200167 44:0.181656 45:0.124727 46:0.119723 47:0.140559 48:0.123954 49:0.137279 50:0.177816 51:0.157091 52:0.12816 53:0.154704 54:0.147546 55:0.129295 56:0.12471 57:0.146186 58:0.120134 59:0.137973 
0.5 0.5 0:-0.351497 1:-0.0877785 2:0.184945 3:-0.588381 4:0.235901 5:0.207145 6:0.221033 7:-0.467712 8:-0.331047 9:-0.227063 10:0.189004 11:0.332195 12:0.413088 13:0.103388 14:-0.0133425 15:0.018821 16:0.112775 17:-0.272824 18:0.366966 19:-0.34717 20:-0.0365298 21:0.180691 22:0.489464 23:0.122002 24:-0.106352 25:-0.254401 26:0.283091 27:0.259779 28:0.292977 29:0.318701 30:-0.394456 31:-0.113517 32:0.0130521 33:0.138682 34:0.265158 35:0.0669346 36:-0.440595 37:0.0947418 38:0.194931 39:0.139921 40:0.0918747 41:0.247972 42:0.148423 43:0.246362 44:0.176707 45:0.0887323 46:0.178539 47:0.1742 48:0.0878864 49:0.190088 50:0.234033 51:0.18025 52:0.127483 53:0.175828 54:0.156666 55:0.15202 56:0.138646 57:0.143036 58:0.139643 59:0.135316 
0.5 0 0:-0.372162 1:-0.096759 2:0.107412 3:-0.612434 4:0.306285 5:-0.0760734 6:0.465564 7:-0.599645 8:-0.32523 9:0.0821085 10:0.195135 11:0.450595 12:0.248157 13:0.153554 14:-0.037303 15:-0.123066 16:0.0585485 17:-0.0425448 18:0.370494 19:-0.197611 20:0.460263 21:0.34471 22:0.411367 23:0.041558 24:-0.204695 25:-0.0602631 26:0.120349 27:-0.0373688 28:0.467825 29:0.309033 30:-0.457732 31:0.058207 32:0.0176899 33:0.152235 34:0.29071 35:0.16052 36:-0.27288 37:0.0893753 38:0.1209 39:0.131508 40:0.119225 41:0.193429 42:0.15582 43:0.229532 44:0.19163 45:0.107098 46:0.111425 47:0.174971 48:0.12282 49:0.167352 50:0.207414 51:0.158635 52:0.115756 53:0.159969 54:0.151675 55:0.11474 56:0.137774 57:0.148969 58:0.121198 59:0.137323 
0.5 0.1286777905502433 0:-0.370871 1:-0.0145391 2:-0.10454 3:-0.543492 4:0.490119 5:-0.129702 6:-0.117785 7:-0.640463 8:-0.26377 9:0.349779 10:0.145488 11:0.217854 12:0.207434 13:-0.0554356 14:-0.109839 15:0.267355 16:0.151684 17:-0.308439 18:0.408215 19:-0.170595 20:0.112523 21:0.184947 22:0.485625 23:0.0968382 24:-0.216203 25:0.0728478 26:0.229606 27:0.156487 28:0.370836 29:0.433991 30:-0.363428 31:0.0556287 32:-0.040859 33:0.244119 34:0.34422 35:0.0627879 36:-0.297677 37:0.116039 38:0.189928 39:0.173015 40:0.0786809 41:0.254956 42:0.165494 43:0.188569 44:0.175969 45:0.105267 46:0.127809 47:0.175317 48:0.111025 49:0.141621 50:0.233399 51:0.177746 52:0.136832 53:0.164437 54:0.191006 55:0.159356 56:0.129846 57:0.137351 58:0.137604 59:0.147863 
0.5 0.5 0:-0.37268 1:0.00649577 2:0.200736 3:-0.42502 4:0.361804 5:-0.222612 6:0.278944 7:-0.498357 8:-0.0861443 9:-0.141554 10:-0.0720087 11:0.350501 12:0.491172 13:0.190426 14:-0.173138 15:-0.272315 16:0.170907 17:-0.307513 18:0.197677 19:-0.233011 20:0.218972 21:0.0274236 22:0.58085 23:0.283382 24:-0.217945 25:-0.432296 26:0.0203645 27:0.0040028 28:0.20813 29:0.295212 30:-0.423819 31:0.0449671 32:-0.0709328 33:0.137866 34:0.289105 35:0.0107146 36:-0.298269 37:0.00608974 38:0.121272 39:0.0863352 40:0.0520709 41:0.216195 42:0.104768 43:0.186726 44:0.163937 45:0.070828 46:0.105739 47:0.141655 48:0.107735 49:0.123445 50:0.183992 51:0.157571 52:0.116762 53:0.129896 54:0.132044 55:0.126639 56:0.101827 57:0.125122 58:0.0926427 59:0.125412 
0.5 0.5 0:-0.354813 1:-0.0109036 2:-0.301213 3:-0.47103 4:0.32504 5:0.0664415 6:0.248464 7:-0.428736 8:-0.341768 9:-0.0259441 10:0.12728 11:0.264688 12:0.134476 13:-0.154195 14:0.0591714 15:0.119384 16:-0.149083 17:-0.215342 18:0.528222 19:-0.100291 20:0.269401 21:0.242433 22:0.446529 23:0.234988 24:-0.0408402 25:-0.249036 26:0.284341 27:-0.129968 28:0.249706 29:0.383017 30:-0.543021 31:0.0354261 32:0.140694 33:0.0595181 34:0.179552 35:0.000636208 36:-0.295809 37:0.0442855 38:0.0703036 39:0.0726815 40:0.0923625 41:0.163318 42:0.0974857 43:0.210865 44:0.16773 45:0.0691601 46:0.100218 47:0.114827 48:0.128927 49:0.148385 50:0.18338 51:0.171599 52:0.113391 53:0.138686 54:0.143484 55:0.10569 56:0.13201 57:0.131847 58:0.0977442 59:0.10736 
0.5 0.5 0:-0.363674 1:-0.004902 2:0.0442668 3:-0.349829 4:0.25234 5:-0.230483 6:0.0985449 7:-0.310028 8:-0.110985 9:0.262157 10:0.105105 11:0.494321 12:0.615071 13:0.0859205 14:-0.0762549 15:0.0449633 16:0.306128 17:-0.409483 18:0.209357 19:-0.207519 20:0.200516 21:0.136669 22:0.45134 23:0.0431775 24:-0.164568 25:0.22453 26:0.0728011 27:-0.00954955 28:0.600988 29:0.231045 30:-0.158452 31:0.142682 32:0.0312478 33:0.142587 34:0.269377 35:0.0333868 36:-0.289959 37:0.0540647 38:0.152612 39:0.144536 40:0.074238 41:0.231037 42:0.152577 43:0.218082 44:0.167661 45:0.137758 46:0.149627 47:0.153715 48:0.0937512 49:0.145126 50:0.185887 51:0.194751 52:0.129307 53:0.199949 54:0.17865 55:0.151851 56:0.150526 57:0.163215 58:0.139211 59:0.157017 
0.5 0.5 0:-0.340082 1:-0.14044 2:-0.0683188 3:-0.545926 4:0.175689 5:0.041464 6:0.346802 7:-0.404535 8:-0.2154 9:0.343646 10:0.015871 11:0.216534 12:-0.0585012 13:0.0417721 14:-0.217989 15:0.270518 16:-0.278967 17:-0.2567 18:0.400944 19:-0.435975 20:0.273367 21:0.191639 22:0.528046 23:-0.00348315 24:-0.196503 25:-0.0515564 26:0.0973337 27:-0.0100774 28:0.133373 29:0.485538 30:-0.477247 31:-0.111783 32:0.0404034 33:0.182732 34:0.298631 35:0.0289307 36:-0.360351 37:0.087696 38:0.128427 39:0.0727104 40:0.0586146 41:0.22342 42:0.106164 43:0.193205 44:0.174136 45:0.0806401 46:0.09432 47:0.150838 48:0.100771 49:0.144334 50:0.181363 51:0.169889 52:0.119826 53:0.146985 54:0.166164 55:0.119655 56:0.136264 57:0.138241 58:0.109411 59:0.123653 
0.5 0.5 0:-0.341268 1:-0.041144 2:-0.197866 3:-0.480905 4:0.232211 5:-0.291266 6:0.0891836 7:-0.287935 8:-0.15701 9:0.514436 10:0.10606 11:0.0474775 12:0.31307 13:0.456078 14:-0.00862524 15:0.00119706 16:0.0886183 17:-0.542039 18:0.26869 19:-0.268448 20:0.0649059 21:0.017694 22:0.449389 23:-0.132496 24:-0.12003 25:-0.149352 26:0.583244 27:0.129081 28:0.304701 29:0.249271 30:-0.480181 31:-0.0215004 32:-0.057372 33:0.0558301 34:0.223739 35:0.214254 36:-0.29983 37:0.0520658 38:0.0995432 39:0.0633804 40:0.0145591 41:0.179101 42:0.150006 43:0.158542 44:0.154891 45:0.0557878 46:0.0509212 47:0.0964129 48:0.0846325 49:0.10508 50:0.162723 51:0.139656 52:0.0901225 53:0.101084 54:0.129124 55:0.0744413 56:0.0916232 57:0.0994296 58:0.0700258 59:0.0980126 
0.5 0.5 0:-0.363587 1:-0.0967246 2:0.0169059 3:-0.312791 4:0.415797 5:-0.0909412 6:-0.0448362 7:-0.360975 8:-0.257927 9:0.0231913 10:0.161631 11:0.355551 12:0.522307 13:-0.117776 14:-0.129799 15:0.263665 16:-0.0364029 17:-0.131808 18:0.230144 19:-0.113742 20:0.0524393 21:0.136084 22:0.746864 23:-0.0808218 24:-0.0251471 25:-0.496792 26:0.238064 27:0.146906 28:0.338138 29:0.61119 30:-0.437313 31:0.0443752 32:0.119028 33:0.139159 34:0.317839 35:0.175413 36:-0.304193 37:0.157568 38:0.140267 39:0.175499 40:0.0700354 41:0.199893 42:0.18884 43:0.242244 44:0.198729 45:0.109789 46:0.169249 47:0.181286 48:0.14217 49:0.159672 50:0.242887 51:0.191638 52:0.156683 53:0.20506 54:0.192137 55:0.159194 56:0.191208 57:0.196395 58:0.16224 59:0.186957 
0.5 0.5 0:-0.359406 1:-0.0660065 2:-0.189691 3:-0.58589 4:0.0820285 5:0.0323235 6:-0.0233105 7:-0.60705 8:-0.144651 9:0.527387 10:0.199834 11:0.173042 12:0.247775 13:-0.0325592 14:-0.234078 15:0.112576 16:0.280626 17:-0.218796 18:0.390549 19:-0.0290543 20:0.162821 21:0.0753275 22:0.527746 23:0.131433 24:-0.146797 25:-0.298776 26:-0.0664798 27:-0.0316662 28:0.432872 29:0.33186 30:-0.188704 31:0.15037 32:0.185104 33:0.0254331 34:0.304646 35:0.142006 36:-0.301495 37:0.108213 38:0.187796 39:0.099835 40:0.0894848 41:0.180396 42:0.11485 43:0.195463 44:0.170875 45:0.111948 46:0.109473 47:0.153841 48:0.111992 49:0.15321 50:0.182073 51:0.15961 52:0.126246 53:0.142487 54:0.16817 55:0.118574 56:0.113416 57:0.155208 58:0.130745 59:0.111414 
0.5 0.5 0:-0.392694 1:-0.0110573 2:-0.0947204 3:-0.346544 4:0.144394 5:-0.203403 6:0.582883 7:-0.51041 8:-0.101586 9:0.0584228 10:0.01469 11:0.353291 12:0.170126 13:-0.0138351 14:0.249334 15:-0.301928 16:0.195658 17:-0.160552 18:0.220175 19:-0.0913735 20:-0.0134739 21:0.22709 22:0.53898 23:-0.0155291 24:-0.169082 25:-0.150844 26:0.269055 27:-0.0677159 28:0.329091 29:0.21369 30:-0.410588 31:-0.0885958 32:-0.0140698 33:0.132602 34:0.243284 35:0.226417 36:-0.242304 37:0.104234 38:0.120123 39:0.122777 40:0.0417091 41:0.226437 42:0.1834 43:0.212399 44:0.168535 45:0.10693 46:0.105012 47:0.149822 48:0.113171 49:0.136833 50:0.185911 51:0.175243 52:0.10908 53:0.154665 54:0.155693 55:0.128812 56:0.122759 57:0.126561 58:0.113716 59:0.112396 
0.5 0.5 0:-0.348339 1:-0.143133 2:-0.0855553 3:-0.327088 4:0.263005 5:-0.217659 6:0.31002 7:-0.791587 8:-0.0571808 9:0.250605 10:-0.005609 11:0.26425 12:0.0518936 13:0.0209514 14:0.233503 15:0.166528 16:-0.00619629 17:-0.259312 18:0.241842 19:-0.275058 20:0.0307036 21:0.181906 22:0.708359 23:0.105525 24:-0.261313 25:-0.0677739 26:0.172691 27:-0.0676066 28:0.363571 29:0.301772 30:-0.0760406 31:-0.0483901 32:0.116001 33:0.052871 34:0.231525 35:0.00932318 36:-0.254951 37:0.0610843 38:0.152305 39:0.160391 40:0.0908174 41:0.233962 42:0.138616 43:0.189708 44:0.149056 45:0.130165 46:0.137946 47:0.128312 48:0.0938048 49:0.136495 50:0.181894 51:0.189306 52:0.135852 53:0.1455 54:0.165041 55:0.139056 56:0.126288 57:0.131304 58:0.128942 59:0.136647 
0.5 0.1665971186912882 0:-0.402903 1:-0.052401 2:-0.133921 3:-0.445992 4:0.452345 5:0.0333306 6:0.18621 7:-0.529738 8:-0.303747 9:0.407559 10:-0.0195496 11:0.368784 12:0.520193 13:0.177509 14:-0.177811 15:0.128162 16:0.0628076 17:-0.112649 18:0.477252 19:-0.0326957 20:-0.150157 21:0.250033 22:0.504929 23:-0.126983 24:-0.127033 25:-0.0906805 26:0.0890685 27:-0.201502 28:0.459451 29:0.101743 30:-0.484791 31:0.0454904 32:0.0235946 33:0.131701 34:0.277245 35:-0.00288779 36:-0.285744 37:0.0756909 38:0.104304 39:0.140582 40:0.104455 41:0.178741 42:0.189345 43:0.162658 44:0.134979 45:0.106266 46:0.137278 47:0.14499 48:0.115522 49:0.13272 50:0.175231 51:0.147894 52:0.116694 53:0.154402 54:0.149482 55:0.115469 56:0.132407 57:0.118363 58:0.118126 59:0.12089 
0.5 0.5 0:-0.362577 1:-0.0696572 2:-0.0499582 3:-0.279301 4:0.349602 5:0.000183175 6:0.338263 7:-0.500637 8:-0.42214 9:-0.164164 10:0.214337 11:0.473248 12:0.377539 13:-0.00185905 14:0.105188 15:-0.00509679 16:-0.32211 17:-0.172014 18:0.103129 19:-0.387699 20:0.149146 21:0.375862 22:0.648351 23:0.0210617 24:-0.0693002 25:-0.16478 26:0.0173546 27:-0.109785 28:0.33748 29:0.171958 30:-0.582518 31:0.178376 32:0.116156 33:0.0713099 34:0.231967 35:0.229248 36:-0.248175 37:0.0355395 38:0.127447 39:0.135191 40:0.0944458 41:0.23939 42:0.170912 43:0.194277 44:0.14709 45:0.0829456 46:0.12396 47:0.146316 48:0.123684 49:0.140839 50:0.209245 51:0.183347 52:0.109086 53:0.13223 54:0.17479 55:0.120393 56:0.114181 57:0.139896 58:0.0996632 59:0.113123 
0.5 0 0:-0.375799 1:-0.11936 2:-0.124776 3:-0.483463 4:0.265638 5:-0.0833268 6:0.0990903 7:-0.33359 8:-0.252887 9:0.227155 10:0.1631 11:0.321326 12:0.0802898 13:0.0533377 14:0.0672885 15:0.088628 16:0.256761 17:-0.232716 18:0.40079 19:-0.062959 20:0.21917 21:0.0995534 22:0.610318 23:0.188933 24:-0.141135 25:-0.220044 26:0.16187 27:0.0154381 28:0.559273 29:0.387336 30:-0.593176 31:0.100091 32:0.215134 33:0.214358 34:0.336806 35:0.315288 36:-0.136078 37:0.140206 38:0.211856 39:0.168438 40:0.110846 41:0.240591 42:0.159834 43:0.227449 44:0.211245 45:0.139888 46:0.197489 47:0.212745 48:0.158319 49:0.183988 50:0.259073 51:0.225102 52:0.170828 53:0.211734 54:0.206165 55:0.187735 56:0.172828 57:0.175406 58:0.156966 59:0.190696 
0.5 0.5 0:-0.373554 1:-0.0564907 2:0.111365 3:-0.466385 4:0.326113 5:-0.0311277 6:0.0371741 7:-0.707007 8:-0.157182 9:0.0480054 10:0.067841 11:0.183613 12:0.0893043 13:-0.0656313 14:-0.358743 15:-0.120641 16:0.12317 17:-0.0829595 18:0.324385 19:-0.0979172 20:0.0172706 21:0.135954 22:0.583958 23:0.378283 24:-0.234514 25:0.132416 26:-0.131856 27:0.0305209 28:0.603152 29:0.372962 30:-0.338124 31:-0.0113141 32:0.0696857 33:0.00679463 34:0.278176 35:0.00758548 36:-0.328189 37:0.0677838 38:0.0643237 39:0.139192 40:0.100173 41:0.228088 42:0.121313 43:0.1212 44:0.140218 45:0.0946143 46:0.105751 47:0.11178 48:0.0938738 49:0.117653 50:0.17663 51:0.166872 52:0.0976852 53:0.122266 54:0.142586 55:0.10137 56:0.0871992 57:0.132274 58:0.0854542 59:0.130796 
0.5 0.5 0:-0.367182 1:-0.0736384 2:-0.0418866 3:-0.394636 4:0.225072 5:0.0414071 6:0.13545 7:-0.532363 8:-0.342651 9:0.0919531 10:0.0662628 11:0.19511 12:-0.0478371 13:0.101673 14:-0.162635 15:-0.168104 16:0.432786 17:-0.36202 18:0.806708 19:-0.0764573 20:0.298796 21:0.232008 22:0.668369 23:0.23682 24:-0.238868 25:-0.155157 26:0.0255752 27:-0.107968 28:0.583468 29:0.218424 30:-0.542148 31:-0.02825 32:0.0667083 33:0.17144 34:0.201794 35:0.0929689 36:-0.304678 37:0.0723116 38:0.12803 39:0.0763684 40:0.129108 41:0.225414 42:0.143326 43:0.167235 44:0.163932 45:0.0800888 46:0.134671 47:0.169304 48:0.156666 49:0.163553 50:0.218821 51:0.172026 52:0.110277 53:0.162093 54:0.147784 55:0.11621 56:0.124675 57:0.141917 58:0.116876 59:0.153417 
0.5 0.5 0:-0.351249 1:-0.071017 2:-0.0872469 3:-0.489761 4:0.0895842 5:0.133365 6:-0.00319939 7:-0.314846 8:-0.209654 9:0.310336 10:-0.0404569 11:0.368703 12:0.452801 13:-0.379642 14:-0.0471465 15:0.19851 16:-0.143298 17:-0.273286 18:0.168618 19:-0.228005 20:0.26684 21:0.177663 22:0.576769 23:0.105792 24:-0.150138 25:-0.0577462 26:-0.273376 27:0.0524617 28:0.335733 29:0.293891 30:-0.197826 31:0.0911788 32:-0.0992554 33:0.113401 34:0.18128 35:0.00105705 36:-0.29446 37:0.0722663 38:0.138586 39:0.128658 40:0.103984 41:0.219051 42:0.176469 43:0.278661 44:0.209044 45:0.104754 46:0.135185 47:0.165558 48:0.13161 49:0.161722 50:0.223812 51:0.177447 52:0.144407 53:0.170328 54:0.193942 55:0.154341 56:0.141886 57:0.155214 58:0.133941 59:0.138134 
0.5 0.5 0:-0.386349 1:-0.0837784 2:-0.125016 3:-0.606059 4:0.269761 5:0.130204 6:0.129106 7:-0.259236 8:-0.244863 9:-0.0713352 10:0.0778119 11:0.283098 12:0.0569292 13:0.146921 14:0.159384 15:0.230705 16:0.027798 17:-0.363232 18:0.52358 19:-0.121377 20:0.264985 21:0.264312 22:0.516505 23:0.0994732 24:-0.23385 25:-0.0295814 26:-0.0805778 27:-0.0896966 28:0.418883 29:0.378518 30:-0.501816 31:-0.00704526 32:0.00594527 33:0.0609026 34:0.195026 35:-0.110633 36:-0.429779 37:0.011256 38:0.0709232 39:0.0137763 40:0.0476018 41:0.182548 42:0.118701 43:0.171121 44:0.144206 45:0.0282111 46:0.079225 47:0.0908769 48:0.0532074 49:0.0861472 50:0.146221 51:0.114702 52:0.069121 53:0.0946398 54:0.12002 55:0.0757059 56:0.0937188 57:0.0930555 58:0.0671334 59:0.0947575 
0.5 0.5 0:-0.35815 1:0.0132225 2:-0.000606412 3:-0.594771 4:0.458815 5:-0.16801 6:0.249223 7:-0.277101 8:-0.00188728 9:-0.170331 10:-0.0268589 11:0.320663 12:0.271228 13:0.335386 14:-0.0911911 15:-0.120493 16:-0.463557 17:-0.0238893 18:0.127465 19:-0.190831 20:0.175742 21:0.185832 22:0.414958 23:-0.0107006 24:-0.119116 25:-0.316095 26:0.408246 27:0.216591 28:0.759165 29:0.296573 30:-0.342047 31:0.35006 32:0.130206 33:0.384012 34:0.408068 35:0.04964 36:-0.0480354 37:0.13972 38:0.208405 39:0.205584 40:0.18926 41:0.283545 42:0.203747 43:0.240297 44:0.268323 45:0.196123 46:0.183678 47:0.216304 48:0.177149 49:0.208075 50:0.241362 51:0.199681 52:0.162331 53:0.205334 54:0.21497 55:0.180126 56:0.187126 57:0.189934 58:0.175661 59:0.19996 
0.5 0.5 0:-0.343049 1:-0.177286 2:-0.0268779 3:-0.279249 4:0.429912 5:-0.0646664 6:0.146063 7:-0.302581 8:-0.217232 9:0.104624 10:-0.0833017 11:0.195773 12:-0.0785218 13:0.142624 14:-0.259154 15:-0.0409207 16:-0.22161 17:-0.364374 18:0.48775 19:-0.109113 20:0.0528137 21:0.122605 22:0.5088 23:0.230499 24:-0.0129969 25:-0.0982507 26:-0.143986 27:-0.150907 28:0.399512 29:0.32296 30:-0.338814 31:-0.137882 32:-0.0316523 33:0.114552 34:0.202353 35:-0.0404633 36:-0.335445 37:0.0303719 38:0.0756384 39:0.103163 40:0.0728305 41:0.121221 42:0.0926723 43:0.152514 44:0.139687 45:0.0505568 46:0.0864655 47:0.12689 48:0.0797726 49:0.089397 50:0.161143 51:0.123708 52:0.072036 53:0.103159 54:0.133483 55:0.0981629 56:0.0643851 57:0.0913885 58:0.0747039 59:0.0901006 
0.5 0.5 0:-0.321392 1:-0.0307166 2:-0.0845126 3:-0.372471 4:0.525091 5:-0.0531659 6:0.341307 7:-0.387778 8:-0.308825 9:-0.0387545 10:0.208856 11:0.139586 12:0.271114 13:-0.181639 14:-0.0553752 15:0.0447194 16:0.138931 17:-0.0325321 18:0.218597 19:0.0836398 20:0.324407 21:-0.0389296 22:0.45208 23:-0.0167978 24:-0.244635 25:-0.216204 26:-0.0598399 27:0.09096 28:0.399284 29:0.239692 30:-0.223697 31:0.158187 32:0.202207 33:0.210731 34:0.341311 35:0.129124 36:-0.210899 37:-0.000230031 38:0.0924437 39:0.0922609 40:0.0671305 41:0.238544 42:0.168438 43:0.193654 44:0.148991 45:0.090263 46:0.132823 47:0.136704 48:0.0837691 49:0.156176 50:0.174613 51:0.153171 52:0.104617 53:0.156542 54:0.15604 55:0.11363 56:0.102855 57:0.104128 58:0.119334 59:0.119576 
0.5 0.5 0:-0.364739 1:-0.0404453 2:-0.0911642 3:-0.404933 4:0.484872 5:-0.306772 6:0.564631 7:-0.278659 8:-0.0742563 9:-0.0569579 10:0.428102 11:0.266765 12:0.0744569 13:0.0855121 14:-0.0513709 15:-0.0740164 16:0.25041 17:-0.324348 18:0.366797 19:-0.0457311 20:0.219092 21:0.159014 22:0.641765 23:0.435968 24:-0.01242 25:-0.15129 26:0.691182 27:-0.0778734 28:0.567337 29:0.447106 30:-0.447722 31:0.122413 32:0.136524 33:0.242508 34:0.294814 35:0.0646401 36:-0.194448 37:0.0684141 38:0.179073 39:0.124429 40:0.105366 41:0.272821 42:0.24738 43:0.240002 44:0.233475 45:0.173834 46:0.18284 47:0.196833 48:0.171287 49:0.18815 50:0.252275 51:0.217947 52:0.147447 53:0.194689 54:0.216027 55:0.182539 56:0.187065 57:0.199316 58:0.182538 59:0.18575 
0.5 0 0:-0.368731 1:-0.167212 2:0.112955 3:-0.570886 4:0.458115 5:0.0553866 6:0.178271 7:-0.232033 8:-0.188422 9:0.335474 10:0.142095 11:0.337614 12:0.0886126 13:0.118748 14:-0.0110555 15:-0.112244 16:-0.011026 17:-0.220445 18:0.446922 19:-0.0163308 20:0.299923 21:0.2801 22:0.555209 23:0.282273 24:-0.23884 25:-0.212576 26:0.202 27:-0.130389 28:0.430382 29:0.204442 30:-0.447543 31:0.061647 32:0.0449203 33:0.152027 34:0.243057 35:0.0939509 36:-0.235259 37:0.0510449 38:0.094383 39:0.108102 40:0.095092 41:0.200274 42:0.182381 43:0.200934 44:0.110519 45:0.0878339 46:0.136224 47:0.139782 48:0.128404 49:0.120271 50:0.19214 51:0.168689 52:0.0942922 53:0.147013 54:0.17665 55:0.124354 56:0.103046 57:0.141432 58:0.103406 59:0.113775 
0.5 0.5 0:-0.365603 1:0.042487 2:0.00771983 3:-0.572344 4:0.337456 5:-0.0777162 6:0.303208 7:-0.395358 8:-0.274074 9:-0.313482 10:0.30891 11:0.510944 12:0.276368 13:0.239487 14:0.116292 15:0.200959 16:0.373266 17:-0.407681 18:0.220873 19:-0.00525233 20:-0.0208031 21:0.236359 22:0.384894 23:-0.0685742 24:-0.0721289 25:-0.313559 26:0.2582 27:-0.0618743 28:0.53599 29:0.373975 30:-0.204158 31:0.0913115 32:0.0322982 33:0.349966 34:0.371394 35:0.131281 36:-0.150648 37:0.111663 38:0.159506 39:0.175711 40:0.134586 41:0.326165 42:0.217737 43:0.280399 44:0.257891 45:0.194694 46:0.195475 47:0.248965 48:0.174822 49:0.202806 50:0.264077 51:0.228218 52:0.192818 53:0.211618 54:0.228945 55:0.182127 56:0.195218 57:0.201001 58:0.178463 59:0.2163 
0.5 0.5 0:-0.384881 1:-0.0286728 2:0.0290041 3:-0.668489 4:0.32133 5:-0.00468138 6:0.32995 7:-0.433115 8:-0.326117 9:0.132921 10:0.0573513 11:0.472185 12:0.168583 13:0.27048 14:-0.103327 15:0.000951988 16:-0.313663 17:-0.23994 18:0.199102 19:-0.34467 20:-0.0509866 21:0.0548633 22:0.437992 23:0.158019 24:-0.204847 25:-0.0682654 26:0.484905 27:0.130329 28:0.346457 29:0.323134 30:-0.563628 31:-0.0230798 32:-0.0537885 33:0.0537192 34:0.274427 35:-0.143498 36:-0.404441 37:0.045139 38:-0.00128914 39:0.0345517 40:0.0542939 41:0.125353 42:0.095823 43:0.167249 44:0.133373 45:0.0559959 46:0.0604306 47:0.0936447 48:0.0772394 49:0.0879466 50:0.133133 51:0.101692 52:0.074665 53:0.0892124 54:0.0953961 55:0.0581001 56:0.0665157 57:0.0762789 58:0.0636868 59:0.075954 
0.5 0.5 0:-0.271421 1:-0.547016 2:0.305056 3:-0.554 4:0.692104 5:-0.371448 6:0.402308 7:-0.302595 8:-0.391536 9:-0.0212345 10:0.0834351 11:0.525681 12:0.288356 13:0.334203 14:0.0773081 15:-0.0986891 16:0.332778 17:-0.218329 18:0.29479 19:-0.220821 20:0.100526 21:0.13991 22:0.648477 23:0.119161 24:-0.149919 25:-0.0678959 26:0.346195 27:0.0371083 28:0.482863 29:0.465188 30:-0.300191 31:-0.0282443 32:0.128416 33:0.105012 34:0.261625 35:0.12515 36:-0.221409 37:0.0882595 38:0.1821 39:0.116582 40:0.101033 41:0.246504 42:0.192889 43:0.245124 44:0.196148 45:0.154377 46:0.19474 47:0.199307 48:0.14727 49:0.161708 50:0.217749 51:0.207335 52:0.151056 53:0.203515 54:0.191084 55:0.178094 56:0.17055 57:0.1927 58:0.168856 59:0.184395 
0.5 0 0:-0.426735 1:-0.118699 2:0.0886241 3:-0.415495 4:0.300265 5:-0.217628 6:0.215505 7:-0.351367 8:-0.145942 9:0.165364 10:-0.00732377 11:0.246192 12:0.240521 13:-0.0121732 14:-0.131051 15:-0.00153847 16:-0.00641285 17:-0.266646 18:0.406354 19:-0.129407 20:0.140109 21:0.228906 22:0.477639 23:-0.00772831 24:-0.171112 25:-0.278958 26:0.236588 27:-0.138514 28:0.4077 29:0.29824 30:-0.339128 31:0.0933166 32:-0.0079182 33:0.20676 34:0.219997 35:0.119615 36:-0.326346 37:0.067681 38:0.0707877 39:0.0819026 40:0.0328646 41:0.171347 42:0.114783 43:0.183492 44:0.132775 45:0.0538282 46:0.142105 47:0.121439 48:0.0656283 49:0.138568 50:0.172888 51:0.138804 52:0.0825466 53:0.0912419 54:0.106279 55:0.105844 56:0.102208 57:0.0984715 58:0.0837495 59:0.101245 
0.5 0 0:-0.377949 1:-0.0353303 2:0.0848093 3:-0.318232 4:0.233884 5:-0.315362 6:0.146465 7:-0.543419 8:-0.304323 9:0.333782 10:0.182171 11:0.401157 12:0.358695 13:0.124196 14:0.00156945 15:0.164095 16:0.208843 17:-0.185048 18:0.427848 19:-0.248126 20:0.156246 21:0.190293 22:0.457359 23:-0.0577699 24:-0.188824 25:-0.105584 26:0.115136 27:-0.0649186 28:0.283659 29:0.317064 30:-0.42635 31:0.0673342 32:0.0497002 33:0.182745 34:0.262045 35:0.0680037 36:-0.151311 37:0.101684 38:0.107644 39:0.100663 40:0.100603 41:0.19886 42:0.149938 43:0.21139 44:0.148403 45:0.0979311 46:0.11966 47:0.121261 48:0.103641 49:0.12569 50:0.188778 51:0.168731 52:0.122517 53:0.136968 54:0.16731 55:0.13909 56:0.115516 57:0.148917 58:0.107544 59:0.135918 
0.5 0 0:-0.343747 1:-0.0521023 2:0.133591 3:-0.494696 4:0.294191 5:-0.0717165 6:0.172304 7:-0.449724 8:-0.237684 9:0.064515 10:0.10141 11:0.401035 12:0.18379 13:-0.0688887 14:-0.261165 15:0.0385529 16:0.0987643 17:-0.207781 18:0.382661 19:-0.0657515 20:0.134976 21:0.233218 22:0.53097 23:0.0971385 24:-0.130375 25:-0.359587 26:0.226893 27:-0.0499692 28:0.474353 29:0.253146 30:-0.389617 31:0.0500728 32:-0.0576009 33:0.074002 34:0.279916 35:-0.0506933 36:-0.352852 37:0.0463067 38:0.13135 39:0.0453654 40:0.129008 41:0.160946 42:0.117724 43:0.129105 44:0.118905 45:0.0692495 46:0.121112 47:0.131723 48:0.110493 49:0.125137 50:0.184549 51:0.126588 52:0.105953 53:0.130971 54:0.156078 55:0.115762 56:0.109608 57:0.105563 58:0.0892855 59:0.112189 
0.5 0 0:-0.355855 1:-0.0128898 2:-0.0491723 3:-0.52751 4:0.423758 5:-0.0755452 6:0.208959 7:-0.497996 8:-0.189915 9:0.218655 10:0.0242384 11:0.436517 12:0.309385 13:0.123555 14:0.00817032 15:-0.0312999 16:0.0121061 17:-0.13756 18:0.342734 19:-0.144255 20:0.135436 21:0.24244 22:0.583914 23:0.17556 24:-0.198971 25:-0.0945638 26:0.282492 27:-0.0800653 28:0.332909 29:0.28445 30:-0.345921 31:0.0635466 32:0.0449003 33:0.187771 34:0.22897 35:0.178749 36:-0.200185 37:0.101962 38:0.162229 39:0.132913 40:0.113009 41:0.210923 42:0.171277 43:0.245022 44:0.177778 45:0.104778 46:0.157666 47:0.160562 48:0.129224 49:0.167262 50:0.223961 51:0.198196 52:0.139674 53:0.186655 54:0.184801 55:0.136677 56:0.148778 57:0.173482 58:0.139048 59:0.139439 
0.5 0 0:-0.377886 1:-0.0358055 2:-0.0714283 3:-0.432533 4:0.278496 5:-0.0758509 6:0.186739 7:-0.455178 8:-0.189392 9:0.0391914 10:0.0642823 11:0.344754 12:0.392872 13:0.183679 14:-0.0363372 15:0.0107591 16:0.136666 17:-0.226761 18:0.306293 19:-0.176801 20:0.220272 21:0.190484 22:0.545668 23:0.0844602 24:-0.158415 25:-0.26792 26:0.209504 27:0.0702543 28:0.412936 29:0.325564 30:-0.332441 31:0.167519 32:0.0591558 33:0.200599 34:0.297109 35:0.0139096 36:-0.203139 37:0.130716 38:0.133368 39:0.147792 40:0.0808811 41:0.264737 42:0.180486 43:0.25361 44:0.194578 45:0.128557 46:0.180736 47:0.171993 48:0.148141 49:0.158672 50:0.22627 51:0.158123 52:0.158841 53:0.160061 54:0.181061 55:0.14563 56:0.147019 57:0.151932 58:0.153381 59:0.162505 
0.5 0 0:-0.358133 1:-0.00932105 2:0.0182475 3:-0.449251 4:0.303022 5:-0.0178892 6:0.218438 7:-0.420269 8:-0.238359 9:-0.0594262 10:0.118461 11:0.371113 12:0.257485 13:0.0030539 14:-0.231613 15:-0.0240417 16:0.056249 17:-0.223012 18:0.365983 19:-0.0475696 20:0.136937 21:0.18413 22:0.501918 23:0.162964 24:-0.365451 25:-0.357349 26:0.196113 27:-0.0190221 28:0.531635 29:0.31777 30:-0.518153 31:0.124759 32:0.0130394 33:0.162302 34:0.21084 35:-0.0329516 36:-0.31443 37:0.0668685 38:0.0966462 39:0.127091 40:0.0780173 41:0.241181 42:0.140058 43:0.204702 44:0.138527 45:0.084342 46:0.116229 47:0.134448 48:0.104128 49:0.111215 50:0.186412 51:0.15861 52:0.10387 53:0.116861 54:0.129919 55:0.110125 56:0.104422 57:0.121039 58:0.0836139 59:0.103762 
0.5 0 0:-0.345977 1:-0.00435202 2:-0.0833601 3:-0.398071 4:0.393001 5:0.0632588 6:0.161925 7:-0.474714 8:-0.237291 9:0.228166 10:0.0741015 11:0.386165 12:0.317457 13:0.0344567 14:-0.0459241 15:-0.157833 16:0.0476494 17:-0.227429 18:0.405957 19:-0.145715 20:0.236417 21:0.202368 22:0.529617 23:0.122227 24:-0.158519 25:-0.234732 26:0.0452665 27:0.0857313 28:0.400563 29:0.260663 30:-0.429682 31:0.0727585 32:-0.0352581 33:0.106774 34:0.237867 35:0.173418 36:-0.255339 37:0.0406813 38:0.122248 39:0.120245 40:0.122155 41:0.230206 42:0.181353 43:0.198365 44:0.171156 45:0.101567 46:0.124611 47:0.153629 48:0.129845 49:0.14364 50:0.202276 51:0.17181 52:0.116724 53:0.137836 54:0.158256 55:0.116556 56:0.106119 57:0.136857 58:0.127228 59:0.125307 
0.5 0 0:-0.373928 1:-0.0295044 2:0.0223063 3:-0.481798 4:0.350712 5:-0.00831216 6:0.213391 7:-0.50045 8:-0.20186 9:0.255154 10:0.0816428 11:0.299607 12:0.41352 13:0.149862 14:-0.0357181 15:-0.0375054 16:-0.0986187 17:-0.234567 18:0.324072 19:-0.277028 20:0.108528 21:0.197439 22:0.514315 23:0.0814981 24:-0.106655 25:-0.193823 26:0.6016 27:-0.0566582 28:0.491219 29:0.346762 30:-0.207527 31:0.120999 32:0.1432 33:0.192606 34:0.356181 35:0.0765905 36:-0.173026 37:0.119303 38:0.177797 39:0.162104 40:0.158897 41:0.26123 42:0.179042 43:0.214648 44:0.218681 45:0.153283 46:0.173709 47:0.194804 48:0.145091 49:0.162329 50:0.225451 51:0.176911 52:0.165897 53:0.19147 54:0.211027 55:0.184147 56:0.173063 57:0.182688 58:0.173751 59:0.168269 
0.5 0 0:-0.366129 1:-0.0781627 2:-0.017607 3:-0.368695 4:0.448197 5:-0.0413444 6:0.195543 7:-0.502654 8:-0.29717 9:0.304584 10:0.0511375 11:0.160802 12:0.14352 13:0.0494244 14:-0.145498 15:0.0163879 16:0.299199 17:-0.342042 18:0.307302 19:-0.141968 20:0.174371 21:0.220479 22:0.506404 23:0.159112 24:-0.112352 25:-0.443253 26:0.183693 27:0.0325356 28:0.294171 29:0.312399 30:-0.504173 31:-0.041692 32:-0.0403644 33:0.028168 34:0.155305 35:0.132978 36:-0.31904 37:0.0342549 38:0.116397 39:0.127465 40:0.0450658 41:0.218672 42:0.131053 43:0.151611 44:0.158581 45:0.0453282 46:0.105898 47:0.116299 48:0.0959955 49:0.106492 50:0.16467 51:0.145108 52:0.0991434 53:0.131352 54:0.135833 55:0.0928905 56:0.0818602 57:0.115904 58:0.0877522 59:0.109013 
0.5 0 0:-0.362645 1:-0.00686882 2:-0.0868667 3:-0.45534 4:0.372547 5:-0.13865 6:0.212531 7:-0.401342 8:-0.278469 9:0.0667855 10:0.146033 11:0.205041 12:0.227145 13:-0.0635587 14:-0.217215 15:-0.0481686 16:0.294485 17:-0.0900464 18:0.388794 19:-0.146762 20:0.186302 21:0.28237 22:0.534568 23:0.160589 24:-0.174892 25:-0.170306 26:0.192597 27:-0.0337809 28:0.449954 29:0.281352 30:-0.309591 31:0.110182 32:0.0294652 33:0.103211 34:0.276621 35:0.156405 36:-0.213496 37:0.0617302 38:0.176344 39:0.122744 40:0.127908 41:0.217778 42:0.207472 43:0.210033 44:0.193964 45:0.122209 46:0.104815 47:0.166813 48:0.133163 49:0.182929 50:0.218754 51:0.187567 52:0.135647 53:0.180214 54:0.165387 55:0.137459 56:0.150682 57:0.152206 58:0.133894 59:0.133289 
0.5 0 0:-0.367968 1:-0.0570743 2:0.0488391 3:-0.371741 4:0.279424 5:0.0369334 6:0.110083 7:-0.365008 8:-0.174898 9:0.101849 10:0.0218884 11:0.355942 12:0.225209 13:-0.0271282 14:0.00368051 15:0.0341599 16:-0.122849 17:-0.245247 18:0.272862 19:-0.130553 20:0.164244 21:0.258908 22:0.524821 23:0.080172 24:-0.0608879 25:-0.228736 26:0.42131 27:0.0274717 28:0.360837 29:0.255532 30:-0.326154 31:-0.0507917 32:0.0440388 33:0.0769241 34:0.251726 35:-0.102651 36:-0.29823 37:0.0612111 38:0.189467 39:0.105684 40:0.0907191 41:0.248273 42:0.145917 43:0.162737 44:0.184698 45:0.0820266 46:0.067653 47:0.13328 48:0.0882508 49:0.109288 50:0.165265 51:0.130601 52:0.102214 53:0.128298 54:0.12541 55:0.108523 56:0.121083 57:0.112931 58:0.0925675 59:0.114801 
0.5 0 0:-0.374 1:-0.0176788 2:0.0290512 3:-0.441738 4:0.282988 5:0.0536984 6:0.281851 7:-0.462245 8:-0.146919 9:0.11166 10:0.123538 11:0.385137 12:0.188788 13:-0.120345 14:0.0194035 15:0.0594355 16:0.0318518 17:-0.272654 18:0.315012 19:-0.0501723 20:0.149695 21:0.203217 22:0.485322 23:0.0577738 24:-0.181508 25:-0.12073 26:0.0896668 27:-0.00825553 28:0.485431 29:0.266847 30:-0.342073 31:0.101961 32:0.00597156 33:0.32126 34:0.234863 35:0.22523 36:-0.233698 37:0.136403 38:0.158547 39:0.191151 40:0.133427 41:0.257706 42:0.197066 43:0.256964 44:0.205536 45:0.14795 46:0.186204 47:0.187365 48:0.143081 49:0.18022 50:0.222794 51:0.206388 52:0.150697 53:0.173701 54:0.181657 55:0.146277 56:0.13341 57:0.169575 58:0.146378 59:0.148905 
0.5 0 0:-0.360793 1:-0.047934 2:-0.159478 3:-0.516156 4:0.385053 5:0.0450445 6:0.292978 7:-0.455617 8:-0.167514 9:-0.127703 10:-0.0402107 11:0.434801 12:0.470935 13:0.24778 14:-0.0512738 15:-0.0344063 16:0.0662486 17:-0.107365 18:0.24334 19:-0.0622513 20:0.140298 21:0.0938491 22:0.561208 23:0.11707 24:-0.131244 25:-0.119553 26:0.353114 27:-0.0623593 28:0.467581 29:0.291259 30:-0.353764 31:0.0888804 32:-0.09657 33:0.108791 34:0.317655 35:0.0255536 36:-0.382289 37:0.0511272 38:0.146943 39:0.154496 40:0.0556835 41:0.249256 42:0.160118 43:0.210309 44:0.141212 45:0.133954 46:0.106127 47:0.155171 48:0.0973409 49:0.152152 50:0.182437 51:0.155817 52:0.127629 53:0.143624 54:0.15915 55:0.119004 56:0.118396 57:0.110484 58:0.102013 59:0.145917 
0.5 0 0:-0.34785 1:-0.0241036 2:-0.156661 3:-0.612485 4:0.301087 5:-0.0137367 6:0.37594 7:-0.390131 8:-0.242451 9:0.114063 10:0.0705707 11:0.303713 12:0.250499 13:-0.124495 14:-0.0970751 15:0.165632 16:0.286954 17:-0.165892 18:0.230409 19:-0.0429007 20:0.242319 21:0.218112 22:0.575325 23:0.0799087 24:-0.176357 25:-0.253024 26:0.205856 27:-0.0380096 28:0.379048 29:0.269241 30:-0.495314 31:0.0565551 32:-0.120698 33:0.0864374 34:0.279673 35:0.128158 36:-0.216019 37:0.0527964 38:0.0793746 39:0.144103 40:0.09516 41:0.240708 42:0.137853 43:0.220931 44:0.173312 45:0.0873955 46:0.149619 47:0.186625 48:0.131863 49:0.143602 50:0.216321 51:0.167684 52:0.138521 53:0.157608 54:0.177149 55:0.0976229 56:0.112189 57:0.158149 58:0.123885 59:0.145023 
0.5 0 0:-0.375014 1:-0.080051 2:-0.0417676 3:-0.419595 4:0.211284 5:0.11242 6:0.111969 7:-0.253911 8:-0.104927 9:0.103324 10:0.0511739 11:0.497689 12:0.32868 13:-0.00455585 14:-0.133657 15:0.0242237 16:0.314567 17:-0.117605 18:0.332638 19:-0.22843 20:0.0752286 21:0.247254 22:0.456855 23:-0.00343039 24:-0.158789 25:-0.143409 26:0.213188 27:0.0404762 28:0.470904 29:0.262051 30:-0.438323 31:0.1223 32:-0.0209928 33:0.122558 34:0.309864 35:0.130123 36:-0.271879 37:0.0752313 38:0.146506 39:0.117834 40:0.138212 41:0.197005 42:0.148928 43:0.177523 44:0.171778 45:0.131827 46:0.115189 47:0.153412 48:0.125472 49:0.154301 50:0.205725 51:0.16345 52:0.137483 53:0.14837 54:0.169243 55:0.135989 56:0.131966 57:0.172058 58:0.132809 59:0.126164 
0.5 0 0:-0.375139 1:-0.0806228 2:-0.00868067 3:-0.520841 4:0.328004 5:0.0831495 6:0.355339 7:-0.495283 8:-0.233759 9:0.140643 10:-0.00308896 11:0.217625 12:0.213677 13:0.212861 14:-0.0308114 15:0.23651 16:0.178342 17:-0.233661 18:0.293182 19:-0.214154 20:0.233158 21:0.214353 22:0.521008 23:0.0420085 24:-0.183516 25:-0.124359 26:0.248625 27:0.0360441 28:0.442745 29:0.382467 30:-0.382298 31:0.106251 32:0.013965 33:0.165378 34:0.335903 35:-0.038975 36:-0.2928 37:0.0828728 38:0.167054 39:0.132322 40:0.044177 41:0.218287 42:0.154646 43:0.225027 44:0.147896 45:0.110587 46:0.142243 47:0.190905 48:0.111989 49:0.139692 50:0.195778 51:0.169846 52:0.132428 53:0.188738 54:0.159721 55:0.134122 56:0.137272 57:0.13943 58:0.111439 59:0.142445 
0.5 0 0:-0.352232 1:-0.0614007 2:-0.00162483 3:-0.355832 4:0.237465 5:0.151869 6:0.254125 7:-0.415028 8:-0.290188 9:0.167064 10:0.105439 11:0.367243 12:0.374332 13:0.0380173 14:-0.060347 15:0.0935134 16:0.0343549 17:-0.231955 18:0.254555 19:-0.122656 20:0.0349629 21:0.230959 22:0.420589 23:0.0408575 24:-0.239373 25:-0.418061 26:0.0815919 27:-0.0383309 28:0.417899 29:0.296727 30:-0.43184 31:0.0586786 32:-0.0843025 33:0.102193 34:0.198248 35:0.0907309 36:-0.284297 37:0.0465984 38:0.124928 39:0.102166 40:0.0458281 41:0.17711 42:0.118017 43:0.187004 44:0.167618 45:0.0695895 46:0.0796439 47:0.115718 48:0.0622524 49:0.0950234 50:0.169505 51:0.122796 52:0.0859243 53:0.129646 54:0.134108 55:0.100914 56:0.0961392 57:0.115403 58:0.0762503 59:0.120191 
0.5 0 0:-0.362368 1:-0.0354938 2:-0.121576 3:-0.32859 4:0.369769 5:0.0922021 6:0.0175788 7:-0.380645 8:-0.322398 9:0.336877 10:0.0724863 11:0.249135 12:0.326301 13:0.0751624 14:-0.124266 15:0.0202173 16:-0.0120017 17:-0.217305 18:0.27682 19:-0.235151 20:0.304308 21:0.338998 22:0.496154 23:0.0523923 24:-0.154728 25:-0.22087 26:0.179922 27:-0.00208781 28:0.498734 29:0.260472 30:-0.250694 31:0.0879643 32:0.0669125 33:0.241999 34:0.422566 35:0.142543 36:-0.184846 37:0.0881563 38:0.226365 39:0.190798 40:0.16947 41:0.227075 42:0.162342 43:0.203538 44:0.189763 45:0.10388 46:0.166052 47:0.182025 48:0.126001 49:0.167498 50:0.221101 51:0.191855 52:0.152418 53:0.190578 54:0.185618 55:0.140398 56:0.155587 57:0.191215 58:0.168992 59:0.168961 
0.5 0 0:-0.384196 1:-0.0497572 2:-0.0905805 3:-0.552113 4:0.34038 5:0.11069 6:0.237242 7:-0.365937 8:-0.261672 9:0.182453 10:0.240363 11:0.377841 12:0.266417 13:-0.0603122 14:0.0169865 15:-0.0401207 16:0.142095 17:-0.202856 18:0.287201 19:-0.185931 20:0.0855784 21:0.273297 22:0.514996 23:0.142432 24:-0.16781 25:-0.370971 26:-0.0339425 27:0.0477381 28:0.229255 29:0.343951 30:-0.292547 31:0.0687358 32:0.0450741 33:0.107417 34:0.249454 35:0.079758 36:-0.254286 37:0.0403674 38:0.140227 39:0.100053 40:0.0905628 41:0.180952 42:0.126553 43:0.141899 44:0.15811 45:0.107155 46:0.090954 47:0.143193 48:0.110101 49:0.12694 50:0.19289 51:0.14793 52:0.0898972 53:0.132006 54:0.13159 55:0.0955377 56:0.0924917 57:0.123288 58:0.116107 59:0.0873059 
0.5 0 0:-0.36205 1:-0.0771117 2:0.0263213 3:-0.339054 4:0.252004 5:-0.149465 6:0.352701 7:-0.463353 8:-0.201251 9:0.114934 10:-0.0360374 11:0.261662 12:0.392609 13:0.118957 14:0.0634329 15:-0.0797505 16:0.102945 17:-0.225411 18:0.295708 19:-0.068368 20:0.101684 21:0.233481 22:0.597299 23:0.208545 24:-0.164046 25:-0.472843 26:0.314942 27:-0.0357168 28:0.420219 29:0.356763 30:-0.274191 31:0.0971217 32:-0.012943 33:0.0867022 34:0.25535 35:0.055422 36:-0.311324 37:0.0776515 38:0.111439 39:0.129702 40:0.184508 41:0.219312 42:0.154045 43:0.186907 44:0.20961 45:0.106763 46:0.150253 47:0.207311 48:0.103592 49:0.166078 50:0.215534 51:0.167691 52:0.12094 53:0.158223 54:0.193227 55:0.134502 56:0.162517 57:0.137256 58:0.11423 59:0.145532 
0.5 0 0:-0.361829 1:0.0298863 2:-0.0380341 3:-0.615203 4:0.290886 5:0.0415735 6:0.266352 7:-0.475225 8:-0.199651 9:0.118816 10:-0.0305733 11:0.319088 12:0.242111 13:0.139352 14:-0.0464561 15:0.0859562 16:-0.00553683 17:-0.137167 18:0.228337 19:-0.0344647 20:0.135043 21:0.0452245 22:0.462911 23:0.0528194 24:-0.100776 25:-0.269184 26:0.157898 27:-0.0075877 28:0.442522 29:0.385907 30:-0.394693 31:0.0819883 32:0.162034 33:0.0683615 34:0.255528 35:0.0246021 36:-0.346077 37:0.100684 38:0.0929291 39:0.0753422 40:0.0255962 41:0.215233 42:0.167201 43:0.202467 44:0.152307 45:0.0708741 46:0.0947442 47:0.138601 48:0.0876697 49:0.126842 50:0.199617 51:0.163296 52:0.10878 53:0.132906 54:0.12805 55:0.127521 56:0.128008 57:0.131408 58:0.124744 59:0.107638 
0.5 0.1222624784554876 0:-0.370974 1:-0.04615 2:0.191803 3:-0.51144 4:0.274564 5:0.132515 6:0.283207 7:-0.439452 8:-0.380293 9:0.137159 10:-0.0285319 11:0.574561 12:0.238749 13:0.224989 14:0.0399918 15:-0.0621754 16:0.223205 17:-0.322682 18:0.422655 19:-0.234291 20:0.185265 21:0.155727 22:0.525297 23:0.155111 24:-0.0487646 25:0.165174 26:0.448522 27:0.0750282 28:0.337129 29:0.297144 30:-0.231445 31:0.0330918 32:0.0495008 33:0.155197 34:0.302044 35:0.0966851 36:-0.254613 37:0.146618 38:0.124636 39:0.14987 40:0.174493 41:0.239399 42:0.160873 43:0.25838 44:0.207099 45:0.158602 46:0.161235 47:0.184875 48:0.158728 49:0.179026 50:0.223459 51:0.188046 52:0.154695 53:0.185221 54:0.201874 55:0.159197 56:0.162862 57:0.158505 58:0.141302 59:0.147352 
0.5 0.1462485358014954 0:-0.376608 1:-0.0751888 2:-0.168335 3:-0.434758 4:0.274547 5:-0.149174 6:0.372064 7:-0.43853 8:-0.41008 9:-0.061216 10:0.0869775 11:0.365428 12:0.119679 13:0.0131621 14:-0.144558 15:0.0402963 16:0.313898 17:-0.370388 18:0.303041 19:-0.133163 20:0.319847 21:0.392406 22:0.495328 23:0.124925 24:-0.216914 25:-0.137788 26:0.252212 27:-0.01635 28:0.570921 29:0.282909 30:-0.22744 31:0.0414049 32:0.0736205 33:0.166909 34:0.229404 35:0.194749 36:-0.145855 37:0.12024 38:0.180827 39:0.176906 40:0.128441 41:0.246033 42:0.157491 43:0.198152 44:0.188568 45:0.0995116 46:0.164634 47:0.179726 48:0.125903 49:0.136147 50:0.182567 51:0.163339 52:0.127313 53:0.135114 54:0.166384 55:0.125237 56:0.125393 57:0.169349 58:0.124056 59:0.165821 
0.5 0 0:-0.368167 1:-0.0261585 2:-0.245141 3:-0.477711 4:0.274134 5:-0.269618 6:0.275448 7:-0.460023 8:-0.168266 9:0.0012304 10:0.121913 11:0.376747 12:0.321737 13:0.149967 14:-0.0542918 15:0.029694 16:0.170531 17:-0.222373 18:0.351006 19:-0.0904926 20:0.197219 21:0.156828 22:0.535087 23:0.0222653 24:-0.149066 25:-0.39824 26:0.104359 27:-0.0151154 28:0.326347 29:0.197745 30:-0.394022 31:0.111112 32:-0.0227961 33:-0.00250913 34:0.344707 35:-0.0254831 36:-0.345751 37:0.0699975 38:0.105324 39:0.118516 40:0.0457444 41:0.200583 42:0.177607 43:0.218575 44:0.192054 45:0.0913258 46:0.141137 47:0.115324 48:0.150991 49:0.116269 50:0.194429 51:0.177098 52:0.115796 53:0.166804 54:0.151891 55:0.135723 56:0.124943 57:0.137539 58:0.124513 59:0.138025 
0.5 0.3825563125724293 0:-0.371606 1:-0.081688 2:0.16631 3:-0.408456 4:0.244696 5:-0.113359 6:0.394653 7:-0.513445 8:-0.241147 9:-0.00723714 10:0.116896 11:0.362784 12:0.31185 13:-0.358454 14:-0.129932 15:-0.0537386 16:-0.0668225 17:-0.262546 18:0.299605 19:-0.10403 20:0.195865 21:0.224453 22:0.411901 23:0.0860272 24:-0.15043 25:-0.38547 26:0.374876 27:-0.109603 28:0.349428 29:0.176616 30:-0.457145 31:0.129635 32:-0.0141609 33:0.10112 34:0.271778 35:0.206553 36:-0.232018 37:0.0320188 38:0.0715476 39:0.10429 40:0.116348 41:0.19579 42:0.175744 43:0.169693 44:0.202538 45:0.0783093 46:0.1098 47:0.176256 48:0.0842729 49:0.133641 50:0.166442 51:0.117039 52:0.125969 53:0.14903 54:0.13141 55:0.12157 56:0.10641 57:0.123967 58:0.119584 59:0.12028 
0.5 0 0:-0.371047 1:-0.0856335 2:-0.0761075 3:-0.500049 4:0.417773 5:-0.0372017 6:0.100577 7:-0.600369 8:-0.114813 9:0.0765798 10:0.0785274 11:0.449068 12:0.442142 13:-0.00897359 14:-0.0269494 15:0.0205816 16:0.224031 17:-0.206077 18:0.409318 19:-0.238566 20:0.0223858 21:0.164573 22:0.493828 23:0.116613 24:-0.170994 25:-0.150609 26:0.0838331 27:0.103135 28:0.364675 29:0.34101 30:-0.307387 31:-0.0944258 32:0.0108766 33:0.182691 34:0.298478 35:0.0984305 36:-0.138282 37:0.101928 38:0.127533 39:0.163638 40:0.117757 41:0.244795 42:0.178432 43:0.230547 44:0.19376 45:0.150241 46:0.104756 47:0.182325 48:0.140828 49:0.165313 50:0.224077 51:0.188142 52:0.133575 53:0.170514 54:0.191857 55:0.14587 56:0.151822 57:0.150454 58:0.133816 59:0.154683 
0.5 0 0:-0.365718 1:-0.0494582 2:-0.156003 3:-0.571452 4:0.332556 5:-0.0899184 6:0.133745 7:-0.438237 8:-0.264064 9:0.286515 10:0.0901001 11:0.28444 12:0.485518 13:-0.0529286 14:-0.0860991 15:0.0729467 16:0.156505 17:-0.130076 18:0.359504 19:-0.234995 20:0.23457 21:0.31344 22:0.552906 23:-0.0801467 24:-0.191188 25:-0.24536 26:0.00995494 27:-0.0976351 28:0.445289 29:0.265814 30:-0.575825 31:0.0410689 32:-0.134794 33:0.225557 34:0.303068 35:-0.00706878 36:-0.271471 37:0.0405 38:0.0605731 39:0.0905012 40:0.0887917 41:0.21277 42:0.0898658 43:0.179103 44:0.12804 45:0.0449344 46:0.0585988 47:0.104161 48:0.0817591 49:0.105078 50:0.154848 51:0.121496 52:0.0699039 53:0.114132 54:0.109102 55:0.10593 56:0.113693 57:0.110458 58:0.0915408 59:0.0876898 
0.5 0 0:-0.366011 1:-0.0871256 2:0.100485 3:-0.32185 4:0.381089 5:-0.129192 6:0.151878 7:-0.418399 8:-0.252147 9:0.1154 10:0.149437 11:0.316935 12:0.153476 13:-0.058436 14:-0.184152 15:0.0485274 16:0.233832 17:-0.279776 18:0.447076 19:-0.152389 20:0.0891451 21:0.164846 22:0.624375 23:0.187142 24:-0.186899 25:-0.253334 26:0.414521 27:-0.0865343 28:0.58318 29:0.418777 30:-0.342822 31:0.0115349 32:0.0896931 33:0.223151 34:0.311383 35:0.23113 36:-0.245366 37:0.11832 38:0.174362 39:0.129338 40:0.0824331 41:0.310573 42:0.185718 43:0.238999 44:0.221529 45:0.145557 46:0.194959 47:0.245057 48:0.144318 49:0.191901 50:0.232197 51:0.201932 52:0.177467 53:0.196516 54:0.216745 55:0.183606 56:0.175106 57:0.181855 58:0.16266 59:0.163462 
0.5 0 0:-0.377481 1:-0.0977329 2:0.0825958 3:-0.47907 4:0.309986 5:-0.0936967 6:0.236519 7:-0.465269 8:-0.228827 9:0.200269 10:0.206933 11:0.284433 12:0.376084 13:-0.141721 14:-0.120718 15:0.0221757 16:0.106976 17:-0.245936 18:0.283883 19:-0.418443 20:0.243896 21:0.21016 22:0.585339 23:-0.121329 24:-0.16265 25:-0.284706 26:0.148268 27:0.00369839 28:0.36919 29:0.412825 30:-0.348194 31:0.0692127 32:0.0104698 33:0.188951 34:0.193108 35:0.229537 36:-0.324193 37:0.0936022 38:0.058423 39:0.0481709 40:0.0651009 41:0.18938 42:0.09651 43:0.170726 44:0.168341 45:0.0647935 46:0.0933346 47:0.12467 48:0.105396 49:0.132577 50:0.153114 51:0.130361 52:0.0743208 53:0.127024 54:0.112336 55:0.102047 56:0.100236 57:0.0859547 58:0.103881 59:0.108994 
0.5 0 0:-0.368606 1:-0.057255 2:0.0908107 3:-0.413607 4:0.199734 5:0.117007 6:0.230325 7:-0.466289 8:-0.17596 9:0.0522035 10:0.155681 11:0.603237 12:0.54589 13:-0.203874 14:-0.147601 15:0.180564 16:0.016892 17:-0.290498 18:0.288438 19:-0.243126 20:0.154333 21:0.0736982 22:0.536674 23:0.128653 24:-0.0830916 25:-0.0693341 26:0.18537 27:0.0631138 28:0.512397 29:0.301114 30:-0.33476 31:0.043232 32:-0.00556013 33:0.0986191 34:0.373044 35:-0.0457344 36:-0.277814 37:0.106451 38:0.112946 39:0.0715246 40:0.105533 41:0.196856 42:0.130661 43:0.209474 44:0.187032 45:0.0865195 46:0.109095 47:0.158774 48:0.138519 49:0.124721 50:0.186496 51:0.187854 52:0.13334 53:0.158193 54:0.190252 55:0.163938 56:0.137699 57:0.158657 58:0.129204 59:0.133643 
0.5 0.3969262675954779 0:-0.349234 1:-0.139614 2:0.101574 3:-0.50808 4:0.202745 5:-0.171788 6:0.248226 7:-0.287595 8:-0.262102 9:-0.0841077 10:-0.00654795 11:0.257951 12:0.156354 13:0.340473 14:-0.00871567 15:-0.127398 16:0.114145 17:-0.277483 18:0.323656 19:-0.073381 20:-0.0282668 21:0.157346 22:0.631682 23:0.289232 24:-0.127059 25:-0.132492 26:0.366517 27:-0.0672217 28:0.20813 29:0.296656 30:-0.362632 31:-0.0313863 32:-0.0342859 33:0.208965 34:0.192307 35:0.162327 36:-0.241545 37:0.109945 38:0.184007 39:0.135403 40:0.138959 41:0.271722 42:0.186244 43:0.233871 44:0.22598 45:0.105784 46:0.174186 47:0.19073 48:0.158076 49:0.16409 50:0.226492 51:0.196221 52:0.135901 53:0.193318 54:0.185583 55:0.16865 56:0.145828 57:0.156968 58:0.145323 59:0.162601 
0.5 0.4292962058419461 0:-0.357731 1:-0.0484793 2:0.00636603 3:-0.585346 4:0.18496 5:-0.0337903 6:0.155463 7:-0.581685 8:-0.236917 9:0.121462 10:-0.105127 11:0.374152 12:0.302602 13:-0.0501567 14:-0.0924344 15:-0.0961536 16:0.155093 17:-0.412958 18:0.311217 19:-0.127915 20:0.204103 21:0.054559 22:0.508178 23:0.22841 24:-0.270854 25:0.392621 26:0.27841 27:0.120263 28:0.471383 29:0.383652 30:-0.453154 31:0.0179275 32:0.0434348 33:0.043333 34:0.404632 35:0.0382063 36:-0.361234 37:0.116504 38:0.160565 39:0.10664 40:0.159292 41:0.200063 42:0.118886 43:0.128801 44:0.168299 45:0.109144 46:0.125775 47:0.174681 48:0.0771527 49:0.157552 50:0.180791 51:0.145963 52:0.120058 53:0.137937 54:0.142083 55:0.110159 56:0.117792 57:0.108799 58:0.100606 59:0.124357 
0.5 0 0:-0.375483 1:-0.0845182 2:0.0940915 3:-0.449493 4:0.499672 5:-0.0808974 6:0.180706 7:-0.424805 8:-0.180634 9:0.379734 10:-0.022308 11:0.231511 12:0.251909 13:0.0647488 14:-0.0904512 15:0.133965 16:0.15262 17:-0.187575 18:0.359835 19:-0.08687 20:0.0876205 21:0.356366 22:0.376186 23:-0.0178334 24:-0.133578 25:-0.0772462 26:0.332011 27:-0.052012 28:0.307811 29:0.247039 30:-0.377289 31:0.107285 32:0.0106633 33:0.142455 34:0.368838 35:-0.0969654 36:-0.254812 37:0.115865 38:0.109286 39:0.0723199 40:0.0814079 41:0.24687 42:0.151126 43:0.243408 44:0.173508 45:0.123495 46:0.113088 47:0.171179 48:0.117534 49:0.135202 50:0.186014 51:0.168931 52:0.117673 53:0.148566 54:0.157009 55:0.124984 56:0.128871 57:0.154604 58:0.114835 59:0.127555 
